svm_type c_svc
kernel_type polynomial
degree 1
gamma 0.0078125
coef0 0
nr_class 26
total_sv 2653
rho -2.5843 -4.46974 1.4941 -3.91541 2.41774 2.24578 -1.74888 1.58428 4.85442 -0.429751 0.885761 1.96129 0.760337 2.79614 1.20631 1.16112 0.907621 0.677791 -0.388227 0.0795549 0.647726 -0.732508 0.266395 -1.61026 -0.751598 4.956 8.64441 0.360976 1.50024 2.44585 0.034669 2.699 1.79502 4.60046 0.653446 1.2558 0.980992 2.36137 1.2298 1.50368 2.81435 1.8224 0.702708 1.0983 0.334406 -0.0984541 1.8575 0.867491 0.842001 15.0905 -2.17584 2.38645 2.73731 -1.5036 1.12862 2.65014 13.4827 -0.0157665 2.67338 1.45207 2.5519 1.83642 0.879288 -0.177581 1.89294 0.562932 0.313846 0.379145 -0.659147 1.26022 -0.88299 -0.269737 -1.57015 2.02682 0.255859 -1.70459 0.198544 1.55006 -3.80593 -1.17171 1.54955 0.415237 2.55555 0.573046 1.99222 -2.60045 0.915669 -0.403234 -0.0931127 -0.063917 -1.27288 -1.19501 -1.91539 -0.533391 2.53766 3.07854 -0.396595 1.86291 1.73423 1.55329 2.48439 2.56646 1.39638 2.95474 1.62557 1.72538 1.76126 1.80555 0.266735 1.06827 1.51335 -0.139764 1.07038 -0.0824939 0.411918 -3.97178 -2.89667 -4.8715 -2.18778 -2.89434 -3.38016 -20.2789 -3.9345 -5.69128 -3.52817 -1.86217 -1.74371 -2.77078 -2.80288 -2.93856 -2.40008 -2.33546 -2.46531 -1.28803 -3.40656 -1.53958 1.92196 0.473582 0.564528 2.43235 2.40163 1.1203 5.82689 7.83739 -0.398891 -0.829363 1.11946 -0.70325 -0.730733 0.554026 -2.05012 0.198878 -1.13915 -0.754318 0.980944 1.72513 1.15977 2.36648 2.57922 1.18867 2.82965 1.52099 0.765208 1.67922 1.87945 0.330255 3.66587 0.591507 -0.471489 0.57679 0.162129 1.59413 -0.0604156 -6.58932 -0.614318 2.88276 -3.22656 1.76849 -0.410813 -0.98685 -0.9576 -0.217874 -4.20359 -0.215951 -0.39491 -1.5912 -1.56413 -1.12454 -1.60925 -8.67878 -1.10879 2.24225 -0.885842 0.484281 0.165991 -0.622651 -1.46423 -0.850362 -1.50344 -0.869947 0.00966823 -1.0079 -0.571075 -1.43638 -2.60063 0.269204 2.86072 2.78832 5.45839 0.821003 1.17191 1.00852 2.98302 -1.48075 -0.02809 0.12737 -1.47516 2.56837 -1.36081 -3.33949 2.0978 -0.799906 2.48338 -0.262512 -0.0760172 0.649366 0.607842 -0.942199 0.601582 0.150631 -2.10991 -0.815116 -0.505904 -1.05406 -4.03123 -4.90539 -2.32109 -2.50601 -1.79376 -1.89101 -1.93905 -2.9894 -0.944541 -1.96442 -1.93132 -1.46951 -3.72049 4.56885 0.893636 -0.158456 -0.287415 -0.201585 -2.81272 -0.0789159 0.118742 -1.59761 -0.586229 -0.554249 -1.23705 -2.82503 -1.98587 -1.62355 -3.87089 -3.45552 -1.72209 -0.685282 -3.01173 -3.33137 -1.22122 -3.70186 -0.597045 -0.690352 -1.14484 -2.05313 -0.786566 0.13867 -2.67249 -1.96559 -0.760201 -1.38346 -2.67117 -0.0756801 -0.88798 -0.0953601 0.327401 -0.801794 -0.860054 -1.65733 -1.17199 0.935518 -0.813397 0.866498 0.336084 -0.587064 0.345718 -4.08153 -1.17272 -1.01276 -0.66518 0.0206957 -1.21854 -3.28314 -0.817962 -2.54222 0.22769 0.309807 -0.0373018 0.579554 -0.388889 -0.0594369 0.197406 -0.772772 0.0120148 -0.686495 -4.58524 -0.607873 -0.143881 -0.297428 -0.373219 0.706056 0.106251 0.766523 -0.753116 -1.06617 0.276876
label 14 12 0 13 3 8 6 1 17 2 4 18 11 5 19 24 21 20 25 15 7 9 16 23 22 10
probA -2.58826 -1.06741 -1.26553 -1.59017 -3.4507 -1.80958 -2.82609 -3.51425 -1.97867 -1.5072 -2.7556 -4.09831 -3.15114 -2.46539 -2.6506 -3.23716 -2.14327 -2.7756 -3.62352 -3.20597 -3.39672 -3.88497 -3.2038 -3.3554 -3.14646 -1.51429 -1.55341 -3.56259 -4.20404 -2.82524 -3.5957 -2.85784 -3.5547 -1.47657 -2.9067 -4.40429 -3.85814 -3.50304 -3.66926 -3.65082 -2.57303 -3.00578 -3.51579 -3.46774 -3.6463 -3.26972 -2.57969 -3.96105 -3.8047 -0.199431 -1.8152 -3.25873 -1.23668 -2.65409 -2.0382 -2.82604 -0.418257 -2.23972 -3.42073 -2.96647 -2.56246 -2.66743 -3.53661 -1.27935 -2.489 -3.24389 -2.37692 -3.75117 -3.44783 -1.78304 -3.33629 -2.11948 -2.44357 -2.99975 -1.56794 -2.39965 -2.28016 -2.8978 -1.03747 -2.22444 -3.60678 -3.21332 -1.82205 -2.11155 -3.13913 -0.947419 -1.61692 -3.14453 -1.93344 -3.31242 -2.66731 -1.9727 -1.70642 -2.65767 -3.96436 -2.57094 -2.49228 -3.291 -3.14036 -3.44038 -2.47683 -3.29492 -3.02051 -3.19615 -2.40111 -3.35943 -2.51181 -2.81188 -3.86389 -2.15922 -2.79873 -4.01422 -3.78445 -3.37151 -2.77044 -2.8464 -3.64826 -1.79336 -3.50107 -3.47453 -2.69655 -0.189216 -3.5522 -1.45689 -2.4098 -3.58787 -3.77264 -2.17315 -3.17646 -3.24738 -2.33269 -3.88351 -3.33997 -4.30295 -3.61117 -2.58956 -2.3975 -3.54708 -1.93188 -0.700153 -3.3988 -1.13554 -1.33179 -0.243711 -3.15662 -2.47606 -1.05069 -2.77923 -2.85401 -2.94789 -0.717009 -2.29472 -3.34942 -2.87758 -3.16599 -3.24974 -3.23305 -2.01469 -3.84277 -2.74292 -2.63936 -2.32127 -3.34527 -2.42917 -2.73333 -3.91871 -1.77959 -3.16845 -2.56241 -3.57476 -2.83605 -2.1748 -1.47895 -1.00775 -2.61417 -2.14063 -0.676089 -1.52687 -2.10459 -2.22822 -2.76512 -2.34639 -2.43123 -3.60685 -3.33448 -2.57669 -1.92986 -3.50014 -1.76585 -2.07579 -3.58893 -3.62113 -3.15428 -3.06488 -3.92093 -3.8108 -2.82489 -3.24532 -3.43492 -2.69124 -3.73304 -3.85357 -3.50223 -3.33089 -3.94869 -2.50107 -3.52366 -1.53972 -2.25715 -3.25621 -3.14089 -1.91886 -1.60144 -2.70728 -2.87844 -3.73581 -3.32826 -1.48088 -2.51227 -1.61792 -3.44686 -2.34883 -1.75119 -0.879669 -3.44788 -2.3383 -1.73136 -3.47007 -2.41555 -2.30316 -3.29317 -2.90733 -3.60108 -3.02141 -2.62235 -1.65148 -2.75558 -2.75481 -3.71334 -3.93104 -3.38894 -2.55218 -2.99663 -4.88104 -4.02189 -3.75346 -3.66419 -1.35242 -2.11351 -3.15806 -3.23083 -2.73231 -1.36972 -3.30431 -2.6801 -2.18344 -3.01421 -3.96127 -2.27511 -1.11929 -2.82855 -3.53061 -1.08439 -2.35529 -2.51516 -2.40909 -2.51778 -2.17908 -3.96425 -2.93115 -2.60169 -3.25575 -1.17676 -2.69609 -3.43865 -2.42106 -2.0155 -2.84118 -3.68769 -3.38863 -1.09502 -3.82088 -3.42616 -3.21687 -3.02996 -3.84188 -3.51259 -2.83581 -3.90237 -2.43495 -3.38095 -2.09607 -3.85574 -3.7281 -2.39491 -1.69193 -2.88329 -2.89466 -2.60311 -2.70197 -2.78048 -1.46439 -3.47603 -2.03735 -3.85193 -3.41172 -2.72887 -3.39667 -2.90893 -3.47821 -2.96373 -2.89069 -3.07722 -3.80371 -0.960086 -2.72739 -3.1708 -2.9444 -3.30594 -3.28266 -2.84132 -3.03855 -3.61368 -2.16669 -2.99474
probB -0.33905 -0.131268 -0.0425486 -0.474734 0.218568 -0.12577 -0.143973 -0.237561 -0.451871 -0.0540235 -0.196141 0.101438 -0.287629 -0.23456 -0.145573 -0.248365 -0.135841 -0.328373 -0.0950736 0.0419945 -0.461474 0.0624808 -0.226608 -0.212431 -0.118486 0.317156 0.271756 -0.235523 0.436796 -0.00992467 0.36035 -0.0894159 -0.133589 0.199481 0.0949456 0.304289 -0.291062 -0.110407 0.242286 -0.262848 -0.065755 -0.0420968 0.0417367 -0.213905 -0.183744 -0.0250952 -0.051023 0.284242 0.225638 0.117993 -0.238711 0.199324 -0.300103 -0.241336 -0.115792 -0.106017 0.0738618 -0.265831 -0.0316193 -0.193969 -0.107777 -0.0888806 -0.376894 -0.287352 -0.149268 -0.229256 -0.290407 -0.458824 0.0775976 -0.604607 -0.273802 -0.285742 -0.173456 -0.0659569 -0.163611 -0.162646 -0.0943181 0.0263726 0.0373109 -0.098998 0.451068 -0.206842 -0.106202 -0.0593766 -0.21241 0.00164615 -0.212381 -0.362606 -0.379143 -0.582888 -0.322407 -0.485272 -0.598396 -0.0914657 0.235147 0.0759326 0.263559 0.106967 -0.296146 -0.0237125 0.0720875 0.202887 0.0277846 -0.0238383 0.186259 -0.122875 0.176612 0.0575923 0.173522 -0.281686 -0.306606 0.470463 -0.221962 -0.415536 -0.292943 0.0333621 -0.0634789 0.0117169 0.104794 -0.0715156 -0.112063 0.0252983 0.577535 -0.179894 0.0739114 -0.253556 -0.255025 -0.345558 -0.0187892 0.139916 -0.706845 0.29992 -0.164555 -0.740371 -0.178746 -0.0424648 0.0448498 -0.316408 0.0571793 -0.339483 0.0340623 -0.335199 -0.210639 -0.606027 -0.160054 -0.0582814 -0.49316 -0.147621 0.00705053 -0.249816 -1.52499 -0.207194 0.249684 -0.0566595 0.147667 0.125606 0.0120272 0.0405224 -0.200024 -0.0563107 0.00535073 0.027472 -0.391125 -0.0286304 0.188034 -0.230443 0.00763519 0.0290873 -0.0264128 -0.0900322 -0.41346 0.110725 -0.0807506 0.175478 -0.0284348 -0.101942 -0.719587 -0.130982 0.121022 -0.14799 -0.113554 -0.0358052 -0.122842 -0.317769 -0.448285 -0.134814 -0.119959 -0.542652 -0.066207 0.0929914 0.167749 -0.0302244 0.170381 -0.199275 -0.131544 -0.601964 0.178862 -0.475622 0.130287 -0.0660558 -0.298222 0.202872 0.2287 0.0829229 0.343382 -0.0906679 -0.112588 -0.446405 -0.032068 -0.129157 -0.272535 -0.281961 -0.488807 -0.182061 -0.398706 -0.338965 -0.114274 -0.622004 -0.391719 -0.404852 -0.4097 -0.221151 0.0210775 -0.058472 -0.365692 -0.0339549 -0.29806 0.0973519 -0.117281 -0.786557 0.288787 -0.0749115 -0.282264 0.0236865 0.0148896 -0.237455 0.11457 -0.00677008 -0.04468 0.23081 -0.128746 0.128134 0.0131083 1.03793 0.220259 -0.314357 0.233625 0.153277 -0.135677 -0.409015 0.0647074 -0.0810143 0.194089 -0.249268 -0.444048 0.129047 0.223531 -0.156712 0.12566 -0.0269106 -0.282044 0.250038 -0.277383 -0.311098 -0.230014 -0.463238 -0.144243 -0.0976774 0.0652609 0.0744825 -0.258155 0.037363 -0.145354 -0.188718 -0.143134 -0.575279 -0.289891 0.0393257 -0.408003 0.170251 0.404463 -0.013001 -0.142568 0.0978863 -0.151936 0.485472 0.0613171 -0.468335 0.290905 -0.101745 -0.0765856 -0.0904385 0.046296 0.217104 -0.206881 -0.708716 0.0622778 0.19098 -0.0253426 -0.435544 -0.0576732 -0.0817838 -0.306945 0.127236 -0.0164062 -0.318779 0.33686 -0.2548 -0.27736 0.317127 -0.0761482 -0.122628 -0.0109582 0.288708 0.186071 0.247297 0.020408 -0.127293 0.0876428 -0.539335 -0.455152 -0.127089 -0.291016 0.144612 0.312565
nr_sv 187 83 195 196 69 154 162 61 145 123 231 84 148 55 113 83 56 134 63 94 52 11 15 47 12 80
SV
0 0 0 0.9002745671993854 0 0 0 0 0 0 0 0 0 0 0 0 0 0 0 0 0 0 0 0 0 26:1 27:1 28:1 34:1 35:1 36:1 37:1 38:1 42:1 46:1 47:1 49:1 50:1 55:1 56:1 57:1 64:1 65:1 72:1 73:1 80:1 81:1 87:1 88:1 89:1 93:1 94:1 95:1 97:1 98:1 99:1 100:1 101:1 
0 0 0 0 0 0 0 0 7.194347443168827 0 0 0 0 0 0 0 0 0 0 0 0 0 0 0 0 35:1 36:1 37:1 38:1 42:1 43:1 44:1 46:1 47:1 48:1 49:1 50:1 56:1 57:1 64:1 65:1 72:1 73:1 80:1 81:1 87:1 88:1 89:1 90:1 91:1 92:1 93:1 94:1 
1.205027500756014 0 0 0 0 0 0 0 0 0 0 0 0 0 0 0 0 0 0 0 0 0 0 0 0 34:1 35:1 41:1 42:1 43:1 44:1 45:1 46:1 47:1 49:1 55:1 56:1 57:1 64:1 65:1 72:1 73:1 80:1 81:1 87:1 88:1 89:1 90:1 91:1 92:1 93:1 94:1 95:1 
0 0 0 0 0 0 0 0 0 0 0 0 0 0 0 0 0 0 3.597087582165731 0 0 0 0 0 0 25:1 26:1 27:1 28:1 29:1 30:1 31:1 33:1 34:1 35:1 39:1 40:1 41:1 42:1 48:1 49:1 56:1 57:1 64:1 65:1 72:1 73:1 80:1 81:1 88:1 89:1 90:1 91:1 93:1 94:1 95:1 96:1 99:1 100:1 101:1 
1.776941261950408 0 0 0 0 0 0 0 0 104.7787064681278 0 0.8562236740563105 0 0 0 2.873731045317113 0 0 0 0 0 0 0 8.876548552246428 0 36:1 37:1 38:1 39:1 40:1 42:1 43:1 47:1 48:1 49:1 50:1 56:1 57:1 63:1 64:1 65:1 71:1 73:1 77:1 78:1 81:1 84:1 85:1 89:1 90:1 91:1 92:1 
0 90.81972335372714 5.730456856341985 0 0 6.523879163379879 2.5568236836104 5.420917576843383 0 49.01581781933879 0 0 2.893934287744917 0 11.58398937596462 0 0 4.038867688256848 14.76736481053383 0 0 0 0 0 6.978998355813146 20:1 21:1 22:1 23:1 24:1 27:1 28:1 29:1 32:1 34:1 35:1 36:1 40:1 43:1 44:1 48:1 51:1 56:1 59:1 63:1 64:1 66:1 67:1 71:1 74:1 78:1 82:1 85:1 86:1 89:1 90:1 92:1 93:1 97:1 99:1 100:1 105:1 106:1 107:1 
3.063993231824226 24.43500033874424 0 0 0.3801373140952171 0 0 0.7258996261209223 29.10793955026796 0 7.362296849042439 0 0 0 0 0 0 0 0 0 0 0 0 0 0 19:1 20:1 21:1 23:1 26:1 27:1 29:1 31:1 34:1 37:1 38:1 39:1 41:1 42:1 46:1 47:1 48:1 49:1 55:1 57:1 63:1 65:1 71:1 73:1 78:1 79:1 81:1 85:1 89:1 92:1 97:1 98:1 99:1 100:1 106:1 
0 0 0 0 0 0 0 0 0 0 0 0 0 0 0 0 0 0 0 0 0 0 0 0.3436512269742397 0 29:1 33:1 34:1 35:1 37:1 38:1 41:1 46:1 47:1 49:1 55:1 56:1 57:1 64:1 65:1 72:1 73:1 80:1 81:1 82:1 88:1 90:1 91:1 92:1 96:1 100:1 101:1 102:1 103:1 104:1 
0 0 0 0 0 0 0 0 0 0 0 0 0 0 0 0 0 0 3.970528754338894 0 0 0 0 0 0 17:1 18:1 19:1 20:1 21:1 22:1 25:1 26:1 27:1 28:1 29:1 30:1 31:1 33:1 34:1 37:1 39:1 41:1 47:1 48:1 49:1 56:1 57:1 64:1 65:1 72:1 73:1 80:1 81:1 88:1 89:1 90:1 95:1 96:1 98:1 99:1 101:1 102:1 103:1 107:1 108:1 109:1 
0 0 0 0 0 0 3.53881492528891 0 0 0 0 0 0 0 0 0 0 0 0 0 0 0 0 1.501853721751268 0 2:1 3:1 4:1 5:1 6:1 10:1 12:1 14:1 15:1 19:1 20:1 23:1 24:1 26:1 27:1 32:1 34:1 40:1 41:1 42:1 48:1 49:1 56:1 57:1 64:1 65:1 72:1 73:1 80:1 81:1 88:1 89:1 95:1 96:1 97:1 103:1 105:1 110:1 111:1 113:1 117:1 118:1 121:1 122:1 123:1 124:1 125:1 
0 0 0 0 0 12.36768673466914 0 0 0 0 6.884786347351366 0 0 0 0 0 0 0 0 0 0 0 0 0 0 20:1 21:1 22:1 26:1 27:1 28:1 29:1 30:1 31:1 33:1 34:1 37:1 38:1 39:1 41:1 46:1 47:1 49:1 54:1 55:1 56:1 57:1 64:1 65:1 72:1 73:1 80:1 81:1 88:1 90:1 95:1 96:1 98:1 99:1 100:1 101:1 102:1 103:1 109:1 110:1 
0 0 0 24.18107317125158 0 0 0 0 0 0 0 0 0 0 3.903786137705342 0 0 0.6086707422140526 2.010210700210605 0 0 0.31195400856017 0 0 0 11:1 12:1 13:1 14:1 22:1 23:1 31:1 32:1 40:1 45:1 46:1 48:1 52:1 53:1 56:1 59:1 60:1 64:1 67:1 72:1 74:1 75:1 79:1 80:1 82:1 86:1 87:1 89:1 90:1 94:1 97:1 101:1 102:1 105:1 107:1 108:1 109:1 113:1 114:1 115:1 
0 43.5214577558114 12.3110310579695 6.481783295086539 0 55.4383232714726 0 0 0 0 0 0 0 0 0 0 0 0 0 0 0 0 0 0 0 3:1 4:1 5:1 6:1 11:1 15:1 19:1 23:1 24:1 27:1 32:1 34:1 35:1 40:1 42:1 48:1 50:1 56:1 57:1 58:1 64:1 65:1 72:1 73:1 80:1 81:1 88:1 89:1 96:1 97:1 104:1 105:1 112:1 113:1 114:1 119:1 120:1 122:1 123:1 124:1 125:1 126:1 127:1 
0 0 0 0 0 1.945037852064739 0 0 0 0 0 0 0 0 0 0 0 0 0 0 0 0 0 0 0 11:1 12:1 18:1 19:1 20:1 21:1 26:1 29:1 30:1 31:1 34:1 39:1 40:1 41:1 48:1 49:1 56:1 57:1 64:1 65:1 72:1 73:1 80:1 81:1 88:1 89:1 95:1 96:1 97:1 103:1 105:1 109:1 110:1 111:1 113:1 114:1 115:1 116:1 117:1 
0 0 0 0 0 0 0 0 0 0 0 5.790695964838309 0 0 0 8.410537044961265 0 0 0 0 0 0 0 1.176741137998925 0 34:1 35:1 36:1 40:1 41:1 42:1 48:1 49:1 56:1 57:1 64:1 65:1 72:1 73:1 79:1 80:1 81:1 82:1 86:1 87:1 90:1 91:1 92:1 93:1 94:1 
0 0 0 0 0 0 0 0 0 0 0 0 0 0 0 0 53.94241267362732 0 0 0 0 0 0 0 0 26:1 27:1 33:1 34:1 41:1 46:1 47:1 49:1 55:1 56:1 57:1 64:1 65:1 72:1 73:1 80:1 81:1 87:1 88:1 89:1 90:1 94:1 95:1 99:1 100:1 101:1 102:1 
12.52632063668099 0 0 0 0 0 0 0 0 0 2.558168096719405 0 0 0 0 0 0 0 0 0 0 0 0 0 0 11:1 18:1 19:1 20:1 26:1 28:1 29:1 30:1 34:1 38:1 39:1 41:1 42:1 47:1 49:1 55:1 56:1 57:1 64:1 65:1 72:1 73:1 80:1 81:1 88:1 89:1 95:1 96:1 97:1 101:1 102:1 103:1 105:1 108:1 109:1 113:1 114:1 115:1 
0 10.07849716563977 0 0 0 0 0 0 0 0 0 0 0 0 0 0 0 0 0 0 0 0 0 0 0 3:1 4:1 5:1 13:1 14:1 15:1 16:1 21:1 22:1 24:1 28:1 29:1 30:1 32:1 35:1 36:1 40:1 42:1 43:1 48:1 50:1 56:1 58:1 64:1 65:1 66:1 72:1 73:1 79:1 80:1 81:1 87:1 89:1 95:1 97:1 102:1 103:1 105:1 110:1 113:1 117:1 118:1 121:1 122:1 123:1 124:1 125:1 
0 104.7041419171915 199.970225710618 0 0 0 0 3.087160023185354 69.7947493313502 13.08369188797494 0 0 0 0 11.50698979416936 0 0 0 0 0 0 0 0 0 0 35:1 36:1 37:1 38:1 39:1 43:1 46:1 47:1 48:1 50:1 56:1 57:1 63:1 64:1 65:1 71:1 73:1 78:1 79:1 81:1 85:1 86:1 89:1 90:1 91:1 92:1 
0 0 0 0 0 0 0 0 0 97.99403130994806 0 0 0 0 0 0 0 0 0 0 0 0 0 0 0 28:1 29:1 30:1 31:1 35:1 36:1 39:1 40:1 42:1 43:1 44:1 45:1 48:1 50:1 53:1 56:1 57:1 58:1 64:1 65:1 71:1 72:1 73:1 78:1 79:1 81:1 85:1 86:1 89:1 91:1 92:1 93:1 97:1 98:1 99:1 
0 0 12.93661546404289 0 0 0 0 0 0 2.440765587797267 0 0 0.3460238988258135 0 0 0 0 0 0 0 0 0 0 0 0 12:1 13:1 14:1 15:1 16:1 20:1 24:1 27:1 28:1 32:1 35:1 43:1 44:1 45:1 46:1 47:1 48:1 51:1 56:1 57:1 58:1 59:1 64:1 65:1 72:1 73:1 80:1 81:1 88:1 89:1 95:1 96:1 97:1 100:1 101:1 102:1 103:1 105:1 108:1 113:1 114:1 115:1 116:1 
0 0 0 0 0 0 0 0 0 0 0 0 0 0 0 0 0 0 0 0 0 0.4279838676577808 0 0 0 19:1 20:1 21:1 22:1 23:1 27:1 31:1 35:1 36:1 39:1 40:1 43:1 44:1 48:1 50:1 51:1 56:1 58:1 64:1 65:1 66:1 72:1 73:1 80:1 81:1 87:1 89:1 94:1 95:1 97:1 100:1 101:1 102:1 105:1 106:1 107:1 108:1 
1.099947595773322 28.21155452336632 0 4.84358774956026 0 0 0 0 0 0 0 0 0 0 0 0 0 0 0 0 0 0 0 0 0 18:1 19:1 26:1 29:1 34:1 37:1 38:1 41:1 42:1 46:1 47:1 49:1 55:1 57:1 63:1 64:1 65:1 72:1 73:1 80:1 81:1 82:1 88:1 90:1 91:1 96:1 99:1 100:1 104:1 108:1 109:1 110:1 111:1 112:1 
0 0 55.89967663256798 0 0 0 0 0 0 0 0 0 0 0 0 0 0 0 0 0 0 1.871086514839733 0 0 0 30:1 38:1 39:1 44:1 45:1 47:1 48:1 51:1 52:1 56:1 58:1 59:1 64:1 65:1 66:1 72:1 73:1 80:1 81:1 88:1 89:1 90:1 95:1 96:1 98:1 99:1 100:1 101:1 102:1 103:1 
0 0 0 0 0 0 0 0 0 0 0 4.470835557295453 0 0 0 0 5.336211018368816 0 0 0 3.397673613783041 0 0 0 0 26:1 27:1 28:1 36:1 37:1 38:1 39:1 47:1 48:1 56:1 57:1 64:1 65:1 72:1 73:1 79:1 80:1 81:1 85:1 86:1 87:1 89:1 90:1 91:1 92:1 93:1 98:1 99:1 
0 0 30.02858967934516 0 0 0 2.583619188242917 0 4.860566366673335 0 0 0 0 0 0 0 0 0 5.353335078604873 0 0 0 0 0 0 20:1 21:1 22:1 26:1 27:1 28:1 30:1 31:1 32:1 33:1 40:1 41:1 48:1 49:1 56:1 57:1 64:1 65:1 72:1 73:1 79:1 81:1 86:1 89:1 93:1 97:1 98:1 99:1 100:1 106:1 107:1 
0 0 0 0 0 0 0 0 0 0 0 0 0 0 2.133234205370276 0 4.755061365878911 0 0 0 0 0 0 0 0 27:1 28:1 29:1 37:1 38:1 41:1 46:1 47:1 49:1 55:1 56:1 57:1 64:1 65:1 72:1 73:1 80:1 81:1 87:1 88:1 90:1 91:1 95:1 99:1 100:1 101:1 102:1 103:1 
0 0 0 0 0 0 0 0 0 0 0 0 0 0 0 0 5.325890204835815 0 0 0 0 0 0 0 0 12:1 13:1 21:1 22:1 25:1 26:1 30:1 33:1 38:1 39:1 41:1 47:1 49:1 55:1 56:1 57:1 64:1 65:1 72:1 73:1 80:1 81:1 88:1 89:1 90:1 96:1 98:1 103:1 104:1 106:1 107:1 111:1 116:1 117:1 118:1 119:1 
2.070911685678237 86.94272193877725 0.9373530921054691 0 6.960473404254889 31.50810248384931 5.35479443784488 0 0 0 0.3764334338786272 0 0 0 0 2.923631672087818 18.71857582004312 0 2.848722267209532 7.304167204841826 2.930629886094477 0 0 0 0 2:1 3:1 4:1 5:1 6:1 9:1 10:1 14:1 15:1 17:1 23:1 25:1 31:1 33:1 39:1 41:1 47:1 49:1 55:1 57:1 63:1 65:1 71:1 72:1 73:1 80:1 81:1 88:1 89:1 96:1 97:1 98:1 103:1 104:1 107:1 111:1 116:1 118:1 119:1 125:1 126:1 
0 0 0 0 0 0 0 0 0 0 0 0 0 0 0 15.6973904083555 84.07895818594831 0 0 0 0 0 0 12.02777740207721 0 33:1 34:1 35:1 36:1 40:1 41:1 48:1 49:1 56:1 57:1 64:1 65:1 72:1 73:1 74:1 80:1 82:1 83:1 87:1 88:1 91:1 92:1 93:1 94:1 95:1 
0 0 24.05424018937963 0 0 0 0 0.02099757302786496 0 0 0 0 0 0 0 19.58904620430127 64.58299070274603 0 0 0.07052580892475677 0 0 0 0 0 24:1 32:1 40:1 48:1 50:1 51:1 52:1 56:1 58:1 64:1 65:1 66:1 72:1 73:1 80:1 81:1 88:1 89:1 96:1 97:1 103:1 104:1 106:1 107:1 108:1 109:1 110:1 111:1 
0 0 0 0 0 0 0 0.6608742550944637 0 0 0 0 0 0 0 0 0 0 0 0 0 0 0 0 0 27:1 28:1 29:1 30:1 31:1 35:1 39:1 40:1 42:1 43:1 48:1 50:1 51:1 56:1 58:1 64:1 65:1 66:1 72:1 73:1 80:1 81:1 88:1 89:1 90:1 91:1 95:1 96:1 99:1 100:1 101:1 102:1 103:1 
0 0 0 0 0 0 3.540673607346976 0 0 0 0 0 0 0 0 0 0 0 0 0 0 0 0 0 0 19:1 20:1 21:1 22:1 27:1 28:1 29:1 30:1 31:1 32:1 34:1 35:1 40:1 42:1 48:1 50:1 56:1 57:1 58:1 64:1 65:1 71:1 72:1 73:1 78:1 79:1 81:1 86:1 89:1 93:1 94:1 97:1 100:1 101:1 105:1 106:1 107:1 108:1 
0 16.93493915391267 0 0 0 0 0 0 0 0 0 0 0 0 0 0 0 0 0 0 0 0 0 0 0 1:1 2:1 3:1 11:1 19:1 20:1 28:1 29:1 35:1 36:1 37:1 38:1 42:1 43:1 46:1 47:1 50:1 55:1 56:1 57:1 58:1 64:1 65:1 72:1 73:1 80:1 81:1 88:1 89:1 96:1 97:1 104:1 105:1 106:1 112:1 114:1 120:1 122:1 123:1 124:1 125:1 126:1 127:1 
0 0 45.40521801745044 0 0 0 0 0 0 1.141676531105378 0 0 0 0 0 0 0 0 0 0 0 13.39439031850223 3.116574342561243 0 0 36:1 37:1 38:1 39:1 40:1 43:1 44:1 48:1 51:1 52:1 56:1 58:1 59:1 64:1 65:1 66:1 71:1 72:1 73:1 78:1 79:1 81:1 83:1 84:1 85:1 86:1 89:1 90:1 91:1 
0 0 0 0 0 0 0 0 0 0 0 0 0 0 0 0 1.530825441376084 0 0 0 0 0 0 0 0 35:1 36:1 37:1 41:1 42:1 45:1 46:1 49:1 54:1 55:1 57:1 63:1 64:1 65:1 72:1 73:1 80:1 81:1 88:1 90:1 91:1 92:1 93:1 94:1 95:1 96:1 
0 0 0 0 0 0 0 0 0 0 0 0 0 0 0.873390243316983 0 0 0 0 0 0 0 0 0 0 28:1 29:1 33:1 34:1 35:1 36:1 37:1 38:1 39:1 40:1 41:1 47:1 48:1 49:1 56:1 57:1 64:1 65:1 72:1 73:1 80:1 81:1 88:1 89:1 90:1 95:1 96:1 98:1 99:1 100:1 101:1 102:1 103:1 
0 0 0 0.1518066443566314 1.701729993319521 28.3444298961029 4.952466511844771 0 6.02576163272369 0 0 1.312879829652965 0 0 17.13114263512504 0 0 0 0 0 0 0 0 0 0 11:1 12:1 18:1 19:1 20:1 21:1 25:1 26:1 29:1 30:1 33:1 38:1 41:1 46:1 47:1 49:1 55:1 57:1 64:1 65:1 72:1 73:1 80:1 81:1 88:1 89:1 96:1 97:1 98:1 104:1 106:1 111:1 112:1 114:1 115:1 116:1 117:1 118:1 119:1 
0 0 0 0 0 0 0 0 6.751411358963795 52.56547780861897 0 0.4462447926629292 9.062820653951395 0 0 0 15.9745107463317 0 0 0 0 0 0 0 0 20:1 21:1 22:1 23:1 28:1 31:1 32:1 34:1 35:1 36:1 40:1 41:1 42:1 48:1 49:1 56:1 57:1 63:1 64:1 65:1 71:1 73:1 78:1 79:1 81:1 86:1 89:1 90:1 93:1 94:1 98:1 99:1 100:1 101:1 107:1 108:1 
0 0 0 4.50445838136926 0 14.14020886786481 0 6.421543442386854 0 0 5.826948443020887 0 2.386354629974579 1.261411234517001 37.19704045737392 7.866768926405002 0 0 4.965863681520839 1.897980821198129 0 2.662104431223405 5.072781266480726 0 12.21001141650716 15:1 23:1 31:1 39:1 40:1 44:1 45:1 46:1 48:1 52:1 56:1 60:1 64:1 67:1 68:1 72:1 74:1 75:1 79:1 80:1 81:1 82:1 87:1 89:1 94:1 95:1 97:1 101:1 102:1 105:1 106:1 108:1 109:1 114:1 115:1 116:1 
0 0 0 0 0 0 0 0 83.17616263398381 8.004022177306183 0 0 0 0 0 0 0 0 0 0 0 0 0 0 0 27:1 28:1 29:1 30:1 31:1 32:1 35:1 36:1 40:1 42:1 43:1 48:1 49:1 50:1 56:1 57:1 64:1 65:1 72:1 73:1 80:1 81:1 88:1 89:1 90:1 95:1 96:1 98:1 99:1 100:1 101:1 102:1 103:1 
3.49488993420962 0 0 7.449675018429732 0 8.725816807381488 0 0 0 0 0 4.76288503010931 0 0 0 0 0 0 0 0 0 0 0 0 0 4:1 5:1 13:1 21:1 22:1 30:1 34:1 38:1 39:1 41:1 42:1 47:1 48:1 49:1 56:1 57:1 64:1 65:1 72:1 73:1 80:1 81:1 88:1 89:1 96:1 97:1 104:1 106:1 112:1 114:1 115:1 116:1 119:1 120:1 124:1 125:1 126:1 127:1 
161.2857426510495 332.7773326891448 439.4274148961808 0 19.5661940535255 49.12532218599324 14.26216420230666 47.5352795262665 87.69518396454652 429.1808755891752 36.71378424599038 13.18054319441989 42.70876407991543 64.51859290386552 0 17.19729226294317 80.98832544864797 20.28081602997509 64.75077791248212 11.78974850953131 0 0 30.17050525985869 20.75111878247624 17.95998388926093 49:1 50:1 51:1 57:1 58:1 59:1 60:1 61:1 65:1 67:1 69:1 70:1 71:1 72:1 73:1 74:1 75:1 
0 0 39.88401508719333 0 0 11.63259566612944 0 0 0 0 0 0 0 0 0 0 0 0 0 0 0 0 0 0 0 15:1 22:1 23:1 24:1 30:1 32:1 35:1 36:1 37:1 38:1 40:1 42:1 43:1 44:1 45:1 46:1 48:1 49:1 50:1 56:1 57:1 64:1 65:1 72:1 73:1 80:1 81:1 87:1 88:1 89:1 95:1 97:1 102:1 103:1 105:1 109:1 110:1 113:1 114:1 115:1 116:1 117:1 
0 0 0 0 0 64.05813156636498 0 0 0 0 10.5116561537474 0 0 4.457337432320416 32.02488258731767 0 0 2.661468591895837 0 0 2.292064182206103 1.379997151937752 1.873099305847732 0 0.2512235643305892 33:1 34:1 35:1 36:1 37:1 45:1 46:1 47:1 51:1 55:1 56:1 59:1 64:1 67:1 72:1 75:1 80:1 83:1 84:1 86:1 87:1 88:1 92:1 93:1 94:1 
0 0 0 0 0 0 0 0 3.042934785822465 0 0 0 0 0 0 0 0 0 11.08056746693038 0 0 0 0 0 0 43:1 44:1 45:1 46:1 47:1 48:1 50:1 51:1 54:1 56:1 57:1 64:1 65:1 70:1 71:1 72:1 73:1 74:1 76:1 77:1 78:1 82:1 83:1 84:1 
0 48.63363268970052 17.1389855664424 7.914240370338676 7.617266108179027 48.78937379577565 8.819041624349333 24.53805432280281 27.62378334555105 41.93802551337264 6.426585121806774 6.703538586579885 18.48276376308867 11.90198338298801 9.538729955757992 9.054988831118811 11.89995813231529 13.52267858144466 8.099695916768782 12.29490000426955 3.675383804049221 0.2928597552836967 1.418304280916031 0 17.08122203074455 4:1 5:1 6:1 7:1 8:1 11:1 12:1 19:1 24:1 27:1 32:1 34:1 35:1 39:1 40:1 42:1 47:1 50:1 55:1 58:1 62:1 66:1 70:1 74:1 77:1 78:1 82:1 85:1 89:1 90:1 92:1 93:1 97:1 100:1 105:1 107:1 108:1 113:1 115:1 121:1 122:1 123:1 
0 0 0 0 0 0 0 4.502654611096218 0 0 0 0 0 0 0 0 0 0 0 0 0 0 0 0 0 35:1 36:1 37:1 41:1 42:1 43:1 45:1 46:1 47:1 48:1 49:1 56:1 57:1 64:1 65:1 72:1 73:1 80:1 81:1 86:1 87:1 88:1 89:1 90:1 91:1 92:1 93:1 94:1 
0 0 6.479135415550729 0 0 0 0 3.172990456206965 0 0 0 0 0 0 0 3.264487148096192 0 0 0 0 0 0 0 0 0 5:1 6:1 7:1 8:1 11:1 12:1 13:1 16:1 18:1 19:1 24:1 25:1 32:1 33:1 40:1 42:1 48:1 50:1 56:1 57:1 58:1 64:1 65:1 72:1 73:1 79:1 80:1 81:1 86:1 87:1 89:1 93:1 94:1 97:1 100:1 101:1 105:1 107:1 108:1 113:1 114:1 121:1 
4.424885480862341 0 102.4908019591131 0.9653283349983069 0 25.74883033846958 0 0 0 0 0 0 0 0 7.904291298359988 0 0 0 0 0 0 0 0 0 0 8:1 15:1 22:1 29:1 36:1 37:1 38:1 39:1 40:1 43:1 44:1 48:1 51:1 56:1 59:1 64:1 66:1 72:1 74:1 80:1 81:1 88:1 89:1 96:1 97:1 103:1 104:1 105:1 110:1 111:1 113:1 117:1 118:1 121:1 122:1 123:1 124:1 125:1 
5.378713050253159 347.2497141747764 102.3957816048679 0 0 96.26277698266669 0 9.137152289835965 0 0 28.09806771307354 4.072175552000333 2.264495318012365 20.15313467136546 0 0 0 0 0 8.491556336673586 0.100591198155078 7.918700628451186 4.078613574252421 1.868403485999475 9.982541429399429 35:1 43:1 51:1 59:1 65:1 66:1 67:1 68:1 69:1 70:1 71:1 72:1 73:1 80:1 81:1 87:1 88:1 89:1 90:1 91:1 92:1 93:1 94:1 95:1 
0 0 148.3608894191005 0 32.47915760148143 26.1703986236487 1.44036192723675 10.20757485080305 0 0 8.751882027401445 44.42985324823025 0 26.01864269064117 5.477493042655837 4.621665334683874 0 0 0 4.299924039288783 0 1.461785662139233 7.387332602317852 4.364301770765608 0.4421521528063758 51:1 52:1 56:1 58:1 59:1 64:1 66:1 71:1 72:1 73:1 74:1 75:1 76:1 77:1 78:1 79:1 
0 0 0 33.9987462824425 0 0 0 0 90.47669188605015 0 0 0 0 0 0 3.170592258517113 42.43453366188722 0 0 0 0 0 0 0 0 26:1 29:1 30:1 31:1 32:1 33:1 34:1 40:1 41:1 48:1 49:1 56:1 57:1 64:1 65:1 72:1 73:1 79:1 80:1 81:1 86:1 87:1 89:1 93:1 94:1 97:1 98:1 99:1 100:1 101:1 
0 0 0 0 0 0.5597247950990647 0 0 0 0 0 0 0 0 0 0 0 0 0 0 0 0 0 0 0 26:1 27:1 28:1 29:1 30:1 34:1 35:1 38:1 39:1 41:1 42:1 47:1 48:1 49:1 56:1 57:1 64:1 65:1 72:1 73:1 80:1 81:1 88:1 89:1 90:1 95:1 96:1 98:1 99:1 100:1 101:1 102:1 103:1 
0 0 0 0 0 0 6.028772568794771 0 0 0 0 0 0 0 0 0 0 0 0 0 0 0 0 0 0 18:1 19:1 20:1 21:1 22:1 25:1 26:1 30:1 31:1 33:1 39:1 40:1 41:1 42:1 48:1 49:1 50:1 56:1 57:1 64:1 65:1 72:1 73:1 80:1 81:1 87:1 88:1 89:1 95:1 97:1 101:1 102:1 103:1 105:1 106:1 107:1 108:1 109:1 
0 0 0 0 0 0 0 0 0 0 0 0 0 0 0 5.629949741780462 0 0 0 0 0 0 0 0 0 19:1 20:1 22:1 23:1 24:1 27:1 32:1 34:1 35:1 40:1 42:1 48:1 49:1 50:1 56:1 57:1 64:1 65:1 72:1 73:1 79:1 81:1 87:1 89:1 92:1 93:1 94:1 95:1 97:1 100:1 106:1 107:1 108:1 
0 0 0 0 0 0 0 0 0 0 0 0 0 0 2.931685025496858 0 0 0 0 0 0 0 0 0 0 21:1 22:1 23:1 24:1 28:1 29:1 32:1 35:1 36:1 40:1 43:1 48:1 56:1 58:1 64:1 65:1 71:1 72:1 73:1 78:1 79:1 81:1 85:1 86:1 89:1 92:1 93:1 97:1 98:1 99:1 100:1 106:1 107:1 
0 0 0 0 0 0 0 0 36.30713615197089 0 0 0 0 0 0 0 0 0 0 0 0 0 0 0 0 29:1 30:1 31:1 36:1 37:1 39:1 40:1 43:1 44:1 48:1 50:1 56:1 57:1 58:1 64:1 65:1 71:1 72:1 73:1 78:1 79:1 81:1 85:1 86:1 89:1 90:1 91:1 93:1 99:1 100:1 
0 0 0 0 0 0 0 0 0 35.42073509693667 0 0 0 0 0 0 0 0 0 0 0 0 0 0 0 27:1 28:1 29:1 30:1 31:1 32:1 35:1 40:1 42:1 43:1 48:1 49:1 50:1 56:1 57:1 64:1 65:1 71:1 72:1 73:1 79:1 81:1 86:1 87:1 89:1 93:1 94:1 97:1 98:1 99:1 100:1 101:1 
0 0 0 0 0 0 0 0 0 9.451220057932067 0 0 1.419316656526227 0 0 0 17.83328817388582 0 0 0 0 0 0 0.8970343605227911 0 4:1 5:1 11:1 12:1 13:1 14:1 15:1 16:1 18:1 19:1 20:1 24:1 26:1 32:1 34:1 40:1 41:1 48:1 49:1 55:1 56:1 57:1 63:1 65:1 71:1 73:1 79:1 81:1 86:1 87:1 89:1 94:1 97:1 101:1 102:1 105:1 109:1 113:1 116:1 117:1 121:1 122:1 123:1 124:1 
0 104.709121961951 104.5393628677286 0 0 0 0 0 0 0 3.790859846043966 0 0 0 0 0 0 0 0 1.989504418920392 0 0 0 0 0 18:1 19:1 27:1 28:1 33:1 34:1 36:1 37:1 38:1 41:1 46:1 47:1 49:1 55:1 57:1 63:1 64:1 65:1 72:1 73:1 80:1 81:1 88:1 89:1 96:1 97:1 98:1 103:1 104:1 106:1 107:1 108:1 109:1 110:1 111:1 
0 0 0 20.85150697218568 0 0 0 0 0 0 0 0 3.501452878971969 0 0 0 0 0 5.979198730503589 0 0 0 0 0 0 20:1 21:1 22:1 23:1 24:1 26:1 27:1 28:1 32:1 33:1 34:1 35:1 40:1 41:1 42:1 48:1 49:1 56:1 57:1 64:1 65:1 72:1 73:1 79:1 80:1 81:1 86:1 87:1 89:1 93:1 94:1 97:1 98:1 100:1 101:1 106:1 107:1 108:1 
0 111.8693676308668 0 0 0 0 0 0 62.04560484436018 0 0 0 0 0 0 0 0 0 0 0 0 0 0 0 0 36:1 37:1 38:1 42:1 43:1 44:1 46:1 47:1 49:1 50:1 55:1 57:1 64:1 65:1 72:1 73:1 79:1 80:1 81:1 82:1 87:1 90:1 91:1 92:1 93:1 94:1 95:1 
0 0 0 26.00338949399182 0 0 0 0 0 0 0 0 0 0 0 0 0 0 0 0 0 0 0 0 0 26:1 27:1 34:1 35:1 36:1 37:1 38:1 41:1 42:1 46:1 47:1 49:1 55:1 56:1 57:1 64:1 65:1 72:1 73:1 80:1 81:1 87:1 88:1 89:1 94:1 95:1 97:1 98:1 99:1 100:1 101:1 102:1 
0 0 0 0 0 0 0 0 0 0 0 0 0 0 0 0 0 0 0 5.660610176451181 0 0 0 0 0 17:1 18:1 19:1 20:1 21:1 25:1 26:1 29:1 34:1 35:1 37:1 38:1 42:1 46:1 49:1 54:1 55:1 57:1 63:1 64:1 65:1 72:1 73:1 80:1 81:1 82:1 88:1 90:1 96:1 98:1 104:1 106:1 107:1 108:1 109:1 110:1 111:1 112:1 
0 0 0 0 0 0 0 0 0 0 0 0 0 0 8.001483103896444 0 0 0 0 0 0 0 0 0 0 20:1 21:1 22:1 23:1 24:1 28:1 29:1 32:1 36:1 37:1 40:1 43:1 44:1 48:1 51:1 56:1 58:1 59:1 63:1 64:1 66:1 71:1 73:1 74:1 78:1 81:1 85:1 86:1 89:1 92:1 93:1 97:1 98:1 99:1 100:1 105:1 106:1 
0 0 0 0 0 0 0 0 9.443878686790088 0 0 0 0 0 0 0 0 0 0 0 0 0 0 0 0 43:1 44:1 45:1 46:1 47:1 48:1 50:1 51:1 56:1 57:1 58:1 64:1 65:1 71:1 72:1 73:1 74:1 78:1 79:1 82:1 83:1 84:1 85:1 86:1 
0 0 0 0 0 10.56383503830775 0 0 3.046901773121827 0 0 0 0 0 0 0 0 0 0 0 0 0 0 0 0 28:1 29:1 34:1 35:1 36:1 37:1 41:1 42:1 44:1 45:1 46:1 49:1 54:1 55:1 56:1 57:1 64:1 65:1 72:1 73:1 80:1 81:1 88:1 89:1 90:1 96:1 98:1 99:1 100:1 101:1 102:1 103:1 104:1 
0 0 0 0 7.113108751612211 0 0 0 0 0 0 0 0 0 0 0 0 0 0 0 0 0 0 0 0 43:1 44:1 45:1 46:1 47:1 48:1 50:1 51:1 54:1 56:1 57:1 58:1 64:1 65:1 72:1 73:1 77:1 78:1 79:1 80:1 81:1 82:1 83:1 84:1 85:1 
0 0 0 0 0 0 0 0 0 0 0 0 0 0 0 0 0 4.487701187449106 0 2.132742820755829 0 0 0 0 0 20:1 26:1 27:1 28:1 29:1 33:1 34:1 35:1 37:1 38:1 41:1 46:1 49:1 54:1 55:1 57:1 63:1 64:1 65:1 72:1 73:1 80:1 81:1 82:1 88:1 90:1 96:1 98:1 99:1 100:1 102:1 103:1 104:1 108:1 109:1 110:1 
0 0 53.62382493853566 0 0 0 0 0.09720725828880337 0 0 0 0 0 0 0 3.2924789514624 14.50868489922604 0 0 0 0 0 0 3.698399083998415 0 20:1 21:1 22:1 23:1 24:1 25:1 26:1 27:1 32:1 33:1 34:1 40:1 41:1 48:1 49:1 56:1 57:1 64:1 65:1 72:1 73:1 80:1 81:1 88:1 89:1 96:1 97:1 98:1 102:1 103:1 107:1 108:1 109:1 
0 0 125.7516093207548 0 5.184465451430545 0 0 0 0 0 0 8.416374500785286 2.818679686228367 0 0 0 0 0 0 0 0 0 0 0 0 42:1 43:1 44:1 45:1 46:1 47:1 48:1 49:1 56:1 57:1 64:1 65:1 72:1 73:1 79:1 80:1 81:1 82:1 83:1 84:1 85:1 86:1 87:1 
0 0 0 118.4068766465534 0 0 0 9.650613704737156 17.72199428031418 0 0 0 0 0 0 2.307871647204342 0 0 0 0 0 1.255434412277132 0 0 0 24:1 30:1 31:1 32:1 36:1 37:1 38:1 40:1 44:1 48:1 51:1 52:1 56:1 58:1 59:1 64:1 65:1 66:1 72:1 73:1 79:1 81:1 86:1 87:1 89:1 93:1 94:1 97:1 100:1 101:1 105:1 106:1 107:1 108:1 
74.99804295783463 366.2382959674288 206.5281683492148 0 0.2720304463307587 5.957344765170034 11.68193539562416 8.706840913374814 0 242.3689382919922 0 0 9.562125271970711 14.90802416573795 11.77515275836302 0 0.7366661135590434 19.60094939454897 4.478694723441441 13.38365934227988 0 3.139161470756097 4.114826518203432 8.53391065119248 12.757390661399 45:1 46:1 47:1 48:1 51:1 52:1 53:1 56:1 58:1 59:1 60:1 63:1 64:1 65:1 66:1 70:1 71:1 73:1 76:1 77:1 78:1 81:1 82:1 83:1 84:1 
0 0 0 0 0 0 0 0 0 0 0 0 0 0 0 0 0 0 0 0 0 0 0 0 0.6335453604168564 17:1 18:1 19:1 20:1 21:1 22:1 25:1 30:1 31:1 33:1 34:1 39:1 41:1 47:1 48:1 49:1 56:1 57:1 64:1 65:1 72:1 73:1 80:1 81:1 82:1 87:1 90:1 95:1 98:1 99:1 102:1 103:1 107:1 108:1 109:1 110:1 
0 0 27.24261499908354 0 0 14.76416620779066 8.588332479006732 1.512645248574733 0 0 5.193293545638525 0 10.36235999432254 8.798362723082771 7.644038636551371 5.386608745235146 0 1.651463859703904 0 0 0 1.448690430055209 0 0 0 12:1 13:1 14:1 15:1 19:1 20:1 23:1 24:1 26:1 27:1 32:1 33:1 34:1 40:1 41:1 48:1 49:1 56:1 57:1 64:1 65:1 66:1 72:1 80:1 88:1 95:1 96:1 99:1 103:1 107:1 108:1 111:1 116:1 117:1 118:1 
0 121.9873517447108 46.11723580912367 40.58104823532098 9.595502691140069 33.09577059705116 18.46914603529681 6.133711118108359 0 15.83554899526879 11.78227321849155 12.16819977883815 0 4.555704711818689 20.72072734188897 12.97611788308241 37.27686519874618 23.31273770024888 0 13.44819002131069 0 0 1.448096824533468 23.82965334331541 7.902674368204949 31:1 39:1 47:1 48:1 56:1 64:1 67:1 68:1 72:1 75:1 80:1 82:1 83:1 88:1 89:1 90:1 95:1 96:1 97:1 98:1 99:1 100:1 101:1 102:1 103:1 
0 0 0 0 5.797133561149162 0 0 0 36.55795836688852 0 0 0 0 0 0 0 0 0 0 0 0 0 0 0 0 43:1 44:1 45:1 46:1 49:1 50:1 51:1 54:1 55:1 57:1 63:1 64:1 65:1 72:1 73:1 80:1 81:1 82:1 83:1 84:1 85:1 86:1 87:1 88:1 
0 36.35637746563167 0 13.9939619498752 5.588606570177535 71.66202951850963 26.56592908972656 0.1562454558967037 0 35.94699854253261 12.73653514622521 1.687166080585854 5.04377855378844 20.42561703389035 3.728663874281507 0 0 10.5357150751856 0 15.9689692590886 0 4.839338154491347 5.640003245910354 0 17.22063066907583 17:1 18:1 19:1 25:1 26:1 27:1 34:1 35:1 36:1 37:1 42:1 45:1 46:1 50:1 54:1 55:1 58:1 63:1 66:1 67:1 71:1 72:1 75:1 80:1 83:1 88:1 91:1 92:1 96:1 100:1 104:1 108:1 109:1 111:1 112:1 117:1 118:1 119:1 
0.8555634763462443 0 64.19719039218536 16.99224905604523 0 0 0 0 0 0 0 0 0 0 0 10.13799277257487 41.76255095734916 0 0 0 0 0 0 0 0 41:1 42:1 43:1 44:1 45:1 46:1 47:1 49:1 55:1 56:1 57:1 64:1 65:1 72:1 73:1 74:1 79:1 80:1 82:1 83:1 84:1 85:1 86:1 87:1 
0 0 0 0 0 0 0 0 0 0 0 0 0 0 0 0 0 0 4.867954977650554 0 0 0 0 0 0 13:1 14:1 15:1 18:1 19:1 20:1 21:1 23:1 24:1 25:1 26:1 32:1 35:1 40:1 43:1 48:1 50:1 51:1 56:1 58:1 64:1 66:1 72:1 74:1 80:1 81:1 82:1 87:1 88:1 89:1 95:1 97:1 98:1 102:1 103:1 106:1 108:1 109:1 110:1 114:1 115:1 116:1 
0 0 0 6.248322384131662 0 0 0 0 0 0 0 0 0 0 0 0 0 0 0 0 0 0 0 0 0 26:1 27:1 28:1 29:1 30:1 31:1 34:1 39:1 40:1 41:1 42:1 48:1 49:1 56:1 57:1 64:1 65:1 72:1 73:1 79:1 80:1 81:1 86:1 87:1 89:1 93:1 94:1 97:1 98:1 99:1 100:1 101:1 
2.560788722724023 0 0 0 0 0 0.9224016737465698 5.392952965113753 13.80978207989514 0 0 0 0.3706675985985233 6.688907481746841 0 0 0 0 0 5.476395466666428 0 0 0 0 0 41:1 42:1 43:1 44:1 45:1 46:1 49:1 52:1 54:1 55:1 56:1 57:1 64:1 65:1 72:1 73:1 74:1 80:1 82:1 83:1 84:1 85:1 86:1 87:1 88:1 
0 0 180.2470321060261 0 0 0 0 0.1608591256834113 0 0 0 0 0 0 0 0 0 0 0 0 0 0 0 0 0 26:1 27:1 28:1 29:1 33:1 34:1 35:1 37:1 38:1 39:1 41:1 47:1 48:1 49:1 56:1 57:1 64:1 65:1 72:1 73:1 80:1 81:1 82:1 88:1 90:1 96:1 98:1 99:1 100:1 101:1 102:1 103:1 104:1 
0 0 0 0 0 26.88185486076767 0 0 0 0 0 0 0 0 0 0 0 0 0 0 0 0 0 0 0 17:1 18:1 19:1 20:1 21:1 26:1 27:1 29:1 30:1 33:1 34:1 35:1 38:1 39:1 41:1 47:1 49:1 55:1 56:1 57:1 64:1 65:1 72:1 73:1 80:1 81:1 88:1 89:1 96:1 97:1 98:1 103:1 104:1 106:1 107:1 108:1 109:1 110:1 111:1 
0 0 0 0 0 0 0 0 17.25689367911859 22.25112476707112 0 0 0 0 0 0 0 0 0 0 0 0 0 0 0 28:1 29:1 30:1 31:1 32:1 35:1 36:1 40:1 43:1 44:1 48:1 50:1 51:1 56:1 58:1 64:1 65:1 66:1 71:1 72:1 73:1 79:1 81:1 86:1 87:1 89:1 93:1 94:1 97:1 98:1 99:1 100:1 101:1 
0 0 0 0 0 0 0 0 12.70852641263755 0 0 0 0 0 0 0 0 0 0 0 0 0 0 0 0 35:1 36:1 41:1 42:1 43:1 45:1 46:1 47:1 49:1 50:1 55:1 56:1 57:1 64:1 65:1 72:1 73:1 80:1 81:1 82:1 86:1 87:1 88:1 90:1 91:1 92:1 93:1 94:1 
0 0 0 0 0 0 0 0.37554021579905 0 0 0 0 0 0 0 0 0 0 0 0 0 0 0 0 0 20:1 21:1 22:1 23:1 27:1 28:1 32:1 34:1 35:1 40:1 41:1 42:1 43:1 48:1 49:1 56:1 57:1 64:1 65:1 72:1 73:1 80:1 81:1 82:1 87:1 88:1 89:1 90:1 94:1 97:1 98:1 100:1 101:1 102:1 106:1 107:1 108:1 
0 0 0 0 0 0 0 0 0 0 0 0 0 0 0 0 16.49292266259862 0 0 0 0 0 0 0 0 12:1 13:1 14:1 15:1 19:1 20:1 23:1 24:1 26:1 27:1 32:1 33:1 34:1 40:1 41:1 48:1 49:1 56:1 57:1 64:1 65:1 72:1 73:1 79:1 80:1 81:1 87:1 89:1 94:1 95:1 97:1 101:1 102:1 105:1 108:1 109:1 114:1 115:1 116:1 
0 0 0 1.533580245756483 0 0 0 0 0 0 0 0 0 0 0 0 0 0 0 0 0 0 0 0.3871394696172675 0 3:1 10:1 11:1 12:1 13:1 18:1 19:1 21:1 22:1 23:1 25:1 26:1 31:1 32:1 33:1 40:1 41:1 48:1 49:1 56:1 57:1 64:1 65:1 72:1 73:1 80:1 81:1 87:1 88:1 89:1 95:1 97:1 102:1 103:1 105:1 110:1 113:1 114:1 115:1 116:1 117:1 118:1 124:1 
0 0 0 0 0 0 0 0 0 0 0.3899228894634444 0 0 0 0 0 0 0 0 0 0 0 0 0 0 15:1 23:1 31:1 35:1 36:1 37:1 39:1 40:1 41:1 42:1 43:1 48:1 49:1 56:1 57:1 64:1 65:1 72:1 73:1 80:1 81:1 88:1 89:1 95:1 96:1 97:1 101:1 102:1 103:1 105:1 106:1 109:1 114:1 115:1 116:1 117:1 
0 0 0 0 0 0 0 1.297484296605353 0 0 0 0 0 0 0 0 0 0 0 0 0 0 0 0 0 43:1 44:1 45:1 46:1 47:1 49:1 50:1 52:1 55:1 56:1 57:1 64:1 65:1 72:1 73:1 79:1 80:1 81:1 82:1 83:1 84:1 85:1 86:1 87:1 
0 62.1711964305879 0 0 0 10.697717623974 11.20981422419351 0 0 0 7.014219466881499 0 0 0 8.764416863110549 0 0 2.136003026637488 0 2.939411311183113 0 0 0 0 0 9:1 10:1 17:1 18:1 19:1 25:1 26:1 27:1 28:1 34:1 36:1 37:1 41:1 42:1 45:1 46:1 49:1 54:1 55:1 57:1 63:1 65:1 71:1 72:1 73:1 80:1 81:1 88:1 89:1 96:1 97:1 104:1 105:1 106:1 107:1 109:1 110:1 111:1 112:1 115:1 116:1 117:1 
0 0 15.48438908939993 0 0 0 0 0 0 0 0 0 0 0 0 0 0 0 0 0 0 0 0 0 0 36:1 37:1 38:1 42:1 43:1 44:1 46:1 47:1 48:1 49:1 50:1 56:1 57:1 64:1 65:1 72:1 73:1 80:1 81:1 82:1 88:1 90:1 91:1 92:1 93:1 94:1 95:1 
0 23.68147319891757 26.64810087062441 0 0 0 0 0.1941653967455889 0 33.54700663296393 0 1.313289460218899 0 0 0 0.1150764574310744 6.862024765733246 0 0 0 0 0 0 0 0 11:1 12:1 13:1 14:1 15:1 16:1 19:1 23:1 24:1 26:1 27:1 31:1 32:1 34:1 40:1 42:1 48:1 49:1 50:1 56:1 57:1 63:1 64:1 65:1 71:1 73:1 79:1 81:1 87:1 89:1 94:1 95:1 97:1 102:1 105:1 108:1 109:1 110:1 113:1 114:1 115:1 116:1 
0 0 9.863888146957271 0 0 0 0 0 0 0 0 0 0 0 0 0 0 0 0 0 0 0 0 0 0 11:1 12:1 13:1 21:1 22:1 25:1 26:1 27:1 28:1 30:1 31:1 33:1 37:1 39:1 41:1 47:1 48:1 49:1 56:1 57:1 64:1 65:1 72:1 73:1 80:1 81:1 88:1 90:1 96:1 99:1 104:1 108:1 109:1 111:1 112:1 117:1 118:1 119:1 
0 0 0 0 0 2.729662716133774 0 0 0 0 0 0 0 0 0 0 0 0 0 0 0 0.759733320775317 0 0 0 2:1 3:1 4:1 5:1 10:1 11:1 14:1 18:1 19:1 22:1 23:1 26:1 31:1 33:1 34:1 39:1 40:1 41:1 48:1 49:1 56:1 57:1 64:1 65:1 72:1 73:1 80:1 81:1 88:1 89:1 95:1 96:1 97:1 103:1 105:1 106:1 110:1 111:1 114:1 115:1 118:1 123:1 124:1 125:1 
0 0 0 0 0 0 0 0 0 1.909087668844533 0 0 0 0 0 0 0 0 0 0 0 0 0 7.934086106126913 0 28:1 29:1 30:1 31:1 32:1 35:1 36:1 40:1 42:1 43:1 48:1 49:1 50:1 56:1 57:1 64:1 65:1 72:1 73:1 80:1 81:1 88:1 89:1 90:1 91:1 95:1 96:1 99:1 100:1 101:1 102:1 103:1 
0 0 0 44.23482776226633 0 0 0 0 0 0 0 0 0 0 0 5.258465394025701 0 0 0 0 0 0 0 0 0 34:1 35:1 36:1 37:1 38:1 39:1 41:1 42:1 47:1 48:1 49:1 50:1 56:1 57:1 64:1 65:1 72:1 73:1 74:1 79:1 80:1 82:1 83:1 87:1 91:1 92:1 93:1 94:1 95:1 101:1 102:1 
0 0 0 0 0 0 0 0 0 0 0 0 0 0 0 0 0 0 0 0 0 0 0 6.541406083115126 0 27:1 28:1 29:1 30:1 33:1 34:1 38:1 39:1 41:1 47:1 48:1 49:1 56:1 57:1 64:1 65:1 72:1 73:1 80:1 81:1 88:1 89:1 90:1 91:1 92:1 95:1 96:1 100:1 101:1 102:1 103:1 
0 20.41929064118097 0 0 3.852653767128753 18.45115210104604 0 0 0 17.01929180011908 0.607136996161486 6.92330352728956 10.95541448060945 0 4.774894951445201 0.6185709754975007 3.308941680834331 0.2673626993841023 17.07438224573367 1.075335395703241 0 0.5970438897411899 0 0 0 4:1 5:1 6:1 7:1 11:1 12:1 15:1 18:1 23:1 24:1 25:1 26:1 27:1 28:1 32:1 33:1 36:1 40:1 41:1 47:1 48:1 49:1 55:1 57:1 63:1 65:1 70:1 73:1 77:1 78:1 81:1 85:1 89:1 92:1 93:1 97:1 98:1 99:1 100:1 105:1 106:1 114:1 122:1 
0 6.388047269352422 0 0 0 0 0 0 0 0 0 0 0 0 0 0 0 0 0 0 0 0 0 0 0 26:1 27:1 28:1 29:1 33:1 34:1 35:1 36:1 37:1 38:1 39:1 42:1 47:1 48:1 49:1 56:1 57:1 64:1 65:1 72:1 73:1 80:1 81:1 86:1 87:1 88:1 89:1 92:1 93:1 94:1 97:1 98:1 99:1 100:1 
0 0 0 0 0 0 0 8.944551794129062 0 2.106091663362988 0 0 0 0 0 0 0 0 0.2083320696998075 0 0 0 0 0 0 19:1 20:1 21:1 22:1 23:1 24:1 26:1 27:1 28:1 32:1 33:1 34:1 35:1 40:1 42:1 48:1 50:1 56:1 57:1 58:1 64:1 65:1 72:1 73:1 79:1 80:1 81:1 86:1 87:1 89:1 94:1 97:1 101:1 102:1 105:1 106:1 107:1 108:1 109:1 
0 0 9.891419205987866 0 0 0 0 0 0 0 0 0 0 0 0 0 0 0 0 0 0 0 0 0 0 12:1 13:1 20:1 27:1 28:1 29:1 30:1 31:1 35:1 39:1 40:1 43:1 48:1 50:1 51:1 56:1 58:1 64:1 65:1 66:1 72:1 73:1 80:1 81:1 88:1 89:1 95:1 96:1 97:1 102:1 103:1 105:1 109:1 110:1 113:1 114:1 115:1 116:1 117:1 
0 0 0 0 0 0 0 0 16.56904765737529 0 0 1.891434495258785 0 0 0 0 0 0 0 0 2.517091450434198 0 0 0 0 33:1 34:1 35:1 36:1 37:1 38:1 41:1 46:1 49:1 55:1 57:1 63:1 64:1 65:1 72:1 73:1 80:1 81:1 88:1 89:1 90:1 91:1 92:1 93:1 94:1 95:1 96:1 
0 0 0 0 0 0 0 0 0 0 0 3.82344569748442 0 0 0 0 0 0 0 0 0 0 0 0 0 17:1 18:1 19:1 20:1 21:1 22:1 25:1 30:1 31:1 33:1 39:1 40:1 48:1 56:1 64:1 65:1 72:1 73:1 80:1 81:1 88:1 89:1 95:1 96:1 97:1 98:1 101:1 102:1 103:1 106:1 107:1 108:1 109:1 
0 0 0 13.56047378597098 0 0 0 0 0 0 0 0 0 0 0 0 29.6250073891639 0 0 0 0 0 0 0 0 34:1 35:1 36:1 37:1 38:1 39:1 41:1 42:1 47:1 48:1 49:1 56:1 57:1 64:1 65:1 72:1 73:1 80:1 81:1 82:1 83:1 84:1 86:1 87:1 88:1 92:1 93:1 94:1 95:1 96:1 
0 0 132.8508071010827 0 0 0 0 3.205560878851503 0 0 0 0 0 0 0 8.489711516904894 190.6057847885868 0 0 0 0 0 0 6.387158071417676 0 41:1 42:1 43:1 46:1 47:1 48:1 49:1 56:1 57:1 64:1 65:1 72:1 73:1 80:1 81:1 82:1 83:1 84:1 85:1 86:1 87:1 88:1 
19.8866970639042 0 0 0 0 0 0 0 5.531793260561884 0 0 0 0 0 0 0 8.565238986844566 0 0 0 0 0.3544798537551184 0 0 0 37:1 41:1 42:1 43:1 44:1 45:1 46:1 49:1 54:1 55:1 57:1 64:1 65:1 72:1 73:1 80:1 81:1 82:1 87:1 88:1 90:1 91:1 92:1 93:1 94:1 95:1 
0 0 24.43496237686544 12.02033830619772 1.406337296165319 0 0 2.370202214452233 0 0 0 0 0 6.327528962787894 1.044689702174296 6.21923958563865 0 4.282700428797582 5.448352899050151 6.362777305161018 0 3.823803584642222 0 0 3.169358042882914 2:1 3:1 4:1 5:1 9:1 13:1 17:1 21:1 22:1 25:1 30:1 33:1 38:1 39:1 41:1 47:1 48:1 49:1 56:1 57:1 64:1 65:1 72:1 74:1 80:1 82:1 88:1 90:1 96:1 99:1 104:1 107:1 112:1 115:1 116:1 117:1 119:1 120:1 125:1 126:1 127:1 
0 0 0 0 0 0 0 0 0 0 0 0 0 0 0 14.24827008135557 25.65011951028181 0 0 0 0 0 0 0 0 17:1 18:1 19:1 20:1 21:1 22:1 23:1 25:1 31:1 33:1 39:1 40:1 41:1 48:1 49:1 56:1 57:1 64:1 65:1 72:1 73:1 79:1 80:1 81:1 82:1 87:1 90:1 95:1 98:1 99:1 102:1 103:1 107:1 108:1 109:1 110:1 
0 0 0 0 0 0 0 0 0 0 0 0.8375906245960253 0 0 0 0 0 0 0 0 0 0 0 0 0 29:1 30:1 34:1 39:1 40:1 42:1 48:1 49:1 50:1 56:1 57:1 64:1 65:1 72:1 73:1 80:1 81:1 87:1 88:1 89:1 90:1 94:1 95:1 98:1 99:1 100:1 101:1 102:1 
0 0 24.843062853105 0 0 0 0 0 0 0 0 0 0 0 0 9.029512441154564 16.70873720685379 0 0 0 0 0 0 2.310847712707752 0 17:1 22:1 25:1 30:1 31:1 33:1 39:1 40:1 41:1 48:1 49:1 56:1 57:1 64:1 65:1 72:1 73:1 80:1 81:1 88:1 89:1 90:1 96:1 98:1 99:1 104:1 107:1 108:1 109:1 110:1 111:1 112:1 
0 0 42.22155470133538 0 0 0 0 0 0 0 0 0 0 0 0 0 0 0 0 0 0 0 0 0 0 20:1 21:1 22:1 27:1 28:1 30:1 35:1 37:1 38:1 39:1 40:1 42:1 43:1 48:1 49:1 50:1 56:1 57:1 64:1 65:1 72:1 73:1 80:1 81:1 88:1 89:1 90:1 96:1 98:1 99:1 102:1 103:1 108:1 109:1 110:1 
3.62226281430301 0 0 0 0 0 2.629941479378302 0 0 0 0 0 0 0 0 0 0 0 0 3.07529048730159 0 0 0 0 0 2:1 3:1 9:1 10:1 11:1 12:1 17:1 18:1 20:1 21:1 25:1 29:1 30:1 33:1 38:1 39:1 41:1 47:1 49:1 55:1 56:1 57:1 64:1 65:1 72:1 73:1 80:1 81:1 88:1 89:1 96:1 97:1 104:1 105:1 111:1 112:1 113:1 118:1 119:1 121:1 122:1 123:1 124:1 125:1 126:1 
16.45400550835253 0.6997651905760341 125.6867651115615 0 0 0 0 9.965128851252837 0 67.58269415415695 4.934284786530196 0 0 0 0 0 0 0 0 0 0 3.300398323995927 1.613556425415152 0 0 34:1 35:1 36:1 37:1 38:1 39:1 42:1 43:1 47:1 49:1 50:1 51:1 55:1 56:1 57:1 59:1 64:1 66:1 67:1 72:1 75:1 80:1 83:1 84:1 88:1 92:1 93:1 94:1 95:1 96:1 
0 0 0 0 0 0 0 0 0 0 0 0 0 0 7.784555313677928 0 0 0 0 0 0 0 0 0 0 25:1 26:1 27:1 28:1 29:1 33:1 34:1 35:1 36:1 37:1 38:1 41:1 46:1 47:1 49:1 55:1 56:1 57:1 64:1 65:1 72:1 73:1 80:1 81:1 82:1 88:1 90:1 95:1 96:1 98:1 99:1 100:1 101:1 102:1 103:1 
0 0 0 0 0 0 0 0 0 0 0 0 0 0 0 0 0 0 0 0 2.899423553009603 0 0 0 0 33:1 34:1 35:1 36:1 41:1 42:1 45:1 46:1 49:1 54:1 55:1 57:1 63:1 64:1 65:1 72:1 73:1 80:1 81:1 82:1 88:1 90:1 91:1 92:1 93:1 94:1 95:1 96:1 
0 0 0 0 0 0 2.813530132197724 0 35.73964181503558 0 3.730612649498247 0 0 0 0 0 0 0 0 0.1529669021537244 0 0 0 0 0 26:1 27:1 33:1 34:1 35:1 36:1 37:1 41:1 45:1 46:1 49:1 54:1 57:1 62:1 63:1 65:1 71:1 72:1 73:1 80:1 81:1 82:1 88:1 90:1 91:1 96:1 99:1 100:1 101:1 102:1 103:1 104:1 
0 31.2403130359811 0 0 0 0 0 0 17.95643347970532 0 0 0 0 0 0 0 23.02521950380353 0 0 0 4.499624970434431 0 0 0 0 29:1 30:1 31:1 36:1 37:1 39:1 40:1 48:1 49:1 56:1 57:1 63:1 64:1 65:1 71:1 73:1 78:1 79:1 81:1 85:1 86:1 89:1 93:1 97:1 98:1 99:1 100:1 
0 0 0 0 0 0 0 0 66.62338758579145 0 0 0 0 0 0 0 0 0 0 0 0 0 0 0 0 20:1 21:1 22:1 23:1 31:1 32:1 34:1 35:1 36:1 37:1 40:1 42:1 48:1 49:1 56:1 57:1 64:1 65:1 72:1 73:1 80:1 81:1 87:1 89:1 94:1 95:1 97:1 98:1 102:1 106:1 107:1 108:1 109:1 
7.63666868585075 0 0 0 0 0 0 0 0 0 0 0 0 0 0 0 0 0 0 0 0 0 0 0 0 36:1 37:1 38:1 39:1 40:1 42:1 43:1 44:1 48:1 49:1 50:1 56:1 57:1 64:1 65:1 71:1 72:1 73:1 78:1 79:1 81:1 85:1 86:1 89:1 90:1 91:1 92:1 
0 0 0 0.6655945978847579 0 0 0 0 0 0 0 0 0 0 0 0 0 0 0 0 0 0 0 0 0 28:1 29:1 30:1 34:1 35:1 36:1 38:1 39:1 42:1 47:1 48:1 49:1 50:1 56:1 57:1 64:1 65:1 72:1 73:1 74:1 80:1 82:1 83:1 84:1 85:1 87:1 88:1 93:1 94:1 95:1 103:1 
0 0 0 0 0 0 0 0 0 32.3985478385469 23.8356382559717 0 0 0 0 0 0 0 0 0 0 0 0 0 0 28:1 29:1 30:1 35:1 36:1 38:1 39:1 42:1 43:1 47:1 48:1 49:1 50:1 56:1 57:1 64:1 65:1 72:1 73:1 80:1 81:1 82:1 83:1 84:1 88:1 92:1 93:1 94:1 96:1 103:1 104:1 
0 0 184.3948866316599 0 0 0 0 0 0 0 0 0 0 0 0 3.589713401553666 0 0 0 0 0 0 0 0 0 35:1 36:1 37:1 39:1 40:1 41:1 42:1 43:1 48:1 49:1 56:1 57:1 64:1 65:1 72:1 73:1 74:1 79:1 80:1 83:1 86:1 87:1 92:1 93:1 94:1 
0 0 0 31.36827726683169 0 0 0 0 67.67021275167218 0 0 0 0 0 0 0 4.09113896390245 0 0 0 0 0 0 0 0 22:1 23:1 29:1 30:1 32:1 36:1 40:1 43:1 48:1 50:1 56:1 57:1 58:1 64:1 65:1 71:1 72:1 73:1 79:1 81:1 86:1 87:1 89:1 93:1 94:1 97:1 98:1 99:1 100:1 101:1 106:1 107:1 
0 0 0 0 0.1278340562524362 22.85306312049245 8.871197967141516 0 0 0 0 0 0.833064557176725 0 6.12714792320045 0 0 0 0 0 0 2.140238763812569 0 0 2.340579330312002 2:1 3:1 9:1 10:1 11:1 12:1 13:1 14:1 17:1 21:1 22:1 25:1 30:1 33:1 38:1 39:1 41:1 47:1 48:1 49:1 56:1 57:1 64:1 65:1 72:1 73:1 80:1 81:1 88:1 89:1 96:1 97:1 104:1 105:1 112:1 113:1 119:1 120:1 121:1 122:1 123:1 124:1 125:1 126:1 127:1 
0 41.36912473305289 0 7.092275264402049 2.336447908712439 21.86097606380645 17.79422160191946 14.67026932431229 0 57.51641911010737 24.81857619489295 2.047761072101378 3.477690813457694 14.71570056411156 10.57754960132781 0 0 11.6964587866839 0 0 8.823871781102993 3.807393454757547 8.927978744435272 0 12.66199197391373 3:1 4:1 5:1 11:1 13:1 21:1 27:1 28:1 29:1 35:1 37:1 43:1 45:1 50:1 51:1 53:1 58:1 61:1 62:1 66:1 70:1 74:1 78:1 82:1 86:1 87:1 90:1 95:1 98:1 103:1 106:1 110:1 111:1 114:1 115:1 118:1 123:1 124:1 125:1 126:1 
0 0 0 0 0 0 0 0 0 0 0 0 0 0 0 0 0 0 0.655680745015594 0 0 0 0 0 0 2:1 3:1 4:1 10:1 11:1 12:1 18:1 19:1 20:1 21:1 25:1 26:1 29:1 30:1 31:1 32:1 33:1 40:1 41:1 48:1 49:1 56:1 57:1 64:1 65:1 72:1 73:1 80:1 81:1 88:1 89:1 96:1 97:1 104:1 105:1 111:1 112:1 113:1 114:1 118:1 119:1 122:1 123:1 124:1 125:1 126:1 
0 139.3539521009779 0 6.301920048998972 0 0 3.585140973849962 0 0 127.9298775037264 25.11240511913543 0 0.6403672115903867 1.643830606997056 0 0 0 17.88644757078709 0 5.205121398332675 0 0 6.480203721333865 0 6.704473880054605 34:1 35:1 36:1 41:1 42:1 44:1 46:1 49:1 52:1 54:1 55:1 57:1 63:1 64:1 65:1 72:1 73:1 74:1 75:1 80:1 83:1 84:1 85:1 88:1 93:1 94:1 95:1 96:1 
35.78838040915257 0 0 0 0 0 0 0 0 24.87894126597413 0 0 0 0 0 0 0 0 0 0 0 0 0 0 0 34:1 35:1 36:1 41:1 42:1 44:1 45:1 46:1 49:1 50:1 51:1 52:1 54:1 55:1 57:1 60:1 63:1 64:1 65:1 72:1 73:1 80:1 81:1 82:1 85:1 86:1 87:1 88:1 90:1 91:1 92:1 93:1 
0 0 0 0 0 0 0 0 0 0 0 1.217648513906108 0 0 0 0 0 0 0 0 0 0 0 0 0 19:1 27:1 28:1 29:1 30:1 35:1 38:1 39:1 42:1 43:1 48:1 50:1 56:1 57:1 58:1 64:1 65:1 72:1 73:1 79:1 80:1 81:1 87:1 89:1 94:1 97:1 101:1 102:1 105:1 106:1 107:1 108:1 109:1 
0 0 0 0 0 2.599293084943322 0 0 0 0 0 0 0 0 0 0 0 0 0 0 0 0 0 0 0 4:1 5:1 6:1 11:1 12:1 13:1 14:1 15:1 18:1 19:1 21:1 22:1 23:1 26:1 27:1 30:1 31:1 34:1 39:1 41:1 42:1 47:1 48:1 49:1 56:1 57:1 64:1 65:1 72:1 73:1 80:1 81:1 88:1 89:1 96:1 97:1 103:1 104:1 105:1 106:1 110:1 111:1 114:1 118:1 122:1 123:1 124:1 125:1 126:1 
2.325904185038541 0 0 0 0 0 0 0 0.232453028475281 0 0 0 0 0 0 0 0 0 0 0 0 0 0 0 0 28:1 35:1 36:1 37:1 38:1 39:1 42:1 43:1 47:1 50:1 55:1 56:1 57:1 58:1 64:1 65:1 72:1 73:1 80:1 81:1 88:1 89:1 90:1 95:1 96:1 98:1 99:1 100:1 101:1 102:1 103:1 
0 0 0 0 0 86.09048385716825 0 0 4.819060225612045 0 0 0 0 0 0 0 32.13778134299947 0 0 0 0 0 0 0 0 28:1 29:1 30:1 31:1 32:1 40:1 43:1 44:1 45:1 46:1 48:1 50:1 54:1 56:1 57:1 64:1 65:1 71:1 72:1 73:1 79:1 81:1 86:1 87:1 89:1 90:1 93:1 94:1 98:1 99:1 100:1 101:1 
0 210.1085550541736 245.2605359858069 0 0 0 0 0 37.45408141886831 0 0 0 0 0 0 0 29.33046923108326 12.64100882158303 0 0 0 0 0 9.058540605239401 0 50:1 51:1 52:1 53:1 54:1 55:1 56:1 57:1 58:1 64:1 65:1 72:1 73:1 74:1 75:1 76:1 77:1 78:1 79:1 80:1 
0 0 0 0 0 0 0 0 0 0 16.00656000758317 0 4.011991523262949 0 6.824199139779872 0 0 0 0 0 0 0 0 0 0 28:1 29:1 30:1 31:1 32:1 34:1 35:1 36:1 40:1 41:1 42:1 43:1 48:1 49:1 50:1 56:1 58:1 64:1 66:1 72:1 74:1 80:1 82:1 87:1 88:1 90:1 91:1 93:1 94:1 95:1 99:1 100:1 101:1 
0 0 0 0 0 0 0 0 0 0 1.431474891754665 0 0 0 0 0 0 0 0 0 0 0 0 0 0 20:1 21:1 22:1 27:1 28:1 30:1 31:1 35:1 39:1 40:1 42:1 43:1 48:1 49:1 50:1 56:1 57:1 64:1 65:1 72:1 73:1 80:1 81:1 88:1 89:1 95:1 96:1 97:1 101:1 102:1 103:1 106:1 107:1 108:1 109:1 
11.05318846209673 38.4262847718831 392.5867929951559 0 3.628583773113793 28.29522639832249 0 0 19.52977160817939 0 28.71098956706614 2.012909215322241 0 4.370300406517305 9.265170944862744 0 0 0 0 0 3.228079905805687 0 11.63018387875175 0 0 35:1 36:1 42:1 43:1 44:1 45:1 49:1 50:1 53:1 54:1 55:1 57:1 63:1 65:1 71:1 72:1 73:1 80:1 81:1 87:1 88:1 95:1 
0 0 158.2697714366629 0 0 0 0 0 0 0 0 0 0 0 0 0 0 0 0 0 0 0 0 0 0 35:1 36:1 37:1 38:1 42:1 43:1 46:1 47:1 48:1 49:1 50:1 56:1 57:1 58:1 64:1 65:1 66:1 72:1 73:1 80:1 81:1 82:1 83:1 88:1 91:1 92:1 93:1 94:1 95:1 96:1 
0 0 0 0 0 0 0 5.279223389099354 0 0 0 0 0 0 7.259167991433538 14.94695794084473 0 0 0 0 0 2.501617982286464 0 0 0 11:1 12:1 13:1 14:1 15:1 16:1 18:1 19:1 24:1 25:1 26:1 32:1 33:1 40:1 41:1 48:1 49:1 56:1 57:1 64:1 65:1 72:1 73:1 80:1 88:1 96:1 99:1 100:1 104:1 108:1 109:1 111:1 112:1 117:1 118:1 119:1 
0 0 0 0 0 0 0 3.421881655957137 0 0 0 0 0 0 0 0 0 0 0 0 0 0 0 0 0 37:1 38:1 45:1 46:1 47:1 48:1 50:1 51:1 52:1 53:1 54:1 56:1 57:1 58:1 64:1 65:1 72:1 73:1 79:1 80:1 81:1 85:1 86:1 89:1 90:1 91:1 92:1 93:1 
0 0 0 0 0 0 0 0 0 0 0 0 0 0 4.660238448993731 0 0 0 0 0 0 0 0 0 0 31:1 32:1 37:1 38:1 39:1 40:1 44:1 45:1 46:1 48:1 52:1 56:1 59:1 60:1 63:1 64:1 66:1 67:1 71:1 73:1 74:1 77:1 78:1 79:1 81:1 84:1 85:1 89:1 91:1 92:1 97:1 98:1 99:1 
3.140479418347085 1.814030328745467 0 13.67659319322177 0 0 0 0 0 0 0 0 0 0 0 0 0 0 0 0 0 0 0 0 0 22:1 23:1 24:1 29:1 30:1 31:1 32:1 36:1 37:1 39:1 40:1 43:1 44:1 47:1 48:1 50:1 51:1 56:1 58:1 64:1 65:1 66:1 71:1 72:1 73:1 79:1 81:1 86:1 87:1 89:1 93:1 94:1 97:1 99:1 100:1 101:1 105:1 106:1 107:1 
0 0 0 29.37396095351637 0 0 0 0 0 0 0 0 0 0 0 0 0 0 0 0 0 0 0 0 0 29:1 30:1 36:1 37:1 38:1 39:1 40:1 44:1 48:1 51:1 56:1 58:1 59:1 64:1 66:1 71:1 72:1 73:1 74:1 78:1 79:1 81:1 85:1 86:1 89:1 92:1 93:1 97:1 98:1 99:1 100:1 
0 0 0 0 0 0 0 6.57859826478532 0 67.31640674448151 0 0 0 0 0 0 0 0 0 0 0 0 0 0 0 35:1 36:1 37:1 38:1 39:1 40:1 42:1 43:1 48:1 49:1 50:1 56:1 57:1 64:1 65:1 72:1 73:1 78:1 79:1 81:1 85:1 86:1 89:1 90:1 91:1 92:1 93:1 
0 0 0 0 1.607665198964645 0 0 0 28.57115893307763 0 0 0 1.382533660000961 0 0 0 0 3.549742593386389 0 0 0 1.632586776321101 5.839998094180327 0 0 35:1 36:1 43:1 44:1 45:1 49:1 50:1 51:1 53:1 54:1 57:1 62:1 63:1 65:1 71:1 72:1 73:1 80:1 81:1 82:1 88:1 90:1 91:1 92:1 93:1 94:1 95:1 96:1 
0 0 0 0 0 0 0 0 0 0 0 0 0 0 0 0 11.73129713644206 0 0 0 0 0 0 0 0 31:1 32:1 38:1 39:1 40:1 44:1 45:1 48:1 50:1 51:1 52:1 53:1 56:1 57:1 58:1 64:1 65:1 71:1 72:1 73:1 78:1 79:1 81:1 84:1 85:1 86:1 89:1 91:1 92:1 97:1 98:1 99:1 
0 0 18.81816765968886 0 0 0 0 0 0 0 0 0 0 0 0 0 0 0 0 0 0 0 0 0 0 19:1 20:1 21:1 29:1 30:1 34:1 38:1 39:1 42:1 47:1 48:1 49:1 50:1 56:1 57:1 64:1 65:1 72:1 73:1 80:1 81:1 88:1 89:1 96:1 98:1 104:1 107:1 108:1 109:1 110:1 111:1 112:1 
0 27.25356468912199 55.46206255465039 0 0 11.31314262866283 0 0 0 0 0 1.458882655809886 0 0 0 0 0 0 0 0 0 0 0 0 0 6:1 13:1 14:1 20:1 21:1 22:1 27:1 28:1 30:1 31:1 34:1 35:1 39:1 40:1 42:1 48:1 49:1 50:1 56:1 57:1 64:1 65:1 72:1 73:1 80:1 81:1 88:1 89:1 96:1 97:1 104:1 105:1 106:1 112:1 114:1 119:1 120:1 123:1 124:1 125:1 126:1 127:1 
35.56154703832028 311.8431322946495 0 0 7.237753382455868 39.6591210073237 0 15.4073266706442 92.64519031971442 116.6492804912163 0 10.35754842073952 10.33443659154008 0 0 7.676089876663488 0 0 11.74250406507737 4.917666450209308 0 0 12.04033693302334 11.93503742882964 6.702587324393538 43:1 44:1 50:1 51:1 52:1 53:1 54:1 55:1 56:1 57:1 58:1 64:1 65:1 72:1 73:1 76:1 77:1 78:1 79:1 80:1 81:1 82:1 83:1 84:1 
0 11.77826204208329 0 18.60358729012427 27.3863171354724 102.4661169354255 8.396055340880773 16.80396247400653 14.59030629988245 43.4031164106845 12.09921997750283 15.82831011847668 34.81716667464269 41.80346364258783 18.17772519309542 0 0 7.562770281711416 5.661594324193904 0 9.667366903665773 1.464711905419456 6.353809649796996 0 10.05793317824692 5:1 6:1 13:1 20:1 21:1 28:1 29:1 36:1 37:1 38:1 43:1 44:1 46:1 51:1 54:1 59:1 62:1 67:1 70:1 75:1 78:1 83:1 86:1 91:1 94:1 99:1 102:1 107:1 110:1 115:1 118:1 123:1 124:1 125:1 
0 0 0 0 0 0 0 0 0 0 0 0 0 0 0 0 0 0 0 0 0 3.595792604807725 0 0 0 34:1 35:1 36:1 37:1 38:1 39:1 40:1 42:1 43:1 44:1 48:1 50:1 56:1 57:1 64:1 65:1 72:1 73:1 80:1 81:1 87:1 88:1 89:1 90:1 91:1 92:1 93:1 94:1 95:1 
0 0 0 0 0 0 0 0 0 0 0 0 0 7.586999021819357 11.17748929439128 9.942125342271055 18.90844495180172 0 0 0 0 0 0 0 0 26:1 27:1 28:1 29:1 30:1 33:1 34:1 38:1 39:1 41:1 47:1 48:1 49:1 56:1 57:1 64:1 65:1 71:1 72:1 73:1 79:1 83:1 87:1 91:1 92:1 95:1 100:1 101:1 102:1 
13.2893453070442 50.83800879847422 0 40.74283033957866 0 16.25943916161934 30.34308382918021 5.069881517293443 0 9.374773270480507 25.48009892901258 1.329081631003844 0 0 0 8.766320968816839 59.62918640846186 8.89422406995835 0 22.83803991599267 1.623710357367675 1.981746629479077 4.839127818830918 5.596429998387737 18.58307362706654 25:1 33:1 41:1 49:1 50:1 51:1 52:1 57:1 61:1 65:1 69:1 70:1 71:1 72:1 73:1 79:1 80:1 81:1 86:1 87:1 89:1 90:1 91:1 93:1 94:1 99:1 100:1 101:1 
0 0 29.13950255163705 0.8938076374823509 0 7.442285539162239 0 0 0 0 0 1.162267478918476 0 0 0 0 0 0 3.078758063513629 0 0 0 0 2.628216171532049 0 9:1 10:1 11:1 12:1 13:1 14:1 17:1 22:1 23:1 25:1 31:1 32:1 33:1 40:1 41:1 48:1 49:1 56:1 57:1 64:1 65:1 72:1 73:1 80:1 81:1 88:1 89:1 96:1 97:1 98:1 104:1 106:1 112:1 115:1 116:1 117:1 118:1 119:1 120:1 
0 0 0 0 0 0 0 0 4.460725308530407 0 0 0 0 0 0 0 0 0 0 0 0 0 0 0 0 18:1 19:1 20:1 21:1 29:1 30:1 36:1 38:1 39:1 44:1 47:1 50:1 51:1 52:1 55:1 56:1 57:1 58:1 64:1 65:1 72:1 73:1 80:1 81:1 88:1 89:1 96:1 97:1 98:1 103:1 104:1 106:1 107:1 108:1 109:1 110:1 111:1 
0 0 0 0 0 0 0 0 0 0 0 0 0.830057281567195 0 0 0 0 0 0 0 0 0 0 0 0 1:1 2:1 3:1 9:1 11:1 12:1 13:1 17:1 21:1 22:1 26:1 30:1 31:1 34:1 39:1 42:1 48:1 49:1 50:1 56:1 57:1 64:1 65:1 66:1 72:1 74:1 80:1 82:1 88:1 90:1 91:1 96:1 99:1 103:1 104:1 107:1 108:1 110:1 111:1 116:1 117:1 118:1 126:1 
0 126.1318966627771 0 0 0 0 0 0 0 0 0 0 0 0 0 0 0 0 0 0 0 0 0 0 0 27:1 28:1 29:1 34:1 35:1 36:1 37:1 41:1 42:1 45:1 46:1 49:1 54:1 55:1 57:1 63:1 65:1 71:1 72:1 73:1 80:1 81:1 82:1 88:1 90:1 91:1 92:1 96:1 100:1 101:1 102:1 103:1 104:1 
0 0 0 0 0 0 0 0 0 0 0 0 0 0 0 0 0 0.07368931858725275 0 0 0 2.078072818342678 0 0 0 20:1 21:1 22:1 26:1 27:1 28:1 29:1 30:1 31:1 33:1 34:1 36:1 38:1 39:1 41:1 48:1 49:1 56:1 57:1 64:1 65:1 72:1 73:1 79:1 80:1 81:1 87:1 89:1 94:1 95:1 97:1 101:1 102:1 105:1 106:1 107:1 108:1 109:1 
0 0 0 0 0 0 0 0 0 0 0 0 0 0 0 0 0 2.638127069015229 0 0 0 0 0 0 0 19:1 20:1 21:1 26:1 27:1 29:1 30:1 34:1 38:1 39:1 47:1 49:1 55:1 56:1 57:1 64:1 65:1 72:1 73:1 80:1 81:1 88:1 89:1 96:1 97:1 98:1 104:1 107:1 108:1 109:1 110:1 111:1 
3.596502053137701 0 0 0 0 0 0 0 0 0 0 0 0 0 0 0 0 0 0 0 0 0 0 0 0 3:1 11:1 12:1 20:1 21:1 27:1 28:1 29:1 30:1 31:1 32:1 34:1 35:1 38:1 39:1 40:1 41:1 42:1 47:1 48:1 49:1 55:1 56:1 57:1 63:1 64:1 65:1 72:1 73:1 80:1 81:1 88:1 89:1 90:1 96:1 98:1 104:1 106:1 107:1 112:1 115:1 116:1 118:1 119:1 120:1 124:1 125:1 126:1 
0 0 0 0 0 0 4.212774365249243 0 0 0 0 0 0 0 0 4.942028122779326 0 0 0 0 0 0 0 2.620824992770059 0 19:1 20:1 21:1 22:1 25:1 26:1 30:1 31:1 32:1 33:1 40:1 41:1 48:1 49:1 56:1 57:1 64:1 65:1 72:1 73:1 80:1 81:1 87:1 88:1 89:1 94:1 95:1 97:1 100:1 101:1 102:1 105:1 106:1 107:1 108:1 
0 0 0 0 0 0 0 0 0 0 0 0 0.3370441297041653 0 0 0 0 0 0 0 0 0 0 0 0 17:1 18:1 19:1 20:1 25:1 28:1 29:1 30:1 33:1 35:1 36:1 38:1 39:1 42:1 43:1 47:1 48:1 50:1 56:1 57:1 58:1 64:1 65:1 72:1 73:1 80:1 81:1 88:1 89:1 95:1 96:1 97:1 98:1 101:1 102:1 103:1 107:1 108:1 109:1 
0 0 0 0 0 13.27716366596594 0 0 0 0 0 0 0 0 0 0 0 0 0 0 0 0 0 0 0 9:1 10:1 11:1 12:1 20:1 21:1 22:1 30:1 31:1 34:1 35:1 39:1 40:1 42:1 48:1 49:1 50:1 56:1 57:1 64:1 65:1 72:1 73:1 80:1 81:1 88:1 89:1 96:1 97:1 102:1 103:1 104:1 105:1 109:1 110:1 113:1 114:1 115:1 116:1 117:1 
0 0 31.58623709625849 0 0 0 0 0 0 0 0 0 0 0 0 0 0 0 0 0 0 0 0 0 0 36:1 37:1 38:1 39:1 42:1 43:1 44:1 47:1 48:1 49:1 50:1 56:1 57:1 64:1 65:1 72:1 73:1 78:1 79:1 80:1 81:1 82:1 83:1 85:1 86:1 91:1 92:1 93:1 
0 26.30931932207158 0 52.58287494552734 1.493208177082146 23.31725854706425 6.568097139855864 21.53435236006094 39.48049339069809 80.91813370562596 21.22211228629804 0 12.41684369190153 15.36931146651135 10.6485932749887 0 0 8.612219029107223 0 15.24725281944146 0.8322518337187357 3.557403542246207 4.601312907818175 0 7.151334736387027 7:1 14:1 15:1 22:1 29:1 30:1 36:1 37:1 39:1 43:1 44:1 47:1 51:1 55:1 58:1 59:1 63:1 66:1 71:1 74:1 79:1 82:1 86:1 87:1 90:1 94:1 98:1 101:1 102:1 106:1 109:1 114:1 116:1 117:1 122:1 123:1 124:1 
0 0 0 16.77890534821731 4.544185842282016 30.16744866157474 4.879375221552077 0 0 0 0 0 4.755653728572027 0 20.25593772538657 12.13724598169477 0 5.500003542217458 8.894316936802253 0 7.737819617218167 0.5498128442606403 0.8737935126740063 0 0 7:1 8:1 15:1 22:1 24:1 30:1 32:1 37:1 40:1 45:1 48:1 52:1 53:1 56:1 60:1 64:1 67:1 68:1 71:1 72:1 75:1 79:1 82:1 87:1 90:1 94:1 97:1 102:1 105:1 109:1 110:1 113:1 117:1 121:1 122:1 123:1 124:1 
0 0 195.0061362428561 0 0 0 0 0 0 0 0 0 0 0 4.053997976354856 0 0 0 0 0 0 6.715961967431064 0 0 0 36:1 37:1 38:1 39:1 43:1 44:1 45:1 46:1 47:1 48:1 50:1 51:1 56:1 58:1 64:1 66:1 72:1 73:1 79:1 80:1 81:1 85:1 86:1 87:1 89:1 90:1 91:1 92:1 93:1 
0 40.93065911187062 0 0 0 0 0 0 0 0 0 0 0 0 0 0 9.314815638631293 0 0 0 0 0 0 0 0 35:1 36:1 37:1 39:1 42:1 47:1 48:1 49:1 50:1 56:1 57:1 64:1 65:1 72:1 73:1 79:1 80:1 81:1 86:1 87:1 89:1 90:1 91:1 92:1 93:1 94:1 
15.0130278463403 0 0 64.95340843545439 0 0 0 0 0 0 0 0 0 0 0 1.209072577502075 0 0 0 0 0 0 0 0 0 24:1 32:1 40:1 44:1 45:1 46:1 47:1 48:1 51:1 52:1 55:1 56:1 59:1 64:1 66:1 67:1 72:1 73:1 74:1 80:1 81:1 87:1 88:1 89:1 94:1 95:1 97:1 100:1 101:1 102:1 105:1 106:1 107:1 108:1 
0 0 0 11.61243047841669 1.530634551653715 37.44777023521389 0 0 0 0 0 0 0 12.64509235136571 3.331375754840411 0 0 0 15.00914423838569 0 0 2.787879811106771 0 0 0 4:1 5:1 6:1 12:1 13:1 14:1 19:1 20:1 21:1 22:1 23:1 27:1 29:1 31:1 34:1 35:1 37:1 39:1 42:1 47:1 50:1 55:1 58:1 63:1 66:1 71:1 74:1 79:1 82:1 87:1 90:1 95:1 98:1 102:1 103:1 106:1 110:1 114:1 117:1 118:1 122:1 123:1 124:1 125:1 
0 0 0 0 0 0 0 0 0 0 0 0 0 0 0 0 0 0 0 0 0 0 0 0 1.106835523624964 35:1 36:1 37:1 38:1 41:1 42:1 44:1 46:1 47:1 49:1 52:1 55:1 56:1 57:1 64:1 65:1 72:1 73:1 80:1 81:1 82:1 83:1 87:1 88:1 91:1 92:1 93:1 94:1 95:1 
0 61.45615350457815 0 0 0 0 0 0 0 0 0 0 0 0 0 0 0 0 0 0 0 0 0 0 0 20:1 28:1 29:1 36:1 37:1 43:1 44:1 45:1 46:1 50:1 51:1 54:1 55:1 57:1 58:1 63:1 64:1 65:1 72:1 73:1 80:1 81:1 88:1 89:1 95:1 96:1 97:1 98:1 99:1 102:1 103:1 107:1 108:1 109:1 110:1 
0 0 0 0 0 0 0 0 31.98593250771168 0 0 0 0 0 0 0 0 0 0 0 0 0 0 0 0 30:1 36:1 38:1 39:1 43:1 44:1 47:1 48:1 50:1 51:1 56:1 57:1 58:1 64:1 65:1 72:1 73:1 80:1 81:1 88:1 89:1 90:1 95:1 96:1 98:1 99:1 100:1 101:1 102:1 103:1 
0 0 0 25.50174463396139 0.277968663692125 20.671798495098 0.05795287254852258 0 0 0 0 0 0 0 0 0 0 0 0 0 0.1124325845338802 0 0 0 0 1:1 2:1 3:1 4:1 11:1 12:1 18:1 20:1 21:1 26:1 29:1 33:1 34:1 37:1 38:1 41:1 46:1 49:1 54:1 57:1 63:1 65:1 71:1 72:1 73:1 80:1 81:1 88:1 89:1 96:1 97:1 98:1 103:1 104:1 106:1 111:1 114:1 115:1 118:1 119:1 123:1 124:1 125:1 126:1 
0 0 0 7.689532949834584 0 0 0 0 0 0 0 0 0 0 0 0 0 0 0 0 0 0 0 0 0 27:1 28:1 29:1 30:1 34:1 35:1 37:1 38:1 39:1 41:1 42:1 46:1 47:1 48:1 49:1 56:1 57:1 64:1 65:1 72:1 73:1 80:1 81:1 87:1 88:1 89:1 90:1 94:1 95:1 98:1 99:1 100:1 101:1 102:1 
0 0 0 0 0 0 0 0 0.8456078332007411 0 0 0 0 0 0 0 0 0 0 0 0 0 0 0 0 30:1 36:1 37:1 38:1 39:1 40:1 42:1 43:1 44:1 48:1 50:1 56:1 57:1 58:1 64:1 65:1 72:1 73:1 79:1 80:1 81:1 86:1 87:1 89:1 90:1 92:1 93:1 94:1 98:1 99:1 100:1 
33.22404364306703 241.1596045836165 165.133689233143 91.13442103339688 10.78431278923311 44.43782793279382 4.50559906366464 25.24467820330235 0 240.0533132615488 12.96714038681363 4.734912581424894 13.19323647370447 20.05198136813387 20.93624679798348 15.69554281584928 56.54201074049522 34.03397372457324 22.52253416620303 16.37157312089826 4.970184062249596 7.646297533065037 21.72735829476394 3.91166826821293 19.74880315052411 30:1 31:1 32:1 37:1 38:1 40:1 45:1 46:1 48:1 52:1 53:1 54:1 56:1 59:1 60:1 62:1 63:1 66:1 67:1 68:1 70:1 73:1 74:1 77:1 78:1 81:1 84:1 85:1 89:1 91:1 92:1 97:1 98:1 99:1 
0 0 0 0 0 0 0 0 0 0 0 0.1465284651688464 0 0 0 0 0 0 0 0 0 0 0 0 0 12:1 13:1 19:1 20:1 21:1 22:1 27:1 30:1 31:1 34:1 35:1 39:1 40:1 41:1 42:1 48:1 49:1 56:1 57:1 64:1 65:1 72:1 73:1 80:1 81:1 88:1 89:1 96:1 97:1 103:1 104:1 105:1 106:1 109:1 110:1 111:1 114:1 115:1 116:1 117:1 
0 0 0 0 0 0 0 0 0 0 0 0 0 0 0 0 0 0 0 0 0 2.73951987506705 0 0 0 35:1 36:1 37:1 43:1 45:1 46:1 47:1 48:1 49:1 50:1 51:1 52:1 53:1 54:1 55:1 56:1 57:1 58:1 64:1 65:1 72:1 73:1 80:1 81:1 82:1 87:1 90:1 91:1 92:1 93:1 94:1 95:1 
0 0 0 0 0 0 0 0 0 170.3669020604948 0 0 0 0 0 0 0 0 0 0 0 0 0 0 0 36:1 37:1 38:1 39:1 40:1 42:1 43:1 44:1 48:1 49:1 50:1 56:1 57:1 64:1 65:1 71:1 72:1 73:1 79:1 81:1 85:1 86:1 87:1 89:1 90:1 91:1 92:1 93:1 
0 0 0 0 0 0 0 0 0 0 0 0 0 11.97478507565348 0 0 0 0 0 0 0 0 0 0 0 35:1 41:1 42:1 43:1 44:1 45:1 46:1 49:1 54:1 55:1 56:1 57:1 64:1 65:1 72:1 73:1 80:1 81:1 82:1 83:1 84:1 86:1 87:1 88:1 92:1 93:1 94:1 
0 0 53.4720294553888 41.1434566280283 0 8.518172815851083 0 0 0 0 10.78445198053873 0 0 0 0 0 0 0 0 0 0 0 0 0 0 20:1 21:1 22:1 23:1 24:1 27:1 28:1 32:1 34:1 40:1 41:1 42:1 48:1 49:1 56:1 57:1 64:1 65:1 72:1 73:1 80:1 81:1 88:1 89:1 96:1 97:1 98:1 99:1 100:1 101:1 102:1 103:1 104:1 106:1 
0 0 19.52254959593271 48.22886870881383 9.034621033126582 45.46170673652876 4.762599073610227 0 15.98114283008258 0 1.156458643410752 4.506470027515705 1.848680426265696 0 0 14.08407763972051 28.33034192626696 4.46414545875969 0 2.248887198129528 7.680484246001229 0 0 0 0 5:1 6:1 13:1 14:1 15:1 23:1 26:1 31:1 34:1 39:1 42:1 47:1 50:1 55:1 58:1 63:1 66:1 71:1 74:1 79:1 82:1 87:1 90:1 95:1 98:1 102:1 103:1 106:1 110:1 114:1 118:1 123:1 124:1 125:1 126:1 
0.2881116941966173 0 0 0 0 0 0 0 0 0 0 0 0 0 0 0 0 0 0 0 0 5.471745723264555 0 0 0 29:1 30:1 35:1 36:1 37:1 38:1 39:1 42:1 43:1 44:1 45:1 46:1 50:1 51:1 52:1 54:1 55:1 57:1 58:1 63:1 64:1 65:1 72:1 73:1 80:1 81:1 87:1 88:1 89:1 92:1 93:1 94:1 95:1 97:1 98:1 99:1 100:1 
0 0 0 0 0 0 1.691082817904061 0 0 0 0 0 0 0 0 0 0 0 0 0 0 0 0 0 0 22:1 23:1 24:1 29:1 30:1 32:1 35:1 36:1 37:1 40:1 43:1 48:1 51:1 56:1 58:1 59:1 64:1 66:1 71:1 72:1 73:1 74:1 78:1 79:1 81:1 85:1 86:1 89:1 92:1 93:1 97:1 99:1 100:1 105:1 106:1 107:1 
-3.17800973003444 149.5204793743513 0 0 0 0 0 0 0 151.9120702656306 0 0 1.046781779312472 0 0 0 0 9.916925725500793 13.33361306560968 0 0 0 22.52209913913479 0 1.344771317919029 50:1 51:1 52:1 53:1 54:1 55:1 57:1 58:1 60:1 61:1 63:1 64:1 65:1 67:1 68:1 72:1 73:1 75:1 76:1 80:1 
-0 0 0 0 0 7.034041494035414 0 0 1.363506773900899 0 0 0 1.722558780440014 0 0 0 0 2.246988079563202 0 0 0 0 0 13.30055331030275 0 49:1 50:1 51:1 54:1 55:1 57:1 59:1 61:1 62:1 63:1 65:1 67:1 68:1 69:1 71:1 73:1 76:1 79:1 80:1 
-0 0 0 0 0 0 0 0 0 0 0 0 0.004633411669444728 0 0 0 0 7.621640784840774 0 0 0 0 0 18.49256266168872 0 47:1 49:1 52:1 53:1 55:1 56:1 57:1 59:1 60:1 61:1 62:1 63:1 64:1 65:1 66:1 67:1 69:1 70:1 72:1 74:1 75:1 77:1 78:1 80:1 82:1 
-45.73166069441785 141.7824289911097 29.07450319007297 0 0 0 0.1353775646852627 0 0 6.553452293467292 0 0 0 0 0 0 23.57249174107642 0 3.993605813234041 4.267534205093479 0 0 10.73585033658935 0 0 41:1 49:1 52:1 53:1 55:1 57:1 59:1 60:1 61:1 63:1 64:1 65:1 67:1 69:1 70:1 71:1 72:1 73:1 74:1 75:1 77:1 78:1 80:1 81:1 82:1 
-0 0 54.37615782182928 0 0 0 0 0 0 0 0 0 4.001683186079799 13.26302962393653 0 0 0 0 0 1.387352001034858 0 0 0 0 0 49:1 57:1 58:1 59:1 60:1 61:1 62:1 63:1 65:1 66:1 69:1 71:1 72:1 73:1 
-0 0 0 0 0 0 0 0 0 0 0 0 0 0.2742904748957059 11.1614684878832 0 0 0.8281366358329754 0 0 1.876842219801229 0 0 0 0 49:1 57:1 58:1 59:1 60:1 61:1 62:1 63:1 64:1 65:1 68:1 69:1 72:1 80:1 
-0 0 0 0 0 0 0 0 0 0 0 0 0 0 3.688582982961387 0 0 3.937360405970733 0 0 0 0 0 0 0 49:1 53:1 54:1 55:1 57:1 58:1 59:1 60:1 61:1 63:1 64:1 65:1 67:1 68:1 72:1 73:1 75:1 80:1 
-0 0 0 0 0 0 0 0 0 0 0 0 0 19.01520451324897 0 0 0 0 0 0 0 0 0 0 0 50:1 51:1 52:1 54:1 55:1 56:1 57:1 58:1 60:1 61:1 62:1 64:1 65:1 68:1 69:1 72:1 73:1 
-0 0 0 0 0 0 0 0 0 0 0 0 0 0 0 0 0 7.455873059331037 0 0 0 2.74334117032146 0 0 0 51:1 52:1 54:1 55:1 56:1 58:1 59:1 60:1 61:1 62:1 64:1 65:1 66:1 69:1 72:1 73:1 77:1 80:1 
-0 73.61813161254503 0 0 0 0 0 0 0 0 2.856268071413488 0 0 0 0 0 0 0 0 0 0 0 0 0 0 42:1 47:1 50:1 54:1 55:1 57:1 58:1 59:1 61:1 62:1 63:1 65:1 67:1 68:1 69:1 71:1 72:1 73:1 80:1 81:1 88:1 
-4.970238176829289 72.42485834310799 0 0 2.923580814530674 0 0.6848235730172888 43.23034970402045 0 150.0558162340855 0 3.522748200013098 0.5622734685158842 0.4987633971686733 0 0 33.51064669844214 13.46395425112437 0 0 0.6616407473577709 0 26.06419076562833 4.452089911361871 10.67711907622682 42:1 49:1 50:1 53:1 54:1 57:1 58:1 60:1 61:1 62:1 65:1 66:1 67:1 68:1 70:1 73:1 78:1 79:1 81:1 87:1 88:1 
-2.907377778323715 0 0 0 0 0 0 0 0 0 0 0.931963835970087 0 0 0 8.381780573984228 0 0 0 0 0 0 0 0 0 49:1 50:1 51:1 52:1 53:1 54:1 55:1 56:1 57:1 60:1 61:1 64:1 65:1 68:1 72:1 73:1 76:1 80:1 
-0 0 84.31267618287177 0 0 17.19566934438692 0 0 0 0 0 0 0 0 0 0 3.231007729776251 0 0 0 0 0 0 0 0 41:1 42:1 43:1 46:1 49:1 51:1 52:1 53:1 54:1 55:1 56:1 57:1 60:1 64:1 65:1 68:1 72:1 73:1 76:1 80:1 81:1 88:1 
-44.62718911946259 71.78193285246309 189.1407056699026 17.11351430124392 4.860572281971289 32.91317702657811 12.95258402407806 17.76761410026098 15.88866374321029 96.45811008758442 22.44752667959104 8.029190326677497 7.618702053637048 11.84278121941981 13.80614085260741 14.01580247704634 18.46738322262205 10.41252147655486 4.793740603368913 17.82460543964757 3.803420207874665 5.191270620977761 0 4.494145764034152 14.66645351691555 24:1 31:1 32:1 34:1 35:1 39:1 40:1 42:1 43:1 47:1 50:1 51:1 55:1 58:1 59:1 63:1 65:1 66:1 67:1 70:1 71:1 73:1 75:1 78:1 79:1 81:1 83:1 86:1 87:1 89:1 91:1 92:1 94:1 95:1 96:1 97:1 100:1 101:1 104:1 105:1 
-0 54.79319725560397 0 0 0 8.276702363119254 0 0 0 4.167680348536091 0 0 0 1.937794580515994 0 0 2.028732814575104 1.789184140303589 0 0 0 0 6.113538061415887 0 0.9073071180785747 34:1 35:1 38:1 39:1 42:1 43:1 46:1 47:1 49:1 50:1 51:1 53:1 54:1 55:1 57:1 59:1 61:1 63:1 65:1 67:1 68:1 69:1 71:1 73:1 75:1 76:1 79:1 81:1 83:1 84:1 87:1 89:1 91:1 92:1 95:1 96:1 99:1 104:1 
-42.87066742818445 77.69406977046019 95.12260816021653 4.924933931954818 9.011524582894006 0 0 15.71068536225416 16.95280874180499 185.0166256569214 0 5.47734097821294 6.936135393691917 4.3872699000621 0 0 11.4975477053573 0.4930386532709093 17.77340199416979 2.060835743872509 2.381584571765948 0.4305555891061573 0.545245551526011 0 4.488178235653205 37:1 38:1 39:1 45:1 47:1 50:1 51:1 52:1 53:1 55:1 56:1 57:1 58:1 60:1 61:1 64:1 65:1 66:1 69:1 72:1 73:1 74:1 77:1 82:1 85:1 90:1 
-0 0 0 0 0 0 0 0 0 0 0 0 0 0 0 0.7744637407086642 0 0 0 0 0 0 0 0 0 37:1 38:1 39:1 41:1 42:1 44:1 45:1 47:1 49:1 50:1 51:1 52:1 55:1 56:1 57:1 60:1 64:1 65:1 68:1 69:1 72:1 73:1 76:1 77:1 80:1 81:1 89:1 
-0 0 0 0 0 9.300182204232533 0 0 0 0 0 0 0 0 0 0 0 0 0 3.354376505920474 0 0 0 2.594391680289384 0 49:1 54:1 55:1 57:1 58:1 59:1 62:1 63:1 65:1 66:1 67:1 68:1 69:1 70:1 71:1 72:1 73:1 76:1 77:1 80:1 
-0 12.95174012343886 121.9431429953027 0 0 0 0 0 0 74.98548906196163 0 0 0 0 0 0 0 0 0 0 0 0 0 0 0 49:1 50:1 53:1 54:1 57:1 58:1 59:1 60:1 61:1 62:1 63:1 65:1 66:1 67:1 68:1 71:1 73:1 74:1 79:1 80:1 
-0 0 8.406148912037963 0 0 0 0 0 0 0 0 0 0 7.079812360096174 8.648798106704856 0 0 0 0 0 1.8659254717977 2.916761585824215 0 0 0 49:1 50:1 51:1 52:1 53:1 54:1 55:1 57:1 59:1 60:1 63:1 64:1 65:1 68:1 72:1 80:1 
-2.421899812146767 18.16555452706443 0 5.571410681685973 1.635408052071574 1.227039439113781 9.200428177551824 1.93034129990095 0 0 0 0.239432748626295 2.498984007458145 0 5.822652566461555 0 3.558499327846425 0 4.786097757117642 0 0 3.312078502718998 0 1.631349703649311 3.825722987257142 10:1 11:1 18:1 19:1 25:1 26:1 27:1 30:1 31:1 32:1 33:1 34:1 35:1 38:1 40:1 41:1 43:1 45:1 46:1 48:1 49:1 51:1 52:1 53:1 56:1 57:1 60:1 61:1 64:1 65:1 68:1 69:1 72:1 73:1 76:1 77:1 80:1 81:1 84:1 88:1 89:1 92:1 96:1 97:1 100:1 104:1 105:1 112:1 113:1 120:1 
-0 0 15.54713540097657 0 0 29.45221589815101 2.876257452836712 14.81029602152302 0 0 24.56429965672535 0 2.271930794609134 1.740020042676137 16.71614601457134 4.209690818107988 5.959873871476262 6.553202874658205 0 4.580522545281427 2.322904739619391 2.662040833783138 14.95791909662646 0 0 33:1 35:1 36:1 39:1 40:1 41:1 42:1 43:1 44:1 45:1 46:1 47:1 48:1 49:1 50:1 53:1 54:1 56:1 58:1 61:1 62:1 64:1 66:1 69:1 70:1 72:1 74:1 77:1 80:1 82:1 85:1 88:1 90:1 93:1 
-0 51.9666751542352 0 3.175383071798239 0 0 0 0 0 0 0 0 0 0 0 0 0 0 1.71827072923867 0 0 3.731282655752805 0 0 0 51:1 52:1 55:1 56:1 58:1 59:1 60:1 62:1 63:1 64:1 65:1 66:1 68:1 69:1 70:1 72:1 73:1 74:1 80:1 
-0 22.79648876801021 0 0.3411866062086049 0 0 0 0 0 0 0 0 0 0 0 0 0 0 0 0 0 0 0 0 0 36:1 37:1 40:1 44:1 45:1 47:1 48:1 49:1 51:1 52:1 53:1 55:1 56:1 57:1 59:1 61:1 62:1 63:1 64:1 65:1 66:1 69:1 70:1 72:1 73:1 74:1 77:1 78:1 80:1 81:1 85:1 88:1 89:1 96:1 
-0.7228212570836338 0 0 0 0 5.969271760394746 4.077227551639169 0 0 0 10.79947960558625 0 0 0 0 4.860579867511669 0 6.461705153755933 0 0.7435346750255568 0.1480349705583468 0 0 0 0 33:1 41:1 49:1 50:1 51:1 57:1 58:1 59:1 60:1 62:1 63:1 65:1 68:1 69:1 70:1 71:1 73:1 76:1 77:1 79:1 80:1 81:1 84:1 85:1 88:1 92:1 93:1 
-0 0.3484961664025407 0 3.105625646216266 0.6460822545573132 0 4.940469219492035 0 0 0.5832547886521566 1.816963715774007 0 4.902941671374151 0 3.664876498183269 3.286233946507273 4.999633176125649 2.653795057291455 7.827154252194228 6.242851235600644 0 2.888618341980786 0 0 1.566912375046928 17:1 19:1 20:1 25:1 26:1 27:1 28:1 31:1 32:1 33:1 34:1 36:1 38:1 39:1 40:1 41:1 42:1 44:1 46:1 48:1 49:1 50:1 52:1 54:1 56:1 57:1 60:1 61:1 62:1 64:1 65:1 68:1 69:1 72:1 73:1 76:1 77:1 80:1 81:1 84:1 85:1 88:1 89:1 92:1 96:1 104:1 112:1 
-34.55637340643785 56.15243032329609 45.71742640522206 3.273144374133536 5.091301543336372 20.45868047410426 0 26.16741451594407 16.19260938145377 59.10693171752617 13.98467306060829 3.606748523141146 10.07098286768832 0 0 0 0 0 11.11250495039563 0 0.6096103786828218 5.76728550644286 15.89505945820365 0 4.869478641558727 21:1 22:1 28:1 29:1 30:1 36:1 37:1 38:1 41:1 42:1 43:1 44:1 46:1 49:1 50:1 51:1 54:1 57:1 58:1 59:1 62:1 65:1 70:1 71:1 72:1 73:1 81:1 89:1 97:1 105:1 
-48.31439495294142 0 0 0 0.3232678413710642 1.509802251088519 0 0 9.816800575998759 78.88956002912619 0 0 0 8.133491143995155 2.418422865674396 0 0 0 0 2.323003489751982 3.598708618798838 0 0 0 0 49:1 50:1 51:1 54:1 55:1 57:1 59:1 60:1 61:1 62:1 63:1 65:1 71:1 72:1 73:1 
-0 0 0 0 0 0 0 0 0 0 0 0 0 0 0 0 0 0 0 0 0 0 0 23.90248083049305 0 49:1 50:1 51:1 52:1 55:1 56:1 57:1 58:1 60:1 62:1 63:1 64:1 65:1 66:1 68:1 69:1 70:1 72:1 73:1 74:1 76:1 77:1 80:1 
-0 0 44.06928468604485 0 0 0 0 30.40809046069708 4.030339931653 0 0 0 0 0 0 0 0 0 5.570538672404576 4.734035056135525 0 0 0 0 0 49:1 50:1 51:1 52:1 53:1 54:1 55:1 57:1 59:1 60:1 63:1 64:1 65:1 66:1 68:1 72:1 73:1 74:1 
-12.18190861442574 0 0 0 0 0 0 0 0 0 0 0 0 0 0 0 0 0 0 0 0 0 0 0 0 46:1 47:1 48:1 49:1 50:1 51:1 53:1 54:1 56:1 57:1 58:1 59:1 60:1 61:1 64:1 65:1 68:1 69:1 72:1 73:1 76:1 80:1 81:1 84:1 88:1 
-0 0 101.6166919651636 0.1480384709090969 1.090842840777574 0 0 32.65526950288955 0 0 27.91220721381859 2.816269456285012 1.366950928769486 5.134155952287033 0 4.152936313054442 0 0 6.588770242652963 0 1.137980781720235 1.030606023810547 0 1.068227899295709 0 49:1 57:1 58:1 59:1 60:1 61:1 65:1 66:1 67:1 68:1 69:1 70:1 71:1 79:1 80:1 
-0 49.82537709331893 100.1933771174491 1.157003394377637 0 22.76405805792695 0 0 5.602533846280951 0 16.31921817434687 2.771206992702639 0 0 0 0 0 0 0 0 0 6.035874545335303 0 0 0 37:1 38:1 39:1 42:1 43:1 44:1 45:1 47:1 48:1 49:1 50:1 52:1 53:1 56:1 57:1 60:1 64:1 65:1 68:1 72:1 73:1 76:1 80:1 81:1 84:1 88:1 89:1 92:1 96:1 
-16.77359924589927 0 59.47155031797129 9.076547499941213 0 3.873066737393384 0.7802486078113164 0 0 38.33728094053917 0 0 0 0 0 0 20.54355765880017 0 0 7.676833533248521 0 0 0 0.2138643332802678 0.442700410379299 33:1 41:1 44:1 45:1 46:1 47:1 48:1 49:1 52:1 54:1 55:1 56:1 57:1 59:1 60:1 62:1 64:1 65:1 67:1 69:1 70:1 72:1 73:1 74:1 75:1 77:1 78:1 80:1 81:1 82:1 84:1 85:1 88:1 89:1 92:1 93:1 96:1 
-0 0 0 2.031792036177321 0 0 0 0 0 0 0 0 0 0 0 0 0 0 4.471182365473244 0 0 0 0 0 0 31:1 39:1 40:1 42:1 43:1 46:1 47:1 48:1 50:1 51:1 54:1 56:1 58:1 59:1 62:1 64:1 65:1 66:1 67:1 68:1 69:1 70:1 72:1 73:1 76:1 77:1 80:1 81:1 88:1 89:1 97:1 
-0 0 0 0 0 0 0 0 0 0 0 0 0 0 0 4.553583581059418 0 0 0 0 0 0 0 0 0 38:1 39:1 41:1 42:1 46:1 47:1 48:1 49:1 50:1 54:1 56:1 57:1 58:1 59:1 61:1 62:1 64:1 65:1 67:1 68:1 69:1 72:1 73:1 76:1 80:1 81:1 89:1 
-0 23.37065134285048 0 0 0 0 0 0 0 0 0 0 0 0 0 0 0 0 0 0 0 0 0 0 0 35:1 36:1 37:1 39:1 40:1 43:1 45:1 46:1 47:1 48:1 49:1 51:1 53:1 54:1 56:1 57:1 58:1 59:1 61:1 62:1 64:1 65:1 66:1 69:1 72:1 73:1 74:1 77:1 80:1 81:1 82:1 84:1 85:1 88:1 89:1 95:1 96:1 
-0 0 139.0935749447279 0 0 0 0 0 1.034500386670558 0 0 0 0 0 0 0 0 0 0 0 0 0 0 0 7.742549265830728 41:1 49:1 51:1 52:1 57:1 58:1 59:1 60:1 62:1 63:1 65:1 66:1 68:1 70:1 71:1 72:1 73:1 74:1 76:1 77:1 78:1 80:1 81:1 82:1 85:1 88:1 
-0 0 0 0 0 0 0 0 1.117643716207482 0 0 0 0 0 0 0 0 0 0 0 0 0 0 0 0 43:1 44:1 49:1 51:1 52:1 53:1 54:1 55:1 56:1 57:1 58:1 61:1 62:1 64:1 65:1 66:1 69:1 72:1 73:1 77:1 80:1 81:1 85:1 88:1 
-0 0 161.0440699179717 0 0 0 4.885754656093112 0 0 0 0 0 0 7.155181960395897 2.169312597179341 10.73616604528089 0 0 0 0 0 0 0 0 0 41:1 42:1 49:1 50:1 51:1 53:1 54:1 55:1 57:1 59:1 60:1 61:1 63:1 64:1 65:1 72:1 80:1 88:1 
-0 76.54988954226235 69.92279279036144 0 0 0 0 0 1.354780086165922 0 0 0 0 0 0 0 0 3.960549832789247 0 4.920786879790985 0 0 5.604155704558323 0 3.701976421612662 49:1 51:1 53:1 54:1 57:1 58:1 59:1 61:1 62:1 63:1 65:1 66:1 68:1 69:1 71:1 73:1 74:1 76:1 79:1 80:1 
-0 96.90111850184375 66.20249378410406 5.325286169691318 6.263709020421019 41.8220484734777 14.03037851024958 0 0 32.58120623803976 0 5.175065178655549 13.66284877128755 35.34719898670834 0.7978338840714883 4.48927487530417 35.39504953273474 12.11875642957773 8.543931516546269 8.808580976017012 2.600717797581356 0.7613445397838037 37.6136631413513 2.92135969300333 5.872770391772954 49:1 57:1 58:1 60:1 61:1 62:1 65:1 66:1 67:1 68:1 70:1 71:1 72:1 80:1 
-0 0 76.67315815270511 0 0.9159874509730761 0 7.055890620834127 0 0 0 0 0 0 0 0 0 0 0 0 0 0 0 0 0 0 41:1 44:1 45:1 46:1 49:1 50:1 51:1 52:1 54:1 55:1 56:1 58:1 59:1 62:1 63:1 64:1 66:1 67:1 69:1 70:1 72:1 74:1 77:1 78:1 79:1 80:1 82:1 85:1 88:1 
-0 0 0 0 0 0 0 0 0 0 0 0 0 0 0 0 0 11.81592132562674 0 2.283582800371396 0 0 0 0 0 41:1 49:1 50:1 51:1 52:1 53:1 54:1 55:1 57:1 60:1 61:1 63:1 65:1 66:1 68:1 69:1 71:1 72:1 74:1 77:1 80:1 88:1 
-0 18.890843181274 0 0 0 0 0 0 0 0 0 0 0 0 0 0 0 0 0 0 0 0 0 0 0 35:1 36:1 37:1 38:1 40:1 42:1 43:1 44:1 45:1 46:1 47:1 48:1 50:1 51:1 53:1 54:1 55:1 56:1 57:1 58:1 61:1 62:1 64:1 65:1 66:1 69:1 70:1 72:1 73:1 76:1 77:1 80:1 81:1 84:1 88:1 96:1 
-0 0 0 0 0 0 0 1.094310499236328 0 0 0 0 0 0 0 0 0 0 0 0 0 0 0 0 0 33:1 35:1 36:1 37:1 41:1 43:1 45:1 47:1 48:1 49:1 50:1 51:1 53:1 54:1 55:1 56:1 57:1 58:1 61:1 62:1 64:1 65:1 66:1 69:1 72:1 73:1 77:1 80:1 81:1 89:1 
-0 0 0 0 0 0 0 0 0 0 0 8.190454955769765 0 0 0 15.87688195164153 6.695042436236634 2.559582387572211 0 0 0 0 0 1.432636128923408 0 41:1 49:1 57:1 58:1 59:1 60:1 61:1 62:1 63:1 65:1 68:1 69:1 71:1 72:1 73:1 76:1 77:1 81:1 
-36.53449618587297 0 0 0 0 0 0 0 0 7.46025419780504 0 0 0 0 0 0 0 0 0 0 0 0 0 0 0 42:1 50:1 52:1 56:1 57:1 58:1 59:1 60:1 61:1 63:1 64:1 65:1 66:1 67:1 69:1 70:1 71:1 72:1 73:1 74:1 77:1 78:1 80:1 81:1 88:1 
-34.04284579534186 66.4266355511794 69.48110004874835 1.750522203821675 6.866493747669613 15.23606199764367 1.249395676327675 4.900560569670566 18.56887362085364 248.0377805313528 27.75799235536237 2.560438111375989 6.525221796260259 27.64778961769883 5.777568254344224 9.15826439207531 25.71870887001898 39.29524174921663 11.13845453742395 6.151230093625905 2.102275783628081 9.103367064352332 18.14730591491721 9.95522563919174 18.51896299416467 40:1 44:1 45:1 46:1 47:1 48:1 49:1 50:1 51:1 52:1 57:1 58:1 59:1 60:1 68:1 69:1 70:1 75:1 76:1 82:1 83:1 86:1 87:1 90:1 91:1 92:1 93:1 94:1 95:1 96:1 
-0 0 0 0 0 0 0 0 0 0 6.20205381617389 0 0 0 0 0 0 0 0 0 0 0 0 0 0 41:1 49:1 50:1 51:1 55:1 57:1 58:1 59:1 60:1 62:1 63:1 65:1 66:1 68:1 69:1 70:1 71:1 72:1 73:1 74:1 80:1 88:1 
-0 0 0 0 4.141715045029135 0 0 0 1.998690939900837 79.96261354004966 0 0.8200291130368803 0 0 0 1.8379842274538 14.03525953291193 2.505664019655124 0 4.088801778404374 0 0.6026964872731868 0 0 0 41:1 49:1 51:1 54:1 57:1 58:1 59:1 60:1 62:1 63:1 65:1 66:1 68:1 70:1 71:1 73:1 74:1 76:1 77:1 78:1 79:1 80:1 81:1 84:1 85:1 
-40.7975414856203 0 0 0 0.6470221394198428 0 0 0 8.360292238189409 0 0 0.3034346328684492 0 0 0 0 25.05979875501492 0 7.600894970357408 0 0 0 0 6.135783766250596 0 49:1 51:1 57:1 58:1 59:1 60:1 65:1 66:1 68:1 69:1 70:1 71:1 72:1 73:1 
-0 0 0 0 0 0 5.438487283885272 0 0 0 0 0 0 0 0 0 0 0 0 0 0 0 0 4.371328289045047 0 49:1 50:1 51:1 57:1 58:1 59:1 61:1 62:1 63:1 64:1 65:1 66:1 67:1 68:1 69:1 71:1 72:1 73:1 75:1 76:1 
-0 64.05254294246265 0 0 0 0 0 0 0 0.8198128988399298 0 0 0 0 0 0 0 0.9711295058901143 0 0 0 0 4.303890088170143 0 0 44:1 45:1 49:1 50:1 52:1 53:1 57:1 58:1 59:1 60:1 61:1 62:1 65:1 67:1 68:1 70:1 71:1 73:1 79:1 80:1 81:1 88:1 
-0 0 0 0 0 0 0 0 0 1.986709183726626 0 0 0 0 0 0 0 0 0 0 0 0 0 0 2.854155267159733 33:1 41:1 43:1 49:1 50:1 51:1 52:1 53:1 54:1 55:1 57:1 58:1 59:1 60:1 61:1 63:1 65:1 66:1 67:1 68:1 71:1 73:1 75:1 79:1 80:1 81:1 83:1 88:1 89:1 91:1 96:1 
-0 0 0 0 0 0 0 0 0 0 0 0 0 0 0 0 0 0 0 0 0 0 0 0.5579002840325225 0 25:1 33:1 34:1 39:1 40:1 41:1 42:1 43:1 46:1 47:1 48:1 49:1 51:1 54:1 56:1 57:1 59:1 60:1 61:1 62:1 64:1 65:1 68:1 69:1 72:1 73:1 76:1 77:1 80:1 81:1 84:1 85:1 88:1 89:1 96:1 104:1 
-6.637494193036574 0 24.58566909531651 0 6.068639688848289 0 0 0 0 0 0 6.57520936220269 0 0 0 0 0 0 0 0 0 0 0 0 0 50:1 51:1 53:1 54:1 55:1 57:1 58:1 59:1 60:1 63:1 64:1 65:1 68:1 72:1 73:1 80:1 
-0 0 0 0 0 2.273364673411736 0 0 0 0 0 0 0 0 0 0 0 0 0 2.569805569375665 0 0 0 0 0 41:1 43:1 47:1 49:1 51:1 54:1 55:1 57:1 58:1 59:1 62:1 63:1 65:1 66:1 67:1 68:1 69:1 70:1 71:1 73:1 76:1 77:1 79:1 81:1 87:1 88:1 
-5.844198190517933 0 0 0 0 0 0 0 0 0 0 0 0 0 0 0 0 0 0 0 0 0 0 0 0 36:1 37:1 43:1 44:1 45:1 48:1 49:1 50:1 51:1 53:1 55:1 56:1 57:1 58:1 59:1 61:1 62:1 63:1 64:1 65:1 66:1 69:1 70:1 72:1 73:1 74:1 76:1 77:1 78:1 80:1 81:1 82:1 84:1 85:1 88:1 89:1 
-13.9089179706383 88.83254592046694 19.81583058829874 15.17993186607682 9.922379962826136 19.25352428078434 0 14.34138073042284 0.6095673146440395 121.8657375212098 0 5.167919113372469 10.9670615380341 16.32233920943293 12.10406375080416 12.84978726821702 21.27113182100836 21.17539325896407 11.8119732157604 1.684580244095331 3.630073047497542 6.314285583382168 25.95284895321325 7.84641592071399 8.875900443391224 32:1 39:1 40:1 43:1 44:1 45:1 46:1 48:1 51:1 52:1 53:1 54:1 56:1 59:1 61:1 63:1 64:1 66:1 67:1 68:1 69:1 71:1 74:1 76:1 77:1 78:1 79:1 81:1 82:1 83:1 84:1 86:1 89:1 91:1 92:1 94:1 99:1 102:1 
-0 0 0 1.149176586623935 0 0 0 0 0 0 0 0 0 0 0 0 0 0 0 0 0 0 0 10.56866436516691 0 49:1 54:1 55:1 56:1 57:1 58:1 59:1 60:1 61:1 62:1 64:1 65:1 66:1 68:1 69:1 72:1 73:1 74:1 76:1 80:1 
-9.351948500557521 0 0 0 0 14.77272201155016 2.371337768654865 0 0 0 8.531293447841293 0 0 0 0 0 0 0 0 0.8330111132368671 0 0 0 0 0 49:1 57:1 59:1 60:1 61:1 63:1 64:1 65:1 66:1 67:1 69:1 70:1 71:1 72:1 80:1 
-0 0 0 0 0 0 0.05506934882910312 0 0 0 0 0 0 0 0 0 0 0 0 0 0 0 0 7.347325448562148 0 41:1 49:1 52:1 53:1 56:1 57:1 59:1 60:1 61:1 63:1 64:1 65:1 66:1 67:1 69:1 70:1 71:1 72:1 73:1 74:1 77:1 78:1 80:1 81:1 88:1 
-0 0 0 0 0 0 0 0 0 0 0 0 0 0 0 0 0 0 0 0 0 0 0 6.481723594289654 0 40:1 41:1 47:1 48:1 49:1 51:1 52:1 54:1 55:1 56:1 57:1 59:1 60:1 61:1 62:1 64:1 65:1 66:1 67:1 68:1 69:1 70:1 72:1 73:1 74:1 76:1 77:1 78:1 80:1 81:1 82:1 84:1 85:1 88:1 89:1 92:1 96:1 
-0 71.42966794827952 0 0 0 0 0 0 0 0 0 0 0 0 0 0 0 0 0 0 0 0 0 0 0 42:1 44:1 50:1 51:1 52:1 54:1 55:1 57:1 58:1 59:1 60:1 61:1 62:1 63:1 65:1 66:1 68:1 69:1 71:1 73:1 74:1 79:1 80:1 81:1 82:1 88:1 
-1.786365178431208 0 0 0 0 0 0 0 0 88.61528853665038 0 0 0 0 0 0 0 0 0 0 0 0 0 0 0 33:1 34:1 35:1 38:1 39:1 40:1 41:1 42:1 43:1 44:1 46:1 48:1 49:1 50:1 52:1 53:1 54:1 56:1 57:1 60:1 61:1 64:1 65:1 69:1 72:1 73:1 77:1 80:1 81:1 84:1 85:1 88:1 92:1 93:1 96:1 
-0 0 0 0 0 0 0 0 0 0 0 0 0 0 0.1901056431570785 0 0.1190583808098743 0 0 0 0 0 0 0 0 41:1 42:1 43:1 45:1 46:1 47:1 49:1 51:1 52:1 53:1 55:1 56:1 57:1 60:1 64:1 65:1 68:1 72:1 73:1 76:1 80:1 81:1 88:1 
-0 0 0 0 0 0 1.890768149309435 0 0 0 0 0 0 0 0 0 0 0 0 1.127448818036303 0 0 0 0 0 41:1 49:1 51:1 52:1 54:1 55:1 57:1 59:1 60:1 61:1 62:1 63:1 64:1 65:1 66:1 67:1 69:1 72:1 73:1 74:1 80:1 88:1 
-0 16.28589386361115 0 0 0 0 0 0 0 0 0 0 0 0 0 0 0 0 0 0 0 0 0.3143629153922315 0 0 42:1 43:1 45:1 46:1 49:1 50:1 51:1 52:1 53:1 54:1 57:1 58:1 60:1 61:1 62:1 63:1 65:1 66:1 68:1 71:1 72:1 74:1 80:1 82:1 88:1 
-0 0 0 0 0 0 0 0 0 0 0 0 0 0 0 0 0 0 0 0 0 0 0 3.27476105899273 0 33:1 41:1 49:1 51:1 52:1 55:1 56:1 57:1 58:1 59:1 60:1 62:1 63:1 64:1 65:1 66:1 68:1 69:1 70:1 72:1 73:1 74:1 76:1 77:1 80:1 81:1 82:1 84:1 88:1 89:1 
-0 28.56232882941509 0 0 0 0 0 0 0 0 0 0 0 0 0 0 0 0 0 0 0 0 0 0 0 43:1 44:1 46:1 47:1 48:1 49:1 51:1 52:1 54:1 56:1 57:1 59:1 60:1 61:1 62:1 64:1 65:1 66:1 67:1 68:1 69:1 72:1 73:1 74:1 77:1 80:1 82:1 
-3.645180537002556 0 35.47244981199962 0 0 0 0 0 17.69569033189002 0 5.732879176316565 0 0 0 0 0 41.80393834637579 0 0 0 0 0 0 0 0 49:1 50:1 53:1 54:1 55:1 57:1 58:1 61:1 63:1 65:1 67:1 68:1 69:1 71:1 72:1 73:1 80:1 
-0 0 0 0 7.218422325332104 0 2.455011455618827 10.19277676698183 0 0 0 0 0 0 0 0 0 0 0 0 0 0 6.77841476639168 0 0 49:1 50:1 51:1 52:1 57:1 58:1 60:1 61:1 62:1 63:1 65:1 69:1 71:1 72:1 80:1 
-48.35041419209718 91.56104913032682 282.0001402716611 0 2.62057513044307 0 0 4.79838549972558 20.34411476628538 0 1.977828689104997 5.273632568306806 0 4.11033892764097 0 0 6.540228580119733 0 0 0 0 0 0 4.847951084979614 0 41:1 42:1 43:1 44:1 45:1 46:1 47:1 48:1 49:1 51:1 52:1 56:1 57:1 60:1 64:1 65:1 68:1 72:1 73:1 76:1 80:1 81:1 84:1 88:1 
-0 0 0 0 0 4.541287818606284 0 0 0 0 0 0 0 0 0 0 0 0 0 0 0 0 0 0 0 35:1 41:1 42:1 43:1 49:1 50:1 51:1 53:1 54:1 55:1 57:1 58:1 59:1 61:1 63:1 65:1 67:1 68:1 69:1 71:1 73:1 75:1 76:1 79:1 81:1 87:1 88:1 89:1 96:1 
-0 0 0 0 0 0 5.299669678795825 11.66836060630853 0 0 0 0 0 0 0 0 0 0 0 7.770115895484288 0 0 11.39211520953844 0 6.361799712249953 33:1 41:1 43:1 45:1 46:1 47:1 49:1 51:1 52:1 53:1 55:1 56:1 57:1 58:1 59:1 60:1 61:1 64:1 66:1 67:1 68:1 69:1 72:1 74:1 75:1 77:1 80:1 82:1 83:1 85:1 88:1 91:1 93:1 96:1 
-1.656057283344867 0 91.03738188189297 4.806791248702274 2.456613568405257 4.6797808322849 0 23.27465050038972 0 47.48663759889376 0 0 3.587110253588929 3.214046082232176 8.560386475350766 2.228654450099403 1.305390195186575 5.197520007575525 1.505873580806466 0.6964689686595711 0 0 2.361034511218627 0 14.01462801259289 21:1 29:1 30:1 37:1 38:1 41:1 44:1 45:1 46:1 49:1 52:1 54:1 55:1 56:1 57:1 58:1 59:1 60:1 64:1 65:1 66:1 67:1 73:1 81:1 89:1 97:1 105:1 
-0 0 0 0 0 0 0 0 0 0 1.145347328247732 0 0 0 0 0 4.320512503025371 0 0 0 0 0 0 0 0 28:1 29:1 35:1 36:1 37:1 39:1 40:1 41:1 42:1 43:1 45:1 46:1 47:1 48:1 49:1 50:1 53:1 54:1 56:1 57:1 58:1 61:1 64:1 65:1 68:1 69:1 72:1 73:1 80:1 81:1 88:1 89:1 95:1 96:1 103:1 
-0 0 0 0 0 8.996967627308004 0 0 0 25.74466507631863 0 0 0 0 0 0 0 5.88612014913102 0 0 0 0 0 0 0 36:1 37:1 42:1 43:1 44:1 45:1 47:1 48:1 50:1 51:1 53:1 54:1 55:1 56:1 58:1 59:1 61:1 62:1 64:1 65:1 66:1 69:1 72:1 73:1 74:1 76:1 77:1 80:1 81:1 88:1 89:1 
-0 0 0 0 0 0 0 0 0 0 0 0 0 0 0 0 0 0 0 0 0 0 1.723444282540338 0 0 43:1 44:1 49:1 51:1 52:1 53:1 54:1 55:1 56:1 57:1 58:1 59:1 61:1 62:1 64:1 66:1 69:1 70:1 72:1 74:1 77:1 78:1 80:1 82:1 85:1 88:1 
-13.81033258644589 59.81777019742489 18.82744888811945 0 0 0 0 0 2.307437837251546 48.76123002222611 0 0 0 0.4817817066914736 0 0 0 0 0 0 0 2.70327918772547 0 0 0 38:1 39:1 43:1 44:1 45:1 46:1 47:1 48:1 51:1 52:1 54:1 55:1 56:1 58:1 59:1 62:1 64:1 65:1 66:1 67:1 70:1 72:1 73:1 74:1 81:1 89:1 
-0 0 40.63831378684438 0 0 0 0 1.307726467059015 2.486887036862968 0 0 0 0 0 0 0 0 0 0 0 0 0 0 0 0 36:1 37:1 40:1 43:1 44:1 45:1 48:1 50:1 51:1 53:1 55:1 56:1 57:1 58:1 59:1 61:1 63:1 64:1 65:1 66:1 69:1 70:1 72:1 73:1 74:1 77:1 78:1 80:1 81:1 82:1 89:1 
-0 0 0 0.1936441008590226 0 0 0 17.09392965254688 0 0 0 0 0.09258227666518284 1.874516957989089 1.529324522360219 0 0 4.113307337524341 0 0 0 4.006477641656732 0 0 2.705597910569996 30:1 31:1 33:1 34:1 35:1 37:1 38:1 39:1 41:1 42:1 43:1 45:1 47:1 48:1 49:1 50:1 51:1 52:1 53:1 56:1 57:1 60:1 61:1 64:1 65:1 68:1 72:1 73:1 76:1 80:1 81:1 84:1 88:1 89:1 92:1 97:1 100:1 
-0 -0 0 0 0 0 0 0 0 0 0 0 0 0 0 0 29.91527445911387 0 0 0 2.107140134962652 0 0 0 0 27:1 28:1 34:1 35:1 36:1 37:1 38:1 39:1 42:1 45:1 47:1 49:1 53:1 55:1 57:1 61:1 63:1 65:1 69:1 70:1 71:1 73:1 77:1 78:1 81:1 83:1 84:1 85:1 86:1 89:1 90:1 91:1 94:1 95:1 103:1 104:1 
-0 -0 0 0 0 0 0 24.40891501759689 0 0 0 0 0 0 0 0 0 0 0 0 0 0 0 0 0 36:1 43:1 44:1 50:1 51:1 52:1 58:1 59:1 60:1 65:1 66:1 67:1 68:1 69:1 73:1 74:1 75:1 77:1 78:1 79:1 80:1 81:1 82:1 89:1 
-0 -0 0 0 1.363650714545585 0 0 0 0 0 0 0 0 0 0 0 0 0 0 0 0 0 0 0 0 42:1 43:1 44:1 45:1 46:1 49:1 50:1 54:1 57:1 62:1 65:1 69:1 70:1 73:1 76:1 77:1 78:1 79:1 80:1 81:1 82:1 83:1 84:1 
-0 -0 0 0 0 0 0 0 0 0 0 0 0 0 0 0.2014563566668092 0 0 0 0 0 0 0 7.180059835626919 0 48:1 51:1 52:1 53:1 54:1 55:1 56:1 57:1 58:1 59:1 62:1 63:1 64:1 65:1 69:1 70:1 71:1 73:1 75:1 76:1 77:1 79:1 81:1 82:1 83:1 87:1 
-0 -0 0 0 0 0 0 0 0 0 0 0 0 0 0 0 0 0 0 0 0 1.818123775124296 0 0 0 27:1 28:1 29:1 34:1 35:1 36:1 37:1 38:1 41:1 42:1 44:1 45:1 49:1 53:1 57:1 61:1 65:1 68:1 69:1 73:1 76:1 77:1 81:1 83:1 84:1 85:1 86:1 89:1 90:1 91:1 94:1 95:1 103:1 104:1 
-76.11993761544527 -0 9644.038640567644 0 1.816260812219053 283.7987789424355 0 0 44.66353781989675 276.5369926213356 62.50845860343983 0 0 0 26.10780483264462 0 0 11.18399846425251 0 0 0 9.069839888057881 26.40311266351824 0 0 36:1 37:1 38:1 43:1 44:1 46:1 47:1 51:1 52:1 53:1 54:1 55:1 58:1 59:1 63:1 66:1 71:1 72:1 73:1 74:1 80:1 81:1 88:1 89:1 96:1 
-15.60969881835781 -0 1989.231207458661 60.34015693332226 16.68889777347678 23.4764939229181 0 48.01168594154542 0 1509.528587605952 7.30270336856387 1.095517702162832 35.49712890843208 2.594145794383837 0 14.25504627784876 1.5081720228099 11.04778073298155 21.88019296078481 9.145876405396923 0 1.385785571364837 64.47648437648905 0.7244450999997339 34.02809426596681 23:1 24:1 30:1 31:1 32:1 37:1 38:1 40:1 44:1 45:1 48:1 51:1 52:1 59:1 62:1 66:1 67:1 70:1 74:1 77:1 78:1 81:1 82:1 83:1 84:1 85:1 86:1 89:1 90:1 91:1 94:1 97:1 98:1 105:1 
-0 -0 0 0 0 0 0 0 0 0 20.2080452774658 0 0 0 0 0 0 0 0 0 0 0 0 0 0 29:1 30:1 31:1 32:1 35:1 36:1 37:1 42:1 43:1 47:1 49:1 50:1 55:1 57:1 62:1 63:1 65:1 69:1 70:1 71:1 73:1 77:1 79:1 81:1 82:1 83:1 84:1 85:1 87:1 95:1 96:1 104:1 
-0 -0 2399.833494817899 0 0 0 0 0 0 0 0 0 0 2.679045168540097 10.5280614894239 0 0 0 0 0 0 2.850270967161386 0 0 0.8079155733403246 6:1 14:1 22:1 29:1 30:1 36:1 37:1 38:1 39:1 42:1 43:1 44:1 47:1 50:1 51:1 52:1 55:1 59:1 60:1 61:1 62:1 63:1 64:1 67:1 71:1 75:1 79:1 82:1 83:1 87:1 90:1 95:1 97:1 98:1 103:1 105:1 111:1 112:1 113:1 120:1 128:1 
-0 -0 0 15.71632320810903 0 42.52984889802563 2.333777350715733 0 0 0 0 0 0 5.662886694671958 8.764901706113429 0 98.21118979524599 31.30824574834649 0 10.6263524208234 0 1.839077890227626 36.25359399234144 4.356801445631874 26.39565887850639 33:1 34:1 35:1 36:1 44:1 45:1 46:1 47:1 55:1 56:1 64:1 66:1 67:1 68:1 69:1 72:1 74:1 77:1 78:1 79:1 80:1 82:1 83:1 87:1 88:1 91:1 92:1 93:1 94:1 95:1 
-0 -0 0 0 0 0 0 0 67.94597646078971 0 0 0 1.004374551945942 0 0 0 49.75199438466927 0 0 0 0 0 0 0 0 49:1 50:1 51:1 52:1 53:1 57:1 61:1 65:1 68:1 69:1 70:1 71:1 73:1 74:1 75:1 76:1 79:1 80:1 
-0 -0 899.0418066497487 2.744277210934913 0 0 9.730331046069248 0 0 0 1.393195647809114 0 0 0 0 0 26.88669722109337 0 0 2.937800332100555 0 0 0 0 0 6:1 12:1 13:1 14:1 15:1 19:1 20:1 23:1 26:1 27:1 31:1 33:1 34:1 39:1 41:1 47:1 49:1 55:1 57:1 63:1 65:1 71:1 72:1 73:1 79:1 80:1 81:1 87:1 88:1 89:1 94:1 95:1 96:1 97:1 101:1 102:1 104:1 105:1 106:1 109:1 112:1 114:1 115:1 116:1 117:1 120:1 128:1 
-0 -0 0 19.68917492738214 7.450419185237485 0 0.2539819824019401 0 0 0 0 0 0 12.10339681098907 0 0 0 0 0 0 5.589885379732875 0 0 0 11.59031059893933 3:1 4:1 5:1 11:1 13:1 14:1 22:1 30:1 38:1 46:1 47:1 52:1 53:1 55:1 59:1 60:1 61:1 62:1 63:1 66:1 71:1 73:1 74:1 79:1 81:1 87:1 89:1 95:1 97:1 103:1 104:1 105:1 112:1 113:1 114:1 120:1 122:1 123:1 124:1 125:1 126:1 
-0 -0 0 0 0 51.70057183510613 0 0 0 0 24.55669875297252 0.1030527657441289 0 3.29871736039521 0 0 0 0 0 4.58152509195649 0 0 0 0.8264487272773329 0 28:1 34:1 35:1 36:1 41:1 42:1 49:1 57:1 59:1 60:1 65:1 67:1 68:1 73:1 74:1 75:1 76:1 77:1 85:1 86:1 87:1 95:1 96:1 104:1 
-0 -0 0 0 0 43.67677342834546 0 0 0 0 0 0 0 16.4763989935638 0 0 0 0 0 0 0 0 0 4.413584069040984 0 27:1 28:1 29:1 30:1 34:1 35:1 38:1 42:1 46:1 49:1 50:1 55:1 56:1 57:1 62:1 63:1 64:1 65:1 68:1 69:1 70:1 72:1 73:1 74:1 75:1 76:1 80:1 88:1 96:1 104:1 
-15.80519999373838 -0 0 25.07294182139508 11.89932160469746 26.64163461484739 4.681246938706804 3.022789560661327 0 819.2554703934219 0 14.09329492528934 10.17204141822996 9.983268477041005 17.30471036358265 4.268216299551307 0 0 0 0 0.8656653030507454 0 0 0 8.865607986992453 19:1 20:1 21:1 26:1 27:1 29:1 33:1 34:1 37:1 38:1 41:1 45:1 46:1 49:1 53:1 57:1 61:1 65:1 69:1 73:1 77:1 78:1 81:1 83:1 84:1 85:1 86:1 89:1 90:1 91:1 94:1 102:1 110:1 111:1 112:1 
-0 -0 0 0 0 60.32183332956939 0 0 1.760701993721472 0 0 0 0 0 0 0 0 0 0 0 0 0 0 0 0 35:1 36:1 37:1 42:1 43:1 45:1 46:1 49:1 54:1 55:1 57:1 63:1 64:1 65:1 70:1 71:1 72:1 73:1 74:1 75:1 76:1 77:1 80:1 88:1 96:1 
-0 -0 0 0 0 0 0 0 0 0 0 0 0 0 0 0 0 0 0 0 0 0 2.516320051343136 0 0 34:1 35:1 36:1 37:1 41:1 45:1 46:1 49:1 53:1 54:1 57:1 61:1 62:1 65:1 68:1 69:1 70:1 71:1 73:1 76:1 79:1 81:1 83:1 84:1 87:1 88:1 89:1 90:1 91:1 96:1 
-0 -0 0 38.11713894939857 0 37.45660777484408 18.99117803931064 0 0 0 65.21213323199112 0 15.70405554930634 16.81453433776119 30.05458123809096 0 0 25.09384876135122 0 0 5.5291597125075 0 0 10.151982750812 0 28:1 29:1 30:1 31:1 33:1 34:1 35:1 36:1 39:1 40:1 48:1 56:1 61:1 63:1 64:1 68:1 69:1 70:1 71:1 75:1 78:1 79:1 82:1 83:1 86:1 87:1 88:1 90:1 95:1 96:1 98:1 99:1 100:1 101:1 102:1 103:1 
-39.77663573529716 -0 0 19.40803629353529 4.585354365162136 23.26501882981231 0 52.76558103575328 25.84020687519584 1830.859988646649 0 10.91120607553805 14.50843212739897 10.39410168719979 4.425988578721417 5.742726764218633 0 17.93629700054567 0.8583050856778252 0 0 0 0 0 0.2155413335343403 14:1 15:1 16:1 21:1 22:1 28:1 35:1 36:1 38:1 42:1 43:1 46:1 50:1 53:1 54:1 57:1 58:1 61:1 65:1 69:1 73:1 77:1 81:1 84:1 85:1 89:1 92:1 93:1 97:1 99:1 100:1 101:1 105:1 107:1 109:1 113:1 114:1 115:1 117:1 118:1 
-245.1959956583394 -71.75698545354376 10000 0 0.8487287171505605 42.15767329053475 0 64.31794968297061 0 1992.960510142888 0 0 0 0 10.09536813669964 0 0 6.658971695339047 20.72919323624241 0 0 0 69.50007767560851 0 0 27:1 28:1 29:1 35:1 37:1 43:1 45:1 46:1 50:1 51:1 52:1 53:1 54:1 55:1 58:1 59:1 60:1 63:1 64:1 66:1 67:1 72:1 73:1 74:1 75:1 80:1 81:1 89:1 97:1 
-0 -0 0 0 0 0 0 0 0 0 0 0 0 0 0 0 0 0 0 10.64790389256565 0 0 0 0 0 18:1 19:1 26:1 33:1 34:1 38:1 41:1 46:1 49:1 54:1 57:1 61:1 62:1 65:1 69:1 70:1 73:1 77:1 78:1 79:1 81:1 85:1 87:1 89:1 92:1 93:1 95:1 97:1 98:1 99:1 100:1 103:1 104:1 106:1 107:1 112:1 
-114.9938174952613 -0 2121.784566956286 0 0 0 0 0 6.494373004005895 0 14.37222083227587 10.3655753774077 0.5729594099054863 0 0 0 41.5947495818826 0 27.18567278686023 0 0 0 0 0 27.85212290919052 50:1 51:1 52:1 57:1 58:1 60:1 65:1 67:1 68:1 69:1 70:1 71:1 73:1 74:1 75:1 79:1 80:1 
-0 -37.74587625009753 0 0 0 0 0 0 0 0 0 0 0 0 0 0 0 0 0 0 0 0 0 0 0 42:1 43:1 44:1 45:1 49:1 50:1 52:1 57:1 59:1 60:1 61:1 65:1 67:1 69:1 72:1 73:1 74:1 75:1 77:1 78:1 79:1 80:1 81:1 82:1 86:1 87:1 
-0 -0 0 0 0 0 0 0 0 192.1183889459493 0 0 0 0 0 10.11694796652941 0 0 0 0 0 0 0 0 0 27:1 28:1 29:1 30:1 34:1 35:1 38:1 39:1 40:1 41:1 42:1 47:1 48:1 49:1 55:1 56:1 57:1 63:1 64:1 65:1 71:1 73:1 78:1 79:1 81:1 86:1 87:1 89:1 90:1 93:1 94:1 95:1 96:1 98:1 99:1 100:1 101:1 104:1 
-75.73224521273431 -0 0 0 0 0 0 0 0 617.657969722401 0.8644795453933495 0 0 0 0 10.71430406471137 40.66273394132838 0 0 0 0.792592862760863 0 0 0 0 31:1 32:1 35:1 36:1 37:1 39:1 40:1 43:1 46:1 47:1 48:1 50:1 51:1 54:1 55:1 56:1 58:1 62:1 63:1 65:1 70:1 73:1 77:1 78:1 81:1 84:1 85:1 86:1 89:1 91:1 92:1 94:1 97:1 98:1 99:1 102:1 
-16.39347888969295 -14.57205362982614 0 0 0 0 0 0 0 0 0 0 0 0 0 0 0 0 0 0 0 0 0 0 0 36:1 37:1 38:1 39:1 43:1 44:1 47:1 48:1 50:1 51:1 56:1 57:1 58:1 63:1 64:1 65:1 70:1 71:1 72:1 73:1 78:1 79:1 81:1 85:1 86:1 87:1 89:1 90:1 91:1 92:1 95:1 96:1 
-0 -0 0 0 0 50.84503865909435 0 0 0 0 0 0 0 0 0 0 0 31.24090312851353 0 0 0 0 0 0 1.976231348746322 38:1 39:1 40:1 44:1 45:1 46:1 47:1 48:1 50:1 51:1 52:1 54:1 55:1 58:1 62:1 63:1 65:1 66:1 69:1 70:1 73:1 76:1 77:1 78:1 81:1 83:1 84:1 86:1 89:1 90:1 94:1 
-13.47195283888032 -0 0 0 0 6.638792711951474 0 0 0.757991007036508 1473.423534630096 0 0 0 0 0 0 0 0 0 0 0 0 0 0 0 28:1 29:1 30:1 31:1 32:1 35:1 36:1 42:1 43:1 48:1 50:1 56:1 57:1 58:1 63:1 64:1 65:1 70:1 71:1 73:1 77:1 78:1 79:1 81:1 85:1 86:1 89:1 90:1 91:1 92:1 93:1 94:1 102:1 103:1 
-0 -0 0 0 0 0 0 0 0 0 0 0 2.658734089559063 0 0 0 0 0 0 0 0 0 0 0 0 28:1 29:1 30:1 31:1 34:1 35:1 36:1 39:1 41:1 42:1 49:1 54:1 55:1 57:1 62:1 63:1 65:1 69:1 70:1 73:1 76:1 77:1 78:1 81:1 82:1 83:1 84:1 86:1 87:1 90:1 91:1 95:1 96:1 104:1 
-0 -0 0 0 0 0 6.4010058271034 0 0 0 0 0 0 0 0 0 0 0 0 0 0 0 0 0 0 37:1 41:1 42:1 43:1 45:1 46:1 49:1 51:1 53:1 54:1 57:1 61:1 62:1 65:1 69:1 70:1 71:1 73:1 75:1 76:1 77:1 79:1 80:1 81:1 82:1 83:1 88:1 96:1 
-0 -0 0 0 0 72.6740696167832 0 0 0 0 0 0 0 0 0 0 0 0 0 0 0 0 0 0 0 37:1 38:1 42:1 43:1 44:1 45:1 46:1 47:1 50:1 54:1 55:1 57:1 62:1 65:1 69:1 70:1 71:1 73:1 76:1 77:1 79:1 80:1 81:1 82:1 83:1 84:1 89:1 90:1 
-0 -0 2513.898185537333 0 0 0 4.86202361773768 0 0 0 0 0 0 0 0 0 0 0 0 0 0 0 0 0 0 22:1 30:1 31:1 39:1 47:1 51:1 52:1 53:1 54:1 55:1 58:1 59:1 62:1 63:1 64:1 65:1 71:1 72:1 73:1 79:1 80:1 81:1 88:1 89:1 96:1 97:1 104:1 105:1 106:1 107:1 108:1 109:1 110:1 111:1 112:1 
-0 -9.369188077928364 0 0 0 49.02870079054357 0 0 0 0 0 0 0 0 0 0 0 0 0 0 0 0 0 9.093042270561542 0 10:1 11:1 12:1 18:1 20:1 21:1 26:1 29:1 33:1 34:1 40:1 41:1 48:1 49:1 56:1 57:1 63:1 64:1 65:1 69:1 70:1 71:1 72:1 73:1 76:1 77:1 80:1 81:1 84:1 88:1 89:1 90:1 91:1 92:1 96:1 104:1 112:1 120:1 
-0 -21.01623677367793 0 0 0 2.876179005726522 0 0 0 540.1549311390147 0 0 0 0 0 0 14.20668058929966 0 0 0 0 0 0 0 0 32:1 36:1 37:1 38:1 39:1 40:1 43:1 44:1 47:1 48:1 50:1 51:1 54:1 55:1 56:1 58:1 61:1 62:1 63:1 65:1 69:1 71:1 73:1 76:1 77:1 78:1 79:1 81:1 82:1 83:1 84:1 86:1 89:1 90:1 94:1 102:1 
-118.7313641995469 -0 1275.511025755851 24.18268433740148 14.44944662106501 138.4233987734606 17.05367961564815 4.32454869355518 0 363.6793717441035 17.72147254263284 23.51440250061661 11.14771211411639 3.674336636333547 19.24564086892133 15.36110379960709 32.40104851138558 0 22.08847795466218 11.97142693401969 4.698576846641788 4.975274123543969 5.939970096496303 8.229731685997542 21.07783403525792 2:1 3:1 4:1 5:1 9:1 10:1 13:1 14:1 15:1 17:1 23:1 25:1 31:1 32:1 40:1 48:1 56:1 64:1 66:1 67:1 68:1 69:1 70:1 72:1 74:1 79:1 80:1 81:1 89:1 97:1 105:1 106:1 114:1 115:1 118:1 119:1 120:1 123:1 124:1 125:1 126:1 
-148.5945251089866 -0 0 0 0 27.51645376902395 2.416907953584003 0 0 0 0 0 5.736068222161303 0 0 0.03330164235415706 0 0 0 0 0 0 9.86661659673846 0 0 33:1 34:1 35:1 36:1 41:1 44:1 49:1 52:1 53:1 57:1 61:1 62:1 65:1 69:1 70:1 71:1 72:1 73:1 76:1 77:1 80:1 81:1 82:1 83:1 84:1 90:1 
-113.7355874719612 -115.6304541385447 6417.007387199942 0 0 0 0 0 0 0 0 0 0 0 0 0 2.365335878212441 0 0 0 0 0 0 39.17987975159605 0 49:1 50:1 51:1 57:1 59:1 60:1 65:1 66:1 67:1 68:1 69:1 73:1 74:1 77:1 78:1 79:1 80:1 
-0 -27.50062608515822 326.7444652114672 0 0 0 0 0 0 0 0 0 0 0 0 0 0 0 0 0 0 0 0 0 0 11:1 12:1 13:1 14:1 15:1 19:1 23:1 26:1 27:1 31:1 34:1 39:1 40:1 42:1 48:1 49:1 50:1 56:1 57:1 58:1 64:1 65:1 66:1 67:1 68:1 69:1 70:1 71:1 72:1 73:1 80:1 81:1 88:1 89:1 96:1 97:1 104:1 105:1 112:1 113:1 
-21.0845960148317 -0 0 26.97752118266877 0 54.46701197214657 0 0 33.570101645031 0 0 2.054546359165758 0 0 0 0 63.46825485698825 0 0 0 0 0 0 0 0 27:1 28:1 29:1 30:1 31:1 34:1 35:1 38:1 39:1 42:1 46:1 47:1 49:1 50:1 54:1 55:1 57:1 63:1 65:1 71:1 72:1 73:1 79:1 80:1 81:1 86:1 87:1 89:1 93:1 94:1 97:1 98:1 99:1 100:1 101:1 
-0 -0 0 0 0 0 0 0 0 0 0 0 0 0 0 0.6586878758677444 0 15.43315580352636 2.243691964773358 0 0 0 0 0 0 49:1 50:1 51:1 52:1 57:1 59:1 60:1 65:1 68:1 69:1 73:1 74:1 75:1 76:1 77:1 78:1 79:1 80:1 
-0 -0 0 0 0 0 0 0 0 0 33.48243048399056 0 0 0 0 0 0 0 0 0 0 0 0 0 0 42:1 43:1 45:1 49:1 50:1 53:1 57:1 61:1 62:1 65:1 68:1 69:1 70:1 73:1 74:1 75:1 76:1 78:1 79:1 80:1 88:1 
-0 -0 771.5996597868879 0 0 0 0 0 0 0 1.217615874468398 0 0 0 0 0 0 0 0 0 0 0 0 0 0 38:1 39:1 40:1 43:1 44:1 45:1 46:1 48:1 50:1 51:1 56:1 57:1 58:1 64:1 65:1 68:1 69:1 70:1 71:1 72:1 73:1 74:1 75:1 76:1 79:1 87:1 95:1 96:1 
-0 -0 0 0 0 0 0 0 0 21.3651772611587 0 0 0 0 0 0 0 0 0 0 0 4.018875687741589 0 0 6.596523721865188 18:1 19:1 20:1 25:1 26:1 28:1 33:1 36:1 37:1 41:1 44:1 45:1 49:1 52:1 53:1 57:1 61:1 65:1 68:1 69:1 70:1 73:1 76:1 78:1 81:1 84:1 86:1 87:1 89:1 92:1 95:1 96:1 97:1 99:1 100:1 106:1 107:1 
-0 -0 0 0 0 0 0 0 0 0 0 0 0 0 0 0 113.2321045527678 0 0 0 0 0 0 0 0 33:1 34:1 35:1 36:1 41:1 44:1 45:1 46:1 49:1 53:1 54:1 57:1 61:1 62:1 65:1 69:1 70:1 73:1 76:1 77:1 78:1 79:1 81:1 83:1 84:1 87:1 89:1 90:1 91:1 95:1 96:1 
-0 -0 0 0 0 0 1.609847837970823 0 0 10.83358958246419 8.825974133378594 0 0 19.81195538792497 0 0 0 0 1.258008994240336 0 0 3.314277717452313 0 0 1.99765163063946 11:1 12:1 13:1 19:1 21:1 22:1 27:1 30:1 35:1 38:1 39:1 42:1 43:1 47:1 49:1 50:1 55:1 58:1 63:1 65:1 66:1 67:1 68:1 69:1 70:1 71:1 72:1 73:1 74:1 79:1 82:1 87:1 90:1 95:1 98:1 103:1 111:1 112:1 120:1 
-0 -0 0 0 0 0 0 0 0 0 0 0 0 0 0 0 59.14914667406134 13.03413865632738 0 0.5503298508993612 2.253642587698017 0 0 0 0 26:1 27:1 28:1 33:1 34:1 36:1 37:1 41:1 45:1 49:1 53:1 54:1 57:1 62:1 65:1 68:1 70:1 73:1 75:1 76:1 77:1 78:1 81:1 82:1 83:1 84:1 85:1 86:1 89:1 90:1 91:1 92:1 95:1 96:1 97:1 98:1 
-0 -0 0 0 0 0 0 0 0 0 3.150333426315954 0 0 0 0 0 0 0 0 0 0 0 0 0 0 36:1 37:1 38:1 39:1 42:1 43:1 44:1 47:1 49:1 50:1 55:1 57:1 61:1 62:1 65:1 68:1 69:1 70:1 73:1 74:1 75:1 76:1 78:1 86:1 87:1 95:1 96:1 
-0 -0 0 4.196054094511587 0 28.34229972424041 0 23.58665258282356 22.18747111914584 1678.875890264849 0 1.768654711261729 7.566326690411519 0 0 3.404594138063593 130.3175676005126 3.432223295198804 9.334778048451591 17.86016129958502 0.568312227033732 0 0 17.28698516485914 7.669476248741154 36:1 37:1 38:1 39:1 41:1 42:1 43:1 49:1 57:1 65:1 68:1 69:1 73:1 75:1 76:1 77:1 81:1 82:1 83:1 85:1 89:1 90:1 93:1 94:1 95:1 96:1 
