svm_type c_svc
kernel_type polynomial
degree 3
gamma 0.0078125
coef0 0
nr_class 26
total_sv 3691
rho -0.986227 -0.930741 0.989243 -0.995102 0.998114 -0.967015 -0.994911 -0.96797 -0.983207 0.982261 -0.989195 -0.954357 -0.995321 -0.982237 -0.991241 -0.995348 -0.980187 -0.994338 -0.986135 -0.995824 -0.998986 -0.999306 -0.995875 -0.999553 -0.992506 0.997264 1.00102 -0.992057 1.00001 0.984 -0.992699 0.997081 0.992684 0.996671 -0.982128 0.996589 -0.994512 -0.969949 -0.988468 -0.993493 0.99331 -0.993854 -0.968764 -0.995276 -0.999078 -0.999291 -0.996172 -0.9993 -0.99072 0.985069 -0.997804 0.998979 -0.982019 -0.997665 -0.983651 -0.989782 0.985642 -0.994431 -0.974774 -0.997709 -0.991755 -0.995234 -0.997245 -0.991163 -0.997544 -0.993439 -0.99822 -0.999358 -0.999341 -0.998543 -0.999548 -0.997115 -0.998609 -0.894101 -0.990258 -0.998536 -0.99211 -0.993845 -0.97318 -0.99708 -0.982906 -0.998494 -0.994908 -0.997543 -0.998625 -0.994693 -0.998526 -0.997031 -0.998965 -0.999515 -0.999579 -0.999103 -0.999587 -0.99824 1.0005 0.99905 -0.978318 0.999006 0.997889 0.998377 0.996984 0.999485 -0.989679 0.999983 0.99846 -0.984294 0.998019 -0.984133 0.989034 -0.990875 -0.998662 -0.998691 -0.992585 -0.998857 0.994369 -0.999769 -1.00011 -0.999522 -0.999248 -0.997809 -0.999615 -1.00005 -1.00013 -0.999723 -0.999716 -0.999738 -0.999078 -0.999647 -0.9999 -0.999889 -0.999846 -1.00006 -1.00002 -0.999864 -0.999886 -0.997264 -0.955949 -0.976665 0.987759 -0.994008 0.99218 -0.997591 -0.988164 -0.997264 -0.996877 -0.96538 -0.997081 -0.99139 -0.997388 -0.999344 -0.999778 -0.997954 -0.999533 -0.994834 0.999424 0.998535 0.998642 0.998204 0.999218 -0.989732 0.999549 0.997377 -0.986146 0.998309 -0.984443 0.98956 -0.993255 -0.998574 -0.998912 -0.991811 -0.998941 0.996438 -0.996047 0.991546 -0.997636 0.992963 -0.999406 -0.996109 -0.998072 -0.999164 -0.990572 -0.998925 -1.00041 -0.999276 -0.999551 -0.999626 -0.999308 -0.999664 -0.999263 0.994606 -0.99628 0.99503 -0.998302 -0.992367 -0.9962 -0.998214 0.986456 -0.997894 -0.994305 -0.998689 -0.999491 -0.999496 -0.998268 -0.999603 -0.998141 -0.995886 -0.980754 -0.998412 -0.993582 -0.996386 -0.997882 -0.991683 -0.998521 -0.997916 -0.998505 -0.999209 -0.99954 -0.998618 -0.999595 -0.99861 0.997585 -0.997489 0.997649 -0.994509 -0.996528 0.994447 -0.997391 0.966175 -0.997716 -0.999176 -0.99983 -0.998278 -0.999339 -0.994752 -0.999725 -0.998732 -0.998747 -0.99894 -0.993405 -0.999159 -0.997492 -0.999211 -0.999875 -0.99996 -0.999467 -0.999793 -0.998681 0.99986 0.998037 0.99443 0.997923 0.996394 0.994877 -0.994728 -0.999191 -0.999645 -0.996793 -0.999225 0.995308 -0.998975 -0.999296 0.990645 -0.999557 0.940876 -0.999201 -0.999461 -1.00004 -0.999665 -0.999591 -0.999327 -0.9972 0.995502 -0.997612 0.982841 -0.997551 -0.999339 -0.999925 -0.998493 -0.999471 -0.993641 0.99907 0.991675 0.990497 -0.995669 -0.999272 -0.999353 -0.995378 -0.999616 0.994364 -0.997564 -0.992267 -0.998583 -0.999469 -0.999405 -0.998212 -1.00012 -0.9973 0.990346 -0.996173 -0.999354 -0.999639 -0.998048 -0.999444 0.993659 -0.992739 -0.998491 -0.999082 -0.994211 -0.998888 -0.986017 -0.999049 -0.999372 -0.994252 -0.999552 0.997885 0.995006 0.999101 -0.998769 0.998908 0.999574 -0.996127 0.999481 -0.999312 0.996382 0.999381
label 14 12 0 13 3 8 6 1 17 2 4 18 11 5 19 24 21 20 25 15 7 9 16 23 22 10
probA -469.166 0.183611 -206.55 -594.818 -352.106 -242.043 -728.72 -525.462 -635.551 0.135669 -895.905 -404.723 -1597.94 -806.539 -887.821 -1461.66 -569.989 -1422.39 -335.243 -1906.66 -5767 -3677.75 -1638.05 -8788.46 -961.356 -680 -991.822 -612.751 -869.973 -407.455 -702.113 -686.394 -581.695 -687.235 -308.564 -698.427 -1686.38 -456.518 -1091.98 -1166.99 -590.372 -1099.82 -279.731 -1437.07 -6745.29 -3085.25 -1383.05 -5236.16 -836.326 -240.013 -789.445 -588.687 -249.333 -915.718 -683.708 -982.652 -371.5 -1239.95 -652.967 -2582.24 -1752.73 -1709.49 -2075.69 -611.761 -2364.52 -390.464 -2388.68 -10278.4 -4341.12 -3158.93 -9810.35 -1198.02 -917.849 0.0383842 -402.506 -1115.44 -1352.63 -1367.66 -292.476 -1727.86 -798.351 -2971.75 -1758.61 -2121.75 -2311.81 -718.201 -2689.83 -449.789 -2667.95 -15815.7 -4378.94 -2993.22 -10525 -1478.06 -1214.71 -1030.59 0.305697 -1007.71 -1024.59 -1193.75 -876.441 -1005.72 -954.705 -1336.85 -744.583 0.51966 -851.909 0.440714 -711.387 -928.539 -7552.39 -2903.08 -949.903 -3451.32 0.578526 -719.135 -1306.07 -1446.33 -1850.08 -586.497 -2504.94 -1181.24 -5273.55 -5485.22 -3150.99 -3230.35 -1132.39 -3070.05 -658.453 -3829.3 -11434.7 -6249.19 -2866.44 -10592.6 -1904.69 -939.921 -129.935 -522.57 -356.84 -829.655 0.143158 -2160.73 -738.908 -1132.71 -2197.32 0.308347 -1325.27 -386.247 -1769.43 -11385.2 -2118.11 -1853.14 -7211.03 -901.367 -1119.32 -956.644 -1194.43 -866.171 -1114.8 -932.292 -1026.56 -771.364 0.379312 -1014.76 0.399881 -699.751 -1039.39 -5789.85 -2314.68 -988.989 -3939.62 -809.733 -1161.06 -1210.54 -1755.1 -661.719 -2900.89 -1501.77 -1799.91 -2127.28 0.191481 -2284.15 -398.629 -2841.5 -11657.8 -3886.5 -2898.71 -10396.1 -1182.95 -1824.49 -1701 -863.761 -2943.2 -1513.24 -1804.69 -2538.6 0.374825 -2578.92 -444.845 -2847.72 -13847.3 -4793.14 -2254.71 -7715.53 -1585.26 -1521.39 -698.003 -2834.23 -1800.47 -2657.76 -2633.9 -828.332 -3724.64 -379.457 -3283.21 -10792.6 -5408.52 -3618.08 -8320.69 -1592.96 -1573.89 -2330.63 -1609.7 -959.726 -1843.35 -1173.23 -2185.93 -165.74 -2041.11 -9873.21 -4663.43 -2414.82 -7803.15 -976.354 -3589.17 -2834.05 -2230.67 -2162.75 -675.636 -2771.44 -508.346 -2136.09 -13814 -4820.5 -2559.8 -8429.53 -1177.4 -3585.59 -1990.67 -808.08 -2840.17 -774.247 -1584.86 0.268468 -6835.21 -4865.82 0.517984 -7218.26 -1579.94 -2009.02 -2576.47 -1351.69 -3197.82 0.114789 -2615.46 -13951.2 -4865.07 -3244.8 -8552.83 -1436.42 -1961.45 -1476.11 -1504.88 -483.653 -2146.75 -5757.51 -2641.69 -1967.44 -6771.94 0.455187 -1503.24 0.481753 -1040.9 0.580315 -7790.03 -4528.7 -1643.58 -7462.57 -1925.85 -2135.09 -443.612 -2536.17 -9930.15 -4198.96 -2656.7 -4862.6 -1196.34 -914.365 -1641.22 -7645.63 -3330.83 -2377.88 -5483.16 -994.736 -1261.6 -4922.27 -4557.12 -1475.88 -3969.4 -803.892 -6678.92 -3207.94 0.392638 -5887.13 -1691.21 1.077 -6253.35 0.869651 -7888.75 -3308.75 1.15644 -3728.9 -5192.46 -1684.86 -7503.25
probB 462.727 -0.181668 -202.557 590.78 -347.886 236.25 724.029 514.349 629.888 0.134441 889.251 392.345 1592.31 797.222 882.779 1456.26 563.005 1415.8 329.928 1900.18 5760.66 3672.03 1631.82 8780.98 955.387 -675.913 -987.922 607.775 -865.416 -400.303 697.193 -681.254 -575.882 -682.702 304.546 -693.555 1679.49 447.826 1083.59 1161.43 -584.53 1094.72 271.894 1431.99 6739.92 3080.81 1379.07 5230.93 829.906 -236.08 785.73 -584.354 245.389 911.298 676.539 976.348 -365.859 1234.9 642.045 2576.89 1743.83 1703.57 2070.16 607.907 2359.35 386.167 2383.81 10270.6 4335.42 3153.9 9803.56 1193.85 913.625 -0.0456158 398.291 1111.02 1345.62 1361.04 285.472 1722.75 788.653 2966.7 1752.44 2116.82 2307.15 714.027 2684.75 445.885 2663.44 15806.6 4373.31 2988.31 10517.2 1473.63 -1210.15 -1026.54 -0.0134011 -1003.33 -1020.32 -1189.01 -871.606 -1001.47 947.828 -1331.93 -740.686 -0.527892 -848.08 -0.446899 -704.652 922.289 7544.44 2897.78 944.297 3446.54 0.588467 715.234 1301.55 1442.7 1845.62 581.69 2500.01 1179.3 5269.1 5480.62 3146.52 3224.4 1127.86 3065.13 653.729 3824.29 11427.8 6243.85 2861.37 10584.7 1899.69 935.495 125.636 513.284 -352.612 825.608 0.0999947 2155.69 733.317 1130.17 2189.81 -0.303617 1321.3 381.417 1764.11 11377 2114.71 1848.22 7203.9 896.187 -1115.23 -952.562 -1189.98 -862.5 -1110.37 926.043 -1022.74 -767.213 -0.330589 -1010.69 -0.248277 -693.789 1034.84 5782.99 2310.59 982.796 3934.73 -805.402 1156.08 -1204.64 1749.86 -657.206 2897.57 1497.1 1795.73 2123.02 -0.207367 2279.64 395.311 2836.93 11650.1 3881.18 2894 10388.4 1179.75 -1818.64 1695 -859.007 2938.5 1504.83 1798.75 2532.81 0.356684 2573.05 439.828 2842.96 13838.8 4787.65 2249.97 7709.11 1580.31 1516.34 689.613 2829.81 1793.74 2650.54 2627.99 822.584 3719.25 376.002 3277.44 10783.6 5402.22 3612.36 8313.62 1588.83 -1569.12 2325.24 -1604.49 955.373 1836.81 -1167.72 2180.38 -161.829 2035.97 9865.18 4658.09 2409.41 7795.68 970.478 3585.27 2830.52 2226.54 2157.58 669.971 2766.94 504.007 2131.56 13807.7 4815.97 2555.21 8422.52 1173.07 -3581.76 -1986.14 -804.407 -2834.74 -771.633 -1580.31 -0.0682568 6828.77 4860.41 -0.524474 7210.69 -1574.5 2005.28 2571.27 -1342.87 3193.29 0.115235 2611.29 13941.9 4860.31 3239.77 8546.16 1432.3 1954.65 -1470.99 1500.34 -478.343 2140.95 5752.4 2638.27 1962.81 6765.64 -0.132915 -1500.66 0.0160049 -1033.96 -0.525684 7783.41 4523.6 1636.56 7455.98 -1917.35 2129.89 438.621 2531.83 9922.36 4192.98 2651.13 4858.66 1192.05 -908.405 1635.49 7639.78 3326.54 2372.34 5477.21 -989.632 1255.49 4916.02 4551.56 1469.2 3964.33 795.656 6672.88 3203.61 -0.251356 5881.79 -1687.98 0.258183 -6248.17 -0.288386 -7881.01 -3304.61 -1.17879 -3724 5187.15 -1679.11 -7496.51
nr_sv 303 133 281 372 74 365 197 73 185 154 320 105 200 57 120 87 66 175 67 126 56 13 15 51 12 84
SV
0 0.1 0.1 0 0.1 0 0 0 0 0.1 0 0 0 0 0 0 0 0 0 0 0 0 0 0 0 26:1 27:1 28:1 34:1 35:1 36:1 37:1 38:1 42:1 46:1 47:1 49:1 50:1 55:1 56:1 57:1 64:1 65:1 72:1 73:1 80:1 81:1 87:1 88:1 89:1 93:1 94:1 95:1 97:1 98:1 99:1 100:1 101:1 
0 0.1 0.1 0 0.1 0 0 0 0.1 0.1 0 0.07353422963994016 0 0 0 0 0 0 0 0 0 0 0 0 0 35:1 36:1 37:1 38:1 42:1 43:1 44:1 46:1 47:1 48:1 49:1 50:1 56:1 57:1 64:1 65:1 72:1 73:1 80:1 81:1 87:1 88:1 89:1 90:1 91:1 92:1 93:1 94:1 
0.1 0.1 0.1 0 0.1 0.1 0 0.1 0.1 0.1 0 0.1 0 0 0 0 0.1 0 0 0 0 0 0 0 0 34:1 35:1 41:1 42:1 43:1 44:1 45:1 46:1 47:1 49:1 55:1 56:1 57:1 64:1 65:1 72:1 73:1 80:1 81:1 87:1 88:1 89:1 90:1 91:1 92:1 93:1 94:1 95:1 
0.1 0.1 0.1 0 0.1 0.1 0 0.1 0.1 0.1 0 0.1 0 0.1 0 0 0.1 0 0 0 0 0 0 0 0 34:1 35:1 36:1 41:1 42:1 44:1 45:1 46:1 49:1 54:1 55:1 57:1 63:1 64:1 65:1 72:1 73:1 80:1 81:1 82:1 88:1 90:1 91:1 92:1 93:1 94:1 95:1 96:1 
0 0.1 0.1 0 0.1 0 0 0 0 0.1 0 0 0 0 0 0 0 0 0 0 0 0 0 0 0 29:1 30:1 31:1 36:1 37:1 39:1 40:1 43:1 44:1 48:1 50:1 51:1 56:1 57:1 58:1 64:1 65:1 72:1 73:1 79:1 80:1 81:1 86:1 87:1 89:1 92:1 93:1 94:1 97:1 98:1 99:1 100:1 
0 0.1 0.1 0 0.1 0 0 0 0 0.1 0 0 0 0 0 0 0 0 0 0 0 0 0 0 0 25:1 26:1 27:1 28:1 29:1 30:1 31:1 33:1 34:1 35:1 39:1 40:1 41:1 42:1 48:1 49:1 56:1 57:1 64:1 65:1 72:1 73:1 80:1 81:1 88:1 89:1 90:1 91:1 93:1 94:1 95:1 96:1 99:1 100:1 101:1 
0 0.1 0.1 0 0.1 0 0 0 0 0.1 0 0 0 0 0 0 0 0 0 0 0 0 0 0 0 13:1 19:1 20:1 21:1 22:1 27:1 30:1 31:1 34:1 35:1 39:1 40:1 42:1 48:1 50:1 56:1 57:1 58:1 64:1 65:1 72:1 73:1 79:1 80:1 81:1 87:1 89:1 90:1 95:1 97:1 98:1 102:1 107:1 108:1 109:1 110:1 115:1 116:1 
0.1 0.1 0.1 0.1 0.1 0.1 0.1 0.1 0.1 0.1 0.1 0.1 0.1 0.1 0.1 0.1 0.1 0.1 0.1 0.1 0 0 0.1 0 0.1 36:1 37:1 38:1 39:1 40:1 42:1 43:1 47:1 48:1 49:1 50:1 56:1 57:1 63:1 64:1 65:1 71:1 73:1 77:1 78:1 81:1 84:1 85:1 89:1 90:1 91:1 92:1 
0 0.1 0.1 0 0.1 0.1 0 0.1 0 0.1 0.1 0.1 0 0 0 0 0.1 0 0 0 0 0 0 0.06802999483727708 0 19:1 20:1 21:1 22:1 25:1 26:1 27:1 30:1 31:1 33:1 39:1 40:1 41:1 48:1 49:1 56:1 57:1 64:1 65:1 72:1 73:1 80:1 81:1 88:1 90:1 95:1 96:1 98:1 99:1 102:1 103:1 107:1 108:1 109:1 110:1 
0.1 0.1 0.1 0.1 0.1 0.1 0.1 0.1 0.1 0.1 0.1 0.1 0.1 0.1 0.1 0.05359447707127502 0.1 0.1 0.1 0.04295465172456576 0 0.03526837357211471 0.05744476772069342 0 0.1 20:1 21:1 22:1 23:1 24:1 27:1 28:1 29:1 32:1 34:1 35:1 36:1 40:1 43:1 44:1 48:1 51:1 56:1 59:1 63:1 64:1 66:1 67:1 71:1 74:1 78:1 82:1 85:1 86:1 89:1 90:1 92:1 93:1 97:1 99:1 100:1 105:1 106:1 107:1 
0 0 0.1 0 0.1 0 0 0 0 0.1 0 0 0 0 0 0 0 0 0 0 0 0 0 0 0 21:1 22:1 23:1 27:1 28:1 29:1 30:1 31:1 32:1 35:1 40:1 42:1 43:1 48:1 50:1 56:1 57:1 58:1 64:1 65:1 72:1 73:1 80:1 81:1 87:1 88:1 89:1 94:1 95:1 97:1 100:1 101:1 102:1 105:1 106:1 107:1 108:1 
0 0 0.1 0 0.1 0 0 0 0 0.1 0 0 0 0 0 0 0 0 0 0 0 0 0 0 0 20:1 21:1 22:1 27:1 30:1 34:1 35:1 36:1 37:1 38:1 39:1 41:1 42:1 46:1 47:1 48:1 49:1 56:1 57:1 64:1 65:1 72:1 73:1 80:1 81:1 88:1 89:1 95:1 96:1 97:1 102:1 103:1 105:1 106:1 107:1 108:1 109:1 110:1 
0.1 0.1 0.1 0.1 0.1 0.1 0 0.1 0.1 0.1 0.1 0.1 0.06700181335396198 0.1 0.1 0.1 0.1 0.1 0.1 0.04212661665841468 0 0.02888544508503493 0.05605758924640106 0 0.1 19:1 20:1 21:1 23:1 26:1 27:1 29:1 31:1 34:1 37:1 38:1 39:1 41:1 42:1 46:1 47:1 48:1 49:1 55:1 57:1 63:1 65:1 71:1 73:1 78:1 79:1 81:1 85:1 89:1 92:1 97:1 98:1 99:1 100:1 106:1 
0.1 0.1 0.1 0 0.1 0.1 0 0.1 0.1 0.1 0 0.1 0 0.04933394055971179 0 0 0.1 0 0 0 0 0 0 0 0 29:1 33:1 34:1 35:1 37:1 38:1 41:1 46:1 47:1 49:1 55:1 56:1 57:1 64:1 65:1 72:1 73:1 80:1 81:1 82:1 88:1 90:1 91:1 92:1 96:1 100:1 101:1 102:1 103:1 104:1 
0 0.1 0.1 0 0.1 0 0 0 0 0.1 0 0 0 0 0 0 0 0 0 0 0 0 0 0 0 33:1 34:1 35:1 36:1 37:1 41:1 42:1 43:1 45:1 46:1 47:1 49:1 55:1 56:1 57:1 64:1 65:1 72:1 73:1 80:1 81:1 82:1 87:1 88:1 90:1 91:1 92:1 93:1 94:1 95:1 
0 0 0.1 0 0.1 0 0 0 0 0.1 0 0 0 0 0 0 0 0 0 0 0 0 0 0 0 17:1 18:1 19:1 20:1 21:1 22:1 25:1 26:1 27:1 28:1 29:1 30:1 31:1 33:1 34:1 37:1 39:1 41:1 47:1 48:1 49:1 56:1 57:1 64:1 65:1 72:1 73:1 80:1 81:1 88:1 89:1 90:1 95:1 96:1 98:1 99:1 101:1 102:1 103:1 107:1 108:1 109:1 
0 0.1 0.1 0 0.1 0 0 0 0 0.1 0 0 0 0 0 0 0.04620582818934549 0 0 0 0 0 0 0 0 27:1 28:1 29:1 30:1 31:1 32:1 34:1 35:1 40:1 41:1 42:1 48:1 49:1 50:1 56:1 57:1 64:1 65:1 72:1 73:1 79:1 80:1 81:1 86:1 87:1 89:1 90:1 94:1 98:1 99:1 100:1 101:1 102:1 
0 0.1 0.1 0 0.1 0.1 0 0 0 0.1 0 0 0 0 0 0 0 0 0.1 0 0 0 0 0 0 2:1 3:1 4:1 5:1 6:1 10:1 12:1 14:1 15:1 19:1 20:1 23:1 24:1 26:1 27:1 32:1 34:1 40:1 41:1 42:1 48:1 49:1 56:1 57:1 64:1 65:1 72:1 73:1 80:1 81:1 88:1 89:1 95:1 96:1 97:1 103:1 105:1 110:1 111:1 113:1 117:1 118:1 121:1 122:1 123:1 124:1 125:1 
0 0.1 0.1 0 0.1 0.02543132751495619 0 0 0 0.1 0 0 0 0 0 0 0 0 0 0 0 0 0 0 0 20:1 21:1 22:1 26:1 27:1 28:1 29:1 30:1 31:1 33:1 34:1 37:1 38:1 39:1 41:1 46:1 47:1 49:1 54:1 55:1 56:1 57:1 64:1 65:1 72:1 73:1 80:1 81:1 88:1 90:1 95:1 96:1 98:1 99:1 100:1 101:1 102:1 103:1 109:1 110:1 
0 0.1 0.1 0 0.1 0.1 0 0.1 0.1 0.1 0 0.1 0 0 0 0 0.1 0 0 0 0 0 0 0 0 28:1 29:1 30:1 31:1 34:1 35:1 36:1 39:1 40:1 41:1 42:1 48:1 49:1 56:1 57:1 64:1 65:1 72:1 73:1 79:1 81:1 86:1 87:1 89:1 92:1 93:1 94:1 97:1 98:1 99:1 
0 0 0.1 0 0.1 0 0 0 0 0.1 0 0 0 0 0 0 0 0 0 0 0 0 0 0 0 21:1 22:1 26:1 27:1 28:1 29:1 30:1 31:1 32:1 33:1 34:1 40:1 41:1 42:1 43:1 48:1 49:1 51:1 56:1 57:1 64:1 65:1 72:1 73:1 80:1 81:1 87:1 88:1 89:1 94:1 95:1 97:1 98:1 101:1 102:1 106:1 107:1 108:1 109:1 
0.1 0.1 0.1 0.1 0.1 0.1 0.1 0.1 0.1 0.1 0.1 0.1 0.06645892026540878 0.1 0.1 0.03148758903137141 0.1 0.1 0.1 0.03048823276962696 0 0.02758133649788258 0.1 0 0.1 11:1 12:1 13:1 14:1 22:1 23:1 31:1 32:1 40:1 45:1 46:1 48:1 52:1 53:1 56:1 59:1 60:1 64:1 67:1 72:1 74:1 75:1 79:1 80:1 82:1 86:1 87:1 89:1 90:1 94:1 97:1 101:1 102:1 105:1 107:1 108:1 109:1 113:1 114:1 115:1 
0.1 0.1 0.1 0.05072444403890423 0.1 0.1 0.1 0.1 0.1 0.1 0.07351626491111021 0.1 0.03294602948798894 0.07408714778094416 0.04083011126502653 0 0.1 0 0.1 0 0 0 0 0 0.03716073840611876 3:1 4:1 5:1 6:1 11:1 15:1 19:1 23:1 24:1 27:1 32:1 34:1 35:1 40:1 42:1 48:1 50:1 56:1 57:1 58:1 64:1 65:1 72:1 73:1 80:1 81:1 88:1 89:1 96:1 97:1 104:1 105:1 112:1 113:1 114:1 119:1 120:1 122:1 123:1 124:1 125:1 126:1 127:1 
0 0.1 0.1 0 0.1 0.06831368370101575 0 0.05843148514253214 0 0.1 0 0.1 0 0 0 0 0 0 0 0 0 0 0 0 0 11:1 12:1 18:1 19:1 20:1 21:1 26:1 29:1 30:1 31:1 34:1 39:1 40:1 41:1 48:1 49:1 56:1 57:1 64:1 65:1 72:1 73:1 80:1 81:1 88:1 89:1 95:1 96:1 97:1 103:1 105:1 109:1 110:1 111:1 113:1 114:1 115:1 116:1 117:1 
0.1 0.1 0.1 0 0.1 0.1 0.1 0.1 0.1 0.1 0.1 0.1 0 0.1 0.1 0.1 0.1 0 0.1 0.1 0 0 0 0 0.1 34:1 35:1 36:1 40:1 41:1 42:1 48:1 49:1 56:1 57:1 64:1 65:1 72:1 73:1 79:1 80:1 81:1 82:1 86:1 87:1 90:1 91:1 92:1 93:1 94:1 
0 0.1 0.1 0 0.1 0 0 0.1 0 0.1 0 0.1 0 0 0 0 0 0 0 0 0 0 0 0 0 21:1 22:1 28:1 29:1 30:1 31:1 35:1 36:1 39:1 40:1 43:1 48:1 51:1 56:1 58:1 59:1 64:1 65:1 66:1 72:1 73:1 79:1 80:1 81:1 87:1 89:1 94:1 95:1 97:1 98:1 99:1 100:1 101:1 102:1 106:1 
0.1 0.1 0.1 0 0.1 0.1 0.1 0.1 0.1 0.1 0.1 0.1 0 0.1 0.1 0.1 0.1 0 0.1 0.1 0 0 0 0 0.1 26:1 27:1 33:1 34:1 41:1 46:1 47:1 49:1 55:1 56:1 57:1 64:1 65:1 72:1 73:1 80:1 81:1 87:1 88:1 89:1 90:1 94:1 95:1 99:1 100:1 101:1 102:1 
0 0.1 0.1 0.04522642496844962 0.1 0.1 0 0 0 0.1 0 0.04549118561284634 0 0 0 0 0 0 0 0 0 0 0 0 0 11:1 18:1 19:1 20:1 26:1 28:1 29:1 30:1 34:1 38:1 39:1 41:1 42:1 47:1 49:1 55:1 56:1 57:1 64:1 65:1 72:1 73:1 80:1 81:1 88:1 89:1 95:1 96:1 97:1 101:1 102:1 103:1 105:1 108:1 109:1 113:1 114:1 115:1 
0 0.1 0.1 0 0.1 0.1 0 0 0 0.1 0 0 0 0 0 0 0 0 0 0 0 0 0 0 0 3:1 4:1 5:1 13:1 14:1 15:1 16:1 21:1 22:1 24:1 28:1 29:1 30:1 32:1 35:1 36:1 40:1 42:1 43:1 48:1 50:1 56:1 58:1 64:1 65:1 66:1 72:1 73:1 79:1 80:1 81:1 87:1 89:1 95:1 97:1 102:1 103:1 105:1 110:1 113:1 117:1 118:1 121:1 122:1 123:1 124:1 125:1 
0 0.1 0.1 0 0.1 0 0 0.1 0.1 0.1 0 0.1 0 0 0 0 0 0 0 0 0 0 0 0 0 26:1 33:1 34:1 35:1 36:1 37:1 38:1 41:1 42:1 46:1 47:1 49:1 50:1 55:1 56:1 57:1 64:1 65:1 72:1 73:1 80:1 81:1 88:1 89:1 90:1 91:1 95:1 99:1 100:1 101:1 102:1 
0.1 0.1 0.1 0.1 0.1 0.1 0.1 0.1 0.1 0.1 0.1 0.1 0.08195569022493318 0.1 0.1 0.1 0.1 0.1 0.1 0.1 0 0 0.1 0 0.1 35:1 36:1 37:1 38:1 39:1 43:1 46:1 47:1 48:1 50:1 56:1 57:1 63:1 64:1 65:1 71:1 73:1 78:1 79:1 81:1 85:1 86:1 89:1 90:1 91:1 92:1 
0 0.1 0.1 0 0.1 0.1 0 0.1 0 0.1 0 0.1 0 0 0 0 0.1 0 0 0 0 0 0 0 0 33:1 34:1 35:1 36:1 37:1 38:1 41:1 46:1 47:1 49:1 55:1 56:1 57:1 64:1 65:1 72:1 73:1 80:1 81:1 82:1 88:1 90:1 91:1 92:1 93:1 94:1 95:1 96:1 
0.1 0.1 0.1 0 0.1 0.1 0 0.1 0.08157677215477553 0.1 0.06089372569368767 0.1 0 0 0 0 0.1 0 0.1 0 0 0 0 0 0.07130690500977468 35:1 36:1 37:1 38:1 39:1 40:1 41:1 42:1 43:1 48:1 49:1 50:1 51:1 56:1 58:1 64:1 66:1 71:1 72:1 73:1 74:1 79:1 81:1 82:1 86:1 87:1 90:1 91:1 92:1 93:1 94:1 
0 0.1 0.1 0 0.1 0 0 0.04156851485746786 0 0.1 0 0.05752897791754824 0 0 0 0 0 0 0 0 0 0 0 0 0 28:1 29:1 30:1 31:1 35:1 36:1 39:1 40:1 42:1 43:1 44:1 45:1 48:1 50:1 53:1 56:1 57:1 58:1 64:1 65:1 71:1 72:1 73:1 78:1 79:1 81:1 85:1 86:1 89:1 91:1 92:1 93:1 97:1 98:1 99:1 
0.0514372113278309 0.1 0.1 0 0.1 0.1 0 0.03216909395568735 0 0.1 0 0.05854565606093001 0 0 0 0 0 0 0.1 0 0 0 0 0 0 12:1 13:1 14:1 15:1 16:1 20:1 24:1 27:1 28:1 32:1 35:1 43:1 44:1 45:1 46:1 47:1 48:1 51:1 56:1 57:1 58:1 59:1 64:1 65:1 72:1 73:1 80:1 81:1 88:1 89:1 95:1 96:1 97:1 100:1 101:1 102:1 103:1 105:1 108:1 113:1 114:1 115:1 116:1 
0 0.1 0.1 0 0.1 0.1 0 0.1 0 0.1 0 0.1 0 0 0 0 0 0 0.05086772845111206 0 0 0 0 0 0 19:1 20:1 21:1 22:1 23:1 27:1 31:1 35:1 36:1 39:1 40:1 43:1 44:1 48:1 50:1 51:1 56:1 58:1 64:1 65:1 66:1 72:1 73:1 80:1 81:1 87:1 89:1 94:1 95:1 97:1 100:1 101:1 102:1 105:1 106:1 107:1 108:1 
0 0.1 0.1 0 0.1 0 0 0 0 0.1 0 0 0 0 0 0 0 0 0 0 0 0 0 0 0 30:1 35:1 36:1 37:1 38:1 39:1 40:1 42:1 43:1 48:1 49:1 50:1 56:1 57:1 64:1 65:1 71:1 72:1 73:1 79:1 81:1 86:1 87:1 89:1 92:1 93:1 94:1 97:1 98:1 99:1 100:1 
0 0.1 0.1 0 0.1 0 0 0 0 0.1 0 0 0 0 0 0 0 0 0 0 0 0 0 0 0 30:1 31:1 36:1 37:1 38:1 39:1 40:1 42:1 43:1 48:1 49:1 50:1 56:1 57:1 64:1 65:1 72:1 73:1 79:1 80:1 81:1 86:1 87:1 89:1 93:1 94:1 97:1 98:1 99:1 100:1 101:1 
0.1 0.1 0.1 0 0.1 0.1 0.02679070330987353 0.1 0.1 0.1 0 0.1 0 0.1 0.05672190343571208 0.03495941901070582 0.1 0 0.1 0.01492386860904467 0 0 0 0 0.1 18:1 19:1 26:1 29:1 34:1 37:1 38:1 41:1 42:1 46:1 47:1 49:1 55:1 57:1 63:1 64:1 65:1 72:1 73:1 80:1 81:1 82:1 88:1 90:1 91:1 96:1 99:1 100:1 104:1 108:1 109:1 110:1 111:1 112:1 
0.1 0.1 0.1 0.1 0.1 0.1 0.1 0.1 0.1 0.1 0.1 0.1 0.1 0.1 0.1 0 0.1 0.1 0.1 0.08507613139095534 0 0.0647316264278853 0.1 0 0.1 30:1 38:1 39:1 44:1 45:1 47:1 48:1 51:1 52:1 56:1 58:1 59:1 64:1 65:1 66:1 72:1 73:1 80:1 81:1 88:1 89:1 90:1 95:1 96:1 98:1 99:1 100:1 101:1 102:1 103:1 
0.05242305210578909 0.1 0.1 0.1 0.1 0.1 0 0.1 0.1 0.1 0.06211066419449131 0.1 0.01804430977506682 0.1 0.1 0 0.1 0 0.1 0 0 0 0 0 0.05212130698190082 26:1 27:1 28:1 36:1 37:1 38:1 39:1 47:1 48:1 56:1 57:1 64:1 65:1 72:1 73:1 79:1 80:1 81:1 85:1 86:1 87:1 89:1 90:1 91:1 92:1 93:1 98:1 99:1 
0.1 0.1 0.1 0.06030619361124487 0.1 0.1 0.1 0.1 0.1 0.1 0.1 0.1 0.04433863630832389 0.1 0.1 0.1 0.1 0.1 0.1 0.1 0 0 0.03485019602345514 0 0.1 20:1 21:1 22:1 26:1 27:1 28:1 30:1 31:1 32:1 33:1 40:1 41:1 48:1 49:1 56:1 57:1 64:1 65:1 72:1 73:1 79:1 81:1 86:1 89:1 93:1 97:1 98:1 99:1 100:1 106:1 107:1 
0.1 0.1 0.1 0.1 0.1 0.1 0.1 0.1 0.1 0.1 0.1 0.1 0.03534680101147904 0.1 0.1 0.1 0.1 0.1 0.1 0 0 0 0 0 0.1 27:1 28:1 29:1 37:1 38:1 41:1 46:1 47:1 49:1 55:1 56:1 57:1 64:1 65:1 72:1 73:1 80:1 81:1 87:1 88:1 90:1 91:1 95:1 99:1 100:1 101:1 102:1 103:1 
0.1 0.1 0.1 0.02865581836352817 0.1 0.1 0 0.1 0.04240155198557087 0.1 0 0.1 0 0.01817903485050211 0 0 0.1 0 0 0 0 0 0 0 0 12:1 13:1 21:1 22:1 25:1 26:1 30:1 33:1 38:1 39:1 41:1 47:1 49:1 55:1 56:1 57:1 64:1 65:1 72:1 73:1 80:1 81:1 88:1 89:1 90:1 96:1 98:1 103:1 104:1 106:1 107:1 111:1 116:1 117:1 118:1 119:1 
0.1 0.1 0.1 0.1 0.1 0.1 0.1 0.1 0.1 0.1 0.1 0.1 0.06705397051201106 0.1 0.1 0.1 0.1 0.0559488947893927 0.1 0.1 0 0.01936319577931103 0.04102871901194581 0.01331029260906241 0.1 2:1 3:1 4:1 5:1 6:1 9:1 10:1 14:1 15:1 17:1 23:1 25:1 31:1 33:1 39:1 41:1 47:1 49:1 55:1 57:1 63:1 65:1 71:1 72:1 73:1 80:1 81:1 88:1 89:1 96:1 97:1 98:1 103:1 104:1 107:1 111:1 116:1 118:1 119:1 125:1 126:1 
0 0.1 0.1 0 0.1 0.1 0 0.03545254084235012 0 0.1 0 0.1 0 0 0 0 0 0 0 0 0 0 0 0 0 9:1 10:1 11:1 19:1 20:1 21:1 29:1 30:1 33:1 34:1 35:1 38:1 39:1 41:1 47:1 49:1 55:1 56:1 57:1 64:1 65:1 72:1 73:1 80:1 81:1 82:1 88:1 90:1 96:1 98:1 99:1 104:1 107:1 108:1 109:1 112:1 117:1 118:1 119:1 120:1 
0.1 0.1 0.1 0.1 0.1 0.1 0.1 0.1 0.1 0.1 0.1 0.1 0.1 0.1 0.1 0.1 0.1 0.1 0.1 0.1 0 0 0.09734484903459023 0.1 0.1 33:1 34:1 35:1 36:1 40:1 41:1 48:1 49:1 56:1 57:1 64:1 65:1 72:1 73:1 74:1 80:1 82:1 83:1 87:1 88:1 91:1 92:1 93:1 94:1 95:1 
0.1 0.1 0.1 0.1 0.1 0.1 0.1 0.1 0.1 0.1 0.1 0.1 0.1 0.1 0.1 0.1 0.1 0.1 0.1 0.1 0 0 0.1 0 0.1 24:1 32:1 40:1 48:1 50:1 51:1 52:1 56:1 58:1 64:1 65:1 66:1 72:1 73:1 80:1 81:1 88:1 89:1 96:1 97:1 103:1 104:1 106:1 107:1 108:1 109:1 110:1 111:1 
0 0 0.1 0 0.1 0 0 0 0 0.1 0 0 0 0 0 0 0.1 0 0 0 0 0 0 0 0 19:1 20:1 21:1 22:1 26:1 27:1 30:1 31:1 32:1 33:1 34:1 40:1 41:1 48:1 49:1 56:1 57:1 64:1 65:1 72:1 73:1 80:1 81:1 87:1 88:1 89:1 94:1 95:1 97:1 98:1 99:1 100:1 101:1 102:1 107:1 108:1 
0 0.1 0.1 0 0.1 0 0 0 0 0.1 0 0 0 0 0 0 0 0 0 0 0 0 0 0 0 34:1 35:1 36:1 37:1 38:1 39:1 40:1 41:1 42:1 48:1 49:1 56:1 57:1 64:1 65:1 72:1 73:1 80:1 81:1 86:1 87:1 88:1 89:1 90:1 91:1 92:1 93:1 94:1 
0.1 0.1 0.1 0 0.1 0.1 0 0.1 0 0.1 0.1 0.1 0 0 0 0 0 0 0.1 0 0 0 0 0 0 27:1 28:1 29:1 30:1 31:1 35:1 39:1 40:1 42:1 43:1 48:1 50:1 51:1 56:1 58:1 64:1 65:1 66:1 72:1 73:1 80:1 81:1 88:1 89:1 90:1 91:1 95:1 96:1 99:1 100:1 101:1 102:1 103:1 
0 0.1 0.1 0 0.1 0 0 0 0 0.1 0 0 0 0 0 0 0 0 0 0 0 0 0 0 0 27:1 34:1 35:1 36:1 37:1 38:1 39:1 42:1 43:1 47:1 48:1 49:1 50:1 56:1 57:1 64:1 65:1 72:1 73:1 79:1 80:1 81:1 86:1 87:1 89:1 93:1 94:1 97:1 98:1 99:1 100:1 101:1 
0 0.1 0.1 0 0.1 0 0 0 0 0.1 0 0 0 0 0 0 0 0 0 0 0 0 0 0 0 28:1 29:1 30:1 31:1 34:1 35:1 37:1 39:1 40:1 42:1 48:1 50:1 56:1 57:1 58:1 64:1 65:1 72:1 73:1 80:1 81:1 87:1 88:1 89:1 93:1 94:1 95:1 97:1 98:1 99:1 100:1 101:1 
0 0.1 0.1 0 0.1 0.03168631629898426 0 0.06306712804989638 0 0.1 0 0.04247102208245176 0 0 0 0 0 0 0 0 0 0 0 0 0 19:1 20:1 21:1 22:1 27:1 28:1 29:1 30:1 31:1 32:1 34:1 35:1 40:1 42:1 48:1 50:1 56:1 57:1 58:1 64:1 65:1 71:1 72:1 73:1 78:1 79:1 81:1 86:1 89:1 93:1 94:1 97:1 100:1 101:1 105:1 106:1 107:1 108:1 
0 0 0.1 0 0.1 0 0 0 0 0.1 0 0 0 0 0 0 0 0 0 0 0 0 0 0 0 27:1 28:1 29:1 30:1 31:1 34:1 35:1 39:1 40:1 41:1 42:1 43:1 48:1 49:1 56:1 57:1 64:1 65:1 72:1 73:1 80:1 81:1 87:1 88:1 89:1 90:1 94:1 95:1 98:1 99:1 100:1 101:1 102:1 
0.07435076667055827 0.1 0.1 0.05973595427261849 0.1 0.1 0.05962359142300132 0.1 0.05932504989270275 0.1 0 0.1 0 0.01808758520264891 0.0665286232383298 0 0 0 0.05290832651691845 0.03309115093815421 0 0.02194259931966248 0 0 0 1:1 2:1 3:1 11:1 19:1 20:1 28:1 29:1 35:1 36:1 37:1 38:1 42:1 43:1 46:1 47:1 50:1 55:1 56:1 57:1 58:1 64:1 65:1 72:1 73:1 80:1 81:1 88:1 89:1 96:1 97:1 104:1 105:1 106:1 112:1 114:1 120:1 122:1 123:1 124:1 125:1 126:1 127:1 
0 0.1 0.1 0 0.1 0 0 0 0 0.1 0 0.1 0 0 0 0 0 0 0 0 0 0 0 0 0 34:1 35:1 36:1 37:1 38:1 41:1 42:1 46:1 47:1 49:1 55:1 56:1 57:1 64:1 65:1 72:1 73:1 80:1 81:1 82:1 87:1 88:1 90:1 91:1 92:1 93:1 94:1 95:1 
0.1 0.1 0.1 0.1 0.1 0.1 0.1 0.1 0.1 0.1 0.1 0.1 0.1 0.1 0.1 0.1 0.1 0.1 0.1 0.1 0 0 0.05848214827375367 0 0.1 36:1 37:1 38:1 39:1 40:1 48:1 50:1 51:1 56:1 58:1 64:1 65:1 66:1 71:1 72:1 73:1 78:1 79:1 81:1 85:1 86:1 89:1 90:1 91:1 92:1 93:1 
0.1 0.1 0.1 0 0.1 0.1 0 0.1 0.1 0.1 0.1 0.1 0 0.1 0.1 0 0.1 0 0.1 0 0 0 0 0 0.1 43:1 44:1 45:1 46:1 47:1 49:1 50:1 51:1 52:1 55:1 56:1 57:1 64:1 65:1 72:1 73:1 74:1 78:1 79:1 80:1 82:1 83:1 84:1 85:1 86:1 
0.1 0.1 0.1 0 0.1 0.1 0.053297076492576 0.1 0.1 0.1 0.1 0.1 0.03354107973459122 0.1 0.1 0 0.1 0.05845417726634589 0.1 0 0 0 0 0 0.1 36:1 37:1 38:1 39:1 40:1 43:1 44:1 48:1 51:1 52:1 56:1 58:1 59:1 64:1 65:1 66:1 71:1 72:1 73:1 78:1 79:1 81:1 83:1 84:1 85:1 86:1 89:1 90:1 91:1 
0.1 0.1 0.1 0.03169786727033121 0.1 0.1 0 0.1 0.1 0.1 0.1 0.1 0 0.1 0.1 0 0.1 0.04586877340973312 0.1 0 0 0 0 0 0.1 35:1 36:1 37:1 41:1 42:1 45:1 46:1 49:1 54:1 55:1 57:1 63:1 64:1 65:1 72:1 73:1 80:1 81:1 88:1 90:1 91:1 92:1 93:1 94:1 95:1 96:1 
0 0.1 0.1 0 0.1 0 0 0 0 0.1 0 0 0 0 0 0 0 0 0 0 0 0 0 0 0 28:1 29:1 33:1 34:1 35:1 36:1 37:1 38:1 39:1 40:1 41:1 47:1 48:1 49:1 56:1 57:1 64:1 65:1 72:1 73:1 80:1 81:1 88:1 89:1 90:1 95:1 96:1 98:1 99:1 100:1 101:1 102:1 103:1 
0 0.1 0.1 0 0.1 0 0 0 0 0.1 0 0 0 0 0 0 0 0 0 0 0 0 0 0 0 13:1 21:1 27:1 28:1 29:1 35:1 36:1 37:1 38:1 39:1 42:1 43:1 47:1 48:1 50:1 56:1 57:1 58:1 64:1 65:1 72:1 73:1 80:1 81:1 87:1 88:1 89:1 94:1 95:1 97:1 101:1 102:1 105:1 106:1 107:1 108:1 109:1 114:1 
0.06715798406696002 0.1 0.1 0.04134799304246623 0.1 0.1 0.06416609569214708 0.1 0.1 0.1 0.1 0.1 0 0.07660107394211371 0 0 0.1 0 0.06309548041048338 0.02976482554873753 0 0 0.04131284163139255 0 0 11:1 12:1 18:1 19:1 20:1 21:1 25:1 26:1 29:1 30:1 33:1 38:1 41:1 46:1 47:1 49:1 55:1 57:1 64:1 65:1 72:1 73:1 80:1 81:1 88:1 89:1 96:1 97:1 98:1 104:1 106:1 111:1 112:1 114:1 115:1 116:1 117:1 118:1 119:1 
0 0.1 0.1 0 0.1 0.1 0 0.1 0.1 0.1 0 0.1 0 0.1 0 0 0.1 0 0 0 0 0 0 0 0 33:1 34:1 35:1 36:1 37:1 38:1 41:1 46:1 47:1 49:1 55:1 56:1 57:1 64:1 65:1 72:1 73:1 79:1 80:1 81:1 82:1 85:1 86:1 87:1 90:1 91:1 92:1 93:1 
0 0.1 0.1 0 0.1 0.1 0 0.1 0.1 0.1 0.03009239465820359 0.1 0.01787765188495113 0 0 0.05482256240435936 0.1 0 0.1 0 0 0 0 0 0 20:1 21:1 22:1 23:1 28:1 31:1 32:1 34:1 35:1 36:1 40:1 41:1 42:1 48:1 49:1 56:1 57:1 63:1 64:1 65:1 71:1 73:1 78:1 79:1 81:1 86:1 89:1 90:1 93:1 94:1 98:1 99:1 100:1 101:1 107:1 108:1 
0.1 0.1 0.1 0.1 0.1 0.1 0.1 0.1 0.1 0.1 0.1 0.1 0.1 0.1 0.1 0.1 0.1 0.1 0.1 0.1 0 0 0.1 0.01857527505638983 0.1 15:1 23:1 31:1 39:1 40:1 44:1 45:1 46:1 48:1 52:1 56:1 60:1 64:1 67:1 68:1 72:1 74:1 75:1 79:1 80:1 81:1 82:1 87:1 89:1 94:1 95:1 97:1 101:1 102:1 105:1 106:1 108:1 109:1 114:1 115:1 116:1 
0 0.04091515096349923 0.1 0 0.1 0.1 0 0 0 0.1 0 0 0 0 0 0 0 0 0 0 0 0 0 0 0 2:1 3:1 4:1 5:1 6:1 12:1 13:1 14:1 20:1 22:1 23:1 27:1 28:1 31:1 35:1 39:1 40:1 42:1 43:1 48:1 50:1 56:1 57:1 58:1 64:1 65:1 72:1 73:1 80:1 81:1 87:1 88:1 89:1 95:1 97:1 103:1 105:1 110:1 111:1 113:1 117:1 118:1 121:1 122:1 123:1 124:1 125:1 
0 0.1 0.1 0 0.1 0 0 0 0.1 0.1 0 0 0 0 0 0 0 0 0 0 0 0 0 0 0 27:1 28:1 29:1 30:1 31:1 32:1 35:1 36:1 40:1 42:1 43:1 48:1 49:1 50:1 56:1 57:1 64:1 65:1 72:1 73:1 80:1 81:1 88:1 89:1 90:1 95:1 96:1 98:1 99:1 100:1 101:1 102:1 103:1 
0.1 0.1 0.1 0.04573712327048732 0.1 0.1 0 0.1 0.1 0.1 0.0264837350888898 0.1 0 0.1 0.03749502666352491 0 0.1 0 0.06861296340516043 0 0 0 0 0 0 4:1 5:1 13:1 21:1 22:1 30:1 34:1 38:1 39:1 41:1 42:1 47:1 48:1 49:1 56:1 57:1 64:1 65:1 72:1 73:1 80:1 81:1 88:1 89:1 96:1 97:1 104:1 106:1 112:1 114:1 115:1 116:1 119:1 120:1 124:1 125:1 126:1 127:1 
0 0.1 0.1 0 0.1 0 0 0 0 0.1 0 0 0 0 0 0 0 0 0 0 0 0 0 0 0 18:1 19:1 20:1 21:1 22:1 26:1 27:1 30:1 31:1 34:1 39:1 40:1 41:1 42:1 48:1 49:1 56:1 57:1 64:1 65:1 72:1 73:1 80:1 81:1 88:1 89:1 95:1 97:1 101:1 102:1 103:1 105:1 106:1 107:1 108:1 109:1 
0 0.1 0.1 0 0.1 0.1 0 0.1 0 0.1 0 0.1 0 0 0 0 0 0 0 0 0 0 0 0 0 36:1 37:1 38:1 39:1 40:1 43:1 44:1 48:1 50:1 51:1 56:1 58:1 64:1 65:1 66:1 72:1 73:1 79:1 80:1 81:1 85:1 86:1 87:1 89:1 90:1 91:1 92:1 93:1 98:1 99:1 
0 0.1 0.1 0 0.1 0 0 0 0 0.1 0 0 0 0 0 0 0 0 0 0 0 0 0 0 0 27:1 29:1 30:1 31:1 32:1 35:1 36:1 37:1 40:1 42:1 43:1 48:1 49:1 50:1 51:1 56:1 57:1 64:1 65:1 71:1 72:1 73:1 79:1 81:1 85:1 86:1 87:1 89:1 92:1 93:1 97:1 98:1 99:1 
0.055132973290237 0.1 0.1 0 0.1 0.1 0 0.1 0 0.1 0 0.1 0 0 0 0 0 0 0 0 0 0 0 0 0 31:1 36:1 37:1 38:1 39:1 40:1 43:1 44:1 48:1 50:1 51:1 56:1 58:1 64:1 65:1 66:1 72:1 73:1 79:1 80:1 81:1 86:1 87:1 89:1 93:1 94:1 97:1 98:1 99:1 100:1 101:1 
0.1 0.1 0.1 0.1 0.1 0.1 0.1 0.1 0.1 0.1 0.1 0.1 0.1 0.1 0.1 0.1 0.1 0.1 0.1 0.1 0.1 0.1 0.1 0.1 0.1 49:1 50:1 51:1 57:1 58:1 59:1 60:1 61:1 65:1 67:1 69:1 70:1 71:1 72:1 73:1 74:1 75:1 
0 0.1 0.1 0 0.1 0 0 0 0 0.1 0 0 0 0 0 0 0 0 0 0 0 0 0 0 0 15:1 22:1 23:1 24:1 30:1 32:1 35:1 36:1 37:1 38:1 40:1 42:1 43:1 44:1 45:1 46:1 48:1 49:1 50:1 56:1 57:1 64:1 65:1 72:1 73:1 80:1 81:1 87:1 88:1 89:1 95:1 97:1 102:1 103:1 105:1 109:1 110:1 113:1 114:1 115:1 116:1 117:1 
0 0.1 0.1 0 0.1 0.1 0 0 0 0.1 0 0 0 0 0 0 0 0 0 0 0 0 0 0 0 5:1 6:1 12:1 13:1 19:1 20:1 21:1 22:1 27:1 30:1 31:1 34:1 35:1 39:1 40:1 42:1 48:1 49:1 50:1 56:1 57:1 64:1 65:1 72:1 73:1 80:1 81:1 88:1 89:1 96:1 97:1 104:1 105:1 112:1 113:1 119:1 120:1 121:1 122:1 123:1 124:1 125:1 126:1 127:1 
0.1 0.1 0.1 0.1 0.1 0.1 0.1 0.1 0.1 0.1 0.1 0.1 0.1 0.1 0.1 0.1 0.1 0.1 0.1 0.1 0.07615732648842018 0.06025739742114046 0.1 0 0.1 33:1 34:1 35:1 36:1 37:1 45:1 46:1 47:1 51:1 55:1 56:1 59:1 64:1 67:1 72:1 75:1 80:1 83:1 84:1 86:1 87:1 88:1 92:1 93:1 94:1 
0 0.1 0.1 0 0.1 0.058978610635166 0 0 0 0.1 0 0 0 0 0 0 0 0 0 0 0 0 0 0 0 3:1 4:1 5:1 13:1 14:1 15:1 20:1 21:1 23:1 27:1 28:1 32:1 34:1 35:1 40:1 42:1 48:1 50:1 56:1 57:1 58:1 64:1 65:1 72:1 73:1 79:1 80:1 81:1 87:1 89:1 94:1 95:1 97:1 102:1 105:1 109:1 110:1 113:1 116:1 117:1 121:1 122:1 123:1 124:1 
0.1 0.1 0.1 0.1 0.1 0.1 0.1 0.1 0.1 0.1 0.1 0.1 0.1 0.1 0.1 0.1 0.1 0.1 0.1 0.1 0 0 0.1 0 0.1 43:1 44:1 45:1 46:1 47:1 48:1 50:1 51:1 54:1 56:1 57:1 64:1 65:1 70:1 71:1 72:1 73:1 74:1 76:1 77:1 78:1 82:1 83:1 84:1 
0.1 0.1 0.1 0.1 0.1 0.1 0.1 0.1 0.1 0.1 0.1 0.1 0.1 0.1 0.1 0.1 0.1 0.1 0.1 0.1 0.02784106186935922 0.03601716888226909 0.1 0 0.1 4:1 5:1 6:1 7:1 8:1 11:1 12:1 19:1 24:1 27:1 32:1 34:1 35:1 39:1 40:1 42:1 47:1 50:1 55:1 58:1 62:1 66:1 70:1 74:1 77:1 78:1 82:1 85:1 89:1 90:1 92:1 93:1 97:1 100:1 105:1 107:1 108:1 113:1 115:1 121:1 122:1 123:1 
0 0.1 0.1 0.1 0.1 0.1 0.02640076716594645 0.1 0 0.1 0.02210628723025763 0.1 0 0.03801254141225746 0 0 0.05379417181065452 0 0.1 0 0 0 0 0 0 3:1 4:1 5:1 6:1 7:1 12:1 13:1 15:1 20:1 23:1 24:1 27:1 28:1 32:1 35:1 40:1 43:1 48:1 51:1 56:1 58:1 59:1 64:1 66:1 72:1 74:1 79:1 80:1 81:1 82:1 87:1 89:1 95:1 97:1 102:1 103:1 105:1 109:1 110:1 113:1 114:1 116:1 117:1 122:1 123:1 124:1 
0 0.1 0.1 0 0.1 0.1 0 0 0 0.1 0 0 0 0 0 0 0 0 0.1 0 0 0 0 0 0 4:1 5:1 6:1 11:1 12:1 13:1 14:1 15:1 18:1 19:1 22:1 23:1 26:1 31:1 32:1 34:1 40:1 41:1 42:1 48:1 49:1 56:1 57:1 64:1 65:1 72:1 73:1 80:1 81:1 88:1 89:1 95:1 96:1 97:1 103:1 105:1 106:1 110:1 111:1 114:1 117:1 118:1 122:1 123:1 124:1 125:1 
0 0.1 0.1 0 0.1 0 0 0 0 0.1 0 0 0 0 0 0 0 0 0 0 0 0 0 0 0 27:1 28:1 29:1 30:1 31:1 34:1 35:1 39:1 40:1 41:1 42:1 48:1 49:1 56:1 57:1 64:1 65:1 72:1 73:1 79:1 80:1 81:1 86:1 87:1 89:1 93:1 94:1 97:1 98:1 99:1 100:1 101:1 
0 0.1 0.1 0 0.1 0 0 0 0 0.1 0 0 0 0 0 0 0 0 0 0 0 0.02484315599573781 0 0 0 20:1 26:1 27:1 28:1 29:1 30:1 31:1 33:1 34:1 36:1 37:1 39:1 40:1 41:1 43:1 44:1 48:1 50:1 51:1 56:1 58:1 64:1 66:1 72:1 73:1 74:1 79:1 80:1 81:1 86:1 87:1 89:1 94:1 97:1 98:1 100:1 101:1 102:1 106:1 107:1 108:1 
0 0 0.1 0 0.1 0 0 0 0 0.1 0 0 0 0 0 0 0 0 0 0 0 0 0 0 0 21:1 27:1 28:1 29:1 30:1 31:1 34:1 35:1 36:1 39:1 40:1 42:1 48:1 49:1 50:1 56:1 57:1 64:1 65:1 72:1 73:1 79:1 80:1 81:1 86:1 87:1 89:1 93:1 94:1 97:1 100:1 101:1 105:1 106:1 107:1 108:1 
0 0.1 0.1 0 0.1 0 0 0 0 0.1 0 0 0 0 0 0 0 0 0 0 0 0 0 0 0 34:1 35:1 36:1 37:1 38:1 39:1 40:1 42:1 43:1 48:1 49:1 50:1 56:1 57:1 64:1 65:1 72:1 73:1 80:1 81:1 87:1 88:1 89:1 90:1 91:1 92:1 93:1 94:1 95:1 
0 0.1 0.1 0 0.1 0 0 0 0 0.1 0 0.1 0 0 0 0 0 0 0 0 0 0 0 0 0 35:1 36:1 37:1 41:1 42:1 43:1 45:1 46:1 47:1 48:1 49:1 56:1 57:1 64:1 65:1 72:1 73:1 80:1 81:1 86:1 87:1 88:1 89:1 90:1 91:1 92:1 93:1 94:1 
0 0.1 0.1 0 0.1 0.1 0 0.1 0.04478855881829072 0.1 0 0.1 0.04677554710356984 0 0 0.06504058098929419 0.1 0 0.1 0.0236836387911639 0 0 0 0 0.07110427857389384 5:1 6:1 7:1 8:1 11:1 12:1 13:1 16:1 18:1 19:1 24:1 25:1 32:1 33:1 40:1 42:1 48:1 50:1 56:1 57:1 58:1 64:1 65:1 72:1 73:1 79:1 80:1 81:1 86:1 87:1 89:1 93:1 94:1 97:1 100:1 101:1 105:1 107:1 108:1 113:1 114:1 121:1 
0.1 0.1 0.1 0.1 0.1 0.1 0.1 0.1 0.1 0.1 0.1 0.1 0.07334969628963355 0.1 0.1 0.06539093389755547 0.1 0.1 0.1 0.02386859303166713 0.02413249718075748 0 0.06514980397654486 0 0.1 8:1 15:1 22:1 29:1 36:1 37:1 38:1 39:1 40:1 43:1 44:1 48:1 51:1 56:1 59:1 64:1 66:1 72:1 74:1 80:1 81:1 88:1 89:1 96:1 97:1 103:1 104:1 105:1 110:1 111:1 113:1 117:1 118:1 121:1 122:1 123:1 124:1 125:1 
0.1 0.1 0.1 0.1 0.1 0.1 0.1 0.1 0.1 0.1 0.1 0.1 0.1 0.1 0.1 0.1 0.1 0.1 0.1 0.1 0.1 0.1 0.1 0 0.1 35:1 43:1 51:1 59:1 65:1 66:1 67:1 68:1 69:1 70:1 71:1 72:1 73:1 80:1 81:1 87:1 88:1 89:1 90:1 91:1 92:1 93:1 94:1 95:1 
0.1 0.1 0.1 0.1 0.1 0.1 0.1 0.1 0.1 0.1 0.1 0.1 0.1 0.1 0.1 0.1 0.1 0.1 0.1 0.1 0.1 0.1 0.1 0.05946330218911679 0.1 51:1 52:1 56:1 58:1 59:1 64:1 66:1 71:1 72:1 73:1 74:1 75:1 76:1 77:1 78:1 79:1 
0.1 0.1 0.1 0 0.1 0.1 0 0.1 0.1 0.1 0 0.1 0 0.07059829529390085 0 0 0.1 0 0.05831118003249538 0 0 0 0 0 0 26:1 29:1 30:1 31:1 32:1 33:1 34:1 40:1 41:1 48:1 49:1 56:1 57:1 64:1 65:1 72:1 73:1 79:1 80:1 81:1 86:1 87:1 89:1 93:1 94:1 97:1 98:1 99:1 100:1 101:1 
0 0.1 0.1 0 0.1 0 0 0 0 0.1 0 0 0 0 0 0 0 0 0 0 0 0 0 0 0 26:1 27:1 28:1 29:1 30:1 34:1 35:1 38:1 39:1 41:1 42:1 47:1 48:1 49:1 56:1 57:1 64:1 65:1 72:1 73:1 80:1 81:1 88:1 89:1 90:1 95:1 96:1 98:1 99:1 100:1 101:1 102:1 103:1 
0 0.1 0.1 0 0.1 0 0 0 0 0.1 0 0 0 0 0 0 0.1 0 0 0 0 0 0 0 0 27:1 28:1 29:1 30:1 33:1 34:1 35:1 38:1 39:1 40:1 41:1 48:1 49:1 56:1 57:1 64:1 65:1 72:1 73:1 80:1 81:1 87:1 88:1 89:1 94:1 95:1 97:1 98:1 99:1 100:1 101:1 102:1 
0 0 0.1 0 0.1 0 0 0 0 0.1 0 0 0 0 0 0 0 0 0 0 0 0 0 0 0 18:1 19:1 20:1 21:1 22:1 25:1 26:1 30:1 31:1 33:1 39:1 40:1 41:1 42:1 48:1 49:1 50:1 56:1 57:1 64:1 65:1 72:1 73:1 80:1 81:1 87:1 88:1 89:1 95:1 97:1 101:1 102:1 103:1 105:1 106:1 107:1 108:1 109:1 
0 0.1 0.1 0 0.1 0 0 0 0 0.1 0 0 0 0 0 0 0 0 0 0 0 0 0 0 0 23:1 24:1 29:1 30:1 31:1 32:1 36:1 37:1 39:1 40:1 42:1 43:1 44:1 48:1 49:1 50:1 56:1 57:1 64:1 65:1 72:1 73:1 80:1 81:1 87:1 88:1 89:1 95:1 97:1 98:1 101:1 102:1 103:1 106:1 107:1 108:1 109:1 
0 0.1 0.1 0 0.1 0 0 0 0 0.1 0 0 0 0 0 0 0 0 0 0 0 0 0 0 0 13:1 14:1 20:1 21:1 28:1 29:1 35:1 36:1 37:1 38:1 42:1 43:1 46:1 47:1 48:1 49:1 50:1 56:1 57:1 64:1 65:1 72:1 73:1 80:1 81:1 88:1 89:1 94:1 95:1 96:1 97:1 102:1 105:1 109:1 110:1 113:1 114:1 115:1 116:1 117:1 
0 0.1 0.1 0 0.1 0.1 0 0 0 0.1 0 0.1 0 0 0 0 0.1 0 0 0 0 0 0 0 0 29:1 30:1 31:1 39:1 40:1 43:1 44:1 45:1 46:1 47:1 48:1 50:1 51:1 56:1 57:1 58:1 64:1 65:1 71:1 72:1 73:1 79:1 81:1 86:1 87:1 89:1 92:1 93:1 94:1 97:1 98:1 99:1 100:1 
0.1 0.1 0.1 0 0.1 0.1 0 0.1 0.1 0.1 0.1 0.1 0 0.1 0.1 0 0.1 0 0.1 0 0 0 0 0 0 28:1 29:1 30:1 31:1 35:1 37:1 39:1 40:1 42:1 48:1 49:1 56:1 57:1 64:1 65:1 72:1 73:1 80:1 81:1 87:1 88:1 90:1 94:1 95:1 99:1 100:1 101:1 102:1 
0 0.1 0.1 0 0.1 0.1 0 0.1 0.1 0.1 0.04515900487358008 0.1 0 0.1 0 0.0469505638512264 0.1 0 0.1 0 0 0 0 0 0 19:1 20:1 22:1 23:1 24:1 27:1 32:1 34:1 35:1 40:1 42:1 48:1 49:1 50:1 56:1 57:1 64:1 65:1 72:1 73:1 79:1 81:1 87:1 89:1 92:1 93:1 94:1 95:1 97:1 100:1 106:1 107:1 108:1 
0 0.1 0.1 0 0.1 0.1 0 0 0 0.1 0 0 0 0 0 0 0 0 0 0 0 0 0 0 0 5:1 6:1 7:1 12:1 13:1 15:1 20:1 21:1 22:1 23:1 24:1 28:1 32:1 34:1 35:1 36:1 40:1 42:1 48:1 50:1 56:1 57:1 58:1 64:1 65:1 72:1 73:1 80:1 81:1 88:1 89:1 95:1 96:1 97:1 103:1 105:1 110:1 111:1 113:1 114:1 117:1 118:1 122:1 123:1 124:1 125:1 
0 0.1 0.1 0.0529468092094988 0.1 0.1 0.03583390430785292 0.1 0.1 0.1 0.1 0.1 0.0356221584383315 0.1 0.06018441318837857 0 0.1 0 0.1 0 0 0 0 0 0.03216651686180569 21:1 22:1 23:1 24:1 28:1 29:1 32:1 35:1 36:1 40:1 43:1 48:1 56:1 58:1 64:1 65:1 71:1 72:1 73:1 78:1 79:1 81:1 85:1 86:1 89:1 92:1 93:1 97:1 98:1 99:1 100:1 106:1 107:1 
0.02564923332944173 0.1 0.1 0 0.1 0.1 0 0.1 0.1 0.1 0 0.1 0 0.1 0 0 0.1 0 0 0 0 0 0 0 0 29:1 30:1 31:1 36:1 37:1 39:1 40:1 43:1 44:1 48:1 50:1 56:1 57:1 58:1 64:1 65:1 71:1 72:1 73:1 78:1 79:1 81:1 85:1 86:1 89:1 90:1 91:1 93:1 99:1 100:1 
0 0.1 0.1 0 0.1 0 0 0.1 0.1 0.1 0.05484099512641993 0.1 0 0 0 0 0.1 0 0 0 0 0 0 0 0 27:1 28:1 29:1 30:1 31:1 32:1 35:1 40:1 42:1 43:1 48:1 49:1 50:1 56:1 57:1 64:1 65:1 71:1 72:1 73:1 79:1 81:1 86:1 87:1 89:1 93:1 94:1 97:1 98:1 99:1 100:1 101:1 
0.08199360419306104 0.1 0.1 0.1 0.1 0.1 0.03018144732927873 0.1 0.1 0.1 0.1 0.1 0.0524314572005766 0.1 0.07678643193474667 0.05304943614877361 0.1 0.02272733252464434 0.1 0.0315065768422622 0.006961522585445603 0 0 0 0.06818277929666791 4:1 5:1 11:1 12:1 13:1 14:1 15:1 16:1 18:1 19:1 20:1 24:1 26:1 32:1 34:1 40:1 41:1 48:1 49:1 55:1 56:1 57:1 63:1 65:1 71:1 73:1 79:1 81:1 86:1 87:1 89:1 94:1 97:1 101:1 102:1 105:1 109:1 113:1 116:1 117:1 121:1 122:1 123:1 124:1 
0.06656918447910808 0.1 0.1 0 0.1 0.1 0 0.1 0.1 0.1 0.0590310693351642 0.1 0 0.02339892605788629 0 0 0.1 0 0 0 0 0 0 0 0 18:1 19:1 27:1 28:1 33:1 34:1 36:1 37:1 38:1 41:1 46:1 47:1 49:1 55:1 57:1 63:1 64:1 65:1 72:1 73:1 80:1 81:1 88:1 89:1 96:1 97:1 98:1 103:1 104:1 106:1 107:1 108:1 109:1 110:1 111:1 
0.1 0.1 0.1 0 0.1 0.1 0 0.1 0.1 0.1 0 0.1 0 0 0 0 0 0 0 0 0 0 0 0 0 35:1 36:1 37:1 38:1 39:1 40:1 44:1 48:1 49:1 50:1 51:1 52:1 56:1 57:1 64:1 65:1 72:1 73:1 80:1 81:1 82:1 86:1 87:1 88:1 90:1 91:1 92:1 93:1 94:1 
0 0.1 0.1 0 0.1 0 0 0 0 0.1 0 0 0 0 0 0 0 0 0 0 0 0 0 0 0 20:1 21:1 22:1 23:1 24:1 26:1 27:1 28:1 32:1 33:1 34:1 35:1 40:1 41:1 42:1 48:1 49:1 56:1 57:1 64:1 65:1 72:1 73:1 79:1 80:1 81:1 86:1 87:1 89:1 93:1 94:1 97:1 98:1 100:1 101:1 106:1 107:1 108:1 
0.1 0.1 0.1 0.07455104845781918 0.1 0.1 0 0.1 0.1 0.1 0.1 0.1 0 0.1 0.08238345680022681 0 0.1 0 0.1 0 0 0 0 0 0.1 36:1 37:1 38:1 42:1 43:1 44:1 46:1 47:1 49:1 50:1 55:1 57:1 64:1 65:1 72:1 73:1 79:1 80:1 81:1 82:1 87:1 90:1 91:1 92:1 93:1 94:1 95:1 
0 0.1 0.1 0 0.1 0 0 0 0 0.1 0 0 0 0 0 0 0 0 0 0 0 0 0 0 0 27:1 28:1 29:1 30:1 31:1 34:1 35:1 39:1 40:1 41:1 42:1 48:1 49:1 56:1 57:1 64:1 65:1 72:1 73:1 80:1 81:1 87:1 88:1 89:1 92:1 93:1 94:1 95:1 97:1 98:1 99:1 100:1 
0 0.1 0.1 0 0.1 0 0 0 0 0.1 0 0 0 0 0 0 0 0 0 0 0 0 0 0 0 26:1 27:1 34:1 35:1 36:1 37:1 38:1 41:1 42:1 46:1 47:1 49:1 55:1 56:1 57:1 64:1 65:1 72:1 73:1 80:1 81:1 87:1 88:1 89:1 94:1 95:1 97:1 98:1 99:1 100:1 101:1 102:1 
0 0.1 0.1 0 0.1 0.1 0.1 0.1 0.1 0.1 0.1 0.1 0 0 0.03447335341995512 0 0.0563449193163922 0.05413122659026689 0.1 0.05787338334158532 0 0 0 0 0.03372671749782324 17:1 18:1 19:1 20:1 21:1 25:1 26:1 29:1 34:1 35:1 37:1 38:1 42:1 46:1 49:1 54:1 55:1 57:1 63:1 64:1 65:1 72:1 73:1 80:1 81:1 82:1 88:1 90:1 96:1 98:1 104:1 106:1 107:1 108:1 109:1 110:1 111:1 112:1 
0.1 0.1 0.1 0.03149430501058408 0.1 0.1 0 0.1 0.1 0.1 0.1 0.1 0.04756854279942341 0.1 0.03956066393311741 0 0.1 0 0.1 0 0 0 0 0 0.05567088818584459 20:1 21:1 22:1 23:1 24:1 28:1 29:1 32:1 36:1 37:1 40:1 43:1 44:1 48:1 51:1 56:1 58:1 59:1 63:1 64:1 66:1 71:1 73:1 74:1 78:1 81:1 85:1 86:1 89:1 92:1 93:1 97:1 98:1 99:1 100:1 105:1 106:1 
0 0 0.1 0 0.1 0 0 0 0 0.1 0 0 0 0 0 0 0 0 0 0 0 0 0 0 0 13:1 14:1 20:1 21:1 22:1 27:1 28:1 30:1 31:1 32:1 35:1 36:1 40:1 42:1 43:1 48:1 50:1 56:1 57:1 64:1 65:1 72:1 73:1 80:1 81:1 87:1 88:1 89:1 94:1 95:1 97:1 101:1 102:1 105:1 107:1 108:1 109:1 113:1 114:1 115:1 
0.1 0.1 0.1 0.1 0.1 0.1 0.1 0.1 0.1 0.1 0.1 0.1 0.1 0.1 0.1 0.1 0.1 0.1 0.1 0.1 0 0 0.1 0 0.1 43:1 44:1 45:1 46:1 47:1 48:1 50:1 51:1 56:1 57:1 58:1 64:1 65:1 71:1 72:1 73:1 74:1 78:1 79:1 82:1 83:1 84:1 85:1 86:1 
0 0.1 0.1 0 0.1 0.1 0 0 0 0.1 0 0.1 0 0 0 0 0 0 0 0 0 0 0 0 0 28:1 29:1 34:1 35:1 36:1 37:1 41:1 42:1 44:1 45:1 46:1 49:1 54:1 55:1 56:1 57:1 64:1 65:1 72:1 73:1 80:1 81:1 88:1 89:1 90:1 96:1 98:1 99:1 100:1 101:1 102:1 103:1 104:1 
0.1 0.1 0.1 0 0.1 0.1 0.02660480808015904 0.1 0.1 0.1 0.1 0.1 0 0.1 0.1 0.07572648343661799 0.1 0.1 0.1 0 0 0 0.04394241075359895 0 0.1 43:1 44:1 45:1 46:1 47:1 48:1 50:1 51:1 54:1 56:1 57:1 58:1 64:1 65:1 72:1 73:1 77:1 78:1 79:1 80:1 81:1 82:1 83:1 84:1 85:1 
0 0.1 0.1 0 0.1 0 0 0 0 0.1 0 0.1 0 0 0 0 0 0 0 0 0 0 0 0 0 33:1 34:1 35:1 36:1 37:1 38:1 39:1 47:1 48:1 49:1 50:1 51:1 56:1 57:1 64:1 65:1 72:1 73:1 80:1 81:1 82:1 87:1 88:1 90:1 91:1 92:1 93:1 94:1 95:1 
0 0.1 0.1 0 0.1 0.1 0 0.1 0.1 0.1 0.1 0.1 0 0 0 0 0.1 0.04673419544709168 0 0 0 0 0 0 0 20:1 26:1 27:1 28:1 29:1 33:1 34:1 35:1 37:1 38:1 41:1 46:1 49:1 54:1 55:1 57:1 63:1 64:1 65:1 72:1 73:1 80:1 81:1 82:1 88:1 90:1 96:1 98:1 99:1 100:1 102:1 103:1 104:1 108:1 109:1 110:1 
0 0.1 0.1 0 0.1 0 0 0 0 0.1 0 0 0 0 0 0 0.0436550806836078 0 0 0 0 0 0 0 0 18:1 19:1 25:1 26:1 33:1 36:1 37:1 38:1 39:1 41:1 42:1 43:1 47:1 48:1 49:1 56:1 57:1 64:1 65:1 72:1 73:1 80:1 81:1 87:1 88:1 89:1 95:1 97:1 98:1 99:1 102:1 103:1 107:1 108:1 109:1 110:1 
0.1 0.1 0.1 0.0470531907905012 0.1 0.1 0 0.1 0.05521144118170929 0.1 0 0.1 0 0 0 0 0.1 0 0.1 0 0 0 0 0 0 22:1 23:1 24:1 29:1 30:1 32:1 35:1 36:1 37:1 40:1 43:1 44:1 45:1 46:1 48:1 50:1 51:1 52:1 54:1 56:1 57:1 58:1 63:1 64:1 65:1 70:1 71:1 73:1 77:1 78:1 81:1 85:1 89:1 92:1 93:1 97:1 98:1 99:1 100:1 105:1 106:1 
0 0.1 0.1 0 0.1 0.1 0 0.1 0 0.1 0 0.1 0 0 0 0 0.1 0 0 0 0 0 0 0 0 34:1 35:1 36:1 37:1 38:1 39:1 41:1 47:1 48:1 49:1 56:1 57:1 64:1 65:1 72:1 73:1 80:1 81:1 87:1 88:1 89:1 90:1 91:1 92:1 93:1 94:1 95:1 
0.08126487773209451 0.1 0.1 0 0.1 0 0 0.1 0.1 0.1 0 0.1 0 0 0 0 0.1 0 0 0 0 0 0 0 0 20:1 21:1 27:1 28:1 29:1 34:1 35:1 39:1 40:1 41:1 42:1 48:1 49:1 56:1 57:1 64:1 65:1 72:1 73:1 80:1 81:1 87:1 88:1 89:1 95:1 97:1 102:1 105:1 106:1 107:1 108:1 109:1 
0 0.1 0.1 0 0.1 0.1 0 0.1 0 0.1 0 0.1 0 0 0 0 0.1 0 0 0 0 0 0 0 0 33:1 34:1 35:1 36:1 37:1 38:1 41:1 42:1 46:1 47:1 49:1 55:1 56:1 57:1 64:1 65:1 72:1 73:1 74:1 80:1 82:1 88:1 90:1 91:1 92:1 93:1 94:1 95:1 96:1 
0.1 0.1 0.1 0 0.1 0.1 0 0.1 0.1 0.1 0.1 0.1 0 0.1 0 0.1 0.1 0 0.1 0 0 0 0 0 0 20:1 21:1 22:1 23:1 24:1 25:1 26:1 27:1 32:1 33:1 34:1 40:1 41:1 48:1 49:1 56:1 57:1 64:1 65:1 72:1 73:1 80:1 81:1 88:1 89:1 96:1 97:1 98:1 102:1 103:1 107:1 108:1 109:1 
0.1 0.1 0.1 0.1 0.1 0.1 0.1 0.1 0.1 0.1 0.1 0.1 0.1 0.1 0.1 0.1 0.1 0.1 0.1 0 0 0 0 0 0.1 42:1 43:1 44:1 45:1 46:1 47:1 48:1 49:1 56:1 57:1 64:1 65:1 72:1 73:1 79:1 80:1 81:1 82:1 83:1 84:1 85:1 86:1 87:1 
0 0.1 0.1 0 0.1 0 0 0 0 0.1 0 0 0 0 0 0 0 0 0 0 0 0 0 0 0 28:1 29:1 30:1 31:1 35:1 36:1 37:1 39:1 40:1 43:1 48:1 50:1 51:1 56:1 57:1 58:1 64:1 65:1 72:1 73:1 79:1 80:1 81:1 87:1 89:1 93:1 94:1 95:1 97:1 98:1 99:1 100:1 101:1 
0.1 0.1 0.1 0.1 0.1 0.1 0 0.1 0.1 0.1 0.1 0.1 0 0.1 0.04327809656428792 0.05336763320730188 0.1 0 0.1 0 0 0 0.05897128098805419 0 0.03181722070333209 24:1 30:1 31:1 32:1 36:1 37:1 38:1 40:1 44:1 48:1 51:1 52:1 56:1 58:1 59:1 64:1 65:1 66:1 72:1 73:1 79:1 81:1 86:1 87:1 89:1 93:1 94:1 97:1 100:1 101:1 105:1 106:1 107:1 108:1 
0.1 0.1 0.1 0.1 0.1 0.1 0.1 0.1 0.1 0.1 0.1 0.1 0.1 0.1 0.1 0.1 0.1 0.1 0.1 0.1 0 0.04005214178259815 0.1 0.1 0.1 45:1 46:1 47:1 48:1 51:1 52:1 53:1 56:1 58:1 59:1 60:1 63:1 64:1 65:1 66:1 70:1 71:1 73:1 76:1 77:1 78:1 81:1 82:1 83:1 84:1 
0 0.1 0.1 0 0.1 0 0 0 0 0.1 0 0 0 0 0 0 0 0 0 0 0 0 0 0 0 34:1 35:1 36:1 37:1 38:1 39:1 40:1 41:1 42:1 48:1 49:1 50:1 56:1 57:1 64:1 65:1 72:1 73:1 79:1 80:1 81:1 85:1 86:1 87:1 89:1 90:1 91:1 92:1 93:1 
0 0.1 0.1 0 0.1 0 0 0 0 0.1 0 0 0 0 0 0 0 0 0 0 0 0 0 0 0 30:1 31:1 34:1 35:1 36:1 37:1 39:1 40:1 41:1 42:1 48:1 49:1 56:1 57:1 64:1 65:1 72:1 73:1 79:1 80:1 81:1 86:1 87:1 89:1 90:1 91:1 92:1 93:1 94:1 98:1 99:1 
0 0.1 0.1 0 0.1 0.1 0 0.1 0.1 0.1 0 0.1 0 0 0 0 0.1 0 0.1 0 0 0 0 0 0.04787869301809919 17:1 18:1 19:1 20:1 21:1 22:1 25:1 30:1 31:1 33:1 34:1 39:1 41:1 47:1 48:1 49:1 56:1 57:1 64:1 65:1 72:1 73:1 80:1 81:1 82:1 87:1 90:1 95:1 98:1 99:1 102:1 103:1 107:1 108:1 109:1 110:1 
0.1 0.1 0.1 0.05849795230863889 0.1 0.1 0.1 0.1 0.1 0.1 0.1 0.1 0.1 0.1 0.1 0.1 0.1 0.1 0.1 0.03448172424598488 0.01981157324805573 0.02775990313952417 0.06415799651756164 0 0.1 12:1 13:1 14:1 15:1 19:1 20:1 23:1 24:1 26:1 27:1 32:1 33:1 34:1 40:1 41:1 48:1 49:1 56:1 57:1 64:1 65:1 66:1 72:1 80:1 88:1 95:1 96:1 99:1 103:1 107:1 108:1 111:1 116:1 117:1 118:1 
0.1 0.1 0.1 0.1 0.1 0.1 0.1 0.1 0.1 0.1 0.1 0.1 0.1 0.1 0.1 0.1 0.1 0.1 0.1 0.1 0.1 0 0.1 0.08668970739093759 0.1 31:1 39:1 47:1 48:1 56:1 64:1 67:1 68:1 72:1 75:1 80:1 82:1 83:1 88:1 89:1 90:1 95:1 96:1 97:1 98:1 99:1 100:1 101:1 102:1 103:1 
0.1 0.1 0.1 0.1 0.1 0.1 0.1 0.1 0.1 0.1 0.1 0.1 0.1 0.1 0.1 0.1 0.1 0.1 0.1 0.1 0 0 0.1 0 0.1 43:1 44:1 45:1 46:1 49:1 50:1 51:1 54:1 55:1 57:1 63:1 64:1 65:1 72:1 73:1 80:1 81:1 82:1 83:1 84:1 85:1 86:1 87:1 88:1 
0.1 0.1 0.1 0.1 0.1 0.1 0.1 0.1 0.1 0.1 0.1 0.1 0.1 0.1 0.1 0.1 0.1 0.1 0.1 0.1 0 0.07805740068033752 0.1 0 0.1 17:1 18:1 19:1 25:1 26:1 27:1 34:1 35:1 36:1 37:1 42:1 45:1 46:1 50:1 54:1 55:1 58:1 63:1 66:1 67:1 71:1 72:1 75:1 80:1 83:1 88:1 91:1 92:1 96:1 100:1 104:1 108:1 109:1 111:1 112:1 117:1 118:1 119:1 
0.1 0.1 0.1 0.1 0.1 0.1 0.1 0.1 0.1 0.1 0.1 0.1 0.1 0.1 0.1 0.1 0.1 0.1 0.1 0.1 0 0 0.1 0.1 0.1 41:1 42:1 43:1 44:1 45:1 46:1 47:1 49:1 55:1 56:1 57:1 64:1 65:1 72:1 73:1 74:1 79:1 80:1 82:1 83:1 84:1 85:1 86:1 87:1 
0.03284201593303997 0.1 0.1 0.03919243751737451 0.1 0.1 0.0428237976792268 0.1 0.05759844801442913 0.1 0.1 0.1 0.03256293705645348 0.06105789369067181 0.07008587623151985 0.04663236679269812 0.1 0 0.1 0.01580956191351529 0 0 0 0 0.04432911181415541 13:1 14:1 15:1 18:1 19:1 20:1 21:1 23:1 24:1 25:1 26:1 32:1 35:1 40:1 43:1 48:1 50:1 51:1 56:1 58:1 64:1 66:1 72:1 74:1 80:1 81:1 82:1 87:1 88:1 89:1 95:1 97:1 98:1 102:1 103:1 106:1 108:1 109:1 110:1 114:1 115:1 116:1 
0 0.1 0.1 0 0.1 0 0 0 0 0.1 0 0.1 0 0 0 0 0.1 0 0 0 0 0 0 0 0 26:1 27:1 28:1 29:1 30:1 31:1 34:1 39:1 40:1 41:1 42:1 48:1 49:1 56:1 57:1 64:1 65:1 72:1 73:1 79:1 80:1 81:1 86:1 87:1 89:1 93:1 94:1 97:1 98:1 99:1 100:1 101:1 
0.1 0.1 0.1 0.06695923686531581 0.1 0.1 0.1 0.1 0.1 0.1 0.1 0.1 0 0.1 0.1 0 0.1 0.1 0.1 0.1 0 0 0.1 0 0.1 41:1 42:1 43:1 44:1 45:1 46:1 49:1 52:1 54:1 55:1 56:1 57:1 64:1 65:1 72:1 73:1 74:1 80:1 82:1 83:1 84:1 85:1 86:1 87:1 88:1 
0 0.1 0.1 0 0.1 0.1 0 0.06454745915764989 0 0.1 0 0.1 0 0 0 0 0.1 0 0 0 0 0 0 0 0 26:1 27:1 28:1 29:1 33:1 34:1 35:1 37:1 38:1 39:1 41:1 47:1 48:1 49:1 56:1 57:1 64:1 65:1 72:1 73:1 80:1 81:1 82:1 88:1 90:1 96:1 98:1 99:1 100:1 101:1 102:1 103:1 104:1 
0 0.1 0.1 0 0.1 0.04102138936483401 0 0 0 0.1 0 0 0 0 0 0 0 0 0 0 0 0 0 0 0 17:1 18:1 19:1 20:1 21:1 26:1 27:1 29:1 30:1 33:1 34:1 35:1 38:1 39:1 41:1 47:1 49:1 55:1 56:1 57:1 64:1 65:1 72:1 73:1 80:1 81:1 88:1 89:1 96:1 97:1 98:1 103:1 104:1 106:1 107:1 108:1 109:1 110:1 111:1 
0 0.1 0.1 0 0.1 0.1 0 0.1 0 0.1 0 0.1 0 0 0 0 0 0 0 0 0 0 0 0 0 28:1 29:1 30:1 31:1 32:1 35:1 36:1 40:1 43:1 44:1 48:1 50:1 51:1 56:1 58:1 64:1 65:1 66:1 71:1 72:1 73:1 79:1 81:1 86:1 87:1 89:1 93:1 94:1 97:1 98:1 99:1 100:1 101:1 
0.04757694789421092 0.1 0.1 0 0.1 0.1 0 0.1 0.06688157237940787 0.1 0 0.1 0 0 0 0 0.1 0 0 0 0 0 0 0 0 35:1 36:1 41:1 42:1 43:1 45:1 46:1 47:1 49:1 50:1 55:1 56:1 57:1 64:1 65:1 72:1 73:1 80:1 81:1 82:1 86:1 87:1 88:1 90:1 91:1 92:1 93:1 94:1 
0 0 0.1 0 0.1 0 0 0 0 0.1 0 0 0 0 0 0 0 0 0 0 0 0 0 0 0 20:1 21:1 22:1 23:1 27:1 28:1 32:1 34:1 35:1 40:1 41:1 42:1 43:1 48:1 49:1 56:1 57:1 64:1 65:1 72:1 73:1 80:1 81:1 82:1 87:1 88:1 89:1 90:1 94:1 97:1 98:1 100:1 101:1 102:1 106:1 107:1 108:1 
0 0 0.1 0 0.1 0 0 0 0 0.1 0 0 0 0 0 0 0 0 0 0 0 0 0 0 0 22:1 29:1 30:1 31:1 35:1 36:1 37:1 39:1 42:1 43:1 47:1 48:1 49:1 50:1 56:1 57:1 64:1 65:1 72:1 73:1 80:1 81:1 87:1 88:1 89:1 94:1 95:1 97:1 98:1 100:1 101:1 102:1 106:1 107:1 108:1 
0 0.1 0.1 0 0.1 0 0 0 0 0.1 0 0 0 0 0 0 0 0 0 0 0 0 0 0 0 28:1 29:1 30:1 31:1 34:1 35:1 36:1 39:1 40:1 42:1 43:1 48:1 49:1 50:1 56:1 57:1 64:1 65:1 72:1 73:1 80:1 81:1 87:1 88:1 89:1 90:1 91:1 94:1 95:1 99:1 100:1 101:1 102:1 
0 0.1 0.1 0 0.1 0 0 0.06859529513378904 0.03949299099667201 0.1 0 0.1 0 0 0 0 0.1 0 0 0 0 0 0 0 0 12:1 13:1 14:1 15:1 19:1 20:1 23:1 24:1 26:1 27:1 32:1 33:1 34:1 40:1 41:1 48:1 49:1 56:1 57:1 64:1 65:1 72:1 73:1 79:1 80:1 81:1 87:1 89:1 94:1 95:1 97:1 101:1 102:1 105:1 108:1 109:1 114:1 115:1 116:1 
0 0.1 0.1 0 0.1 0.1 0 0.03693287195010363 0 0.1 0 0.02646577036005984 0 0 0 0 0.1 0 0 0 0 0 0 0 0 3:1 10:1 11:1 12:1 13:1 18:1 19:1 21:1 22:1 23:1 25:1 26:1 31:1 32:1 33:1 40:1 41:1 48:1 49:1 56:1 57:1 64:1 65:1 72:1 73:1 80:1 81:1 87:1 88:1 89:1 95:1 97:1 102:1 103:1 105:1 110:1 113:1 114:1 115:1 116:1 117:1 118:1 124:1 
0 0.1 0.1 0 0.1 0 0 0 0 0.1 0 0.1 0 0 0 0 0.1 0 0 0 0 0 0 0 0 15:1 23:1 31:1 35:1 36:1 37:1 39:1 40:1 41:1 42:1 43:1 48:1 49:1 56:1 57:1 64:1 65:1 72:1 73:1 80:1 81:1 88:1 89:1 95:1 96:1 97:1 101:1 102:1 103:1 105:1 106:1 109:1 114:1 115:1 116:1 117:1 
0.1 0.1 0.1 0 0.1 0.1 0 0.1 0.1 0.1 0.1 0.1 0 0.1 0.1 0 0.1 0 0.1 0 0.1 0.1 0 0 0.1 43:1 44:1 45:1 46:1 47:1 49:1 50:1 52:1 55:1 56:1 57:1 64:1 65:1 72:1 73:1 79:1 80:1 81:1 82:1 83:1 84:1 85:1 86:1 87:1 
0.1 0.1 0.1 0.05426287672951269 0.1 0.1 0.1 0.1 0.1 0.1 0.1 0.1 0 0.07067606884674858 0.1 0 0.1 0 0.1 0.06390657707069022 0 0.03989507142246119 0 0 0.1 9:1 10:1 17:1 18:1 19:1 25:1 26:1 27:1 28:1 34:1 36:1 37:1 41:1 42:1 45:1 46:1 49:1 54:1 55:1 57:1 63:1 65:1 71:1 72:1 73:1 80:1 81:1 88:1 89:1 96:1 97:1 104:1 105:1 106:1 107:1 109:1 110:1 111:1 112:1 115:1 116:1 117:1 
0.1 0.1 0.1 0 0.1 0.1 0 0.1 0.1 0.1 0 0.1 0 0.05066605944028822 0 0 0.1 0 0 0 0 0 0 0 0 36:1 37:1 38:1 42:1 43:1 44:1 46:1 47:1 48:1 49:1 50:1 56:1 57:1 64:1 65:1 72:1 73:1 80:1 81:1 82:1 88:1 90:1 91:1 92:1 93:1 94:1 95:1 
0 0.1 0.1 0 0.1 0 0 0 0 0.1 0 0 0 0 0 0 0 0 0 0 0 0 0 0 0 26:1 27:1 28:1 29:1 30:1 31:1 33:1 34:1 35:1 39:1 41:1 42:1 47:1 48:1 49:1 56:1 57:1 64:1 65:1 72:1 73:1 80:1 81:1 88:1 89:1 90:1 95:1 96:1 98:1 99:1 100:1 101:1 102:1 103:1 
0 0.1 0.1 0 0.1 0.1 0 0.1 0.1 0.1 0.1 0.1 0 0.1 0 0 0.1 0.1 0 0 0 0 0 0 0 35:1 36:1 37:1 38:1 39:1 40:1 42:1 43:1 48:1 50:1 56:1 58:1 64:1 65:1 72:1 73:1 79:1 80:1 81:1 86:1 87:1 89:1 90:1 91:1 92:1 93:1 94:1 
0 0.1 0.1 0.1 0.1 0.1 0 0.1 0.1 0.1 0.0406843074149202 0.1 0 0.02932393115325142 0.04685264117124955 0.04517743759564064 0.1 0 0.1 0 0 0 0 0 0 11:1 12:1 13:1 14:1 15:1 16:1 19:1 23:1 24:1 26:1 27:1 31:1 32:1 34:1 40:1 42:1 48:1 49:1 50:1 56:1 57:1 63:1 64:1 65:1 71:1 73:1 79:1 81:1 87:1 89:1 94:1 95:1 97:1 102:1 105:1 108:1 109:1 110:1 113:1 114:1 115:1 116:1 
0.1 0.1 0.1 0 0.1 0.1 0 0.1 0 0.1 0 0.1 0 0 0 0 0.1 0 0 0 0 0 0 0 0 33:1 35:1 36:1 41:1 42:1 43:1 44:1 45:1 46:1 49:1 54:1 55:1 56:1 57:1 64:1 65:1 72:1 73:1 80:1 81:1 86:1 87:1 88:1 89:1 90:1 91:1 92:1 93:1 94:1 
0 0.1 0.1 0 0.1 0.1 0 0.1 0.06050700900332799 0.1 0.03437455589689502 0.1 0 0 0 0 0.1 0 0 0 0 0 0 0 0 11:1 12:1 13:1 21:1 22:1 25:1 26:1 27:1 28:1 30:1 31:1 33:1 37:1 39:1 41:1 47:1 48:1 49:1 56:1 57:1 64:1 65:1 72:1 73:1 80:1 81:1 88:1 90:1 96:1 99:1 104:1 108:1 109:1 111:1 112:1 117:1 118:1 119:1 
0 0.1 0.1 0 0.1 0.1 0 0.1 0 0.1 0 0.1 0 0 0 0 0.06029424688151298 0 0.1 0 0 0 0 0 0 2:1 3:1 4:1 5:1 10:1 11:1 14:1 18:1 19:1 22:1 23:1 26:1 31:1 33:1 34:1 39:1 40:1 41:1 48:1 49:1 56:1 57:1 64:1 65:1 72:1 73:1 80:1 81:1 88:1 89:1 95:1 96:1 97:1 103:1 105:1 106:1 110:1 111:1 114:1 115:1 118:1 123:1 124:1 125:1 
0 0.1 0.1 0 0.1 0 0 0 0.1 0.1 0 0.03655499384297609 0 0 0 0 0 0 0 0 0 0 0 0.04053669781088322 0 28:1 29:1 30:1 31:1 32:1 35:1 36:1 40:1 42:1 43:1 48:1 49:1 50:1 56:1 57:1 64:1 65:1 72:1 73:1 80:1 81:1 88:1 89:1 90:1 91:1 95:1 96:1 99:1 100:1 101:1 102:1 103:1 
0 0.1 0.1 0 0.1 0 0 0.1 0 0.1 0 0.1 0 0 0 0 0.1 0 0 0 0 0 0 0 0 34:1 35:1 36:1 37:1 38:1 39:1 41:1 42:1 47:1 48:1 49:1 50:1 56:1 57:1 64:1 65:1 72:1 73:1 74:1 79:1 80:1 82:1 83:1 87:1 91:1 92:1 93:1 94:1 95:1 101:1 102:1 
0 0.1 0.1 0 0.1 0 0 0 0 0.1 0 0 0 0 0 0 0 0 0 0 0 0 0 0 0 26:1 27:1 28:1 29:1 30:1 33:1 34:1 35:1 38:1 39:1 41:1 42:1 47:1 48:1 49:1 50:1 56:1 58:1 64:1 65:1 66:1 72:1 73:1 79:1 80:1 81:1 86:1 87:1 89:1 92:1 93:1 94:1 97:1 98:1 99:1 100:1 
0 0.1 0.1 0 0.1 0.07456867248504381 0 0.1 0 0.1 0 0.1 0 0 0 0 0.1 0 0 0 0 0 0 0.03758957936499923 0 27:1 28:1 29:1 30:1 33:1 34:1 38:1 39:1 41:1 47:1 48:1 49:1 56:1 57:1 64:1 65:1 72:1 73:1 80:1 81:1 88:1 89:1 90:1 91:1 92:1 95:1 96:1 100:1 101:1 102:1 103:1 
0 0.1 0.1 0 0.1 0.1 0 0 0 0.1 0 0.1 0 0 0 0 0.1 0 0 0 0 0 0 0 0 30:1 31:1 36:1 37:1 38:1 39:1 40:1 43:1 48:1 50:1 56:1 57:1 58:1 64:1 65:1 72:1 73:1 79:1 80:1 81:1 87:1 89:1 93:1 94:1 95:1 97:1 98:1 99:1 100:1 101:1 
0.1 0.1 0.1 0.1 0.1 0.1 0.1 0.1 0.1 0.1 0.1 0.1 0.1 0.1 0.1 0.1 0.1 0.07727266747535566 0.1 0.07613140696833287 0 0.01577331527755833 0.04255523227930659 0 0.1 4:1 5:1 6:1 7:1 11:1 12:1 15:1 18:1 23:1 24:1 25:1 26:1 27:1 28:1 32:1 33:1 36:1 40:1 41:1 47:1 48:1 49:1 55:1 57:1 63:1 65:1 70:1 73:1 77:1 78:1 81:1 85:1 89:1 92:1 93:1 97:1 98:1 99:1 100:1 105:1 106:1 114:1 122:1 
0 0.1 0.1 0 0.1 0 0 0 0 0.1 0 0 0 0 0 0 0 0 0 0 0 0 0 0 0 26:1 27:1 28:1 29:1 33:1 34:1 35:1 36:1 37:1 38:1 39:1 42:1 47:1 48:1 49:1 56:1 57:1 64:1 65:1 72:1 73:1 80:1 81:1 86:1 87:1 88:1 89:1 92:1 93:1 94:1 97:1 98:1 99:1 100:1 
0 0.1 0.1 0 0.1 0 0 0 0 0.1 0 0 0 0 0 0 0 0 0 0 0 0 0 0 0 19:1 20:1 21:1 22:1 23:1 24:1 26:1 27:1 28:1 32:1 33:1 34:1 35:1 40:1 42:1 48:1 50:1 56:1 57:1 58:1 64:1 65:1 72:1 73:1 79:1 80:1 81:1 86:1 87:1 89:1 94:1 97:1 101:1 102:1 105:1 106:1 107:1 108:1 109:1 
0.1 0.1 0.1 0 0.1 0.1 0 0.1 0 0.1 0.03788933580550869 0.1 0 0.02591285221905585 0 0 0 0 0 0 0 0 0 0 0 12:1 13:1 20:1 27:1 28:1 29:1 30:1 31:1 35:1 39:1 40:1 43:1 48:1 50:1 51:1 56:1 58:1 64:1 65:1 66:1 72:1 73:1 80:1 81:1 88:1 89:1 95:1 96:1 97:1 102:1 103:1 105:1 109:1 110:1 113:1 114:1 115:1 116:1 117:1 
0.1 0.1 0.1 0 0.1 0.1 0.04734490319752347 0.1 0.1 0.1 0.1 0.1 0 0.1 0.1 0 0.1 0.1 0.1 0.05672602994603785 0 0 0 0 0.1 33:1 34:1 35:1 36:1 37:1 38:1 41:1 46:1 49:1 55:1 57:1 63:1 64:1 65:1 72:1 73:1 80:1 81:1 88:1 89:1 90:1 91:1 92:1 93:1 94:1 95:1 96:1 
0.1 0.1 0.1 0.1 0.1 0.1 0.1 0.1 0.1 0.1 0.1 0.1 0.1 0.1 0.1 0 0.1 0.1 0.1 0.06849342315773781 0 0 0.1 0 0.1 17:1 18:1 19:1 20:1 21:1 22:1 25:1 30:1 31:1 33:1 39:1 40:1 48:1 56:1 64:1 65:1 72:1 73:1 80:1 81:1 88:1 89:1 95:1 96:1 97:1 98:1 101:1 102:1 103:1 106:1 107:1 108:1 109:1 
0 0.1 0.1 0 0.1 0 0 0 0 0.1 0 0.04145434393906999 0 0 0 0 0.1 0 0 0 0 0 0 0 0 34:1 35:1 36:1 37:1 38:1 39:1 41:1 42:1 47:1 48:1 49:1 56:1 57:1 64:1 65:1 72:1 73:1 80:1 81:1 82:1 83:1 84:1 86:1 87:1 88:1 92:1 93:1 94:1 95:1 96:1 
0 0.1 0.1 0 0.1 0.1 0 0.1 0.1 0.1 0 0.1 0 0.1 0 0 0.1 0 0.1 0 0 0 0 0 0 35:1 36:1 37:1 38:1 39:1 42:1 43:1 47:1 48:1 49:1 50:1 56:1 57:1 64:1 65:1 72:1 73:1 74:1 79:1 80:1 82:1 83:1 86:1 87:1 91:1 92:1 93:1 94:1 
0.1 0.1 0.1 0.1 0.1 0.1 0.1 0.1 0.1 0.1 0.1 0.1 0.1 0.1 0.1 0.1 0.1 0.1 0.1 0.1 0 0 0.1 0.08142472494361018 0.1 41:1 42:1 43:1 46:1 47:1 48:1 49:1 56:1 57:1 64:1 65:1 72:1 73:1 80:1 81:1 82:1 83:1 84:1 85:1 86:1 87:1 88:1 
0.1 0.1 0.1 0.1 0.1 0.1 0.1 0.1 0.1 0.1 0.1 0.1 0.1 0.1 0.1 0.1 0.1 0.1 0.1 0.1 0 0 0.1 0 0.1 37:1 41:1 42:1 43:1 44:1 45:1 46:1 49:1 54:1 55:1 57:1 64:1 65:1 72:1 73:1 80:1 81:1 82:1 87:1 88:1 90:1 91:1 92:1 93:1 94:1 95:1 
0.1 0.1 0.1 0.05865200695753377 0.1 0.1 0.1 0.1 0.1 0.1 0.1 0.1 0.06842443549720709 0.1 0.1 0.1 0.1 0.07099473655557145 0.1 0.08419043808648471 0.02138479485601884 0.038791823410547 0.04151785172624634 0 0.1 2:1 3:1 4:1 5:1 9:1 13:1 17:1 21:1 22:1 25:1 30:1 33:1 38:1 39:1 41:1 47:1 48:1 49:1 56:1 57:1 64:1 65:1 72:1 74:1 80:1 82:1 88:1 90:1 96:1 99:1 104:1 107:1 112:1 115:1 116:1 117:1 119:1 120:1 125:1 126:1 127:1 
0 0.1 0.1 0 0.1 0.1 0.04680852952418002 0.1 0.04843491740038425 0.1 0.03186117549848017 0.1 0 0.0530892342738169 0 0.1 0.1 0 0.1 0 0 0 0 0 0 17:1 18:1 19:1 20:1 21:1 22:1 23:1 25:1 31:1 33:1 39:1 40:1 41:1 48:1 49:1 56:1 57:1 64:1 65:1 72:1 73:1 79:1 80:1 81:1 82:1 87:1 90:1 95:1 98:1 99:1 102:1 103:1 107:1 108:1 109:1 110:1 
0.1 0.1 0.1 0 0.1 0.1 0 0.1 0.1 0.1 0 0.1 0 0.1 0 0 0.1 0 0 0 0 0 0 0 0 29:1 30:1 34:1 39:1 40:1 42:1 48:1 49:1 50:1 56:1 57:1 64:1 65:1 72:1 73:1 80:1 81:1 87:1 88:1 89:1 90:1 94:1 95:1 98:1 99:1 100:1 101:1 102:1 
0.1 0.1 0.1 0 0.1 0.1 0.1 0.1 0.1 0.1 0 0.1 0 0.1 0.03511602150912162 0.1 0.1 0 0.1 0.1 0 0 0 0 0.1 17:1 22:1 25:1 30:1 31:1 33:1 39:1 40:1 41:1 48:1 49:1 56:1 57:1 64:1 65:1 72:1 73:1 80:1 81:1 88:1 89:1 90:1 96:1 98:1 99:1 104:1 107:1 108:1 109:1 110:1 111:1 112:1 
0 0.1 0.1 0 0.1 0.1 0 0.03140470486621098 0 0.1 0 0.1 0 0 0 0 0.1 0 0 0 0 0 0 0 0 35:1 36:1 37:1 38:1 41:1 42:1 43:1 46:1 47:1 48:1 49:1 56:1 57:1 64:1 65:1 72:1 73:1 80:1 81:1 82:1 83:1 86:1 87:1 88:1 91:1 92:1 93:1 94:1 
0 0.1 0.1 0 0.1 0 0 0 0 0.1 0 0 0 0 0 0 0 0 0 0 0 0 0 0 0 35:1 36:1 37:1 38:1 41:1 42:1 43:1 44:1 46:1 47:1 48:1 49:1 56:1 57:1 64:1 65:1 72:1 73:1 80:1 81:1 82:1 83:1 87:1 88:1 91:1 92:1 93:1 94:1 95:1 
0.1 0.1 0.1 0.1 0.1 0.1 0.1 0.1 0.1 0.1 0.1 0.1 0.1 0.1 0.1 0.1 0.1 0.1 0.1 0.1 0 0 0.1 0 0.1 29:1 37:1 45:1 46:1 49:1 50:1 51:1 55:1 56:1 57:1 59:1 64:1 65:1 72:1 73:1 80:1 81:1 88:1 89:1 95:1 98:1 99:1 100:1 101:1 102:1 
0 0.1 0.1 0 0.1 0 0 0 0 0.1 0 0 0 0 0 0 0 0 0 0 0 0 0 0 0 20:1 21:1 22:1 27:1 28:1 30:1 35:1 37:1 38:1 39:1 40:1 42:1 43:1 48:1 49:1 50:1 56:1 57:1 64:1 65:1 72:1 73:1 80:1 81:1 88:1 89:1 90:1 96:1 98:1 99:1 102:1 103:1 108:1 109:1 110:1 
0 0.1 0.1 0 0.1 0.1 0.1 0.1 0 0.1 0 0.1 0 0 0.02767816077237617 0 0.1 0 0 0.03609342292930978 0 0 0 0 0.0757213366828582 2:1 3:1 9:1 10:1 11:1 12:1 17:1 18:1 20:1 21:1 25:1 29:1 30:1 33:1 38:1 39:1 41:1 47:1 49:1 55:1 56:1 57:1 64:1 65:1 72:1 73:1 80:1 81:1 88:1 89:1 96:1 97:1 104:1 105:1 111:1 112:1 113:1 118:1 119:1 121:1 122:1 123:1 124:1 125:1 126:1 
0 0.1 0.1 0 0.1 0.1 0 0 0 0.1 0 0 0 0 0 0 0 0 0.03138703659483958 0 0 0 0 0 0 3:1 4:1 5:1 11:1 13:1 14:1 18:1 19:1 20:1 21:1 26:1 27:1 29:1 30:1 34:1 38:1 39:1 42:1 47:1 49:1 50:1 55:1 56:1 57:1 64:1 65:1 72:1 73:1 80:1 81:1 88:1 89:1 96:1 97:1 98:1 104:1 106:1 111:1 112:1 114:1 115:1 118:1 119:1 123:1 124:1 125:1 126:1 
0.1 0.1 0.1 0.1 0.1 0.1 0.1 0.1 0.1 0.1 0.1 0.1 0.1 0.1 0.1 0.1 0.1 0.1 0.1 0.1 0 0 0.1 0.06506272001606399 0.1 34:1 35:1 36:1 37:1 38:1 39:1 42:1 43:1 47:1 49:1 50:1 51:1 55:1 56:1 57:1 59:1 64:1 66:1 67:1 72:1 75:1 80:1 83:1 84:1 88:1 92:1 93:1 94:1 95:1 96:1 
0 0.1 0.1 0 0.1 0 0 0 0 0.1 0 0 0 0 0 0 0 0 0 0 0 0 0 0 0 25:1 26:1 27:1 28:1 29:1 33:1 34:1 35:1 36:1 37:1 38:1 41:1 46:1 47:1 49:1 55:1 56:1 57:1 64:1 65:1 72:1 73:1 80:1 81:1 82:1 88:1 90:1 95:1 96:1 98:1 99:1 100:1 101:1 102:1 103:1 
0.1 0.1 0.1 0 0.1 0.1 0 0.1 0.1 0.1 0.1 0.1 0 0.1 0 0 0.1 0 0.1 0 0 0 0 0 0 33:1 34:1 35:1 36:1 41:1 42:1 45:1 46:1 49:1 54:1 55:1 57:1 63:1 64:1 65:1 72:1 73:1 80:1 81:1 82:1 88:1 90:1 91:1 92:1 93:1 94:1 95:1 96:1 
0.1 0.1 0.1 0.1 0.1 0.1 0.1 0.1 0.1 0.1 0.1 0.1 0.1 0.1 0.1 0.1 0.1 0.1 0.1 0.1 0 0.0235363272804085 0.1 0 0.1 26:1 27:1 33:1 34:1 35:1 36:1 37:1 41:1 45:1 46:1 49:1 54:1 57:1 62:1 63:1 65:1 71:1 72:1 73:1 80:1 81:1 82:1 88:1 90:1 91:1 96:1 99:1 100:1 101:1 102:1 103:1 104:1 
0.1 0.1 0.1 0.1 0.1 0.1 0.1 0.1 0.1 0.1 0.1 0.1 0.1 0.1 0.1 0.1 0.1 0.1 0.1 0.1 0.04851134113164848 0 0.1 0 0.1 29:1 30:1 31:1 36:1 37:1 39:1 40:1 48:1 49:1 56:1 57:1 63:1 64:1 65:1 71:1 73:1 78:1 79:1 81:1 85:1 86:1 89:1 93:1 97:1 98:1 99:1 100:1 
0 0.1 0.1 0 0.1 0.1 0 0.1 0 0.1 0 0.1 0 0 0 0 0.1 0 0.1 0 0 0 0 0 0 27:1 28:1 29:1 30:1 31:1 32:1 35:1 36:1 40:1 48:1 50:1 51:1 56:1 58:1 64:1 65:1 66:1 72:1 73:1 79:1 80:1 81:1 85:1 86:1 87:1 89:1 90:1 92:1 93:1 98:1 99:1 100:1 
0 0.1 0.1 0 0.1 0.1 0 0.1 0.1 0.1 0 0.1 0 0 0 0 0.1 0 0 0 0 0 0 0 0 20:1 21:1 22:1 23:1 31:1 32:1 34:1 35:1 36:1 37:1 40:1 42:1 48:1 49:1 56:1 57:1 64:1 65:1 72:1 73:1 80:1 81:1 87:1 89:1 94:1 95:1 97:1 98:1 102:1 106:1 107:1 108:1 109:1 
0.1 0.1 0.1 0 0.1 0.1 0 0.1 0.1 0.1 0 0.1 0 0.1 0 0 0.1 0 0.1 0 0 0 0 0 0 36:1 37:1 38:1 39:1 40:1 42:1 43:1 44:1 48:1 49:1 50:1 56:1 57:1 64:1 65:1 71:1 72:1 73:1 78:1 79:1 81:1 85:1 86:1 89:1 90:1 91:1 92:1 
0.1 0.1 0.1 0 0.1 0.1 0 0.1 0 0.1 0.1 0.1 0 0.1 0 0 0.1 0 0.1 0 0 0 0 0 0 28:1 29:1 30:1 34:1 35:1 36:1 38:1 39:1 42:1 47:1 48:1 49:1 50:1 56:1 57:1 64:1 65:1 72:1 73:1 74:1 80:1 82:1 83:1 84:1 85:1 87:1 88:1 93:1 94:1 95:1 103:1 
0.1 0.1 0.1 0 0.1 0.1 0 0.1 0.1 0.1 0 0.1 0 0 0 0 0.1 0 0 0 0 0 0 0 0 28:1 29:1 30:1 35:1 36:1 38:1 39:1 42:1 43:1 47:1 48:1 49:1 50:1 56:1 57:1 64:1 65:1 72:1 73:1 80:1 81:1 82:1 83:1 84:1 88:1 92:1 93:1 94:1 96:1 103:1 104:1 
0.1 0.1 0.1 0.1 0.1 0.1 0.1 0.1 0.1 0.1 0.1 0.1 0.1 0.1 0.1 0.1 0.1 0.1 0.1 0.0452027758387531 0 0 0.1 0 0.1 35:1 36:1 37:1 39:1 40:1 41:1 42:1 43:1 48:1 49:1 56:1 57:1 64:1 65:1 72:1 73:1 74:1 79:1 80:1 83:1 86:1 87:1 92:1 93:1 94:1 
0.1 0.1 0.1 0 0.1 0.1 0 0.1 0.1 0.1 0.04406273220774924 0.1 0 0.1 0 0 0.1 0 0 0 0 0 0 0 0 31:1 35:1 36:1 39:1 40:1 42:1 43:1 48:1 49:1 50:1 56:1 57:1 64:1 65:1 72:1 73:1 80:1 81:1 88:1 89:1 90:1 95:1 96:1 99:1 100:1 101:1 102:1 103:1 
0 0.1 0.1 0.0456630159417301 0.1 0.1 0 0.1 0.1 0.1 0.05931569258507981 0.1 0 0.0389421063093282 0 0 0.1 0 0 0 0 0 0 0 0 22:1 23:1 29:1 30:1 32:1 36:1 40:1 43:1 48:1 50:1 56:1 57:1 58:1 64:1 65:1 71:1 72:1 73:1 79:1 81:1 86:1 87:1 89:1 93:1 94:1 97:1 98:1 99:1 100:1 101:1 106:1 107:1 
0.1 0.1 0.1 0.07134418163647183 0.1 0.1 0.06162616476959612 0.1 0.1 0.1 0.05129497887877759 0.1 0 0.1 0 0 0.1 0 0.1 0 0 0 0 0 0.06279986063059639 20:1 27:1 28:1 35:1 38:1 39:1 43:1 47:1 50:1 51:1 55:1 56:1 58:1 64:1 65:1 66:1 72:1 73:1 80:1 81:1 87:1 88:1 89:1 94:1 95:1 97:1 98:1 99:1 100:1 101:1 102:1 107:1 108:1 
0.02734451824939899 0.1 0.1 0.04719727898278307 0.1 0.1 0.07339519191984097 0.1 0 0.1 0 0.1 0 0 0.06250497333647509 0 0.1 0 0.04709167348308155 0 0 0.02131310516699181 0 0 0.01814721022162627 2:1 3:1 9:1 10:1 11:1 12:1 13:1 14:1 17:1 21:1 22:1 25:1 30:1 33:1 38:1 39:1 41:1 47:1 48:1 49:1 56:1 57:1 64:1 65:1 72:1 73:1 80:1 81:1 88:1 89:1 96:1 97:1 104:1 105:1 112:1 113:1 119:1 120:1 121:1 122:1 123:1 124:1 125:1 126:1 127:1 
0.1 0.1 0.1 0.1 0.1 0.1 0.1 0.1 0.1 0.1 0.1 0.1 0.1 0.1 0.1 0.1 0.1 0.1 0.1 0.1 0.07322690416649867 0.05710047694028048 0.1 0 0.1 3:1 4:1 5:1 11:1 13:1 21:1 27:1 28:1 29:1 35:1 37:1 43:1 45:1 50:1 51:1 53:1 58:1 61:1 62:1 66:1 70:1 74:1 78:1 82:1 86:1 87:1 90:1 95:1 98:1 103:1 106:1 110:1 111:1 114:1 115:1 118:1 123:1 124:1 125:1 126:1 
0 0 0.1 0 0.1 0 0 0 0 0.1 0 0 0 0 0 0 0 0 0 0 0 0 0 0 0 18:1 19:1 20:1 21:1 26:1 27:1 28:1 29:1 30:1 31:1 34:1 39:1 40:1 41:1 42:1 48:1 49:1 56:1 57:1 64:1 65:1 72:1 73:1 80:1 81:1 87:1 88:1 89:1 94:1 95:1 97:1 101:1 102:1 105:1 106:1 107:1 108:1 109:1 
0 0.1 0.1 0 0.1 0 0 0 0 0.1 0 0 0 0 0 0 0 0 0 0 0 0 0 0 0 21:1 22:1 28:1 29:1 30:1 31:1 36:1 37:1 39:1 40:1 43:1 48:1 50:1 56:1 57:1 58:1 64:1 65:1 72:1 73:1 79:1 80:1 81:1 86:1 87:1 89:1 93:1 94:1 97:1 100:1 101:1 105:1 106:1 107:1 108:1 
0 0.1 0.1 0 0.1 0 0 0 0 0.1 0 0 0 0 0 0 0.1 0 0 0 0 0 0 0 0 25:1 26:1 27:1 33:1 35:1 36:1 37:1 38:1 41:1 46:1 47:1 49:1 50:1 55:1 56:1 57:1 58:1 64:1 65:1 66:1 72:1 73:1 80:1 81:1 87:1 88:1 89:1 90:1 94:1 95:1 98:1 99:1 100:1 101:1 102:1 
0.1 0.1 0.1 0 0.1 0.1 0 0.1 0.1 0.1 0 0.1 0 0.06198745858774254 0 0 0.1 0.1 0 0 0 0 0 0 0 34:1 35:1 36:1 37:1 38:1 41:1 42:1 45:1 46:1 49:1 54:1 55:1 57:1 63:1 64:1 65:1 72:1 73:1 80:1 81:1 82:1 83:1 88:1 91:1 92:1 93:1 94:1 95:1 96:1 
0 0.1 0.1 0 0.1 0.1 0 0.1 0 0.1 0 0.1 0 0 0 0 0.1 0 0 0 0 0 0 0 0 29:1 30:1 38:1 39:1 42:1 43:1 44:1 45:1 46:1 47:1 48:1 49:1 50:1 56:1 57:1 64:1 65:1 71:1 72:1 73:1 79:1 81:1 87:1 89:1 90:1 93:1 94:1 95:1 98:1 99:1 100:1 101:1 
0 0.1 0.1 0 0.1 0 0 0 0 0.1 0 0 0 0 0 0 0 0 0 0 0 0 0 0 0 34:1 35:1 36:1 37:1 38:1 39:1 41:1 42:1 47:1 48:1 49:1 56:1 57:1 64:1 65:1 72:1 73:1 80:1 81:1 82:1 87:1 88:1 90:1 91:1 92:1 93:1 94:1 95:1 
0 0.1 0.1 0 0.1 0.1 0 0 0 0.1 0 0 0 0 0 0 0 0 0.04168881996750463 0 0 0 0 0 0 2:1 3:1 4:1 10:1 11:1 12:1 18:1 19:1 20:1 21:1 25:1 26:1 29:1 30:1 31:1 32:1 33:1 40:1 41:1 48:1 49:1 56:1 57:1 64:1 65:1 72:1 73:1 80:1 81:1 88:1 89:1 96:1 97:1 104:1 105:1 111:1 112:1 113:1 114:1 118:1 119:1 122:1 123:1 124:1 125:1 126:1 
0.1 0.1 0.1 0.1 0.1 0.1 0.1 0.1 0.1 0.1 0.1 0.1 0.1 0.1 0.1 0.1 0.1 0.1 0.1 0.1 0 0 0.1 0 0.1 34:1 35:1 36:1 41:1 42:1 44:1 46:1 49:1 52:1 54:1 55:1 57:1 63:1 64:1 65:1 72:1 73:1 74:1 75:1 80:1 83:1 84:1 85:1 88:1 93:1 94:1 95:1 96:1 
0.1 0.1 0.1 0 0.1 0.1 0 0.1 0.1 0.1 0 0.1 0 0 0 0 0.1 0 0.1 0 0 0 0 0 0 34:1 35:1 36:1 41:1 42:1 44:1 45:1 46:1 49:1 50:1 51:1 52:1 54:1 55:1 57:1 60:1 63:1 64:1 65:1 72:1 73:1 80:1 81:1 82:1 85:1 86:1 87:1 88:1 90:1 91:1 92:1 93:1 
0.1 0.1 0.1 0 0.1 0.1 0 0.1 0.1 0.1 0.1 0.1 0 0.1 0.03347137676167021 0 0 0 0.04913227154888795 0 0 0 0 0 0.1 19:1 27:1 28:1 29:1 30:1 35:1 38:1 39:1 42:1 43:1 48:1 50:1 56:1 57:1 58:1 64:1 65:1 72:1 73:1 79:1 80:1 81:1 87:1 89:1 94:1 97:1 101:1 102:1 105:1 106:1 107:1 108:1 109:1 
0 0 0.1 0 0.1 0.1 0 0 0 0.1 0 0 0 0 0 0 0 0 0 0 0 0 0 0 0 4:1 5:1 6:1 11:1 12:1 13:1 14:1 15:1 18:1 19:1 21:1 22:1 23:1 26:1 27:1 30:1 31:1 34:1 39:1 41:1 42:1 47:1 48:1 49:1 56:1 57:1 64:1 65:1 72:1 73:1 80:1 81:1 88:1 89:1 96:1 97:1 103:1 104:1 105:1 106:1 110:1 111:1 114:1 118:1 122:1 123:1 124:1 125:1 126:1 
0.1 0.1 0.1 0 0.1 0.1 0 0.1 0.1 0.1 0 0.1 0 0 0 0 0 0 0 0 0 0 0 0 0 28:1 35:1 36:1 37:1 38:1 39:1 42:1 43:1 47:1 50:1 55:1 56:1 57:1 58:1 64:1 65:1 72:1 73:1 80:1 81:1 88:1 89:1 90:1 95:1 96:1 98:1 99:1 100:1 101:1 102:1 103:1 
0.1 0.1 0.1 0.0543369840582699 0.1 0.1 0 0.1 0.1 0.1 0 0.1 0 0.1 0.0604393360668826 0 0.1 0.04405110521060731 0.1 0 0 0 0 0 0 28:1 29:1 30:1 31:1 32:1 40:1 43:1 44:1 45:1 46:1 48:1 50:1 54:1 56:1 57:1 64:1 65:1 71:1 72:1 73:1 79:1 81:1 86:1 87:1 89:1 90:1 93:1 94:1 98:1 99:1 100:1 101:1 
0.1 0.1 0.1 0.1 0.1 0.1 0.1 0.1 0.1 0.1 0.1 0.1 0.1 0.1 0.1 0.1 0.1 0.1 0.1 0.1 0.1 0 0.1 0.1 0.1 50:1 51:1 52:1 53:1 54:1 55:1 56:1 57:1 58:1 64:1 65:1 72:1 73:1 74:1 75:1 76:1 77:1 78:1 79:1 80:1 
0 0.1 0.1 0 0.1 0.1 0 0.1 0.1 0.1 0 0.1 0 0 0 0 0.03174831054115455 0 0 0 0 0 0 0 0 35:1 36:1 37:1 38:1 41:1 42:1 43:1 44:1 45:1 46:1 49:1 54:1 55:1 57:1 63:1 64:1 65:1 72:1 73:1 80:1 81:1 82:1 83:1 87:1 88:1 91:1 92:1 93:1 94:1 95:1 
0.1 0.1 0.1 0 0.1 0.1 0 0.1 0.1 0.1 0 0.1 0 0.1 0 0 0.1 0 0.1 0 0 0 0 0 0 34:1 35:1 41:1 42:1 43:1 44:1 45:1 46:1 47:1 49:1 51:1 55:1 56:1 57:1 64:1 65:1 72:1 73:1 74:1 80:1 82:1 83:1 84:1 86:1 87:1 88:1 92:1 93:1 94:1 
0.1 0.1 0.1 0.06830213272966879 0.1 0.1 0.1 0.1 0.1 0.1 0.1 0.1 0.1 0.1 0.1 0.1 0.1 0.1 0.1 0.05479722416124691 0 0 0.1 0 0.1 28:1 29:1 30:1 31:1 32:1 34:1 35:1 36:1 40:1 41:1 42:1 43:1 48:1 49:1 50:1 56:1 58:1 64:1 66:1 72:1 74:1 80:1 82:1 87:1 88:1 90:1 91:1 93:1 94:1 95:1 99:1 100:1 101:1 
0 0.1 0.1 0 0.1 0 0 0 0 0.1 0 0 0 0 0 0 0 0 0 0 0 0 0 0 0 20:1 21:1 22:1 27:1 28:1 30:1 31:1 35:1 39:1 40:1 42:1 43:1 48:1 49:1 50:1 56:1 57:1 64:1 65:1 72:1 73:1 80:1 81:1 88:1 89:1 95:1 96:1 97:1 101:1 102:1 103:1 106:1 107:1 108:1 109:1 
0.1 0.1 0.1 0.1 0.1 0.1 0.1 0.1 0.1 0.1 0.1 0.1 0.1 0.1 0.1 0.1 0.1 0.1 0.1 0.1 0.1 0 0.1 0 0.1 35:1 36:1 42:1 43:1 44:1 45:1 49:1 50:1 53:1 54:1 55:1 57:1 63:1 65:1 71:1 72:1 73:1 80:1 81:1 87:1 88:1 95:1 
0.1 0.1 0.1 0 0.1 0 0 0.1 0.1 0.1 0 0.1 0 0 0 0 0 0 0 0 0 0 0 0 0 35:1 36:1 37:1 38:1 42:1 43:1 46:1 47:1 48:1 49:1 50:1 56:1 57:1 58:1 64:1 65:1 66:1 72:1 73:1 80:1 81:1 82:1 83:1 88:1 91:1 92:1 93:1 94:1 95:1 96:1 
0.1 0.1 0.1 0 0.1 0.1 0.1 0.1 0.1 0.1 0.1 0.1 0.1 0.1 0.1 0.1 0.1 0.07728796185463066 0.1 0.03242712481586092 0 0 0.03584200348243836 0 0.04110504291548473 11:1 12:1 13:1 14:1 15:1 16:1 18:1 19:1 24:1 25:1 26:1 32:1 33:1 40:1 41:1 48:1 49:1 56:1 57:1 64:1 65:1 72:1 73:1 80:1 88:1 96:1 99:1 100:1 104:1 108:1 109:1 111:1 112:1 117:1 118:1 119:1 
0.1 0.1 0.1 0 0.1 0.1 0 0.1 0.1 0.1 0.1 0.1 0 0.1 0.07232183922762384 0.1 0.1 0 0.1 0 0 0 0 0 0.0242786633171418 34:1 35:1 36:1 37:1 38:1 39:1 40:1 41:1 42:1 48:1 49:1 56:1 57:1 64:1 65:1 72:1 73:1 74:1 80:1 82:1 83:1 87:1 88:1 91:1 92:1 93:1 94:1 
0 0 0.1 0 0.1 0 0 0 0 0.1 0 0 0 0 0 0 0 0 0 0 0 0 0 0 0 21:1 26:1 27:1 29:1 30:1 31:1 34:1 35:1 39:1 40:1 41:1 42:1 48:1 49:1 56:1 57:1 64:1 65:1 72:1 73:1 80:1 81:1 87:1 88:1 89:1 94:1 95:1 97:1 98:1 99:1 100:1 101:1 106:1 107:1 
0.1 0.1 0.1 0.0305668070388479 0.1 0.1 0 0.1 0.1 0.1 0.1 0.1 0 0.1 0.1 0 0.1 0.1 0.1 0 0 0 0.1 0 0.1 37:1 38:1 45:1 46:1 47:1 48:1 50:1 51:1 52:1 53:1 54:1 56:1 57:1 58:1 64:1 65:1 72:1 73:1 79:1 80:1 81:1 85:1 86:1 89:1 90:1 91:1 92:1 93:1 
0 0.1 0.1 0 0.1 0 0 0 0 0.1 0 0 0 0 0 0 0 0 0 0 0 0 0 0 0 22:1 23:1 27:1 28:1 29:1 30:1 31:1 32:1 34:1 35:1 37:1 38:1 40:1 42:1 45:1 48:1 50:1 56:1 57:1 58:1 64:1 65:1 72:1 73:1 80:1 81:1 88:1 89:1 95:1 97:1 101:1 102:1 103:1 105:1 106:1 107:1 108:1 109:1 
0.1 0.1 0.1 0.1 0.1 0.1 0 0.1 0.1 0.1 0.1 0.1 0 0.1 0.1 0.03460906610244453 0.1 0.1 0.1 0 0 0 0 0 0.1 33:1 34:1 35:1 36:1 37:1 38:1 39:1 40:1 41:1 48:1 56:1 64:1 65:1 66:1 72:1 73:1 79:1 80:1 81:1 87:1 89:1 94:1 95:1 97:1 98:1 99:1 100:1 101:1 102:1 
0 0.1 0.1 0 0.1 0 0 0 0 0.1 0 0 0 0 0 0 0 0 0 0 0 0 0 0 0 34:1 35:1 36:1 37:1 38:1 39:1 42:1 43:1 44:1 47:1 48:1 49:1 50:1 56:1 57:1 64:1 65:1 72:1 73:1 79:1 80:1 81:1 86:1 87:1 89:1 90:1 91:1 92:1 93:1 94:1 
0 0.1 0.1 0 0.1 0.1 0.01783913681061218 0 0 0.1 0 0 0 0 0 0 0 0 0 0 0 0 0 0 0 1:1 2:1 3:1 9:1 12:1 13:1 17:1 21:1 22:1 25:1 30:1 31:1 33:1 34:1 35:1 36:1 37:1 38:1 39:1 41:1 47:1 49:1 55:1 56:1 57:1 64:1 65:1 72:1 73:1 80:1 81:1 88:1 89:1 96:1 97:1 104:1 105:1 106:1 112:1 114:1 115:1 119:1 120:1 123:1 124:1 125:1 126:1 
0 0.1 0.1 0 0.1 0 0 0.1 0.1 0.1 0 0.1 0 0 0 0 0 0 0 0 0 0 0 0 0 27:1 28:1 29:1 30:1 35:1 36:1 39:1 43:1 48:1 50:1 51:1 56:1 57:1 58:1 64:1 65:1 72:1 73:1 79:1 80:1 81:1 86:1 87:1 89:1 93:1 94:1 97:1 98:1 99:1 100:1 101:1 
0.1 0.1 0.1 0.1 0.1 0.1 0.1 0.1 0.1 0.1 0.1 0.1 0.1 0.1 0.1 0.1 0.1 0.1 0.1 0.04327397005396216 0 0 0.1 0 0.1 31:1 32:1 37:1 38:1 39:1 40:1 44:1 45:1 46:1 48:1 52:1 56:1 59:1 60:1 63:1 64:1 66:1 67:1 71:1 73:1 74:1 77:1 78:1 79:1 81:1 84:1 85:1 89:1 91:1 92:1 97:1 98:1 99:1 
0 0 0.1 0 0.1 0 0 0 0 0.1 0 0 0 0 0 0 0 0 0 0 0 0 0 0 0 12:1 13:1 14:1 18:1 19:1 20:1 22:1 23:1 26:1 31:1 32:1 34:1 35:1 36:1 40:1 42:1 48:1 49:1 50:1 56:1 57:1 64:1 65:1 72:1 73:1 80:1 81:1 87:1 88:1 89:1 94:1 95:1 97:1 101:1 102:1 105:1 106:1 107:1 108:1 109:1 114:1 115:1 
0 0.1 0.1 0 0.1 0 0 0 0 0.1 0 0 0 0 0 0 0 0 0 0 0 0 0 0 0 22:1 23:1 24:1 29:1 30:1 31:1 32:1 36:1 37:1 39:1 40:1 43:1 44:1 47:1 48:1 50:1 51:1 56:1 58:1 64:1 65:1 66:1 71:1 72:1 73:1 79:1 81:1 86:1 87:1 89:1 93:1 94:1 97:1 99:1 100:1 101:1 105:1 106:1 107:1 
0.1 0.1 0.1 0.1 0.1 0.1 0 0.1 0.1 0.1 0.1 0.1 0 0.1 0.1 0 0.1 0 0.1 0 0 0 0 0 0.1 29:1 30:1 36:1 37:1 38:1 39:1 40:1 44:1 48:1 51:1 56:1 58:1 59:1 64:1 66:1 71:1 72:1 73:1 74:1 78:1 79:1 81:1 85:1 86:1 89:1 92:1 93:1 97:1 98:1 99:1 100:1 
0 0.1 0.1 0 0.1 0 0 0 0 0.1 0 0.1 0 0 0 0 0 0 0 0 0 0 0 0 0 34:1 35:1 36:1 37:1 38:1 39:1 40:1 42:1 48:1 49:1 50:1 56:1 57:1 64:1 65:1 72:1 73:1 80:1 81:1 86:1 87:1 88:1 89:1 90:1 91:1 92:1 93:1 94:1 
0.1 0.1 0.1 0 0.1 0.1 0 0.1 0.1 0.1 0 0.1 0 0 0 0 0.1 0 0 0 0 0 0 0 0 33:1 34:1 35:1 36:1 41:1 42:1 44:1 45:1 46:1 49:1 54:1 55:1 57:1 63:1 64:1 65:1 72:1 73:1 80:1 81:1 82:1 87:1 88:1 90:1 91:1 92:1 93:1 94:1 95:1 
0.1 0.1 0.1 0 0.1 0.1 0 0.1 0.1 0.1 0 0.1 0 0.1 0 0 0.1 0 0.1 0 0 0 0 0 0 35:1 36:1 37:1 38:1 39:1 40:1 42:1 43:1 48:1 49:1 50:1 56:1 57:1 64:1 65:1 72:1 73:1 78:1 79:1 81:1 85:1 86:1 89:1 90:1 91:1 92:1 93:1 
0.1 0.1 0.1 0.1 0.1 0.1 0.1 0.1 0.1 0.1 0.1 0.1 0.1 0.1 0.1 0.1 0.1 0.1 0.1 0.1 0 0 0.1 0 0.1 35:1 36:1 43:1 44:1 45:1 49:1 50:1 51:1 53:1 54:1 57:1 62:1 63:1 65:1 71:1 72:1 73:1 80:1 81:1 82:1 88:1 90:1 91:1 92:1 93:1 94:1 95:1 96:1 
0.1 0.1 0.1 0 0.1 0.1 0 0.1 0.1 0.1 0 0.1 0 0.1 0 0 0.1 0 0.1 0 0 0 0 0 0 31:1 32:1 38:1 39:1 40:1 44:1 45:1 48:1 50:1 51:1 52:1 53:1 56:1 57:1 58:1 64:1 65:1 71:1 72:1 73:1 78:1 79:1 81:1 84:1 85:1 86:1 89:1 91:1 92:1 97:1 98:1 99:1 
0.1 0.1 0.1 0.0330407631346842 0.1 0.1 0 0.1 0.1 0.1 0.1 0.1 0 0.1 0.1 0 0.1 0 0 0 0 0 0.05868715836860746 0 0 19:1 20:1 21:1 29:1 30:1 34:1 38:1 39:1 42:1 47:1 48:1 49:1 50:1 56:1 57:1 64:1 65:1 72:1 73:1 80:1 81:1 88:1 89:1 96:1 98:1 104:1 107:1 108:1 109:1 110:1 111:1 112:1 
0 0 0.1 0 0.1 0 0 0 0 0.1 0 0 0 0 0 0 0 0 0 0 0 0 0 0 0 19:1 20:1 26:1 27:1 29:1 30:1 31:1 33:1 34:1 39:1 40:1 41:1 42:1 48:1 49:1 56:1 57:1 64:1 65:1 72:1 73:1 79:1 80:1 81:1 87:1 89:1 94:1 95:1 97:1 98:1 99:1 101:1 102:1 107:1 108:1 109:1 
0 0.1 0.1 0 0.1 0.1 0 0.1 0.1 0.1 0.04870502112122242 0.1 0 0.1 0 0 0.1 0 0 0 0 0 0 0 0 27:1 28:1 29:1 34:1 35:1 37:1 38:1 42:1 46:1 47:1 49:1 55:1 57:1 63:1 64:1 65:1 72:1 73:1 80:1 81:1 82:1 88:1 90:1 91:1 95:1 96:1 99:1 100:1 101:1 102:1 103:1 
0.03636298289370455 0.1 0.1 0.07255482598206207 0.1 0.1 0.04037640857699869 0.1 0.07379337772788938 0.1 0.01699998707605471 0.1 0 0.0818209651494979 0.02991412376848016 0 0.06825168945884545 0 0.1 0 0 0 0 0 0.02889572142610616 3:1 4:1 5:1 11:1 12:1 13:1 14:1 15:1 19:1 23:1 27:1 31:1 32:1 35:1 40:1 43:1 48:1 50:1 51:1 56:1 58:1 64:1 66:1 71:1 72:1 74:1 79:1 81:1 82:1 87:1 89:1 95:1 97:1 102:1 103:1 105:1 110:1 113:1 117:1 118:1 121:1 122:1 123:1 124:1 125:1 
0 0.1 0.1 0 0.1 0.1 0 0.06783090604431266 0.1 0.1 0 0.06344500615702392 0 0 0 0 0 0 0 0 0 0 0 0 0 6:1 13:1 14:1 20:1 21:1 22:1 27:1 28:1 30:1 31:1 34:1 35:1 39:1 40:1 42:1 48:1 49:1 50:1 56:1 57:1 64:1 65:1 72:1 73:1 80:1 81:1 88:1 89:1 96:1 97:1 104:1 105:1 106:1 112:1 114:1 119:1 120:1 123:1 124:1 125:1 126:1 127:1 
0.1 0.1 0.1 0.1 0.1 0.1 0.1 0.1 0.1 0.1 0.1 0.1 0.1 0.1 0.1 0.1 0.1 0.1 0.1 0.1 0 0 0.1 0 0.1 43:1 44:1 50:1 51:1 52:1 53:1 54:1 55:1 56:1 57:1 58:1 64:1 65:1 72:1 73:1 76:1 77:1 78:1 79:1 80:1 81:1 82:1 83:1 84:1 
0 0.1 0.1 0 0.1 0 0 0 0 0.1 0 0.05450881438715367 0 0 0 0 0.1 0 0 0 0 0 0 0 0 17:1 18:1 19:1 20:1 21:1 22:1 25:1 30:1 31:1 33:1 39:1 40:1 41:1 48:1 49:1 56:1 57:1 64:1 65:1 72:1 73:1 80:1 81:1 88:1 89:1 95:1 96:1 97:1 98:1 102:1 103:1 106:1 107:1 108:1 109:1 110:1 
0 0.1 0.1 0 0.1 0.1 0 0 0 0.1 0 0 0 0 0 0 0 0 0 0 0 0 0 0 0 11:1 12:1 13:1 18:1 19:1 20:1 21:1 22:1 26:1 28:1 29:1 30:1 31:1 34:1 39:1 41:1 47:1 49:1 55:1 56:1 57:1 64:1 65:1 72:1 73:1 80:1 81:1 88:1 89:1 95:1 96:1 97:1 102:1 103:1 105:1 106:1 109:1 110:1 114:1 115:1 116:1 117:1 
0.1 0.1 0.1 0.1 0.1 0.1 0.1 0.1 0.1 0.1 0.1 0.1 0.1 0.1 0.1 0.1 0.1 0.1 0.1 0.1 0.05148865886835153 0.05994785821740186 0.1 0 0.1 5:1 6:1 13:1 20:1 21:1 28:1 29:1 36:1 37:1 38:1 43:1 44:1 46:1 51:1 54:1 59:1 62:1 67:1 70:1 75:1 78:1 83:1 86:1 91:1 94:1 99:1 102:1 107:1 110:1 115:1 118:1 123:1 124:1 125:1 
0 0.1 0.1 0 0.1 0 0 0 0 0.1 0 0 0 0 0 0 0 0 0 0 0 0 0 0 0 35:1 36:1 37:1 38:1 39:1 42:1 43:1 47:1 48:1 49:1 50:1 56:1 57:1 64:1 65:1 72:1 73:1 79:1 80:1 81:1 87:1 89:1 90:1 91:1 92:1 93:1 94:1 95:1 
0 0.1 0.1 0 0.1 0 0 0 0 0.1 0 0 0 0 0 0 0 0 0 0 0 0 0 0 0 31:1 32:1 35:1 36:1 37:1 38:1 39:1 40:1 42:1 43:1 48:1 49:1 50:1 56:1 57:1 64:1 65:1 72:1 73:1 80:1 81:1 87:1 88:1 89:1 90:1 94:1 95:1 98:1 99:1 100:1 101:1 102:1 
0 0.1 0.1 0 0.1 0 0 0 0.01842322784522447 0.1 0 0 0 0 0 0 0 0 0 0 0 0.06872402060897428 0 0 0 34:1 35:1 36:1 37:1 38:1 39:1 40:1 42:1 43:1 44:1 48:1 50:1 56:1 57:1 64:1 65:1 72:1 73:1 80:1 81:1 87:1 88:1 89:1 90:1 91:1 92:1 93:1 94:1 95:1 
0 0.1 0.1 0 0.1 0.06307672386038703 0 0 0 0.1 0 0 0 0 0 0 0 0 0 0 0 0 0 0 0 20:1 27:1 28:1 35:1 36:1 37:1 38:1 39:1 43:1 47:1 48:1 50:1 51:1 56:1 58:1 64:1 65:1 66:1 72:1 73:1 79:1 80:1 81:1 86:1 87:1 89:1 93:1 94:1 97:1 100:1 101:1 105:1 106:1 107:1 108:1 
0.1 0.1 0.1 0.1 0.1 0.1 0.1 0.1 0.1 0.1 0.1 0.1 0.1 0.1 0.1 0.1 0.1 0.1 0.1 0.1 0.04418998622111417 0.03974260257885955 0.1 0 0.1 26:1 27:1 28:1 29:1 30:1 33:1 34:1 38:1 39:1 41:1 47:1 48:1 49:1 56:1 57:1 64:1 65:1 71:1 72:1 73:1 79:1 83:1 87:1 91:1 92:1 95:1 100:1 101:1 102:1 
0.1 0.1 0.1 0.1 0.1 0.1 0.1 0.1 0.1 0.1 0.1 0.1 0.1 0.1 0.1 0.1 0.1 0.1 0.1 0.1 0 0.04819430681247952 0.1 0.1 0.1 25:1 33:1 41:1 49:1 50:1 51:1 52:1 57:1 61:1 65:1 69:1 70:1 71:1 72:1 73:1 79:1 80:1 81:1 86:1 87:1 89:1 90:1 91:1 93:1 94:1 99:1 100:1 101:1 
0.1 0.1 0.1 0 0.1 0.1 0.04670292350742401 0.1 0.1 0.1 0.06562544410310497 0.1 0 0.1 0.05314735882875046 0.06851241096862859 0.1 0 0.1 0.07023517445126247 0 0 0 0.03493727998393602 0.1 9:1 10:1 11:1 12:1 13:1 14:1 17:1 22:1 23:1 25:1 31:1 32:1 33:1 40:1 41:1 48:1 49:1 56:1 57:1 64:1 65:1 72:1 73:1 80:1 81:1 88:1 89:1 96:1 97:1 98:1 104:1 106:1 112:1 115:1 116:1 117:1 118:1 119:1 120:1 
0.1 0.1 0.1 0 0.1 0.1 0 0.1 0.1 0.1 0.1 0.1 0 0.1 0 0 0.1 0 0.1 0 0 0 0 0 0 42:1 43:1 44:1 45:1 46:1 47:1 49:1 50:1 51:1 55:1 56:1 57:1 64:1 65:1 72:1 73:1 79:1 80:1 81:1 82:1 83:1 84:1 85:1 86:1 87:1 
0.1 0.1 0.1 0 0.1 0.1 0 0.1 0.06183816310336897 0.1 0.04096893066483581 0.1 0 0 0 0 0 0.02900526344442856 0 0 0 0 0 0 0 18:1 19:1 20:1 21:1 29:1 30:1 36:1 38:1 39:1 44:1 47:1 50:1 51:1 52:1 55:1 56:1 57:1 58:1 64:1 65:1 72:1 73:1 80:1 81:1 88:1 89:1 96:1 97:1 98:1 103:1 104:1 106:1 107:1 108:1 109:1 110:1 111:1 
0.07265548175060102 0.1 0.1 0.01413264785037865 0.1 0.1 0.1 0.1 0.05156508259961576 0.1 0.1 0.1 0.02665030371036646 0.1 0.03981558681162144 0.1 0.1 0.02271203814536935 0.1 0.04582812843920915 0 0 0 0 0.08185278977837374 1:1 2:1 3:1 9:1 11:1 12:1 13:1 17:1 21:1 22:1 26:1 30:1 31:1 34:1 39:1 42:1 48:1 49:1 50:1 56:1 57:1 64:1 65:1 66:1 72:1 74:1 80:1 82:1 88:1 90:1 91:1 96:1 99:1 103:1 104:1 107:1 108:1 110:1 111:1 116:1 117:1 118:1 126:1 
0.1 0.1 0.1 0 0.1 0.1 0.0519794158601091 0.1 0.1 0.1 0.1 0.1 0 0.1 0 0 0.1 0.1 0.1 0 0 0 0 0 0.06283926159388124 27:1 28:1 29:1 34:1 35:1 36:1 37:1 41:1 42:1 45:1 46:1 49:1 54:1 55:1 57:1 63:1 65:1 71:1 72:1 73:1 80:1 81:1 82:1 88:1 90:1 91:1 92:1 96:1 100:1 101:1 102:1 103:1 104:1 
0 0 0.1 0 0.1 0 0 0 0 0.1 0 0 0 0 0 0 0 0 0 0 0 0 0 0 0 20:1 21:1 22:1 26:1 27:1 28:1 29:1 30:1 31:1 33:1 34:1 36:1 38:1 39:1 41:1 48:1 49:1 56:1 57:1 64:1 65:1 72:1 73:1 79:1 80:1 81:1 87:1 89:1 94:1 95:1 97:1 101:1 102:1 105:1 106:1 107:1 108:1 109:1 
0.1 0.1 0.1 0.04026404572738151 0.1 0.1 0 0.1 0.1 0.1 0.1 0.1 0.06781957908983453 0.1 0.1 0 0.1 0.1 0.1 0 0 0 0 0 0 19:1 20:1 21:1 26:1 27:1 29:1 30:1 34:1 38:1 39:1 47:1 49:1 55:1 56:1 57:1 64:1 65:1 72:1 73:1 80:1 81:1 88:1 89:1 96:1 97:1 98:1 104:1 107:1 108:1 109:1 110:1 111:1 
0 0.05908484903650078 0.1 0 0.1 0.1 0 0 0 0.1 0 0 0 0 0 0 0 0 0 0 0 0 0 0 0 3:1 11:1 12:1 20:1 21:1 27:1 28:1 29:1 30:1 31:1 32:1 34:1 35:1 38:1 39:1 40:1 41:1 42:1 47:1 48:1 49:1 55:1 56:1 57:1 63:1 64:1 65:1 72:1 73:1 80:1 81:1 88:1 89:1 90:1 96:1 98:1 104:1 106:1 107:1 112:1 115:1 116:1 118:1 119:1 120:1 124:1 125:1 126:1 
0 0.1 0.1 0 0.1 0 0 0.1 0 0.1 0 0.1 0 0 0 0 0.1 0 0 0 0 0 0 0 0 19:1 20:1 21:1 22:1 25:1 26:1 30:1 31:1 32:1 33:1 40:1 41:1 48:1 49:1 56:1 57:1 64:1 65:1 72:1 73:1 80:1 81:1 87:1 88:1 89:1 94:1 95:1 97:1 100:1 101:1 102:1 105:1 106:1 107:1 108:1 
0 0.1 0.1 0 0.1 0 0 0 0 0.1 0 0 0 0 0 0 0 0 0 0 0 0 0 0 0 19:1 20:1 21:1 22:1 26:1 27:1 30:1 31:1 33:1 34:1 39:1 40:1 41:1 48:1 49:1 56:1 57:1 64:1 65:1 72:1 73:1 80:1 81:1 88:1 89:1 95:1 96:1 97:1 98:1 102:1 103:1 106:1 107:1 108:1 109:1 110:1 
0 0.1 0.1 0 0.1 0 0 0 0 0.1 0 0 0 0 0 0 0 0 0 0 0 0 0 0 0 17:1 18:1 19:1 20:1 25:1 28:1 29:1 30:1 33:1 35:1 36:1 38:1 39:1 42:1 43:1 47:1 48:1 50:1 56:1 57:1 58:1 64:1 65:1 72:1 73:1 80:1 81:1 88:1 89:1 95:1 96:1 97:1 98:1 101:1 102:1 103:1 107:1 108:1 109:1 
0 0.1 0.1 0 0.1 0 0 0 0 0.1 0 0 0 0 0 0 0 0 0 0 0 0 0 0 0 20:1 21:1 22:1 23:1 27:1 28:1 31:1 32:1 35:1 40:1 42:1 43:1 48:1 49:1 50:1 56:1 57:1 64:1 65:1 72:1 73:1 79:1 80:1 81:1 87:1 89:1 94:1 95:1 97:1 98:1 101:1 102:1 106:1 107:1 108:1 109:1 
0 0.1 0.1 0 0.1 0 0 0 0 0.1 0 0 0 0 0 0 0 0 0 0 0 0 0 0 0 29:1 30:1 31:1 35:1 36:1 37:1 39:1 40:1 43:1 48:1 50:1 51:1 56:1 57:1 58:1 64:1 65:1 72:1 73:1 80:1 81:1 87:1 88:1 89:1 90:1 93:1 94:1 95:1 98:1 99:1 100:1 101:1 
0 0 0.1 0 0.1 0 0 0 0 0.1 0 0 0 0 0 0 0 0 0 0 0 0 0 0 0 19:1 20:1 21:1 22:1 27:1 30:1 31:1 34:1 35:1 39:1 40:1 41:1 42:1 48:1 49:1 56:1 57:1 64:1 65:1 72:1 73:1 80:1 81:1 88:1 89:1 95:1 96:1 97:1 101:1 102:1 103:1 105:1 106:1 107:1 108:1 109:1 
0 0.1 0.1 0 0.1 0 0 0 0 0.1 0 0 0 0 0 0 0 0 0 0 0 0 0 0 0 27:1 28:1 29:1 30:1 31:1 34:1 35:1 39:1 41:1 42:1 47:1 48:1 49:1 56:1 57:1 64:1 65:1 72:1 73:1 80:1 81:1 82:1 88:1 89:1 90:1 91:1 95:1 96:1 99:1 100:1 101:1 102:1 103:1 
0 0.1 0.1 0 0.1 0 0 0 0 0.1 0 0 0 0 0 0 0 0 0 0 0 0 0 0 0 9:1 10:1 11:1 12:1 20:1 21:1 22:1 30:1 31:1 34:1 35:1 39:1 40:1 42:1 48:1 49:1 50:1 56:1 57:1 64:1 65:1 72:1 73:1 80:1 81:1 88:1 89:1 96:1 97:1 102:1 103:1 104:1 105:1 109:1 110:1 113:1 114:1 115:1 116:1 117:1 
0.1 0.1 0.1 0 0.1 0.1 0 0.1 0.1 0.1 0 0.1 0 0 0 0 0.1 0 0 0 0 0 0 0 0 36:1 37:1 38:1 39:1 42:1 43:1 44:1 47:1 48:1 49:1 50:1 56:1 57:1 64:1 65:1 72:1 73:1 78:1 79:1 80:1 81:1 82:1 83:1 85:1 86:1 91:1 92:1 93:1 
0.1 0.1 0.1 0.1 0.1 0.1 0.1 0.1 0.1 0.1 0.1 0.1 0.1 0.1 0.1 0.1 0.1 0.1 0.1 0.1 0 0.04654853660342414 0.1 0 0.1 7:1 14:1 15:1 22:1 29:1 30:1 36:1 37:1 39:1 43:1 44:1 47:1 51:1 55:1 58:1 59:1 63:1 66:1 71:1 74:1 79:1 82:1 86:1 87:1 90:1 94:1 98:1 101:1 102:1 106:1 109:1 114:1 116:1 117:1 122:1 123:1 124:1 
0.1 0.1 0.1 0.1 0.1 0.1 0.1 0.1 0.1 0.1 0.1 0.1 0.1 0.1 0.1 0.1 0.1 0.1 0.1 0.1 0.04815269612966731 0.03127597939102573 0.1 0.03197000516272293 0.1 7:1 8:1 15:1 22:1 24:1 30:1 32:1 37:1 40:1 45:1 48:1 52:1 53:1 56:1 60:1 64:1 67:1 68:1 71:1 72:1 75:1 79:1 82:1 87:1 90:1 94:1 97:1 102:1 105:1 109:1 110:1 113:1 117:1 121:1 122:1 123:1 124:1 
0 0 0.1 0 0.1 0 0 0 0 0.1 0 0 0 0 0 0 0 0 0 0 0 0 0 0 0 12:1 13:1 14:1 19:1 20:1 21:1 22:1 23:1 26:1 27:1 29:1 31:1 34:1 40:1 41:1 42:1 48:1 49:1 56:1 57:1 64:1 65:1 72:1 73:1 80:1 81:1 87:1 88:1 89:1 94:1 95:1 97:1 101:1 102:1 105:1 107:1 108:1 109:1 113:1 114:1 115:1 
0.1 0.1 0.1 0 0.1 0.1 0 0.1 0.1 0.1 0 0.1 0 0.1 0 0 0.1 0 0.1 0 0 0 0 0 0 36:1 37:1 38:1 39:1 43:1 44:1 45:1 46:1 47:1 48:1 50:1 51:1 56:1 58:1 64:1 66:1 72:1 73:1 79:1 80:1 81:1 85:1 86:1 87:1 89:1 90:1 91:1 92:1 93:1 
0.1 0.1 0.1 0 0.1 0.1 0 0.1 0.1 0.1 0 0.1 0 0.1 0 0 0.1 0 0 0 0 0 0 0 0 35:1 36:1 37:1 39:1 42:1 47:1 48:1 49:1 50:1 56:1 57:1 64:1 65:1 72:1 73:1 79:1 80:1 81:1 86:1 87:1 89:1 90:1 91:1 92:1 93:1 94:1 
0.1 0.1 0.1 0.1 0.1 0.1 0.03837383523040389 0.1 0.1 0.1 0.1 0.1 0 0.1 0.1 0.1 0.1 0.0346743389894809 0.1 0 0 0 0 0 0.1 24:1 32:1 40:1 44:1 45:1 46:1 47:1 48:1 51:1 52:1 55:1 56:1 59:1 64:1 66:1 67:1 72:1 73:1 74:1 80:1 81:1 87:1 88:1 89:1 94:1 95:1 97:1 100:1 101:1 102:1 105:1 106:1 107:1 108:1 
0.1 0.1 0.1 0.1 0.1 0.1 0.1 0.1 0.1 0.1 0.1 0.1 0.05566136369167611 0.1 0.1 0.04640552292872498 0.1 0.04154582273365411 0.1 0.01562939031647402 0 0.05180569318752049 0 0 0.1 4:1 5:1 6:1 12:1 13:1 14:1 19:1 20:1 21:1 22:1 23:1 27:1 29:1 31:1 34:1 35:1 37:1 39:1 42:1 47:1 50:1 55:1 58:1 63:1 66:1 71:1 74:1 79:1 82:1 87:1 90:1 95:1 98:1 102:1 103:1 106:1 110:1 114:1 117:1 118:1 122:1 123:1 124:1 125:1 
0 0.1 0.1 0 0.1 0.1 0 0.1 0.03375410711782834 0.1 0 0.1 0 0 0 0 0.1 0 0.1 0 0 0 0 0 0 5:1 6:1 7:1 12:1 13:1 14:1 15:1 16:1 20:1 24:1 28:1 32:1 35:1 40:1 43:1 48:1 50:1 51:1 56:1 58:1 64:1 65:1 66:1 72:1 73:1 79:1 80:1 81:1 87:1 89:1 94:1 95:1 97:1 102:1 105:1 109:1 110:1 113:1 117:1 121:1 122:1 123:1 124:1 125:1 
0.1 0.1 0.1 0 0.1 0.1 0 0.1 0 0.1 0 0.1 0 0 0 0 0.1 0 0 0 0 0 0 0 0 35:1 36:1 37:1 38:1 41:1 42:1 44:1 46:1 47:1 49:1 52:1 55:1 56:1 57:1 64:1 65:1 72:1 73:1 80:1 81:1 82:1 83:1 87:1 88:1 91:1 92:1 93:1 94:1 95:1 
0.1 0.1 0.1 0.1 0.1 0.1 0.1 0.1 0.1 0.1 0.1 0.1 0.1 0.1 0.1 0.1 0.1 0.1 0.1 0.1 0 0 0 0 0.1 43:1 44:1 45:1 46:1 47:1 49:1 50:1 51:1 55:1 56:1 57:1 64:1 65:1 72:1 73:1 74:1 78:1 79:1 80:1 82:1 83:1 84:1 85:1 86:1 
0.1 0.1 0.1 0.04150204769136111 0.1 0.1 0 0.1 0.1 0.1 0.1 0.1 0 0.1 0.06488397849087839 0 0.1 0 0 0 0 0 0 0 0 20:1 28:1 29:1 36:1 37:1 43:1 44:1 45:1 46:1 50:1 51:1 54:1 55:1 57:1 58:1 63:1 64:1 65:1 72:1 73:1 80:1 81:1 88:1 89:1 95:1 96:1 97:1 98:1 99:1 102:1 103:1 107:1 108:1 109:1 110:1 
0 0.1 0.1 0 0.1 0 0 0 0 0.1 0 0.1 0 0 0 0 0 0 0 0 0 0 0 0 0 34:1 35:1 36:1 37:1 38:1 42:1 46:1 47:1 48:1 50:1 51:1 52:1 56:1 57:1 58:1 64:1 65:1 72:1 73:1 79:1 80:1 81:1 86:1 87:1 89:1 90:1 91:1 92:1 93:1 94:1 
0.1 0.1 0.1 0 0.1 0.1 0 0.1 0.1 0.1 0 0.1 0 0.1 0 0 0.1 0 0 0 0 0 0 0 0 30:1 36:1 38:1 39:1 43:1 44:1 47:1 48:1 50:1 51:1 56:1 57:1 58:1 64:1 65:1 72:1 73:1 80:1 81:1 88:1 89:1 90:1 95:1 96:1 98:1 99:1 100:1 101:1 102:1 103:1 
0.1 0.1 0.1 0 0.1 0.1 0 0.1 0.03816183689663103 0.1 0 0.1 0 0 0 0 0 0 0 0 0 0 0 0 0 35:1 36:1 37:1 38:1 42:1 43:1 46:1 47:1 48:1 50:1 51:1 56:1 57:1 58:1 64:1 65:1 72:1 73:1 79:1 80:1 81:1 84:1 85:1 86:1 87:1 89:1 90:1 91:1 92:1 
0.06363701710629546 0.1 0.1 0.08586735214962135 0.1 0.1 0.1 0.1 0.1 0.1 0.1 0.1 0.02856907656421142 0.1 0.1 0 0.1 0.01859146556342742 0.1 0.04141595795896022 0.02384267351157983 0 0 0 0.05889495708451527 1:1 2:1 3:1 4:1 11:1 12:1 18:1 20:1 21:1 26:1 29:1 33:1 34:1 37:1 38:1 41:1 46:1 49:1 54:1 57:1 63:1 65:1 71:1 72:1 73:1 80:1 81:1 88:1 89:1 96:1 97:1 98:1 103:1 104:1 106:1 111:1 114:1 115:1 118:1 119:1 123:1 124:1 125:1 126:1 
0 0.1 0.1 0 0.1 0 0 0 0.1 0.1 0 0 0 0 0 0 0 0 0 0 0 0 0 0 0 20:1 21:1 22:1 23:1 24:1 27:1 28:1 32:1 34:1 35:1 36:1 40:1 41:1 42:1 48:1 49:1 56:1 57:1 64:1 65:1 72:1 73:1 80:1 81:1 88:1 89:1 95:1 96:1 97:1 98:1 99:1 103:1 107:1 108:1 109:1 110:1 111:1 
0 0.1 0.1 0 0.1 0 0 0 0 0.1 0 0 0 0 0 0 0 0 0 0 0 0 0 0 0 17:1 18:1 19:1 20:1 21:1 22:1 25:1 26:1 30:1 31:1 34:1 35:1 39:1 41:1 47:1 48:1 49:1 56:1 57:1 64:1 65:1 72:1 73:1 80:1 81:1 87:1 88:1 89:1 94:1 95:1 97:1 101:1 102:1 105:1 106:1 107:1 108:1 109:1 
0 0 0.1 0 0.1 0 0 0 0 0.1 0 0 0 0 0 0 0 0 0 0 0 0 0 0 0 27:1 28:1 29:1 30:1 34:1 35:1 37:1 38:1 39:1 41:1 42:1 46:1 47:1 48:1 49:1 56:1 57:1 64:1 65:1 72:1 73:1 80:1 81:1 87:1 88:1 89:1 90:1 94:1 95:1 98:1 99:1 100:1 101:1 102:1 
0 0.1 0.1 0 0.1 0 0 0 0 0.1 0 0 0 0 0 0 0 0 0 0 0 0 0 0 0 30:1 36:1 37:1 38:1 39:1 40:1 42:1 43:1 44:1 48:1 50:1 56:1 57:1 58:1 64:1 65:1 72:1 73:1 79:1 80:1 81:1 86:1 87:1 89:1 90:1 92:1 93:1 94:1 98:1 99:1 100:1 
0.1 0.1 0.1 0.1 0.1 0.1 0.1 0.1 0.1 0.1 0.1 0.1 0.1 0.1 0.1 0.1 0.1 0.1 0.1 0.1 0.05184730387033269 0.06398283111773091 0.1 0.0330009291193416 0.1 30:1 31:1 32:1 37:1 38:1 40:1 45:1 46:1 48:1 52:1 53:1 54:1 56:1 59:1 60:1 62:1 63:1 66:1 67:1 68:1 70:1 73:1 74:1 77:1 78:1 81:1 84:1 85:1 89:1 91:1 92:1 97:1 98:1 99:1 
0 0.1 0.1 0 0.1 0 0 0 0 0.1 0 0 0 0 0 0 0 0 0 0 0 0 0 0 0 12:1 13:1 19:1 20:1 21:1 22:1 27:1 30:1 31:1 34:1 35:1 39:1 40:1 41:1 42:1 48:1 49:1 56:1 57:1 64:1 65:1 72:1 73:1 80:1 81:1 88:1 89:1 96:1 97:1 103:1 104:1 105:1 106:1 109:1 110:1 111:1 114:1 115:1 116:1 117:1 
0 0 0.1 0 0.1 0 0 0 0 0.1 0 0 0 0 0 0 0 0 0 0 0 0 0 0 0 21:1 22:1 23:1 27:1 28:1 29:1 31:1 32:1 35:1 39:1 40:1 42:1 43:1 48:1 49:1 50:1 56:1 57:1 64:1 65:1 72:1 73:1 80:1 81:1 87:1 88:1 89:1 94:1 95:1 97:1 98:1 101:1 102:1 106:1 107:1 108:1 109:1 
0.1 0.1 0.1 0 0.1 0.1 0 0.1 0 0.1 0 0.1 0 0 0 0 0 0 0 0 0 0 0 0 0 35:1 36:1 37:1 43:1 45:1 46:1 47:1 48:1 49:1 50:1 51:1 52:1 53:1 54:1 55:1 56:1 57:1 58:1 64:1 65:1 72:1 73:1 80:1 81:1 82:1 87:1 90:1 91:1 92:1 93:1 94:1 95:1 
0 0.1 0.1 0 0.1 0 0 0 0 0.1 0 0 0 0 0 0 0 0 0 0 0 0 0 0 0 28:1 29:1 30:1 31:1 32:1 35:1 36:1 37:1 40:1 42:1 43:1 45:1 48:1 49:1 50:1 56:1 57:1 64:1 65:1 72:1 73:1 79:1 80:1 81:1 87:1 89:1 94:1 95:1 97:1 98:1 99:1 100:1 101:1 102:1 
0 0.1 0.1 0 0.1 0.1 0 0.1 0.1 0.1 0 0.1 0 0 0 0 0.1 0 0 0 0 0 0 0 0 36:1 37:1 38:1 39:1 40:1 42:1 43:1 44:1 48:1 49:1 50:1 56:1 57:1 64:1 65:1 71:1 72:1 73:1 79:1 81:1 85:1 86:1 87:1 89:1 90:1 91:1 92:1 93:1 
0 0.1 0.1 0 0.1 0 0 0 0 0.1 0 0 0 0 0 0 0.1 0 0 0 0 0 0 0 0 27:1 28:1 29:1 30:1 31:1 32:1 34:1 35:1 40:1 41:1 42:1 48:1 49:1 56:1 57:1 64:1 65:1 72:1 73:1 80:1 81:1 87:1 88:1 89:1 90:1 93:1 94:1 95:1 98:1 99:1 100:1 101:1 
0.044867026709763 0.1 0.1 0.03905923504202324 0.1 0.1 0 0.1 0.06624589288217167 0.1 0.02896115135952392 0.1 0 0.02882318052353419 0.06552664658004488 0 0.03970575311848703 0 0.1 0 0 0 0 0 0 6:1 7:1 13:1 14:1 15:1 20:1 21:1 23:1 24:1 28:1 31:1 32:1 35:1 36:1 40:1 43:1 48:1 50:1 51:1 56:1 58:1 64:1 66:1 72:1 73:1 74:1 80:1 81:1 88:1 89:1 96:1 97:1 103:1 104:1 105:1 110:1 111:1 113:1 117:1 118:1 121:1 122:1 123:1 124:1 125:1 
0.1 0.1 0.1 0 0.1 0.1 0 0.1 0.1 0.1 0 0.1 0 0.1 0 0 0.1 0 0.1 0 0 0 0 0 0 35:1 41:1 42:1 43:1 44:1 45:1 46:1 49:1 54:1 55:1 56:1 57:1 64:1 65:1 72:1 73:1 80:1 81:1 82:1 83:1 84:1 86:1 87:1 88:1 92:1 93:1 94:1 
0 0.1 0.1 0 0.1 0.1 0 0.1 0.1 0.1 0.05593726779225076 0.1 0 0 0 0 0.1 0 0.03690451958951662 0 0 0 0 0 0 20:1 21:1 22:1 23:1 24:1 27:1 28:1 32:1 34:1 40:1 41:1 42:1 48:1 49:1 56:1 57:1 64:1 65:1 72:1 73:1 80:1 81:1 88:1 89:1 96:1 97:1 98:1 99:1 100:1 101:1 102:1 103:1 104:1 106:1 
0.1 0.1 0.1 0.1 0.1 0.1 0.1 0.1 0.1 0.1 0.1 0.1 0.1 0.1 0.1 0.1 0.1 0.1 0.1 0.1 0.07215893813064078 0 0.1 0 0.1 5:1 6:1 13:1 14:1 15:1 23:1 26:1 31:1 34:1 39:1 42:1 47:1 50:1 55:1 58:1 63:1 66:1 71:1 74:1 79:1 82:1 87:1 90:1 95:1 98:1 102:1 103:1 106:1 110:1 114:1 118:1 123:1 124:1 125:1 126:1 
0 0.1 0.1 0 0.1 0.03692327613961298 0 0 0 0.1 0 0 0 0 0 0 0 0 0 0 0 0 0 0 0 29:1 30:1 35:1 36:1 37:1 38:1 39:1 42:1 43:1 44:1 45:1 46:1 50:1 51:1 52:1 54:1 55:1 57:1 58:1 63:1 64:1 65:1 72:1 73:1 80:1 81:1 87:1 88:1 89:1 92:1 93:1 94:1 95:1 97:1 98:1 99:1 100:1 
0.0187351222679055 0.1 0.1 0.009126999349907235 0.1 0.1 0.009831299123249738 0.1 0 0.1 0.009085278483792331 0.1 0 0.02940170470609915 0 0.02427351656338202 0.1 0 0.1 0 0.01029272174210952 0.02860830740083806 0.002655150965409775 0.02940949151565918 0 22:1 23:1 24:1 29:1 30:1 32:1 35:1 36:1 37:1 40:1 43:1 48:1 51:1 56:1 58:1 59:1 64:1 66:1 71:1 72:1 73:1 74:1 78:1 79:1 81:1 85:1 86:1 89:1 92:1 93:1 97:1 99:1 100:1 105:1 106:1 107:1 
-0.1 0.1 0.1 0.1 0.1 0.1 0.1 0.1 0.1 0.1 0.1 0.1 0.1 0.1 0.1 0.1 0.1 0.1 0.1 0.1 0 0 0.1 0 0.1 50:1 51:1 52:1 53:1 54:1 55:1 57:1 58:1 60:1 61:1 63:1 64:1 65:1 67:1 68:1 72:1 73:1 75:1 76:1 80:1 
-0.1 0.1 0.1 0.1 0.1 0.1 0.1 0.1 0.1 0.1 0.1 0.1 0.1 0.1 0.1 0.1 0.1 0.1 0.1 0.1 0 0 0.1 0 0.1 49:1 50:1 51:1 54:1 55:1 57:1 59:1 61:1 62:1 63:1 65:1 67:1 68:1 69:1 71:1 73:1 76:1 79:1 80:1 
-0.1 0.1 0.1 0.1 0.1 0.1 0.1 0.1 0.1 0.1 0.1 0.1 0.1 0.1 0.1 0.1 0.1 0.1 0.1 0.1 0 0 0.1 0.1 0.1 47:1 49:1 52:1 53:1 55:1 56:1 57:1 59:1 60:1 61:1 62:1 63:1 64:1 65:1 66:1 67:1 69:1 70:1 72:1 74:1 75:1 77:1 78:1 80:1 82:1 
-0.1 0.1 0.1 0.1 0.1 0.1 0.1 0.1 0.1 0.1 0.1 0.1 0.1 0.1 0.1 0.1 0.1 0.1 0.1 0.1 0 0 0.1 0 0.1 41:1 49:1 52:1 53:1 55:1 57:1 59:1 60:1 61:1 63:1 64:1 65:1 67:1 69:1 70:1 71:1 72:1 73:1 74:1 75:1 77:1 78:1 80:1 81:1 82:1 
-0.1 0.1 0.1 0.1 0.1 0.1 0.1 0.1 0.1 0.1 0.1 0.1 0.1 0.1 0.1 0.1 0.1 0.1 0.1 0.1 0.1 0.1 0.1 0 0.1 49:1 57:1 58:1 59:1 60:1 61:1 62:1 63:1 65:1 66:1 69:1 71:1 72:1 73:1 
-0.1 0.1 0.1 0.1 0.1 0.1 0.1 0.1 0.1 0.1 0.1 0.1 0.1 0.1 0.1 0.1 0.1 0.1 0.1 0.1 0.1 0 0.1 0 0.1 49:1 57:1 58:1 59:1 60:1 61:1 62:1 63:1 64:1 65:1 68:1 69:1 72:1 80:1 
-0.1 0.1 0.1 0.1 0.1 0.1 0.1 0.1 0.1 0.1 0.1 0.1 0 0.1 0.1 0.04723877601433078 0.1 0.1 0.1 0 0 0 0 0 0.1 49:1 51:1 52:1 54:1 55:1 57:1 58:1 59:1 60:1 61:1 62:1 63:1 64:1 65:1 66:1 69:1 72:1 74:1 77:1 80:1 
-0.1 0.1 0.1 0.1 0.1 0.1 0.1 0.1 0.1 0.1 0.1 0.1 0.1 0.1 0.1 0.1 0.1 0.1 0.1 0.1 0 0 0.1 0 0.1 49:1 53:1 54:1 55:1 57:1 58:1 59:1 60:1 61:1 63:1 64:1 65:1 67:1 68:1 72:1 73:1 75:1 80:1 
-0.1 0.1 0.1 0.1 0.1 0.1 0.1 0.1 0.1 0.1 0.1 0.1 0.1 0.1 0.1 0.1 0.1 0.1 0.1 0.1 0 0 0.1 0 0.1 50:1 51:1 52:1 54:1 55:1 56:1 57:1 58:1 60:1 61:1 62:1 64:1 65:1 68:1 69:1 72:1 73:1 
-0.1 0.1 0.1 0.1 0.1 0.1 0.1 0.1 0.1 0.1 0.1 0.1 0.1 0.1 0.1 0.1 0.1 0.1 0.1 0.1 0 0 0.1 0 0.1 51:1 52:1 54:1 55:1 56:1 58:1 59:1 60:1 61:1 62:1 64:1 65:1 66:1 69:1 72:1 73:1 77:1 80:1 
-0.1 0.1 0.1 0 0.1 0.1 0 0.1 0.1 0.1 0 0.1 0 0.1 0 0 0.1 0 0.1 0 0 0 0 0 0 41:1 46:1 47:1 49:1 50:1 51:1 52:1 53:1 54:1 55:1 57:1 58:1 60:1 61:1 63:1 65:1 66:1 68:1 69:1 71:1 72:1 73:1 74:1 77:1 80:1 82:1 88:1 
-0.1 0.1 0.1 0 0.1 0.1 0 0.1 0.1 0.1 0.1 0.1 0 0.1 0.1 0 0.1 0 0.1 0 0 0 0 0 0 49:1 50:1 51:1 53:1 54:1 56:1 57:1 58:1 59:1 60:1 61:1 62:1 63:1 64:1 65:1 67:1 68:1 70:1 71:1 72:1 73:1 75:1 76:1 78:1 79:1 
-0.1 0.1 0.1 0.1 0.1 0.1 0.1 0.1 0.1 0.1 0.1 0.1 0.1 0.1 0.1 0.1 0.1 0.1 0.1 0.1 0 0 0.03997446840241647 0 0.1 42:1 47:1 50:1 54:1 55:1 57:1 58:1 59:1 61:1 62:1 63:1 65:1 67:1 68:1 69:1 71:1 72:1 73:1 80:1 81:1 88:1 
-0.1 0.1 0.1 0.1 0.1 0.1 0.1 0.1 0.1 0.1 0.1 0.1 0.1 0.1 0.1 0.1 0.1 0.1 0.1 0.1 0.1 0.07388009454909374 0.1 0 0.1 42:1 49:1 50:1 53:1 54:1 57:1 58:1 60:1 61:1 62:1 65:1 66:1 67:1 68:1 70:1 73:1 78:1 79:1 81:1 87:1 88:1 
-0.1 0.1 0.1 0 0.1 0.1 0 0.1 0.1 0.1 0 0.1 0 0 0 0 0.1 0 0 0 0 0 0 0 0 33:1 34:1 36:1 37:1 41:1 44:1 45:1 49:1 51:1 52:1 53:1 54:1 55:1 56:1 57:1 58:1 59:1 60:1 61:1 62:1 64:1 65:1 66:1 68:1 69:1 70:1 72:1 73:1 74:1 76:1 77:1 80:1 81:1 84:1 88:1 89:1 96:1 
-0.1 0.1 0.1 0 0.1 0.1 0 0.1 0.1 0.1 0 0.1 0 0.1 0 0 0.1 0 0.1 0 0 0 0 0 0 41:1 44:1 47:1 48:1 49:1 51:1 52:1 54:1 55:1 56:1 57:1 58:1 59:1 60:1 61:1 62:1 64:1 65:1 66:1 68:1 69:1 71:1 72:1 73:1 76:1 79:1 81:1 87:1 88:1 
-0.1 0.1 0.1 0.1 0.1 0.1 0.1 0.1 0.1 0.1 0.1 0.1 0.1 0.1 0.1 0.1 0.1 0.1 0.1 0.1 0 0 0.1 0.1 0.1 49:1 50:1 51:1 52:1 53:1 54:1 55:1 56:1 57:1 60:1 61:1 64:1 65:1 68:1 72:1 73:1 76:1 80:1 
-0.1 0.1 0.1 0.1 0.1 0.1 0.1 0.1 0.1 0.1 0.1 0.1 0.1 0.1 0.1 0.1 0.1 0.1 0.1 0.1 0 0 0 0 0.1 41:1 42:1 43:1 46:1 49:1 51:1 52:1 53:1 54:1 55:1 56:1 57:1 60:1 64:1 65:1 68:1 72:1 73:1 76:1 80:1 81:1 88:1 
-0.1 0.1 0.1 0 0.1 0.1 0 0.1 0.1 0.1 0 0.1 0 0.1 0 0 0.1 0 0.1 0 0 0 0 0 0 43:1 44:1 45:1 47:1 48:1 50:1 51:1 52:1 53:1 54:1 55:1 56:1 58:1 59:1 61:1 62:1 64:1 65:1 66:1 68:1 69:1 72:1 73:1 76:1 77:1 80:1 81:1 88:1 
-0.1 0.1 0.1 0 0.1 0.1 0 0.1 0.1 0.1 0 0.1 0 0.1 0 0 0.1 0 0.1 0 0 0 0 0 0 43:1 44:1 45:1 47:1 48:1 50:1 51:1 53:1 54:1 55:1 56:1 57:1 58:1 60:1 61:1 62:1 64:1 65:1 66:1 68:1 69:1 72:1 73:1 76:1 80:1 81:1 88:1 
-0.1 0.1 0.1 0.1 0.1 0.1 0.05396891269900715 0.1 0.1 0.1 0.1 0.1 0.1 0.1 0.1 0 0.1 0.1 0.1 0 0 0 0 0 0.1 44:1 45:1 47:1 48:1 49:1 51:1 52:1 53:1 54:1 55:1 56:1 57:1 59:1 61:1 62:1 64:1 65:1 66:1 67:1 69:1 70:1 72:1 74:1 80:1 82:1 
-0.1 0.1 0.1 0.1 0.1 0.1 0.1 0.1 0.1 0.1 0.1 0.1 0 0.1 0.1 0.1 0.1 0 0.1 0 0 0 0 0 0.1 47:1 48:1 49:1 51:1 52:1 54:1 55:1 56:1 57:1 58:1 59:1 60:1 61:1 62:1 64:1 66:1 67:1 69:1 70:1 72:1 74:1 77:1 80:1 82:1 
-0.1 0.1 0.1 0.1 0.1 0.1 0.1 0.1 0.1 0.1 0.1 0.1 0.1 0.1 0.1 0.1 0.1 0.1 0.1 0.1 0.01221640750348704 0.02611990545090627 0.1 0.01300785605019093 0.1 24:1 31:1 32:1 34:1 35:1 39:1 40:1 42:1 43:1 47:1 50:1 51:1 55:1 58:1 59:1 63:1 65:1 66:1 67:1 70:1 71:1 73:1 75:1 78:1 79:1 81:1 83:1 86:1 87:1 89:1 91:1 92:1 94:1 95:1 96:1 97:1 100:1 101:1 104:1 105:1 
-0.1 0.1 0.1 0.1 0.1 0.1 0.1 0.1 0.1 0.1 0.1 0.1 0.0715869858747525 0.1 0.1 0.1 0.1 0.1 0.1 0.1 0 0.03350955782418936 0.1 0 0.1 34:1 35:1 38:1 39:1 42:1 43:1 46:1 47:1 49:1 50:1 51:1 53:1 54:1 55:1 57:1 59:1 61:1 63:1 65:1 67:1 68:1 69:1 71:1 73:1 75:1 76:1 79:1 81:1 83:1 84:1 87:1 89:1 91:1 92:1 95:1 96:1 99:1 104:1 
-0.1 0.1 0.1 0.1 0.1 0.1 0.1 0.1 0.1 0.1 0.1 0.1 0.1 0.1 0.1 0.1 0.1 0.1 0.1 0.1 0.1 0.01877637570156908 0.1 0 0.1 37:1 38:1 39:1 45:1 47:1 50:1 51:1 52:1 53:1 55:1 56:1 57:1 58:1 60:1 61:1 64:1 65:1 66:1 69:1 72:1 73:1 74:1 77:1 82:1 85:1 90:1 
-0.1 0.1 0.1 0.1 0.1 0.1 0 0.1 0.1 0.1 0.1 0.1 0 0.1 0.1 0 0.1 0 0.1 0 0 0 0 0 0.1 37:1 38:1 39:1 41:1 42:1 44:1 45:1 47:1 49:1 50:1 51:1 52:1 55:1 56:1 57:1 60:1 64:1 65:1 68:1 69:1 72:1 73:1 76:1 77:1 80:1 81:1 89:1 
-0.1 0.1 0.1 0.1 0.1 0.1 0.1 0.1 0.1 0.1 0.1 0.1 0.1 0.1 0.1 0.1 0.1 0.1 0.1 0.1 0 0 0 0 0.1 49:1 54:1 55:1 57:1 58:1 59:1 62:1 63:1 65:1 66:1 67:1 68:1 69:1 70:1 71:1 72:1 73:1 76:1 77:1 80:1 
-0.1 0.1 0.1 0.1 0.1 0.1 0.1 0.1 0.1 0.1 0.1 0.1 0.1 0.1 0.1 0.1 0.1 0.1 0.1 0.1 0 0 0.1 0 0.1 49:1 50:1 53:1 54:1 57:1 58:1 59:1 60:1 61:1 62:1 63:1 65:1 66:1 67:1 68:1 71:1 73:1 74:1 79:1 80:1 
-0.1 0.1 0.1 0.1 0.1 0.1 0.1 0.1 0.1 0.1 0.1 0.1 0.1 0.1 0.1 0.1 0.1 0.1 0.1 0.1 0 0 0.1 0 0.1 49:1 50:1 51:1 53:1 54:1 55:1 57:1 59:1 60:1 61:1 63:1 64:1 65:1 67:1 68:1 72:1 80:1 
-0.1 0.1 0.1 0.1 0.1 0.1 0.1 0.1 0.1 0.1 0.1 0.1 0.1 0.1 0.1 0.1 0.1 0.1 0.1 0.1 0.1 0 0.1 0 0.1 49:1 50:1 51:1 52:1 53:1 54:1 55:1 57:1 59:1 60:1 63:1 64:1 65:1 68:1 72:1 80:1 
-0.1 0.1 0.1 0.1 0.1 0.1 0.1 0.1 0.1 0.1 0.1 0.1 0.0393466031237263 0.1 0.1 0.06866972882019087 0.1 0.07141713647732507 0.1 0.0749868003638488 0 0.04771406647424158 0.06002553159758354 0.01614223112443969 0.1 10:1 11:1 18:1 19:1 25:1 26:1 27:1 30:1 31:1 32:1 33:1 34:1 35:1 38:1 40:1 41:1 43:1 45:1 46:1 48:1 49:1 51:1 52:1 53:1 56:1 57:1 60:1 61:1 64:1 65:1 68:1 69:1 72:1 73:1 76:1 77:1 80:1 81:1 84:1 88:1 89:1 92:1 96:1 97:1 100:1 104:1 105:1 112:1 113:1 120:1 
-0.1 0.1 0.1 0 0.1 0.1 0 0.1 0.1 0.1 0 0.1 0 0 0 0 0.1 0 0.1 0 0 0 0 0 0 31:1 32:1 34:1 35:1 38:1 39:1 40:1 41:1 42:1 43:1 44:1 45:1 46:1 48:1 49:1 50:1 52:1 53:1 56:1 57:1 58:1 60:1 61:1 64:1 65:1 66:1 68:1 69:1 72:1 73:1 76:1 80:1 81:1 84:1 88:1 89:1 92:1 96:1 97:1 
-0.1 0.1 0.1 0.1 0.1 0.1 0.1 0.1 0.1 0.1 0.1 0.1 0.1 0.1 0.1 0.1 0.1 0.1 0.1 0.1 0 0.07590706261139929 0.1 0 0.1 33:1 35:1 36:1 39:1 40:1 41:1 42:1 43:1 44:1 45:1 46:1 47:1 48:1 49:1 50:1 53:1 54:1 56:1 58:1 61:1 62:1 64:1 66:1 69:1 70:1 72:1 74:1 77:1 80:1 82:1 85:1 88:1 90:1 93:1 
-0.1 0.1 0.1 0.1 0.1 0.1 0.1 0.1 0.1 0.1 0.1 0.1 0.1 0.1 0.1 0.1 0.1 0.1 0.1 0.1 0 0 0.1 0 0.1 51:1 52:1 55:1 56:1 58:1 59:1 60:1 62:1 63:1 64:1 65:1 66:1 68:1 69:1 70:1 72:1 73:1 74:1 80:1 
-0.1 0.1 0.1 0 0.1 0.1 0 0.1 0.1 0.1 0.1 0.1 0 0.1 0 0 0.1 0 0.1 0 0 0 0 0 0 41:1 44:1 46:1 49:1 51:1 52:1 54:1 55:1 57:1 59:1 60:1 62:1 63:1 65:1 66:1 67:1 68:1 69:1 70:1 71:1 72:1 73:1 74:1 77:1 80:1 81:1 82:1 
-0.1 0.1 0.1 0 0.1 0.1 0 0.1 0.1 0.1 0 0.1 0 0.1 0 0 0.1 0 0.1 0 0 0 0 0 0 36:1 37:1 40:1 44:1 45:1 47:1 48:1 49:1 51:1 52:1 53:1 55:1 56:1 57:1 59:1 61:1 62:1 63:1 64:1 65:1 66:1 69:1 70:1 72:1 73:1 74:1 77:1 78:1 80:1 81:1 85:1 88:1 89:1 96:1 
-0.1 0.1 0.1 0.1 0.1 0.1 0.1 0.1 0.1 0.1 0.1 0.1 0.1 0.1 0.1 0.1 0.1 0.1 0.1 0.1 0 0 0.08085036616024796 0 0.1 33:1 41:1 49:1 50:1 51:1 57:1 58:1 59:1 60:1 62:1 63:1 65:1 68:1 69:1 70:1 71:1 73:1 76:1 77:1 79:1 80:1 81:1 84:1 85:1 88:1 92:1 93:1 
-0.1 0.1 0.1 0 0.1 0.1 0 0.1 0.1 0.1 0.1 0.1 0 0.1 0.1 0 0.1 0 0.1 0 0 0 0 0 0.1 49:1 50:1 51:1 52:1 54:1 55:1 56:1 57:1 58:1 60:1 61:1 62:1 64:1 65:1 68:1 69:1 72:1 73:1 76:1 80:1 
-0.1 0.1 0.1 0 0.1 0.1 0 0.1 0.1 0.1 0.1 0.1 0 0.1 0 0 0.1 0 0.1 0 0 0 0 0 0 33:1 34:1 35:1 41:1 42:1 43:1 46:1 47:1 48:1 49:1 50:1 51:1 53:1 54:1 56:1 57:1 58:1 59:1 60:1 61:1 64:1 65:1 67:1 68:1 72:1 73:1 80:1 81:1 88:1 89:1 
-0.1 0.1 0.1 0 0.1 0.1 0 0.1 0.1 0.1 0 0.1 0 0 0 0 0.1 0 0.1 0 0 0 0 0 0 33:1 41:1 43:1 44:1 46:1 47:1 49:1 50:1 51:1 52:1 53:1 54:1 55:1 56:1 57:1 58:1 60:1 61:1 64:1 65:1 66:1 68:1 72:1 73:1 74:1 76:1 80:1 81:1 84:1 88:1 89:1 96:1 
-0.1 0.1 0.1 0.02413530010173949 0.1 0.1 0.07631623943378892 0.1 0.1 0.1 0.1 0.1 0.03142399656190786 0.1 0.06843294310947939 0.06845601389298769 0.1 0.1 0.1 0.04037419931784992 0 0.02409293738860071 0.04723511090015299 0.01742071257914603 0.06141293049684263 17:1 19:1 20:1 25:1 26:1 27:1 28:1 31:1 32:1 33:1 34:1 36:1 38:1 39:1 40:1 41:1 42:1 44:1 46:1 48:1 49:1 50:1 52:1 54:1 56:1 57:1 60:1 61:1 62:1 64:1 65:1 68:1 69:1 72:1 73:1 76:1 77:1 80:1 81:1 84:1 85:1 88:1 89:1 92:1 96:1 104:1 112:1 
-0.1 0.1 0.1 0.1 0.1 0.1 0.1 0.1 0.1 0.1 0.1 0.1 0.1 0.1 0.1 0.1 0.1 0.1 0.1 0.1 0 0.1 0.1 0 0.1 21:1 22:1 28:1 29:1 30:1 36:1 37:1 38:1 41:1 42:1 43:1 44:1 46:1 49:1 50:1 51:1 54:1 57:1 58:1 59:1 62:1 65:1 70:1 71:1 72:1 73:1 81:1 89:1 97:1 105:1 
-0.1 0.1 0.1 0.1 0.1 0.1 0.1 0.1 0.1 0.1 0.1 0.1 0.1 0.1 0.1 0.1 0.1 0.1 0.1 0.07716603744804268 0 0 0 0 0.1 46:1 47:1 50:1 51:1 52:1 53:1 54:1 55:1 56:1 57:1 58:1 60:1 61:1 64:1 65:1 69:1 72:1 73:1 77:1 80:1 81:1 
-0.1 0.1 0.1 0 0.1 0.1 0 0.1 0.1 0.1 0 0.1 0 0 0 0 0.1 0 0.1 0 0 0 0 0 0 41:1 42:1 43:1 45:1 46:1 47:1 49:1 50:1 51:1 52:1 53:1 55:1 57:1 58:1 60:1 61:1 63:1 64:1 65:1 66:1 68:1 69:1 72:1 73:1 74:1 76:1 80:1 81:1 84:1 88:1 
-0.1 0.1 0.1 0.1 0.1 0.1 0.1 0.1 0.1 0.1 0.1 0.1 0.1 0.1 0.1 0.1 0.1 0.1 0.1 0.1 0.1 0 0.1 0 0.1 49:1 50:1 51:1 54:1 55:1 57:1 59:1 60:1 61:1 62:1 63:1 65:1 71:1 72:1 73:1 
-0.1 0.1 0.1 0 0.1 0.1 0 0.1 0.1 0.1 0 0.1 0 0 0 0 0.1 0 0 0 0 0 0 0 0 42:1 44:1 45:1 47:1 48:1 49:1 50:1 51:1 52:1 53:1 54:1 55:1 56:1 57:1 58:1 59:1 60:1 61:1 62:1 64:1 65:1 66:1 68:1 69:1 72:1 73:1 76:1 77:1 80:1 84:1 88:1 
-0.1 0.1 0.1 0 0.1 0.1 0 0.1 0.1 0.1 0 0.1 0 0 0 0 0.1 0 0 0 0 0 0 0 0 35:1 39:1 41:1 42:1 43:1 44:1 46:1 47:1 48:1 49:1 50:1 52:1 53:1 54:1 56:1 57:1 58:1 60:1 61:1 64:1 65:1 66:1 68:1 69:1 72:1 73:1 74:1 76:1 77:1 80:1 81:1 82:1 84:1 85:1 88:1 89:1 90:1 96:1 
