svm_type c_svc
kernel_type polynomial
degree 2
gamma 0.0078125
coef0 0
nr_class 26
total_sv 3012
rho -0.394575 -0.380402 0.76783 -0.760061 1.04519 0.29334 -0.544975 0.810092 1.19566 -0.0905524 0.216936 0.901095 0.199883 0.892258 0.492183 0.323483 0.57602 0.259478 -0.255379 0.0693884 0.0742843 -0.659344 -0.0382999 -0.702406 -0.290433 1.14249 1.9996 -0.160334 0.937915 0.465839 -0.141087 1.03156 0.74057 0.625493 0.220962 0.749852 0.22496 0.942309 0.475333 0.454282 0.893354 0.526268 0.043235 0.255136 0.0536777 -0.42656 0.418245 0.120952 0.191581 1.3468 -0.545826 0.953244 0.134088 -0.577078 0.520504 0.871238 0.191818 -0.0862969 0.778401 0.0243741 0.836875 0.380751 0.116779 0.393723 0.232495 -0.246055 -0.130094 -0.143785 -0.656485 -0.00671569 -0.626784 -0.31176 -0.780546 0.832907 -0.477145 -0.751757 0.193212 0.067209 -0.513048 -0.563683 0.432759 -0.294755 0.30103 -0.0923403 -0.133008 -0.425625 -0.368742 -0.59805 -0.391877 -0.456911 -0.837164 -0.627931 -1.13345 -0.542752 1.21842 0.926077 -0.014143 0.888587 0.793334 0.634131 0.790519 1.13896 0.622597 1.17806 0.910002 0.749904 0.708814 0.697421 0.246597 0.438545 0.625117 -0.224201 0.527984 0.0267251 0.318172 -1.16267 -1.28804 -1.10333 -0.920445 -1.0489 -1.14671 -2.03072 -1.42857 -1.12958 -1.12186 -1.02474 -0.905523 -0.978108 -1.2109 -1.18747 -1.17179 -1.25101 -1.09102 -0.973811 -1.35909 -0.536691 0.668764 0.297798 0.0424272 0.195371 0.892705 0.123967 1.00703 0.520891 -0.128484 0.0604687 0.216783 -0.279802 -0.153867 -0.00864839 -0.928219 -0.0989282 -0.602992 -0.281574 0.735813 0.801147 0.54607 0.700622 1.2188 0.530052 1.09163 0.723806 0.402172 0.763971 0.700556 0.127177 1.02368 0.28613 -0.425314 0.25863 -0.0337157 0.479691 -0.165226 -0.901412 -0.486999 0.590856 -0.86681 0.186346 -0.289827 -0.520106 -0.309819 -0.381586 -1.28258 -0.501163 -0.515467 -0.952941 -0.760863 -0.817465 -0.840263 -1.80068 -0.408384 0.52346 -0.484694 0.253259 -0.0118488 -0.382125 -0.200062 -0.181458 -0.797291 -0.479672 -0.312124 -0.842059 -0.498791 -0.833842 -1.04785 -0.0117516 0.95206 0.147617 1.21632 0.31739 0.25584 0.506093 0.450471 -0.558614 -0.00192097 -0.104674 -0.809034 0.0711404 -0.630409 -0.605899 0.854303 -0.104145 0.776012 0.166765 0.0381091 0.406312 0.183381 -0.380536 0.0417617 -0.0658 -1.06337 -0.264736 -0.386212 -0.387819 -1.27561 -0.927624 -0.836593 -0.81262 -0.581596 -0.708238 -1.04899 -0.936274 -0.712694 -1.14779 -0.891394 -0.923046 -1.30111 1.1213 0.342504 0.0108562 0.264258 0.18565 -0.761948 -0.000135012 -0.042993 -0.906729 -0.201059 -0.384332 -0.417226 -0.664946 -0.723037 -0.470427 -0.87692 -1.15503 -0.751421 -0.566479 -1.35047 -1.11602 -0.840555 -1.24907 -0.330391 -0.138698 -0.187338 -0.747321 -0.354849 -0.216537 -1.17344 -0.574466 -0.566033 -0.559085 -0.0806156 0.119808 -0.460404 -0.0303391 -0.0364552 -0.642109 -0.222745 -0.776774 -0.39874 0.0415376 -0.559877 -0.213543 -0.229749 -0.699845 -0.329938 -1.64308 -0.684817 -0.475933 -0.249157 -0.242981 -0.878851 -0.629711 -0.565486 -0.535774 0.222156 0.117937 -0.463999 0.273351 -0.147116 0.0198236 -0.0451686 -0.62201 -0.0574772 -0.469141 -0.903948 -0.515462 -0.030835 -0.245144 -0.150536 0.584611 0.211122 0.540728 -0.389231 -0.375878 0.202852
label 14 12 0 13 3 8 6 1 17 2 4 18 11 5 19 24 21 20 25 15 7 9 16 23 22 10
probA -3.8535 -3.41417 -3.89256 -3.66811 -5.06324 -4.07609 -4.28787 -4.69688 -3.91586 -3.82232 -4.48262 -4.9156 -4.59947 -4.56554 -4.17798 -5.10067 -3.76011 -4.34805 -4.65633 -5.24092 -4.2674 -5.71609 -4.62702 -4.65519 -5.11818 -3.70453 -3.43824 -4.4516 -4.96385 -4.10153 -4.47428 -4.08821 -4.44619 -3.91101 -3.92521 -4.84597 -4.70215 -4.38848 -4.41399 -4.08044 -4.03123 -4.00939 -4.2673 -4.15082 -4.07233 -4.8013 -3.72443 -4.31045 -4.11701 -3.01429 -3.68349 -4.99891 -3.74157 -4.32454 -4.36482 -4.57063 -3.6643 -4.73081 -5.05426 -4.63775 -4.77983 -4.61053 -5.02257 -4.11771 -4.71619 -4.53073 -4.45388 -5.07977 -5.7142 -4.22555 -5.1534 -4.34472 -4.70678 -4.59002 -4.2464 -4.53344 -3.94268 -5.20813 -5.05619 -4.74578 -4.51956 -4.75836 -3.78567 -4.56133 -5.05573 -3.03346 -4.30687 -4.36704 -4.15161 -4.57463 -4.6679 -4.3483 -2.66643 -4.75313 -5.27302 -4.73811 -4.48985 -5.12325 -5.04616 -5.48908 -4.42898 -4.89043 -4.60203 -5.49574 -3.88518 -4.83895 -4.59794 -4.48022 -4.69296 -3.98675 -4.3534 -5.73339 -5.12426 -4.32333 -5.2821 -5.36988 -5.67462 -4.02713 -4.35641 -5.0799 -5.67714 -1.17123 -5.59828 -4.04625 -5.15756 -5.7146 -5.07633 -5.29357 -4.86981 -5.62823 -4.14014 -7.66487 -5.1378 -6.68988 -5.50027 -4.52225 -4.24068 -5.18884 -5.33792 -3.29376 -4.8073 -4.39743 -4.41459 -2.13382 -5.37016 -4.58646 -3.19239 -4.81472 -5.08797 -4.57411 -1.50922 -4.1644 -4.89541 -5.53356 -5.15012 -4.33613 -4.97902 -3.83785 -5.41818 -4.45013 -4.62435 -4.49255 -4.58857 -4.26152 -3.89468 -4.54901 -3.73645 -4.74015 -4.09256 -4.34432 -3.99226 -3.80664 -4.44945 -4.19004 -4.27429 -3.71942 -2.45899 -3.61363 -3.8021 -3.48456 -4.58595 -4.62254 -4.71795 -5.21669 -4.6748 -4.70906 -4.54977 -4.81603 -4.21729 -4.17333 -5.27117 -4.57281 -5.05322 -4.5601 -5.4142 -5.34311 -5.01012 -4.97427 -4.60723 -4.24492 -4.79036 -6.6811 -5.01262 -4.69884 -5.50372 -5.07431 -5.30855 -5.23759 -5.42985 -5.87119 -5.44643 -4.7465 -4.42716 -4.73346 -5.23653 -5.25137 -6.42119 -4.39069 -4.52297 -4.07356 -5.1571 -4.27461 -5.22962 -3.87534 -5.14035 -4.32381 -4.17203 -5.09776 -4.50062 -4.0494 -6.02152 -4.76797 -4.79232 -5.62539 -5.07253 -4.03681 -4.69007 -5.37189 -5.0714 -5.63278 -4.78375 -4.66093 -4.67753 -7.70066 -5.33088 -5.20242 -5.72597 -3.86504 -4.76815 -4.29949 -5.01938 -3.91787 -4.75915 -3.84094 -3.6665 -4.21979 -4.82953 -4.81181 -4.98555 -4.03869 -5.40193 -5.17902 -5.31425 -4.70106 -5.50263 -4.0666 -5.1782 -4.78037 -5.14761 -4.99499 -4.57062 -5.16766 -3.0892 -4.8161 -4.49223 -3.88394 -3.48726 -3.94609 -5.37206 -5.82507 -2.69764 -5.67103 -4.68962 -4.58404 -4.12738 -5.27655 -4.92759 -4.4193 -5.57051 -4.93471 -4.54311 -4.3199 -4.64257 -5.90949 -4.14899 -4.0168 -4.81825 -4.49355 -3.97454 -4.03557 -4.5825 -4.4639 -4.7307 -4.60252 -4.70838 -3.95481 -4.81346 -4.35809 -4.01205 -5.04669 -3.98505 -4.70194 -4.54258 -4.54502 -2.40707 -4.55136 -4.05338 -3.62603 -5.60771 -4.87383 -3.74081 -5.51055 -4.63842 -4.3537 -4.84116
probB -0.299144 -0.0718465 -0.0943037 0.0179478 -0.412528 -0.122363 0.070038 -0.312799 -0.109849 -0.114622 -0.104387 -0.201238 -0.210339 -0.652526 -0.113035 -0.171833 -0.250582 -0.442376 -0.103043 -0.0991041 -0.393379 1.46806 -0.22963 0.169223 -0.168425 0.0675579 0.0979699 0.0892951 0.395206 0.0719947 0.513927 -0.045694 -0.0084107 -0.0362515 0.232448 0.0757745 0.070866 -0.281178 0.0458365 -0.328995 0.117729 -0.122195 0.152226 0.115539 0.0571973 0.861819 -0.148387 0.156273 0.0109108 -0.00638757 -0.137247 -0.264995 0.269262 0.133117 -0.138288 -0.392633 0.0295413 0.102977 -0.333285 0.534621 -0.616347 -0.0783332 -0.409113 -0.147974 -0.0941578 -0.33222 -0.0437248 0.256988 1.40834 -0.0158235 0.675348 0.47363 0.404743 -0.0140194 0.370325 0.252042 0.0575349 0.0753231 -0.233299 0.414758 0.0119535 0.355044 -0.0920629 0.260232 -0.0783489 -0.101002 0.0668288 0.00247875 0.184606 -0.0358458 0.59528 0.191777 -0.68789 0.464508 -0.36812 -0.229413 0.146941 -0.313544 -0.71588 -0.547408 -0.516068 -0.312138 -0.259583 -0.737853 0.0302701 -0.617965 -0.465445 -0.183859 -0.354667 0.122825 0.0691474 1.36219 -0.474462 -0.340497 -0.470419 0.665131 1.05395 0.299594 -0.179027 0.0151663 1.10206 -0.177686 1.49019 0.635362 0.804026 0.215412 -0.119648 0.771058 0.16801 0.855857 0.282105 3.34814 0.247429 1.27539 0.324131 0.282152 -0.360328 -0.198746 -0.849316 -0.0175765 -0.527503 0.17023 -0.423181 -0.223073 -0.140904 -0.290046 -0.110253 0.0902411 0.0892297 0.145385 -1.15187 -0.00998862 0.275584 0.00207295 -0.758322 -0.474202 -0.681106 -0.335471 -1.18204 -0.11923 -0.688144 -0.325374 -0.689946 -0.502114 -0.640618 -0.380309 -0.320169 -0.228292 0.4688 -0.409544 -0.520552 -0.224394 0.237387 -0.185805 0.226781 -0.135426 0.0220933 0.0293193 0.0487074 -0.167314 -0.0808963 0.0146499 0.514923 0.263204 0.337989 0.888841 0.349868 0.136637 0.282179 0.421578 0.812693 0.396233 0.672754 0.285752 0.0422479 0.0927491 -0.133137 0.0934254 0.205132 0.331111 0.225467 2.53406 0.643767 0.639138 0.826212 0.498572 -0.282718 0.726648 -0.188132 0.277054 -0.326247 -0.00398539 0.203565 -0.0218875 0.407611 0.467947 2.01457 0.0374388 0.404193 0.135937 -0.996526 0.141921 -0.921575 0.027092 -0.403127 -0.412006 -0.0224897 0.174993 -0.233619 -0.372066 2.09372 0.0195911 -0.111061 0.00520564 1.22493 0.583518 0.669923 0.0966148 -0.276851 0.771542 0.589452 0.377238 0.519216 3.51814 0.60874 0.496026 0.384908 -0.515711 -0.352979 -0.323979 -0.645596 -0.263083 -0.0209241 -0.0140081 -0.478622 0.957486 -0.0604571 0.0852136 0.0713697 0.383608 0.326067 0.301195 1.01006 0.321248 0.917879 0.221369 1.54625 0.90251 0.612061 0.548172 -0.432158 -0.427313 0.0598576 0.206769 0.197215 -0.188831 0.480544 -0.162846 0.69297 -0.165666 0.22136 0.209271 0.801387 0.285887 0.018427 1.37288 0.0792512 0.524833 0.194819 0.0690785 0.191932 0.450294 0.19386 1.58315 0.184878 0.524207 0.471806 0.23101 0.343142 0.134537 1.145 0.656362 0.0574104 0.480192 -0.023874 -0.419402 1.2099 -0.11684 -0.22034 0.189245 -0.0513239 1.0871 -0.219533 0.20662 0.29753 1.28047 -0.116393 0.0573894 -1.14055 -1.22128 -0.951321 -1.659 0.0772311 0.243256 -0.175555
nr_sv 211 83 221 250 67 235 174 68 161 145 271 99 172 57 119 87 59 153 65 93 54 12 15 48 12 81
SV
0 0 0 21.63303842391228 0 0 0 0 0 0 0 0 0 0 0 0 0 0 0 0 0 0 0 0 0 26:1 27:1 28:1 34:1 35:1 36:1 37:1 38:1 42:1 46:1 47:1 49:1 50:1 55:1 56:1 57:1 64:1 65:1 72:1 73:1 80:1 81:1 87:1 88:1 89:1 93:1 94:1 95:1 97:1 98:1 99:1 100:1 101:1 
0 0 0 0 0 0 0 0 20.47764308125048 0 0 0 0 0 0 0 0 0 0 0 0 0 0 0 0 29:1 30:1 31:1 36:1 37:1 39:1 40:1 43:1 44:1 48:1 50:1 51:1 56:1 57:1 58:1 64:1 65:1 72:1 73:1 79:1 80:1 81:1 86:1 87:1 89:1 92:1 93:1 94:1 97:1 98:1 99:1 100:1 
0 0 0 0 0 0 0 0 0 0 0 0 0 0 0 0 0 0 0.3586920158950798 0 0 0 0 0 0 25:1 26:1 27:1 28:1 29:1 30:1 31:1 33:1 34:1 35:1 39:1 40:1 41:1 42:1 48:1 49:1 56:1 57:1 64:1 65:1 72:1 73:1 80:1 81:1 88:1 89:1 90:1 91:1 93:1 94:1 95:1 96:1 99:1 100:1 101:1 
0 0 0 0 0 0 0 0 0 0.8500266327155981 0 0 0 0 0 0 0 0 0 0 0 0 0 0 0 13:1 19:1 20:1 21:1 22:1 27:1 30:1 31:1 34:1 35:1 39:1 40:1 42:1 48:1 50:1 56:1 57:1 58:1 64:1 65:1 72:1 73:1 79:1 80:1 81:1 87:1 89:1 90:1 95:1 97:1 98:1 102:1 107:1 108:1 109:1 110:1 115:1 116:1 
20.97555391372757 31.80917790126486 12.84386180583239 0 0 13.38864021172254 0 18.91428070557154 23.57898186349805 49.16859695661624 2.703112781898937 15.92183951699599 13.60287903963414 0 3.572675864081546 23.51785243251973 19.90714494276849 3.089951902584227 7.062726439154752 0 0 0 0 16.7001404416736 3.212716171024649 36:1 37:1 38:1 39:1 40:1 42:1 43:1 47:1 48:1 49:1 50:1 56:1 57:1 63:1 64:1 65:1 71:1 73:1 77:1 78:1 81:1 84:1 85:1 89:1 90:1 91:1 92:1 
0 0 0 0 0 0 0 0 0 0 2.839395521766507 0 0 0 0 0 0 0 0 0 0 0 0 0 0 19:1 20:1 21:1 22:1 25:1 26:1 27:1 30:1 31:1 33:1 39:1 40:1 41:1 48:1 49:1 56:1 57:1 64:1 65:1 72:1 73:1 80:1 81:1 88:1 90:1 95:1 96:1 98:1 99:1 102:1 103:1 107:1 108:1 109:1 110:1 
1.305682379676307 11.66052834028518 19.74791071956128 0 0 7.138920059836547 5.574456928721775 5.508001640180939 0 10.36261301676043 5.99862878405119 0 15.1406462994839 6.690393009164668 15.64376626822588 0 0 3.96044315348775 22.53217279279737 2.380081364249161 0 0 1.471860574577158 0 12.70210925435235 20:1 21:1 22:1 23:1 24:1 27:1 28:1 29:1 32:1 34:1 35:1 36:1 40:1 43:1 44:1 48:1 51:1 56:1 59:1 63:1 64:1 66:1 67:1 71:1 74:1 78:1 82:1 85:1 86:1 89:1 90:1 92:1 93:1 97:1 99:1 100:1 105:1 106:1 107:1 
6.878160070870763 24.38103037858306 9.404792332450237 4.508004728090527 5.046377171153066 12.33344647534335 0.7891174928107976 9.62697761934376 26.86315131392825 19.98969850192531 8.847675481719754 3.94139707114596 3.125651574082426 3.303729178990198 5.240533259435971 0 0 7.097985231510405 6.168564960017159 2.220282375879676 0 0 4.178575679084419 0 5.966291770664968 19:1 20:1 21:1 23:1 26:1 27:1 29:1 31:1 34:1 37:1 38:1 39:1 41:1 42:1 46:1 47:1 48:1 49:1 55:1 57:1 63:1 65:1 71:1 73:1 78:1 79:1 81:1 85:1 89:1 92:1 97:1 98:1 99:1 100:1 106:1 
0 0 3.106280382182443 0 0 0 0 0 0 0 0 0 0 0 0 0 0 0 0 6.959191391828484 0 0 0 3.021160567215066 0 29:1 33:1 34:1 35:1 37:1 38:1 41:1 46:1 47:1 49:1 55:1 56:1 57:1 64:1 65:1 72:1 73:1 80:1 81:1 82:1 88:1 90:1 91:1 92:1 96:1 100:1 101:1 102:1 103:1 104:1 
0 0 0 0 0 0 0 0 0 0 0 0 0 0 0 0 0 0 0 0 0 1.878171676820257 0 0 0 17:1 18:1 19:1 20:1 21:1 22:1 25:1 26:1 27:1 28:1 29:1 30:1 31:1 33:1 34:1 37:1 39:1 41:1 47:1 48:1 49:1 56:1 57:1 64:1 65:1 72:1 73:1 80:1 81:1 88:1 89:1 90:1 95:1 96:1 98:1 99:1 101:1 102:1 103:1 107:1 108:1 109:1 
0 0 0 1.003409387064344 0 0 0 0 0 0 0 0 0 0 0 0 0 0 0 0 0 0 0 0 0 27:1 28:1 29:1 30:1 31:1 32:1 34:1 35:1 40:1 41:1 42:1 48:1 49:1 50:1 56:1 57:1 64:1 65:1 72:1 73:1 79:1 80:1 81:1 86:1 87:1 89:1 90:1 94:1 98:1 99:1 100:1 101:1 102:1 
0 0 0 0 0 0 0.4157555853239125 0 0 0 0 0 0 0 0 0 0 0 1.854105045433632 0 0 0 0 0.2944422952496954 0 2:1 3:1 4:1 5:1 6:1 10:1 12:1 14:1 15:1 19:1 20:1 23:1 24:1 26:1 27:1 32:1 34:1 40:1 41:1 42:1 48:1 49:1 56:1 57:1 64:1 65:1 72:1 73:1 80:1 81:1 88:1 89:1 95:1 96:1 97:1 103:1 105:1 110:1 111:1 113:1 117:1 118:1 121:1 122:1 123:1 124:1 125:1 
0 0 0 0 0 4.341423701023714 0 0 0 0 3.502822608237923 0 0 0 0 0 0 0 0 0 0 0 0 0 0 20:1 21:1 22:1 26:1 27:1 28:1 29:1 30:1 31:1 33:1 34:1 37:1 38:1 39:1 41:1 46:1 47:1 49:1 54:1 55:1 56:1 57:1 64:1 65:1 72:1 73:1 80:1 81:1 88:1 90:1 95:1 96:1 98:1 99:1 100:1 101:1 102:1 103:1 109:1 110:1 
0 0 0 0 0 0 0 2.392265150761683 0 0 0 0 0 0 0 0 0 0 0 0 0 0 0 0 0 28:1 29:1 30:1 31:1 34:1 35:1 36:1 39:1 40:1 41:1 42:1 48:1 49:1 56:1 57:1 64:1 65:1 72:1 73:1 79:1 81:1 86:1 87:1 89:1 92:1 93:1 94:1 97:1 98:1 99:1 
0 0 0 0 0 0 0 0 0 3.099262831800991 0 0 0 0 0 0 0 0 0 0 0 0 0 0 0 21:1 22:1 26:1 27:1 28:1 29:1 30:1 31:1 32:1 33:1 34:1 40:1 41:1 42:1 43:1 48:1 49:1 51:1 56:1 57:1 64:1 65:1 72:1 73:1 80:1 81:1 87:1 88:1 89:1 94:1 95:1 97:1 98:1 101:1 102:1 106:1 107:1 108:1 109:1 
0 6.513426607834222 8.666696581038032 19.54066573254811 0 11.08323270784996 1.550116944199027 0.5835425467936722 0 1.500215316687187 0.9284259029960205 0 0.7519056640131058 0 8.405225627185745 2.545497031117139 0 3.739132551172229 5.43142192403003 0 0 1.187209198551925 0.02935070559143286 0 5.07151814600069 11:1 12:1 13:1 14:1 22:1 23:1 31:1 32:1 40:1 45:1 46:1 48:1 52:1 53:1 56:1 59:1 60:1 64:1 67:1 72:1 74:1 75:1 79:1 80:1 82:1 86:1 87:1 89:1 90:1 94:1 97:1 101:1 102:1 105:1 107:1 108:1 109:1 113:1 114:1 115:1 
0 9.079560901456038 16.26018023930325 11.06697446407937 0 7.699209433212184 0 0 0 0.03676926373413905 0 0.4471866048402683 0 0 0 0 0 0 2.731434640842274 0 0 0 0 0 0 3:1 4:1 5:1 6:1 11:1 15:1 19:1 23:1 24:1 27:1 32:1 34:1 35:1 40:1 42:1 48:1 50:1 56:1 57:1 58:1 64:1 65:1 72:1 73:1 80:1 81:1 88:1 89:1 96:1 97:1 104:1 105:1 112:1 113:1 114:1 119:1 120:1 122:1 123:1 124:1 125:1 126:1 127:1 
0 0 0 0 0 0 0 0 79.01359470657403 23.07005427944416 0 16.55054273136065 0 0 0 27.90101324802025 0 0 0 0 0.9247777037779717 0 0 1.403057346153986 0 34:1 35:1 36:1 40:1 41:1 42:1 48:1 49:1 56:1 57:1 64:1 65:1 72:1 73:1 79:1 80:1 81:1 82:1 86:1 87:1 90:1 91:1 92:1 93:1 94:1 
0 0 0 0 0 0 0 0 0 0 0 0.3574276124407244 0 0 0 0 68.10569217586379 0 0 0 0 0 0 0 0 26:1 27:1 33:1 34:1 41:1 46:1 47:1 49:1 55:1 56:1 57:1 64:1 65:1 72:1 73:1 80:1 81:1 87:1 88:1 89:1 90:1 94:1 95:1 99:1 100:1 101:1 102:1 
0.9814702360680214 2.50740906602461 0 0 0 0 0 0 0 0 1.807164175512353 0 0 0 0 0 0 0 0 0 0 0 0 0 0.05481347398212826 11:1 18:1 19:1 20:1 26:1 28:1 29:1 30:1 34:1 38:1 39:1 41:1 42:1 47:1 49:1 55:1 56:1 57:1 64:1 65:1 72:1 73:1 80:1 81:1 88:1 89:1 95:1 96:1 97:1 101:1 102:1 103:1 105:1 108:1 109:1 113:1 114:1 115:1 
0 81.41513493034785 30.54399438580694 0 10.43234045302185 4.182030785912172 0 12.62068311632259 31.22457384937073 0 0.03363189872184932 0.8818535905136339 0 7.766374523854601 20.00389456951105 0 7.975739948265598 0 0 0 7.633146772067393 0 0.1494840610329348 0 0 35:1 36:1 37:1 38:1 39:1 43:1 46:1 47:1 48:1 50:1 56:1 57:1 63:1 64:1 65:1 71:1 73:1 78:1 79:1 81:1 85:1 86:1 89:1 90:1 91:1 92:1 
0 0 4.407348666759705 0 0 0 0 0 0 0 0 0 0 0 0 0 0 0 0 0 0 0 0 0 0 35:1 36:1 37:1 38:1 39:1 40:1 41:1 42:1 43:1 48:1 49:1 50:1 51:1 56:1 58:1 64:1 66:1 71:1 72:1 73:1 74:1 79:1 81:1 82:1 86:1 87:1 90:1 91:1 92:1 93:1 94:1 
0 6.033585996837965 0 0 0 0 0 0 0 23.64974205335482 0 0 0 0 0 0 0 0 0 0 0 0 0 0 0 28:1 29:1 30:1 31:1 35:1 36:1 39:1 40:1 42:1 43:1 44:1 45:1 48:1 50:1 53:1 56:1 57:1 58:1 64:1 65:1 71:1 72:1 73:1 78:1 79:1 81:1 85:1 86:1 89:1 91:1 92:1 93:1 97:1 98:1 99:1 
0 0 0.4449334737445634 0 0 0 1.579191206418165 0 0 0.6303813214545559 0.2756045537040423 0 0.3962274519393153 0 0 0 0 0 0 0 0 0 0 0 0 12:1 13:1 14:1 15:1 16:1 20:1 24:1 27:1 28:1 32:1 35:1 43:1 44:1 45:1 46:1 47:1 48:1 51:1 56:1 57:1 58:1 59:1 64:1 65:1 72:1 73:1 80:1 81:1 88:1 89:1 95:1 96:1 97:1 100:1 101:1 102:1 103:1 105:1 108:1 113:1 114:1 115:1 116:1 
0 0 0 0 0 0 0 0 0 0 0 0 0.2823311180438757 0 0 0 0 0 0 0 0 3.075645616720419 0 0 0 19:1 20:1 21:1 22:1 23:1 27:1 31:1 35:1 36:1 39:1 40:1 43:1 44:1 48:1 50:1 51:1 56:1 58:1 64:1 65:1 66:1 72:1 73:1 80:1 81:1 87:1 89:1 94:1 95:1 97:1 100:1 101:1 102:1 105:1 106:1 107:1 108:1 
3.069710993447259 13.2041149554759 4.442797373132953 5.610477844599237 0 0.1387737498745482 0 0 0 0 0 0 0 0 0.4133485387887208 0 0 0 0 1.611737498201984 0 0 0 0 0 18:1 19:1 26:1 29:1 34:1 37:1 38:1 41:1 42:1 46:1 47:1 49:1 55:1 57:1 63:1 64:1 65:1 72:1 73:1 80:1 81:1 82:1 88:1 90:1 91:1 96:1 99:1 100:1 104:1 108:1 109:1 110:1 111:1 112:1 
15.40386379873506 0 14.34048265951903 13.92496784271481 0 0 0 0 0 0 0 0 0 0 0 0 0 0 0 0 0 9.223872620486205 0 0 0 30:1 38:1 39:1 44:1 45:1 47:1 48:1 51:1 52:1 56:1 58:1 59:1 64:1 65:1 66:1 72:1 73:1 80:1 81:1 88:1 89:1 90:1 95:1 96:1 98:1 99:1 100:1 101:1 102:1 103:1 
0 10.53503222043312 0 4.303286924103766 0 1.39569289232683 0 0 0 0 0 3.293676365175898 0 0 5.650922210894799 0 32.88002676623199 0 0 0 6.831813946603472 0 0 0 0 26:1 27:1 28:1 36:1 37:1 38:1 39:1 47:1 48:1 56:1 57:1 64:1 65:1 72:1 73:1 79:1 80:1 81:1 85:1 86:1 87:1 89:1 90:1 91:1 92:1 93:1 98:1 99:1 
0 0 7.578047181661278 0 5.580333488587247 0 0.5317137333947619 14.77618975259045 8.067157984417648 13.08205562523998 0 6.50707133943404 3.202838294124782 2.563643114329368 0 3.735841927257771 0 0.2788793227066431 19.01429731723745 1.688888000042498 0.3699734264888288 0 0 0 0.01157174388885988 20:1 21:1 22:1 26:1 27:1 28:1 30:1 31:1 32:1 33:1 40:1 41:1 48:1 49:1 56:1 57:1 64:1 65:1 72:1 73:1 79:1 81:1 86:1 89:1 93:1 97:1 98:1 99:1 100:1 106:1 107:1 
0 0 0 0 0 0 0 0 0 0 0 0 0 0 7.818116652933678 0 12.1920700792129 0 0 0 0 0 0 0 0 27:1 28:1 29:1 37:1 38:1 41:1 46:1 47:1 49:1 55:1 56:1 57:1 64:1 65:1 72:1 73:1 80:1 81:1 87:1 88:1 90:1 91:1 95:1 99:1 100:1 101:1 102:1 103:1 
0 0 12.88661056645385 0 0 0 1.2144576089811 0 0 0 0 0 0 0 0 0 0 0 0 0 0 0 0 0 0 12:1 13:1 21:1 22:1 25:1 26:1 30:1 33:1 38:1 39:1 41:1 47:1 49:1 55:1 56:1 57:1 64:1 65:1 72:1 73:1 80:1 81:1 88:1 89:1 90:1 96:1 98:1 103:1 104:1 106:1 107:1 111:1 116:1 117:1 118:1 119:1 
4.24114071455455 15.67093454913908 7.820209502624404 4.36304654090431 4.472040482889226 9.94975873640375 8.459607567306611 0.9855502161042119 6.850240712574925 3.539780014218314 3.007805497290509 2.152459142539623 2.036167109042412 3.283882340352215 3.585551595103269 8.43345455932328 18.49133509799207 0 6.038954982767995 9.861428939771473 5.004023573612669 4.726516184770733 0 0 3.516027146567928 2:1 3:1 4:1 5:1 6:1 9:1 10:1 14:1 15:1 17:1 23:1 25:1 31:1 33:1 39:1 41:1 47:1 49:1 55:1 57:1 63:1 65:1 71:1 72:1 73:1 80:1 81:1 88:1 89:1 96:1 97:1 98:1 103:1 104:1 107:1 111:1 116:1 118:1 119:1 125:1 126:1 
0 0 0 0 0 0 0 0 0 3.20116306059821 0 0 0 3.389759953409142 0 34.52462060353125 162.3191481782053 0 0 9.082251452259744 0 0 0 25.84409131368692 21.50267757976163 33:1 34:1 35:1 36:1 40:1 41:1 48:1 49:1 56:1 57:1 64:1 65:1 72:1 73:1 74:1 80:1 82:1 83:1 87:1 88:1 91:1 92:1 93:1 94:1 95:1 
9.938778657806598 14.01062097933298 51.52658027671118 7.712588850628967 7.820636509316592 0 5.192338760427613 14.75112332563627 5.610315126976358 0 0 7.239529334791585 0 0.8532019754656197 10.93293291037189 37.16118499543422 57.06969070054136 4.149374040286909 0 3.894264380120912 0.1862212792229438 0 4.573458026124732 6.217118439574345 1.525902913736429 24:1 32:1 40:1 48:1 50:1 51:1 52:1 56:1 58:1 64:1 65:1 66:1 72:1 73:1 80:1 81:1 88:1 89:1 96:1 97:1 103:1 104:1 106:1 107:1 108:1 109:1 110:1 111:1 
0 0 0 0 0 0 0 0 6.22831254122772 0 0 0 0 0 0 0 0 0 0 0 0 0 0 0 0 19:1 20:1 21:1 22:1 26:1 27:1 30:1 31:1 32:1 33:1 34:1 40:1 41:1 48:1 49:1 56:1 57:1 64:1 65:1 72:1 73:1 80:1 81:1 87:1 88:1 89:1 94:1 95:1 97:1 98:1 99:1 100:1 101:1 102:1 107:1 108:1 
0 0 12.91728554861906 0 0 0 0 0 0 0 0 0 0 0 0 0 0 0 0 0 0 0 0 0 0 27:1 28:1 29:1 30:1 31:1 35:1 39:1 40:1 42:1 43:1 48:1 50:1 51:1 56:1 58:1 64:1 65:1 66:1 72:1 73:1 80:1 81:1 88:1 89:1 90:1 91:1 95:1 96:1 99:1 100:1 101:1 102:1 103:1 
0 2.477195560766018 0 0 0 0 10.08145382004015 0 0 0 0.3922742681730695 0 0 0 0 0 0 0 0 0 0 0 0 0 0 19:1 20:1 21:1 22:1 27:1 28:1 29:1 30:1 31:1 32:1 34:1 35:1 40:1 42:1 48:1 50:1 56:1 57:1 58:1 64:1 65:1 71:1 72:1 73:1 78:1 79:1 81:1 86:1 89:1 93:1 94:1 97:1 100:1 101:1 105:1 106:1 107:1 108:1 
1.559933829304752 1.549983683283173 9.80425875713035 7.839497328018173 0 4.28863547953307 0 0 1.145044260027953 0 0.4038020370921946 0 0 0 3.944871198715318 0 0 0 0 0 0 0 0 0 0 1:1 2:1 3:1 11:1 19:1 20:1 28:1 29:1 35:1 36:1 37:1 38:1 42:1 43:1 46:1 47:1 50:1 55:1 56:1 57:1 58:1 64:1 65:1 72:1 73:1 80:1 81:1 88:1 89:1 96:1 97:1 104:1 105:1 106:1 112:1 114:1 120:1 122:1 123:1 124:1 125:1 126:1 127:1 
0 0 13.12292989607976 0 0 0 0 0 0 0 0 0 0 0 0 0 0 0 0 0 0 0 0 0 0 36:1 37:1 38:1 39:1 40:1 48:1 50:1 51:1 56:1 58:1 64:1 65:1 66:1 71:1 72:1 73:1 78:1 79:1 81:1 85:1 86:1 89:1 90:1 91:1 92:1 93:1 
7.289906149347511 2.788475238678894 25.36050508312234 0 0 0 0 0 0 53.48868773081946 0 0 0 0 0 0 0 0 0.5154934948861913 0 0 22.68822032735402 3.471958785645628 0 1.066548760913665 36:1 37:1 38:1 39:1 40:1 43:1 44:1 48:1 51:1 52:1 56:1 58:1 59:1 64:1 65:1 66:1 71:1 72:1 73:1 78:1 79:1 81:1 83:1 84:1 85:1 86:1 89:1 90:1 91:1 
0 0 0 0 0 0 0 0 0 0 0 0 0 0 0 0 20.5538123517858 0 0 0 0.7805338081081488 0 0 0 0 35:1 36:1 37:1 41:1 42:1 45:1 46:1 49:1 54:1 55:1 57:1 63:1 64:1 65:1 72:1 73:1 80:1 81:1 88:1 90:1 91:1 92:1 93:1 94:1 95:1 96:1 
0.2889923547241362 0 8.074120489733106 0 1.969611266165091 9.394443450927355 3.727785049234312 5.23432003301409 5.019196695695842 6.498989527024651 3.356275784112011 3.068896492089567 0.2416196843137471 0.7177491077371974 7.464562064631052 0 0 0.09373837459835981 0 6.03573062118994 0 0 0.1079144049590178 0 2.363755399001058 11:1 12:1 18:1 19:1 20:1 21:1 25:1 26:1 29:1 30:1 33:1 38:1 41:1 46:1 47:1 49:1 55:1 57:1 64:1 65:1 72:1 73:1 80:1 81:1 88:1 89:1 96:1 97:1 98:1 104:1 106:1 111:1 112:1 114:1 115:1 116:1 117:1 118:1 119:1 
0 17.00290604274772 0 3.821376146406094 0 0 0 0 0 16.66846698635941 3.249416837434041 0 7.863728229898555 0 0 1.741198889903344 25.67238858902561 0 0.3556930682310259 0 0 0 0 0 0 20:1 21:1 22:1 23:1 28:1 31:1 32:1 34:1 35:1 36:1 40:1 41:1 42:1 48:1 49:1 56:1 57:1 63:1 64:1 65:1 71:1 73:1 78:1 79:1 81:1 86:1 89:1 90:1 93:1 94:1 98:1 99:1 100:1 101:1 107:1 108:1 
9.3109648252357 16.32253620636476 28.60864005054388 8.084180520483644 1.428570085421995 11.65117215061504 0 5.531536817279228 0 0 5.910401903286181 4.119073226612325 7.897590531539126 6.444161809800832 25.83979323701148 12.51738586338704 9.636547539319912 4.057387327195699 9.059554088510279 1.983877350159703 0 5.9886412852045 10.60843805295477 1.239560856798468 9.652349849474851 15:1 23:1 31:1 39:1 40:1 44:1 45:1 46:1 48:1 52:1 56:1 60:1 64:1 67:1 68:1 72:1 74:1 75:1 79:1 80:1 81:1 82:1 87:1 89:1 94:1 95:1 97:1 101:1 102:1 105:1 106:1 108:1 109:1 114:1 115:1 116:1 
0 0 0 0 0 0 0 0 35.20714463133281 2.639771033537162 0 0 0 0 0 0 0 0 0 0 0 0 0 0 0 27:1 28:1 29:1 30:1 31:1 32:1 35:1 36:1 40:1 42:1 43:1 48:1 49:1 50:1 56:1 57:1 64:1 65:1 72:1 73:1 80:1 81:1 88:1 89:1 90:1 95:1 96:1 98:1 99:1 100:1 101:1 102:1 103:1 
6.358868037157332 5.759165355826899 1.224040712783398 6.243801398078984 0 0 0 0 0 0 0.4883735998735284 4.052892836567939 0 0.3447711869165723 0 0 0 0 0 0 0 0 0 0 0 4:1 5:1 13:1 21:1 22:1 30:1 34:1 38:1 39:1 41:1 42:1 47:1 48:1 49:1 56:1 57:1 64:1 65:1 72:1 73:1 80:1 81:1 88:1 89:1 96:1 97:1 104:1 106:1 112:1 114:1 115:1 116:1 119:1 120:1 124:1 125:1 126:1 127:1 
0 0 0 0 0 0 0 0 0 11.99193516669097 0 0 0 0 0 0 0 0 0 0 0 0 0 0 0 27:1 29:1 30:1 31:1 32:1 35:1 36:1 37:1 40:1 42:1 43:1 48:1 49:1 50:1 51:1 56:1 57:1 64:1 65:1 71:1 72:1 73:1 79:1 81:1 85:1 86:1 87:1 89:1 92:1 93:1 97:1 98:1 99:1 
0 0 9.912891525464273 1.495131544779412 0 0 0 0 0 0 0 0 0 0 0 0 0 0 0 0 0 0 0 0 0 31:1 36:1 37:1 38:1 39:1 40:1 43:1 44:1 48:1 50:1 51:1 56:1 58:1 64:1 65:1 66:1 72:1 73:1 79:1 80:1 81:1 86:1 87:1 89:1 93:1 94:1 97:1 98:1 99:1 100:1 101:1 
305.4025169311919 318.3414264000591 270.1903940824604 18.56287388831462 89.91086577205112 105.6043580299164 45.04639770162005 127.0041535535949 157.0374004560765 283.4212853382116 111.4289927000255 69.56442781177473 81.72554737546496 130.6535403755951 50.47737241630215 62.74236740491619 240.4229480638467 68.62960977059318 141.5157776584424 63.22709829249036 32.2839288250098 8.009450909654207 96.00971766101213 65.98206883035897 59.09939355235869 49:1 50:1 51:1 57:1 58:1 59:1 60:1 61:1 65:1 67:1 69:1 70:1 71:1 72:1 73:1 74:1 75:1 
0 0 0 2.668794979916241 0 0 0 0 0 0 0 0 0 0 0 0 0 0 0 0 0 0 0 0 0 15:1 22:1 23:1 24:1 30:1 32:1 35:1 36:1 37:1 38:1 40:1 42:1 43:1 44:1 45:1 46:1 48:1 49:1 50:1 56:1 57:1 64:1 65:1 72:1 73:1 80:1 81:1 87:1 88:1 89:1 95:1 97:1 102:1 103:1 105:1 109:1 110:1 113:1 114:1 115:1 116:1 117:1 
0 0 0 0 0 0 0.3731374073658329 0 0 0 0 0 0 0 0 0 0 0 0 0 0 0 0 0 0 5:1 6:1 12:1 13:1 19:1 20:1 21:1 22:1 27:1 30:1 31:1 34:1 35:1 39:1 40:1 42:1 48:1 49:1 50:1 56:1 57:1 64:1 65:1 72:1 73:1 80:1 81:1 88:1 89:1 96:1 97:1 104:1 105:1 112:1 113:1 119:1 120:1 121:1 122:1 123:1 124:1 125:1 126:1 127:1 
0 34.18814654628878 12.0111325384748 1.905069317628139 23.03403359807914 44.24195778086708 16.37056354070999 20.06270778283702 0 11.0192203394278 31.20237864201443 12.79130783504345 17.65971796368859 28.85382265929562 48.27350698286525 9.486653227931022 0 32.84482400979786 4.312010443518376 11.59566291434478 12.42470894609422 9.102463909572579 15.11691374426083 0 14.09580608092918 33:1 34:1 35:1 36:1 37:1 45:1 46:1 47:1 51:1 55:1 56:1 59:1 64:1 67:1 72:1 75:1 80:1 83:1 84:1 86:1 87:1 88:1 92:1 93:1 94:1 
0 0 0 2.439433301259818 0 0 0 0 0 0 0 0 0 0 0 0 0 0 0 0 0 0 0 0 0 3:1 4:1 5:1 13:1 14:1 15:1 20:1 21:1 23:1 27:1 28:1 32:1 34:1 35:1 40:1 42:1 48:1 50:1 56:1 57:1 58:1 64:1 65:1 72:1 73:1 79:1 80:1 81:1 87:1 89:1 94:1 95:1 97:1 102:1 105:1 109:1 110:1 113:1 116:1 117:1 121:1 122:1 123:1 124:1 
1.256413809975519 46.93440628926269 3.280771833438672 1.76755974472346 0 20.9895203941851 0 0 36.29193938845732 25.37526999754886 1.361531321786769 0.4915394976956742 10.54209009147167 4.819618226488451 0 8.327673647438818 18.7139992764342 0 23.28799612987688 0 0 0 0 0 0 43:1 44:1 45:1 46:1 47:1 48:1 50:1 51:1 54:1 56:1 57:1 64:1 65:1 70:1 71:1 72:1 73:1 74:1 76:1 77:1 78:1 82:1 83:1 84:1 
8.845901451398699 17.23497687982344 12.27036474982627 11.77332332936538 14.24591571652388 20.52039980722726 9.713331547287444 17.64203673775725 14.07249410989222 21.740170612637 12.58023624209563 12.48944608185036 19.30289837322925 14.67037749477344 14.56605040576241 8.029201523559644 15.78481738473522 13.72320058955181 16.0572889624564 12.88498077367798 6.006751126885944 3.302960420972779 7.743786579076989 0.6098250213193244 17.3881565379402 4:1 5:1 6:1 7:1 8:1 11:1 12:1 19:1 24:1 27:1 32:1 34:1 35:1 39:1 40:1 42:1 47:1 50:1 55:1 58:1 62:1 66:1 70:1 74:1 77:1 78:1 82:1 85:1 89:1 90:1 92:1 93:1 97:1 100:1 105:1 107:1 108:1 113:1 115:1 121:1 122:1 123:1 
0 0 1.758289603445161 0.1089081079880202 0 0 0 0 0 0 0 0 0 0 0 0 0 0 0.6024529814868362 0 0 0 0 0 0 3:1 4:1 5:1 6:1 7:1 12:1 13:1 15:1 20:1 23:1 24:1 27:1 28:1 32:1 35:1 40:1 43:1 48:1 51:1 56:1 58:1 59:1 64:1 66:1 72:1 74:1 79:1 80:1 81:1 82:1 87:1 89:1 95:1 97:1 102:1 103:1 105:1 109:1 110:1 113:1 114:1 116:1 117:1 122:1 123:1 124:1 
0 0 0 1.091210697607265 0 0 0 0 0 0 0 0 0 0 0 0 0 0 0 0 0 0 0 0 0 4:1 5:1 6:1 11:1 12:1 13:1 14:1 15:1 18:1 19:1 22:1 23:1 26:1 31:1 32:1 34:1 40:1 41:1 42:1 48:1 49:1 56:1 57:1 64:1 65:1 72:1 73:1 80:1 81:1 88:1 89:1 95:1 96:1 97:1 103:1 105:1 106:1 110:1 111:1 114:1 117:1 118:1 122:1 123:1 124:1 125:1 
0 0 0 12.77806717362667 0 0 0 0 0 0 0 0 0 0 0 0 0 0 0 0 0 0 0.9585154910784954 0 0 20:1 26:1 27:1 28:1 29:1 30:1 31:1 33:1 34:1 36:1 37:1 39:1 40:1 41:1 43:1 44:1 48:1 50:1 51:1 56:1 58:1 64:1 66:1 72:1 73:1 74:1 79:1 80:1 81:1 86:1 87:1 89:1 94:1 97:1 98:1 100:1 101:1 102:1 106:1 107:1 108:1 
0 0 0 0 0 0 1.325114084532336 0 0 0 0 0 2.433764486388641 0 0 5.819171442572364 6.429646829078725 0 0 0 0 0 0 0 0 5:1 6:1 7:1 8:1 11:1 12:1 13:1 16:1 18:1 19:1 24:1 25:1 32:1 33:1 40:1 42:1 48:1 50:1 56:1 57:1 58:1 64:1 65:1 72:1 73:1 79:1 80:1 81:1 86:1 87:1 89:1 93:1 94:1 97:1 100:1 101:1 105:1 107:1 108:1 113:1 114:1 121:1 
4.143943142827465 5.654676555531672 24.64090400282548 10.193905101164 0 22.24007833688258 0 1.187017998593389 0 0 0 0 0 0 15.31474953026457 0 0 0.7688164916966025 0 0 1.048961189738341 0 1.905786177582065 0 0 8:1 15:1 22:1 29:1 36:1 37:1 38:1 39:1 40:1 43:1 44:1 48:1 51:1 56:1 59:1 64:1 66:1 72:1 74:1 80:1 81:1 88:1 89:1 96:1 97:1 103:1 104:1 105:1 110:1 111:1 113:1 117:1 118:1 121:1 122:1 123:1 124:1 125:1 
48.15048427183618 98.94385905216737 55.64991295174737 11.08795070448425 16.99919221180958 69.27555682094692 11.75545999259405 24.64131397391863 19.01596503435167 71.98245450886634 49.22664280493224 19.01956131800305 24.81823416188333 46.83310103164914 0 4.963706181991866 39.30725436783914 25.92671255860765 10.18819084154566 32.40561948353388 7.701623672802559 20.34831653018412 18.09785718449637 17.32329082763187 31.30895310313045 35:1 43:1 51:1 59:1 65:1 66:1 67:1 68:1 69:1 70:1 71:1 72:1 73:1 80:1 81:1 87:1 88:1 89:1 90:1 91:1 92:1 93:1 94:1 95:1 
16.13272679082115 60.5558485935525 123.5514619737012 24.05890248455269 113.6431194979308 51.6329696992838 32.98999875415847 75.98057761947562 130.9067329137209 208.5809979233497 57.49653601346237 131.5666754282374 61.7227962408158 94.16757811165708 55.79891564661357 67.02516001593989 63.51243063031843 65.90842780135962 47.28134138801888 57.33869391387683 42.83195109888687 17.48546316076046 54.23998585412606 45.42560470905501 41.79613618920715 51:1 52:1 56:1 58:1 59:1 64:1 66:1 71:1 72:1 73:1 74:1 75:1 76:1 77:1 78:1 79:1 
0 0 0 20.93079708332735 0 0 0 0 20.14894337400387 0 0 0 0 0 0 6.933539092915583 89.54626474449714 0 0 0 0 0 0 0 0 26:1 29:1 30:1 31:1 32:1 33:1 34:1 40:1 41:1 48:1 49:1 56:1 57:1 64:1 65:1 72:1 73:1 79:1 80:1 81:1 86:1 87:1 89:1 93:1 94:1 97:1 98:1 99:1 100:1 101:1 
0 0 0 0 0 0 2.015760965091837 0 0 0 0 0 0 0 0 0 0 0 0 0 0 0 0 0 2.907117813578453 18:1 19:1 20:1 21:1 22:1 25:1 26:1 30:1 31:1 33:1 39:1 40:1 41:1 42:1 48:1 49:1 50:1 56:1 57:1 64:1 65:1 72:1 73:1 80:1 81:1 87:1 88:1 89:1 95:1 97:1 101:1 102:1 103:1 105:1 106:1 107:1 108:1 109:1 
0 0 0 1.357856281203732 0 0 0 0 5.489918953767567 0 0 0 0 0 0 0 0 0 0 0 0 0 0 0 0 23:1 24:1 29:1 30:1 31:1 32:1 36:1 37:1 39:1 40:1 42:1 43:1 44:1 48:1 49:1 50:1 56:1 57:1 64:1 65:1 72:1 73:1 80:1 81:1 87:1 88:1 89:1 95:1 97:1 98:1 101:1 102:1 103:1 106:1 107:1 108:1 109:1 
5.973233575781919 0 0 0 0 0 0 0 0 0 0 0 0 0 0 0 0 0 0 0 0 0 0 0 0 29:1 30:1 31:1 39:1 40:1 43:1 44:1 45:1 46:1 47:1 48:1 50:1 51:1 56:1 57:1 58:1 64:1 65:1 71:1 72:1 73:1 79:1 81:1 86:1 87:1 89:1 92:1 93:1 94:1 97:1 98:1 99:1 100:1 
0 0 0 0 0 0 0 0 0 0 0 0 0 0 0 9.484755638615216 10.24462216878126 0 0 0 0 0 0 0 0 19:1 20:1 22:1 23:1 24:1 27:1 32:1 34:1 35:1 40:1 42:1 48:1 49:1 50:1 56:1 57:1 64:1 65:1 72:1 73:1 79:1 81:1 87:1 89:1 92:1 93:1 94:1 95:1 97:1 100:1 106:1 107:1 108:1 
0 0 0 0 0 3.719369180005654 0 0 0 0 5.305874343344803 0 0 0 3.356264213178423 0 0 0 0 0 0 0 0 0 0 21:1 22:1 23:1 24:1 28:1 29:1 32:1 35:1 36:1 40:1 43:1 48:1 56:1 58:1 64:1 65:1 71:1 72:1 73:1 78:1 79:1 81:1 85:1 86:1 89:1 92:1 93:1 97:1 98:1 99:1 100:1 106:1 107:1 
0 0 0 0 0 0 0 0 42.89054812819673 0 0 0 0 0 0 0 0 0 0 0 0 0 0 0 0 29:1 30:1 31:1 36:1 37:1 39:1 40:1 43:1 44:1 48:1 50:1 56:1 57:1 58:1 64:1 65:1 71:1 72:1 73:1 78:1 79:1 81:1 85:1 86:1 89:1 90:1 91:1 93:1 99:1 100:1 
0 13.52446135425389 0 0 0 0 0 0 0 0 0 0 0 0 0 0 0 0 0 0 0 0 0 0 0 27:1 28:1 29:1 30:1 31:1 32:1 35:1 40:1 42:1 43:1 48:1 49:1 50:1 56:1 57:1 64:1 65:1 71:1 72:1 73:1 79:1 81:1 86:1 87:1 89:1 93:1 94:1 97:1 98:1 99:1 100:1 101:1 
0 9.25731262090533 0 1.732175805725184 0 5.5856217932812 0.5666486099594242 5.074558365442494 2.385286199386654 8.671848401959934 0 1.254633129395641 6.200160057872512 0 0 3.556036899446424 16.74262978914507 0 5.410969109314066 1.013446883694765 2.257101644932383 0.2658179697834591 0 2.194482668658645 0 4:1 5:1 11:1 12:1 13:1 14:1 15:1 16:1 18:1 19:1 20:1 24:1 26:1 32:1 34:1 40:1 41:1 48:1 49:1 55:1 56:1 57:1 63:1 65:1 71:1 73:1 79:1 81:1 86:1 87:1 89:1 94:1 97:1 101:1 102:1 105:1 109:1 113:1 116:1 117:1 121:1 122:1 123:1 124:1 
1.80979392745434 9.531610768503201 17.5112043769738 0.6209971465789874 0 1.465982697651403 0 0 0 2.522405377499606 0.8976607179782132 0 0 0 4.33277387907626 0 0 0 0 0 0 0 0 0 0 18:1 19:1 27:1 28:1 33:1 34:1 36:1 37:1 38:1 41:1 46:1 47:1 49:1 55:1 57:1 63:1 64:1 65:1 72:1 73:1 80:1 81:1 88:1 89:1 96:1 97:1 98:1 103:1 104:1 106:1 107:1 108:1 109:1 110:1 111:1 
0 0 0 0 0 0 0 0 0 0 0 0 0 0 0 0 0 0 0 0 0 0.2380734081711656 0 0 0 35:1 36:1 37:1 38:1 39:1 40:1 44:1 48:1 49:1 50:1 51:1 52:1 56:1 57:1 64:1 65:1 72:1 73:1 80:1 81:1 82:1 86:1 87:1 88:1 90:1 91:1 92:1 93:1 94:1 
0 16.55382451427381 0 0 0 0 0 0 106.3511110658586 18.94860105845612 6.175712105401665 0 0 0 0 0 0 0 0 0 0 0 0 0 0 36:1 37:1 38:1 42:1 43:1 44:1 46:1 47:1 49:1 50:1 55:1 57:1 64:1 65:1 72:1 73:1 79:1 80:1 81:1 82:1 87:1 90:1 91:1 92:1 93:1 94:1 95:1 
0 0 0 24.26970303929867 0 0 0 0 0 0 0 0 0 0 0 0 0 0 0 0 0 0 0 0 0 26:1 27:1 34:1 35:1 36:1 37:1 38:1 41:1 42:1 46:1 47:1 49:1 55:1 56:1 57:1 64:1 65:1 72:1 73:1 80:1 81:1 87:1 88:1 89:1 94:1 95:1 97:1 98:1 99:1 100:1 101:1 102:1 
0 0 0 0 0 8.034284487066866 0 0 0 0 2.926593102059897 0 0.885348281524005 0 4.295753388611974 0 0 3.546441710365613 2.773619156861599 0.5509243949655264 0 0 0 0 0 17:1 18:1 19:1 20:1 21:1 25:1 26:1 29:1 34:1 35:1 37:1 38:1 42:1 46:1 49:1 54:1 55:1 57:1 63:1 64:1 65:1 72:1 73:1 80:1 81:1 82:1 88:1 90:1 96:1 98:1 104:1 106:1 107:1 108:1 109:1 110:1 111:1 112:1 
1.046154323875498 2.175179511996181 15.28431543167073 2.640972632159551 0 0 0 0 0 0 2.510477285218667 0 1.450989743355124 0 0 0 0 0 0 0 0 0 0 0 0 20:1 21:1 22:1 23:1 24:1 28:1 29:1 32:1 36:1 37:1 40:1 43:1 44:1 48:1 51:1 56:1 58:1 59:1 63:1 64:1 66:1 71:1 73:1 74:1 78:1 81:1 85:1 86:1 89:1 92:1 93:1 97:1 98:1 99:1 100:1 105:1 106:1 
0 0 12.10270858703324 0 0 0 0 0 11.02992449684528 0.06472527652123321 2.492501588610373 0 0 0 0 0 0.5687658754281213 0 0 0 0 0 0 0 0 43:1 44:1 45:1 46:1 47:1 48:1 50:1 51:1 56:1 57:1 58:1 64:1 65:1 71:1 72:1 73:1 74:1 78:1 79:1 82:1 83:1 84:1 85:1 86:1 
0 0 0 0 0 10.12689077714181 0 0 0 0 0 0 0 0 0 0 0 0 0 0 0 0 0 0 0 28:1 29:1 34:1 35:1 36:1 37:1 41:1 42:1 44:1 45:1 46:1 49:1 54:1 55:1 56:1 57:1 64:1 65:1 72:1 73:1 80:1 81:1 88:1 89:1 90:1 96:1 98:1 99:1 100:1 101:1 102:1 103:1 104:1 
0 0 10.80021986308547 0 17.63971925403284 0 0 0 0 0 0 0 0 0 0 0 0 0 0 0 0 0 0 0 0 43:1 44:1 45:1 46:1 47:1 48:1 50:1 51:1 54:1 56:1 57:1 58:1 64:1 65:1 72:1 73:1 77:1 78:1 79:1 80:1 81:1 82:1 83:1 84:1 85:1 
0 0 0 0 0 0 0 0 0 3.828150111748972 2.977619853647152 0 0 0 1.069361181704855 0 0 5.231295026444132 0 0.2668809636824738 0 0 0 0 0 20:1 26:1 27:1 28:1 29:1 33:1 34:1 35:1 37:1 38:1 41:1 46:1 49:1 54:1 55:1 57:1 63:1 64:1 65:1 72:1 73:1 80:1 81:1 82:1 88:1 90:1 96:1 98:1 99:1 100:1 102:1 103:1 104:1 108:1 109:1 110:1 
0 4.468379314088402 0 0 0 3.506638052062467 0 0 5.13546447736426 15.49183425047675 0 0 0 0 0 0 0 0 0 0 0 0 0 0 0 22:1 23:1 24:1 29:1 30:1 32:1 35:1 36:1 37:1 40:1 43:1 44:1 45:1 46:1 48:1 50:1 51:1 52:1 54:1 56:1 57:1 58:1 63:1 64:1 65:1 70:1 71:1 73:1 77:1 78:1 81:1 85:1 89:1 92:1 93:1 97:1 98:1 99:1 100:1 105:1 106:1 
0 12.55673380224176 9.987096534255747 0 0 0 0 0 0 0 0 0 0 0 0 0 0 0 0 0 0 0 0 0 0 33:1 34:1 35:1 36:1 37:1 38:1 41:1 42:1 46:1 47:1 49:1 55:1 56:1 57:1 64:1 65:1 72:1 73:1 74:1 80:1 82:1 88:1 90:1 91:1 92:1 93:1 94:1 95:1 96:1 
0 0 24.01839156182518 0 0 0 0 5.781578347294164 6.335129814696094 2.241376513848942 0 3.258935346012078 0.7318435088720892 0 0 1.768914334747141 18.57249353924822 0 7.166099774466847 0 0 0 0 5.750873690163671 0 20:1 21:1 22:1 23:1 24:1 25:1 26:1 27:1 32:1 33:1 34:1 40:1 41:1 48:1 49:1 56:1 57:1 64:1 65:1 72:1 73:1 80:1 81:1 88:1 89:1 96:1 97:1 98:1 102:1 103:1 107:1 108:1 109:1 
0 0 0 5.404079318711956 4.279014813024578 0 0 2.816717399063775 0 22.76630764891113 10.95371389890023 27.45537176447135 8.294030585551582 5.523890127604977 4.100071373873312 0 0 0 0 0 2.28344616573471 0 0 0 0 42:1 43:1 44:1 45:1 46:1 47:1 48:1 49:1 56:1 57:1 64:1 65:1 72:1 73:1 79:1 80:1 81:1 82:1 83:1 84:1 85:1 86:1 87:1 
1.916710773394517 11.46425086648006 0 47.73445543441854 0 0 0 5.699300794692454 0 6.153420302360949 0 0 0 0 0 5.683127529007882 0 0 0 0 0 4.221290199011471 2.082959097379859 0 1.738960809367672 24:1 30:1 31:1 32:1 36:1 37:1 38:1 40:1 44:1 48:1 51:1 52:1 56:1 58:1 59:1 64:1 65:1 66:1 72:1 73:1 79:1 81:1 86:1 87:1 89:1 93:1 94:1 97:1 100:1 101:1 105:1 106:1 107:1 108:1 
90.13026607061894 140.9235128090765 91.11537282782751 1.934723689410861 12.74631247756909 12.22002491660842 5.260868436073518 31.18618958013296 0 96.28035565278675 4.277761895479995 2.820071259538284 5.932629675880907 21.16520686419216 15.69920445768211 11.05140166937647 11.54566400126963 26.39026222678703 14.83247354389058 14.43427537494273 0 6.695991844640135 20.27282220666716 17.35413148422733 18.13631049388781 45:1 46:1 47:1 48:1 51:1 52:1 53:1 56:1 58:1 59:1 60:1 63:1 64:1 65:1 66:1 70:1 71:1 73:1 76:1 77:1 78:1 81:1 82:1 83:1 84:1 
0 0 0 0 0 0 0 0 0 0 0 0 0 0 0 0 0 0 0 0 0 0 0 0 0.3520902156583638 17:1 18:1 19:1 20:1 21:1 22:1 25:1 30:1 31:1 33:1 34:1 39:1 41:1 47:1 48:1 49:1 56:1 57:1 64:1 65:1 72:1 73:1 80:1 81:1 82:1 87:1 90:1 95:1 98:1 99:1 102:1 103:1 107:1 108:1 109:1 110:1 
2.916211331169361 0 11.74474389923648 0 4.597149177066732 18.89168839970731 6.927259802600209 4.976881012195067 1.187604607094233 4.463442974833569 19.49121440058459 2.923066237402332 11.38653331322864 9.211563173852879 11.39498844403099 11.61407626642706 11.05062498927979 4.050988774143323 0 0 1.849102941714824 2.631713854077478 1.283138547040884 1.314089599924046 0 12:1 13:1 14:1 15:1 19:1 20:1 23:1 24:1 26:1 27:1 32:1 33:1 34:1 40:1 41:1 48:1 49:1 56:1 57:1 64:1 65:1 66:1 72:1 80:1 88:1 95:1 96:1 99:1 103:1 107:1 108:1 111:1 116:1 117:1 118:1 
3.692684328173915 46.52543620574156 56.76478256652967 42.64951345213921 32.79923739511632 52.73189755380416 28.53849654390404 26.05564315213008 23.663243723421 24.78761508622236 19.25383750553061 29.9067318096192 14.00898533454574 27.72009235352219 42.95572649053602 33.33978401367422 70.70488103262755 39.68724165748147 6.42059016820293 29.0742362697998 13.4111651619212 0 18.52453543694031 40.26484767210042 22.72142302882531 31:1 39:1 47:1 48:1 56:1 64:1 67:1 68:1 72:1 75:1 80:1 82:1 83:1 88:1 89:1 90:1 95:1 96:1 97:1 98:1 99:1 100:1 101:1 102:1 103:1 
8.788042767502354 50.59529722111457 38.00512333677122 0 0 0 5.268690622477808 0 72.44340745347726 12.54281248214781 0 0 0 0 0 0.3719626489777302 0 0 0 7.779598160649258 0 0 0 0 5.218689218385733 43:1 44:1 45:1 46:1 49:1 50:1 51:1 54:1 55:1 57:1 63:1 64:1 65:1 72:1 73:1 80:1 81:1 82:1 83:1 84:1 85:1 86:1 87:1 88:1 
0.5497174055839924 14.21706535343518 15.13714514992181 13.06291110839074 10.06912511846219 37.96522769785083 27.67393160528219 5.731882539107962 1.817025441024918 11.4405610544287 18.37212515550539 7.312683780244297 10.20683138740465 22.03358083921262 16.72193582001879 10.86039017496509 1.646989694505554 17.79751894067439 5.867176829360937 17.65717163262624 1.216508670560291 9.34231177927497 9.733553508601192 0 20.24553370394534 17:1 18:1 19:1 25:1 26:1 27:1 34:1 35:1 36:1 37:1 42:1 45:1 46:1 50:1 54:1 55:1 58:1 63:1 66:1 67:1 71:1 72:1 75:1 80:1 83:1 88:1 91:1 92:1 96:1 100:1 104:1 108:1 109:1 111:1 112:1 117:1 118:1 119:1 
5.047741724272689 41.3824071125842 20.76133953855241 17.77970565022489 0 0 4.316653491589185 0 36.25492334942378 10.24473500540346 21.76304500468168 0 1.108238847204295 1.173937285543103 0.5884970546281959 29.72074573152882 69.74013966036755 0 0 0.1605462449831521 0 0 0 0 0 41:1 42:1 43:1 44:1 45:1 46:1 47:1 49:1 55:1 56:1 57:1 64:1 65:1 72:1 73:1 74:1 79:1 80:1 82:1 83:1 84:1 85:1 86:1 87:1 
0 0 0.2012127521467395 1.404394133391114 0 0.8294181801741123 0 0 0 0 0 0 2.733667041606267 0 0 0 0 0 6.004929582186902 0 0 0 0 0 0 13:1 14:1 15:1 18:1 19:1 20:1 21:1 23:1 24:1 25:1 26:1 32:1 35:1 40:1 43:1 48:1 50:1 51:1 56:1 58:1 64:1 66:1 72:1 74:1 80:1 81:1 82:1 87:1 88:1 89:1 95:1 97:1 98:1 102:1 103:1 106:1 108:1 109:1 110:1 114:1 115:1 116:1 
22.90698168672099 0 10.51604475503824 2.617803135164678 0 6.96465105763867 0 9.269607520027096 112.2469685089653 0 0 0 1.936998472781357 6.070314964929702 3.82377937949046 0 0 16.47814805641401 7.553800464493788 7.854113331244553 0 0 5.418056423620078 0 7.761085947296491 41:1 42:1 43:1 44:1 45:1 46:1 49:1 52:1 54:1 55:1 56:1 57:1 64:1 65:1 72:1 73:1 74:1 80:1 82:1 83:1 84:1 85:1 86:1 87:1 88:1 
0 0 27.98447140363517 0 0 0 0 0 0 0 0 0 0 0 0 0 0 0 0 0 0 0 0 0 0 26:1 27:1 28:1 29:1 33:1 34:1 35:1 37:1 38:1 39:1 41:1 47:1 48:1 49:1 56:1 57:1 64:1 65:1 72:1 73:1 80:1 81:1 82:1 88:1 90:1 96:1 98:1 99:1 100:1 101:1 102:1 103:1 104:1 
0 0 0 0 0 0 0 0 0 0.4282390788305369 0 0 0 0 0 0 0 0 0 0 0 0 0 0 0 17:1 18:1 19:1 20:1 21:1 26:1 27:1 29:1 30:1 33:1 34:1 35:1 38:1 39:1 41:1 47:1 49:1 55:1 56:1 57:1 64:1 65:1 72:1 73:1 80:1 81:1 88:1 89:1 96:1 97:1 98:1 103:1 104:1 106:1 107:1 108:1 109:1 110:1 111:1 
0 0 0 0 0 0 0 0 24.25691566627392 4.44337526014706 0 0 0 0 0 0 0 0 0 0 0 0 0 0 0 28:1 29:1 30:1 31:1 32:1 35:1 36:1 40:1 43:1 44:1 48:1 50:1 51:1 56:1 58:1 64:1 65:1 66:1 71:1 72:1 73:1 79:1 81:1 86:1 87:1 89:1 93:1 94:1 97:1 98:1 99:1 100:1 101:1 
0 0 0 0 0 0 0 0 0 0 0 0 0 0 0 3.35312849225735 0 0 0 0 0 0 0 0 0 12:1 13:1 14:1 15:1 19:1 20:1 23:1 24:1 26:1 27:1 32:1 33:1 34:1 40:1 41:1 48:1 49:1 56:1 57:1 64:1 65:1 72:1 73:1 79:1 80:1 81:1 87:1 89:1 94:1 95:1 97:1 101:1 102:1 105:1 108:1 109:1 114:1 115:1 116:1 
0 0 0 4.954790334109592 0 0 0 0 0 0 0 0 0 0 0 0 0 0 0 0 0 0 0 1.450977875934291 0 3:1 10:1 11:1 12:1 13:1 18:1 19:1 21:1 22:1 23:1 25:1 26:1 31:1 32:1 33:1 40:1 41:1 48:1 49:1 56:1 57:1 64:1 65:1 72:1 73:1 80:1 81:1 87:1 88:1 89:1 95:1 97:1 102:1 103:1 105:1 110:1 113:1 114:1 115:1 116:1 117:1 118:1 124:1 
0 0 0 0 0 0 0 10.22180068158259 0 0 0 0 0 0 0 0 10.25160211559803 0 0 0 0 0 0 0 0 43:1 44:1 45:1 46:1 47:1 49:1 50:1 52:1 55:1 56:1 57:1 64:1 65:1 72:1 73:1 79:1 80:1 81:1 82:1 83:1 84:1 85:1 86:1 87:1 
2.624532023735159 9.588061187329012 9.636088671093438 0 0 11.35722297674601 7.177955116611192 0 0.82120489517507 1.283912928944425 5.934104742888841 4.737279007738108 0 0 3.309878304997505 0 0 0 0 2.643997714649386 0 1.111487984403691 0 0 2.319620763533521 9:1 10:1 17:1 18:1 19:1 25:1 26:1 27:1 28:1 34:1 36:1 37:1 41:1 42:1 45:1 46:1 49:1 54:1 55:1 57:1 63:1 65:1 71:1 72:1 73:1 80:1 81:1 88:1 89:1 96:1 97:1 104:1 105:1 106:1 107:1 109:1 110:1 111:1 112:1 115:1 116:1 117:1 
0 0 6.669524844928214 0 0 0 0 0 0 0 0 0 0 0 0 0 0 0 0 0 0 0 0 0 0 36:1 37:1 38:1 42:1 43:1 44:1 46:1 47:1 48:1 49:1 50:1 56:1 57:1 64:1 65:1 72:1 73:1 80:1 81:1 82:1 88:1 90:1 91:1 92:1 93:1 94:1 95:1 
0 20.01193652083866 0 0 0 5.350874535766348 0 0 0 0 0 0.7641591790781997 0 0 3.866179047019256 0 0 0 0 0 0 6.946740608087679 0 0 0 35:1 36:1 37:1 38:1 39:1 40:1 42:1 43:1 48:1 50:1 56:1 58:1 64:1 65:1 72:1 73:1 79:1 80:1 81:1 86:1 87:1 89:1 90:1 91:1 92:1 93:1 94:1 
0 15.97850420941686 4.293375193000564 2.496302140177703 0 0 0 0 0 14.4377100645534 0.1161736736860581 0 0.6335604726183662 0 0 1.623624527730891 5.730549060148623 0 0.1823743056582535 0 0 0 0 0 0 11:1 12:1 13:1 14:1 15:1 16:1 19:1 23:1 24:1 26:1 27:1 31:1 32:1 34:1 40:1 42:1 48:1 49:1 50:1 56:1 57:1 63:1 64:1 65:1 71:1 73:1 79:1 81:1 87:1 89:1 94:1 95:1 97:1 102:1 105:1 108:1 109:1 110:1 113:1 114:1 115:1 116:1 
0 0 3.762073001153414 0 0 0.4620377243637797 0 0 0 0 0 0 0 0 0 0 0 0 0 0 0 1.072090026416049 0 0 0 11:1 12:1 13:1 21:1 22:1 25:1 26:1 27:1 28:1 30:1 31:1 33:1 37:1 39:1 41:1 47:1 48:1 49:1 56:1 57:1 64:1 65:1 72:1 73:1 80:1 81:1 88:1 90:1 96:1 99:1 104:1 108:1 109:1 111:1 112:1 117:1 118:1 119:1 
0 0 0 0 0 0 0 0 0 8.684233331129517 0 0 0 0 0 0 0 0 0 0 0 0 0 18.34058313136557 0 28:1 29:1 30:1 31:1 32:1 35:1 36:1 40:1 42:1 43:1 48:1 49:1 50:1 56:1 57:1 64:1 65:1 72:1 73:1 80:1 81:1 88:1 89:1 90:1 91:1 95:1 96:1 99:1 100:1 101:1 102:1 103:1 
0 0 0 11.44193836387926 0 0 0 0 0 0 0 0 0 0 0 0 0 0 0 0 0 0 0 0 0 34:1 35:1 36:1 37:1 38:1 39:1 41:1 42:1 47:1 48:1 49:1 50:1 56:1 57:1 64:1 65:1 72:1 73:1 74:1 79:1 80:1 82:1 83:1 87:1 91:1 92:1 93:1 94:1 95:1 101:1 102:1 
0 3.650861787834725 3.16667541783788 3.85475233672957 0 0 0 0 0 0 0 0 0 0 0 0 0 0 0 0 0 0 0 0 0.3863614010669548 26:1 27:1 28:1 29:1 30:1 33:1 34:1 35:1 38:1 39:1 41:1 42:1 47:1 48:1 49:1 50:1 56:1 58:1 64:1 65:1 66:1 72:1 73:1 79:1 80:1 81:1 86:1 87:1 89:1 92:1 93:1 94:1 97:1 98:1 99:1 100:1 
0 0 0 0 0 0 0 0 0 0 0 0 0 0 0 0 0 0 0 0 0 0 0 15.39051682686261 0 27:1 28:1 29:1 30:1 33:1 34:1 38:1 39:1 41:1 47:1 48:1 49:1 56:1 57:1 64:1 65:1 72:1 73:1 80:1 81:1 88:1 89:1 90:1 91:1 92:1 95:1 96:1 100:1 101:1 102:1 103:1 
0 0 0 0 0 0 0 0 6.706764269440471 0 0 0 0 0 0 0 0 0 0 0 0 0 0 0 0 30:1 31:1 36:1 37:1 38:1 39:1 40:1 43:1 48:1 50:1 56:1 57:1 58:1 64:1 65:1 72:1 73:1 79:1 80:1 81:1 87:1 89:1 93:1 94:1 95:1 97:1 98:1 99:1 100:1 101:1 
0 14.7431739278256 4.08196429315277 2.067702514683276 4.425285657108098 5.062495527763869 5.169351469085234 5.919549298444771 12.37349657457347 21.65763325842718 5.907623100400368 3.836668452757371 13.39484230636784 3.093959926120682 6.70664700237705 12.28139844344996 9.983050959336417 5.040251123690199 22.77977559511731 9.413439444665087 0.4783335360940848 4.113014455153635 0 3.051002557443443 5.879453000168924 4:1 5:1 6:1 7:1 11:1 12:1 15:1 18:1 23:1 24:1 25:1 26:1 27:1 28:1 32:1 33:1 36:1 40:1 41:1 47:1 48:1 49:1 55:1 57:1 63:1 65:1 70:1 73:1 77:1 78:1 81:1 85:1 89:1 92:1 93:1 97:1 98:1 99:1 100:1 105:1 106:1 114:1 122:1 
0 0 0 0 0 0 0 0 0 0 1.43943647614894 0 0 0 0 2.540965323293538 0 0 2.494203013113716 0 0 0 0 0 0 19:1 20:1 21:1 22:1 23:1 24:1 26:1 27:1 28:1 32:1 33:1 34:1 35:1 40:1 42:1 48:1 50:1 56:1 57:1 58:1 64:1 65:1 72:1 73:1 79:1 80:1 81:1 86:1 87:1 89:1 94:1 97:1 101:1 102:1 105:1 106:1 107:1 108:1 109:1 
0 3.252141735593032 13.69735477649789 0 0 0 0 0 0 0 0 0 0 0 0 0 0 0 0 0 0 0 0 0 0 12:1 13:1 20:1 27:1 28:1 29:1 30:1 31:1 35:1 39:1 40:1 43:1 48:1 50:1 51:1 56:1 58:1 64:1 65:1 66:1 72:1 73:1 80:1 81:1 88:1 89:1 95:1 96:1 97:1 102:1 103:1 105:1 109:1 110:1 113:1 114:1 115:1 116:1 117:1 
0 14.87538872045407 16.55007304489359 0 0 0 0 0 16.00472999290034 0 0 0.9792206214607035 0 0 0 0 0 2.028376577535786 0 0 1.813557536911451 0 0 0 0 33:1 34:1 35:1 36:1 37:1 38:1 41:1 46:1 49:1 55:1 57:1 63:1 64:1 65:1 72:1 73:1 80:1 81:1 88:1 89:1 90:1 91:1 92:1 93:1 94:1 95:1 96:1 
0 0 0 0 3.073183538921109 11.65816469065611 2.760930218693398 0 5.921866692661981 0 9.020395769710566 5.537365674768552 3.604204454120652 2.659494599211694 8.16817978358551 0 0 3.416751918224338 0 0 0.2073097922512064 0 0 0 0 17:1 18:1 19:1 20:1 21:1 22:1 25:1 30:1 31:1 33:1 39:1 40:1 48:1 56:1 64:1 65:1 72:1 73:1 80:1 81:1 88:1 89:1 95:1 96:1 97:1 98:1 101:1 102:1 103:1 106:1 107:1 108:1 109:1 
0 31.31422373317389 0 0 0 0 0 0 0 0 0 0 0 0 0 0 0 0 0 0 0 0 0 0 0 34:1 35:1 36:1 37:1 38:1 39:1 41:1 42:1 47:1 48:1 49:1 56:1 57:1 64:1 65:1 72:1 73:1 80:1 81:1 82:1 83:1 84:1 86:1 87:1 88:1 92:1 93:1 94:1 95:1 96:1 
11.39735328746694 0 102.4803685982154 0 17.60614353799204 1.6110811349555 13.55681810617923 22.354396193589 4.597695783034801 12.2478952676811 0.5674804450598632 24.85380442322311 0 5.247082073203204 0.9464428436474608 24.69127163659359 332.1900657521485 0 2.840035080362799 19.05338644155481 4.164351416720344 0 0.2119328916156543 26.49589403383858 7.350357464764166 41:1 42:1 43:1 46:1 47:1 48:1 49:1 56:1 57:1 64:1 65:1 72:1 73:1 80:1 81:1 82:1 83:1 84:1 85:1 86:1 87:1 88:1 
0 0 0 0 0 3.42038972902003 0 0 11.06576946210426 1.441086354717219 0 0 0 0 0 0 1.133167199864617 0 0 0 0 6.742592650294696 0 0 4.658036119023611 37:1 41:1 42:1 43:1 44:1 45:1 46:1 49:1 54:1 55:1 57:1 64:1 65:1 72:1 73:1 80:1 81:1 82:1 87:1 88:1 90:1 91:1 92:1 93:1 94:1 95:1 
0 0.5165079301585156 14.12639619141493 1.023603446235105 10.48444839865747 14.5443034428064 6.76983556544053 7.295561427172686 0 0.402433124230398 3.943286310452172 2.421499955860126 5.20315179704247 7.021641140330745 13.24853488340791 13.30501058805966 5.921775131384265 4.718376595008834 5.013689796575331 6.29201661869655 3.376124741899172 4.930238070743645 1.41590244615017 0 1.623286405523431 2:1 3:1 4:1 5:1 9:1 13:1 17:1 21:1 22:1 25:1 30:1 33:1 38:1 39:1 41:1 47:1 48:1 49:1 56:1 57:1 64:1 65:1 72:1 74:1 80:1 82:1 88:1 90:1 96:1 99:1 104:1 107:1 112:1 115:1 116:1 117:1 119:1 120:1 125:1 126:1 127:1 
0 0 0 0 0 0 0 0 0 0 0 0 0.3136347591151621 0 0 13.02090477943525 25.8563149884256 0 6.159164296339696 0 0 0 0 0 0 17:1 18:1 19:1 20:1 21:1 22:1 23:1 25:1 31:1 33:1 39:1 40:1 41:1 48:1 49:1 56:1 57:1 64:1 65:1 72:1 73:1 79:1 80:1 81:1 82:1 87:1 90:1 95:1 98:1 99:1 102:1 103:1 107:1 108:1 109:1 110:1 
0 0 0 0 0 0 0 0 0 0 0 0.5564120166366481 0 0 0 0 25.87103371355884 0 0 0 0 0 0 3.791548027599539 0 29:1 30:1 34:1 39:1 40:1 42:1 48:1 49:1 50:1 56:1 57:1 64:1 65:1 72:1 73:1 80:1 81:1 87:1 88:1 89:1 90:1 94:1 95:1 98:1 99:1 100:1 101:1 102:1 
0 0 9.844393902310683 0 0 0 4.75845689308567 0 0 0 0 0 0 0 0 9.576782152123785 32.48138478308523 0 0 12.2294777265549 0 0 0 8.87012299148075 0 17:1 22:1 25:1 30:1 31:1 33:1 39:1 40:1 41:1 48:1 49:1 56:1 57:1 64:1 65:1 72:1 73:1 80:1 81:1 88:1 89:1 90:1 96:1 98:1 99:1 104:1 107:1 108:1 109:1 110:1 111:1 112:1 
11.67965946759345 0 23.03114148816535 0 0 0 2.526375393837153 6.686763187173609 6.799359745015948 0 0 0 0 0 0 0 0 0 0 0 0 0 0 6.648122573232363 0 29:1 37:1 45:1 46:1 49:1 50:1 51:1 55:1 56:1 57:1 59:1 64:1 65:1 72:1 73:1 80:1 81:1 88:1 89:1 95:1 98:1 99:1 100:1 101:1 102:1 
0 0 4.924268732857644 0 0 0 0 0 0 0 0 0 0 0 0 0 0 0 0 0 0 0 0 0 0 20:1 21:1 22:1 27:1 28:1 30:1 35:1 37:1 38:1 39:1 40:1 42:1 43:1 48:1 49:1 50:1 56:1 57:1 64:1 65:1 72:1 73:1 80:1 81:1 88:1 89:1 90:1 96:1 98:1 99:1 102:1 103:1 108:1 109:1 110:1 
1.676284498113812 0 0 0 0 2.142509612237486 7.857916474141023 0 0 0 0 0 0 0 4.688014365521243 0 0 0 0 2.87699293688877 0.8357286717891061 0 0 0 1.961285502017822 2:1 3:1 9:1 10:1 11:1 12:1 17:1 18:1 20:1 21:1 25:1 29:1 30:1 33:1 38:1 39:1 41:1 47:1 49:1 55:1 56:1 57:1 64:1 65:1 72:1 73:1 80:1 81:1 88:1 89:1 96:1 97:1 104:1 105:1 111:1 112:1 113:1 118:1 119:1 121:1 122:1 123:1 124:1 125:1 126:1 
21.30848119935257 0 37.94734243072433 0 0 8.716670572969653 4.037940829181318 6.816566481641949 0 26.03113929951798 18.12844021351358 0 0 6.222797457446533 0 0 0 0 0 0 0 0.9678028787874349 0.697640240185099 1.266100110712265 2.3769258173029 34:1 35:1 36:1 37:1 38:1 39:1 42:1 43:1 47:1 49:1 50:1 51:1 55:1 56:1 57:1 59:1 64:1 66:1 67:1 72:1 75:1 80:1 83:1 84:1 88:1 92:1 93:1 94:1 95:1 96:1 
0 0 0 0 0 0 0 0 0 0 0 0 0 0 0 0 0 0 0 0 1.540445138170898 0 0 0 0 33:1 34:1 35:1 36:1 41:1 42:1 45:1 46:1 49:1 54:1 55:1 57:1 63:1 64:1 65:1 72:1 73:1 80:1 81:1 82:1 88:1 90:1 91:1 92:1 93:1 94:1 95:1 96:1 
2.420936730279232 1.793432724754584 40.21161929225904 0 4.682265844235982 10.00946602155187 13.52687728107703 0.8329597223195038 26.31236115609876 5.368985064095562 8.157719755619677 1.294214899470395 0.2535109702996997 0 0.9334086181637469 0 0 13.67506870652281 0 19.77234519952039 0.1461923308968063 0.4513521163050732 4.896734166579821 0 2.352451237977906 26:1 27:1 33:1 34:1 35:1 36:1 37:1 41:1 45:1 46:1 49:1 54:1 57:1 62:1 63:1 65:1 71:1 72:1 73:1 80:1 81:1 82:1 88:1 90:1 91:1 96:1 99:1 100:1 101:1 102:1 103:1 104:1 
0 38.15550937372053 12.72550144782497 0 5.821370177586225 1.235459072132161 0 0 6.132432765991495 3.283096039940749 3.352251302083344 9.252448655052385 0 4.871321317517923 18.34245421025221 12.39073760956115 37.2067893116576 0 0 2.956954058334116 7.987879163623572 0 0 0 0 29:1 30:1 31:1 36:1 37:1 39:1 40:1 48:1 49:1 56:1 57:1 63:1 64:1 65:1 71:1 73:1 78:1 79:1 81:1 85:1 86:1 89:1 93:1 97:1 98:1 99:1 100:1 
0 0 0 0 0 0 0 0 12.19585227431271 0 0 0 0 0 0 0 0 0 0 0 0 0 0 0 0 20:1 21:1 22:1 23:1 31:1 32:1 34:1 35:1 36:1 37:1 40:1 42:1 48:1 49:1 56:1 57:1 64:1 65:1 72:1 73:1 80:1 81:1 87:1 89:1 94:1 95:1 97:1 98:1 102:1 106:1 107:1 108:1 109:1 
0 0 21.34296600542978 0 0 0 0 0 0 0 0 0 0 0 0 0 0 0 0 0 0 0 0 0.4111832586865506 0 36:1 37:1 38:1 39:1 40:1 42:1 43:1 44:1 48:1 49:1 50:1 56:1 57:1 64:1 65:1 71:1 72:1 73:1 78:1 79:1 81:1 85:1 86:1 89:1 90:1 91:1 92:1 
0 0 0 3.569658168586699 0 0 0 0 0 0 0 0 0 0 0 0 0 0 0 0 0 0 0 0 0 28:1 29:1 30:1 34:1 35:1 36:1 38:1 39:1 42:1 47:1 48:1 49:1 50:1 56:1 57:1 64:1 65:1 72:1 73:1 74:1 80:1 82:1 83:1 84:1 85:1 87:1 88:1 93:1 94:1 95:1 103:1 
0 3.059914633578641 31.23591608721322 0 0 0 0 0 0 0 2.407914807630489 0 0 0 0 0 0 0 0 0 0 0 0 0 0 28:1 29:1 30:1 35:1 36:1 38:1 39:1 42:1 43:1 47:1 48:1 49:1 50:1 56:1 57:1 64:1 65:1 72:1 73:1 80:1 81:1 82:1 83:1 84:1 88:1 92:1 93:1 94:1 96:1 103:1 104:1 
0 0 42.77979381203436 0 0 0 0 6.288626420232105 0 10.42158620952003 21.03887911538333 0 3.248898662603497 0.6525146133714411 4.985936781459827 17.1901736376004 0 0 0 0 0 0 0 0 0 35:1 36:1 37:1 39:1 40:1 41:1 42:1 43:1 48:1 49:1 56:1 57:1 64:1 65:1 72:1 73:1 74:1 79:1 80:1 83:1 86:1 87:1 92:1 93:1 94:1 
0 0 0 0 0 0 0 0 0 0 0 0 0 0 0 0 0 0 0 0 0 0 0 5.214598789545238 0 31:1 35:1 36:1 39:1 40:1 42:1 43:1 48:1 49:1 50:1 56:1 57:1 64:1 65:1 72:1 73:1 80:1 81:1 88:1 89:1 90:1 95:1 96:1 99:1 100:1 101:1 102:1 103:1 
0 0 0 20.32035520232168 0 0 0 0 39.76349382415789 0 3.57373919348702 0 0 0 0 0 18.39486352559445 0 0 0 0 0 0 0 0 22:1 23:1 29:1 30:1 32:1 36:1 40:1 43:1 48:1 50:1 56:1 57:1 58:1 64:1 65:1 71:1 72:1 73:1 79:1 81:1 86:1 87:1 89:1 93:1 94:1 97:1 98:1 99:1 100:1 101:1 106:1 107:1 
0 0.8077747823852298 0 0 0 0 0 0 0 0 0 0 0 0 0 0 0 0 0 0 0 0 0 0 0 20:1 27:1 28:1 35:1 38:1 39:1 43:1 47:1 50:1 51:1 55:1 56:1 58:1 64:1 65:1 66:1 72:1 73:1 80:1 81:1 87:1 88:1 89:1 94:1 95:1 97:1 98:1 99:1 100:1 101:1 102:1 107:1 108:1 
1.284136495785474 0 2.91290691626949 0.1191497203284298 0 0 1.771590862413787 0.103137046454721 0 0.779270567271513 0 0 0 0 3.599768792309336 0 0 1.072005662723623 0 1.074883530019923 0 2.479116717064449 0 0 3.2309488701931 2:1 3:1 9:1 10:1 11:1 12:1 13:1 14:1 17:1 21:1 22:1 25:1 30:1 33:1 38:1 39:1 41:1 47:1 48:1 49:1 56:1 57:1 64:1 65:1 72:1 73:1 80:1 81:1 88:1 89:1 96:1 97:1 104:1 105:1 112:1 113:1 119:1 120:1 121:1 122:1 123:1 124:1 125:1 126:1 127:1 
0.6967977385140923 13.88843527240516 8.707995039581578 11.17451788833825 14.41246316186153 25.91893473714336 18.68373253323928 14.55309382127625 8.98401278324758 21.42029070654015 19.07124046646494 9.460638095203752 13.7542563213361 23.10398584076314 11.62993546837383 0 5.823906148552558 13.08877191010613 7.492132112058583 10.15704847296432 18.76375246663513 6.65143715440157 10.40651751299543 0 15.50455978041233 3:1 4:1 5:1 11:1 13:1 21:1 27:1 28:1 29:1 35:1 37:1 43:1 45:1 50:1 51:1 53:1 58:1 61:1 62:1 66:1 70:1 74:1 78:1 82:1 86:1 87:1 90:1 95:1 98:1 103:1 106:1 110:1 111:1 114:1 115:1 118:1 123:1 124:1 125:1 126:1 
0 0 0 1.288634091154238 0 0 0 0 0 0 0 0 0 0 0 0 0 0 0 0 0 0 0 0 0 25:1 26:1 27:1 33:1 35:1 36:1 37:1 38:1 41:1 46:1 47:1 49:1 50:1 55:1 56:1 57:1 58:1 64:1 65:1 66:1 72:1 73:1 80:1 81:1 87:1 88:1 89:1 90:1 94:1 95:1 98:1 99:1 100:1 101:1 102:1 
0 7.664864952626951 0 0 0 0 0 0 0 0 0 0 0 0 0 0 0 0 0 0 0 0 0 0 0 34:1 35:1 36:1 37:1 38:1 41:1 42:1 45:1 46:1 49:1 54:1 55:1 57:1 63:1 64:1 65:1 72:1 73:1 80:1 81:1 82:1 83:1 88:1 91:1 92:1 93:1 94:1 95:1 96:1 
0 0 0 1.672770691302795 0 1.362350705069296 0 0 0 0 0 0 0 0 0 0 0 0 3.897564443323571 0 0 0 0 0 0 2:1 3:1 4:1 10:1 11:1 12:1 18:1 19:1 20:1 21:1 25:1 26:1 29:1 30:1 31:1 32:1 33:1 40:1 41:1 48:1 49:1 56:1 57:1 64:1 65:1 72:1 73:1 80:1 81:1 88:1 89:1 96:1 97:1 104:1 105:1 111:1 112:1 113:1 114:1 118:1 119:1 122:1 123:1 124:1 125:1 126:1 
0 52.53508763592131 10.29218044057119 0 1.322508320226914 18.7960273573157 11.09746146519444 5.0917023204237 10.85066565337851 13.34876944251105 13.93797131680117 0 4.201811689721185 9.003315733439054 0 0 4.167659488885104 17.25386581247229 0 13.22167672783857 0 0.6830683399424834 12.18487362516595 3.38731686145969 10.12668807429494 34:1 35:1 36:1 41:1 42:1 44:1 46:1 49:1 52:1 54:1 55:1 57:1 63:1 64:1 65:1 72:1 73:1 74:1 75:1 80:1 83:1 84:1 85:1 88:1 93:1 94:1 95:1 96:1 
22.83799893544246 13.74595748318773 0 0 0 0 0 0 0 40.14107936410349 0 0 0 0 0 0 0 0 0 0 0 0 0 0 0.8809516976537706 34:1 35:1 36:1 41:1 42:1 44:1 45:1 46:1 49:1 50:1 51:1 52:1 54:1 55:1 57:1 60:1 63:1 64:1 65:1 72:1 73:1 80:1 81:1 82:1 85:1 86:1 87:1 88:1 90:1 91:1 92:1 93:1 
0 0 4.492565413844093 0 0 0 0 5.449417592705124 0 0 0 5.280665949092513 0 0.09623955710408809 0 0.8905919693237622 0 0 0 0 0 0 0 0 0 19:1 27:1 28:1 29:1 30:1 35:1 38:1 39:1 42:1 43:1 48:1 50:1 56:1 57:1 58:1 64:1 65:1 72:1 73:1 79:1 80:1 81:1 87:1 89:1 94:1 97:1 101:1 102:1 105:1 106:1 107:1 108:1 109:1 
0 0 0 0 0 6.05238339363837 0 0 0 0 0 0 0 0 0 0 0 0 0 0 0 0 0 0 0 4:1 5:1 6:1 11:1 12:1 13:1 14:1 15:1 18:1 19:1 21:1 22:1 23:1 26:1 27:1 30:1 31:1 34:1 39:1 41:1 42:1 47:1 48:1 49:1 56:1 57:1 64:1 65:1 72:1 73:1 80:1 81:1 88:1 89:1 96:1 97:1 103:1 104:1 105:1 106:1 110:1 111:1 114:1 118:1 122:1 123:1 124:1 125:1 126:1 
0 1.353372820069781 7.89670221627347 0 0 0 0 0 0.5832128049118055 0 0 0 0 0 0 0 0 0 0 0 0 0 0 0 0 28:1 35:1 36:1 37:1 38:1 39:1 42:1 43:1 47:1 50:1 55:1 56:1 57:1 58:1 64:1 65:1 72:1 73:1 80:1 81:1 88:1 89:1 90:1 95:1 96:1 98:1 99:1 100:1 101:1 102:1 103:1 
0 0 0 0 0 26.9507495417021 0 0 0 0 0 0 0 0 3.191106017545044 0 5.04955595202521 0 0 0 0 0 0 0 0 28:1 29:1 30:1 31:1 32:1 40:1 43:1 44:1 45:1 46:1 48:1 50:1 54:1 56:1 57:1 64:1 65:1 71:1 72:1 73:1 79:1 81:1 86:1 87:1 89:1 90:1 93:1 94:1 98:1 99:1 100:1 101:1 
57.65385486449367 210.0098140387943 143.854313798287 5.517507043349831 0 3.12860503010671 2.310802618996202 19.075521748675 70.4303991547249 120.8090099415313 0 27.68897594897854 0 0 2.435696825525848 13.12566006172566 43.0236458452087 48.98912373130981 28.06522612234474 0 1.074666504626763 0 0 40.49112477022082 0 50:1 51:1 52:1 53:1 54:1 55:1 56:1 57:1 58:1 64:1 65:1 72:1 73:1 74:1 75:1 76:1 77:1 78:1 79:1 80:1 
0 0 13.78898016474909 12.71019293154447 0 3.326998819741369 5.864322672541038 7.380641490580303 0 0 23.68649430920273 0 3.805038975777556 1.120327452683852 10.88646567449959 4.779544383285155 0 6.290252786184062 9.877060110055297 0 0 1.99117966139962 0 0 0 28:1 29:1 30:1 31:1 32:1 34:1 35:1 36:1 40:1 41:1 42:1 43:1 48:1 49:1 50:1 56:1 58:1 64:1 66:1 72:1 74:1 80:1 82:1 87:1 88:1 90:1 91:1 93:1 94:1 95:1 99:1 100:1 101:1 
54.7305049067955 83.66153029736043 206.183181776057 0 31.85584794964138 48.95585860346611 0 45.63659180689385 54.01650276919813 0 47.66976337735436 21.28852635467931 11.55618074954895 31.3652709116845 28.40322732010431 0 6.466946749896691 14.96855718994576 2.671072748701333 0.05182791012123589 20.58926830682129 1.311819999443097 36.79533753267335 0 0 35:1 36:1 42:1 43:1 44:1 45:1 49:1 50:1 53:1 54:1 55:1 57:1 63:1 65:1 71:1 72:1 73:1 80:1 81:1 87:1 88:1 95:1 
0.9397227943480444 0 46.18045082071643 0 0 0 0 0 0 0 0 0 0 0 0 0 0 0 0 0 0 0 0 0 0 35:1 36:1 37:1 38:1 42:1 43:1 46:1 47:1 48:1 49:1 50:1 56:1 57:1 58:1 64:1 65:1 66:1 72:1 73:1 80:1 81:1 82:1 83:1 88:1 91:1 92:1 93:1 94:1 95:1 96:1 
0.8292544345982181 0 0 0 5.31941587426246 6.75958933461317 0 4.284654559204181 5.427606994606714 0 0 3.170980331958544 6.492224406077747 2.892539248121855 7.572948384110308 14.71953416721998 22.74120516419226 0 0 3.621022084064548 0.7165380463014512 1.177944361364235 0 0 0 11:1 12:1 13:1 14:1 15:1 16:1 18:1 19:1 24:1 25:1 26:1 32:1 33:1 40:1 41:1 48:1 49:1 56:1 57:1 64:1 65:1 72:1 73:1 80:1 88:1 96:1 99:1 100:1 104:1 108:1 109:1 111:1 112:1 117:1 118:1 119:1 
0 0 16.68910855248179 0 0 0 0 0.267356898400298 0 0.7560054781757446 0 0 0 0 0 0 0 0 0 0 0 0 0 0 0 34:1 35:1 36:1 37:1 38:1 39:1 40:1 41:1 42:1 48:1 49:1 56:1 57:1 64:1 65:1 72:1 73:1 74:1 80:1 82:1 83:1 87:1 88:1 91:1 92:1 93:1 94:1 
14.83110968826557 0 43.87141691766922 0 0 0 0 9.498596999308397 4.644134600953451 0 0 0 0 0 0 0 0 0 0 0 0 0 0.3432732969143664 0 0 37:1 38:1 45:1 46:1 47:1 48:1 50:1 51:1 52:1 53:1 54:1 56:1 57:1 58:1 64:1 65:1 72:1 73:1 79:1 80:1 81:1 85:1 86:1 89:1 90:1 91:1 92:1 93:1 
0 0 0 0 0 0 0 0 8.45650312821199 0 0 0 0 0 0 0 0 0 0 0 0 0 0 0 0 22:1 23:1 27:1 28:1 29:1 30:1 31:1 32:1 34:1 35:1 37:1 38:1 40:1 42:1 45:1 48:1 50:1 56:1 57:1 58:1 64:1 65:1 72:1 73:1 80:1 81:1 88:1 89:1 95:1 97:1 101:1 102:1 103:1 105:1 106:1 107:1 108:1 109:1 
0 0 0 21.9222719309669 0 0 0 0.6990547577459866 0 0 0 0.7295269337086464 0 0 8.690081192695482 0 0 0 0 0 0 0 0 0 0 33:1 34:1 35:1 36:1 37:1 38:1 39:1 40:1 41:1 48:1 56:1 64:1 65:1 66:1 72:1 73:1 79:1 80:1 81:1 87:1 89:1 94:1 95:1 97:1 98:1 99:1 100:1 101:1 102:1 
0 3.362312990645957 0 0 0 3.491924239818612 0 0 0 0 0 0 0 0 0 0 0 0 0 0 0 0 0 0 0 1:1 2:1 3:1 9:1 12:1 13:1 17:1 21:1 22:1 25:1 30:1 31:1 33:1 34:1 35:1 36:1 37:1 38:1 39:1 41:1 47:1 49:1 55:1 56:1 57:1 64:1 65:1 72:1 73:1 80:1 81:1 88:1 89:1 96:1 97:1 104:1 105:1 106:1 112:1 114:1 115:1 119:1 120:1 123:1 124:1 125:1 126:1 
0 0 12.5007650860539 11.51757209134068 0 0 0 0 0 0 0 0 0 0 0 0 0 0 0 0 0 0 0 0 0 31:1 32:1 37:1 38:1 39:1 40:1 44:1 45:1 46:1 48:1 52:1 56:1 59:1 60:1 63:1 64:1 66:1 67:1 71:1 73:1 74:1 77:1 78:1 79:1 81:1 84:1 85:1 89:1 91:1 92:1 97:1 98:1 99:1 
0.3116635579558929 10.38662216770212 0 0 0 3.732550911157902 0 0 0 0 6.508814847138779 0 0 0 0 0 0 0 0 0 0 0 0 0 0 22:1 23:1 24:1 29:1 30:1 31:1 32:1 36:1 37:1 39:1 40:1 43:1 44:1 47:1 48:1 50:1 51:1 56:1 58:1 64:1 65:1 66:1 71:1 72:1 73:1 79:1 81:1 86:1 87:1 89:1 93:1 94:1 97:1 99:1 100:1 101:1 105:1 106:1 107:1 
0 0 0 10.35850172504474 0 0 0 0 0 0 0 0 0 0 0 0 0 0 0 0 0 0 0 0 0 29:1 30:1 36:1 37:1 38:1 39:1 40:1 44:1 48:1 51:1 56:1 58:1 59:1 64:1 66:1 71:1 72:1 73:1 74:1 78:1 79:1 81:1 85:1 86:1 89:1 92:1 93:1 97:1 98:1 99:1 100:1 
0 0 0 0 0 0 0 0 0.133643621752034 0 0 0 0 0 0 0 0 0 0 0 0 0 0 0 0 34:1 35:1 36:1 37:1 38:1 39:1 40:1 42:1 48:1 49:1 50:1 56:1 57:1 64:1 65:1 72:1 73:1 80:1 81:1 86:1 87:1 88:1 89:1 90:1 91:1 92:1 93:1 94:1 
0 0 0 0 0 0 0 6.677223331577338 37.05704484505239 27.82858602041319 0 0 0 0 0 0 0 0 0 0 0 0 0 0 0 35:1 36:1 37:1 38:1 39:1 40:1 42:1 43:1 48:1 49:1 50:1 56:1 57:1 64:1 65:1 72:1 73:1 78:1 79:1 81:1 85:1 86:1 89:1 90:1 91:1 92:1 93:1 
3.963055305089283 30.17383788806614 0 0 0 8.350884123880769 0 0 45.46361614293397 53.37435812073138 13.15065887317502 0 0 2.417106914145776 0 0 0 5.227506784517684 0 0 0 1.252516994684957 11.00171093858164 0 0 35:1 36:1 43:1 44:1 45:1 49:1 50:1 51:1 53:1 54:1 57:1 62:1 63:1 65:1 71:1 72:1 73:1 80:1 81:1 82:1 88:1 90:1 91:1 92:1 93:1 94:1 95:1 96:1 
0 0 0 0 0 0 0 0 2.018065296091619 0 0 0 0 0 0 0 14.36285197717673 0 0 0 0 0 0 0 0 31:1 32:1 38:1 39:1 40:1 44:1 45:1 48:1 50:1 51:1 52:1 53:1 56:1 57:1 58:1 64:1 65:1 71:1 72:1 73:1 78:1 79:1 81:1 84:1 85:1 86:1 89:1 91:1 92:1 97:1 98:1 99:1 
1.44354436022838 0 29.45415061974685 0.1083425830153011 0 6.224597318502733 0 1.181978079974979 0.7670106047018761 0 0 0.9974695864121843 0 0 0 0 0 0 0 0 0 0 0 0 0 19:1 20:1 21:1 29:1 30:1 34:1 38:1 39:1 42:1 47:1 48:1 49:1 50:1 56:1 57:1 64:1 65:1 72:1 73:1 80:1 81:1 88:1 89:1 96:1 98:1 104:1 107:1 108:1 109:1 110:1 111:1 112:1 
0 12.15222323370569 0 0 0 0 0 0 0 0 3.682164638115295 0 0 0 0 0 0 0 0 0 0 0 0 0 0 27:1 28:1 29:1 34:1 35:1 37:1 38:1 42:1 46:1 47:1 49:1 55:1 57:1 63:1 64:1 65:1 72:1 73:1 80:1 81:1 82:1 88:1 90:1 91:1 95:1 96:1 99:1 100:1 101:1 102:1 103:1 
0 8.703553031772609 9.89869360619381 0 0 0.3671384992773083 0 0 0 7.649638623757022 0 0 0 0 0 0 0 0 0 0 0 0 0 0 0 6:1 13:1 14:1 20:1 21:1 22:1 27:1 28:1 30:1 31:1 34:1 35:1 39:1 40:1 42:1 48:1 49:1 50:1 56:1 57:1 64:1 65:1 72:1 73:1 80:1 81:1 88:1 89:1 96:1 97:1 104:1 105:1 106:1 112:1 114:1 119:1 120:1 123:1 124:1 125:1 126:1 127:1 
36.53980212252149 28.66071996419802 12.39519325376958 0 21.26379881935491 18.53431014177247 5.798683460533515 16.01819985729831 2.402087732177888 14.949745256344 0 22.82485003996667 11.88466473299013 16.05502728975085 0 0 0 0 0 10.34400228785782 0 3.949753724372317 25.98024773662206 10.99342841131501 17.642079727403 43:1 44:1 50:1 51:1 52:1 53:1 54:1 55:1 56:1 57:1 58:1 64:1 65:1 72:1 73:1 76:1 77:1 78:1 79:1 80:1 81:1 82:1 83:1 84:1 
0 0 0 0 0 0 0 0 0 0 0 0 0 0 0 0 0 0 0 0 0 0 0 0 0.05968672996371961 17:1 18:1 19:1 20:1 21:1 22:1 25:1 30:1 31:1 33:1 39:1 40:1 41:1 48:1 49:1 56:1 57:1 64:1 65:1 72:1 73:1 80:1 81:1 88:1 89:1 95:1 96:1 97:1 98:1 102:1 103:1 106:1 107:1 108:1 109:1 110:1 
0 0.8512094816274858 0 0 0 0 0 0 0 0 0 0 0 0 0 0 0 0 0 0 0 0 0 0 0 11:1 12:1 13:1 18:1 19:1 20:1 21:1 22:1 26:1 28:1 29:1 30:1 31:1 34:1 39:1 41:1 47:1 49:1 55:1 56:1 57:1 64:1 65:1 72:1 73:1 80:1 81:1 88:1 89:1 95:1 96:1 97:1 102:1 103:1 105:1 106:1 109:1 110:1 114:1 115:1 116:1 117:1 
9.691464180194593 16.12383042037755 33.92030924727518 21.81650876430846 42.56842507512525 52.00037567720426 20.08256681977611 29.45093477140617 27.20359328166513 25.32344153325835 31.70679689304595 31.76581529198005 41.45538976601274 46.52018499134294 35.48028834602381 13.42257789332367 11.98482300812622 23.73390624359756 21.7888868516022 11.73105683208721 18.83556031515694 11.59079451800954 15.76229411536749 1.206214314439225 24.12299133595684 5:1 6:1 13:1 20:1 21:1 28:1 29:1 36:1 37:1 38:1 43:1 44:1 46:1 51:1 54:1 59:1 62:1 67:1 70:1 75:1 78:1 83:1 86:1 91:1 94:1 99:1 102:1 107:1 110:1 115:1 118:1 123:1 124:1 125:1 
0 0 0 0 0 0 0 0 0 0 0 0 0 0 0 0 0 0 0 0 0 12.93851486188995 0 0 0 34:1 35:1 36:1 37:1 38:1 39:1 40:1 42:1 43:1 44:1 48:1 50:1 56:1 57:1 64:1 65:1 72:1 73:1 80:1 81:1 87:1 88:1 89:1 90:1 91:1 92:1 93:1 94:1 95:1 
2.862695723740281 8.197751334041813 0 1.700550347946808 2.158183049313433 0 5.210059219449125 5.640361276654795 0 0 8.244540540552796 1.077362342811807 5.280838485400486 11.50092654768893 14.18393046204077 13.93136041698334 23.4547412459427 5.71981814600079 3.240908355126092 2.060444493755555 2.152218025037239 3.860101822834836 0 0 3.571226288553387 26:1 27:1 28:1 29:1 30:1 33:1 34:1 38:1 39:1 41:1 47:1 48:1 49:1 56:1 57:1 64:1 65:1 71:1 72:1 73:1 79:1 83:1 87:1 91:1 92:1 95:1 100:1 101:1 102:1 
16.47896409345192 40.89843173001183 4.841345317464556 15.04266157603566 3.70212016185686 23.25295167750393 29.46638608641631 12.04102490780529 52.77368415829867 20.24076451814972 30.66719864590097 12.15730252574837 4.33607810255569 3.197716112912342 12.61573431975838 19.45720817964525 62.04788690226707 10.6510462916557 6.372767957917586 33.65958176142768 2.575773748385681 2.45232691250918 10.87477997957525 14.80684715914368 37.50086776087531 25:1 33:1 41:1 49:1 50:1 51:1 52:1 57:1 61:1 65:1 69:1 70:1 71:1 72:1 73:1 79:1 80:1 81:1 86:1 87:1 89:1 90:1 91:1 93:1 94:1 99:1 100:1 101:1 
0 10.82858324396136 15.81688654384888 0 5.169586964013915 0.1955617356040666 4.486216770436863 1.087651786160575 1.245981369954622 0.8994149819920266 0 3.080518798336135 1.128592020952858 0 0.3328502796533958 0.3149880857225343 20.58957457126419 0 9.502190716235768 3.317729182068886 0 0 0 4.559562425940622 0 9:1 10:1 11:1 12:1 13:1 14:1 17:1 22:1 23:1 25:1 31:1 32:1 33:1 40:1 41:1 48:1 49:1 56:1 57:1 64:1 65:1 72:1 73:1 80:1 81:1 88:1 89:1 96:1 97:1 98:1 104:1 106:1 112:1 115:1 116:1 117:1 118:1 119:1 120:1 
0 4.34416165568083 0 0 0 1.098262968607833 0 0 0 0 0 0 0 0 0.8437296666179527 0 0 0 0 0 0 0 0 0 0 18:1 19:1 20:1 21:1 29:1 30:1 36:1 38:1 39:1 44:1 47:1 50:1 51:1 52:1 55:1 56:1 57:1 58:1 64:1 65:1 72:1 73:1 80:1 81:1 88:1 89:1 96:1 97:1 98:1 103:1 104:1 106:1 107:1 108:1 109:1 110:1 111:1 
0 0 0 1.879700894293195 0 0 3.8697119673167 0 0 0.2521048296999797 0 0 2.3430445819088 0 0 3.280045217547834 0 0 0 0 0 0 0 0.5023189073812582 3.145291285132843 1:1 2:1 3:1 9:1 11:1 12:1 13:1 17:1 21:1 22:1 26:1 30:1 31:1 34:1 39:1 42:1 48:1 49:1 50:1 56:1 57:1 64:1 65:1 66:1 72:1 74:1 80:1 82:1 88:1 90:1 91:1 96:1 99:1 103:1 104:1 107:1 108:1 110:1 111:1 116:1 117:1 118:1 126:1 
0 36.25560076351876 0 0 0 3.275887015195013 0 0 0 3.547687689996484 7.407057384474096 0 0 0 0 0 0 0 0 0 0 0 0 0 0 27:1 28:1 29:1 34:1 35:1 36:1 37:1 41:1 42:1 45:1 46:1 49:1 54:1 55:1 57:1 63:1 65:1 71:1 72:1 73:1 80:1 81:1 82:1 88:1 90:1 91:1 92:1 96:1 100:1 101:1 102:1 103:1 104:1 
0 0 0 0 0 0 0 0 0 0 0 0 0 0 0 0 0 0 0 0 0 0.106025920354129 0 0 0 20:1 21:1 22:1 26:1 27:1 28:1 29:1 30:1 31:1 33:1 34:1 36:1 38:1 39:1 41:1 48:1 49:1 56:1 57:1 64:1 65:1 72:1 73:1 79:1 80:1 81:1 87:1 89:1 94:1 95:1 97:1 101:1 102:1 105:1 106:1 107:1 108:1 109:1 
0.3707027622296263 20.31227564603874 0 0 0 8.818110168110852 0 0 9.367343086200201 0 0 0 0 4.150177056603575 1.136615556948711 0 0 7.526213828079767 0 0 0 0 0 0 0 19:1 20:1 21:1 26:1 27:1 29:1 30:1 34:1 38:1 39:1 47:1 49:1 55:1 56:1 57:1 64:1 65:1 72:1 73:1 80:1 81:1 88:1 89:1 96:1 97:1 98:1 104:1 107:1 108:1 109:1 110:1 111:1 
0 3.403746120476628 0 0 0 2.732635362637417 0 0 0 0 0 0 0 0 0 0 0 0 0 0 0 0 0 0 0 3:1 11:1 12:1 20:1 21:1 27:1 28:1 29:1 30:1 31:1 32:1 34:1 35:1 38:1 39:1 40:1 41:1 42:1 47:1 48:1 49:1 55:1 56:1 57:1 63:1 64:1 65:1 72:1 73:1 80:1 81:1 88:1 89:1 90:1 96:1 98:1 104:1 106:1 107:1 112:1 115:1 116:1 118:1 119:1 120:1 124:1 125:1 126:1 
0 0 0 0 0 0 2.10054057208551 0 0 0 0 0 0 0 0 9.174060217887037 20.40281014289428 0 0 0 0 0 0 4.447802129694669 0 19:1 20:1 21:1 22:1 25:1 26:1 30:1 31:1 32:1 33:1 40:1 41:1 48:1 49:1 56:1 57:1 64:1 65:1 72:1 73:1 80:1 81:1 87:1 88:1 89:1 94:1 95:1 97:1 100:1 101:1 102:1 105:1 106:1 107:1 108:1 
0 0 0 0 0 0 0 0 0 2.373152041236367 0 0 0 0 0 0 0 0 0 0 0 0 0 0 0 19:1 20:1 21:1 22:1 26:1 27:1 30:1 31:1 33:1 34:1 39:1 40:1 41:1 48:1 49:1 56:1 57:1 64:1 65:1 72:1 73:1 80:1 81:1 88:1 89:1 95:1 96:1 97:1 98:1 102:1 103:1 106:1 107:1 108:1 109:1 110:1 
0 0 0 0 0 0 0 0 0 0 0 0 0 0 0 3.837571525894083 0 0 0 0 0 0 0 0 0 20:1 21:1 22:1 23:1 27:1 28:1 31:1 32:1 35:1 40:1 42:1 43:1 48:1 49:1 50:1 56:1 57:1 64:1 65:1 72:1 73:1 79:1 80:1 81:1 87:1 89:1 94:1 95:1 97:1 98:1 101:1 102:1 106:1 107:1 108:1 109:1 
0 1.217408680652138 0 0 0 0 0 0 0 0 0 0 0 0 0 0 0 0 0 0 0 0 0 0 0 9:1 10:1 11:1 12:1 20:1 21:1 22:1 30:1 31:1 34:1 35:1 39:1 40:1 42:1 48:1 49:1 50:1 56:1 57:1 64:1 65:1 72:1 73:1 80:1 81:1 88:1 89:1 96:1 97:1 102:1 103:1 104:1 105:1 109:1 110:1 113:1 114:1 115:1 116:1 117:1 
0 0 0 0 0 0 0 0 0 0 0 0 0.7612316210818497 0 0 0 0 0 0 0 0 0 0 0 0.05909657851240253 36:1 37:1 38:1 39:1 42:1 43:1 44:1 47:1 48:1 49:1 50:1 56:1 57:1 64:1 65:1 72:1 73:1 78:1 79:1 80:1 81:1 82:1 83:1 85:1 86:1 91:1 92:1 93:1 
6.16005332877713 18.52937943708806 10.55941777777179 23.5077819883194 11.80388576999414 18.50619579068348 12.54191968254916 13.07455352088013 25.13066411217653 19.62215087867035 22.63322955427502 7.237454080627291 13.99050899071777 16.80078394108353 17.50746944586066 5.047900520705304 2.728341993623947 8.740563044498872 6.808700499023282 12.47374531075149 5.611439535300588 5.116701080686834 6.869015255272891 0 12.674431791256 7:1 14:1 15:1 22:1 29:1 30:1 36:1 37:1 39:1 43:1 44:1 47:1 51:1 55:1 58:1 59:1 63:1 66:1 71:1 74:1 79:1 82:1 86:1 87:1 90:1 94:1 98:1 101:1 102:1 106:1 109:1 114:1 116:1 117:1 122:1 123:1 124:1 
3.160926710665537 8.936005420865634 26.45978591143691 15.87930029291136 10.48022620169752 17.29837150231065 8.906362880715289 13.06291198802346 0 5.858860159352531 12.13668791361084 6.890591499280565 9.757162958119389 13.83977498934328 27.78080171525593 17.31517717934791 7.180496082787232 10.97659731473813 10.87717301239745 3.533860450713107 11.52716283806431 3.896567077360249 8.594679766175489 2.774373556889814 4.434870699190631 7:1 8:1 15:1 22:1 24:1 30:1 32:1 37:1 40:1 45:1 48:1 52:1 53:1 56:1 60:1 64:1 67:1 68:1 71:1 72:1 75:1 79:1 82:1 87:1 90:1 94:1 97:1 102:1 105:1 109:1 110:1 113:1 117:1 121:1 122:1 123:1 124:1 
0 3.965343956163447 22.45632499328357 0 0 19.97585120967255 0 0 0 0 1.437687632191381 0 0 0 7.631972087842172 0 0 0 0 0 0 15.46288225276237 7.713545418862105 0 0 36:1 37:1 38:1 39:1 43:1 44:1 45:1 46:1 47:1 48:1 50:1 51:1 56:1 58:1 64:1 66:1 72:1 73:1 79:1 80:1 81:1 85:1 86:1 87:1 89:1 90:1 91:1 92:1 93:1 
0 0 0 0 0 0 0 0 0 0 0 0 0 0 0 0 39.92252913024092 0 0 0 0 0 0 0 0 35:1 36:1 37:1 39:1 42:1 47:1 48:1 49:1 50:1 56:1 57:1 64:1 65:1 72:1 73:1 79:1 80:1 81:1 86:1 87:1 89:1 90:1 91:1 92:1 93:1 94:1 
6.955792679186424 7.411639047149816 15.72174170083353 26.14525046982486 0 3.530338653126855 0 0 0 0 0 0 0 0 2.911548163492226 6.710838402507708 4.639774016744775 0 0 0 0 0 0 0 0 24:1 32:1 40:1 44:1 45:1 46:1 47:1 48:1 51:1 52:1 55:1 56:1 59:1 64:1 66:1 67:1 72:1 73:1 74:1 80:1 81:1 87:1 88:1 89:1 94:1 95:1 97:1 100:1 101:1 102:1 105:1 106:1 107:1 108:1 
0 0 0 1.863868938640302 0 12.92251060771651 0 0 0 0 1.000959083717797 0 1.627467381220029 0.3389410158207591 2.133733471854656 0 0 0 6.893902959818003 0 0 7.230343039809923 0 0 0 4:1 5:1 6:1 12:1 13:1 14:1 19:1 20:1 21:1 22:1 23:1 27:1 29:1 31:1 34:1 35:1 37:1 39:1 42:1 47:1 50:1 55:1 58:1 63:1 66:1 71:1 74:1 79:1 82:1 87:1 90:1 95:1 98:1 102:1 103:1 106:1 110:1 114:1 117:1 118:1 122:1 123:1 124:1 125:1 
0 0 0 0 0 0 0 0 0 0 0 0 0 0 0 0 0 0 0 0 0 0 0 0 0.7738955689469316 35:1 36:1 37:1 38:1 41:1 42:1 44:1 46:1 47:1 49:1 52:1 55:1 56:1 57:1 64:1 65:1 72:1 73:1 80:1 81:1 82:1 83:1 87:1 88:1 91:1 92:1 93:1 94:1 95:1 
0 0 0 0 0 0 0 0 0 0 0 0 0 0 0 0 4.724486248484101 0 0 0 0 0 0 12.70159632545418 0 43:1 44:1 45:1 46:1 47:1 49:1 50:1 51:1 55:1 56:1 57:1 64:1 65:1 72:1 73:1 74:1 78:1 79:1 80:1 82:1 83:1 84:1 85:1 86:1 
0 10.45392064884762 0 0 0 8.263223695048334 0 0 2.351182128365937 0 0.2654696497408059 0 0 0 0 0 0 0 0 0 0 0 0 0 0 20:1 28:1 29:1 36:1 37:1 43:1 44:1 45:1 46:1 50:1 51:1 54:1 55:1 57:1 58:1 63:1 64:1 65:1 72:1 73:1 80:1 81:1 88:1 89:1 95:1 96:1 97:1 98:1 99:1 102:1 103:1 107:1 108:1 109:1 110:1 
0 2.635920974017048 0 0 0 0 0 0 0 0 0 0 0 0 0 0 0 0 0 0 0 0 0 0 0 34:1 35:1 36:1 37:1 38:1 42:1 46:1 47:1 48:1 50:1 51:1 52:1 56:1 57:1 58:1 64:1 65:1 72:1 73:1 79:1 80:1 81:1 86:1 87:1 89:1 90:1 91:1 92:1 93:1 94:1 
0 0 9.545384051814365 0 0 0 0 0 32.81100411773176 0 0 0 0 0 0 0 0 0 0 0 0 0 0 0 0 30:1 36:1 38:1 39:1 43:1 44:1 47:1 48:1 50:1 51:1 56:1 57:1 58:1 64:1 65:1 72:1 73:1 80:1 81:1 88:1 89:1 90:1 95:1 96:1 98:1 99:1 100:1 101:1 102:1 103:1 
0 0 0 0 0 0 0 0 0 9.213620016853495 0 0 0 0 0 0 0 0 0 0 0 0 0 0 0 35:1 36:1 37:1 38:1 42:1 43:1 46:1 47:1 48:1 50:1 51:1 56:1 57:1 58:1 64:1 65:1 72:1 73:1 79:1 80:1 81:1 84:1 85:1 86:1 87:1 89:1 90:1 91:1 92:1 
0 0 0 10.29630652457051 1.227093378419904 10.22907716732025 5.356850856357783 0 0.4944705199281131 0.333449465097733 4.618740434297128 0.6504114373094834 0.1131954067845553 0 2.553677680639959 0 1.113298859360678 0 0 0 5.556089879002935 0 1.254397331614424 0 0.2575647866418231 1:1 2:1 3:1 4:1 11:1 12:1 18:1 20:1 21:1 26:1 29:1 33:1 34:1 37:1 38:1 41:1 46:1 49:1 54:1 57:1 63:1 65:1 71:1 72:1 73:1 80:1 81:1 88:1 89:1 96:1 97:1 98:1 103:1 104:1 106:1 111:1 114:1 115:1 118:1 119:1 123:1 124:1 125:1 126:1 
0 0 0 0 0 0 0 0 0 0.4800724432135263 0 0 0 0 0 0 0 0 0 0 0 0 0 0 0 20:1 21:1 22:1 23:1 24:1 27:1 28:1 32:1 34:1 35:1 36:1 40:1 41:1 42:1 48:1 49:1 56:1 57:1 64:1 65:1 72:1 73:1 80:1 81:1 88:1 89:1 95:1 96:1 97:1 98:1 99:1 103:1 107:1 108:1 109:1 110:1 111:1 
0 0 0 0.7156680062165435 0 0 0 0 0 0 0 0 0 0 0 0 0 0 0 0 0 0 0 0 0 30:1 36:1 37:1 38:1 39:1 40:1 42:1 43:1 44:1 48:1 50:1 56:1 57:1 58:1 64:1 65:1 72:1 73:1 79:1 80:1 81:1 86:1 87:1 89:1 90:1 92:1 93:1 94:1 98:1 99:1 100:1 
33.04254209130833 75.29153155728277 46.05596456651126 46.04457294359009 19.95343586977523 46.56110156334332 10.54575772963606 25.82307266106722 15.7907223667411 76.03094097287634 13.18395654566945 13.80820305367103 25.35118356223687 25.2203864211047 28.42923841857727 18.26368100013148 25.56606747473884 35.66983345934166 32.56189065016166 17.82005579004158 10.80581159038679 9.956072450332426 36.59712296386018 12.37067886159608 27.51835289406634 30:1 31:1 32:1 37:1 38:1 40:1 45:1 46:1 48:1 52:1 53:1 54:1 56:1 59:1 60:1 62:1 63:1 66:1 67:1 68:1 70:1 73:1 74:1 77:1 78:1 81:1 84:1 85:1 89:1 91:1 92:1 97:1 98:1 99:1 
0 1.004991380664246 0 0 0 0 0 0 0 0 0 0 0 0 0 0 0 0 0 0 0 0 0 0 0 12:1 13:1 19:1 20:1 21:1 22:1 27:1 30:1 31:1 34:1 35:1 39:1 40:1 41:1 42:1 48:1 49:1 56:1 57:1 64:1 65:1 72:1 73:1 80:1 81:1 88:1 89:1 96:1 97:1 103:1 104:1 105:1 106:1 109:1 110:1 111:1 114:1 115:1 116:1 117:1 
0 0 0 0 0 0 0 0 0 0 0 0 0 0 0 0 0 0 0 0 0 2.911555736598405 0 0 0 35:1 36:1 37:1 43:1 45:1 46:1 47:1 48:1 49:1 50:1 51:1 52:1 53:1 54:1 55:1 56:1 57:1 58:1 64:1 65:1 72:1 73:1 80:1 81:1 82:1 87:1 90:1 91:1 92:1 93:1 94:1 95:1 
0 0 0 0 0 0 0 0 0 6.300776023045704 0 0 0 0 0 0 0 0 0 0 0 0 0 0 0 36:1 37:1 38:1 39:1 40:1 42:1 43:1 44:1 48:1 49:1 50:1 56:1 57:1 64:1 65:1 71:1 72:1 73:1 79:1 81:1 85:1 86:1 87:1 89:1 90:1 91:1 92:1 93:1 
0 0 4.605089311547692 0.2523978113084841 0 2.980063087366135 0 0 1.29665753124379 0 0 0 0 0 0 0 0 0 0 0 0 0 0 0 0 6:1 7:1 13:1 14:1 15:1 20:1 21:1 23:1 24:1 28:1 31:1 32:1 35:1 36:1 40:1 43:1 48:1 50:1 51:1 56:1 58:1 64:1 66:1 72:1 73:1 74:1 80:1 81:1 88:1 89:1 96:1 97:1 103:1 104:1 105:1 110:1 111:1 113:1 117:1 118:1 121:1 122:1 123:1 124:1 125:1 
0 0 0 13.16804272600781 0 0 0 0 0 0 0 0 0 0 0 0 0.05197099293827912 0 0 0 0 0 0 0 0 20:1 21:1 22:1 23:1 24:1 27:1 28:1 32:1 34:1 40:1 41:1 42:1 48:1 49:1 56:1 57:1 64:1 65:1 72:1 73:1 80:1 81:1 88:1 89:1 96:1 97:1 98:1 99:1 100:1 101:1 102:1 103:1 104:1 106:1 
2.436106476092497 15.64449554963488 22.07567707131646 32.88505138505421 20.45311868773686 14.45155363946377 14.11289347244423 11.54208035550487 23.27768158897088 13.23216073763729 10.7726167553563 13.96209533944926 10.26702212093891 20.31246674231122 18.94252664328636 24.95670468777252 19.29803501792879 8.740652882046707 8.302953955787196 9.651911165101811 20.03381407335266 1.717255211921948 5.085771843484567 0 5.019930850009183 5:1 6:1 13:1 14:1 15:1 23:1 26:1 31:1 34:1 39:1 42:1 47:1 50:1 55:1 58:1 63:1 66:1 71:1 74:1 79:1 82:1 87:1 90:1 95:1 98:1 102:1 103:1 106:1 110:1 114:1 118:1 123:1 124:1 125:1 126:1 
0 25.93794666732321 0 0 0 0 0 0 0 0 0 0 0 0 0 0 0 0 0 0 0 4.747732260638042 0 0 0 29:1 30:1 35:1 36:1 37:1 38:1 39:1 42:1 43:1 44:1 45:1 46:1 50:1 51:1 52:1 54:1 55:1 57:1 58:1 63:1 64:1 65:1 72:1 73:1 80:1 81:1 87:1 88:1 89:1 92:1 93:1 94:1 95:1 97:1 98:1 99:1 100:1 
-27.8401054581982 179.6121792740206 17.84433387362815 0 0 0 7.097722688982218 0 0 96.80592179942509 0 0 0.902526551606471 1.887023220948729 0 0 0 21.77135142140774 36.18767393679997 0 0 0 31.83730069600747 0 8.564741058913967 50:1 51:1 52:1 53:1 54:1 55:1 57:1 58:1 60:1 61:1 63:1 64:1 65:1 67:1 68:1 72:1 73:1 75:1 76:1 80:1 
-0 40.31074207346634 0 0 0 4.739424950041247 0 0 21.79367448632118 0 0 0 3.260897431204225 0 0 0 6.852056799542687 6.540624029797227 9.636516548952521 2.439248135705831 0 0 0 51.4953103576817 0 49:1 50:1 51:1 54:1 55:1 57:1 59:1 61:1 62:1 63:1 65:1 67:1 68:1 69:1 71:1 73:1 76:1 79:1 80:1 
-0 11.59182084977764 6.205630180570882 0 0 0 0 0 0 32.78549881063802 0 0 0 0 0 0 0 0.0454232996365198 0 0 0 0 0 69.33950909856128 0 47:1 49:1 52:1 53:1 55:1 56:1 57:1 59:1 60:1 61:1 62:1 63:1 64:1 65:1 66:1 67:1 69:1 70:1 72:1 74:1 75:1 77:1 78:1 80:1 82:1 
-39.99088433509279 123.3107411500545 67.58939210422828 0 0 0 0 0 6.289822086320273 10.36013516464869 0 0 0 0 0 0 48.29388456908821 0 16.0613172539464 7.121461017913392 0 0 21.04043238467607 1.966784557445834 0 41:1 49:1 52:1 53:1 55:1 57:1 59:1 60:1 61:1 63:1 64:1 65:1 67:1 69:1 70:1 71:1 72:1 73:1 74:1 75:1 77:1 78:1 80:1 81:1 82:1 
-0 0 58.51002302490219 7.339692062584295 15.2287969926729 10.26267516072029 20.25843003765103 46.45755131001332 0 33.5568386651338 4.922015599077494 11.62264208779157 25.79340187409323 43.74156771441292 13.95565907748807 2.387977897730714 0 13.40530253382754 0 24.97226795304319 8.909969620557208 6.684662204364178 30.86403840886434 0 20.45309302999119 49:1 57:1 58:1 59:1 60:1 61:1 62:1 63:1 65:1 66:1 69:1 71:1 72:1 73:1 
-0 3.80749286294176 0 9.741620331162459 22.70036737382615 0 14.09782327722974 0 0 0 30.4962372752708 24.54735080204713 13.24497746900953 33.17619394224004 34.92225768779068 16.99732964767173 0 22.3968086851656 0 0 17.09158814897058 2.975496270067267 0 0 5.759932763612735 49:1 57:1 58:1 59:1 60:1 61:1 62:1 63:1 64:1 65:1 68:1 69:1 72:1 80:1 
-0 0 315.7205203121957 0 0 0 0 0 0 0 0 0 0 0 0 0 0 0 0 0 0 0 0 0 0 49:1 53:1 54:1 55:1 57:1 58:1 59:1 60:1 61:1 63:1 64:1 65:1 67:1 68:1 72:1 73:1 75:1 80:1 
-0 8.894976274421708 0 0 0 0 0 0 0 0 0 0 3.769644746038987 28.37490400323952 4.689123550112813 0 12.49748332659913 0 12.10011607842492 0 0 0 0 0 0 50:1 51:1 52:1 54:1 55:1 56:1 57:1 58:1 60:1 61:1 62:1 64:1 65:1 68:1 69:1 72:1 73:1 
-0 0 0 0 11.04944116805723 0.6256059838087836 3.086380772016061 0 0 13.79885864200731 0 13.13590672637221 1.570620737213272 26.94773425788554 7.528135631566923 0 0 23.49474973292892 0 5.389396707028958 5.09229770637444 6.422535680766488 5.463232933966123 0 0 51:1 52:1 54:1 55:1 56:1 58:1 59:1 60:1 61:1 62:1 64:1 65:1 66:1 69:1 72:1 73:1 77:1 80:1 
-10.58984853861669 0 0 0 0 0 0 0 0 0 0 0 0 0 0 0 0 0 0 0 0 0 0 0 0 49:1 50:1 51:1 53:1 54:1 56:1 57:1 58:1 59:1 60:1 61:1 62:1 63:1 64:1 65:1 67:1 68:1 70:1 71:1 72:1 73:1 75:1 76:1 78:1 79:1 
-0 26.04767682022302 0 0 0 0 0 0 0 0 2.599538745431976 0 0 0 0 0 0 0 0 0 0 0 0 0 0 42:1 47:1 50:1 54:1 55:1 57:1 58:1 59:1 61:1 62:1 63:1 65:1 67:1 68:1 69:1 71:1 72:1 73:1 80:1 81:1 88:1 
-14.57596406817819 92.71859849909247 72.75746464678771 7.384393349426292 14.93848179015671 16.19168832287643 14.79287834036947 85.7787429074621 15.19658211873342 102.3575926803596 12.54176239889515 20.82863810087556 12.95941144600282 22.67993145757292 0.2969375195311386 6.525564152966534 62.04383801600643 33.69536614618335 2.55560893132925 20.03305407503227 6.947639086617226 0 42.67768525029687 14.91455350257374 29.77116171436275 42:1 49:1 50:1 53:1 54:1 57:1 58:1 60:1 61:1 62:1 65:1 66:1 67:1 68:1 70:1 73:1 78:1 79:1 81:1 87:1 88:1 
-0 0 7.639604317070641 0 0 0 0 2.795289309444792 26.87655676402689 0 0 2.807513351169138 0 0 0 7.718108855647725 17.30926479371655 7.677813093981711 0 0 0 0 0 14.18675926652953 0 49:1 50:1 51:1 52:1 53:1 54:1 55:1 56:1 57:1 60:1 61:1 64:1 65:1 68:1 72:1 73:1 76:1 80:1 
-4.657944342439653 0 1.89332103966251 0 0 19.80120394882518 0 0 0 0 0 0.7829131042450512 0 0 0 0 5.413224213150186 0 0 6.257137177065264 0 0 1.623360301485349 3.735440859582231 0 41:1 42:1 43:1 46:1 49:1 51:1 52:1 53:1 54:1 55:1 56:1 57:1 60:1 64:1 65:1 68:1 72:1 73:1 76:1 80:1 81:1 88:1 
-39.15399672589837 38.66468320409611 57.64226440493281 24.27613599752964 11.85603862931233 25.29864337152626 17.78874270052842 22.11475125192312 22.52996760054996 39.95131199995713 27.3472409555754 14.24502516502691 15.81651026423447 18.37471869477958 20.00473349333384 25.03315224931796 24.96934519261962 12.48125954347144 11.37001945106539 25.63285169591697 7.462689233247722 8.129509830254024 8.989747358085083 8.156167718546664 25.25358557727287 24:1 31:1 32:1 34:1 35:1 39:1 40:1 42:1 43:1 47:1 50:1 51:1 55:1 58:1 59:1 63:1 65:1 66:1 67:1 70:1 71:1 73:1 75:1 78:1 79:1 81:1 83:1 86:1 87:1 89:1 91:1 92:1 94:1 95:1 96:1 97:1 100:1 101:1 104:1 105:1 
-7.282165216548483 39.27255655881544 0 0 0 14.00682224685709 0 0 0 24.88966113385418 1.207765492645149 0 0 5.976966779681519 0.875187272658657 0 11.43896920063915 9.381786643804132 0 3.607680139282393 0 0 10.89252423356815 0 6.7953914179184 34:1 35:1 38:1 39:1 42:1 43:1 46:1 47:1 49:1 50:1 51:1 53:1 54:1 55:1 57:1 59:1 61:1 63:1 65:1 67:1 68:1 69:1 71:1 73:1 75:1 76:1 79:1 81:1 83:1 84:1 87:1 89:1 91:1 92:1 95:1 96:1 99:1 104:1 
-35.44363424880945 58.48235434047991 23.62566965983619 10.963850984816 13.10606543321075 8.67581501574448 0 35.0161174057306 25.06393682863843 68.22536144252348 0 8.559569395869039 12.06198416357236 20.94268355185421 3.738273578028893 7.632371200020496 14.85448391795613 8.633282122159461 20.80954694673856 4.448538575771074 5.041735946901686 3.608484231655631 4.582883194738039 0 10.88872457768389 37:1 38:1 39:1 45:1 47:1 50:1 51:1 52:1 53:1 55:1 56:1 57:1 58:1 60:1 61:1 64:1 65:1 66:1 69:1 72:1 73:1 74:1 77:1 82:1 85:1 90:1 
-0 0 0 0 0 0 0 0 0 0 0 0 0 0 0 0 0 0 0 0 0 0 0 8.989545139848079 0 49:1 54:1 55:1 57:1 58:1 59:1 62:1 63:1 65:1 66:1 67:1 68:1 69:1 70:1 71:1 72:1 73:1 76:1 77:1 80:1 
-0 0 44.25070153942563 4.481549010694916 25.343655955165 5.190577270752576 0 31.6055200781476 9.900663169532596 0 0 6.910556119839722 14.7446307759129 51.86602055221122 23.06202325325346 17.05090916561427 0 31.37865560357396 0 11.81082807918954 15.95120799308296 14.64449729186606 30.79230221515671 0 9.20259600940571 49:1 50:1 51:1 52:1 53:1 54:1 55:1 57:1 59:1 60:1 63:1 64:1 65:1 68:1 72:1 80:1 
-1.857730218329636 13.11562024379057 0 7.877957988359222 0.692858595800997 7.546794208163432 9.375655465734294 1.691327891811392 0 0.8345012531212177 3.340328366065063 0.2767855586279733 4.23518360574236 1.021730007686374 9.204701134031811 1.89083564524456 2.32726801402248 4.149252293674824 10.2449061970553 6.67993064599411 0 5.394337477710784 0 3.095454007614868 4.79519600687105 10:1 11:1 18:1 19:1 25:1 26:1 27:1 30:1 31:1 32:1 33:1 34:1 35:1 38:1 40:1 41:1 43:1 45:1 46:1 48:1 49:1 51:1 52:1 53:1 56:1 57:1 60:1 61:1 64:1 65:1 68:1 69:1 72:1 73:1 76:1 77:1 80:1 81:1 84:1 88:1 89:1 92:1 96:1 97:1 100:1 104:1 105:1 112:1 113:1 120:1 
-6.999961431356286 5.458276708509192 21.89496622185642 5.211284940302209 4.273509559029157 27.30033560329276 7.951241311324075 22.00879201729141 5.955764570439253 12.63751802103003 28.7174948134315 5.298302039726925 10.28278450742314 14.82674975308065 25.87247889487787 16.76007148513565 25.70579781513779 16.70725453876361 9.146436415837458 9.126575682921926 6.637818609752805 8.070919253426087 24.73874977974561 2.584509297346969 5.241227569448667 33:1 35:1 36:1 39:1 40:1 41:1 42:1 43:1 44:1 45:1 46:1 47:1 48:1 49:1 50:1 53:1 54:1 56:1 58:1 61:1 62:1 64:1 66:1 69:1 70:1 72:1 74:1 77:1 80:1 82:1 85:1 88:1 90:1 93:1 
-0 70.64484368570591 0 8.128972587053569 0 0 0 0 0 0 0 0 0 0 0 0 0 0 1.844101934911289 0 0 0.3280621501805143 0 0 0 51:1 52:1 55:1 56:1 58:1 59:1 60:1 62:1 63:1 64:1 65:1 66:1 68:1 69:1 70:1 72:1 73:1 74:1 80:1 
-0 10.2213054881335 0 0.1117657062822514 0 0 0 0 0 0 0 0 0 0 0 0 0 0 0 0 0 0 0 0 0 36:1 37:1 40:1 44:1 45:1 47:1 48:1 49:1 51:1 52:1 53:1 55:1 56:1 57:1 59:1 61:1 62:1 63:1 64:1 65:1 66:1 69:1 70:1 72:1 73:1 74:1 77:1 78:1 80:1 81:1 85:1 88:1 89:1 96:1 
-1.54740618748243 0 0 0 0 3.39514114746245 12.18714887973537 0 0 0 21.89940956923278 0 0 0 0 8.796871797177134 0 7.30693974976221 0 6.999803798821326 0 0.07578450352528099 0 0 6.393935665508963 33:1 41:1 49:1 50:1 51:1 57:1 58:1 59:1 60:1 62:1 63:1 65:1 68:1 69:1 70:1 71:1 73:1 76:1 77:1 79:1 80:1 81:1 84:1 85:1 88:1 92:1 93:1 
-0 8.744984206297152 0 2.927825974323295 0 5.195035713720745 5.412410544527674 0 0 5.291008698028119 4.024815033761419 0 5.704941109361508 0.9611059868999026 6.031230968251502 4.335523686827816 6.003578992934774 4.393376000547119 12.8019460201832 4.638027235566171 0 4.034979155898668 1.293695517541846 0.8603107143367913 1.904714382835846 17:1 19:1 20:1 25:1 26:1 27:1 28:1 31:1 32:1 33:1 34:1 36:1 38:1 39:1 40:1 41:1 42:1 44:1 46:1 48:1 49:1 50:1 52:1 54:1 56:1 57:1 60:1 61:1 62:1 64:1 65:1 68:1 69:1 72:1 73:1 76:1 77:1 80:1 81:1 84:1 85:1 88:1 89:1 92:1 96:1 104:1 112:1 
-30.03585609354533 38.38247550271836 25.13532647266399 7.808596450222655 6.237941260903281 23.07134453746166 4.328115401690939 30.95321431884718 29.97834805881747 24.56671086173712 25.92552178654072 7.815201788402419 15.65850574796699 4.115035705832671 3.134650901606424 0 4.502382327743243 2.254145629835281 11.74711583746428 0 1.861088401962451 9.604581650266779 20.3654937183108 0 11.19926250321618 21:1 22:1 28:1 29:1 30:1 36:1 37:1 38:1 41:1 42:1 43:1 44:1 46:1 49:1 50:1 51:1 54:1 57:1 58:1 59:1 62:1 65:1 70:1 71:1 72:1 73:1 81:1 89:1 97:1 105:1 
-25.03861110125098 0 0 0 0.1998027783673165 0 0 4.790803581445577 0 0 0 0 0 0 0 0 0 0 0 0 0 0 0 0 0 46:1 47:1 50:1 51:1 52:1 53:1 54:1 55:1 56:1 57:1 58:1 60:1 61:1 64:1 65:1 69:1 72:1 73:1 77:1 80:1 81:1 
-93.2871459706294 25.90928497796037 0 10.14305639792463 36.89592975648625 36.69037967934722 1.525006275575935 11.31942663558476 25.5095531148258 64.3168884596104 17.12367397429428 25.35027043342443 14.72312992193009 49.00665180556741 28.88889285981274 32.9659261172622 42.53847818322296 7.103086588950818 19.07950673727824 18.26104384296629 23.52674723384293 2.916983466373259 7.875719872502708 0 5.643117767093485 49:1 50:1 51:1 54:1 55:1 57:1 59:1 60:1 61:1 62:1 63:1 65:1 71:1 72:1 73:1 
-0 0 0 0 0 0 0 0 0 0 0 0 0 0 0 0 0 0 0 0 0 0 0 65.79054597847184 0 49:1 50:1 51:1 52:1 55:1 56:1 57:1 58:1 60:1 62:1 63:1 64:1 65:1 66:1 68:1 69:1 70:1 72:1 73:1 74:1 76:1 77:1 80:1 
-0 54.12756419045342 191.4317647105017 0 0 0 0 56.91864747267373 15.74849913618107 4.314954565501322 0 0 0 0 0 0 0 0 11.5796922047609 7.112737812282464 0 0 0 0 3.991750515323706 49:1 50:1 51:1 52:1 53:1 54:1 55:1 57:1 59:1 60:1 63:1 64:1 65:1 66:1 68:1 72:1 73:1 74:1 
-27.37664991095027 121.8582967143076 63.41728715154962 11.19919223457686 30.07116206671589 49.15232573070914 0 86.53654483507293 0 32.28618442058262 53.93221820567018 19.38566840279163 25.37549073120042 48.22611314977564 26.09613877877066 25.18620703128195 57.0571231068857 39.19979972077621 14.3685290024961 22.15653964300114 15.78265532200048 11.85270399477378 14.73153955424973 39.69431272819536 18.23894604592575 49:1 57:1 58:1 59:1 60:1 61:1 65:1 66:1 67:1 68:1 69:1 70:1 71:1 79:1 80:1 
-21.06083054961415 28.61609805702903 66.82596958997314 6.96110996648529 0.815785617325994 18.20588444396323 0 1.621324550666708 18.47669780702639 18.67685060491911 19.47407447498185 8.182593844729363 1.220122565275036 2.017713917585001 1.056800219343157 0 2.818282644074814 9.31398551957364 0 0 0.06421930513538684 13.04663537516099 0 5.300757822083148 0 37:1 38:1 39:1 42:1 43:1 44:1 45:1 47:1 48:1 49:1 50:1 52:1 53:1 56:1 57:1 60:1 64:1 65:1 68:1 72:1 73:1 76:1 80:1 81:1 84:1 88:1 89:1 92:1 96:1 
-14.30150287507088 9.004722073856163 0 8.149272665321153 0 4.89617685351647 0 0 0 5.255218364245435 0 0 0 0 0 0 19.21940173330431 0 0 11.16614786324029 0 0 0 3.861348571889915 4.196981006604716 33:1 41:1 44:1 45:1 46:1 47:1 48:1 49:1 52:1 54:1 55:1 56:1 57:1 59:1 60:1 62:1 64:1 65:1 67:1 69:1 70:1 72:1 73:1 74:1 75:1 77:1 78:1 80:1 81:1 82:1 84:1 85:1 88:1 89:1 92:1 93:1 96:1 
-0 11.49934620311675 0 5.561020000000071 0 0 0 0 0 0 0 0 0 0 0 0 0 0 6.802291303647373 0 0 0 0 0.7270999997940504 0 31:1 39:1 40:1 42:1 43:1 46:1 47:1 48:1 50:1 51:1 54:1 56:1 58:1 59:1 62:1 64:1 65:1 66:1 67:1 68:1 69:1 70:1 72:1 73:1 76:1 77:1 80:1 81:1 88:1 89:1 97:1 
-0 0 0 0 0 0 0 0 0 0 0 0 0 0 0 6.165762287719557 0 0 0 0 0 0 0 0 0 38:1 39:1 41:1 42:1 46:1 47:1 48:1 49:1 50:1 54:1 56:1 57:1 58:1 59:1 61:1 62:1 64:1 65:1 67:1 68:1 69:1 72:1 73:1 76:1 80:1 81:1 89:1 
-8.108868474656335 0 7.772933020440993 0 0 0 0 0 0 0 0 0 0 0 0 0 0 0 0 0 0 0 0 0 0 35:1 36:1 37:1 39:1 40:1 43:1 45:1 46:1 47:1 48:1 49:1 51:1 53:1 54:1 56:1 57:1 58:1 59:1 61:1 62:1 64:1 65:1 66:1 69:1 72:1 73:1 74:1 77:1 80:1 81:1 82:1 84:1 85:1 88:1 89:1 95:1 96:1 
-0 0 45.39741505347914 0 0 0 0 0 0 0 0 0 0 0 0 0 0 0 0 0.8684687348944404 0 0 0 0 7.757383044555425 41:1 49:1 51:1 52:1 57:1 58:1 59:1 60:1 62:1 63:1 65:1 66:1 68:1 70:1 71:1 72:1 73:1 74:1 76:1 77:1 78:1 80:1 81:1 82:1 85:1 88:1 
-0 0 47.77489200705758 0 0 0 0 0 0 0 0 0 0 0 0 0 0 0 0 0 0 0 0 0 0 43:1 44:1 49:1 51:1 52:1 53:1 54:1 55:1 56:1 57:1 58:1 61:1 62:1 64:1 65:1 66:1 69:1 72:1 73:1 77:1 80:1 81:1 85:1 88:1 
-3.635984323224552 0 101.3909711174591 0 0 31.57261282101715 21.20180488310901 11.67164962566984 0 0 41.38119238279087 0.5235126711721478 1.535618773368552 0 25.27043334176759 14.22454509969823 0 20.47214064384276 0 16.87129381657122 0 0 0 0 0 41:1 42:1 49:1 50:1 51:1 53:1 54:1 55:1 57:1 59:1 60:1 61:1 63:1 64:1 65:1 72:1 80:1 88:1 
-0 140.3860451445026 94.56371383607238 0 0 0 0 0 0 0 0 0 0 0 0 0 0 7.796148636220996 0 0 0 0 5.085014423824694 0 0 49:1 51:1 53:1 54:1 57:1 58:1 59:1 61:1 62:1 63:1 65:1 66:1 68:1 69:1 71:1 73:1 74:1 76:1 79:1 80:1 
-7.610516370960586 105.2875754471284 132.5844374749632 24.21902182982613 46.80492466489903 71.1095224340541 49.6316255856797 7.039456365980922 27.19382116729768 48.02108992613064 29.6027090906246 39.22934032953028 44.45820439045049 73.24903382872411 41.26863759703733 41.14744132791186 120.1904014246053 43.04705697643969 33.63158446159311 33.44230364178586 22.33056915586462 12.17555916976769 83.59847129874679 12.44576561783148 37.13883970256681 49:1 57:1 58:1 60:1 61:1 62:1 65:1 66:1 67:1 68:1 70:1 71:1 72:1 80:1 
-0 0 0 0 0 5.81566853198421 0 0 0 0 0 0 0 0 0 0 0 0 0 0 0 0 0 0 0 34:1 42:1 43:1 44:1 47:1 48:1 50:1 51:1 52:1 54:1 55:1 56:1 58:1 60:1 62:1 64:1 65:1 66:1 68:1 69:1 70:1 72:1 73:1 76:1 80:1 81:1 89:1 
-9.350188433658353 0 33.67644967655603 0 0 5.925227901594528 13.39768135419808 0 0 15.70460051972012 14.08170800745403 0 0 0 0 5.435842096217713 6.572594544476694 4.246163601777552 0 2.012508907620461 0 0 0 0 2.857228329079617 41:1 44:1 45:1 46:1 49:1 50:1 51:1 52:1 54:1 55:1 56:1 58:1 59:1 62:1 63:1 64:1 66:1 67:1 69:1 70:1 72:1 74:1 77:1 78:1 79:1 80:1 82:1 85:1 88:1 
-0 0 0 0 0 0 0 0 0 0 0 0 0 0 0 0 0 1.731732032573941 0 0 0 0 0 0 0 41:1 49:1 50:1 51:1 52:1 53:1 54:1 55:1 57:1 60:1 61:1 63:1 65:1 66:1 68:1 69:1 71:1 72:1 74:1 77:1 80:1 88:1 
-0 24.73147554455761 0 0 0 0 0 0 0 6.183213011516523 0 0 0 0 0 0 0 0 0 0 0 0 0 0 0 35:1 36:1 37:1 38:1 40:1 42:1 43:1 44:1 45:1 46:1 47:1 48:1 50:1 51:1 53:1 54:1 55:1 56:1 57:1 58:1 61:1 62:1 64:1 65:1 66:1 69:1 70:1 72:1 73:1 76:1 77:1 80:1 81:1 84:1 88:1 96:1 
-0 0 0 0 0 0 0 5.981330750956667 0 0 0 0 0 0 0 0 0 0 0 0 0 0 0 0 0 33:1 35:1 36:1 37:1 41:1 43:1 45:1 47:1 48:1 49:1 50:1 51:1 53:1 54:1 55:1 56:1 57:1 58:1 61:1 62:1 64:1 65:1 66:1 69:1 72:1 73:1 77:1 80:1 81:1 89:1 
-0 0 0 0 0 3.715013247264841 0.8005614992042981 0 0 0 0 3.952945363151457 0 0 0 21.67652073031617 26.43104304873519 5.283444814056172 10.77661070920392 0 0 0 2.097192126794908 17.59554194646297 0 41:1 49:1 57:1 58:1 59:1 60:1 61:1 62:1 63:1 65:1 68:1 69:1 71:1 72:1 73:1 76:1 77:1 81:1 
-37.78932497998502 0 0 0 0 0 0 0 0 0 0 0 0 0 0 0 0 0 0 0 0 0 0 0 0 42:1 50:1 52:1 56:1 57:1 58:1 59:1 60:1 61:1 63:1 64:1 65:1 66:1 67:1 69:1 70:1 71:1 72:1 73:1 74:1 77:1 78:1 80:1 81:1 88:1 
-34.2702695098252 60.72496978290484 49.8768130690206 11.38666948706549 19.51006878393729 30.33570102913528 14.11809540078415 36.52400834505725 34.59584518235912 106.3688710304411 46.71234107419699 15.01103808083107 20.30168379811696 51.7502275301764 22.43371308809854 23.76310495061729 37.49833844752993 57.96248879408559 22.58342385391776 22.79389400216895 7.959421333169663 15.89835049059494 37.14307882340238 18.82155743416373 37.39493562186559 40:1 44:1 45:1 46:1 47:1 48:1 49:1 50:1 51:1 52:1 57:1 58:1 59:1 60:1 68:1 69:1 70:1 75:1 76:1 82:1 83:1 86:1 87:1 90:1 91:1 92:1 93:1 94:1 95:1 96:1 
-0 25.14672939483832 47.48317469819131 0 0 0 0 0 5.104426493972998 81.03975629506712 0 0 0 0 0 10.08403805913766 22.05129485997992 6.261170443858687 0 4.905958602305164 0 0 6.655628759439381 3.63158188057113 3.225572000136927 41:1 49:1 51:1 54:1 57:1 58:1 59:1 60:1 62:1 63:1 65:1 66:1 68:1 70:1 71:1 73:1 74:1 76:1 77:1 78:1 79:1 80:1 81:1 84:1 85:1 
-175.0943138364242 76.59921373886937 32.26431865828459 7.43267426543408 35.41200596597124 31.89888471298613 0 41.7862083376803 100.2181648008019 42.9354926177788 33.73712310391818 32.90471423115596 18.90218567702087 23.82856138001327 8.878651659794791 15.98272592290748 95.30812226533658 0 66.60314195410234 29.7806763091084 16.15745286880488 9.780663311943943 0 46.57379958740191 14.10432323317417 49:1 51:1 57:1 58:1 59:1 60:1 65:1 66:1 68:1 69:1 70:1 71:1 72:1 73:1 
-2.919176806285749 19.8827336569026 0 0 0 0 6.638290587922056 0 0 25.10203886436242 0 0 0 0 0 0 0 0 0 0 0 0 0 16.75236196545261 0 49:1 50:1 51:1 57:1 58:1 59:1 61:1 62:1 63:1 64:1 65:1 66:1 67:1 68:1 69:1 71:1 72:1 73:1 75:1 76:1 
-0 124.761486748842 0 0 0 0 0 0 0 16.94473202662975 0 0 0 0 0 0 0 1.028427973014714 0 0 0 0 31.01999630767476 0 0 44:1 45:1 49:1 50:1 52:1 53:1 57:1 58:1 59:1 60:1 61:1 62:1 65:1 67:1 68:1 70:1 71:1 73:1 79:1 80:1 81:1 88:1 
-0 0 9.389659830351551 0 0 0 0 1.401748104768411 0 3.852960834226073 0 0 0 0 0 0 0 0 0 0 0 0 0 0 7.705785909652214 33:1 41:1 43:1 49:1 50:1 51:1 52:1 53:1 54:1 55:1 57:1 58:1 59:1 60:1 61:1 63:1 65:1 66:1 67:1 68:1 71:1 73:1 75:1 79:1 80:1 81:1 83:1 88:1 89:1 91:1 96:1 
-17.42583270916192 4.379151284551861 76.72844177675745 5.73133916925877 22.69929511180705 0 0 0 2.194849893215543 0 0 30.27913558118422 6.142068396898604 0 11.5599422763374 7.572040467109242 0 0 0 2.064496555863324 5.402584638291679 5.926483471629901 0 0 0 50:1 51:1 53:1 54:1 55:1 57:1 58:1 59:1 60:1 63:1 64:1 65:1 68:1 72:1 73:1 80:1 
-0 2.906807335795492 0 0 0 0 0 0 0 0 0 0 0 0 0 0 3.440945866150372 0 0 5.828664573612466 0 0 0 2.335630221128718 0 41:1 43:1 47:1 49:1 51:1 54:1 55:1 57:1 58:1 59:1 62:1 63:1 65:1 66:1 67:1 68:1 69:1 70:1 71:1 73:1 76:1 77:1 79:1 81:1 87:1 88:1 
-27.08352472811082 53.93133866244995 20.72099042543325 24.64069199138718 17.51544974269529 27.92846712025858 7.145703938787285 21.81799020402067 8.716474558250345 55.76306896326695 5.289036171746132 12.8657472216094 21.37220025510881 26.2191100743034 25.81790668700739 21.90007098266415 21.52633793460996 29.12101438373476 18.44977373630568 10.10713814559782 8.251867349366469 11.27536757081208 31.15838286547609 16.64315342846409 20.45370668798083 32:1 39:1 40:1 43:1 44:1 45:1 46:1 48:1 51:1 52:1 53:1 54:1 56:1 59:1 61:1 63:1 64:1 66:1 67:1 68:1 69:1 71:1 74:1 76:1 77:1 78:1 79:1 81:1 82:1 83:1 84:1 86:1 89:1 91:1 92:1 94:1 99:1 102:1 
-0 0 0 0 0 0 0 0 0 0 0 0 0 0 0 0 0 0 0 0 0 0 0 20.53861556902967 0 49:1 54:1 55:1 56:1 57:1 58:1 59:1 60:1 61:1 62:1 64:1 65:1 66:1 68:1 69:1 72:1 73:1 74:1 76:1 80:1 
-21.46999986716049 0 81.35645464943303 6.855230549449171 0 20.35413647716637 18.45112194251094 0 0 0 12.18349440099674 10.37220381862682 5.446807116733112 23.3424275238314 0 10.32916814303255 34.10118023136368 0 0 14.93915447739054 3.282408507207303 0 8.344672230867822 1.762145512874222 0 49:1 57:1 59:1 60:1 61:1 63:1 64:1 65:1 66:1 67:1 69:1 70:1 71:1 72:1 80:1 
-0 0 0.8574212358653629 0 0 0 0 0 0 0 0 0 0 0 0 0 0 0 0 0 0 0 0 0 0 49:1 50:1 51:1 52:1 53:1 54:1 55:1 57:1 58:1 60:1 61:1 63:1 64:1 65:1 66:1 68:1 72:1 73:1 74:1 80:1 
-0 0 0 0 0 0 0 0 0 0 0 0 0 0 0 0 0 0 0 0 0 0 0 3.43995855197798 0 41:1 49:1 52:1 53:1 56:1 57:1 59:1 60:1 61:1 63:1 64:1 65:1 66:1 67:1 69:1 70:1 71:1 72:1 73:1 74:1 77:1 78:1 80:1 81:1 88:1 
-0 0 0 0 0 0 0 0 0 0 0 0 0 0 0 0 0 0 0 0 0 0 0 10.68742229519264 0 40:1 41:1 47:1 48:1 49:1 51:1 52:1 54:1 55:1 56:1 57:1 59:1 60:1 61:1 62:1 64:1 65:1 66:1 67:1 68:1 69:1 70:1 72:1 73:1 74:1 76:1 77:1 78:1 80:1 81:1 82:1 84:1 85:1 88:1 89:1 92:1 96:1 
-0 26.61888211970335 0 0 0 0 0 0 0 0 0 0 0 0 0 0 0 0 0 0 0 0 0 0 0 42:1 44:1 50:1 51:1 52:1 54:1 55:1 57:1 58:1 59:1 60:1 61:1 62:1 63:1 65:1 66:1 68:1 69:1 71:1 73:1 74:1 79:1 80:1 81:1 82:1 88:1 
-0 0 0 0 0 0 0 1.218674074528676 0 0 0 0 0 0 0 0 0 0 0 0 0 0 0 0 0 41:1 42:1 43:1 45:1 46:1 47:1 48:1 49:1 50:1 51:1 52:1 53:1 56:1 57:1 58:1 60:1 64:1 65:1 68:1 72:1 73:1 76:1 80:1 81:1 88:1 
