svm_type c_svc
kernel_type polynomial
degree 4
gamma 0.0078125
coef0 0
nr_class 26
total_sv 3690
rho -0.768661 0.299119 0.817319 -0.925183 0.985972 -0.446674 -0.919443 -0.466567 -0.714887 0.726897 -0.829645 -0.289054 -0.92972 -0.734308 -0.869004 -0.926121 -0.645019 -0.914941 -0.779632 -0.935601 -0.988922 -0.991724 -0.938021 -0.996053 -0.879935 0.954383 1.00685 -0.900128 0.9979 0.742005 -0.907241 0.962127 0.901887 0.946494 -0.732694 0.961802 -0.937152 -0.484493 -0.849077 -0.918042 0.897095 -0.918245 -0.470607 -0.943535 -0.993481 -0.993669 -0.956245 -0.995827 -0.874417 0.753897 -0.973415 0.99009 -0.748664 -0.968779 -0.765178 -0.854994 0.739922 -0.925204 -0.658047 -0.970524 -0.888584 -0.940596 -0.964368 -0.867117 -0.969697 -0.9114 -0.977355 -0.995131 -0.996525 -0.982903 -0.998574 -0.96009 -0.987615 0.781256 -0.874598 -0.988085 -0.893749 -0.92317 -0.522119 -0.966685 -0.796503 -0.987856 -0.943076 -0.974538 -0.986732 -0.928565 -0.986735 -0.96693 -0.991549 -0.997993 -0.99872 -0.992646 -0.999744 -0.982229 1.00093 0.976455 -0.480758 0.988659 0.974202 0.973626 0.948288 0.992145 -0.802925 0.996381 0.961399 -0.682597 0.974872 -0.673551 0.791392 -0.822096 -0.976857 -0.977191 -0.856143 -0.980391 0.887307 -0.998188 -1.00099 -0.997099 -0.996739 -0.982155 -0.998702 -1.00001 -1.00014 -0.999442 -0.999373 -0.999513 -0.996393 -0.999227 -1.00039 -0.999779 -0.999664 -1.00076 -0.999533 -0.999728 -0.999679 -0.955141 -0.181937 -0.613505 0.825725 -0.893506 0.905055 -0.960914 -0.807332 -0.948186 -0.950025 -0.384957 -0.951762 -0.847214 -0.960129 -0.99362 -0.998554 -0.967634 -0.995232 -0.918498 0.991169 0.979522 0.976304 0.965026 0.991478 -0.801983 0.991855 0.945671 -0.721455 0.976428 -0.699804 0.803838 -0.856977 -0.978011 -0.981255 -0.841356 -0.982949 0.924694 -0.945883 0.866152 -0.9735 0.924347 -0.996087 -0.958708 -0.982151 -0.990962 -0.864419 -0.990483 -1.00287 -0.992346 -0.99785 -0.998978 -0.994299 -0.99882 -0.991893 0.92007 -0.951072 0.947339 -0.982134 -0.906466 -0.956313 -0.978068 0.786183 -0.977076 -0.926849 -0.985273 -0.996753 -0.997825 -0.9819 -0.998449 -0.973253 -0.943579 -0.745787 -0.9785 -0.912288 -0.950045 -0.970786 -0.876465 -0.981215 -0.967823 -0.978845 -0.993963 -0.996913 -0.98293 -0.997637 -0.976619 0.975123 -0.960295 0.968071 -0.910785 -0.946959 0.923712 -0.956737 0.322328 -0.963615 -0.992111 -0.998569 -0.970386 -0.993836 -0.913932 -0.995514 -0.984172 -0.986241 -0.988155 -0.931386 -0.989333 -0.973727 -0.991407 -0.998269 -1.00008 -0.992971 -0.998414 -0.985117 0.996135 0.963483 0.898611 0.974133 0.930768 0.898117 -0.910201 -0.989555 -0.995062 -0.939499 -0.99154 0.917263 -0.986477 -0.987747 0.879164 -0.993253 -0.241338 -0.991026 -0.998007 -1.00188 -0.994901 -0.998493 -0.987226 -0.948737 0.945215 -0.952241 0.672538 -0.962486 -0.99443 -0.999386 -0.975741 -0.995353 -0.874279 0.985444 0.851975 0.829578 -0.91519 -0.991252 -0.992403 -0.924524 -0.996264 0.896188 -0.970619 -0.900721 -0.984005 -0.996471 -0.996958 -0.980725 -1.00116 -0.966855 0.822662 -0.931023 -0.992984 -0.996719 -0.959691 -0.995351 0.888258 -0.87186 -0.977391 -0.984344 -0.894226 -0.981746 -0.728897 -0.990183 -0.991891 -0.903906 -0.994833 0.954096 0.867902 0.989586 -0.982888 0.986789 0.99243 -0.901771 0.991568 -0.993027 0.935081 0.991882
label 14 12 0 13 3 8 6 1 17 2 4 18 11 5 19 24 21 20 25 15 7 9 16 23 22 10
probA -30.4339 -4.56686 -11.3609 -39.3537 -27.6253 -15.5996 -43.2317 -29.0586 -38.8701 -12.3792 -64.6854 -27.4013 -110.818 -56.3291 -66.0354 -99.2331 -31.8892 -101.412 -19.8629 -125.179 -415.286 -207.28 -116.422 -566.901 -58.4836 -40.479 -55.2407 -42.9146 -76.2067 -28.4248 -51.0411 -49.1412 -49.4984 -46.5857 -28.7603 -61.0817 -144.878 -17.6226 -45.4197 -94.0926 -42.1104 -96.4361 -3.70024 -115.379 -739.051 -153.08 -109.87 -322.738 -54.1617 -18.1662 -43.1024 -55.2599 -17.7292 -49.908 -45.4035 -76.1586 -21.2602 -88.8006 -57.4099 -162.502 -159.692 -123.339 -142.199 -43.3545 -138.472 -22.3181 -154.794 -886.21 -152.514 -194.292 -352.484 -74.5638 -61.0553 -2.98529 -27.2329 -61.7656 -102.83 -115.668 -16.9816 -132.562 -64.6791 -174.505 -174.514 -147.898 -121.006 -51.2449 -185.327 -23.7327 -129.317 -1324.6 -227.834 -227.199 -296.014 -85.7409 -89.5117 -51.2212 -0.343619 -73.9769 -72.9764 -77.4452 -60.5892 -72.6641 -16.2257 -92.5872 0.253649 -17.8529 -47.8845 -8.83916 -39.7141 -39.0113 -313.949 -126.073 -51.1858 -301.509 -30.3465 -55.937 -87.5196 -171.968 -196.103 -55.6681 -264.874 -96.7464 -511.284 -652.734 -256.053 -254.925 -111.688 -298.727 -44.7562 -352.789 -1615.47 -516.628 -260.29 -774.339 -163.681 -60.8407 -8.4411 -34.3431 -26.7976 -54.1754 -1.29308 -152.808 -53.7162 -70.6652 -150.689 -14.6425 -112.469 -20.3367 -132.8 -666.835 -37.2754 -140.022 -454.192 -58.8663 -64.6737 -64.9935 -71.4159 -58.283 -75.5878 -29.9411 -69.6305 -39.9824 -33.9711 -56.7637 -0.535003 -40.9958 -34.23 -376.93 -92.2943 -54.3135 -217.882 -19.5051 -78.9111 -78.174 -156.421 -72.6783 -145.81 -138.48 -154.22 -149.064 -1.76293 -175.593 -19.7531 -158.028 -1233.82 -210.204 -206.268 -482.334 -65.141 -112.67 -127.825 -87.7763 -240.768 -80.0005 -149.975 -194.067 -47.9859 -209.268 -27.104 -229.338 -1338.04 -292.021 -195.339 -812.479 -118.396 -104.816 -63.7491 -162.95 -147.105 -181.578 -142.831 -57.5672 -197.061 -20.7613 -213.055 -1080.35 -250.341 -229.424 -483.586 -94.8 -146.558 -175.356 -164.577 -53.0056 -138.577 -106.419 -165.543 -9.84367 -153.494 -395.894 -230.536 -167.327 -434.187 -82.3449 -297.73 -265.685 -177.305 -170.226 -64.3734 -234.443 -34.9261 -206.931 -1517.45 -312.602 -232.879 -604.072 -101.065 -270.644 -163.053 -94.826 -258.495 -22.1648 -86.1873 0.306892 -429.155 -236.629 0.559803 -404.969 -66.9938 -192.685 -197.025 -135.899 -241.357 -0.918802 -275.213 -1483.62 -312.355 -229.38 -605.937 -118.971 -125.808 -126.113 -81.2202 -34.3766 -172.092 -923.161 -120.233 -154.305 -426.538 0.218925 -83.0854 0.371815 -69.5895 -60.8009 -718.244 -256.877 -100.599 -454.297 -26.9275 -153.156 -30.9954 -140.496 -981.774 -235.686 -172.885 -398.903 -84.8944 -71.8285 0.517062 -706.541 -218.751 -105.085 -575.114 -94.5106 -84.2109 -273.715 -220.43 -78.3798 -285.104 -44.0919 -501.029 -169.497 -56.8964 -464.591 -66.8241 0.625526 -690.563 0.658724 -654.73 -192.354 1.10868 -252.912 -387.567 -93.229 -350.836
probB 23.7875 0.279235 -7.44297 35.2537 -23.791 9.15613 38.6844 18.8868 32.3967 -6.92873 56.8155 13.9739 104.691 46.3784 59.8893 93.0802 24.4224 94.3207 14.7433 118.416 410.433 202.463 109.799 561.968 52.1751 -36.6402 -51.6543 38.2301 -71.9464 -20.9146 46.0368 -44.6361 -43.4549 -42.0514 22.9364 -56.5876 137.601 11.4658 40.3866 88.0709 -36.1659 90.4927 1.12273 109.928 734.694 149.717 105.308 319.274 48.2376 -13.4942 39.6163 -51.2688 13.6232 45.8586 38.0875 68.407 -15.5498 83.2401 43.3531 157.65 147.518 117.171 136.774 38.9101 133.811 18.3661 150.122 881.122 148.385 189.461 348.381 70.4584 56.8603 -0.860578 23.1595 57.551 94.8313 108.25 9.73296 127.546 54.8848 170.731 166.957 143.513 117.286 47.0085 180.85 20.2377 126.004 1319.89 223.229 222.581 292.209 81.8665 -84.8722 -47.2072 0.0152581 -69.6538 -68.6228 -72.5463 -55.3654 -68.4887 13.5841 -87.8078 0.314434 13.3142 -44.3871 6.46489 -32.2783 33.4925 307.908 121.8 45.2494 295.161 -25.9025 52.503 83.2577 168.47 192.163 51.4205 260.612 94.8915 506.799 648.701 252.288 250.443 107.742 294.502 40.4157 348.266 1610.86 511.91 255.648 769.319 159.23 55.9301 3.2248 23.903 -22.1825 49.1229 -0.722098 147.046 46.3976 67.3598 142.796 7.31013 106.815 15.8253 126.97 661.738 34.4908 134.218 449.321 53.5377 -60.8941 -61.1032 -66.7437 -54.1131 -71.6933 25.5912 -65.9829 -36.037 26.5831 -52.9561 0.248222 -34.0342 30.515 370.025 88.8845 47.6321 213.141 -17.0768 74.0975 -71.1314 151.067 -67.5479 143.382 133.768 150.231 145.191 1.18075 171.674 16.8126 154.434 1229.04 206.066 201.941 478.157 62.3936 -106.398 121.992 -82.6924 235.972 74.5212 144.345 188.364 -40.034 203.977 22.7833 224.534 1332.87 288.018 190.488 807.377 113.534 99.5622 52.4725 159.019 138.616 174.113 137.58 51.3533 192.527 17.3857 207.395 1074.13 245.373 224.017 479.094 90.6646 -141.887 168.757 -158.01 48.9096 131.008 -99.6079 158.55 -5.04653 147.381 391.904 226.61 161.419 429.192 74.7353 294.073 262.221 173.526 165.783 58.8108 230.052 31.0811 202.86 1512.57 308.391 228.448 599.661 96.9412 -266.869 -156.765 -87.1231 -252.365 -20.4791 -80.3795 -0.030403 424.115 232.304 -0.433013 399.724 -62.5833 188.359 192.198 -123.939 236.708 0.0999924 270.392 1478.63 308.345 224.855 601.866 114.697 118.349 -120.242 76.6586 -26.7648 164.688 916.797 117.146 148.864 421.815 -0.148148 -80.5237 0.219916 -60.3804 55.9719 712.442 252.465 93.3809 450.283 -24.0696 148.19 26.1508 136.911 977.22 231.397 168.05 395.582 80.7162 -62.1931 -0.571421 700.936 215.126 100.178 569.895 -85.5206 76.0285 268.504 215.017 71.5133 279.781 35.0683 495.997 165.738 51.5371 460.001 -63.7083 0.517701 -684.35 -0.351638 -647.286 -188.728 -1.03842 -247.894 383.471 -87.3938 -346.222
nr_sv 302 133 281 372 74 365 197 73 185 154 320 105 200 57 120 87 66 175 67 126 56 13 15 51 12 84
SV
0 10 10 0 10 0 0 0 0 10 0 0 0 0 0 0 0 0 0 0 0 0 0 0 0 26:1 27:1 28:1 34:1 35:1 36:1 37:1 38:1 42:1 46:1 47:1 49:1 50:1 55:1 56:1 57:1 64:1 65:1 72:1 73:1 80:1 81:1 87:1 88:1 89:1 93:1 94:1 95:1 97:1 98:1 99:1 100:1 101:1 
0 10 10 0 10 0 0 0 4.246451554407032 10 0 10 0 0 0 0 0 0 0 0 0 0 0 0 0 35:1 36:1 37:1 38:1 42:1 43:1 44:1 46:1 47:1 48:1 49:1 50:1 56:1 57:1 64:1 65:1 72:1 73:1 80:1 81:1 87:1 88:1 89:1 90:1 91:1 92:1 93:1 94:1 
10 10 10 0 10 10 0 10 10 10 0 10 0 1.45135806338369 0 0 10 0 0 0 0 0 0 0 0 34:1 35:1 41:1 42:1 43:1 44:1 45:1 46:1 47:1 49:1 55:1 56:1 57:1 64:1 65:1 72:1 73:1 80:1 81:1 87:1 88:1 89:1 90:1 91:1 92:1 93:1 94:1 95:1 
10 10 10 0 10 10 0 10 10 10 0 10 0 10 0 0 10 0 6.746048271797364 0 0 0 0 0 0 34:1 35:1 36:1 41:1 42:1 44:1 45:1 46:1 49:1 54:1 55:1 57:1 63:1 64:1 65:1 72:1 73:1 80:1 81:1 82:1 88:1 90:1 91:1 92:1 93:1 94:1 95:1 96:1 
0 10 10 0 10 0 0 0 0 10 0 0 0 0 0 0 0 0 0 0 0 0 0 0 0 29:1 30:1 31:1 36:1 37:1 39:1 40:1 43:1 44:1 48:1 50:1 51:1 56:1 57:1 58:1 64:1 65:1 72:1 73:1 79:1 80:1 81:1 86:1 87:1 89:1 92:1 93:1 94:1 97:1 98:1 99:1 100:1 
0 10 10 0 10 0 0 0 0 10 0 0 0 0 0 0 0 0 0 0 0 0 0 0.1794436160721953 0 25:1 26:1 27:1 28:1 29:1 30:1 31:1 33:1 34:1 35:1 39:1 40:1 41:1 42:1 48:1 49:1 56:1 57:1 64:1 65:1 72:1 73:1 80:1 81:1 88:1 89:1 90:1 91:1 93:1 94:1 95:1 96:1 99:1 100:1 101:1 
0 10 10 0 10 0 0 0 0 10 0 0 0 0 0 0 0 0 0 0 0 0 0 0 0 13:1 19:1 20:1 21:1 22:1 27:1 30:1 31:1 34:1 35:1 39:1 40:1 42:1 48:1 50:1 56:1 57:1 58:1 64:1 65:1 72:1 73:1 79:1 80:1 81:1 87:1 89:1 90:1 95:1 97:1 98:1 102:1 107:1 108:1 109:1 110:1 115:1 116:1 
10 10 10 10 10 10 10 10 10 10 10 10 10 10 10 10 10 10 10 10 1.126537057165838 1.416916911410803 8.222221163578554 2.244464069021052 10 36:1 37:1 38:1 39:1 40:1 42:1 43:1 47:1 48:1 49:1 50:1 56:1 57:1 63:1 64:1 65:1 71:1 73:1 77:1 78:1 81:1 84:1 85:1 89:1 90:1 91:1 92:1 
0 10 10 0 10 10 0 8.719302077760217 0 10 3.322818393161497 10 0 0 0 0 10 0 0 0 0 0 0 1.117485055894955 0 19:1 20:1 21:1 22:1 25:1 26:1 27:1 30:1 31:1 33:1 39:1 40:1 41:1 48:1 49:1 56:1 57:1 64:1 65:1 72:1 73:1 80:1 81:1 88:1 90:1 95:1 96:1 98:1 99:1 102:1 103:1 107:1 108:1 109:1 110:1 
10 10 10 9.876913043640393 10 10 8.310505849866862 10 10 10 10 10 7.400352908919646 10 9.47247950791756 4.382860449511384 10 6.170859976517174 10 3.421882517233757 0.5070925103647075 2.400370855117933 4.134127876419252 0.08916295915994792 10 20:1 21:1 22:1 23:1 24:1 27:1 28:1 29:1 32:1 34:1 35:1 36:1 40:1 43:1 44:1 48:1 51:1 56:1 59:1 63:1 64:1 66:1 67:1 71:1 74:1 78:1 82:1 85:1 86:1 89:1 90:1 92:1 93:1 97:1 99:1 100:1 105:1 106:1 107:1 
0 0 10 0 8.729259613343864 0 0 0 0 10 0 0 0 0 0 0 0 0 0 0 0 0 0 0 0 21:1 22:1 23:1 27:1 28:1 29:1 30:1 31:1 32:1 35:1 40:1 42:1 43:1 48:1 50:1 56:1 57:1 58:1 64:1 65:1 72:1 73:1 80:1 81:1 87:1 88:1 89:1 94:1 95:1 97:1 100:1 101:1 102:1 105:1 106:1 107:1 108:1 
0 0 10 0 0 0 0 0 0 10 0 0 0 0 0 0 0 0 0 0 0 0 0 0 0 20:1 21:1 22:1 27:1 30:1 34:1 35:1 36:1 37:1 38:1 39:1 41:1 42:1 46:1 47:1 48:1 49:1 56:1 57:1 64:1 65:1 72:1 73:1 80:1 81:1 88:1 89:1 95:1 96:1 97:1 102:1 103:1 105:1 106:1 107:1 108:1 109:1 110:1 
10 10 10 8.468147370621381 10 10 4.077402262620149 10 10 10 10 10 4.164757681616797 10 10 7.83459565689421 10 6.503454733444031 10 3.746180630796463 0.4460967064270165 1.876849030397436 3.520457959600999 0 9.4227830427448 19:1 20:1 21:1 23:1 26:1 27:1 29:1 31:1 34:1 37:1 38:1 39:1 41:1 42:1 46:1 47:1 48:1 49:1 55:1 57:1 63:1 65:1 71:1 73:1 78:1 79:1 81:1 85:1 89:1 92:1 97:1 98:1 99:1 100:1 106:1 
10 10 10 0 10 10 6.066434415825478 10 10 10 2.957246018853282 10 0 10 5.187273941841199 2.253197459690472 10 0 6.038388494834616 2.211446587694424 0 0 0 0.5510802041523468 6.401326106074248 29:1 33:1 34:1 35:1 37:1 38:1 41:1 46:1 47:1 49:1 55:1 56:1 57:1 64:1 65:1 72:1 73:1 80:1 81:1 82:1 88:1 90:1 91:1 92:1 96:1 100:1 101:1 102:1 103:1 104:1 
0 10 10 0 10 0 0 0 0 10 0 0 0 0 0 0 0 0 0 0 0 0 0 0 0 33:1 34:1 35:1 36:1 37:1 41:1 42:1 43:1 45:1 46:1 47:1 49:1 55:1 56:1 57:1 64:1 65:1 72:1 73:1 80:1 81:1 82:1 87:1 88:1 90:1 91:1 92:1 93:1 94:1 95:1 
0 0 8.28826828890972 0 0 0 0 0 0 0 0 0 0 0 0 0 0 0 0 0 0 0.0931360206918221 0 0 0 17:1 18:1 19:1 20:1 21:1 22:1 25:1 26:1 27:1 28:1 29:1 30:1 31:1 33:1 34:1 37:1 39:1 41:1 47:1 48:1 49:1 56:1 57:1 64:1 65:1 72:1 73:1 80:1 81:1 88:1 89:1 90:1 95:1 96:1 98:1 99:1 101:1 102:1 103:1 107:1 108:1 109:1 
0 10 10 0 10 0 0 0 0 10 0 0 0 0 0 0 0.7443323940085675 0 0 0 0 0 0 0 0 27:1 28:1 29:1 30:1 31:1 32:1 34:1 35:1 40:1 41:1 42:1 48:1 49:1 50:1 56:1 57:1 64:1 65:1 72:1 73:1 79:1 80:1 81:1 86:1 87:1 89:1 90:1 94:1 98:1 99:1 100:1 101:1 102:1 
0 10 10 0 10 4.53601866893341 0 0 0 10 0 0 0 0 0 0 0.7389461877412239 0 6.279678837802817 0 0 0 0 0 0 2:1 3:1 4:1 5:1 6:1 10:1 12:1 14:1 15:1 19:1 20:1 23:1 24:1 26:1 27:1 32:1 34:1 40:1 41:1 42:1 48:1 49:1 56:1 57:1 64:1 65:1 72:1 73:1 80:1 81:1 88:1 89:1 95:1 96:1 97:1 103:1 105:1 110:1 111:1 113:1 117:1 118:1 121:1 122:1 123:1 124:1 125:1 
0 10 10 0 10 0 0 0 0 10 0 0 0 0 0 0 0 0 0 0 0 0 0 0 0 20:1 21:1 22:1 26:1 27:1 28:1 29:1 30:1 31:1 33:1 34:1 37:1 38:1 39:1 41:1 46:1 47:1 49:1 54:1 55:1 56:1 57:1 64:1 65:1 72:1 73:1 80:1 81:1 88:1 90:1 95:1 96:1 98:1 99:1 100:1 101:1 102:1 103:1 109:1 110:1 
0.9936988466139905 10 10 0 10 10 0 10 10 10 0 10 0 2.093798378279579 0 0 10 0 1.518188200907073 0 0 0 0 0 0 28:1 29:1 30:1 31:1 34:1 35:1 36:1 39:1 40:1 41:1 42:1 48:1 49:1 56:1 57:1 64:1 65:1 72:1 73:1 79:1 81:1 86:1 87:1 89:1 92:1 93:1 94:1 97:1 98:1 99:1 
0 0 10 0 0 0 0 0 0 0 0 0 0 0 0 0 0 0 0 0 0 0 0 0 0 21:1 22:1 26:1 27:1 28:1 29:1 30:1 31:1 32:1 33:1 34:1 40:1 41:1 42:1 43:1 48:1 49:1 51:1 56:1 57:1 64:1 65:1 72:1 73:1 80:1 81:1 87:1 88:1 89:1 94:1 95:1 97:1 98:1 101:1 102:1 106:1 107:1 108:1 109:1 
10 10 10 10 10 10 5.171169514128905 10 10 10 9.228160596234002 10 3.726358101581274 10 9.281805143093735 2.740814195540708 10 4.819187241313696 10 2.537474719749186 0.2730759541077636 0.8900135645560976 4.139984050797986 0.2923545100748333 8.565492488047436 11:1 12:1 13:1 14:1 22:1 23:1 31:1 32:1 40:1 45:1 46:1 48:1 52:1 53:1 56:1 59:1 60:1 64:1 67:1 72:1 74:1 75:1 79:1 80:1 82:1 86:1 87:1 89:1 90:1 94:1 97:1 101:1 102:1 105:1 107:1 108:1 109:1 113:1 114:1 115:1 
6.947694206628325 10 10 4.185053019041271 10 10 5.087806917377766 10 10 10 5.038667133683188 10 1.746388679757955 5.469904969576611 3.362964716647274 1.673539062096118 10 2.008303972152738 10 1.626775940741954 0.3199357974016249 0.3685301329251818 1.184247301824796 0.1170211638475434 2.893338327512679 3:1 4:1 5:1 6:1 11:1 15:1 19:1 23:1 24:1 27:1 32:1 34:1 35:1 40:1 42:1 48:1 50:1 56:1 57:1 58:1 64:1 65:1 72:1 73:1 80:1 81:1 88:1 89:1 96:1 97:1 104:1 105:1 112:1 113:1 114:1 119:1 120:1 122:1 123:1 124:1 125:1 126:1 127:1 
0 10 10 0.2427894356438239 10 2.102280259713835 0 3.253953304655117 0 10 0 5.716415664094588 0 0 0 0 0.6871230832957391 0 0 0 0 0 0 0 0 11:1 12:1 18:1 19:1 20:1 21:1 26:1 29:1 30:1 31:1 34:1 39:1 40:1 41:1 48:1 49:1 56:1 57:1 64:1 65:1 72:1 73:1 80:1 81:1 88:1 89:1 95:1 96:1 97:1 103:1 105:1 109:1 110:1 111:1 113:1 114:1 115:1 116:1 117:1 
10 10 10 10 10 10 10 10 10 10 10 10 9.425876839790513 10 10 10 10 10 10 10 0.7365552432057539 0 6.55507305912694 0 10 34:1 35:1 36:1 40:1 41:1 42:1 48:1 49:1 56:1 57:1 64:1 65:1 72:1 73:1 79:1 80:1 81:1 82:1 86:1 87:1 90:1 91:1 92:1 93:1 94:1 
0 10 10 0 10 2.785116778919924 0 4.723346120285147 0 10 0 7.536215859866566 0 0 0 0 0 0 0 0 0 0 0 0 0 21:1 22:1 28:1 29:1 30:1 31:1 35:1 36:1 39:1 40:1 43:1 48:1 51:1 56:1 58:1 59:1 64:1 65:1 66:1 72:1 73:1 79:1 80:1 81:1 87:1 89:1 94:1 95:1 97:1 98:1 99:1 100:1 101:1 102:1 106:1 
10 10 10 6.616384192069491 10 10 10 10 10 10 10 10 6.876003545215611 10 10 8.850178148400664 10 8.55158599642853 10 9.636525848006082 0.3729795909097077 0 5.326126002236457 0.856836423898923 10 26:1 27:1 33:1 34:1 41:1 46:1 47:1 49:1 55:1 56:1 57:1 64:1 65:1 72:1 73:1 80:1 81:1 87:1 88:1 89:1 90:1 94:1 95:1 99:1 100:1 101:1 102:1 
0 10 10 2.544787300478728 10 5.558328920529275 0 3.753485906676285 0 10 0 6.824762539259959 0 0 0 0 0 0 0 0.08327200322465041 0 0 0 0 0.1769129511517911 11:1 18:1 19:1 20:1 26:1 28:1 29:1 30:1 34:1 38:1 39:1 41:1 42:1 47:1 49:1 55:1 56:1 57:1 64:1 65:1 72:1 73:1 80:1 81:1 88:1 89:1 95:1 96:1 97:1 101:1 102:1 103:1 105:1 108:1 109:1 113:1 114:1 115:1 
0 9.826214247313835 10 0.9936974431458081 10 7.674343609098507 0 0 0 10 0 0 0 0 0 0 0 0 0 0 0 0 0 0 0 3:1 4:1 5:1 13:1 14:1 15:1 16:1 21:1 22:1 24:1 28:1 29:1 30:1 32:1 35:1 36:1 40:1 42:1 43:1 48:1 50:1 56:1 58:1 64:1 65:1 66:1 72:1 73:1 79:1 80:1 81:1 87:1 89:1 95:1 97:1 102:1 103:1 105:1 110:1 113:1 117:1 118:1 121:1 122:1 123:1 124:1 125:1 
0.5823266839571041 10 10 0 10 6.382584730276331 0 9.013415090332016 2.225633352128726 10 0 10 0 0 0 0 0 0 0 0 0 0 0 0 0 26:1 33:1 34:1 35:1 36:1 37:1 38:1 41:1 42:1 46:1 47:1 49:1 50:1 55:1 56:1 57:1 64:1 65:1 72:1 73:1 80:1 81:1 88:1 89:1 90:1 91:1 95:1 99:1 100:1 101:1 102:1 
10 10 10 10 10 10 10 10 10 10 10 10 10 10 10 10 10 10 10 10 2.224317970269349 0.3601889725843797 10 0 10 35:1 36:1 37:1 38:1 39:1 43:1 46:1 47:1 48:1 50:1 56:1 57:1 63:1 64:1 65:1 71:1 73:1 78:1 79:1 81:1 85:1 86:1 89:1 90:1 91:1 92:1 
0 10 10 0 10 10 0 10 6.313304598427383 10 0 10 0 0 0 0 10 0 0 0 0 0 0 0 0 33:1 34:1 35:1 36:1 37:1 38:1 41:1 46:1 47:1 49:1 55:1 56:1 57:1 64:1 65:1 72:1 73:1 80:1 81:1 82:1 88:1 90:1 91:1 92:1 93:1 94:1 95:1 96:1 
10 10 10 0 10 10 0 10 9.524760500234134 10 3.576194773526745 10 0 4.463428665687453 0 1.705550143603693 10 0 10 0 0 0 0 0 2.646355390255276 35:1 36:1 37:1 38:1 39:1 40:1 41:1 42:1 43:1 48:1 49:1 50:1 51:1 56:1 58:1 64:1 66:1 71:1 72:1 73:1 74:1 79:1 81:1 82:1 86:1 87:1 90:1 91:1 92:1 93:1 94:1 
0 10 10 0 10 0 0 0 0 10 0 1.87255245341077 0 0 0 0 0 0 0 0 0 0.5693440363070341 0 0 0 28:1 29:1 30:1 31:1 35:1 36:1 39:1 40:1 42:1 43:1 44:1 45:1 48:1 50:1 53:1 56:1 57:1 58:1 64:1 65:1 71:1 72:1 73:1 78:1 79:1 81:1 85:1 86:1 89:1 91:1 92:1 93:1 97:1 98:1 99:1 
3.309675966269068 10 10 0.271235310970661 10 10 0 3.543513325743096 0.6540360078805263 10 0 4.685190669164884 0 0 0 0 1.866260761710078 0 4.235917232441942 0 0 0.1392852051462891 0 0 0 12:1 13:1 14:1 15:1 16:1 20:1 24:1 27:1 28:1 32:1 35:1 43:1 44:1 45:1 46:1 47:1 48:1 51:1 56:1 57:1 58:1 59:1 64:1 65:1 72:1 73:1 80:1 81:1 88:1 89:1 95:1 96:1 97:1 100:1 101:1 102:1 103:1 105:1 108:1 113:1 114:1 115:1 116:1 
0 10 10 0 10 4.68496851127021 0 5.988065562787583 0 10 0 7.057248772384181 0 0 0 0 0 0 0 0 0 0.3631664825604409 0 0 0 19:1 20:1 21:1 22:1 23:1 27:1 31:1 35:1 36:1 39:1 40:1 43:1 44:1 48:1 50:1 51:1 56:1 58:1 64:1 65:1 66:1 72:1 73:1 80:1 81:1 87:1 89:1 94:1 95:1 97:1 100:1 101:1 102:1 105:1 106:1 107:1 108:1 
0 10 10 0 10 0 0 0 0 10 0 0 0 0 0 0 0 0 0 0 0 0 0 0 0 30:1 35:1 36:1 37:1 38:1 39:1 40:1 42:1 43:1 48:1 49:1 50:1 56:1 57:1 64:1 65:1 71:1 72:1 73:1 79:1 81:1 86:1 87:1 89:1 92:1 93:1 94:1 97:1 98:1 99:1 100:1 
0 10 10 0 10 0 0 0 0 10 0 0 0 0 0 0 0 0 0 0 0 0 0 0 0 30:1 31:1 36:1 37:1 38:1 39:1 40:1 42:1 43:1 48:1 49:1 50:1 56:1 57:1 64:1 65:1 72:1 73:1 79:1 80:1 81:1 86:1 87:1 89:1 93:1 94:1 97:1 98:1 99:1 100:1 101:1 
10 10 10 1.891447850546927 10 10 3.033126424729398 10 10 10 3.795682393211724 10 1.283969309006282 8.842142605400642 3.480444965494425 2.046873210477717 10 0.8451563734815121 7.189952094451288 3.027890676274014 0.2710687174523609 0.2073546843988338 1.038027114658941 0 5.161802079704301 18:1 19:1 26:1 29:1 34:1 37:1 38:1 41:1 42:1 46:1 47:1 49:1 55:1 57:1 63:1 64:1 65:1 72:1 73:1 80:1 81:1 82:1 88:1 90:1 91:1 96:1 99:1 100:1 104:1 108:1 109:1 110:1 111:1 112:1 
10 10 10 10 10 10 10 10 10 10 10 10 6.797227216529625 10 10 6.407505191362453 10 10 10 6.146120394655492 0 1.313045806883528 6.621108073958424 0.8953299887680422 10 30:1 38:1 39:1 44:1 45:1 47:1 48:1 51:1 52:1 56:1 58:1 59:1 64:1 65:1 66:1 72:1 73:1 80:1 81:1 88:1 89:1 90:1 95:1 96:1 98:1 99:1 100:1 101:1 102:1 103:1 
10 10 10 7.660550791999034 10 10 6.344364657613038 10 10 10 10 10 3.511994085288166 10 10 4.033486051758675 10 7.105714212254234 10 4.372100726265172 1.319365587881792 0.19394259994576 2.127631155407865 1.524190768102806 10 26:1 27:1 28:1 36:1 37:1 38:1 39:1 47:1 48:1 56:1 57:1 64:1 65:1 72:1 73:1 79:1 80:1 81:1 85:1 86:1 87:1 89:1 90:1 91:1 92:1 93:1 98:1 99:1 
10 10 10 5.436211279306726 10 10 8.424465969342902 10 10 10 10 10 6.883653680381189 10 10 8.84928386962404 10 8.736327663462035 10 6.710685389015422 0.8756148618783771 0.2023595701375178 5.343434498546642 0.07547018228885426 10 20:1 21:1 22:1 26:1 27:1 28:1 30:1 31:1 32:1 33:1 40:1 41:1 48:1 49:1 56:1 57:1 64:1 65:1 72:1 73:1 79:1 81:1 86:1 89:1 93:1 97:1 98:1 99:1 100:1 106:1 107:1 
10 10 10 7.847007647251227 10 10 8.692017587433403 10 10 10 10 10 4.970454061349869 10 10 7.294097384654025 10 6.771742424052753 10 3.124624485208554 0.4448210437519277 0.2984116982185568 4.082592890502825 0.1421613121197418 10 27:1 28:1 29:1 37:1 38:1 41:1 46:1 47:1 49:1 55:1 56:1 57:1 64:1 65:1 72:1 73:1 80:1 81:1 87:1 88:1 90:1 91:1 95:1 99:1 100:1 101:1 102:1 103:1 
5.695864993541011 10 10 1.863654369428242 10 10 2.679972823053115 10 5.649812343072862 10 2.268126143077238 10 0 4.518832803272335 0.6600126552709826 0.6523292259948901 10 0 2.868045581492642 0.4065415854911126 0 0 0.3255014973513213 0.4994140691112204 0.6955603058024832 12:1 13:1 21:1 22:1 25:1 26:1 30:1 33:1 38:1 39:1 41:1 47:1 49:1 55:1 56:1 57:1 64:1 65:1 72:1 73:1 80:1 81:1 88:1 89:1 90:1 96:1 98:1 103:1 104:1 106:1 107:1 111:1 116:1 117:1 118:1 119:1 
10 10 10 7.185877025869931 10 10 9.032068980230209 10 10 10 10 10 3.620725726218889 10 7.879695840594433 6.254763484430764 10 3.562781153738499 10 5.417590339883979 0.5393758253681511 1.140405846127212 2.648001655006757 0.2285176843845563 7.501885608882114 2:1 3:1 4:1 5:1 6:1 9:1 10:1 14:1 15:1 17:1 23:1 25:1 31:1 33:1 39:1 41:1 47:1 49:1 55:1 57:1 63:1 65:1 71:1 72:1 73:1 80:1 81:1 88:1 89:1 96:1 97:1 98:1 103:1 104:1 107:1 111:1 116:1 118:1 119:1 125:1 126:1 
0 10 10 0 10 10 1.14900454556006 2.248525039522542 0 10 0 7.434959601737106 0 0 0 0 0.4686489792720667 0 0 0 0 0.5491775271272072 0 0 0 9:1 10:1 11:1 19:1 20:1 21:1 29:1 30:1 33:1 34:1 35:1 38:1 39:1 41:1 47:1 49:1 55:1 56:1 57:1 64:1 65:1 72:1 73:1 80:1 81:1 82:1 88:1 90:1 96:1 98:1 99:1 104:1 107:1 108:1 109:1 112:1 117:1 118:1 119:1 120:1 
10 10 10 10 10 10 10 10 10 10 10 10 10 10 10 10 10 10 10 10 2.256985873312196 1.024534363212278 10 7.268686806616131 10 33:1 34:1 35:1 36:1 40:1 41:1 48:1 49:1 56:1 57:1 64:1 65:1 72:1 73:1 74:1 80:1 82:1 83:1 87:1 88:1 91:1 92:1 93:1 94:1 95:1 
10 10 10 10 10 10 10 10 10 10 10 10 10 10 10 10 10 10 10 10 2.663370908209621 1.204407403786796 10 1.650423833624341 10 24:1 32:1 40:1 48:1 50:1 51:1 52:1 56:1 58:1 64:1 65:1 66:1 72:1 73:1 80:1 81:1 88:1 89:1 96:1 97:1 103:1 104:1 106:1 107:1 108:1 109:1 110:1 111:1 
0 4.15471927320665 10 0 10 0 0 0 0 10 0 0 0 0 0 0 2.290470622681625 0 0 0 0 0 0 0 0 19:1 20:1 21:1 22:1 26:1 27:1 30:1 31:1 32:1 33:1 34:1 40:1 41:1 48:1 49:1 56:1 57:1 64:1 65:1 72:1 73:1 80:1 81:1 87:1 88:1 89:1 94:1 95:1 97:1 98:1 99:1 100:1 101:1 102:1 107:1 108:1 
0 10 10 0 10 0 0 0 0 10 0 10 0 0 0 0 0 0 0 0 0 0 0 0 0 34:1 35:1 36:1 37:1 38:1 39:1 40:1 41:1 42:1 48:1 49:1 56:1 57:1 64:1 65:1 72:1 73:1 80:1 81:1 86:1 87:1 88:1 89:1 90:1 91:1 92:1 93:1 94:1 
8.610797568843267 10 10 0 10 10 0 10 3.062334283424841 10 4.566699012124087 10 0 0 0 0 0.6833714400040151 0.6782427486617889 3.509133856388702 0 0 0 0 0 0 27:1 28:1 29:1 30:1 31:1 35:1 39:1 40:1 42:1 43:1 48:1 50:1 51:1 56:1 58:1 64:1 65:1 66:1 72:1 73:1 80:1 81:1 88:1 89:1 90:1 91:1 95:1 96:1 99:1 100:1 101:1 102:1 103:1 
0 10 10 0 10 0 0 0 0 10 0 0 0 0 0 0 0 0 0 0 0 0 0 0 0 27:1 34:1 35:1 36:1 37:1 38:1 39:1 42:1 43:1 47:1 48:1 49:1 50:1 56:1 57:1 64:1 65:1 72:1 73:1 79:1 80:1 81:1 86:1 87:1 89:1 93:1 94:1 97:1 98:1 99:1 100:1 101:1 
0 10 10 0 10 0 0 0 0 10 0 0 0 0 0 0 0 0 0 0 0 0 0 0 0 28:1 29:1 30:1 31:1 34:1 35:1 37:1 39:1 40:1 42:1 48:1 50:1 56:1 57:1 58:1 64:1 65:1 72:1 73:1 80:1 81:1 87:1 88:1 89:1 93:1 94:1 95:1 97:1 98:1 99:1 100:1 101:1 
0 10 10 0 10 0.2165173358559817 0.426640178888358 1.225032947050296 0 10 0.2288324158760966 2.048076504828616 0 0 0 0 0 0 0 0 0 0.6980326071055133 0 0 0 19:1 20:1 21:1 22:1 27:1 28:1 29:1 30:1 31:1 32:1 34:1 35:1 40:1 42:1 48:1 50:1 56:1 57:1 58:1 64:1 65:1 71:1 72:1 73:1 78:1 79:1 81:1 86:1 89:1 93:1 94:1 97:1 100:1 101:1 105:1 106:1 107:1 108:1 
0 0 10 0 10 0 0 0 0 10 0 0 0 0 0 0 0 0 0 0 0 0 0 0 0 27:1 28:1 29:1 30:1 31:1 34:1 35:1 39:1 40:1 41:1 42:1 43:1 48:1 49:1 56:1 57:1 64:1 65:1 72:1 73:1 80:1 81:1 87:1 88:1 89:1 90:1 94:1 95:1 98:1 99:1 100:1 101:1 102:1 
5.980376924078634 10 10 4.666056668995821 10 10 3.35881335071776 9.291716549346816 4.112890092326942 10 1.818078374748306 10 0.5385900303545599 3.080579857312247 4.28536642572453 0 0.8460103392396018 0.4321987436416134 4.007342171202966 1.513771104941573 0 0.654664992131101 0.4757888082131027 0 1.248907794967557 1:1 2:1 3:1 11:1 19:1 20:1 28:1 29:1 35:1 36:1 37:1 38:1 42:1 43:1 46:1 47:1 50:1 55:1 56:1 57:1 58:1 64:1 65:1 72:1 73:1 80:1 81:1 88:1 89:1 96:1 97:1 104:1 105:1 106:1 112:1 114:1 120:1 122:1 123:1 124:1 125:1 126:1 127:1 
0 10 10 0 10 0 0 0 0 10 0 10 0 0 0 0 0 0 0 0 0 0 0 0 0 34:1 35:1 36:1 37:1 38:1 41:1 42:1 46:1 47:1 49:1 55:1 56:1 57:1 64:1 65:1 72:1 73:1 80:1 81:1 82:1 87:1 88:1 90:1 91:1 92:1 93:1 94:1 95:1 
10 10 10 10 10 10 10 10 10 10 10 10 10 10 10 10 10 10 10 10 2.297249975115698 0.2039948054610853 10 0 10 36:1 37:1 38:1 39:1 40:1 48:1 50:1 51:1 56:1 58:1 64:1 65:1 66:1 71:1 72:1 73:1 78:1 79:1 81:1 85:1 86:1 89:1 90:1 91:1 92:1 93:1 
10 10 10 0 10 10 1.307982412566596 10 10 10 10 10 0 10 10 0 10 0 10 0 0 0 0 0 10 43:1 44:1 45:1 46:1 47:1 49:1 50:1 51:1 52:1 55:1 56:1 57:1 64:1 65:1 72:1 73:1 74:1 78:1 79:1 80:1 82:1 83:1 84:1 85:1 86:1 
10 10 10 3.030768593744363 10 10 5.586274319610362 10 10 10 10 10 4.638538064124312 10 10 3.399966274280233 10 6.215013838296338 10 2.30274070381828 0 3.066051245118589 2.313536362462375 1.242529223540944 10 36:1 37:1 38:1 39:1 40:1 43:1 44:1 48:1 51:1 52:1 56:1 58:1 59:1 64:1 65:1 66:1 71:1 72:1 73:1 78:1 79:1 81:1 83:1 84:1 85:1 86:1 89:1 90:1 91:1 
10 10 10 7.531412026129187 10 10 8.137367545052335 10 10 10 10 10 5.452442020269915 10 10 6.320929996697754 10 10 10 3.033289518195893 1.034557696668751 0 4.022236007835079 0 10 35:1 36:1 37:1 41:1 42:1 45:1 46:1 49:1 54:1 55:1 57:1 63:1 64:1 65:1 72:1 73:1 80:1 81:1 88:1 90:1 91:1 92:1 93:1 94:1 95:1 96:1 
0 10 10 0 10 0 0 0 0 10 0 0 0 0 0 0 0 0 0 0 0 0 0 0 0 28:1 29:1 33:1 34:1 35:1 36:1 37:1 38:1 39:1 40:1 41:1 47:1 48:1 49:1 56:1 57:1 64:1 65:1 72:1 73:1 80:1 81:1 88:1 89:1 90:1 95:1 96:1 98:1 99:1 100:1 101:1 102:1 103:1 
0 10 10 0 10 0 0 0 0 10 0 0 0 0 0 0 0 0 0 0 0 0 0 0 0 13:1 21:1 27:1 28:1 29:1 35:1 36:1 37:1 38:1 39:1 42:1 43:1 47:1 48:1 50:1 56:1 57:1 58:1 64:1 65:1 72:1 73:1 80:1 81:1 87:1 88:1 89:1 94:1 95:1 97:1 101:1 102:1 105:1 106:1 107:1 108:1 109:1 114:1 
4.706215620180888 10 10 2.05418881927206 10 10 2.963391906508676 10 9.099859282757283 10 5.798031674129913 10 1.469772409731353 4.632924123879969 2.593629318518628 1.086414131720029 10 1.458516421767431 4.519266161727847 2.753452467025009 0 0.8049661585411421 1.088211837348191 0 2.446658220010377 11:1 12:1 18:1 19:1 20:1 21:1 25:1 26:1 29:1 30:1 33:1 38:1 41:1 46:1 47:1 49:1 55:1 57:1 64:1 65:1 72:1 73:1 80:1 81:1 88:1 89:1 96:1 97:1 98:1 104:1 106:1 111:1 112:1 114:1 115:1 116:1 117:1 118:1 119:1 
10 10 10 0 10 10 0 10 10 10 0.3911650277067121 10 0 10 0 0 10 0 9.690849540550772 0 0 0 0 0 0 33:1 34:1 35:1 36:1 37:1 38:1 41:1 46:1 47:1 49:1 55:1 56:1 57:1 64:1 65:1 72:1 73:1 79:1 80:1 81:1 82:1 85:1 86:1 87:1 90:1 91:1 92:1 93:1 
0 10 10 0.8840268470356749 10 10 0 10 10 10 2.289073609945576 10 0.5039990758206939 0.3071339090352434 0 1.344475345679951 10 0 10 0 0 0.2731069403841713 0 0 0 20:1 21:1 22:1 23:1 28:1 31:1 32:1 34:1 35:1 36:1 40:1 41:1 42:1 48:1 49:1 56:1 57:1 63:1 64:1 65:1 71:1 73:1 78:1 79:1 81:1 86:1 89:1 90:1 93:1 94:1 98:1 99:1 100:1 101:1 107:1 108:1 
10 10 10 10 10 10 7.965390773203143 10 10 10 10 10 6.331476752183993 10 10 6.138482368858092 10 8.914988494489975 10 5.437988114366064 0.7104764461424237 0.7426156676913968 7.597887064062748 0.9060934948574284 10 15:1 23:1 31:1 39:1 40:1 44:1 45:1 46:1 48:1 52:1 56:1 60:1 64:1 67:1 68:1 72:1 74:1 75:1 79:1 80:1 81:1 82:1 87:1 89:1 94:1 95:1 97:1 101:1 102:1 105:1 106:1 108:1 109:1 114:1 115:1 116:1 
0 0 10 0.6537320046544151 10 4.280857149117097 0 0 0 10 0 0 0 0 0 0 0 0 0 0 0 0 0 0 0 2:1 3:1 4:1 5:1 6:1 12:1 13:1 14:1 20:1 22:1 23:1 27:1 28:1 31:1 35:1 39:1 40:1 42:1 43:1 48:1 50:1 56:1 57:1 58:1 64:1 65:1 72:1 73:1 80:1 81:1 87:1 88:1 89:1 95:1 97:1 103:1 105:1 110:1 111:1 113:1 117:1 118:1 121:1 122:1 123:1 124:1 125:1 
0 10 10 0 10 0 0 0 1.699708715141285 10 0 0 0 0 0 0 0 0 0 0 0 0 0 0 0 27:1 28:1 29:1 30:1 31:1 32:1 35:1 36:1 40:1 42:1 43:1 48:1 49:1 50:1 56:1 57:1 64:1 65:1 72:1 73:1 80:1 81:1 88:1 89:1 90:1 95:1 96:1 98:1 99:1 100:1 101:1 102:1 103:1 
10 10 10 4.246040295209722 10 10 0.8905502675117919 10 7.557311900237575 10 3.172582397984338 10 1.588757857445715 7.518351070146644 3.714021884297482 1.075027959860983 10 1.551353145081316 5.005332028447192 1.16435102160078 0.3181916394704368 0 1.439344095235229 0 2.165197712641356 4:1 5:1 13:1 21:1 22:1 30:1 34:1 38:1 39:1 41:1 42:1 47:1 48:1 49:1 56:1 57:1 64:1 65:1 72:1 73:1 80:1 81:1 88:1 89:1 96:1 97:1 104:1 106:1 112:1 114:1 115:1 116:1 119:1 120:1 124:1 125:1 126:1 127:1 
0 10 10 0 10 0 0 0 0 10 0 0 0 0 0 0 0 0 0 0 0 0 0 0 0 18:1 19:1 20:1 21:1 22:1 26:1 27:1 30:1 31:1 34:1 39:1 40:1 41:1 42:1 48:1 49:1 56:1 57:1 64:1 65:1 72:1 73:1 80:1 81:1 88:1 89:1 95:1 97:1 101:1 102:1 103:1 105:1 106:1 107:1 108:1 109:1 
0 10 10 0 10 10 0 10 0 10 0 10 0 0 0 0 2.271899265617512 0 0 0 0 0 0 0 0 36:1 37:1 38:1 39:1 40:1 43:1 44:1 48:1 50:1 51:1 56:1 58:1 64:1 65:1 66:1 72:1 73:1 79:1 80:1 81:1 85:1 86:1 87:1 89:1 90:1 91:1 92:1 93:1 98:1 99:1 
0 10 10 0 10 0 0 0 0 10 0 1.186242754797616 0 0 0 0 0 0 0 0 0 0 0 0 0 27:1 29:1 30:1 31:1 32:1 35:1 36:1 37:1 40:1 42:1 43:1 48:1 49:1 50:1 51:1 56:1 57:1 64:1 65:1 71:1 72:1 73:1 79:1 81:1 85:1 86:1 87:1 89:1 92:1 93:1 97:1 98:1 99:1 
4.794077303728873 10 10 0 10 10 0 10 0 10 0 10 0 0 0 0 3.601373044199828 0 0 0 0 0 0 0 0 31:1 36:1 37:1 38:1 39:1 40:1 43:1 44:1 48:1 50:1 51:1 56:1 58:1 64:1 65:1 66:1 72:1 73:1 79:1 80:1 81:1 86:1 87:1 89:1 93:1 94:1 97:1 98:1 99:1 100:1 101:1 
10 10 10 10 10 10 10 10 10 10 10 10 10 10 10 10 10 10 10 10 10 10 10 10 10 49:1 50:1 51:1 57:1 58:1 59:1 60:1 61:1 65:1 67:1 69:1 70:1 71:1 72:1 73:1 74:1 75:1 
0 10 10 0.8098221006014843 10 0 0 0 0 10 0 0 0 0 0 0 0 0 0 0 0 0 0 0 0 15:1 22:1 23:1 24:1 30:1 32:1 35:1 36:1 37:1 38:1 40:1 42:1 43:1 44:1 45:1 46:1 48:1 49:1 50:1 56:1 57:1 64:1 65:1 72:1 73:1 80:1 81:1 87:1 88:1 89:1 95:1 97:1 102:1 103:1 105:1 109:1 110:1 113:1 114:1 115:1 116:1 117:1 
0 10 10 0 10 10 0.1149651171108837 0 0 10 0 0 0 0 0 0 0 0 0 0 0 0.07670107439152545 0 0 0 5:1 6:1 12:1 13:1 19:1 20:1 21:1 22:1 27:1 30:1 31:1 34:1 35:1 39:1 40:1 42:1 48:1 49:1 50:1 56:1 57:1 64:1 65:1 72:1 73:1 80:1 81:1 88:1 89:1 96:1 97:1 104:1 105:1 112:1 113:1 119:1 120:1 121:1 122:1 123:1 124:1 125:1 126:1 127:1 
10 10 10 10 10 10 10 10 10 10 10 10 10 10 10 10 10 10 10 10 5.189521586727073 5.332968096070789 10 1.508588550398277 10 33:1 34:1 35:1 36:1 37:1 45:1 46:1 47:1 51:1 55:1 56:1 59:1 64:1 67:1 72:1 75:1 80:1 83:1 84:1 86:1 87:1 88:1 92:1 93:1 94:1 
0 10 10 0 10 0 0 0 0 10 0 0 0 0 0 0 0 0 0 0 0 0 0 0 0 3:1 4:1 5:1 13:1 14:1 15:1 20:1 21:1 23:1 27:1 28:1 32:1 34:1 35:1 40:1 42:1 48:1 50:1 56:1 57:1 58:1 64:1 65:1 72:1 73:1 79:1 80:1 81:1 87:1 89:1 94:1 95:1 97:1 102:1 105:1 109:1 110:1 113:1 116:1 117:1 121:1 122:1 123:1 124:1 
10 10 10 10 10 10 10 10 10 10 10 10 10 10 10 10 10 10 10 10 3.142116515192464 2.189004589648099 10 2.531809767761821 10 43:1 44:1 45:1 46:1 47:1 48:1 50:1 51:1 54:1 56:1 57:1 64:1 65:1 70:1 71:1 72:1 73:1 74:1 76:1 77:1 78:1 82:1 83:1 84:1 
10 10 10 10 10 10 9.515327046189066 10 10 10 10 10 7.411841480990931 10 10 6.598939524050767 10 7.812650385195112 10 5.273641873067575 0.8282332377640473 1.927116703729169 4.907749702777132 0.2670448457346721 10 4:1 5:1 6:1 7:1 8:1 11:1 12:1 19:1 24:1 27:1 32:1 34:1 35:1 39:1 40:1 42:1 47:1 50:1 55:1 58:1 62:1 66:1 70:1 74:1 77:1 78:1 82:1 85:1 89:1 90:1 92:1 93:1 97:1 100:1 105:1 107:1 108:1 113:1 115:1 121:1 122:1 123:1 
0.4884723188967756 10 10 4.668124387872938 10 10 1.547657714040023 7.799269575062487 1.435405441796345 10 1.194582843137966 10 0.8449338293603521 2.295242152719213 0.9588396604407405 0.3716396261615251 3.347181777753411 0 10 0 0 0 0 0 0.1603124858376351 3:1 4:1 5:1 6:1 7:1 12:1 13:1 15:1 20:1 23:1 24:1 27:1 28:1 32:1 35:1 40:1 43:1 48:1 51:1 56:1 58:1 59:1 64:1 66:1 72:1 74:1 79:1 80:1 81:1 82:1 87:1 89:1 95:1 97:1 102:1 103:1 105:1 109:1 110:1 113:1 114:1 116:1 117:1 122:1 123:1 124:1 
0 5.81570110782208 10 0 10 3.342282595525508 0 0 0 10 0 0 0 0 0 0 0 0 1.166005477291455 0 0 0 0 0 0 4:1 5:1 6:1 11:1 12:1 13:1 14:1 15:1 18:1 19:1 22:1 23:1 26:1 31:1 32:1 34:1 40:1 41:1 42:1 48:1 49:1 56:1 57:1 64:1 65:1 72:1 73:1 80:1 81:1 88:1 89:1 95:1 96:1 97:1 103:1 105:1 106:1 110:1 111:1 114:1 117:1 118:1 122:1 123:1 124:1 125:1 
0 10 10 0 10 0 0 0 0 10 0 0 0 0 0 0 0 0 0 0 0 0 0 0 0 27:1 28:1 29:1 30:1 31:1 34:1 35:1 39:1 40:1 41:1 42:1 48:1 49:1 56:1 57:1 64:1 65:1 72:1 73:1 79:1 80:1 81:1 86:1 87:1 89:1 93:1 94:1 97:1 98:1 99:1 100:1 101:1 
0 10 10 0 10 0 0 0 0 10 0 0 0 0 0 0 0 0 0 0 0 0.8101107177422002 0 0 0 20:1 26:1 27:1 28:1 29:1 30:1 31:1 33:1 34:1 36:1 37:1 39:1 40:1 41:1 43:1 44:1 48:1 50:1 51:1 56:1 58:1 64:1 66:1 72:1 73:1 74:1 79:1 80:1 81:1 86:1 87:1 89:1 94:1 97:1 98:1 100:1 101:1 102:1 106:1 107:1 108:1 
0 0 10 0 2.900687078757308 0 0 0 0 10 0 0 0 0 0 0 0 0 0 0 0 0 0 0 0 21:1 27:1 28:1 29:1 30:1 31:1 34:1 35:1 36:1 39:1 40:1 42:1 48:1 49:1 50:1 56:1 57:1 64:1 65:1 72:1 73:1 79:1 80:1 81:1 86:1 87:1 89:1 93:1 94:1 97:1 100:1 101:1 105:1 106:1 107:1 108:1 
0 10 10 0 10 0 0 0 0 10 0 0 0 0 0 0 0 0 0 0 0 0 0 0 0 34:1 35:1 36:1 37:1 38:1 39:1 40:1 42:1 43:1 48:1 49:1 50:1 56:1 57:1 64:1 65:1 72:1 73:1 80:1 81:1 87:1 88:1 89:1 90:1 91:1 92:1 93:1 94:1 95:1 
0 10 10 0 10 8.967633320819086 0 5.818930136064448 0 10 0 10 0 0 0 0 1.292610008768597 0 0 0 0 0 0 0 0 35:1 36:1 37:1 41:1 42:1 43:1 45:1 46:1 47:1 48:1 49:1 56:1 57:1 64:1 65:1 72:1 73:1 80:1 81:1 86:1 87:1 88:1 89:1 90:1 91:1 92:1 93:1 94:1 
2.007381936383188 10 10 0.760199641890969 10 10 1.465262389176353 10 3.063850493937573 10 0.2621841882224127 10 1.837154670098542 1.564889426068514 0 2.964297358555439 10 0 10 0.9750915826636265 0 0.2059801440715635 0 0.06419397364846975 2.728409983008178 5:1 6:1 7:1 8:1 11:1 12:1 13:1 16:1 18:1 19:1 24:1 25:1 32:1 33:1 40:1 42:1 48:1 50:1 56:1 57:1 58:1 64:1 65:1 72:1 73:1 79:1 80:1 81:1 86:1 87:1 89:1 93:1 94:1 97:1 100:1 101:1 105:1 107:1 108:1 113:1 114:1 121:1 
10 10 10 10 10 10 8.726043662460794 10 10 10 10 10 4.547281997076757 10 10 5.541337518448811 10 5.922839722069019 10 3.752284066388324 0.9600893486486788 1.048942333486317 4.600428040730962 0.1672053274945311 8.482985911702311 8:1 15:1 22:1 29:1 36:1 37:1 38:1 39:1 40:1 43:1 44:1 48:1 51:1 56:1 59:1 64:1 66:1 72:1 74:1 80:1 81:1 88:1 89:1 96:1 97:1 103:1 104:1 105:1 110:1 111:1 113:1 117:1 118:1 121:1 122:1 123:1 124:1 125:1 
10 10 10 10 10 10 10 10 10 10 10 10 10 10 10 10 10 10 10 10 6.224373756660432 7.209135189351461 10 3.981638725520059 10 35:1 43:1 51:1 59:1 65:1 66:1 67:1 68:1 69:1 70:1 71:1 72:1 73:1 80:1 81:1 87:1 88:1 89:1 90:1 91:1 92:1 93:1 94:1 95:1 
10 10 10 10 10 10 10 10 10 10 10 10 10 10 10 10 10 10 10 10 10 10 10 10 10 51:1 52:1 56:1 58:1 59:1 64:1 66:1 71:1 72:1 73:1 74:1 75:1 76:1 77:1 78:1 79:1 
10 10 10 2.649016494277691 10 10 0 10 10 10 5.353188552901642 10 0 10 0 2.316336620335206 10 0 10 0 0 0 0 1.253377078652304 2.031501561187144 26:1 29:1 30:1 31:1 32:1 33:1 34:1 40:1 41:1 48:1 49:1 56:1 57:1 64:1 65:1 72:1 73:1 79:1 80:1 81:1 86:1 87:1 89:1 93:1 94:1 97:1 98:1 99:1 100:1 101:1 
0 10 10 0 10 0 0 0 0 10 0 0 0 0 0 0 0 0 0 0 0 0 0 0 0 26:1 27:1 28:1 29:1 30:1 34:1 35:1 38:1 39:1 41:1 42:1 47:1 48:1 49:1 56:1 57:1 64:1 65:1 72:1 73:1 80:1 81:1 88:1 89:1 90:1 95:1 96:1 98:1 99:1 100:1 101:1 102:1 103:1 
0 10 10 0 10 0 0 0 0 10 0 0 0 0 0 0 10 0 0 0 0 0 0 0 0 27:1 28:1 29:1 30:1 33:1 34:1 35:1 38:1 39:1 40:1 41:1 48:1 49:1 56:1 57:1 64:1 65:1 72:1 73:1 80:1 81:1 87:1 88:1 89:1 94:1 95:1 97:1 98:1 99:1 100:1 101:1 102:1 
0 0 10 0 8.695520380903856 0 0 0 0 10 0 0 0 0 0 0 0 0 0 0 0 0 0 0 0 18:1 19:1 20:1 21:1 22:1 25:1 26:1 30:1 31:1 33:1 39:1 40:1 41:1 42:1 48:1 49:1 50:1 56:1 57:1 64:1 65:1 72:1 73:1 80:1 81:1 87:1 88:1 89:1 95:1 97:1 101:1 102:1 103:1 105:1 106:1 107:1 108:1 109:1 
0 10 10 0 10 0 0 0 0 10 0 0 0 0 0 0 0 0 0 0 0 0 0 0 0 23:1 24:1 29:1 30:1 31:1 32:1 36:1 37:1 39:1 40:1 42:1 43:1 44:1 48:1 49:1 50:1 56:1 57:1 64:1 65:1 72:1 73:1 80:1 81:1 87:1 88:1 89:1 95:1 97:1 98:1 101:1 102:1 103:1 106:1 107:1 108:1 109:1 
0 10 10 0.870549530020764 10 0 0 0 0 10 0 0 0 0 0 0 0 0 0 0 0 0 0 0 0 13:1 14:1 20:1 21:1 28:1 29:1 35:1 36:1 37:1 38:1 42:1 43:1 46:1 47:1 48:1 49:1 50:1 56:1 57:1 64:1 65:1 72:1 73:1 80:1 81:1 88:1 89:1 94:1 95:1 96:1 97:1 102:1 105:1 109:1 110:1 113:1 114:1 115:1 116:1 117:1 
1.733913262586509 10 10 0 10 10 0 3.501420199130046 0 10 0 10 0 0 0 0 8.214373081997149 0 0 0 0 0 0 0 0 29:1 30:1 31:1 39:1 40:1 43:1 44:1 45:1 46:1 47:1 48:1 50:1 51:1 56:1 57:1 58:1 64:1 65:1 71:1 72:1 73:1 79:1 81:1 86:1 87:1 89:1 92:1 93:1 94:1 97:1 98:1 99:1 100:1 
10 10 10 5.002586333606986 10 10 2.255413403959385 10 10 10 10 10 4.729996505090999 10 10 3.005367567611112 10 5.255494376015506 10 1.474025768760421 0.4528296880857479 0 3.207658617726187 0.4488494972895622 5.231489011253166 28:1 29:1 30:1 31:1 35:1 37:1 39:1 40:1 42:1 48:1 49:1 56:1 57:1 64:1 65:1 72:1 73:1 80:1 81:1 87:1 88:1 90:1 94:1 95:1 99:1 100:1 101:1 102:1 
9.178021420353897 10 10 0 10 10 2.542449261614806 10 10 10 6.372764251131319 10 1.930936166806045 10 2.820469627219338 5.439953409268087 10 1.577252804338774 10 1.778826890114793 0.1960066697329276 0.09170395138101843 1.260170665983014 0 3.811356147978827 19:1 20:1 22:1 23:1 24:1 27:1 32:1 34:1 35:1 40:1 42:1 48:1 49:1 50:1 56:1 57:1 64:1 65:1 72:1 73:1 79:1 81:1 87:1 89:1 92:1 93:1 94:1 95:1 97:1 100:1 106:1 107:1 108:1 
0 4.292899311294876 10 0.1116289055108544 10 10 0 0 0 10 0 0 0 0 0 0 0 0 0 0 0 0 0 0 0 5:1 6:1 7:1 12:1 13:1 15:1 20:1 21:1 22:1 23:1 24:1 28:1 32:1 34:1 35:1 36:1 40:1 42:1 48:1 50:1 56:1 57:1 58:1 64:1 65:1 72:1 73:1 80:1 81:1 88:1 89:1 95:1 96:1 97:1 103:1 105:1 110:1 111:1 113:1 114:1 117:1 118:1 122:1 123:1 124:1 125:1 
7.08804301324678 10 10 2.881379597875902 10 10 2.858090840805279 10 10 10 9.010200287223309 10 3.706368057497211 10 6.855150959305495 3.914925985185407 10 2.323502916063696 10 2.069168345835508 0.420577073996548 0 1.307814888642639 0 3.871057994564218 21:1 22:1 23:1 24:1 28:1 29:1 32:1 35:1 36:1 40:1 43:1 48:1 56:1 58:1 64:1 65:1 71:1 72:1 73:1 78:1 79:1 81:1 85:1 86:1 89:1 92:1 93:1 97:1 98:1 99:1 100:1 106:1 107:1 
5.838672388608784 10 10 0 10 10 0 10 10 10 0 10 0 7.059992190235679 0 0 10 0 0 0 0 0 0 0 0 29:1 30:1 31:1 36:1 37:1 39:1 40:1 43:1 44:1 48:1 50:1 56:1 57:1 58:1 64:1 65:1 71:1 72:1 73:1 78:1 79:1 81:1 85:1 86:1 89:1 90:1 91:1 93:1 99:1 100:1 
0 10 10 0 10 9.362723022970881 0 10 5.688625740140854 10 0 10 0 0 0 0 10 0 0 0 0 0 0 0 0 27:1 28:1 29:1 30:1 31:1 32:1 35:1 40:1 42:1 43:1 48:1 49:1 50:1 56:1 57:1 64:1 65:1 71:1 72:1 73:1 79:1 81:1 86:1 87:1 89:1 93:1 94:1 97:1 98:1 99:1 100:1 101:1 
5.987215038119714 10 10 5.617313463861588 10 10 2.939199786290655 10 10 10 5.384313878597596 10 2.879084973224274 7.433697993945253 4.567741682344937 2.607848985765095 10 1.732760815350132 10 1.777736470504631 0.4164606784302779 0.4085590358614252 1.170704756334138 0.1234734973573236 4.077267242261851 4:1 5:1 11:1 12:1 13:1 14:1 15:1 16:1 18:1 19:1 20:1 24:1 26:1 32:1 34:1 40:1 41:1 48:1 49:1 55:1 56:1 57:1 63:1 65:1 71:1 73:1 79:1 81:1 86:1 87:1 89:1 94:1 97:1 101:1 102:1 105:1 109:1 113:1 116:1 117:1 121:1 122:1 123:1 124:1 
5.914368826139706 10 10 1.311197371126241 10 10 1.071015577820783 10 10 10 4.302040172870495 10 0 4.174027124962967 1.712671130892907 0.4378029028931534 10 0.4065514858454817 1.10009736635857 1.141371487246431 0 0 0.2092021966488022 0 0 18:1 19:1 27:1 28:1 33:1 34:1 36:1 37:1 38:1 41:1 46:1 47:1 49:1 55:1 57:1 63:1 64:1 65:1 72:1 73:1 80:1 81:1 88:1 89:1 96:1 97:1 98:1 103:1 104:1 106:1 107:1 108:1 109:1 110:1 111:1 
7.084125138638637 10 10 0 10 10 0 10 10 10 0 10 0 0 0 0 10 0 0 0 0 0.2039280947856408 0 0.9055261967602509 0 35:1 36:1 37:1 38:1 39:1 40:1 44:1 48:1 49:1 50:1 51:1 52:1 56:1 57:1 64:1 65:1 72:1 73:1 80:1 81:1 82:1 86:1 87:1 88:1 90:1 91:1 92:1 93:1 94:1 
0 10 10 0 10 0 0 0 0 10 0 0 0 0 0 0 0.2681997270508166 0 0 0 0 0 0 0 0 20:1 21:1 22:1 23:1 24:1 26:1 27:1 28:1 32:1 33:1 34:1 35:1 40:1 41:1 42:1 48:1 49:1 56:1 57:1 64:1 65:1 72:1 73:1 79:1 80:1 81:1 86:1 87:1 89:1 93:1 94:1 97:1 98:1 100:1 101:1 106:1 107:1 108:1 
10 10 10 6.058403200913817 10 10 2.186969234471497 10 10 10 10 10 1.775759596950957 10 10 1.718076464141748 10 2.779570637885844 10 0.4560236673757594 0.1491768172166223 0.5391904476656014 1.599515548391195 0 10 36:1 37:1 38:1 42:1 43:1 44:1 46:1 47:1 49:1 50:1 55:1 57:1 64:1 65:1 72:1 73:1 79:1 80:1 81:1 82:1 87:1 90:1 91:1 92:1 93:1 94:1 95:1 
0 10 10 0 10 0 0 0 0 10 0 0 0 0 0 0 0 0 0 0 0 0 0 0 0 27:1 28:1 29:1 30:1 31:1 34:1 35:1 39:1 40:1 41:1 42:1 48:1 49:1 56:1 57:1 64:1 65:1 72:1 73:1 80:1 81:1 87:1 88:1 89:1 92:1 93:1 94:1 95:1 97:1 98:1 99:1 100:1 
0 10 10 0 10 0 0 0 1.843767325953788 10 0 4.036732607570674 0 0 0 0 0 0 0 0 0 0 0 0 0 26:1 27:1 34:1 35:1 36:1 37:1 38:1 41:1 42:1 46:1 47:1 49:1 55:1 56:1 57:1 64:1 65:1 72:1 73:1 80:1 81:1 87:1 88:1 89:1 94:1 95:1 97:1 98:1 99:1 100:1 101:1 102:1 
0.6011814054566442 10 10 0 10 10 4.674051458026705 10 5.207777864291464 10 4.507525968606479 10 0.8031547325191395 0.8507234855641141 3.299478367132931 0 5.237479591645801 2.958913200605412 4.621103065313447 1.584183464390625 0 0 0.5203879845914565 0 1.304429943163166 17:1 18:1 19:1 20:1 21:1 25:1 26:1 29:1 34:1 35:1 37:1 38:1 42:1 46:1 49:1 54:1 55:1 57:1 63:1 64:1 65:1 72:1 73:1 80:1 81:1 82:1 88:1 90:1 96:1 98:1 104:1 106:1 107:1 108:1 109:1 110:1 111:1 112:1 
4.51029654683795 10 10 1.013910118410094 10 10 0 10 10 10 2.927394874360782 10 2.062081298206449 6.412132430390415 0.1026526500268825 0 10 0 10 0 0 0 0 0 0.8827452708702044 20:1 21:1 22:1 23:1 24:1 28:1 29:1 32:1 36:1 37:1 40:1 43:1 44:1 48:1 51:1 56:1 58:1 59:1 63:1 64:1 66:1 71:1 73:1 74:1 78:1 81:1 85:1 86:1 89:1 92:1 93:1 97:1 98:1 99:1 100:1 105:1 106:1 
0 0 10 0 0 0 0 0 0 6.412897748622362 0 0 0 0 0 0 0 0 0 0 0 0 0 0 0 13:1 14:1 20:1 21:1 22:1 27:1 28:1 30:1 31:1 32:1 35:1 36:1 40:1 42:1 43:1 48:1 50:1 56:1 57:1 64:1 65:1 72:1 73:1 80:1 81:1 87:1 88:1 89:1 94:1 95:1 97:1 101:1 102:1 105:1 107:1 108:1 109:1 113:1 114:1 115:1 
10 10 10 10 10 10 10 10 10 10 10 10 10 10 10 10 10 10 10 10 1.534724125790309 0.8280071420347058 10 0 10 43:1 44:1 45:1 46:1 47:1 48:1 50:1 51:1 56:1 57:1 58:1 64:1 65:1 71:1 72:1 73:1 74:1 78:1 79:1 82:1 83:1 84:1 85:1 86:1 
4.777175295006432 10 10 0 10 10 0 5.294375425065346 3.241589878243751 10 0 10 0 0 0 0 0 0 0 0 0 0 0 0 0 28:1 29:1 34:1 35:1 36:1 37:1 41:1 42:1 44:1 45:1 46:1 49:1 54:1 55:1 56:1 57:1 64:1 65:1 72:1 73:1 80:1 81:1 88:1 89:1 90:1 96:1 98:1 99:1 100:1 101:1 102:1 103:1 104:1 
10 10 10 6.389430852716124 10 10 10 10 10 10 10 10 5.231367890083116 10 10 8.68328501946403 10 9.344436119653341 10 2.843445832784539 0 0 3.83909552862939 0 10 43:1 44:1 45:1 46:1 47:1 48:1 50:1 51:1 54:1 56:1 57:1 58:1 64:1 65:1 72:1 73:1 77:1 78:1 79:1 80:1 81:1 82:1 83:1 84:1 85:1 
0 10 10 0 10 5.442948624003799 0 8.634987507737637 0 10 0 10 0 0 0 0 1.005359692579435 0 0 0 0 0 0 0 0 33:1 34:1 35:1 36:1 37:1 38:1 39:1 47:1 48:1 49:1 50:1 51:1 56:1 57:1 64:1 65:1 72:1 73:1 80:1 81:1 82:1 87:1 88:1 90:1 91:1 92:1 93:1 94:1 95:1 
0 10 10 0 10 10 0 9.54907908038898 6.597798082747134 10 2.966816166435184 10 0 0 0 0 5.531083434595912 1.474766667583045 0 0 0 0 0 0 0 20:1 26:1 27:1 28:1 29:1 33:1 34:1 35:1 37:1 38:1 41:1 46:1 49:1 54:1 55:1 57:1 63:1 64:1 65:1 72:1 73:1 80:1 81:1 82:1 88:1 90:1 96:1 98:1 99:1 100:1 102:1 103:1 104:1 108:1 109:1 110:1 
0 10 10 0 10 0 0 0 0 10 0 0 0 0 0 0 4.551313598134921 0 0 0 0 0.08919896078013774 0 0 0 18:1 19:1 25:1 26:1 33:1 36:1 37:1 38:1 39:1 41:1 42:1 43:1 47:1 48:1 49:1 56:1 57:1 64:1 65:1 72:1 73:1 80:1 81:1 87:1 88:1 89:1 95:1 97:1 98:1 99:1 102:1 103:1 107:1 108:1 109:1 110:1 
7.320519633813326 10 10 2.030632950596406 10 10 0 10 2.554093617915851 10 0 9.358346494383888 0 0 0 0 5.049784600067955 0 10 0 0 0.7248804330674702 0 0 0 22:1 23:1 24:1 29:1 30:1 32:1 35:1 36:1 37:1 40:1 43:1 44:1 45:1 46:1 48:1 50:1 51:1 52:1 54:1 56:1 57:1 58:1 63:1 64:1 65:1 70:1 71:1 73:1 77:1 78:1 81:1 85:1 89:1 92:1 93:1 97:1 98:1 99:1 100:1 105:1 106:1 
0 10 10 0 10 10 0 10 10 10 0 10 0 1.136218072217933 0 0 10 0 0 0 0 0 0 0 0 34:1 35:1 36:1 37:1 38:1 39:1 41:1 47:1 48:1 49:1 56:1 57:1 64:1 65:1 72:1 73:1 80:1 81:1 87:1 88:1 89:1 90:1 91:1 92:1 93:1 94:1 95:1 
10 10 10 0 10 10 0 10 10 10 4.342338945717425 10 0 5.956837518255294 0.3193405820559231 0 10 0 4.649697772443449 0 0 0 0 0 1.184380749166734 20:1 21:1 27:1 28:1 29:1 34:1 35:1 39:1 40:1 41:1 42:1 48:1 49:1 56:1 57:1 64:1 65:1 72:1 73:1 80:1 81:1 87:1 88:1 89:1 95:1 97:1 102:1 105:1 106:1 107:1 108:1 109:1 
3.507022161728947 10 10 0 10 10 0 10 0 10 0 10 0 0 0 0 10 0 0 0 0 0 0 0 0 33:1 34:1 35:1 36:1 37:1 38:1 41:1 42:1 46:1 47:1 49:1 55:1 56:1 57:1 64:1 65:1 72:1 73:1 74:1 80:1 82:1 88:1 90:1 91:1 92:1 93:1 94:1 95:1 96:1 
10 10 10 0 10 10 0.5698747985959782 10 10 10 10 10 1.507409074484992 8.871790661479078 0.6035845155478627 4.330940821897973 10 0 10 0.7107324633466534 0 0 0.1546006667100701 0 1.364227353022282 20:1 21:1 22:1 23:1 24:1 25:1 26:1 27:1 32:1 33:1 34:1 40:1 41:1 48:1 49:1 56:1 57:1 64:1 65:1 72:1 73:1 80:1 81:1 88:1 89:1 96:1 97:1 98:1 102:1 103:1 107:1 108:1 109:1 
10 10 10 10 10 10 10 10 10 10 10 10 10 10 10 10 10 10 10 10 0 0 10 0 10 42:1 43:1 44:1 45:1 46:1 47:1 48:1 49:1 56:1 57:1 64:1 65:1 72:1 73:1 79:1 80:1 81:1 82:1 83:1 84:1 85:1 86:1 87:1 
0 10 10 0 10 0 0 0 0 10 0 0 0 0 0 0 0 0 0 0 0 0 0 0 0 28:1 29:1 30:1 31:1 35:1 36:1 37:1 39:1 40:1 43:1 48:1 50:1 51:1 56:1 57:1 58:1 64:1 65:1 72:1 73:1 79:1 80:1 81:1 87:1 89:1 93:1 94:1 95:1 97:1 98:1 99:1 100:1 101:1 
10 10 10 10 10 10 0.7359008849137154 10 10 10 6.689307191204938 10 2.49704977393215 10 3.861549630658768 3.915256250987352 10 1.638152779670118 10 0.9698454873638693 0.0810782490175979 0.6272191757640176 2.474124766465042 0 4.739190386276875 24:1 30:1 31:1 32:1 36:1 37:1 38:1 40:1 44:1 48:1 51:1 52:1 56:1 58:1 59:1 64:1 65:1 66:1 72:1 73:1 79:1 81:1 86:1 87:1 89:1 93:1 94:1 97:1 100:1 101:1 105:1 106:1 107:1 108:1 
10 10 10 10 10 10 10 10 10 10 10 10 10 10 10 10 10 10 10 10 3.984642111014262 4.842477564386865 10 4.109942854032976 10 45:1 46:1 47:1 48:1 51:1 52:1 53:1 56:1 58:1 59:1 60:1 63:1 64:1 65:1 66:1 70:1 71:1 73:1 76:1 77:1 78:1 81:1 82:1 83:1 84:1 
0 10 10 0 10 0 0 0 0 10 0 0.9966394662264639 0 0 0 0 0 0 0 0 0 0 0 0 0 34:1 35:1 36:1 37:1 38:1 39:1 40:1 41:1 42:1 48:1 49:1 50:1 56:1 57:1 64:1 65:1 72:1 73:1 79:1 80:1 81:1 85:1 86:1 87:1 89:1 90:1 91:1 92:1 93:1 
0 10 10 0 10 0 0 0 0 10 0 0 0 0 0 0 0 0 0 0 0 0 0 0.8318655736767911 0 30:1 31:1 34:1 35:1 36:1 37:1 39:1 40:1 41:1 42:1 48:1 49:1 56:1 57:1 64:1 65:1 72:1 73:1 79:1 80:1 81:1 86:1 87:1 89:1 90:1 91:1 92:1 93:1 94:1 98:1 99:1 
0.4827465633266353 10 10 0 10 10 0 10 6.792608177328007 10 0 10 0.1035745426002335 0.6221563980182544 0 0 10 0.1606640471790299 2.409232423852028 0 0 0 0 0.5351589579224862 2.209284758760517 17:1 18:1 19:1 20:1 21:1 22:1 25:1 30:1 31:1 33:1 34:1 39:1 41:1 47:1 48:1 49:1 56:1 57:1 64:1 65:1 72:1 73:1 80:1 81:1 82:1 87:1 90:1 95:1 98:1 99:1 102:1 103:1 107:1 108:1 109:1 110:1 
10 10 10 4.801145634908736 10 10 7.117575186660174 10 10 10 10 10 7.064316137735712 10 10 10 10 6.837259799919152 10 4.080165256483633 0.8630389666437475 1.039250634223754 4.824532189112026 0.3755638357713922 8.116597735773047 12:1 13:1 14:1 15:1 19:1 20:1 23:1 24:1 26:1 27:1 32:1 33:1 34:1 40:1 41:1 48:1 49:1 56:1 57:1 64:1 65:1 66:1 72:1 80:1 88:1 95:1 96:1 99:1 103:1 107:1 108:1 111:1 116:1 117:1 118:1 
10 10 10 10 10 10 10 10 10 10 10 10 10 10 10 10 10 10 10 10 6.041287274923398 3.76170837908901 10 7.859083487362462 10 31:1 39:1 47:1 48:1 56:1 64:1 67:1 68:1 72:1 75:1 80:1 82:1 83:1 88:1 89:1 90:1 95:1 96:1 97:1 98:1 99:1 100:1 101:1 102:1 103:1 
10 10 10 10 10 10 10 10 10 10 10 10 10 10 10 10 10 10 10 10 1.267848074730002 0.8590111888282461 10 0 10 43:1 44:1 45:1 46:1 49:1 50:1 51:1 54:1 55:1 57:1 63:1 64:1 65:1 72:1 73:1 80:1 81:1 82:1 83:1 84:1 85:1 86:1 87:1 88:1 
10 10 10 9.794213501043743 10 10 10 10 10 10 10 10 7.711375657489115 10 10 10 10 10 10 9.593458414508888 0.8292875299449282 3.484869143795463 6.443570125870224 0.3452255945368645 10 17:1 18:1 19:1 25:1 26:1 27:1 34:1 35:1 36:1 37:1 42:1 45:1 46:1 50:1 54:1 55:1 58:1 63:1 66:1 67:1 71:1 72:1 75:1 80:1 83:1 88:1 91:1 92:1 96:1 100:1 104:1 108:1 109:1 111:1 112:1 117:1 118:1 119:1 
10 10 10 10 10 10 10 10 10 10 10 10 8.156921572361407 10 10 10 10 10 10 8.122104404413621 1.355122031908967 2.246199971521074 5.336740610183965 0 10 41:1 42:1 43:1 44:1 45:1 46:1 47:1 49:1 55:1 56:1 57:1 64:1 65:1 72:1 73:1 74:1 79:1 80:1 82:1 83:1 84:1 85:1 86:1 87:1 
3.662737217163211 10 10 3.423726241619282 10 10 2.803455854968809 10 5.276052093197923 10 6.005057901399608 10 1.89374585977061 4.353763105365813 3.291822455282391 3.213872639794204 9.621545240419076 1.283889128541089 10 1.339717235807712 0 0.3024285962271033 0.595284628221816 0 2.72053972519425 13:1 14:1 15:1 18:1 19:1 20:1 21:1 23:1 24:1 25:1 26:1 32:1 35:1 40:1 43:1 48:1 50:1 51:1 56:1 58:1 64:1 66:1 72:1 74:1 80:1 81:1 82:1 87:1 88:1 89:1 95:1 97:1 98:1 102:1 103:1 106:1 108:1 109:1 110:1 114:1 115:1 116:1 
0 10 10 0 10 0 0 5.374956845829126 0 10 0 10 0 0 0 0 10 0 0 0 0 0 0 0 0 26:1 27:1 28:1 29:1 30:1 31:1 34:1 39:1 40:1 41:1 42:1 48:1 49:1 56:1 57:1 64:1 65:1 72:1 73:1 79:1 80:1 81:1 86:1 87:1 89:1 93:1 94:1 97:1 98:1 99:1 100:1 101:1 
10 10 10 8.197537589960584 10 10 10 10 10 10 10 10 6.784735169304886 10 10 9.502614639749011 10 10 10 8.22471321468851 0 0 8.079911673569432 1.442768744395761 10 41:1 42:1 43:1 44:1 45:1 46:1 49:1 52:1 54:1 55:1 56:1 57:1 64:1 65:1 72:1 73:1 74:1 80:1 82:1 83:1 84:1 85:1 86:1 87:1 88:1 
0 10 10 0 10 9.029780688189469 0 4.733394272528194 0 10 0 10 0 0 0 0 6.039620963936418 0 0 0 0 0 0 0 0 26:1 27:1 28:1 29:1 33:1 34:1 35:1 37:1 38:1 39:1 41:1 47:1 48:1 49:1 56:1 57:1 64:1 65:1 72:1 73:1 80:1 81:1 82:1 88:1 90:1 96:1 98:1 99:1 100:1 101:1 102:1 103:1 104:1 
0 10 10 0 10 0 0 0 0 10 0 0 0 0 0 0 0 0 0 0 0 0 0 0 0 17:1 18:1 19:1 20:1 21:1 26:1 27:1 29:1 30:1 33:1 34:1 35:1 38:1 39:1 41:1 47:1 49:1 55:1 56:1 57:1 64:1 65:1 72:1 73:1 80:1 81:1 88:1 89:1 96:1 97:1 98:1 103:1 104:1 106:1 107:1 108:1 109:1 110:1 111:1 
0 10 10 0 10 3.527093908015293 0 8.736006119598253 0 10 0 10 0 0 0 0 0 0 0 0 0 0 0 0 0 28:1 29:1 30:1 31:1 32:1 35:1 36:1 40:1 43:1 44:1 48:1 50:1 51:1 56:1 58:1 64:1 65:1 66:1 71:1 72:1 73:1 79:1 81:1 86:1 87:1 89:1 93:1 94:1 97:1 98:1 99:1 100:1 101:1 
0 10 10 0 10 10 0 10 4.004079967507634 10 0 10 0 0 0 0 10 0 0 0 0 0 0 0 0 35:1 36:1 41:1 42:1 43:1 45:1 46:1 47:1 49:1 50:1 55:1 56:1 57:1 64:1 65:1 72:1 73:1 80:1 81:1 82:1 86:1 87:1 88:1 90:1 91:1 92:1 93:1 94:1 
0 0.1186043289916507 10 0 10 0 0 0 0 10 0 0 0 0 0 0 0 0 0 0 0 0 0 0 0 20:1 21:1 22:1 23:1 27:1 28:1 32:1 34:1 35:1 40:1 41:1 42:1 43:1 48:1 49:1 56:1 57:1 64:1 65:1 72:1 73:1 80:1 81:1 82:1 87:1 88:1 89:1 90:1 94:1 97:1 98:1 100:1 101:1 102:1 106:1 107:1 108:1 
0 0 10 0 10 0 0 0 0 10 0 0 0 0 0 0 0 0 0 0 0 0 0 0 0 22:1 29:1 30:1 31:1 35:1 36:1 37:1 39:1 42:1 43:1 47:1 48:1 49:1 50:1 56:1 57:1 64:1 65:1 72:1 73:1 80:1 81:1 87:1 88:1 89:1 94:1 95:1 97:1 98:1 100:1 101:1 102:1 106:1 107:1 108:1 
0 10 10 0 10 0 0 0 0 10 0 0 0 0 0 0 0 0 0 0 0 0 0 0 0 28:1 29:1 30:1 31:1 34:1 35:1 36:1 39:1 40:1 42:1 43:1 48:1 49:1 50:1 56:1 57:1 64:1 65:1 72:1 73:1 80:1 81:1 87:1 88:1 89:1 90:1 91:1 94:1 95:1 99:1 100:1 101:1 102:1 
0 10 10 0 10 1.17521501682423 0 3.719302722289246 0 10 0 7.717116142508756 0 0 0 0 10 0 0 0 0 0 0 0 0 12:1 13:1 14:1 15:1 19:1 20:1 23:1 24:1 26:1 27:1 32:1 33:1 34:1 40:1 41:1 48:1 49:1 56:1 57:1 64:1 65:1 72:1 73:1 79:1 80:1 81:1 87:1 89:1 94:1 95:1 97:1 101:1 102:1 105:1 108:1 109:1 114:1 115:1 116:1 
0 10 10 1.645114296055898 10 2.523439105913911 0 1.80481357661406 0.5478315028953669 10 0.6380087495362203 1.613016066510115 0 0 0 0 10 0 0 0 0 0 0 0.2487236667757026 0.09049232746420238 3:1 10:1 11:1 12:1 13:1 18:1 19:1 21:1 22:1 23:1 25:1 26:1 31:1 32:1 33:1 40:1 41:1 48:1 49:1 56:1 57:1 64:1 65:1 72:1 73:1 80:1 81:1 87:1 88:1 89:1 95:1 97:1 102:1 103:1 105:1 110:1 113:1 114:1 115:1 116:1 117:1 118:1 124:1 
3.913599309295537 10 10 0.5242977383198706 10 9.626474854214974 0 8.586713285432593 2.608903185399191 10 0 10 0 0 0 0 10 0 0 0 0 0 0 0 0 15:1 23:1 31:1 35:1 36:1 37:1 39:1 40:1 41:1 42:1 43:1 48:1 49:1 56:1 57:1 64:1 65:1 72:1 73:1 80:1 81:1 88:1 89:1 95:1 96:1 97:1 101:1 102:1 103:1 105:1 106:1 109:1 114:1 115:1 116:1 117:1 
10 10 10 5.17893826780927 10 10 5.953846498969957 10 10 10 10 10 1.560967641254267 10 10 3.136337635969489 10 8.533134258749202 10 2.855862962867508 0.9861254875701109 0.2413948108648896 1.516050653733498 0 10 43:1 44:1 45:1 46:1 47:1 49:1 50:1 52:1 55:1 56:1 57:1 64:1 65:1 72:1 73:1 79:1 80:1 81:1 82:1 83:1 84:1 85:1 86:1 87:1 
6.353980938504387 10 10 1.984514294181791 10 10 7.425736731679586 10 8.934714091868722 10 7.539558121489998 10 0.6680530853802232 3.930917748070816 4.152675831379948 0.7461379896451337 10 0.8277385162158843 7.206105422067922 3.625853276199594 0 1.085937669971333 0.6011222694548547 0 6.230014794345297 9:1 10:1 17:1 18:1 19:1 25:1 26:1 27:1 28:1 34:1 36:1 37:1 41:1 42:1 45:1 46:1 49:1 54:1 55:1 57:1 63:1 65:1 71:1 72:1 73:1 80:1 81:1 88:1 89:1 96:1 97:1 104:1 105:1 106:1 107:1 109:1 110:1 111:1 112:1 115:1 116:1 117:1 
10 10 10 0 10 10 0 10 10 10 2.522393918279226 10 0 10 0 0 10 0 7.546775506838503 0 0 0 0 0 0 36:1 37:1 38:1 42:1 43:1 44:1 46:1 47:1 48:1 49:1 50:1 56:1 57:1 64:1 65:1 72:1 73:1 80:1 81:1 82:1 88:1 90:1 91:1 92:1 93:1 94:1 95:1 
0 10 10 0 10 0 0 0 0 10 0 0 0 0 0 0 0 0 0 0 0 0 0 0 0 26:1 27:1 28:1 29:1 30:1 31:1 33:1 34:1 35:1 39:1 41:1 42:1 47:1 48:1 49:1 56:1 57:1 64:1 65:1 72:1 73:1 80:1 81:1 88:1 89:1 90:1 95:1 96:1 98:1 99:1 100:1 101:1 102:1 103:1 
5.915472249884607 10 10 0 10 10 0 10 10 10 10 10 0 10 6.946334041965575 0 10 3.841848464995613 6.90181111097067 0 0 2.08202751345071 0 0 1.687190579479985 35:1 36:1 37:1 38:1 39:1 40:1 42:1 43:1 48:1 50:1 56:1 58:1 64:1 65:1 72:1 73:1 79:1 80:1 81:1 86:1 87:1 89:1 90:1 91:1 92:1 93:1 94:1 
1.928624037842322 10 10 4.656333335467166 10 10 0 10 10 10 3.338058810465744 10 1.261180436120735 2.731797971099918 3.067607781057284 2.608599728232093 10 0.6783252207293948 10 0.7732385861700822 0 0.3471677887605014 0.133030342153074 0 1.351644827540666 11:1 12:1 13:1 14:1 15:1 16:1 19:1 23:1 24:1 26:1 27:1 31:1 32:1 34:1 40:1 42:1 48:1 49:1 50:1 56:1 57:1 63:1 64:1 65:1 71:1 73:1 79:1 81:1 87:1 89:1 94:1 95:1 97:1 102:1 105:1 108:1 109:1 110:1 113:1 114:1 115:1 116:1 
10 10 10 0 10 10 0 10 8.284331772024084 10 0 10 0 0 0 0 10 0 0 0 0 0 0 0 0 33:1 35:1 36:1 41:1 42:1 43:1 44:1 45:1 46:1 49:1 54:1 55:1 56:1 57:1 64:1 65:1 72:1 73:1 80:1 81:1 86:1 87:1 88:1 89:1 90:1 91:1 92:1 93:1 94:1 
2.750867677132367 10 10 0 10 10 0 10 4.313190006593449 10 1.22536743210299 10 0 1.14449468519479 0 0 9.469013352318955 0 0 0 0 0.6443610486594813 0 0 0 11:1 12:1 13:1 21:1 22:1 25:1 26:1 27:1 28:1 30:1 31:1 33:1 37:1 39:1 41:1 47:1 48:1 49:1 56:1 57:1 64:1 65:1 72:1 73:1 80:1 81:1 88:1 90:1 96:1 99:1 104:1 108:1 109:1 111:1 112:1 117:1 118:1 119:1 
0 10 10 0 10 10 0 5.429525905333804 0.8952901622933743 10 0 5.458251913746331 0 0 0 0 2.522111014659326 0 10 0 0 0 0 0 0 2:1 3:1 4:1 5:1 10:1 11:1 14:1 18:1 19:1 22:1 23:1 26:1 31:1 33:1 34:1 39:1 40:1 41:1 48:1 49:1 56:1 57:1 64:1 65:1 72:1 73:1 80:1 81:1 88:1 89:1 95:1 96:1 97:1 103:1 105:1 106:1 110:1 111:1 114:1 115:1 118:1 123:1 124:1 125:1 
0 10 10 0 10 0 0 1.176700729008032 10 10 0 10 0 0 0 0 6.951714425823498 0 0 0 0 0 0 1.668765116954997 0 28:1 29:1 30:1 31:1 32:1 35:1 36:1 40:1 42:1 43:1 48:1 49:1 50:1 56:1 57:1 64:1 65:1 72:1 73:1 80:1 81:1 88:1 89:1 90:1 91:1 95:1 96:1 99:1 100:1 101:1 102:1 103:1 
0 10 10 0 10 10 0 9.730218485110907 0 10 0 10 0 0 0 0 10 0 0 0 0 0 0 0 0 34:1 35:1 36:1 37:1 38:1 39:1 41:1 42:1 47:1 48:1 49:1 50:1 56:1 57:1 64:1 65:1 72:1 73:1 74:1 79:1 80:1 82:1 83:1 87:1 91:1 92:1 93:1 94:1 95:1 101:1 102:1 
0 10 10 0 10 0 0 0 0 10 0 0 0 0 0 0 0 0 0 0 0 0 0 0 0 26:1 27:1 28:1 29:1 30:1 33:1 34:1 35:1 38:1 39:1 41:1 42:1 47:1 48:1 49:1 50:1 56:1 58:1 64:1 65:1 66:1 72:1 73:1 79:1 80:1 81:1 86:1 87:1 89:1 92:1 93:1 94:1 97:1 98:1 99:1 100:1 
4.263037343006869 10 10 0 10 10 0 10 4.150710394466128 10 0 10 0 0 0 0 10 0 0 0 0 0 0 1.936900938975119 0 27:1 28:1 29:1 30:1 33:1 34:1 38:1 39:1 41:1 47:1 48:1 49:1 56:1 57:1 64:1 65:1 72:1 73:1 80:1 81:1 88:1 89:1 90:1 91:1 92:1 95:1 96:1 100:1 101:1 102:1 103:1 
0 10 10 0 10 10 0 10 9.539066949216 10 0 10 0 0 0 0 10 0 0 0 0 0 0 0 0 30:1 31:1 36:1 37:1 38:1 39:1 40:1 43:1 48:1 50:1 56:1 57:1 58:1 64:1 65:1 72:1 73:1 79:1 80:1 81:1 87:1 89:1 93:1 94:1 95:1 97:1 98:1 99:1 100:1 101:1 
9.324373502725324 10 10 6.982088442577341 10 10 4.508870021307333 10 10 10 6.616304535665996 10 4.543725229257488 10 5.984767876258814 8.450371944978711 10 3.633499681144789 10 3.882008893004369 0.3326662794023926 0.9268837827451203 1.899171364725174 0.3819333496517119 8.011542988836228 4:1 5:1 6:1 7:1 11:1 12:1 15:1 18:1 23:1 24:1 25:1 26:1 27:1 28:1 32:1 33:1 36:1 40:1 41:1 47:1 48:1 49:1 55:1 57:1 63:1 65:1 70:1 73:1 77:1 78:1 81:1 85:1 89:1 92:1 93:1 97:1 98:1 99:1 100:1 105:1 106:1 114:1 122:1 
0 10 10 0 10 0 0 0 0 10 0 0 0 0 0 0 0 0 0 0 0 0 0 0 0 26:1 27:1 28:1 29:1 33:1 34:1 35:1 36:1 37:1 38:1 39:1 42:1 47:1 48:1 49:1 56:1 57:1 64:1 65:1 72:1 73:1 80:1 81:1 86:1 87:1 88:1 89:1 92:1 93:1 94:1 97:1 98:1 99:1 100:1 
0 10 10 0 10 0 0 0 0 10 0 0 0 0 0 0 0 0 0 0 0 0 0 0 0 19:1 20:1 21:1 22:1 23:1 24:1 26:1 27:1 28:1 32:1 33:1 34:1 35:1 40:1 42:1 48:1 50:1 56:1 57:1 58:1 64:1 65:1 72:1 73:1 79:1 80:1 81:1 86:1 87:1 89:1 94:1 97:1 101:1 102:1 105:1 106:1 107:1 108:1 109:1 
5.203719795920644 10 10 1.888342408373858 10 10 0.8833581133925773 10 3.810836662000949 10 3.873033769579988 10 0.3452822699416139 3.90978309958304 2.583041157309633 0.1929011878993296 3.251232210044844 0.7756922161890025 0 0 0 0.08982642400199876 0.5160618753581193 0 1.326397939020928 12:1 13:1 20:1 27:1 28:1 29:1 30:1 31:1 35:1 39:1 40:1 43:1 48:1 50:1 51:1 56:1 58:1 64:1 65:1 66:1 72:1 73:1 80:1 81:1 88:1 89:1 95:1 96:1 97:1 102:1 103:1 105:1 109:1 110:1 113:1 114:1 115:1 116:1 117:1 
10 10 10 2.703037672599951 10 10 5.715940481822318 10 10 10 10 10 3.462922663991913 10 10 4.631233661532829 10 10 10 7.103884053764343 0.3954861456196553 0 2.68096783873037 0.3036837532440091 10 33:1 34:1 35:1 36:1 37:1 38:1 41:1 46:1 49:1 55:1 57:1 63:1 64:1 65:1 72:1 73:1 80:1 81:1 88:1 89:1 90:1 91:1 92:1 93:1 94:1 95:1 96:1 
10 10 10 6.681337822289344 10 10 8.822711775536037 10 10 10 10 10 4.908095091865588 10 10 2.607223410805884 10 9.020459601465813 10 3.889879238128937 0.7147633952054349 0.4164581950610078 4.414316563095527 0 8.18614903459507 17:1 18:1 19:1 20:1 21:1 22:1 25:1 30:1 31:1 33:1 39:1 40:1 48:1 56:1 64:1 65:1 72:1 73:1 80:1 81:1 88:1 89:1 95:1 96:1 97:1 98:1 101:1 102:1 103:1 106:1 107:1 108:1 109:1 
0 10 10 0 10 0 0 0 0 10 0 9.005878980636496 0 0 0 0 10 0 0 0 0 0 0 0 0 34:1 35:1 36:1 37:1 38:1 39:1 41:1 42:1 47:1 48:1 49:1 56:1 57:1 64:1 65:1 72:1 73:1 80:1 81:1 82:1 83:1 84:1 86:1 87:1 88:1 92:1 93:1 94:1 95:1 96:1 
0.3240161254499184 10 10 0 10 10 0 10 10 10 2.759363421811097 10 0 9.541879920254775 0 0 10 0 5.869563923147999 0 0 0 0 0 0 35:1 36:1 37:1 38:1 39:1 42:1 43:1 47:1 48:1 49:1 50:1 56:1 57:1 64:1 65:1 72:1 73:1 74:1 79:1 80:1 82:1 83:1 86:1 87:1 91:1 92:1 93:1 94:1 
10 10 10 10 10 10 10 10 10 10 10 10 10 10 10 10 10 10 10 10 5.153707679234329 2.306449002060887 10 10 10 41:1 42:1 43:1 46:1 47:1 48:1 49:1 56:1 57:1 64:1 65:1 72:1 73:1 80:1 81:1 82:1 83:1 84:1 85:1 86:1 87:1 88:1 
10 10 10 6.599524976330443 10 10 9.811497780675152 10 10 10 10 10 5.954750447760633 10 10 7.461137363373699 10 10 10 7.529977758961794 0 1.094998882544454 5.786348370242425 0 10 37:1 41:1 42:1 43:1 44:1 45:1 46:1 49:1 54:1 55:1 57:1 64:1 65:1 72:1 73:1 80:1 81:1 82:1 87:1 88:1 90:1 91:1 92:1 93:1 94:1 95:1 
9.037498656998167 10 10 2.505172596996715 10 10 7.515466543253951 10 10 10 8.850036285352902 10 3.38005778009609 10 8.12657943036513 7.097419085970756 10 3.475730203464908 10 4.246113675567756 0.4829251294735837 1.565957211627258 2.411853426519868 0.2926506174499186 5.204256710246514 2:1 3:1 4:1 5:1 9:1 13:1 17:1 21:1 22:1 25:1 30:1 33:1 38:1 39:1 41:1 47:1 48:1 49:1 56:1 57:1 64:1 65:1 72:1 74:1 80:1 82:1 88:1 90:1 96:1 99:1 104:1 107:1 112:1 115:1 116:1 117:1 119:1 120:1 125:1 126:1 127:1 
3.650167972873775 10 10 0 10 10 2.946559582861795 10 7.730092307253349 10 4.31561422249914 10 0.9439780008813151 4.975512263491988 0.2947158327993574 8.222000500293996 10 0 10 1.3341408045612 0 0.1490457901472727 0 0.2279846824985891 0.9409484902795499 17:1 18:1 19:1 20:1 21:1 22:1 23:1 25:1 31:1 33:1 39:1 40:1 41:1 48:1 49:1 56:1 57:1 64:1 65:1 72:1 73:1 79:1 80:1 81:1 82:1 87:1 90:1 95:1 98:1 99:1 102:1 103:1 107:1 108:1 109:1 110:1 
10 10 10 0 10 10 0 10 10 10 6.903640476947543 10 0 10 0 0 10 0 9.314963132421479 0.59680147990468 0 0 0 2.508555721652939 2.226284611064256 29:1 30:1 34:1 39:1 40:1 42:1 48:1 49:1 50:1 56:1 57:1 64:1 65:1 72:1 73:1 80:1 81:1 87:1 88:1 89:1 90:1 94:1 95:1 98:1 99:1 100:1 101:1 102:1 
10 10 10 3.401694322661879 10 10 10 10 10 10 6.639856304274756 10 2.248689398399986 10 5.595594805629492 9.745386643792671 10 3.196100405709653 10 8.718441736291052 0.2870872215112522 0 2.310574726757665 2.940939152742063 10 17:1 22:1 25:1 30:1 31:1 33:1 39:1 40:1 41:1 48:1 49:1 56:1 57:1 64:1 65:1 72:1 73:1 80:1 81:1 88:1 89:1 90:1 96:1 98:1 99:1 104:1 107:1 108:1 109:1 110:1 111:1 112:1 
0 10 10 0 10 10 0 10 0 10 0 10 0 0 0 0 10 0 0 0 0 0 0 0 0 35:1 36:1 37:1 38:1 41:1 42:1 43:1 46:1 47:1 48:1 49:1 56:1 57:1 64:1 65:1 72:1 73:1 80:1 81:1 82:1 83:1 86:1 87:1 88:1 91:1 92:1 93:1 94:1 
0 10 10 0 10 0 0 0 0 10 0 0 0 0 0 0 0 0 0 0 0 0 0 0 0 35:1 36:1 37:1 38:1 41:1 42:1 43:1 44:1 46:1 47:1 48:1 49:1 56:1 57:1 64:1 65:1 72:1 73:1 80:1 81:1 82:1 83:1 87:1 88:1 91:1 92:1 93:1 94:1 95:1 
10 10 10 10 10 10 10 10 10 10 10 10 10 10 10 10 10 10 10 10 3.053330602616538 1.556257220454764 10 1.525097627170922 10 29:1 37:1 45:1 46:1 49:1 50:1 51:1 55:1 56:1 57:1 59:1 64:1 65:1 72:1 73:1 80:1 81:1 88:1 89:1 95:1 98:1 99:1 100:1 101:1 102:1 
0 10 10 0 10 0 0 0 0 10 0 0 0 0 0 0 0 0 0 0 0 0 0 0 0 20:1 21:1 22:1 27:1 28:1 30:1 35:1 37:1 38:1 39:1 40:1 42:1 43:1 48:1 49:1 50:1 56:1 57:1 64:1 65:1 72:1 73:1 80:1 81:1 88:1 89:1 90:1 96:1 98:1 99:1 102:1 103:1 108:1 109:1 110:1 
0.9720072317716028 10 10 0.8563925099285509 10 10 5.913505088558296 4.452403370328997 0 10 0 5.762691901605198 0 0.1269946691206368 2.822775419187626 0 4.572428509072596 0 0.03527753888077188 1.173157522347426 0.08054324078181922 0 0 0 2.783730297530445 2:1 3:1 9:1 10:1 11:1 12:1 17:1 18:1 20:1 21:1 25:1 29:1 30:1 33:1 38:1 39:1 41:1 47:1 49:1 55:1 56:1 57:1 64:1 65:1 72:1 73:1 80:1 81:1 88:1 89:1 96:1 97:1 104:1 105:1 111:1 112:1 113:1 118:1 119:1 121:1 122:1 123:1 124:1 125:1 126:1 
0 10 10 0 10 10 0 0 0 10 0 0 0 0 0 0 0 0 0 0 0 0.05045516466102629 0 0 0 3:1 4:1 5:1 11:1 13:1 14:1 18:1 19:1 20:1 21:1 26:1 27:1 29:1 30:1 34:1 38:1 39:1 42:1 47:1 49:1 50:1 55:1 56:1 57:1 64:1 65:1 72:1 73:1 80:1 81:1 88:1 89:1 96:1 97:1 98:1 104:1 106:1 111:1 112:1 114:1 115:1 118:1 119:1 123:1 124:1 125:1 126:1 
10 10 10 10 10 10 10 10 10 10 10 10 10 10 10 10 10 10 10 9.606842127687079 0.1669787659018856 1.123688760777212 10 0.2316620585900108 10 34:1 35:1 36:1 37:1 38:1 39:1 42:1 43:1 47:1 49:1 50:1 51:1 55:1 56:1 57:1 59:1 64:1 66:1 67:1 72:1 75:1 80:1 83:1 84:1 88:1 92:1 93:1 94:1 95:1 96:1 
0 10 10 0 10 0 0 0 0 10 0 0 0 0 0 0 0 0 0 0 0 0 0 0 0 25:1 26:1 27:1 28:1 29:1 33:1 34:1 35:1 36:1 37:1 38:1 41:1 46:1 47:1 49:1 55:1 56:1 57:1 64:1 65:1 72:1 73:1 80:1 81:1 82:1 88:1 90:1 95:1 96:1 98:1 99:1 100:1 101:1 102:1 103:1 
10 10 10 0 10 10 0 10 10 10 10 10 0 10 0 0 10 0 10 0 0 0 0 0 2.907534303169224 33:1 34:1 35:1 36:1 41:1 42:1 45:1 46:1 49:1 54:1 55:1 57:1 63:1 64:1 65:1 72:1 73:1 80:1 81:1 82:1 88:1 90:1 91:1 92:1 93:1 94:1 95:1 96:1 
10 10 10 7.041532710198534 10 10 10 10 10 10 10 10 5.337246448119438 10 10 6.693189404647433 10 10 10 8.71648720432286 0.8249145551023855 1.955935084300535 5.600101460541176 0.3516061672592017 10 26:1 27:1 33:1 34:1 35:1 36:1 37:1 41:1 45:1 46:1 49:1 54:1 57:1 62:1 63:1 65:1 71:1 72:1 73:1 80:1 81:1 82:1 88:1 90:1 91:1 96:1 99:1 100:1 101:1 102:1 103:1 104:1 
10 10 10 10 10 10 10 10 10 10 10 10 10 10 10 10 10 10 10 10 2.231098246131809 0.4194161326096151 10 1.925165191409586 10 29:1 30:1 31:1 36:1 37:1 39:1 40:1 48:1 49:1 56:1 57:1 63:1 64:1 65:1 71:1 73:1 78:1 79:1 81:1 85:1 86:1 89:1 93:1 97:1 98:1 99:1 100:1 
2.612963901982553 10 10 0 10 10 0 10 4.854678773330941 10 0 10 0.2619204927683944 4.374426614418145 0 0 10 0 6.222406048908449 0 0 0 0 0 0 27:1 28:1 29:1 30:1 31:1 32:1 35:1 36:1 40:1 48:1 50:1 51:1 56:1 58:1 64:1 65:1 66:1 72:1 73:1 79:1 80:1 81:1 85:1 86:1 87:1 89:1 90:1 92:1 93:1 98:1 99:1 100:1 
0 10 10 1.306173588430642 10 10 0 10 10 10 0 10 0.4829197632729322 2.910056759513423 1.385896584200326 0 10 0 2.496717067430331 0 0 0 0 0 0 20:1 21:1 22:1 23:1 31:1 32:1 34:1 35:1 36:1 37:1 40:1 42:1 48:1 49:1 56:1 57:1 64:1 65:1 72:1 73:1 80:1 81:1 87:1 89:1 94:1 95:1 97:1 98:1 102:1 106:1 107:1 108:1 109:1 
10 10 10 0 10 10 0 10 10 10 10 10 0 10 2.114852815036763 0 10 0 10 0 0 0 0 0 2.507690169540942 36:1 37:1 38:1 39:1 40:1 42:1 43:1 44:1 48:1 49:1 50:1 56:1 57:1 64:1 65:1 71:1 72:1 73:1 78:1 79:1 81:1 85:1 86:1 89:1 90:1 91:1 92:1 
10 10 10 1.491129191165837 10 10 0 10 10 10 7.831167208326143 10 0 10 2.23297671985136 0 10 0 10 0 0 0 0 0 2.806649838951182 28:1 29:1 30:1 34:1 35:1 36:1 38:1 39:1 42:1 47:1 48:1 49:1 50:1 56:1 57:1 64:1 65:1 72:1 73:1 74:1 80:1 82:1 83:1 84:1 85:1 87:1 88:1 93:1 94:1 95:1 103:1 
10 10 10 0 10 10 0 10 7.774366647871274 10 0 10 0 3.18450935446964 0 0 10 0 0 0 0 0 0 0.5204049758652868 0 28:1 29:1 30:1 35:1 36:1 38:1 39:1 42:1 43:1 47:1 48:1 49:1 50:1 56:1 57:1 64:1 65:1 72:1 73:1 80:1 81:1 82:1 83:1 84:1 88:1 92:1 93:1 94:1 96:1 103:1 104:1 
10 10 10 10 10 10 10 10 10 10 10 10 10 10 10 10 10 10 10 10 1.36244903810413 2.229500672955231 10 0 10 35:1 36:1 37:1 39:1 40:1 41:1 42:1 43:1 48:1 49:1 56:1 57:1 64:1 65:1 72:1 73:1 74:1 79:1 80:1 83:1 86:1 87:1 92:1 93:1 94:1 
10 10 10 0 10 10 3.176650785963707 10 10 10 10 10 0.7094766851039579 10 7.898586113619885 3.880502564480775 10 0.9644783770855206 10 0.3618170048143066 0 0 1.079489796348634 1.073488983234184 6.176155097768838 31:1 35:1 36:1 39:1 40:1 42:1 43:1 48:1 49:1 50:1 56:1 57:1 64:1 65:1 72:1 73:1 80:1 81:1 88:1 89:1 90:1 95:1 96:1 99:1 100:1 101:1 102:1 103:1 
0 10 10 5.496753034715699 10 10 3.780711612902019 10 10 10 6.720255045799123 10 0.5007644193378045 5.214558483614338 1.857955229110887 1.55988678262065 10 0.3528732424993819 1.109325299560908 1.123053523279749 0 0 0.1887333237310823 0 2.541998353311669 22:1 23:1 29:1 30:1 32:1 36:1 40:1 43:1 48:1 50:1 56:1 57:1 58:1 64:1 65:1 71:1 72:1 73:1 79:1 81:1 86:1 87:1 89:1 93:1 94:1 97:1 98:1 99:1 100:1 101:1 106:1 107:1 
10 10 10 5.383383125328375 10 10 3.589751670393272 10 10 10 6.360359704527791 10 0.9523309153877423 10 2.265338094462812 0.2053780390635798 10 0.9832612132324337 10 1.140885423698123 0 0 0.6559338253427063 0 4.352552096781602 20:1 27:1 28:1 35:1 38:1 39:1 43:1 47:1 50:1 51:1 55:1 56:1 58:1 64:1 65:1 66:1 72:1 73:1 80:1 81:1 87:1 88:1 89:1 94:1 95:1 97:1 98:1 99:1 100:1 101:1 102:1 107:1 108:1 
0.8539967825010895 10 10 1.517892744291765 10 10 3.990102422622257 6.320983283821812 0.2310314229455154 10 0.7233788483988262 7.949137870690143 0 0 1.67896550328802 0 5.58593729716296 0.03609987720954989 2.418121574218831 1.097888427321005 0 0.7807974927429995 0 0.06538559066490611 1.970366109316367 2:1 3:1 9:1 10:1 11:1 12:1 13:1 14:1 17:1 21:1 22:1 25:1 30:1 33:1 38:1 39:1 41:1 47:1 48:1 49:1 56:1 57:1 64:1 65:1 72:1 73:1 80:1 81:1 88:1 89:1 96:1 97:1 104:1 105:1 112:1 113:1 119:1 120:1 121:1 122:1 123:1 124:1 125:1 126:1 127:1 
10 10 10 10 10 10 10 10 10 10 10 10 7.406856334009949 10 10 5.868136850805906 10 8.503723071725695 10 7.241782653144602 3.011391838806964 3.010541974248608 6.335001594533145 0.3884392301190481 10 3:1 4:1 5:1 11:1 13:1 21:1 27:1 28:1 29:1 35:1 37:1 43:1 45:1 50:1 51:1 53:1 58:1 61:1 62:1 66:1 70:1 74:1 78:1 82:1 86:1 87:1 90:1 95:1 98:1 103:1 106:1 110:1 111:1 114:1 115:1 118:1 123:1 124:1 125:1 126:1 
0 10 10 0 10 0 0 0 0 10 0 0 0 0 0 0 0 0 0 0 0 0 0 0 0 21:1 22:1 28:1 29:1 30:1 31:1 36:1 37:1 39:1 40:1 43:1 48:1 50:1 56:1 57:1 58:1 64:1 65:1 72:1 73:1 79:1 80:1 81:1 86:1 87:1 89:1 93:1 94:1 97:1 100:1 101:1 105:1 106:1 107:1 108:1 
0 10 10 0 10 0 0 0 0 10 0 0 0 0 0 0 6.25007767346436 0 0 0 0 0 0 0 0 25:1 26:1 27:1 33:1 35:1 36:1 37:1 38:1 41:1 46:1 47:1 49:1 50:1 55:1 56:1 57:1 58:1 64:1 65:1 66:1 72:1 73:1 80:1 81:1 87:1 88:1 89:1 90:1 94:1 95:1 98:1 99:1 100:1 101:1 102:1 
8.614215839997065 10 10 0 10 10 0 10 10 10 0 10 0 2.340600053972782 0 0 10 0 0 0 0 0 0 0 0 34:1 35:1 36:1 37:1 38:1 41:1 42:1 45:1 46:1 49:1 54:1 55:1 57:1 63:1 64:1 65:1 72:1 73:1 80:1 81:1 82:1 83:1 88:1 91:1 92:1 93:1 94:1 95:1 96:1 
0 10 10 0 10 10 0 10 1.56498691092119 10 0 10 0 0 0 0 10 0 0 0 0 0 0 0 0 29:1 30:1 38:1 39:1 42:1 43:1 44:1 45:1 46:1 47:1 48:1 49:1 50:1 56:1 57:1 64:1 65:1 71:1 72:1 73:1 79:1 81:1 87:1 89:1 90:1 93:1 94:1 95:1 98:1 99:1 100:1 101:1 
0 10 10 0 10 0 0 0 0 10 0 0 0 0 0 0 0 0 0 0 0 0 0 0 0 34:1 35:1 36:1 37:1 38:1 39:1 41:1 42:1 47:1 48:1 49:1 56:1 57:1 64:1 65:1 72:1 73:1 80:1 81:1 82:1 87:1 88:1 90:1 91:1 92:1 93:1 94:1 95:1 
0 10 10 0 10 10 0.5655183786565262 0 0 10 0 0 0 0 0 0 0 0 1.229017098485466 0 0 0.113098447451886 0 0 0 2:1 3:1 4:1 10:1 11:1 12:1 18:1 19:1 20:1 21:1 25:1 26:1 29:1 30:1 31:1 32:1 33:1 40:1 41:1 48:1 49:1 56:1 57:1 64:1 65:1 72:1 73:1 80:1 81:1 88:1 89:1 96:1 97:1 104:1 105:1 111:1 112:1 113:1 114:1 118:1 119:1 122:1 123:1 124:1 125:1 126:1 
10 10 10 10 10 10 10 10 10 10 10 10 10 10 10 10 10 10 10 10 1.140909377063954 1.580707651190914 10 1.332080301920059 10 34:1 35:1 36:1 41:1 42:1 44:1 46:1 49:1 52:1 54:1 55:1 57:1 63:1 64:1 65:1 72:1 73:1 74:1 75:1 80:1 83:1 84:1 85:1 88:1 93:1 94:1 95:1 96:1 
10 10 10 0 10 10 0 10 6.570042710421239 10 0 10 0 0.1325506722123616 0 0 10 0 0.3425939116860021 0 0 0 0 0 0 34:1 35:1 36:1 41:1 42:1 44:1 45:1 46:1 49:1 50:1 51:1 52:1 54:1 55:1 57:1 60:1 63:1 64:1 65:1 72:1 73:1 80:1 81:1 82:1 85:1 86:1 87:1 88:1 90:1 91:1 92:1 93:1 
10 10 10 3.639950215058469 10 10 3.905346715396051 10 10 10 7.654526079321136 10 2.283158696795647 10 4.800831999455372 3.432043883002236 10 3.059665863335516 7.779435457521109 3.132150351820787 0.3047864462791984 0.2736589154914214 2.216913367122411 0 5.71335565494936 19:1 27:1 28:1 29:1 30:1 35:1 38:1 39:1 42:1 43:1 48:1 50:1 56:1 57:1 58:1 64:1 65:1 72:1 73:1 79:1 80:1 81:1 87:1 89:1 94:1 97:1 101:1 102:1 105:1 106:1 107:1 108:1 109:1 
0 0 10 0 0 10 0 0 0 2.125474857277861 0 0 0 0 0 0 0 0 0 0 0 0 0 0 0 4:1 5:1 6:1 11:1 12:1 13:1 14:1 15:1 18:1 19:1 21:1 22:1 23:1 26:1 27:1 30:1 31:1 34:1 39:1 41:1 42:1 47:1 48:1 49:1 56:1 57:1 64:1 65:1 72:1 73:1 80:1 81:1 88:1 89:1 96:1 97:1 103:1 104:1 105:1 106:1 110:1 111:1 114:1 118:1 122:1 123:1 124:1 125:1 126:1 
9.566586295385884 10 10 0 10 10 0 10 10 10 0 10 0 0 0 0 3.722945439228373 0 0 0 0 0 0 0 0 28:1 35:1 36:1 37:1 38:1 39:1 42:1 43:1 47:1 50:1 55:1 56:1 57:1 58:1 64:1 65:1 72:1 73:1 80:1 81:1 88:1 89:1 90:1 95:1 96:1 98:1 99:1 100:1 101:1 102:1 103:1 
10 10 10 4.135126369897116 10 10 0 10 10 10 4.921813735359946 10 0.07531028677157049 10 5.237264456412206 0.4742893757897796 10 3.13206268541411 8.343096659397656 0 0 0 0 0 1.82818688595566 28:1 29:1 30:1 31:1 32:1 40:1 43:1 44:1 45:1 46:1 48:1 50:1 54:1 56:1 57:1 64:1 65:1 71:1 72:1 73:1 79:1 81:1 86:1 87:1 89:1 90:1 93:1 94:1 98:1 99:1 100:1 101:1 
10 10 10 10 10 10 10 10 10 10 10 10 10 10 10 10 10 10 10 10 10 8.855512337031451 10 9.345080637169566 10 50:1 51:1 52:1 53:1 54:1 55:1 56:1 57:1 58:1 64:1 65:1 72:1 73:1 74:1 75:1 76:1 77:1 78:1 79:1 80:1 
0 10 10 0 10 10 0 10 7.486289316977256 10 0 10 0 0 0 0 0 0 0 0 0 0 0 0 0 35:1 36:1 37:1 38:1 41:1 42:1 43:1 44:1 45:1 46:1 49:1 54:1 55:1 57:1 63:1 64:1 65:1 72:1 73:1 80:1 81:1 82:1 83:1 87:1 88:1 91:1 92:1 93:1 94:1 95:1 
10 10 10 0 10 10 0 10 10 10 0 10 0 10 0 0 10 0 10 0 0 0 0 0 0 34:1 35:1 41:1 42:1 43:1 44:1 45:1 46:1 47:1 49:1 51:1 55:1 56:1 57:1 64:1 65:1 72:1 73:1 74:1 80:1 82:1 83:1 84:1 86:1 87:1 88:1 92:1 93:1 94:1 
10 10 10 6.092686490423769 10 10 9.452332492426153 10 10 10 10 10 5.798823533271808 10 9.828261721488644 10 10 8.280770850608976 10 5.285085319180977 0.5705679831959544 1.038351508073006 4.271014569535635 0 10 28:1 29:1 30:1 31:1 32:1 34:1 35:1 36:1 40:1 41:1 42:1 43:1 48:1 49:1 50:1 56:1 58:1 64:1 66:1 72:1 74:1 80:1 82:1 87:1 88:1 90:1 91:1 93:1 94:1 95:1 99:1 100:1 101:1 
0 10 10 0 10 0 0 0 0 10 0 0 0 0 0 0 0 0 0 0 0 0 0 0 0 20:1 21:1 22:1 27:1 28:1 30:1 31:1 35:1 39:1 40:1 42:1 43:1 48:1 49:1 50:1 56:1 57:1 64:1 65:1 72:1 73:1 80:1 81:1 88:1 89:1 95:1 96:1 97:1 101:1 102:1 103:1 106:1 107:1 108:1 109:1 
10 10 10 10 10 10 10 10 10 10 10 10 10 10 10 10 10 10 10 10 8.644877968091032 6.316726359998293 10 1.873236371447921 10 35:1 36:1 42:1 43:1 44:1 45:1 49:1 50:1 53:1 54:1 55:1 57:1 63:1 65:1 71:1 72:1 73:1 80:1 81:1 87:1 88:1 95:1 
10 10 10 0 10 4.117159817107012 0 10 9.043773675617208 10 0 10 0 0 0 0 0 0 0 0 0 0 0 0 0 35:1 36:1 37:1 38:1 42:1 43:1 46:1 47:1 48:1 49:1 50:1 56:1 57:1 58:1 64:1 65:1 66:1 72:1 73:1 80:1 81:1 82:1 83:1 88:1 91:1 92:1 93:1 94:1 95:1 96:1 
10 10 10 3.318057195568762 10 10 5.883887956150755 10 10 10 10 10 5.264870641082526 10 10 10 10 5.086733180835336 10 3.090881574057784 0.616696046832979 0.5938901699339918 3.303804766457617 0 6.27543616440973 11:1 12:1 13:1 14:1 15:1 16:1 18:1 19:1 24:1 25:1 26:1 32:1 33:1 40:1 41:1 48:1 49:1 56:1 57:1 64:1 65:1 72:1 73:1 80:1 88:1 96:1 99:1 100:1 104:1 108:1 109:1 111:1 112:1 117:1 118:1 119:1 
10 10 10 0 10 10 0.3294427071329263 10 10 10 10 10 0 10 10 4.44536249972652 10 5.907590398295301 10 0 0 0 0 0 8.306884499348033 34:1 35:1 36:1 37:1 38:1 39:1 40:1 41:1 42:1 48:1 49:1 56:1 57:1 64:1 65:1 72:1 73:1 74:1 80:1 82:1 83:1 87:1 88:1 91:1 92:1 93:1 94:1 
0 6.417680292980595 10 0 10 0 0 0 0 10 0 0 0 0 0 0 0 0 0 0 0 0 0 0 0 21:1 26:1 27:1 29:1 30:1 31:1 34:1 35:1 39:1 40:1 41:1 42:1 48:1 49:1 56:1 57:1 64:1 65:1 72:1 73:1 80:1 81:1 87:1 88:1 89:1 94:1 95:1 97:1 98:1 99:1 100:1 101:1 106:1 107:1 
10 10 10 6.006811740521838 10 10 4.101234478650712 10 10 10 10 10 3.458827712592393 10 10 4.681387145919601 10 7.516553018537921 10 3.289314610984578 0 0 5.056926654517555 0 10 37:1 38:1 45:1 46:1 47:1 48:1 50:1 51:1 52:1 53:1 54:1 56:1 57:1 58:1 64:1 65:1 72:1 73:1 79:1 80:1 81:1 85:1 86:1 89:1 90:1 91:1 92:1 93:1 
0 10 10 0 10 0 0 0 0 10 0 0 0 0 0 0 0 0 0 0 0 0 0 0 0 22:1 23:1 27:1 28:1 29:1 30:1 31:1 32:1 34:1 35:1 37:1 38:1 40:1 42:1 45:1 48:1 50:1 56:1 57:1 58:1 64:1 65:1 72:1 73:1 80:1 81:1 88:1 89:1 95:1 97:1 101:1 102:1 103:1 105:1 106:1 107:1 108:1 109:1 
10 10 10 10 10 10 5.10801318668924 10 10 10 10 10 3.614515398387444 10 10 6.686260871540749 10 8.826231971160865 10 3.997640830562341 0.6724865418578916 0.2237290562153653 3.869200000544232 0 9.724373125167718 33:1 34:1 35:1 36:1 37:1 38:1 39:1 40:1 41:1 48:1 56:1 64:1 65:1 66:1 72:1 73:1 79:1 80:1 81:1 87:1 89:1 94:1 95:1 97:1 98:1 99:1 100:1 101:1 102:1 
0 10 10 0 10 0 0 0 0 10 0 0 0 0 0 0 0 0 0 0 0 0 0 0 0 34:1 35:1 36:1 37:1 38:1 39:1 42:1 43:1 44:1 47:1 48:1 49:1 50:1 56:1 57:1 64:1 65:1 72:1 73:1 79:1 80:1 81:1 86:1 87:1 89:1 90:1 91:1 92:1 93:1 94:1 
0 10 10 0 10 10 1.295947165771197 0 0 10 0 0 0 0 0 0 0 0 0 0 0 0.5798192357296452 0 0 0 1:1 2:1 3:1 9:1 12:1 13:1 17:1 21:1 22:1 25:1 30:1 31:1 33:1 34:1 35:1 36:1 37:1 38:1 39:1 41:1 47:1 49:1 55:1 56:1 57:1 64:1 65:1 72:1 73:1 80:1 81:1 88:1 89:1 96:1 97:1 104:1 105:1 106:1 112:1 114:1 115:1 119:1 120:1 123:1 124:1 125:1 126:1 
0 10 10 0 10 10 0 10 9.347796521868231 10 1.045255772425565 10 0 0 0 0 0 0 0 0 0 0 0 0 0 27:1 28:1 29:1 30:1 35:1 36:1 39:1 43:1 48:1 50:1 51:1 56:1 57:1 58:1 64:1 65:1 72:1 73:1 79:1 80:1 81:1 86:1 87:1 89:1 93:1 94:1 97:1 98:1 99:1 100:1 101:1 
10 10 10 10 10 10 4.959281109567488 10 10 10 10 10 5.099398790624305 10 10 5.473838550676249 10 8.461080956164208 10 2.563375331259299 0 0.2086328848704969 7.443122607738621 0 10 31:1 32:1 37:1 38:1 39:1 40:1 44:1 45:1 46:1 48:1 52:1 56:1 59:1 60:1 63:1 64:1 66:1 67:1 71:1 73:1 74:1 77:1 78:1 79:1 81:1 84:1 85:1 89:1 91:1 92:1 97:1 98:1 99:1 
0 0 3.928019703727077 0 0 0 0 0 0 0 0 0 0 0 0 0 0 0 0 0 0 0 0 0 0 12:1 13:1 14:1 18:1 19:1 20:1 22:1 23:1 26:1 31:1 32:1 34:1 35:1 36:1 40:1 42:1 48:1 49:1 50:1 56:1 57:1 64:1 65:1 72:1 73:1 80:1 81:1 87:1 88:1 89:1 94:1 95:1 97:1 101:1 102:1 105:1 106:1 107:1 108:1 109:1 114:1 115:1 
0 10 10 0 10 0 0 0 0 10 0 0 0 0 0 0 0 0 0 0 0 0 0 0 0 22:1 23:1 24:1 29:1 30:1 31:1 32:1 36:1 37:1 39:1 40:1 43:1 44:1 47:1 48:1 50:1 51:1 56:1 58:1 64:1 65:1 66:1 71:1 72:1 73:1 79:1 81:1 86:1 87:1 89:1 93:1 94:1 97:1 99:1 100:1 101:1 105:1 106:1 107:1 
10 10 10 7.518327367574321 10 10 1.967640167102777 10 10 10 10 10 0 10 7.694404290257374 0.3780294906394804 10 1.955600053265483 10 0.7898329742673761 0 0.3523780034080566 1.148129354798819 0 6.340044716481352 29:1 30:1 36:1 37:1 38:1 39:1 40:1 44:1 48:1 51:1 56:1 58:1 59:1 64:1 66:1 71:1 72:1 73:1 74:1 78:1 79:1 81:1 85:1 86:1 89:1 92:1 93:1 97:1 98:1 99:1 100:1 
0 10 10 0 10 0 0 0 0 10 0 9.003360533773536 0 0 0 0 0 0 0 0 0 0 0 0 0 34:1 35:1 36:1 37:1 38:1 39:1 40:1 42:1 48:1 49:1 50:1 56:1 57:1 64:1 65:1 72:1 73:1 80:1 81:1 86:1 87:1 88:1 89:1 90:1 91:1 92:1 93:1 94:1 
0 10 10 0 10 10 0 10 8.696050500026219 10 0 10 0 0 0 0 10 0 0 0 0 0 0 0 0 33:1 34:1 35:1 36:1 41:1 42:1 44:1 45:1 46:1 49:1 54:1 55:1 57:1 63:1 64:1 65:1 72:1 73:1 80:1 81:1 82:1 87:1 88:1 90:1 91:1 92:1 93:1 94:1 95:1 
10 10 10 0 10 10 0 10 10 10 0 10 0 10 0 0 10 0 9.451225641346706 0 0 0 0 0 0 35:1 36:1 37:1 38:1 39:1 40:1 42:1 43:1 48:1 49:1 50:1 56:1 57:1 64:1 65:1 72:1 73:1 78:1 79:1 81:1 85:1 86:1 89:1 90:1 91:1 92:1 93:1 
10 10 10 10 10 10 10 10 10 10 10 10 10 10 10 10 10 10 10 10 0 1.296960302619022 10 0.3152846827703888 10 35:1 36:1 43:1 44:1 45:1 49:1 50:1 51:1 53:1 54:1 57:1 62:1 63:1 65:1 71:1 72:1 73:1 80:1 81:1 82:1 88:1 90:1 91:1 92:1 93:1 94:1 95:1 96:1 
10 10 10 1.441865658266159 10 10 0 10 10 10 0 10 0 10 0 0.8658488203456729 10 0 10 0 0 0 0 0.8833214969907757 1.449690175155578 31:1 32:1 38:1 39:1 40:1 44:1 45:1 48:1 50:1 51:1 52:1 53:1 56:1 57:1 58:1 64:1 65:1 71:1 72:1 73:1 78:1 79:1 81:1 84:1 85:1 86:1 89:1 91:1 92:1 97:1 98:1 99:1 
10 10 10 1.156776468409574 10 10 0 10 10 10 7.251268273369288 10 2.072633130234802 10 5.258236553872646 1.423708272583 10 1.246364083382905 3.848288479181512 0.5188559909274448 0.1045076486981905 0 1.971138138439917 0 1.965943685838921 19:1 20:1 21:1 29:1 30:1 34:1 38:1 39:1 42:1 47:1 48:1 49:1 50:1 56:1 57:1 64:1 65:1 72:1 73:1 80:1 81:1 88:1 89:1 96:1 98:1 104:1 107:1 108:1 109:1 110:1 111:1 112:1 
0 0 10 0 10 0 0 0 0 10 0 0 0 0 0 0 0 0 0 0 0 0 0 0 0 19:1 20:1 26:1 27:1 29:1 30:1 31:1 33:1 34:1 39:1 40:1 41:1 42:1 48:1 49:1 56:1 57:1 64:1 65:1 72:1 73:1 79:1 80:1 81:1 87:1 89:1 94:1 95:1 97:1 98:1 99:1 101:1 102:1 107:1 108:1 109:1 
1.115947022256882 10 10 0.395100522620644 10 10 0.2585907546636796 10 10 10 5.507895167743509 10 0 9.035509555088817 0.3400346114590785 0 10 2.298199412714503 5.534947788031442 0 0 0 0 0 0 27:1 28:1 29:1 34:1 35:1 37:1 38:1 42:1 46:1 47:1 49:1 55:1 57:1 63:1 64:1 65:1 72:1 73:1 80:1 81:1 82:1 88:1 90:1 91:1 95:1 96:1 99:1 100:1 101:1 102:1 103:1 
2.503767253673097 10 10 3.175092929346082 10 10 2.381133918248136 10 3.109483935279806 10 1.294546309380327 10 0 3.569669036064285 0.9510532201880035 0.693006338120041 4.363928902583903 0.3516047899223547 10 0.1261438463737601 0.1253426157104885 0.05515935148275204 0.2793065501334693 0 2.164380446954417 3:1 4:1 5:1 11:1 12:1 13:1 14:1 15:1 19:1 23:1 27:1 31:1 32:1 35:1 40:1 43:1 48:1 50:1 51:1 56:1 58:1 64:1 66:1 71:1 72:1 74:1 79:1 81:1 82:1 87:1 89:1 95:1 97:1 102:1 103:1 105:1 110:1 113:1 117:1 118:1 121:1 122:1 123:1 124:1 125:1 
0 10 10 0.7475362692443196 10 10 0.5320954696466974 4.095649358692492 5.572413771979408 10 0 4.517913995267625 0 0 1.169248474245086 0 0 0 0 0 0 0 0 0 0 6:1 13:1 14:1 20:1 21:1 22:1 27:1 28:1 30:1 31:1 34:1 35:1 39:1 40:1 42:1 48:1 49:1 50:1 56:1 57:1 64:1 65:1 72:1 73:1 80:1 81:1 88:1 89:1 96:1 97:1 104:1 105:1 106:1 112:1 114:1 119:1 120:1 123:1 124:1 125:1 126:1 127:1 
10 10 10 10 10 10 10 10 10 10 10 10 10 10 10 10 10 10 10 10 0.6290753931755422 0.4216166780193515 10 1.747785846263306 10 43:1 44:1 50:1 51:1 52:1 53:1 54:1 55:1 56:1 57:1 58:1 64:1 65:1 72:1 73:1 76:1 77:1 78:1 79:1 80:1 81:1 82:1 83:1 84:1 
0 10 10 0 10 0 0 0 0 10 0 0.763129212514391 0 0 0 0 10 0 0 0 0 0 0 0 0 17:1 18:1 19:1 20:1 21:1 22:1 25:1 30:1 31:1 33:1 39:1 40:1 41:1 48:1 49:1 56:1 57:1 64:1 65:1 72:1 73:1 80:1 81:1 88:1 89:1 95:1 96:1 97:1 98:1 102:1 103:1 106:1 107:1 108:1 109:1 110:1 
0 10 10 0.1615892061621712 10 2.001249917721599 0 0 0 10 0 0 0 0 0 0 0 0 0 0 0 0 0 0 0 11:1 12:1 13:1 18:1 19:1 20:1 21:1 22:1 26:1 28:1 29:1 30:1 31:1 34:1 39:1 41:1 47:1 49:1 55:1 56:1 57:1 64:1 65:1 72:1 73:1 80:1 81:1 88:1 89:1 95:1 96:1 97:1 102:1 103:1 105:1 106:1 109:1 110:1 114:1 115:1 116:1 117:1 
10 10 10 10 10 10 10 10 10 10 10 10 10 10 10 10 10 10 10 10 2.74984155411066 3.649629330708275 10 0.6411706271916139 10 5:1 6:1 13:1 20:1 21:1 28:1 29:1 36:1 37:1 38:1 43:1 44:1 46:1 51:1 54:1 59:1 62:1 67:1 70:1 75:1 78:1 83:1 86:1 91:1 94:1 99:1 102:1 107:1 110:1 115:1 118:1 123:1 124:1 125:1 
0 10 10 0 10 0 0 0 0 10 0 5.920089137547855 0 0 0 0 0 0 0 0 0 0 0 0 0 35:1 36:1 37:1 38:1 39:1 42:1 43:1 47:1 48:1 49:1 50:1 56:1 57:1 64:1 65:1 72:1 73:1 79:1 80:1 81:1 87:1 89:1 90:1 91:1 92:1 93:1 94:1 95:1 
0 10 10 0 10 0 0 0 0 10 0 0 0 0 0 0 0 0 0 0 0 0 0 0 0 31:1 32:1 35:1 36:1 37:1 38:1 39:1 40:1 42:1 43:1 48:1 49:1 50:1 56:1 57:1 64:1 65:1 72:1 73:1 80:1 81:1 87:1 88:1 89:1 90:1 94:1 95:1 98:1 99:1 100:1 101:1 102:1 
0 10 10 0 10 0 0 0 0 10 0 0 0 0 0 0 0 0 0 0 0 0.08774939322724501 0 0 0 34:1 35:1 36:1 37:1 38:1 39:1 40:1 42:1 43:1 44:1 48:1 50:1 56:1 57:1 64:1 65:1 72:1 73:1 80:1 81:1 87:1 88:1 89:1 90:1 91:1 92:1 93:1 94:1 95:1 
0 10 10 0 10 3.505168067843226 0 0 0 10 0 5.639284526750281 0 0 0 0 0 0 0 0 0 0 0 0 0 20:1 27:1 28:1 35:1 36:1 37:1 38:1 39:1 43:1 47:1 48:1 50:1 51:1 56:1 58:1 64:1 65:1 66:1 72:1 73:1 79:1 80:1 81:1 86:1 87:1 89:1 93:1 94:1 97:1 100:1 101:1 105:1 106:1 107:1 108:1 
10 10 10 10 10 10 10 10 10 10 10 10 10 10 10 10 10 10 10 10 1.547900943556849 2.127414535949796 10 0.2515132446825903 10 26:1 27:1 28:1 29:1 30:1 33:1 34:1 38:1 39:1 41:1 47:1 48:1 49:1 56:1 57:1 64:1 65:1 71:1 72:1 73:1 79:1 83:1 87:1 91:1 92:1 95:1 100:1 101:1 102:1 
10 10 10 10 10 10 10 10 10 10 10 10 10 10 10 10 10 10 10 10 2.287825610249496 3.664114976874813 10 4.435947629245247 10 25:1 33:1 41:1 49:1 50:1 51:1 52:1 57:1 61:1 65:1 69:1 70:1 71:1 72:1 73:1 79:1 80:1 81:1 86:1 87:1 89:1 90:1 91:1 93:1 94:1 99:1 100:1 101:1 
9.100363794243641 10 10 0.7133750846829798 10 10 5.332911977701518 10 10 10 4.143814205500684 10 1.433075813146523 6.482531660286393 3.887055587547356 3.390119457703023 10 1.576012940293946 10 4.221736128923365 0.08043857254205566 0.186473965021051 1.095416780293118 0.5043109395966414 4.731498020464312 9:1 10:1 11:1 12:1 13:1 14:1 17:1 22:1 23:1 25:1 31:1 32:1 33:1 40:1 41:1 48:1 49:1 56:1 57:1 64:1 65:1 72:1 73:1 80:1 81:1 88:1 89:1 96:1 97:1 98:1 104:1 106:1 112:1 115:1 116:1 117:1 118:1 119:1 120:1 
10 10 10 0 10 10 0 10 10 10 10 10 0 10 3.688693774642674 0 10 0 10 0 0 0 0 0 1.294189169534161 42:1 43:1 44:1 45:1 46:1 47:1 49:1 50:1 51:1 55:1 56:1 57:1 64:1 65:1 72:1 73:1 79:1 80:1 81:1 82:1 83:1 84:1 85:1 86:1 87:1 
7.481980721443956 10 10 0.3316174896902208 10 10 0 10 5.624088624044795 10 2.414175993416467 10 0 0 0 0 0 0.3572633205805824 0 0 0 0.2519893337442615 0 0 0 18:1 19:1 20:1 21:1 29:1 30:1 36:1 38:1 39:1 44:1 47:1 50:1 51:1 52:1 55:1 56:1 57:1 58:1 64:1 65:1 72:1 73:1 80:1 81:1 88:1 89:1 96:1 97:1 98:1 103:1 104:1 106:1 107:1 108:1 109:1 110:1 111:1 
4.934479123566387 10 10 1.488349457083184 10 10 6.27335833010773 10 5.481696178569023 10 5.450881392376354 10 1.946819418248842 5.973095614046683 2.704648463148098 5.341239087939996 10 1.704371213591865 10 2.574825586376758 0.1042509778536231 0.6376914478121897 1.000471537619816 0.2156343047656859 4.244085564084094 1:1 2:1 3:1 9:1 11:1 12:1 13:1 17:1 21:1 22:1 26:1 30:1 31:1 34:1 39:1 42:1 48:1 49:1 50:1 56:1 57:1 64:1 65:1 66:1 72:1 74:1 80:1 82:1 88:1 90:1 91:1 96:1 99:1 103:1 104:1 107:1 108:1 110:1 111:1 116:1 117:1 118:1 126:1 
6.909854271649341 10 10 0 10 10 0 10 10 10 9.014126173087661 10 0 6.90210183899981 0.5019492375340806 0 10 1.914517898603368 4.586028416990976 0 0 0 0 0 0.08281034807362314 27:1 28:1 29:1 34:1 35:1 36:1 37:1 41:1 42:1 45:1 46:1 49:1 54:1 55:1 57:1 63:1 65:1 71:1 72:1 73:1 80:1 81:1 82:1 88:1 90:1 91:1 92:1 96:1 100:1 101:1 102:1 103:1 104:1 
0 0.3109490465383534 10 0 8.933663370144275 0 0 0 0 10 0 0 0 0 0 0 0 0 0 0 0 0 0 0 0 20:1 21:1 22:1 26:1 27:1 28:1 29:1 30:1 31:1 33:1 34:1 36:1 38:1 39:1 41:1 48:1 49:1 56:1 57:1 64:1 65:1 72:1 73:1 79:1 80:1 81:1 87:1 89:1 94:1 95:1 97:1 101:1 102:1 105:1 106:1 107:1 108:1 109:1 
10 10 10 5.847810548656857 10 10 0 10 10 10 10 10 4.152098027299821 10 9.431594235494451 1.910062164573432 10 10 10 2.184826826092717 0.8098568446672344 0 3.546489693056582 0 5.120440905180832 19:1 20:1 21:1 26:1 27:1 29:1 30:1 34:1 38:1 39:1 47:1 49:1 55:1 56:1 57:1 64:1 65:1 72:1 73:1 80:1 81:1 88:1 89:1 96:1 97:1 98:1 104:1 107:1 108:1 109:1 110:1 111:1 
0 1.031178849577754 10 0 0 2.82266316050055 0 0 0 10 0 0 0 0 0 0 0 0 0 0 0 0 0 0 0 3:1 11:1 12:1 20:1 21:1 27:1 28:1 29:1 30:1 31:1 32:1 34:1 35:1 38:1 39:1 40:1 41:1 42:1 47:1 48:1 49:1 55:1 56:1 57:1 63:1 64:1 65:1 72:1 73:1 80:1 81:1 88:1 89:1 90:1 96:1 98:1 104:1 106:1 107:1 112:1 115:1 116:1 118:1 119:1 120:1 124:1 125:1 126:1 
0 10 10 0 10 3.526728432041355 0 10 2.06193674710868 10 0 10 0 0 0 0 10 0 0 0 0 0 0 0.8867403178299273 0 19:1 20:1 21:1 22:1 25:1 26:1 30:1 31:1 32:1 33:1 40:1 41:1 48:1 49:1 56:1 57:1 64:1 65:1 72:1 73:1 80:1 81:1 87:1 88:1 89:1 94:1 95:1 97:1 100:1 101:1 102:1 105:1 106:1 107:1 108:1 
0 7.439515414002306 10 0 10 0 0 0 0 10 0 0 0 0 0 0 0 0 0 0 0 0 0 0 0 19:1 20:1 21:1 22:1 26:1 27:1 30:1 31:1 33:1 34:1 39:1 40:1 41:1 48:1 49:1 56:1 57:1 64:1 65:1 72:1 73:1 80:1 81:1 88:1 89:1 95:1 96:1 97:1 98:1 102:1 103:1 106:1 107:1 108:1 109:1 110:1 
0 7.51263827510564 10 0 10 0 0 0 0 10 0 0 0 0 0 0 0 0 0 0 0 0.1668997725328105 0 0 0 17:1 18:1 19:1 20:1 25:1 28:1 29:1 30:1 33:1 35:1 36:1 38:1 39:1 42:1 43:1 47:1 48:1 50:1 56:1 57:1 58:1 64:1 65:1 72:1 73:1 80:1 81:1 88:1 89:1 95:1 96:1 97:1 98:1 101:1 102:1 103:1 107:1 108:1 109:1 
0 10 10 0 10 0 0 0 0 10 0 0 0 0 0 0 0 0 0 0 0 0 0 0 0 20:1 21:1 22:1 23:1 27:1 28:1 31:1 32:1 35:1 40:1 42:1 43:1 48:1 49:1 50:1 56:1 57:1 64:1 65:1 72:1 73:1 79:1 80:1 81:1 87:1 89:1 94:1 95:1 97:1 98:1 101:1 102:1 106:1 107:1 108:1 109:1 
0 10 10 0 10 0 0 0 0 10 0 0 0 0 0 0 0 0 0 0 0 0 0 0 0 29:1 30:1 31:1 35:1 36:1 37:1 39:1 40:1 43:1 48:1 50:1 51:1 56:1 57:1 58:1 64:1 65:1 72:1 73:1 80:1 81:1 87:1 88:1 89:1 90:1 93:1 94:1 95:1 98:1 99:1 100:1 101:1 
0 0 10 0 6.843038110677141 0 0 0 0 10 0 0 0 0 0 0 0 0 0 0 0 0 0 0 0 19:1 20:1 21:1 22:1 27:1 30:1 31:1 34:1 35:1 39:1 40:1 41:1 42:1 48:1 49:1 56:1 57:1 64:1 65:1 72:1 73:1 80:1 81:1 88:1 89:1 95:1 96:1 97:1 101:1 102:1 103:1 105:1 106:1 107:1 108:1 109:1 
0 10 10 0 10 0 0 0 0 10 0 0 0 0 0 0 0 0 0 0 0 0 0 0 0 27:1 28:1 29:1 30:1 31:1 34:1 35:1 39:1 41:1 42:1 47:1 48:1 49:1 56:1 57:1 64:1 65:1 72:1 73:1 80:1 81:1 82:1 88:1 89:1 90:1 91:1 95:1 96:1 99:1 100:1 101:1 102:1 103:1 
0.5739126562501075 10 10 0.6710483527935461 10 0 0 0 0 10 0 3.220623508962413 0 0 0 0 0 0 0 0 0 0 0 0 0.3497857581430575 9:1 10:1 11:1 12:1 20:1 21:1 22:1 30:1 31:1 34:1 35:1 39:1 40:1 42:1 48:1 49:1 50:1 56:1 57:1 64:1 65:1 72:1 73:1 80:1 81:1 88:1 89:1 96:1 97:1 102:1 103:1 104:1 105:1 109:1 110:1 113:1 114:1 115:1 116:1 117:1 
10 10 10 0 10 10 0 10 10 10 0 10 0 3.31394851910928 0 0 10 0 0 0 0 0 0 0 0 36:1 37:1 38:1 39:1 42:1 43:1 44:1 47:1 48:1 49:1 50:1 56:1 57:1 64:1 65:1 72:1 73:1 78:1 79:1 80:1 81:1 82:1 83:1 85:1 86:1 91:1 92:1 93:1 
10 10 10 10 10 10 10 10 10 10 10 10 9.736236772480632 10 10 9.52571062421022 10 9.625591374059299 10 8.255541158039996 1.338348788512171 1.862158658756706 6.943550300722567 0.3587532889253537 10 7:1 14:1 15:1 22:1 29:1 30:1 36:1 37:1 39:1 43:1 44:1 47:1 51:1 55:1 58:1 59:1 63:1 66:1 71:1 74:1 79:1 82:1 86:1 87:1 90:1 94:1 98:1 101:1 102:1 106:1 109:1 114:1 116:1 117:1 122:1 123:1 124:1 
10 10 10 10 10 10 10 10 10 10 10 10 9.452197513417596 10 10 10 10 10 10 7.246641344026153 1.540878008500834 1.348692923796518 8.227730999946274 0.6758069860094574 10 7:1 8:1 15:1 22:1 24:1 30:1 32:1 37:1 40:1 45:1 48:1 52:1 53:1 56:1 60:1 64:1 67:1 68:1 71:1 72:1 75:1 79:1 82:1 87:1 90:1 94:1 97:1 102:1 105:1 109:1 110:1 113:1 117:1 121:1 122:1 123:1 124:1 
0 0 10 0 0 0 0 0 0 4.710879031240457 0 0 0 0 0 0 0 0 0 0 0 0 0 0 0 12:1 13:1 14:1 19:1 20:1 21:1 22:1 23:1 26:1 27:1 29:1 31:1 34:1 40:1 41:1 42:1 48:1 49:1 56:1 57:1 64:1 65:1 72:1 73:1 80:1 81:1 87:1 88:1 89:1 94:1 95:1 97:1 101:1 102:1 105:1 107:1 108:1 109:1 113:1 114:1 115:1 
10 10 10 0 10 10 0 10 10 10 6.04776519857414 10 0 10 3.341721999635546 0 10 0 10 0 0 3.132808453639928 0.2433410297990043 0 1.155955161344385 36:1 37:1 38:1 39:1 43:1 44:1 45:1 46:1 47:1 48:1 50:1 51:1 56:1 58:1 64:1 66:1 72:1 73:1 79:1 80:1 81:1 85:1 86:1 87:1 89:1 90:1 91:1 92:1 93:1 
10 10 10 0 10 10 0 10 10 10 8.161849094548378 10 0 10 0 0 10 0 4.711060426404037 0 0 0 0 0 2.957812183779945 35:1 36:1 37:1 39:1 42:1 47:1 48:1 49:1 50:1 56:1 57:1 64:1 65:1 72:1 73:1 79:1 80:1 81:1 86:1 87:1 89:1 90:1 91:1 92:1 93:1 94:1 
10 10 10 10 10 10 5.757724273866201 10 10 10 10 10 1.306939848845719 10 10 6.63853842057034 10 3.075612625177777 10 2.071456887209885 0 0 2.372222480224849 0 7.142634051525638 24:1 32:1 40:1 44:1 45:1 46:1 47:1 48:1 51:1 52:1 55:1 56:1 59:1 64:1 66:1 67:1 72:1 73:1 74:1 80:1 81:1 87:1 88:1 89:1 94:1 95:1 97:1 100:1 101:1 102:1 105:1 106:1 107:1 108:1 
7.111601977478353 10 10 10 10 10 6.549957129031457 10 10 10 8.338213092605683 10 1.393151674231646 10 10 1.404181044934166 10 0.9396398378452712 10 0.06911196574259085 0 1.999091664198344 0 0 4.039173105180137 4:1 5:1 6:1 12:1 13:1 14:1 19:1 20:1 21:1 22:1 23:1 27:1 29:1 31:1 34:1 35:1 37:1 39:1 42:1 47:1 50:1 55:1 58:1 63:1 66:1 71:1 74:1 79:1 82:1 87:1 90:1 95:1 98:1 102:1 103:1 106:1 110:1 114:1 117:1 118:1 122:1 123:1 124:1 125:1 
0.3629885795593153 10 10 0 10 10 0 3.141138070329087 2.441910275874029 10 0 4.67612282176155 0.2074197433601916 0.06129867602936128 0 0 5.448101807453456 0 0.6114913763678493 0 0.09195613739520837 0 0 0 0 5:1 6:1 7:1 12:1 13:1 14:1 15:1 16:1 20:1 24:1 28:1 32:1 35:1 40:1 43:1 48:1 50:1 51:1 56:1 58:1 64:1 65:1 66:1 72:1 73:1 79:1 80:1 81:1 87:1 89:1 94:1 95:1 97:1 102:1 105:1 109:1 110:1 113:1 117:1 121:1 122:1 123:1 124:1 125:1 
5.035664299509278 10 10 0 10 10 0 10 0 10 0 10 0 0 0 0 8.75139605739569 0 0 0 0 0 0 0 0 35:1 36:1 37:1 38:1 41:1 42:1 44:1 46:1 47:1 49:1 52:1 55:1 56:1 57:1 64:1 65:1 72:1 73:1 80:1 81:1 82:1 83:1 87:1 88:1 91:1 92:1 93:1 94:1 95:1 
10 10 10 10 10 10 10 10 10 10 10 10 10 10 10 10 10 10 10 8.436547274021564 0 0 7.208947989088767 0.9801244374034872 10 43:1 44:1 45:1 46:1 47:1 49:1 50:1 51:1 55:1 56:1 57:1 64:1 65:1 72:1 73:1 74:1 78:1 79:1 80:1 82:1 83:1 84:1 85:1 86:1 
10 10 10 4.603848345641332 10 10 3.296055562624796 10 10 10 9.858602476332415 10 0.776898743717268 10 6.071139306905834 0 10 2.653622782313401 7.456070419926473 0 0 0.09745290954492605 0.390977945083264 0 4.348081642813536 20:1 28:1 29:1 36:1 37:1 43:1 44:1 45:1 46:1 50:1 51:1 54:1 55:1 57:1 58:1 63:1 64:1 65:1 72:1 73:1 80:1 81:1 88:1 89:1 95:1 96:1 97:1 98:1 99:1 102:1 103:1 107:1 108:1 109:1 110:1 
0 10 10 0 10 4.15228522102519 0 5.782181096217588 0 10 0 10 0 0 0 0 0 0 0 0 0 0 0 0 0 34:1 35:1 36:1 37:1 38:1 42:1 46:1 47:1 48:1 50:1 51:1 52:1 56:1 57:1 58:1 64:1 65:1 72:1 73:1 79:1 80:1 81:1 86:1 87:1 89:1 90:1 91:1 92:1 93:1 94:1 
10 10 10 0 10 10 0 10 10 10 1.469531666780178 10 0 10 0 0 10 0 3.401953558583196 0 0 0 0 0 0 30:1 36:1 38:1 39:1 43:1 44:1 47:1 48:1 50:1 51:1 56:1 57:1 58:1 64:1 65:1 72:1 73:1 80:1 81:1 88:1 89:1 90:1 95:1 96:1 98:1 99:1 100:1 101:1 102:1 103:1 
10 10 10 0 10 10 0 10 10 10 0 10 0 0 0 0 10 0 0 0 0 0 0 0 0 35:1 36:1 37:1 38:1 42:1 43:1 46:1 47:1 48:1 50:1 51:1 56:1 57:1 58:1 64:1 65:1 72:1 73:1 79:1 80:1 81:1 84:1 85:1 86:1 87:1 89:1 90:1 91:1 92:1 
4.065961507009229 10 10 4.076511148356981 10 10 7.707658193911065 10 9.692910354246436 10 5.648090609625824 10 1.634956238672818 5.15904416663553 4.407778252987466 0.9261011768448864 10 1.37381436878176 7.062369637024389 2.286674948163177 0.5625451250486583 0.5386498616940996 1.057757795880337 0 3.124261674377945 1:1 2:1 3:1 4:1 11:1 12:1 18:1 20:1 21:1 26:1 29:1 33:1 34:1 37:1 38:1 41:1 46:1 49:1 54:1 57:1 63:1 65:1 71:1 72:1 73:1 80:1 81:1 88:1 89:1 96:1 97:1 98:1 103:1 104:1 106:1 111:1 114:1 115:1 118:1 119:1 123:1 124:1 125:1 126:1 
0 10 10 0 10 0 0 0 5.299211562332098 10 0 0 0 0 0 0 0 0 0 0 0 0 0 0 0 20:1 21:1 22:1 23:1 24:1 27:1 28:1 32:1 34:1 35:1 36:1 40:1 41:1 42:1 48:1 49:1 56:1 57:1 64:1 65:1 72:1 73:1 80:1 81:1 88:1 89:1 95:1 96:1 97:1 98:1 99:1 103:1 107:1 108:1 109:1 110:1 111:1 
0 10 10 0 10 0 0 0 0 10 0 0 0 0 0 0 0 0 0 0 0 0 0 0 0 17:1 18:1 19:1 20:1 21:1 22:1 25:1 26:1 30:1 31:1 34:1 35:1 39:1 41:1 47:1 48:1 49:1 56:1 57:1 64:1 65:1 72:1 73:1 80:1 81:1 87:1 88:1 89:1 94:1 95:1 97:1 101:1 102:1 105:1 106:1 107:1 108:1 109:1 
0 0 10 0 10 0 0 0 0 10 0 0 0 0 0 0 0 0 0 0 0 0 0 0 0 27:1 28:1 29:1 30:1 34:1 35:1 37:1 38:1 39:1 41:1 42:1 46:1 47:1 48:1 49:1 56:1 57:1 64:1 65:1 72:1 73:1 80:1 81:1 87:1 88:1 89:1 90:1 94:1 95:1 98:1 99:1 100:1 101:1 102:1 
0 10 10 0 10 0 0 0 0 10 0 0 0 0 0 0 0 0 0 0 0 0 0 0 0 30:1 36:1 37:1 38:1 39:1 40:1 42:1 43:1 44:1 48:1 50:1 56:1 57:1 58:1 64:1 65:1 72:1 73:1 79:1 80:1 81:1 86:1 87:1 89:1 90:1 92:1 93:1 94:1 98:1 99:1 100:1 
10 10 10 10 10 10 10 10 10 10 10 10 10 10 10 10 10 10 10 10 1.837935230193171 3.208268853886286 10 1.666597366038654 10 30:1 31:1 32:1 37:1 38:1 40:1 45:1 46:1 48:1 52:1 53:1 54:1 56:1 59:1 60:1 62:1 63:1 66:1 67:1 68:1 70:1 73:1 74:1 77:1 78:1 81:1 84:1 85:1 89:1 91:1 92:1 97:1 98:1 99:1 
0 10 10 0 10 0 0 0 0 10 0.2437503367954003 0 0 0 0 0 0 0 0 0 0 0 0 0 0 12:1 13:1 19:1 20:1 21:1 22:1 27:1 30:1 31:1 34:1 35:1 39:1 40:1 41:1 42:1 48:1 49:1 56:1 57:1 64:1 65:1 72:1 73:1 80:1 81:1 88:1 89:1 96:1 97:1 103:1 104:1 105:1 106:1 109:1 110:1 111:1 114:1 115:1 116:1 117:1 
0 0 10 0 0 0 0 0 0 5.278353144830419 0 0 0 0 0 0 0 0 0 0 0 0 0 0 0 21:1 22:1 23:1 27:1 28:1 29:1 31:1 32:1 35:1 39:1 40:1 42:1 43:1 48:1 49:1 50:1 56:1 57:1 64:1 65:1 72:1 73:1 80:1 81:1 87:1 88:1 89:1 94:1 95:1 97:1 98:1 101:1 102:1 106:1 107:1 108:1 109:1 
10 10 10 0 10 7.306662458851235 0 4.557595031257748 0 10 0 10 0 0 0 0 0 0 0 0 0 0 0 0 0 35:1 36:1 37:1 43:1 45:1 46:1 47:1 48:1 49:1 50:1 51:1 52:1 53:1 54:1 55:1 56:1 57:1 58:1 64:1 65:1 72:1 73:1 80:1 81:1 82:1 87:1 90:1 91:1 92:1 93:1 94:1 95:1 
0 10 10 0 10 0 0 0 0 10 0 0 0 0 0 0 0 0 0 0 0 0 0 0 0 28:1 29:1 30:1 31:1 32:1 35:1 36:1 37:1 40:1 42:1 43:1 45:1 48:1 49:1 50:1 56:1 57:1 64:1 65:1 72:1 73:1 79:1 80:1 81:1 87:1 89:1 94:1 95:1 97:1 98:1 99:1 100:1 101:1 102:1 
0 10 10 0 10 10 0 10 10 10 0 10 0 0 0 0 10 0 0 0 0 0 0 0 0 36:1 37:1 38:1 39:1 40:1 42:1 43:1 44:1 48:1 49:1 50:1 56:1 57:1 64:1 65:1 71:1 72:1 73:1 79:1 81:1 85:1 86:1 87:1 89:1 90:1 91:1 92:1 93:1 
0 10 10 0 10 0 0 0 0 10 0 0 0 0 0 0 10 0 0 0 0 0 0 0 0 27:1 28:1 29:1 30:1 31:1 32:1 34:1 35:1 40:1 41:1 42:1 48:1 49:1 56:1 57:1 64:1 65:1 72:1 73:1 80:1 81:1 87:1 88:1 89:1 90:1 93:1 94:1 95:1 98:1 99:1 100:1 101:1 
2.990402806244578 10 10 2.094066810409654 10 10 0.479158003771421 10 4.480613723477127 10 1.744528370210201 10 0.9530238826981363 1.874793633526247 2.663149545518898 0.2975650353218963 5.827914469905914 0 6.405977108284694 0 0 0 0 0 0 6:1 7:1 13:1 14:1 15:1 20:1 21:1 23:1 24:1 28:1 31:1 32:1 35:1 36:1 40:1 43:1 48:1 50:1 51:1 56:1 58:1 64:1 66:1 72:1 73:1 74:1 80:1 81:1 88:1 89:1 96:1 97:1 103:1 104:1 105:1 110:1 111:1 113:1 117:1 118:1 121:1 122:1 123:1 124:1 125:1 
10 10 10 0 10 10 0 10 10 10 10 10 0 10 0.7032753733758454 0 10 0 10 0 0 0 0 0 4.09738220417977 35:1 41:1 42:1 43:1 44:1 45:1 46:1 49:1 54:1 55:1 56:1 57:1 64:1 65:1 72:1 73:1 80:1 81:1 82:1 83:1 84:1 86:1 87:1 88:1 92:1 93:1 94:1 
0.1264022678940627 10 10 0 10 10 0 10 10 10 5.163896011417494 10 0 0 0 0 10 0 4.216569204301684 0 0 0 0 0.1696558909775373 0 20:1 21:1 22:1 23:1 24:1 27:1 28:1 32:1 34:1 40:1 41:1 42:1 48:1 49:1 56:1 57:1 64:1 65:1 72:1 73:1 80:1 81:1 88:1 89:1 96:1 97:1 98:1 99:1 100:1 101:1 102:1 103:1 104:1 106:1 
10 10 10 10 10 10 10 10 10 10 10 10 10 10 10 10 10 10 10 10 2.481421419470992 1.943663186010949 9.487748942967849 0.4935869326617263 10 5:1 6:1 13:1 14:1 15:1 23:1 26:1 31:1 34:1 39:1 42:1 47:1 50:1 55:1 58:1 63:1 66:1 71:1 74:1 79:1 82:1 87:1 90:1 95:1 98:1 102:1 103:1 106:1 110:1 114:1 118:1 123:1 124:1 125:1 126:1 
0.5989257778013621 10 10 0 10 0 0 0 0 10 0 0 0 0 0 0 0 0 0 0 0 0.5704528397040015 0 0 0 29:1 30:1 35:1 36:1 37:1 38:1 39:1 42:1 43:1 44:1 45:1 46:1 50:1 51:1 52:1 54:1 55:1 57:1 58:1 63:1 64:1 65:1 72:1 73:1 80:1 81:1 87:1 88:1 89:1 92:1 93:1 94:1 95:1 97:1 98:1 99:1 100:1 
0 10 10 0 10 10 0 10 0 10 0 10 0 0 0 0 8.926211006166376 0 4.363858323831171 0 0 0.6359916728664774 0 0 0 22:1 23:1 24:1 29:1 30:1 32:1 35:1 36:1 37:1 40:1 43:1 48:1 51:1 56:1 58:1 59:1 64:1 66:1 71:1 72:1 73:1 74:1 78:1 79:1 81:1 85:1 86:1 89:1 92:1 93:1 97:1 99:1 100:1 105:1 106:1 107:1 
-10 10 10 10 10 10 10 10 10 10 10 10 10 10 10 10 10 10 10 10 0 0 9.765012805581643 0 10 50:1 51:1 52:1 53:1 54:1 55:1 57:1 58:1 60:1 61:1 63:1 64:1 65:1 67:1 68:1 72:1 73:1 75:1 76:1 80:1 
-10 10 10 10 10 10 10 10 10 10 10 10 10 10 10 10 10 10 10 10 0 0 10 2.460238923926728 10 49:1 50:1 51:1 54:1 55:1 57:1 59:1 61:1 62:1 63:1 65:1 67:1 68:1 69:1 71:1 73:1 76:1 79:1 80:1 
