svm_type c_svc
kernel_type polynomial
degree 4
gamma 0.0078125
coef0 0
nr_class 26
total_sv 3687
rho -0.999997 -0.999986 0.999999 -0.999999 1 -0.999994 -0.999999 -0.999994 -0.999997 1 -0.999998 -0.999993 -0.999999 -0.999997 -0.999998 -0.999999 -0.999996 -0.999999 -0.999997 -0.999999 -0.999999 -0.999999 -0.999999 -0.999999 -0.999998 1 1 -0.999998 1 0.999998 -0.999998 1 0.999999 0.999999 -0.999997 1 -0.999998 -0.999994 -0.999998 -0.999998 0.999999 -0.999998 -0.999994 -0.999999 -0.999999 -0.999999 -0.999999 -0.999999 -0.999998 0.999998 -0.999999 1 -0.999997 -0.999999 -0.999997 -0.999998 0.999997 -0.999998 -0.999996 -0.999999 -0.999998 -0.999999 -0.999999 -0.999998 -0.999999 -0.999998 -0.999999 -0.999999 -0.999999 -0.999999 -0.999999 -0.999999 -0.999999 -0.999982 -0.999998 -0.999999 -0.999998 -0.999999 -0.999994 -0.999999 -0.999997 -0.999999 -0.999999 -0.999999 -0.999999 -0.999999 -0.999999 -0.999999 -0.999999 -0.999999 -0.999999 -0.999999 -0.999999 -0.999999 1 1 -0.999995 1 1 1 1 1 -0.999998 1 1 -0.999996 1 -0.999996 0.999998 -0.999998 -0.999999 -0.999999 -0.999998 -0.999999 0.999999 -1 -1 -1 -1 -1 -1 -1 -1 -1 -1 -1 -1 -1 -1 -1 -1 -1 -1 -1 -1 -0.999999 -0.999992 -0.999996 0.999999 -0.999999 1 -0.999999 -0.999998 -0.999999 -0.999999 -0.999993 -0.999999 -0.999997 -0.999999 -0.999999 -0.999999 -0.999999 -0.999999 -0.999999 1 1 1 1 1 -0.999998 1 1 -0.999997 1 -0.999997 0.999998 -0.999999 -0.999999 -0.999999 -0.999998 -0.999999 1 -0.999999 0.999998 -0.999999 1 -0.999999 -0.999999 -0.999999 -0.999999 -0.999998 -0.999999 -1 -0.999999 -1 -0.999999 -0.999999 -1 -0.999999 1 -0.999999 1 -1 -0.999999 -0.999999 -1 0.999998 -1 -0.999999 -1 -1 -1 -1 -1 -1 -0.999999 -0.999997 -0.999999 -0.999999 -0.999999 -0.999999 -0.999998 -0.999999 -0.999999 -0.999999 -0.999999 -0.999999 -0.999999 -0.999999 -0.999999 1 -0.999999 1 -0.999999 -0.999999 1 -0.999999 0.999993 -0.999999 -1 -1 -1 -1 -0.999999 -1 -1 -1 -1 -0.999999 -1 -1 -1 -1 -1 -1 -1 -1 1 1 0.999999 1 1 0.999999 -0.999999 -1 -1 -0.999999 -1 0.999999 -1 -1 0.999999 -1 0.999988 -1 -1 -1 -1 -1 -1 -0.999999 1 -0.999999 0.999997 -0.999999 -0.999999 -0.999999 -0.999999 -0.999999 -0.999999 1 0.999999 0.999999 -0.999999 -1 -1 -0.999999 -1 0.999999 -0.999999 -0.999999 -0.999999 -1 -1 -0.999999 -1 -0.999999 0.999998 -0.999999 -0.999999 -1 -0.999999 -1 0.999999 -0.999998 -0.999999 -0.999999 -0.999999 -0.999999 -0.999997 -0.999999 -1 -0.999999 -0.999999 0.999999 0.999999 1 -1 1 1 -0.999999 1 -1 1 1
label 14 12 0 13 3 8 6 1 17 2 4 18 11 5 19 24 21 20 25 15 7 9 16 23 22 10
probA -3.07884e+06 0.199908 -931257 -3.76797e+06 -2.74811e+06 -1.44172e+06 -5.14518e+06 -3.31625e+06 -3.76675e+06 0.167622 -5.7035e+06 -2.70529e+06 -1.17481e+07 -5.50136e+06 -6.07454e+06 -1.07932e+07 -3.10686e+06 -1.02067e+07 -1.88577e+06 -1.18547e+07 -8.75683e+06 -2.44015e+07 -1.0831e+07 -6.66316e+06 -5.81895e+06 -2.59961e+06 -2.77659e+06 -3.95445e+06 -7.45922e+06 -2.78936e+06 -5.0324e+06 -4.83424e+06 -4.74887e+06 -4.24375e+06 -2.51743e+06 -5.58702e+06 -1.38762e+07 -2.6925e+06 -8.333e+06 -7.20225e+06 -3.60783e+06 -8.189e+06 0.2551 -1.15726e+07 -2.72802e+07 -5.01221e+06 -6.17869e+06 472240 -5.39512e+06 -1.35492e+06 -4.92737e+06 -5.25358e+06 -1.88422e+06 -5.34161e+06 -3.95499e+06 -7.80975e+06 -2.10417e+06 -8.46771e+06 -5.3577e+06 -1.18972e+07 -6.52507e+06 -1.16073e+07 -7.21589e+06 -4.94719e+06 -9.86579e+06 -2.27331e+06 -1.45868e+07 -8.16848e+06 -2.52178e+06 -1.57873e+07 -5.71594e+06 -8.13108e+06 -6.23272e+06 0.148329 -2.85882e+06 -7.10302e+06 -9.67971e+06 -1.002e+07 -1.90904e+06 -1.45707e+07 -7.4644e+06 -7.86971e+06 -1.64907e+07 -1.42869e+07 -1.05186e+07 -4.89054e+06 -9.8267e+06 -2.51562e+06 -9.46823e+06 -8.54544e+06 -1.08744e+07 -2.61535e+07 -2.25775e+07 -1.04796e+07 -6.41993e+06 -3.14076e+06 0.463437 -5.95702e+06 -6.6431e+06 -4.76869e+06 -5.63347e+06 -7.12946e+06 -1.5019e+06 -8.14856e+06 -3.21069e+06 0.478663 -3.48259e+06 0.294028 -4.37528e+06 -2.86622e+06 -2.22462e+07 -9.28891e+06 -4.37081e+06 -4.75731e+06 -1.91996e+06 -5.64929e+06 -8.02794e+06 -1.46877e+07 -1.4484e+07 -5.57756e+06 -2.29219e+07 -8.09177e+06 -2.51877e+07 -2.22441e+07 -2.32478e+07 -2.5311e+07 -1.10913e+07 -2.43386e+07 -4.3973e+06 -2.52024e+07 -9.5876e+06 -2.22713e+07 -2.13885e+07 -2.31542e+07 -1.5533e+07 -6.34202e+06 -453672 -1.93003e+06 -1.33446e+06 -5.70713e+06 0.182029 -1.68657e+07 -6.19814e+06 -5.02021e+06 -7.47206e+06 -2.24972e+06 -1.00068e+07 -2.25204e+06 -1.382e+07 -1.97056e+06 -1.14074e+06 -1.69323e+07 -2.85421e+06 -6.69516e+06 -5.04849e+06 -5.58267e+06 -5.20788e+06 -4.02433e+06 -6.53344e+06 -3.79982e+06 -6.05169e+06 0.548957 0.294062 -4.08552e+06 0.302715 -3.59629e+06 -3.00609e+06 -1.4782e+06 -1.09499e+07 -6.40235e+06 -6.44735e+06 -3.23312e+06 -1.13753e+07 -1.99484e+06 -1.18825e+07 -5.9885e+06 -4.6318e+06 -4.53037e+06 -9.82241e+06 -9.92779e+06 0.368113 -9.596e+06 -2.06626e+06 -9.49006e+06 -1.33788e+07 -5.83721e+06 -1.66793e+07 -864417 -7.8373e+06 -1.62432e+06 -1.3378e+07 -7.54602e+06 -1.98924e+07 -1.53465e+07 -1.56788e+07 -1.79554e+07 -4.12228e+06 -1.98314e+07 -2.64637e+06 -2.00484e+07 -2.8439e+07 -2.56392e+07 -1.85952e+07 -2.05362e+07 -1.16891e+07 -1.10595e+07 -6.5899e+06 -2.01645e+07 -1.56977e+07 -2.06982e+07 -1.56246e+07 -6.57814e+06 -1.62913e+07 -2.12256e+06 -2.20271e+07 -3.30946e+07 -2.52311e+07 -1.32048e+07 -1.92805e+07 -1.15239e+07 -1.27584e+07 -1.57546e+07 -1.38393e+07 -9.88173e+06 -1.24664e+07 -8.07606e+06 -1.14086e+07 -978871 -1.06618e+07 -1.34149e+07 -2.07028e+07 -1.81403e+07 -1.24291e+07 -8.98086e+06 -2.40557e+07 -2.15353e+07 -1.67359e+07 -1.651e+07 -6.12504e+06 -2.1498e+07 -3.42536e+06 -1.2829e+07 176394 -2.03355e+07 -1.9999e+07 -1.08807e+07 -9.46871e+06 -1.62453e+07 -1.37798e+07 0.72833 -1.8291e+07 -1.21296e+07 -7.87563e+06 0.391271 -2.18102e+07 -1.73529e+07 0.652584 -1.14174e+07 -6.47755e+06 -1.81581e+07 -1.72344e+07 -1.22069e+07 -1.80345e+07 0.210531 -1.90117e+07 -1.56868e+07 -1.08918e+07 -2.12961e+07 -1.98336e+07 -1.17202e+07 -9.96864e+06 -9.91868e+06 -1.2464e+07 -1.93375e+06 -1.37505e+07 -1.27736e+07 -8.92868e+06 -1.65921e+07 -8.40645e+06 0.269796 -3.69315e+06 0.385527 -6.95089e+06 -8.22294e+06 -1.82921e+07 -1.83416e+07 -7.06453e+06 -1.60562e+07 -9.92812e+06 -1.56983e+07 -2.99565e+06 -1.62526e+07 -2.31869e+06 -2.18785e+07 -1.64682e+07 -2.96755e+06 -9.13165e+06 -5.90968e+06 -1.04728e+07 -1.37501e+07 -1.0132e+07 -8.79698e+06 -2.87314e+06 -5.5342e+06 -8.82754e+06 -1.03054e+07 -5.51546e+06 -3.40928e+06 -4.27556e+06 -4.34055e+06 -727288 -1.13853e+07 0.40028 -2.22857e+06 -7.48449e+06 0.623883 -2.36501e+07 0.696493 -1.99097e+07 -1.11664e+07 -3.51587e+06 -1.26429e+07 -1.16483e+07 -9.49515e+06 -1.70666e+07
probB 3.07883e+06 -0.196167 -931255 3.76796e+06 -2.74811e+06 1.44171e+06 5.14517e+06 3.31624e+06 3.76674e+06 0.156025 5.70349e+06 2.70527e+06 1.17481e+07 5.50135e+06 6.07453e+06 1.07932e+07 3.10685e+06 1.02067e+07 1.88577e+06 1.18547e+07 8.75682e+06 2.44014e+07 1.0831e+07 6.66315e+06 5.81894e+06 -2.59961e+06 -2.77659e+06 3.95445e+06 -7.45922e+06 -2.78936e+06 5.03239e+06 -4.83424e+06 -4.74886e+06 -4.24374e+06 2.51743e+06 -5.58701e+06 1.38762e+07 2.69249e+06 8.33298e+06 7.20224e+06 -3.60783e+06 8.18899e+06 -0.208331 1.15726e+07 2.72802e+07 5.0122e+06 6.17868e+06 -472242 5.39511e+06 -1.35492e+06 4.92736e+06 -5.25358e+06 1.88421e+06 5.3416e+06 3.95498e+06 7.80974e+06 -2.10417e+06 8.46769e+06 5.35768e+06 1.18972e+07 6.52506e+06 1.16073e+07 7.21588e+06 4.94718e+06 9.86577e+06 2.2733e+06 1.45868e+07 8.16847e+06 2.52177e+06 1.57872e+07 5.71594e+06 8.13107e+06 6.23271e+06 -0.0540949 2.85881e+06 7.10301e+06 9.6797e+06 1.002e+07 1.90903e+06 1.45707e+07 7.46439e+06 7.8697e+06 1.64907e+07 1.42869e+07 1.05186e+07 4.89053e+06 9.82669e+06 2.51562e+06 9.46822e+06 8.54543e+06 1.08744e+07 2.61534e+07 2.25775e+07 1.04795e+07 -6.41993e+06 -3.14076e+06 0.0867941 -5.95701e+06 -6.64309e+06 -4.76868e+06 -5.63347e+06 -7.12946e+06 1.5019e+06 -8.14856e+06 -3.21069e+06 -0.412297 -3.48259e+06 -0.279487 -4.37527e+06 2.86622e+06 2.22462e+07 9.2889e+06 4.3708e+06 4.7573e+06 -1.91996e+06 5.64929e+06 8.02793e+06 1.46877e+07 1.4484e+07 5.57756e+06 2.29219e+07 8.09177e+06 2.51877e+07 2.22441e+07 2.32477e+07 2.5311e+07 1.10913e+07 2.43386e+07 4.39729e+06 2.52024e+07 9.58759e+06 2.22713e+07 2.13884e+07 2.31542e+07 1.5533e+07 6.34201e+06 453669 1.93002e+06 -1.33446e+06 5.70712e+06 0.0887719 1.68657e+07 6.19812e+06 5.02021e+06 7.47206e+06 2.24971e+06 1.00068e+07 2.25203e+06 1.382e+07 1.97056e+06 1.14073e+06 1.69323e+07 2.85421e+06 6.69515e+06 -5.04849e+06 -5.58267e+06 -5.20787e+06 -4.02433e+06 -6.53344e+06 3.79981e+06 -6.05169e+06 0.522668 -0.279294 -4.08551e+06 -0.27031 -3.59628e+06 3.00609e+06 1.47819e+06 1.09499e+07 6.40234e+06 6.44734e+06 -3.23312e+06 1.13753e+07 -1.99484e+06 1.18824e+07 -5.9885e+06 4.63179e+06 4.53036e+06 9.8224e+06 9.92778e+06 -0.277082 9.59599e+06 2.06626e+06 9.49005e+06 1.33788e+07 5.8372e+06 1.66793e+07 864414 7.83729e+06 -1.62432e+06 1.3378e+07 -7.54602e+06 1.98924e+07 1.53465e+07 1.56788e+07 1.79553e+07 -4.12227e+06 1.98314e+07 2.64637e+06 2.00484e+07 2.8439e+07 2.56392e+07 1.85952e+07 2.05362e+07 1.16891e+07 1.10595e+07 6.58989e+06 2.01645e+07 1.56977e+07 2.06982e+07 1.56246e+07 6.57813e+06 1.62913e+07 2.12256e+06 2.20271e+07 3.30945e+07 2.52311e+07 1.32048e+07 1.92804e+07 1.15239e+07 -1.27584e+07 1.57546e+07 -1.38393e+07 9.88173e+06 1.24663e+07 -8.07606e+06 1.14086e+07 -978866 1.06618e+07 1.34149e+07 2.07028e+07 1.81403e+07 1.24291e+07 8.98085e+06 2.40557e+07 2.15353e+07 1.67359e+07 1.651e+07 6.12503e+06 2.1498e+07 3.42535e+06 1.2829e+07 -176397 2.03355e+07 1.9999e+07 1.08807e+07 9.4687e+06 -1.62453e+07 -1.37798e+07 0.732817 -1.8291e+07 -1.21296e+07 -7.87563e+06 -0.0182204 2.18102e+07 1.73529e+07 -0.521698 1.14174e+07 -6.47754e+06 1.81581e+07 1.72344e+07 -1.22069e+07 1.80345e+07 0.090669 1.90117e+07 1.56868e+07 1.08918e+07 2.12961e+07 1.98336e+07 1.17202e+07 9.96863e+06 -9.91867e+06 1.2464e+07 -1.93374e+06 1.37505e+07 1.27736e+07 8.92867e+06 1.65921e+07 8.40644e+06 -0.199227 -3.69315e+06 0.173937 -6.95088e+06 8.22293e+06 1.82921e+07 1.83416e+07 7.06452e+06 1.60562e+07 -9.92811e+06 1.56983e+07 2.99565e+06 1.62526e+07 2.31869e+06 2.18785e+07 1.64682e+07 2.96755e+06 9.13164e+06 -5.90967e+06 1.04728e+07 1.375e+07 1.0132e+07 8.79697e+06 2.87314e+06 -5.5342e+06 8.82753e+06 1.03054e+07 5.51546e+06 3.40928e+06 4.27556e+06 4.34054e+06 727286 1.13853e+07 -0.335471 2.22857e+06 -7.48449e+06 0.563506 -2.36501e+07 -0.358062 -1.99097e+07 -1.11664e+07 3.51587e+06 -1.26429e+07 1.16483e+07 -9.49515e+06 -1.70666e+07
nr_sv 303 133 281 368 74 365 197 73 185 154 320 105 200 57 120 87 66 175 67 126 56 13 15 51 12 84
SV
0 0.0001 0.0001 0.0001 0.0001 0 0 0 0 0.0001 0 0 0 0 0 0 0 0 0 0 0 0 0 0 0 26:1 27:1 28:1 34:1 35:1 36:1 37:1 38:1 42:1 46:1 47:1 49:1 50:1 55:1 56:1 57:1 64:1 65:1 72:1 73:1 80:1 81:1 87:1 88:1 89:1 93:1 94:1 95:1 97:1 98:1 99:1 100:1 101:1 
0 0.0001 0.0001 0 0.0001 0 0 0 0 0.0001 0 0.0001 0 0 0 0 0 0 0 0 0 0 0 0 0 35:1 36:1 37:1 38:1 42:1 43:1 44:1 46:1 47:1 48:1 49:1 50:1 56:1 57:1 64:1 65:1 72:1 73:1 80:1 81:1 87:1 88:1 89:1 90:1 91:1 92:1 93:1 94:1 
0.0001 0.0001 0.0001 0 0.0001 0.0001 0 0.0001 0.0001 0.0001 0 0.0001 0 0 0 0 0.0001 0 0 0 0 0 0 0 0 34:1 35:1 41:1 42:1 43:1 44:1 45:1 46:1 47:1 49:1 55:1 56:1 57:1 64:1 65:1 72:1 73:1 80:1 81:1 87:1 88:1 89:1 90:1 91:1 92:1 93:1 94:1 95:1 
0.0001 0.0001 0.0001 0 0.0001 0.0001 0 0.0001 0.0001 0.0001 0 0.0001 0 0.0001 0 0 0.0001 0 0 0 0 0 0 0 0 34:1 35:1 36:1 41:1 42:1 44:1 45:1 46:1 49:1 54:1 55:1 57:1 63:1 64:1 65:1 72:1 73:1 80:1 81:1 82:1 88:1 90:1 91:1 92:1 93:1 94:1 95:1 96:1 
0 0.0001 0.0001 0 0.0001 0 0 0 0 0.0001 0 0 0 0 0 0 0 0 0 0 0 0 0 0 0 29:1 30:1 31:1 36:1 37:1 39:1 40:1 43:1 44:1 48:1 50:1 51:1 56:1 57:1 58:1 64:1 65:1 72:1 73:1 79:1 80:1 81:1 86:1 87:1 89:1 92:1 93:1 94:1 97:1 98:1 99:1 100:1 
0 0.0001 0.0001 0 0.0001 0 0 0 0 0.0001 0 0 0 0 0 0 0 0 0 0 0 0 0 0 0 25:1 26:1 27:1 28:1 29:1 30:1 31:1 33:1 34:1 35:1 39:1 40:1 41:1 42:1 48:1 49:1 56:1 57:1 64:1 65:1 72:1 73:1 80:1 81:1 88:1 89:1 90:1 91:1 93:1 94:1 95:1 96:1 99:1 100:1 101:1 
0 0.0001 0.0001 0 0.0001 0 0 0 0 0.0001 0 0 0 0 0 0 0 0 0 0 0 0 0 0 0 13:1 19:1 20:1 21:1 22:1 27:1 30:1 31:1 34:1 35:1 39:1 40:1 42:1 48:1 50:1 56:1 57:1 58:1 64:1 65:1 72:1 73:1 79:1 80:1 81:1 87:1 89:1 90:1 95:1 97:1 98:1 102:1 107:1 108:1 109:1 110:1 115:1 116:1 
0.0001 0.0001 0.0001 0.0001 0.0001 0.0001 0.0001 0.0001 0.0001 0.0001 0.0001 0.0001 0.0001 0.0001 0.0001 0.0001 0.0001 0.0001 0.0001 0.0001 0 0 0 0 0.0001 36:1 37:1 38:1 39:1 40:1 42:1 43:1 47:1 48:1 49:1 50:1 56:1 57:1 63:1 64:1 65:1 71:1 73:1 77:1 78:1 81:1 84:1 85:1 89:1 90:1 91:1 92:1 
0 0.0001 0.0001 0 0.0001 0.0001 0 0.0001 0 0.0001 0.0001 0.0001 0.0001 0 0 0 0.0001 0 0 0 0 0 0 0 0 19:1 20:1 21:1 22:1 25:1 26:1 27:1 30:1 31:1 33:1 39:1 40:1 41:1 48:1 49:1 56:1 57:1 64:1 65:1 72:1 73:1 80:1 81:1 88:1 90:1 95:1 96:1 98:1 99:1 102:1 103:1 107:1 108:1 109:1 110:1 
0.0001 0.0001 0.0001 0.0001 0.0001 0.0001 0.0001 0.0001 0.0001 0.0001 0.0001 0.0001 0.0001 0.0001 0.0001 0 0.0001 0.0001 0.0001 0 0 0 0 0 0.0001 20:1 21:1 22:1 23:1 24:1 27:1 28:1 29:1 32:1 34:1 35:1 36:1 40:1 43:1 44:1 48:1 51:1 56:1 59:1 63:1 64:1 66:1 67:1 71:1 74:1 78:1 82:1 85:1 86:1 89:1 90:1 92:1 93:1 97:1 99:1 100:1 105:1 106:1 107:1 
0 0 0.0001 0 0.0001 0 0 0 0 0.0001 0 0 0 0 0 0 0 0 0 0 0 0 0 0 0 21:1 22:1 23:1 27:1 28:1 29:1 30:1 31:1 32:1 35:1 40:1 42:1 43:1 48:1 50:1 56:1 57:1 58:1 64:1 65:1 72:1 73:1 80:1 81:1 87:1 88:1 89:1 94:1 95:1 97:1 100:1 101:1 102:1 105:1 106:1 107:1 108:1 
0 0 0.0001 0 0.0001 0 0 0 0 0.0001 0 0 0 0 0 0 0 0 0 0 0 0 0 0 0 20:1 21:1 22:1 27:1 30:1 34:1 35:1 36:1 37:1 38:1 39:1 41:1 42:1 46:1 47:1 48:1 49:1 56:1 57:1 64:1 65:1 72:1 73:1 80:1 81:1 88:1 89:1 95:1 96:1 97:1 102:1 103:1 105:1 106:1 107:1 108:1 109:1 110:1 
0.0001 0.0001 0.0001 0.0001 0.0001 0.0001 0 0.0001 0.0001 0.0001 0.0001 0.0001 0.0001 0.0001 0.0001 0.0001 0.0001 0.0001 0.0001 0 0 0 0.0001 0 0.0001 19:1 20:1 21:1 23:1 26:1 27:1 29:1 31:1 34:1 37:1 38:1 39:1 41:1 42:1 46:1 47:1 48:1 49:1 55:1 57:1 63:1 65:1 71:1 73:1 78:1 79:1 81:1 85:1 89:1 92:1 97:1 98:1 99:1 100:1 106:1 
0.0001 0.0001 0.0001 0 0.0001 0.0001 0.0001 0.0001 0.0001 0.0001 0 0.0001 0 0.0001 0 0 0.0001 0 0 0 0 0 0 0 0.0001 29:1 33:1 34:1 35:1 37:1 38:1 41:1 46:1 47:1 49:1 55:1 56:1 57:1 64:1 65:1 72:1 73:1 80:1 81:1 82:1 88:1 90:1 91:1 92:1 96:1 100:1 101:1 102:1 103:1 104:1 
0 0.0001 0.0001 0 0.0001 0 0 0 0 0.0001 0 0 0 0 0 0 0 0 0 0 0 0 0 0 0 33:1 34:1 35:1 36:1 37:1 41:1 42:1 43:1 45:1 46:1 47:1 49:1 55:1 56:1 57:1 64:1 65:1 72:1 73:1 80:1 81:1 82:1 87:1 88:1 90:1 91:1 92:1 93:1 94:1 95:1 
0 0 0.0001 0 0.0001 0 0 0 0 0.0001 0 0 0 0 0 0 0 0 0 0 0 0 0 0 0 17:1 18:1 19:1 20:1 21:1 22:1 25:1 26:1 27:1 28:1 29:1 30:1 31:1 33:1 34:1 37:1 39:1 41:1 47:1 48:1 49:1 56:1 57:1 64:1 65:1 72:1 73:1 80:1 81:1 88:1 89:1 90:1 95:1 96:1 98:1 99:1 101:1 102:1 103:1 107:1 108:1 109:1 
0 0.0001 0.0001 0 0.0001 0 0 0 0 0.0001 0 0 0 0 0 0 0 0 0 0 0 0 0 0 0 27:1 28:1 29:1 30:1 31:1 32:1 34:1 35:1 40:1 41:1 42:1 48:1 49:1 50:1 56:1 57:1 64:1 65:1 72:1 73:1 79:1 80:1 81:1 86:1 87:1 89:1 90:1 94:1 98:1 99:1 100:1 101:1 102:1 
0 0.0001 0.0001 0 0.0001 0.0001 0 0 0 0.0001 0 0 0 0 0 0 0 0 0.0001 0 0 0 0 0 0 2:1 3:1 4:1 5:1 6:1 10:1 12:1 14:1 15:1 19:1 20:1 23:1 24:1 26:1 27:1 32:1 34:1 40:1 41:1 42:1 48:1 49:1 56:1 57:1 64:1 65:1 72:1 73:1 80:1 81:1 88:1 89:1 95:1 96:1 97:1 103:1 105:1 110:1 111:1 113:1 117:1 118:1 121:1 122:1 123:1 124:1 125:1 
0 0.0001 0.0001 0 0.0001 0.0001 0 0 0 0.0001 0 0 0 0 0 0 0 0 0.0001 0 0 0 0 0 0 20:1 21:1 22:1 26:1 27:1 28:1 29:1 30:1 31:1 33:1 34:1 37:1 38:1 39:1 41:1 46:1 47:1 49:1 54:1 55:1 56:1 57:1 64:1 65:1 72:1 73:1 80:1 81:1 88:1 90:1 95:1 96:1 98:1 99:1 100:1 101:1 102:1 103:1 109:1 110:1 
0 0.0001 0.0001 0 0.0001 0.0001 0 0.0001 0.0001 0.0001 0 0.0001 0 0 0 0 0.0001 0 0 0 0 0 0 0 0 28:1 29:1 30:1 31:1 34:1 35:1 36:1 39:1 40:1 41:1 42:1 48:1 49:1 56:1 57:1 64:1 65:1 72:1 73:1 79:1 81:1 86:1 87:1 89:1 92:1 93:1 94:1 97:1 98:1 99:1 
0 0 0.0001 0 0.0001 0 0 0 0 0.0001 0 0 0 0 0 0 0 0 0 0 0 0 0 0 0 21:1 22:1 26:1 27:1 28:1 29:1 30:1 31:1 32:1 33:1 34:1 40:1 41:1 42:1 43:1 48:1 49:1 51:1 56:1 57:1 64:1 65:1 72:1 73:1 80:1 81:1 87:1 88:1 89:1 94:1 95:1 97:1 98:1 101:1 102:1 106:1 107:1 108:1 109:1 
0.0001 0.0001 0.0001 0.0001 0.0001 0.0001 0.0001 0.0001 0.0001 0.0001 0.0001 0.0001 0.0001 0.0001 0.0001 0 0.0001 0.0001 0.0001 0 0 0 0.0001 0 0.0001 11:1 12:1 13:1 14:1 22:1 23:1 31:1 32:1 40:1 45:1 46:1 48:1 52:1 53:1 56:1 59:1 60:1 64:1 67:1 72:1 74:1 75:1 79:1 80:1 82:1 86:1 87:1 89:1 90:1 94:1 97:1 101:1 102:1 105:1 107:1 108:1 109:1 113:1 114:1 115:1 
0.0001 0.0001 0.0001 0.0001 0.0001 0.0001 0.0001 0.0001 0.0001 0.0001 0.0001 0.0001 0 0.0001 0 0 0.0001 0 0.0001 0 0 0 0 0 0.0001 3:1 4:1 5:1 6:1 11:1 15:1 19:1 23:1 24:1 27:1 32:1 34:1 35:1 40:1 42:1 48:1 50:1 56:1 57:1 58:1 64:1 65:1 72:1 73:1 80:1 81:1 88:1 89:1 96:1 97:1 104:1 105:1 112:1 113:1 114:1 119:1 120:1 122:1 123:1 124:1 125:1 126:1 127:1 
0 0.0001 0.0001 0 0.0001 0 0 0 0 0.0001 0 0.0001 0 0 0 0 0 0 0 0 0 0 0 0 0 11:1 12:1 18:1 19:1 20:1 21:1 26:1 29:1 30:1 31:1 34:1 39:1 40:1 41:1 48:1 49:1 56:1 57:1 64:1 65:1 72:1 73:1 80:1 81:1 88:1 89:1 95:1 96:1 97:1 103:1 105:1 109:1 110:1 111:1 113:1 114:1 115:1 116:1 117:1 
0.0001 0.0001 0.0001 0 0.0001 0.0001 0.0001 0.0001 0.0001 0.0001 0.0001 0.0001 0 0.0001 0.0001 0.0001 0.0001 0.0001 0.0001 0.0001 0 0 0.0001 0 0.0001 34:1 35:1 36:1 40:1 41:1 42:1 48:1 49:1 56:1 57:1 64:1 65:1 72:1 73:1 79:1 80:1 81:1 82:1 86:1 87:1 90:1 91:1 92:1 93:1 94:1 
0 0.0001 0.0001 0 0.0001 0 0 0 0 0.0001 0 0.0001 0 0 0 0 0 0 0 0 0 0 0 0 0 21:1 22:1 28:1 29:1 30:1 31:1 35:1 36:1 39:1 40:1 43:1 48:1 51:1 56:1 58:1 59:1 64:1 65:1 66:1 72:1 73:1 79:1 80:1 81:1 87:1 89:1 94:1 95:1 97:1 98:1 99:1 100:1 101:1 102:1 106:1 
0.0001 0.0001 0.0001 0 0.0001 0.0001 0.0001 0.0001 0.0001 0.0001 0.0001 0.0001 0 0.0001 0.0001 0 0.0001 0.0001 0.0001 0.0001 0 0 0 0 0.0001 26:1 27:1 33:1 34:1 41:1 46:1 47:1 49:1 55:1 56:1 57:1 64:1 65:1 72:1 73:1 80:1 81:1 87:1 88:1 89:1 90:1 94:1 95:1 99:1 100:1 101:1 102:1 
0 0.0001 0.0001 0 0.0001 0.0001 0 0.0001 0 0.0001 0 0 0 0 0 0 0 0 0 0 0 0 0 0 0 11:1 18:1 19:1 20:1 26:1 28:1 29:1 30:1 34:1 38:1 39:1 41:1 42:1 47:1 49:1 55:1 56:1 57:1 64:1 65:1 72:1 73:1 80:1 81:1 88:1 89:1 95:1 96:1 97:1 101:1 102:1 103:1 105:1 108:1 109:1 113:1 114:1 115:1 
0 0.0001 0.0001 0 0.0001 0.0001 0 0 0 0.0001 0 0 0 0 0 0 0 0 0 0 0 0 0 0 0 3:1 4:1 5:1 13:1 14:1 15:1 16:1 21:1 22:1 24:1 28:1 29:1 30:1 32:1 35:1 36:1 40:1 42:1 43:1 48:1 50:1 56:1 58:1 64:1 65:1 66:1 72:1 73:1 79:1 80:1 81:1 87:1 89:1 95:1 97:1 102:1 103:1 105:1 110:1 113:1 117:1 118:1 121:1 122:1 123:1 124:1 125:1 
0 0.0001 0.0001 0 0.0001 0 0 0.0001 0 0.0001 0 0.0001 0 0 0 0 0 0 0 0 0 0 0 0 0 26:1 33:1 34:1 35:1 36:1 37:1 38:1 41:1 42:1 46:1 47:1 49:1 50:1 55:1 56:1 57:1 64:1 65:1 72:1 73:1 80:1 81:1 88:1 89:1 90:1 91:1 95:1 99:1 100:1 101:1 102:1 
0.0001 0.0001 0.0001 0.0001 0.0001 0.0001 0.0001 0.0001 0.0001 0.0001 0.0001 0.0001 0.0001 0.0001 0.0001 0.0001 0.0001 0.0001 0.0001 0.0001 0 0 0.0001 0 0.0001 35:1 36:1 37:1 38:1 39:1 43:1 46:1 47:1 48:1 50:1 56:1 57:1 63:1 64:1 65:1 71:1 73:1 78:1 79:1 81:1 85:1 86:1 89:1 90:1 91:1 92:1 
0 0.0001 0.0001 0 0.0001 0.0001 0 0.0001 0.0001 0.0001 0 0.0001 0 0 0 0 0.0001 0 0 0 0 0 0 0 0 33:1 34:1 35:1 36:1 37:1 38:1 41:1 46:1 47:1 49:1 55:1 56:1 57:1 64:1 65:1 72:1 73:1 80:1 81:1 82:1 88:1 90:1 91:1 92:1 93:1 94:1 95:1 96:1 
0.0001 0.0001 0.0001 0 0.0001 0.0001 0 0.0001 0.0001 0.0001 0 0.0001 0 0 0 0 0.0001 0 0.0001 0 0 0 0 0 0 35:1 36:1 37:1 38:1 39:1 40:1 41:1 42:1 43:1 48:1 49:1 50:1 51:1 56:1 58:1 64:1 66:1 71:1 72:1 73:1 74:1 79:1 81:1 82:1 86:1 87:1 90:1 91:1 92:1 93:1 94:1 
0 0.0001 0.0001 0 0.0001 0 0 0 0 0.0001 0 0 0 0 0 0 0 0 0 0 0 0 0 0 0 28:1 29:1 30:1 31:1 35:1 36:1 39:1 40:1 42:1 43:1 44:1 45:1 48:1 50:1 53:1 56:1 57:1 58:1 64:1 65:1 71:1 72:1 73:1 78:1 79:1 81:1 85:1 86:1 89:1 91:1 92:1 93:1 97:1 98:1 99:1 
0 0.0001 0.0001 0 0.0001 0.0001 0 0.0001 0 0.0001 0 0.0001 0 0 0 0 0 0 0.0001 0 0 0 0 0 0 12:1 13:1 14:1 15:1 16:1 20:1 24:1 27:1 28:1 32:1 35:1 43:1 44:1 45:1 46:1 47:1 48:1 51:1 56:1 57:1 58:1 59:1 64:1 65:1 72:1 73:1 80:1 81:1 88:1 89:1 95:1 96:1 97:1 100:1 101:1 102:1 103:1 105:1 108:1 113:1 114:1 115:1 116:1 
0 0.0001 0.0001 0 0.0001 0.0001 0 0.0001 0 0.0001 0 0.0001 0 0 0 0 0 0 0 0 0 0 0 0 0 19:1 20:1 21:1 22:1 23:1 27:1 31:1 35:1 36:1 39:1 40:1 43:1 44:1 48:1 50:1 51:1 56:1 58:1 64:1 65:1 66:1 72:1 73:1 80:1 81:1 87:1 89:1 94:1 95:1 97:1 100:1 101:1 102:1 105:1 106:1 107:1 108:1 
0 0.0001 0.0001 0 0.0001 0 0 0 0 0.0001 0 0 0 0 0 0 0 0 0 0 0 0 0 0 0 30:1 35:1 36:1 37:1 38:1 39:1 40:1 42:1 43:1 48:1 49:1 50:1 56:1 57:1 64:1 65:1 71:1 72:1 73:1 79:1 81:1 86:1 87:1 89:1 92:1 93:1 94:1 97:1 98:1 99:1 100:1 
0 0.0001 0.0001 0 0.0001 0 0 0 0 0.0001 0 0 0 0 0 0 0 0 0 0 0 0 0 0 0 30:1 31:1 36:1 37:1 38:1 39:1 40:1 42:1 43:1 48:1 49:1 50:1 56:1 57:1 64:1 65:1 72:1 73:1 79:1 80:1 81:1 86:1 87:1 89:1 93:1 94:1 97:1 98:1 99:1 100:1 101:1 
0.0001 0.0001 0.0001 0.0001 0.0001 0.0001 0.0001 0.0001 0.0001 0.0001 0 0.0001 0 0.0001 0 0 0.0001 0 0 0 0 0 0 0 0.0001 18:1 19:1 26:1 29:1 34:1 37:1 38:1 41:1 42:1 46:1 47:1 49:1 55:1 57:1 63:1 64:1 65:1 72:1 73:1 80:1 81:1 82:1 88:1 90:1 91:1 96:1 99:1 100:1 104:1 108:1 109:1 110:1 111:1 112:1 
0.0001 0.0001 0.0001 0.0001 0.0001 0.0001 0.0001 0.0001 0.0001 0.0001 0.0001 0.0001 0.0001 0.0001 0.0001 0.0001 0.0001 0.0001 0.0001 0.0001 0 0.0001 0.0001 0 0.0001 30:1 38:1 39:1 44:1 45:1 47:1 48:1 51:1 52:1 56:1 58:1 59:1 64:1 65:1 66:1 72:1 73:1 80:1 81:1 88:1 89:1 90:1 95:1 96:1 98:1 99:1 100:1 101:1 102:1 103:1 
0.0001 0.0001 0.0001 0.0001 0.0001 0.0001 0.0001 0.0001 0.0001 0.0001 0.0001 0.0001 0.0001 0.0001 0.0001 0 0.0001 0.0001 0.0001 0 0 0 0 0 0.0001 26:1 27:1 28:1 36:1 37:1 38:1 39:1 47:1 48:1 56:1 57:1 64:1 65:1 72:1 73:1 79:1 80:1 81:1 85:1 86:1 87:1 89:1 90:1 91:1 92:1 93:1 98:1 99:1 
0.0001 0.0001 0.0001 0 0.0001 0.0001 0.0001 0.0001 0.0001 0.0001 0.0001 0.0001 0 0.0001 0.0001 0.0001 0.0001 0.0001 0.0001 0.0001 0 0 0 0 0.0001 20:1 21:1 22:1 26:1 27:1 28:1 30:1 31:1 32:1 33:1 40:1 41:1 48:1 49:1 56:1 57:1 64:1 65:1 72:1 73:1 79:1 81:1 86:1 89:1 93:1 97:1 98:1 99:1 100:1 106:1 107:1 
0.0001 0.0001 0.0001 0 0.0001 0.0001 0 0.0001 0.0001 0.0001 0.0001 0.0001 0 0.0001 0.0001 0.0001 0.0001 0.0001 0.0001 0 0 0 0 0 0.0001 27:1 28:1 29:1 37:1 38:1 41:1 46:1 47:1 49:1 55:1 56:1 57:1 64:1 65:1 72:1 73:1 80:1 81:1 87:1 88:1 90:1 91:1 95:1 99:1 100:1 101:1 102:1 103:1 
0.0001 0.0001 0.0001 0 0.0001 0.0001 0 0.0001 0 0.0001 0 0.0001 0 0 0 0 0.0001 0 0 0 0 0 0 0 0 12:1 13:1 21:1 22:1 25:1 26:1 30:1 33:1 38:1 39:1 41:1 47:1 49:1 55:1 56:1 57:1 64:1 65:1 72:1 73:1 80:1 81:1 88:1 89:1 90:1 96:1 98:1 103:1 104:1 106:1 107:1 111:1 116:1 117:1 118:1 119:1 
0.0001 0.0001 0.0001 0.0001 0.0001 0.0001 0.0001 0.0001 0.0001 0.0001 0.0001 0.0001 0.0001 0.0001 0.0001 0.0001 0.0001 0.0001 0.0001 0.0001 0 0 0 0 0.0001 2:1 3:1 4:1 5:1 6:1 9:1 10:1 14:1 15:1 17:1 23:1 25:1 31:1 33:1 39:1 41:1 47:1 49:1 55:1 57:1 63:1 65:1 71:1 72:1 73:1 80:1 81:1 88:1 89:1 96:1 97:1 98:1 103:1 104:1 107:1 111:1 116:1 118:1 119:1 125:1 126:1 
0 0.0001 0.0001 0 0.0001 0.0001 0 0 0 0.0001 0 0.0001 0 0 0 0 0 0 0 0 0 0 0 0 0 9:1 10:1 11:1 19:1 20:1 21:1 29:1 30:1 33:1 34:1 35:1 38:1 39:1 41:1 47:1 49:1 55:1 56:1 57:1 64:1 65:1 72:1 73:1 80:1 81:1 82:1 88:1 90:1 96:1 98:1 99:1 104:1 107:1 108:1 109:1 112:1 117:1 118:1 119:1 120:1 
0.0001 0.0001 0.0001 0.0001 0.0001 0.0001 0.0001 0.0001 0.0001 0.0001 0.0001 0.0001 0.0001 0.0001 0.0001 0.0001 0.0001 0.0001 0.0001 0.0001 0 0 0 0.0001 0.0001 33:1 34:1 35:1 36:1 40:1 41:1 48:1 49:1 56:1 57:1 64:1 65:1 72:1 73:1 74:1 80:1 82:1 83:1 87:1 88:1 91:1 92:1 93:1 94:1 95:1 
0.0001 0.0001 0.0001 0.0001 0.0001 0.0001 0.0001 0.0001 0.0001 0.0001 0.0001 0.0001 0.0001 0.0001 0.0001 0.0001 0.0001 0.0001 0.0001 0.0001 0 0 0.0001 0 0.0001 24:1 32:1 40:1 48:1 50:1 51:1 52:1 56:1 58:1 64:1 65:1 66:1 72:1 73:1 80:1 81:1 88:1 89:1 96:1 97:1 103:1 104:1 106:1 107:1 108:1 109:1 110:1 111:1 
0 0 0.0001 0 0.0001 0 0 0 0 0.0001 0 0 0 0 0 0 0 0 0 0 0 0 0 0 0 19:1 20:1 21:1 22:1 26:1 27:1 30:1 31:1 32:1 33:1 34:1 40:1 41:1 48:1 49:1 56:1 57:1 64:1 65:1 72:1 73:1 80:1 81:1 87:1 88:1 89:1 94:1 95:1 97:1 98:1 99:1 100:1 101:1 102:1 107:1 108:1 
0 0.0001 0.0001 0 0.0001 0 0 0.0001 0 0.0001 0 0.0001 0 0 0 0 0 0 0 0 0 0 0 0 0 34:1 35:1 36:1 37:1 38:1 39:1 40:1 41:1 42:1 48:1 49:1 56:1 57:1 64:1 65:1 72:1 73:1 80:1 81:1 86:1 87:1 88:1 89:1 90:1 91:1 92:1 93:1 94:1 
0.0001 0.0001 0.0001 0 0.0001 0.0001 0 0.0001 0 0.0001 0.0001 0.0001 0 0 0 0 0 0 0 0 0 0 0 0 0 27:1 28:1 29:1 30:1 31:1 35:1 39:1 40:1 42:1 43:1 48:1 50:1 51:1 56:1 58:1 64:1 65:1 66:1 72:1 73:1 80:1 81:1 88:1 89:1 90:1 91:1 95:1 96:1 99:1 100:1 101:1 102:1 103:1 
0 0.0001 0.0001 0 0.0001 0 0 0 0 0.0001 0 0 0 0 0 0 0 0 0 0 0 0 0 0 0 27:1 34:1 35:1 36:1 37:1 38:1 39:1 42:1 43:1 47:1 48:1 49:1 50:1 56:1 57:1 64:1 65:1 72:1 73:1 79:1 80:1 81:1 86:1 87:1 89:1 93:1 94:1 97:1 98:1 99:1 100:1 101:1 
0 0.0001 0.0001 0 0.0001 0 0 0 0 0.0001 0 0 0 0 0 0 0 0 0 0 0 0 0 0 0 28:1 29:1 30:1 31:1 34:1 35:1 37:1 39:1 40:1 42:1 48:1 50:1 56:1 57:1 58:1 64:1 65:1 72:1 73:1 80:1 81:1 87:1 88:1 89:1 93:1 94:1 95:1 97:1 98:1 99:1 100:1 101:1 
0 0.0001 0.0001 0 0.0001 0 0 0 0 0.0001 0 0 0 0 0 0 0 0 0 0 0 0 0 0 0 19:1 20:1 21:1 22:1 27:1 28:1 29:1 30:1 31:1 32:1 34:1 35:1 40:1 42:1 48:1 50:1 56:1 57:1 58:1 64:1 65:1 71:1 72:1 73:1 78:1 79:1 81:1 86:1 89:1 93:1 94:1 97:1 100:1 101:1 105:1 106:1 107:1 108:1 
0 0 0.0001 0 0.0001 0 0 0 0 0.0001 0 0 0 0 0 0 0 0 0 0 0 0 0 0 0 27:1 28:1 29:1 30:1 31:1 34:1 35:1 39:1 40:1 41:1 42:1 43:1 48:1 49:1 56:1 57:1 64:1 65:1 72:1 73:1 80:1 81:1 87:1 88:1 89:1 90:1 94:1 95:1 98:1 99:1 100:1 101:1 102:1 
0.0001 0.0001 0.0001 0.0001 0.0001 0.0001 0.0001 0.0001 0.0001 0.0001 0 0.0001 0 0 0.0001 0 0 0 0.0001 0 0 0 0 0 0 1:1 2:1 3:1 11:1 19:1 20:1 28:1 29:1 35:1 36:1 37:1 38:1 42:1 43:1 46:1 47:1 50:1 55:1 56:1 57:1 58:1 64:1 65:1 72:1 73:1 80:1 81:1 88:1 89:1 96:1 97:1 104:1 105:1 106:1 112:1 114:1 120:1 122:1 123:1 124:1 125:1 126:1 127:1 
0 0.0001 0.0001 0 0.0001 0 0 0 0 0.0001 0 0 0 0 0 0 0 0 0 0 0 0 0 0 0 34:1 35:1 36:1 37:1 38:1 41:1 42:1 46:1 47:1 49:1 55:1 56:1 57:1 64:1 65:1 72:1 73:1 80:1 81:1 82:1 87:1 88:1 90:1 91:1 92:1 93:1 94:1 95:1 
0.0001 0.0001 0.0001 0.0001 0.0001 0.0001 0.0001 0.0001 0.0001 0.0001 0.0001 0.0001 0.0001 0.0001 0.0001 0.0001 0.0001 0.0001 0.0001 0.0001 0 0 0.0001 0 0.0001 36:1 37:1 38:1 39:1 40:1 48:1 50:1 51:1 56:1 58:1 64:1 65:1 66:1 71:1 72:1 73:1 78:1 79:1 81:1 85:1 86:1 89:1 90:1 91:1 92:1 93:1 
0.0001 0.0001 0.0001 0 0.0001 0.0001 0 0.0001 0.0001 0.0001 0.0001 0.0001 0 0.0001 0.0001 0 0.0001 0 0.0001 0 0 0 0 0 0.0001 43:1 44:1 45:1 46:1 47:1 49:1 50:1 51:1 52:1 55:1 56:1 57:1 64:1 65:1 72:1 73:1 74:1 78:1 79:1 80:1 82:1 83:1 84:1 85:1 86:1 
0.0001 0.0001 0.0001 0 0.0001 0.0001 0 0.0001 0.0001 0.0001 0.0001 0.0001 0 0.0001 0.0001 0 0.0001 0 0.0001 0 0 0 0 0 0.0001 36:1 37:1 38:1 39:1 40:1 43:1 44:1 48:1 51:1 52:1 56:1 58:1 59:1 64:1 65:1 66:1 71:1 72:1 73:1 78:1 79:1 81:1 83:1 84:1 85:1 86:1 89:1 90:1 91:1 
0.0001 0.0001 0.0001 0 0.0001 0.0001 0.0001 0.0001 0.0001 0.0001 0.0001 0.0001 0 0.0001 0.0001 0 0.0001 0.0001 0.0001 0 0 0 0 0 0.0001 35:1 36:1 37:1 41:1 42:1 45:1 46:1 49:1 54:1 55:1 57:1 63:1 64:1 65:1 72:1 73:1 80:1 81:1 88:1 90:1 91:1 92:1 93:1 94:1 95:1 96:1 
0 0.0001 0.0001 0 0.0001 0 0 0 0 0.0001 0 0 0 0 0 0 0 0 0 0 0 0 0 0 0 28:1 29:1 33:1 34:1 35:1 36:1 37:1 38:1 39:1 40:1 41:1 47:1 48:1 49:1 56:1 57:1 64:1 65:1 72:1 73:1 80:1 81:1 88:1 89:1 90:1 95:1 96:1 98:1 99:1 100:1 101:1 102:1 103:1 
0 0.0001 0.0001 0 0.0001 0 0 0 0 0.0001 0 0 0 0 0 0 0 0 0 0 0 0 0 0 0 13:1 21:1 27:1 28:1 29:1 35:1 36:1 37:1 38:1 39:1 42:1 43:1 47:1 48:1 50:1 56:1 57:1 58:1 64:1 65:1 72:1 73:1 80:1 81:1 87:1 88:1 89:1 94:1 95:1 97:1 101:1 102:1 105:1 106:1 107:1 108:1 109:1 114:1 
0 0.0001 0.0001 0 0.0001 0.0001 0 0.0001 0.0001 0.0001 0.0001 0.0001 0 0 0 0 0.0001 0 0.0001 0.0001 0 0 0 0 0.0001 11:1 12:1 18:1 19:1 20:1 21:1 25:1 26:1 29:1 30:1 33:1 38:1 41:1 46:1 47:1 49:1 55:1 57:1 64:1 65:1 72:1 73:1 80:1 81:1 88:1 89:1 96:1 97:1 98:1 104:1 106:1 111:1 112:1 114:1 115:1 116:1 117:1 118:1 119:1 
0.0001 0.0001 0.0001 0 0.0001 0.0001 0 0.0001 0.0001 0.0001 0 0.0001 0 0.0001 0 0 0.0001 0 0.0001 0 0 0 0 0 0 33:1 34:1 35:1 36:1 37:1 38:1 41:1 46:1 47:1 49:1 55:1 56:1 57:1 64:1 65:1 72:1 73:1 79:1 80:1 81:1 82:1 85:1 86:1 87:1 90:1 91:1 92:1 93:1 
0 0.0001 0.0001 0 0.0001 0.0001 0 0.0001 0.0001 0.0001 0 0.0001 0 0 0 0.0001 0.0001 0 0.0001 0 0 0 0 0 0 20:1 21:1 22:1 23:1 28:1 31:1 32:1 34:1 35:1 36:1 40:1 41:1 42:1 48:1 49:1 56:1 57:1 63:1 64:1 65:1 71:1 73:1 78:1 79:1 81:1 86:1 89:1 90:1 93:1 94:1 98:1 99:1 100:1 101:1 107:1 108:1 
0.0001 0.0001 0.0001 0.0001 0.0001 0.0001 0.0001 0.0001 0.0001 0.0001 0.0001 0.0001 0.0001 0.0001 0.0001 0.0001 0.0001 0.0001 0.0001 0.0001 0 0.0001 0.0001 0.0001 0.0001 15:1 23:1 31:1 39:1 40:1 44:1 45:1 46:1 48:1 52:1 56:1 60:1 64:1 67:1 68:1 72:1 74:1 75:1 79:1 80:1 81:1 82:1 87:1 89:1 94:1 95:1 97:1 101:1 102:1 105:1 106:1 108:1 109:1 114:1 115:1 116:1 
0 0 0.0001 0 0.0001 0 0 0 0 0.0001 0 0 0 0 0 0 0 0 0 0 0 0 0 0 0 2:1 3:1 4:1 5:1 6:1 12:1 13:1 14:1 20:1 22:1 23:1 27:1 28:1 31:1 35:1 39:1 40:1 42:1 43:1 48:1 50:1 56:1 57:1 58:1 64:1 65:1 72:1 73:1 80:1 81:1 87:1 88:1 89:1 95:1 97:1 103:1 105:1 110:1 111:1 113:1 117:1 118:1 121:1 122:1 123:1 124:1 125:1 
0 0.0001 0.0001 0 0.0001 0 0 0 0 0.0001 0 0 0 0 0 0 0 0 0 0 0 0 0 0 0 27:1 28:1 29:1 30:1 31:1 32:1 35:1 36:1 40:1 42:1 43:1 48:1 49:1 50:1 56:1 57:1 64:1 65:1 72:1 73:1 80:1 81:1 88:1 89:1 90:1 95:1 96:1 98:1 99:1 100:1 101:1 102:1 103:1 
0.0001 0.0001 0.0001 0 0.0001 0.0001 0 0.0001 0.0001 0.0001 0 0.0001 0 0.0001 0 0 0.0001 0 0.0001 0 0 0 0 0 0 4:1 5:1 13:1 21:1 22:1 30:1 34:1 38:1 39:1 41:1 42:1 47:1 48:1 49:1 56:1 57:1 64:1 65:1 72:1 73:1 80:1 81:1 88:1 89:1 96:1 97:1 104:1 106:1 112:1 114:1 115:1 116:1 119:1 120:1 124:1 125:1 126:1 127:1 
0 0.0001 0.0001 0 0.0001 0 0 0 0 0.0001 0 0 0 0 0 0 0 0 0 0 0 0 0 0 0 18:1 19:1 20:1 21:1 22:1 26:1 27:1 30:1 31:1 34:1 39:1 40:1 41:1 42:1 48:1 49:1 56:1 57:1 64:1 65:1 72:1 73:1 80:1 81:1 88:1 89:1 95:1 97:1 101:1 102:1 103:1 105:1 106:1 107:1 108:1 109:1 
0 0.0001 0.0001 0 0.0001 0.0001 0 0.0001 0 0.0001 0 0.0001 0 0 0 0 0 0 0 0 0 0 0 0 0 36:1 37:1 38:1 39:1 40:1 43:1 44:1 48:1 50:1 51:1 56:1 58:1 64:1 65:1 66:1 72:1 73:1 79:1 80:1 81:1 85:1 86:1 87:1 89:1 90:1 91:1 92:1 93:1 98:1 99:1 
0 0.0001 0.0001 0 0.0001 0 0 0 0 0.0001 0 0 0 0 0 0 0 0 0 0 0 0 0 0 0 27:1 29:1 30:1 31:1 32:1 35:1 36:1 37:1 40:1 42:1 43:1 48:1 49:1 50:1 51:1 56:1 57:1 64:1 65:1 71:1 72:1 73:1 79:1 81:1 85:1 86:1 87:1 89:1 92:1 93:1 97:1 98:1 99:1 
0.0001 0.0001 0.0001 0 0.0001 0.0001 0 0.0001 0 0.0001 0 0.0001 0 0 0 0 0 0 0 0 0 0 0 0 0 31:1 36:1 37:1 38:1 39:1 40:1 43:1 44:1 48:1 50:1 51:1 56:1 58:1 64:1 65:1 66:1 72:1 73:1 79:1 80:1 81:1 86:1 87:1 89:1 93:1 94:1 97:1 98:1 99:1 100:1 101:1 
0.0001 0.0001 0.0001 0.0001 0.0001 0.0001 0.0001 0.0001 0.0001 0.0001 0.0001 0.0001 0.0001 0.0001 0.0001 0.0001 0.0001 0.0001 0.0001 0.0001 0.0001 0.0001 0.0001 0.0001 0.0001 49:1 50:1 51:1 57:1 58:1 59:1 60:1 61:1 65:1 67:1 69:1 70:1 71:1 72:1 73:1 74:1 75:1 
0 0.0001 0.0001 0 0.0001 0 0 0 0 0.0001 0 0 0 0 0 0 0 0 0 0 0 0 0 0 0 15:1 22:1 23:1 24:1 30:1 32:1 35:1 36:1 37:1 38:1 40:1 42:1 43:1 44:1 45:1 46:1 48:1 49:1 50:1 56:1 57:1 64:1 65:1 72:1 73:1 80:1 81:1 87:1 88:1 89:1 95:1 97:1 102:1 103:1 105:1 109:1 110:1 113:1 114:1 115:1 116:1 117:1 
0 0.0001 0.0001 0 0.0001 0.0001 0 0 0 0.0001 0 0 0 0 0 0 0 0 0 0 0 0 0 0 0 5:1 6:1 12:1 13:1 19:1 20:1 21:1 22:1 27:1 30:1 31:1 34:1 35:1 39:1 40:1 42:1 48:1 49:1 50:1 56:1 57:1 64:1 65:1 72:1 73:1 80:1 81:1 88:1 89:1 96:1 97:1 104:1 105:1 112:1 113:1 119:1 120:1 121:1 122:1 123:1 124:1 125:1 126:1 127:1 
0.0001 0.0001 0.0001 0.0001 0.0001 0.0001 0.0001 0.0001 0.0001 0.0001 0.0001 0.0001 0.0001 0.0001 0.0001 0.0001 0.0001 0.0001 0.0001 0.0001 0 0.0001 0.0001 0 0.0001 33:1 34:1 35:1 36:1 37:1 45:1 46:1 47:1 51:1 55:1 56:1 59:1 64:1 67:1 72:1 75:1 80:1 83:1 84:1 86:1 87:1 88:1 92:1 93:1 94:1 
0 0.0001 0.0001 0 0.0001 0 0 0 0 0.0001 0 0 0 0 0 0 0 0 0 0 0 0 0 0 0 3:1 4:1 5:1 13:1 14:1 15:1 20:1 21:1 23:1 27:1 28:1 32:1 34:1 35:1 40:1 42:1 48:1 50:1 56:1 57:1 58:1 64:1 65:1 72:1 73:1 79:1 80:1 81:1 87:1 89:1 94:1 95:1 97:1 102:1 105:1 109:1 110:1 113:1 116:1 117:1 121:1 122:1 123:1 124:1 
0.0001 0.0001 0.0001 0.0001 0.0001 0.0001 0.0001 0.0001 0.0001 0.0001 0.0001 0.0001 0.0001 0.0001 0.0001 0.0001 0.0001 0.0001 0.0001 0.0001 0 0 0.0001 0 0.0001 43:1 44:1 45:1 46:1 47:1 48:1 50:1 51:1 54:1 56:1 57:1 64:1 65:1 70:1 71:1 72:1 73:1 74:1 76:1 77:1 78:1 82:1 83:1 84:1 
0.0001 0.0001 0.0001 0.0001 0.0001 0.0001 0.0001 0.0001 0.0001 0.0001 0.0001 0.0001 0.0001 0.0001 0.0001 0.0001 0.0001 0.0001 0.0001 0.0001 0 0.0001 0.0001 0 0.0001 4:1 5:1 6:1 7:1 8:1 11:1 12:1 19:1 24:1 27:1 32:1 34:1 35:1 39:1 40:1 42:1 47:1 50:1 55:1 58:1 62:1 66:1 70:1 74:1 77:1 78:1 82:1 85:1 89:1 90:1 92:1 93:1 97:1 100:1 105:1 107:1 108:1 113:1 115:1 121:1 122:1 123:1 
0 0.0001 0.0001 0.0001 0.0001 0.0001 0 0.0001 0 0.0001 0 0.0001 0 0 0 0 0 0 0.0001 0 0 0 0 0 0 3:1 4:1 5:1 6:1 7:1 12:1 13:1 15:1 20:1 23:1 24:1 27:1 28:1 32:1 35:1 40:1 43:1 48:1 51:1 56:1 58:1 59:1 64:1 66:1 72:1 74:1 79:1 80:1 81:1 82:1 87:1 89:1 95:1 97:1 102:1 103:1 105:1 109:1 110:1 113:1 114:1 116:1 117:1 122:1 123:1 124:1 
0 0.0001 0.0001 0 0.0001 0 0 0 0 0.0001 0 0 0 0 0 0 0 0 0 0 0 0 0 0 0 4:1 5:1 6:1 11:1 12:1 13:1 14:1 15:1 18:1 19:1 22:1 23:1 26:1 31:1 32:1 34:1 40:1 41:1 42:1 48:1 49:1 56:1 57:1 64:1 65:1 72:1 73:1 80:1 81:1 88:1 89:1 95:1 96:1 97:1 103:1 105:1 106:1 110:1 111:1 114:1 117:1 118:1 122:1 123:1 124:1 125:1 
0 0.0001 0.0001 0 0.0001 0 0 0 0 0.0001 0 0 0 0 0 0 0 0 0 0 0 0 0 0 0 27:1 28:1 29:1 30:1 31:1 34:1 35:1 39:1 40:1 41:1 42:1 48:1 49:1 56:1 57:1 64:1 65:1 72:1 73:1 79:1 80:1 81:1 86:1 87:1 89:1 93:1 94:1 97:1 98:1 99:1 100:1 101:1 
0 0.0001 0.0001 0 0.0001 0 0 0 0 0.0001 0 0 0 0 0 0 0 0 0 0 0 0 0 0 0 20:1 26:1 27:1 28:1 29:1 30:1 31:1 33:1 34:1 36:1 37:1 39:1 40:1 41:1 43:1 44:1 48:1 50:1 51:1 56:1 58:1 64:1 66:1 72:1 73:1 74:1 79:1 80:1 81:1 86:1 87:1 89:1 94:1 97:1 98:1 100:1 101:1 102:1 106:1 107:1 108:1 
0 0 0.0001 0 0.0001 0 0 0 0 0.0001 0 0 0 0 0 0 0 0 0 0 0 0 0 0 0 21:1 27:1 28:1 29:1 30:1 31:1 34:1 35:1 36:1 39:1 40:1 42:1 48:1 49:1 50:1 56:1 57:1 64:1 65:1 72:1 73:1 79:1 80:1 81:1 86:1 87:1 89:1 93:1 94:1 97:1 100:1 101:1 105:1 106:1 107:1 108:1 
0 0.0001 0.0001 0 0.0001 0 0 0 0 0.0001 0 0 0 0 0 0 0 0 0 0 0 0 0 0 0 34:1 35:1 36:1 37:1 38:1 39:1 40:1 42:1 43:1 48:1 49:1 50:1 56:1 57:1 64:1 65:1 72:1 73:1 80:1 81:1 87:1 88:1 89:1 90:1 91:1 92:1 93:1 94:1 95:1 
0 0.0001 0.0001 0 0.0001 0.0001 0 0 0 0.0001 0 0.0001 0 0 0 0 0 0 0 0 0 0 0 0 0 35:1 36:1 37:1 41:1 42:1 43:1 45:1 46:1 47:1 48:1 49:1 56:1 57:1 64:1 65:1 72:1 73:1 80:1 81:1 86:1 87:1 88:1 89:1 90:1 91:1 92:1 93:1 94:1 
0 0.0001 0.0001 0 0.0001 0.0001 0 0.0001 0.0001 0.0001 0 0.0001 0 0 0 0.0001 0.0001 0 0.0001 0 0 0 0 0 0 5:1 6:1 7:1 8:1 11:1 12:1 13:1 16:1 18:1 19:1 24:1 25:1 32:1 33:1 40:1 42:1 48:1 50:1 56:1 57:1 58:1 64:1 65:1 72:1 73:1 79:1 80:1 81:1 86:1 87:1 89:1 93:1 94:1 97:1 100:1 101:1 105:1 107:1 108:1 113:1 114:1 121:1 
0.0001 0.0001 0.0001 0.0001 0.0001 0.0001 0.0001 0.0001 0.0001 0.0001 0.0001 0.0001 0.0001 0.0001 0.0001 0.0001 0.0001 0.0001 0.0001 0.0001 0 0 0.0001 0 0.0001 8:1 15:1 22:1 29:1 36:1 37:1 38:1 39:1 40:1 43:1 44:1 48:1 51:1 56:1 59:1 64:1 66:1 72:1 74:1 80:1 81:1 88:1 89:1 96:1 97:1 103:1 104:1 105:1 110:1 111:1 113:1 117:1 118:1 121:1 122:1 123:1 124:1 125:1 
0.0001 0.0001 0.0001 0.0001 0.0001 0.0001 0.0001 0.0001 0.0001 0.0001 0.0001 0.0001 0.0001 0.0001 0.0001 0.0001 0.0001 0.0001 0.0001 0.0001 0.0001 0.0001 0.0001 0 0.0001 35:1 43:1 51:1 59:1 65:1 66:1 67:1 68:1 69:1 70:1 71:1 72:1 73:1 80:1 81:1 87:1 88:1 89:1 90:1 91:1 92:1 93:1 94:1 95:1 
0.0001 0.0001 0.0001 0.0001 0.0001 0.0001 0.0001 0.0001 0.0001 0.0001 0.0001 0.0001 0.0001 0.0001 0.0001 0.0001 0.0001 0.0001 0.0001 0.0001 0.0001 0.0001 0.0001 0 0.0001 51:1 52:1 56:1 58:1 59:1 64:1 66:1 71:1 72:1 73:1 74:1 75:1 76:1 77:1 78:1 79:1 
0.0001 0.0001 0.0001 0.0001 0.0001 0.0001 0 0.0001 0.0001 0.0001 0 0.0001 0 0.0001 0 0 0.0001 0 0.0001 0 0 0 0 0 0 26:1 29:1 30:1 31:1 32:1 33:1 34:1 40:1 41:1 48:1 49:1 56:1 57:1 64:1 65:1 72:1 73:1 79:1 80:1 81:1 86:1 87:1 89:1 93:1 94:1 97:1 98:1 99:1 100:1 101:1 
0 0.0001 0.0001 0 0.0001 0 0 0 0 0.0001 0 0 0 0 0 0 0 0 0 0 0 0 0 0 0 26:1 27:1 28:1 29:1 30:1 34:1 35:1 38:1 39:1 41:1 42:1 47:1 48:1 49:1 56:1 57:1 64:1 65:1 72:1 73:1 80:1 81:1 88:1 89:1 90:1 95:1 96:1 98:1 99:1 100:1 101:1 102:1 103:1 
0 0.0001 0.0001 0 0.0001 0 0 0 0 0.0001 0 0 0 0 0 0 0.0001 0 0 0 0 0 0 0 0 27:1 28:1 29:1 30:1 33:1 34:1 35:1 38:1 39:1 40:1 41:1 48:1 49:1 56:1 57:1 64:1 65:1 72:1 73:1 80:1 81:1 87:1 88:1 89:1 94:1 95:1 97:1 98:1 99:1 100:1 101:1 102:1 
0 0 0.0001 0 0.0001 0 0 0 0 0.0001 0 0 0 0 0 0 0 0 0 0 0 0 0 0 0 18:1 19:1 20:1 21:1 22:1 25:1 26:1 30:1 31:1 33:1 39:1 40:1 41:1 42:1 48:1 49:1 50:1 56:1 57:1 64:1 65:1 72:1 73:1 80:1 81:1 87:1 88:1 89:1 95:1 97:1 101:1 102:1 103:1 105:1 106:1 107:1 108:1 109:1 
0 0.0001 0.0001 0 0.0001 0 0 0 0 0.0001 0 0 0 0 0 0 0 0 0 0 0 0 0 0 0 23:1 24:1 29:1 30:1 31:1 32:1 36:1 37:1 39:1 40:1 42:1 43:1 44:1 48:1 49:1 50:1 56:1 57:1 64:1 65:1 72:1 73:1 80:1 81:1 87:1 88:1 89:1 95:1 97:1 98:1 101:1 102:1 103:1 106:1 107:1 108:1 109:1 
0 0.0001 0.0001 0 0.0001 0 0 0 0 0.0001 0 0 0 0 0 0 0 0 0 0 0 0 0 0 0 13:1 14:1 20:1 21:1 28:1 29:1 35:1 36:1 37:1 38:1 42:1 43:1 46:1 47:1 48:1 49:1 50:1 56:1 57:1 64:1 65:1 72:1 73:1 80:1 81:1 88:1 89:1 94:1 95:1 96:1 97:1 102:1 105:1 109:1 110:1 113:1 114:1 115:1 116:1 117:1 
0 0.0001 0.0001 0 0.0001 0.0001 0 0 0 0.0001 0 0.0001 0 0 0 0 0.0001 0 0 0 0 0 0 0 0 29:1 30:1 31:1 39:1 40:1 43:1 44:1 45:1 46:1 47:1 48:1 50:1 51:1 56:1 57:1 58:1 64:1 65:1 71:1 72:1 73:1 79:1 81:1 86:1 87:1 89:1 92:1 93:1 94:1 97:1 98:1 99:1 100:1 
0.0001 0.0001 0.0001 0 0.0001 0.0001 0 0.0001 0.0001 0.0001 0.0001 0.0001 0 0.0001 0.0001 0 0.0001 0 0.0001 0 0 0 0 0 0 28:1 29:1 30:1 31:1 35:1 37:1 39:1 40:1 42:1 48:1 49:1 56:1 57:1 64:1 65:1 72:1 73:1 80:1 81:1 87:1 88:1 90:1 94:1 95:1 99:1 100:1 101:1 102:1 
0.0001 0.0001 0.0001 0 0.0001 0.0001 0 0.0001 0.0001 0.0001 0.0001 0.0001 0 0.0001 0 0 0.0001 0 0.0001 0 0 0 0 0 0 19:1 20:1 22:1 23:1 24:1 27:1 32:1 34:1 35:1 40:1 42:1 48:1 49:1 50:1 56:1 57:1 64:1 65:1 72:1 73:1 79:1 81:1 87:1 89:1 92:1 93:1 94:1 95:1 97:1 100:1 106:1 107:1 108:1 
0 0.0001 0.0001 0 0.0001 0.0001 0 0 0 0.0001 0 0 0 0 0 0 0 0 0 0 0 0 0 0 0 5:1 6:1 7:1 12:1 13:1 15:1 20:1 21:1 22:1 23:1 24:1 28:1 32:1 34:1 35:1 36:1 40:1 42:1 48:1 50:1 56:1 57:1 58:1 64:1 65:1 72:1 73:1 80:1 81:1 88:1 89:1 95:1 96:1 97:1 103:1 105:1 110:1 111:1 113:1 114:1 117:1 118:1 122:1 123:1 124:1 125:1 
0 0.0001 0.0001 0 0.0001 0.0001 0 0.0001 0.0001 0.0001 0 0.0001 0 0.0001 0 0 0.0001 0 0.0001 0 0 0 0 0 0 21:1 22:1 23:1 24:1 28:1 29:1 32:1 35:1 36:1 40:1 43:1 48:1 56:1 58:1 64:1 65:1 71:1 72:1 73:1 78:1 79:1 81:1 85:1 86:1 89:1 92:1 93:1 97:1 98:1 99:1 100:1 106:1 107:1 
0 0.0001 0.0001 0 0.0001 0.0001 0 0.0001 0.0001 0.0001 0 0.0001 0 0.0001 0 0 0.0001 0 0 0 0 0 0 0 0 29:1 30:1 31:1 36:1 37:1 39:1 40:1 43:1 44:1 48:1 50:1 56:1 57:1 58:1 64:1 65:1 71:1 72:1 73:1 78:1 79:1 81:1 85:1 86:1 89:1 90:1 91:1 93:1 99:1 100:1 
0 0.0001 0.0001 0 0.0001 0.0001 0 0.0001 0.0001 0.0001 0 0.0001 0 0 0 0 0.0001 0 0 0 0 0 0 0 0 27:1 28:1 29:1 30:1 31:1 32:1 35:1 40:1 42:1 43:1 48:1 49:1 50:1 56:1 57:1 64:1 65:1 71:1 72:1 73:1 79:1 81:1 86:1 87:1 89:1 93:1 94:1 97:1 98:1 99:1 100:1 101:1 
0.0001 0.0001 0.0001 0.0001 0.0001 0.0001 0.0001 0.0001 0.0001 0.0001 0.0001 0.0001 0.0001 0.0001 0.0001 0.0001 0.0001 0 0.0001 0.0001 0 0 0 0 0.0001 4:1 5:1 11:1 12:1 13:1 14:1 15:1 16:1 18:1 19:1 20:1 24:1 26:1 32:1 34:1 40:1 41:1 48:1 49:1 55:1 56:1 57:1 63:1 65:1 71:1 73:1 79:1 81:1 86:1 87:1 89:1 94:1 97:1 101:1 102:1 105:1 109:1 113:1 116:1 117:1 121:1 122:1 123:1 124:1 
0 0.0001 0.0001 0 0.0001 0.0001 0 0.0001 0.0001 0.0001 0 0.0001 0 0 0 0 0.0001 0 0 0 0 0 0 0 0 18:1 19:1 27:1 28:1 33:1 34:1 36:1 37:1 38:1 41:1 46:1 47:1 49:1 55:1 57:1 63:1 64:1 65:1 72:1 73:1 80:1 81:1 88:1 89:1 96:1 97:1 98:1 103:1 104:1 106:1 107:1 108:1 109:1 110:1 111:1 
0 0.0001 0.0001 0 0.0001 0.0001 0 0.0001 0.0001 0.0001 0 0.0001 0 0 0 0 0.0001 0 0 0 0 0 0 0 0 35:1 36:1 37:1 38:1 39:1 40:1 44:1 48:1 49:1 50:1 51:1 52:1 56:1 57:1 64:1 65:1 72:1 73:1 80:1 81:1 82:1 86:1 87:1 88:1 90:1 91:1 92:1 93:1 94:1 
0 0.0001 0.0001 0 0.0001 0 0 0 0 0.0001 0 0 0 0 0 0 0 0 0 0 0 0 0 0 0 20:1 21:1 22:1 23:1 24:1 26:1 27:1 28:1 32:1 33:1 34:1 35:1 40:1 41:1 42:1 48:1 49:1 56:1 57:1 64:1 65:1 72:1 73:1 79:1 80:1 81:1 86:1 87:1 89:1 93:1 94:1 97:1 98:1 100:1 101:1 106:1 107:1 108:1 
0.0001 0.0001 0.0001 0 0.0001 0.0001 0 0.0001 0.0001 0.0001 0.0001 0.0001 0 0.0001 0.0001 0 0.0001 0 0.0001 0 0 0 0 0 0.0001 36:1 37:1 38:1 42:1 43:1 44:1 46:1 47:1 49:1 50:1 55:1 57:1 64:1 65:1 72:1 73:1 79:1 80:1 81:1 82:1 87:1 90:1 91:1 92:1 93:1 94:1 95:1 
0 0.0001 0.0001 0 0.0001 0 0 0 0 0.0001 0 0 0 0 0 0 0 0 0 0 0 0 0 0 0 27:1 28:1 29:1 30:1 31:1 34:1 35:1 39:1 40:1 41:1 42:1 48:1 49:1 56:1 57:1 64:1 65:1 72:1 73:1 80:1 81:1 87:1 88:1 89:1 92:1 93:1 94:1 95:1 97:1 98:1 99:1 100:1 
0 0.0001 0.0001 0 0.0001 0 0 0 0.0001 0.0001 0 0 0 0 0 0 0 0 0 0 0 0 0 0 0 26:1 27:1 34:1 35:1 36:1 37:1 38:1 41:1 42:1 46:1 47:1 49:1 55:1 56:1 57:1 64:1 65:1 72:1 73:1 80:1 81:1 87:1 88:1 89:1 94:1 95:1 97:1 98:1 99:1 100:1 101:1 102:1 
0 0.0001 0.0001 0 0.0001 0.0001 0 0.0001 0 0.0001 0.0001 0.0001 0 0 0.0001 0 0.0001 0.0001 0.0001 0 0 0 0 0 0 17:1 18:1 19:1 20:1 21:1 25:1 26:1 29:1 34:1 35:1 37:1 38:1 42:1 46:1 49:1 54:1 55:1 57:1 63:1 64:1 65:1 72:1 73:1 80:1 81:1 82:1 88:1 90:1 96:1 98:1 104:1 106:1 107:1 108:1 109:1 110:1 111:1 112:1 
0 0.0001 0.0001 0 0.0001 0.0001 0 0.0001 0.0001 0.0001 0 0.0001 0 0 0 0 0.0001 0 0.0001 0 0 0 0 0 0 20:1 21:1 22:1 23:1 24:1 28:1 29:1 32:1 36:1 37:1 40:1 43:1 44:1 48:1 51:1 56:1 58:1 59:1 63:1 64:1 66:1 71:1 73:1 74:1 78:1 81:1 85:1 86:1 89:1 92:1 93:1 97:1 98:1 99:1 100:1 105:1 106:1 
0 0 0.0001 0 0.0001 0 0 0 0 0.0001 0 0 0 0 0 0 0 0 0 0 0 0 0 0 0 13:1 14:1 20:1 21:1 22:1 27:1 28:1 30:1 31:1 32:1 35:1 36:1 40:1 42:1 43:1 48:1 50:1 56:1 57:1 64:1 65:1 72:1 73:1 80:1 81:1 87:1 88:1 89:1 94:1 95:1 97:1 101:1 102:1 105:1 107:1 108:1 109:1 113:1 114:1 115:1 
0.0001 0.0001 0.0001 0.0001 0.0001 0.0001 0.0001 0.0001 0.0001 0.0001 0.0001 0.0001 0.0001 0.0001 0.0001 0.0001 0.0001 0.0001 0.0001 0.0001 0 0 0.0001 0 0.0001 43:1 44:1 45:1 46:1 47:1 48:1 50:1 51:1 56:1 57:1 58:1 64:1 65:1 71:1 72:1 73:1 74:1 78:1 79:1 82:1 83:1 84:1 85:1 86:1 
0 0.0001 0.0001 0 0.0001 0.0001 0 0 0 0.0001 0 0.0001 0 0 0 0 0 0 0 0 0 0 0 0 0 28:1 29:1 34:1 35:1 36:1 37:1 41:1 42:1 44:1 45:1 46:1 49:1 54:1 55:1 56:1 57:1 64:1 65:1 72:1 73:1 80:1 81:1 88:1 89:1 90:1 96:1 98:1 99:1 100:1 101:1 102:1 103:1 104:1 
0.0001 0.0001 0.0001 0 0.0001 0.0001 0.0001 0.0001 0.0001 0.0001 0.0001 0.0001 0 0.0001 0.0001 0 0.0001 0 0.0001 0 0 0 0 0 0.0001 43:1 44:1 45:1 46:1 47:1 48:1 50:1 51:1 54:1 56:1 57:1 58:1 64:1 65:1 72:1 73:1 77:1 78:1 79:1 80:1 81:1 82:1 83:1 84:1 85:1 
0 0.0001 0.0001 0 0.0001 0.0001 0 0 0 0.0001 0 0.0001 0 0 0 0 0 0 0 0 0 0 0 0 0 33:1 34:1 35:1 36:1 37:1 38:1 39:1 47:1 48:1 49:1 50:1 51:1 56:1 57:1 64:1 65:1 72:1 73:1 80:1 81:1 82:1 87:1 88:1 90:1 91:1 92:1 93:1 94:1 95:1 
0 0.0001 0.0001 0 0.0001 0.0001 0 0.0001 0.0001 0.0001 0 0.0001 0 0 0 0 0.0001 0 0 0 0 0 0 0 0 20:1 26:1 27:1 28:1 29:1 33:1 34:1 35:1 37:1 38:1 41:1 46:1 49:1 54:1 55:1 57:1 63:1 64:1 65:1 72:1 73:1 80:1 81:1 82:1 88:1 90:1 96:1 98:1 99:1 100:1 102:1 103:1 104:1 108:1 109:1 110:1 
0 0.0001 0.0001 0 0.0001 0 0 0 0 0.0001 0 0 0 0 0 0 0.0001 0 0 0 0 0 0 0 0 18:1 19:1 25:1 26:1 33:1 36:1 37:1 38:1 39:1 41:1 42:1 43:1 47:1 48:1 49:1 56:1 57:1 64:1 65:1 72:1 73:1 80:1 81:1 87:1 88:1 89:1 95:1 97:1 98:1 99:1 102:1 103:1 107:1 108:1 109:1 110:1 
0.0001 0.0001 0.0001 0 0.0001 0.0001 0 0.0001 0 0.0001 0 0.0001 0 0 0 0 0.0001 0 0.0001 0 0 0 0 0 0 22:1 23:1 24:1 29:1 30:1 32:1 35:1 36:1 37:1 40:1 43:1 44:1 45:1 46:1 48:1 50:1 51:1 52:1 54:1 56:1 57:1 58:1 63:1 64:1 65:1 70:1 71:1 73:1 77:1 78:1 81:1 85:1 89:1 92:1 93:1 97:1 98:1 99:1 100:1 105:1 106:1 
0 0.0001 0.0001 0 0.0001 0.0001 0 0.0001 0 0.0001 0 0.0001 0 0 0 0 0.0001 0 0 0 0 0 0 0 0 34:1 35:1 36:1 37:1 38:1 39:1 41:1 47:1 48:1 49:1 56:1 57:1 64:1 65:1 72:1 73:1 80:1 81:1 87:1 88:1 89:1 90:1 91:1 92:1 93:1 94:1 95:1 
0.0001 0.0001 0.0001 0 0.0001 0.0001 0 0.0001 0.0001 0.0001 0 0.0001 0 0 0 0 0.0001 0 0 0 0 0 0 0 0 20:1 21:1 27:1 28:1 29:1 34:1 35:1 39:1 40:1 41:1 42:1 48:1 49:1 56:1 57:1 64:1 65:1 72:1 73:1 80:1 81:1 87:1 88:1 89:1 95:1 97:1 102:1 105:1 106:1 107:1 108:1 109:1 
0 0.0001 0.0001 0 0.0001 0.0001 0 0.0001 0 0.0001 0 0.0001 0 0 0 0 0.0001 0 0 0 0 0 0 0 0 33:1 34:1 35:1 36:1 37:1 38:1 41:1 42:1 46:1 47:1 49:1 55:1 56:1 57:1 64:1 65:1 72:1 73:1 74:1 80:1 82:1 88:1 90:1 91:1 92:1 93:1 94:1 95:1 96:1 
0.0001 0.0001 0.0001 0 0.0001 0.0001 0 0.0001 0.0001 0.0001 0.0001 0.0001 0 0.0001 0 0 0.0001 0 0.0001 0 0 0 0 0 0 20:1 21:1 22:1 23:1 24:1 25:1 26:1 27:1 32:1 33:1 34:1 40:1 41:1 48:1 49:1 56:1 57:1 64:1 65:1 72:1 73:1 80:1 81:1 88:1 89:1 96:1 97:1 98:1 102:1 103:1 107:1 108:1 109:1 
0.0001 0.0001 0.0001 0.0001 0.0001 0.0001 0.0001 0.0001 0.0001 0.0001 0.0001 0.0001 0.0001 0.0001 0.0001 0.0001 0.0001 0.0001 0.0001 0.0001 0 0 0.0001 0 0.0001 42:1 43:1 44:1 45:1 46:1 47:1 48:1 49:1 56:1 57:1 64:1 65:1 72:1 73:1 79:1 80:1 81:1 82:1 83:1 84:1 85:1 86:1 87:1 
0 0.0001 0.0001 0 0.0001 0 0 0 0 0.0001 0 0 0 0 0 0 0 0 0 0 0 0 0 0 0 28:1 29:1 30:1 31:1 35:1 36:1 37:1 39:1 40:1 43:1 48:1 50:1 51:1 56:1 57:1 58:1 64:1 65:1 72:1 73:1 79:1 80:1 81:1 87:1 89:1 93:1 94:1 95:1 97:1 98:1 99:1 100:1 101:1 
0.0001 0.0001 0.0001 0.0001 0.0001 0.0001 0 0.0001 0.0001 0.0001 0.0001 0.0001 0 0.0001 0 0 0.0001 0 0.0001 0 0 0 0 0 0 24:1 30:1 31:1 32:1 36:1 37:1 38:1 40:1 44:1 48:1 51:1 52:1 56:1 58:1 59:1 64:1 65:1 66:1 72:1 73:1 79:1 81:1 86:1 87:1 89:1 93:1 94:1 97:1 100:1 101:1 105:1 106:1 107:1 108:1 
0.0001 0.0001 0.0001 0.0001 0.0001 0.0001 0.0001 0.0001 0.0001 0.0001 0.0001 0.0001 0.0001 0.0001 0.0001 0.0001 0.0001 0.0001 0.0001 0.0001 0 0 0.0001 0.0001 0.0001 45:1 46:1 47:1 48:1 51:1 52:1 53:1 56:1 58:1 59:1 60:1 63:1 64:1 65:1 66:1 70:1 71:1 73:1 76:1 77:1 78:1 81:1 82:1 83:1 84:1 
0 0.0001 0.0001 0 0.0001 0 0 0 0 0.0001 0 0 0 0 0 0 0 0 0 0 0 0 0 0 0 34:1 35:1 36:1 37:1 38:1 39:1 40:1 41:1 42:1 48:1 49:1 50:1 56:1 57:1 64:1 65:1 72:1 73:1 79:1 80:1 81:1 85:1 86:1 87:1 89:1 90:1 91:1 92:1 93:1 
0 0.0001 0.0001 0 0.0001 0 0 0 0 0.0001 0 0 0 0 0 0 0 0 0 0 0 0 0 0 0 30:1 31:1 34:1 35:1 36:1 37:1 39:1 40:1 41:1 42:1 48:1 49:1 56:1 57:1 64:1 65:1 72:1 73:1 79:1 80:1 81:1 86:1 87:1 89:1 90:1 91:1 92:1 93:1 94:1 98:1 99:1 
0 0.0001 0.0001 0 0.0001 0.0001 0 0.0001 0.0001 0.0001 0 0.0001 0 0 0 0 0.0001 0 0 0 0 0 0 0 0 17:1 18:1 19:1 20:1 21:1 22:1 25:1 30:1 31:1 33:1 34:1 39:1 41:1 47:1 48:1 49:1 56:1 57:1 64:1 65:1 72:1 73:1 80:1 81:1 82:1 87:1 90:1 95:1 98:1 99:1 102:1 103:1 107:1 108:1 109:1 110:1 
0.0001 0.0001 0.0001 0.0001 0.0001 0.0001 0.0001 0.0001 0.0001 0.0001 0.0001 0.0001 0.0001 0.0001 0.0001 0.0001 0.0001 0.0001 0.0001 0 0 0 0.0001 0 0.0001 12:1 13:1 14:1 15:1 19:1 20:1 23:1 24:1 26:1 27:1 32:1 33:1 34:1 40:1 41:1 48:1 49:1 56:1 57:1 64:1 65:1 66:1 72:1 80:1 88:1 95:1 96:1 99:1 103:1 107:1 108:1 111:1 116:1 117:1 118:1 
0.0001 0.0001 0.0001 0.0001 0.0001 0.0001 0.0001 0.0001 0.0001 0.0001 0.0001 0.0001 0.0001 0.0001 0.0001 0.0001 0.0001 0.0001 0.0001 0.0001 0.0001 0 0.0001 0 0.0001 31:1 39:1 47:1 48:1 56:1 64:1 67:1 68:1 72:1 75:1 80:1 82:1 83:1 88:1 89:1 90:1 95:1 96:1 97:1 98:1 99:1 100:1 101:1 102:1 103:1 
0.0001 0.0001 0.0001 0.0001 0.0001 0.0001 0.0001 0.0001 0.0001 0.0001 0.0001 0.0001 0.0001 0.0001 0.0001 0.0001 0.0001 0.0001 0.0001 0.0001 0 0 0.0001 0 0.0001 43:1 44:1 45:1 46:1 49:1 50:1 51:1 54:1 55:1 57:1 63:1 64:1 65:1 72:1 73:1 80:1 81:1 82:1 83:1 84:1 85:1 86:1 87:1 88:1 
0.0001 0.0001 0.0001 0.0001 0.0001 0.0001 0.0001 0.0001 0.0001 0.0001 0.0001 0.0001 0.0001 0.0001 0.0001 0.0001 0.0001 0.0001 0.0001 0.0001 0 0.0001 0.0001 0 0.0001 17:1 18:1 19:1 25:1 26:1 27:1 34:1 35:1 36:1 37:1 42:1 45:1 46:1 50:1 54:1 55:1 58:1 63:1 66:1 67:1 71:1 72:1 75:1 80:1 83:1 88:1 91:1 92:1 96:1 100:1 104:1 108:1 109:1 111:1 112:1 117:1 118:1 119:1 
0.0001 0.0001 0.0001 0.0001 0.0001 0.0001 0.0001 0.0001 0.0001 0.0001 0.0001 0.0001 0.0001 0.0001 0.0001 0.0001 0.0001 0.0001 0.0001 0.0001 0 0 0 0 0.0001 41:1 42:1 43:1 44:1 45:1 46:1 47:1 49:1 55:1 56:1 57:1 64:1 65:1 72:1 73:1 74:1 79:1 80:1 82:1 83:1 84:1 85:1 86:1 87:1 
0.0001 0.0001 0.0001 0 0.0001 0.0001 0.0001 0.0001 0.0001 0.0001 0.0001 0.0001 0 0.0001 0.0001 0.0001 0.0001 0 0.0001 0 0 0 0 0 0 13:1 14:1 15:1 18:1 19:1 20:1 21:1 23:1 24:1 25:1 26:1 32:1 35:1 40:1 43:1 48:1 50:1 51:1 56:1 58:1 64:1 66:1 72:1 74:1 80:1 81:1 82:1 87:1 88:1 89:1 95:1 97:1 98:1 102:1 103:1 106:1 108:1 109:1 110:1 114:1 115:1 116:1 
0 0.0001 0.0001 0 0.0001 0 0 0 0 0.0001 0 0.0001 0 0 0 0 0.0001 0 0 0 0 0 0 0 0 26:1 27:1 28:1 29:1 30:1 31:1 34:1 39:1 40:1 41:1 42:1 48:1 49:1 56:1 57:1 64:1 65:1 72:1 73:1 79:1 80:1 81:1 86:1 87:1 89:1 93:1 94:1 97:1 98:1 99:1 100:1 101:1 
0.0001 0.0001 0.0001 0 0.0001 0.0001 0.0001 0.0001 0.0001 0.0001 0.0001 0.0001 0 0.0001 0.0001 0.0001 0.0001 0.0001 0.0001 0 0 0 0.0001 0 0.0001 41:1 42:1 43:1 44:1 45:1 46:1 49:1 52:1 54:1 55:1 56:1 57:1 64:1 65:1 72:1 73:1 74:1 80:1 82:1 83:1 84:1 85:1 86:1 87:1 88:1 
0 0.0001 0.0001 0 0.0001 0 0 0.0001 0 0.0001 0 0.0001 0 0 0 0 0 0 0 0.0001 0 0 0 0 0 26:1 27:1 28:1 29:1 33:1 34:1 35:1 37:1 38:1 39:1 41:1 47:1 48:1 49:1 56:1 57:1 64:1 65:1 72:1 73:1 80:1 81:1 82:1 88:1 90:1 96:1 98:1 99:1 100:1 101:1 102:1 103:1 104:1 
0 0.0001 0.0001 0 0.0001 0 0 0 0 0.0001 0 0 0 0 0 0 0 0 0 0 0 0 0 0 0 17:1 18:1 19:1 20:1 21:1 26:1 27:1 29:1 30:1 33:1 34:1 35:1 38:1 39:1 41:1 47:1 49:1 55:1 56:1 57:1 64:1 65:1 72:1 73:1 80:1 81:1 88:1 89:1 96:1 97:1 98:1 103:1 104:1 106:1 107:1 108:1 109:1 110:1 111:1 
0 0.0001 0.0001 0 0.0001 0 0 0.0001 0 0.0001 0 0.0001 0 0 0 0 0 0 0 0 0 0 0 0 0 28:1 29:1 30:1 31:1 32:1 35:1 36:1 40:1 43:1 44:1 48:1 50:1 51:1 56:1 58:1 64:1 65:1 66:1 71:1 72:1 73:1 79:1 81:1 86:1 87:1 89:1 93:1 94:1 97:1 98:1 99:1 100:1 101:1 
0 0.0001 0.0001 0 0.0001 0.0001 0 0.0001 0 0.0001 0 0.0001 0 0 0 0 0.0001 0 0 0 0 0 0 0 0 35:1 36:1 41:1 42:1 43:1 45:1 46:1 47:1 49:1 50:1 55:1 56:1 57:1 64:1 65:1 72:1 73:1 80:1 81:1 82:1 86:1 87:1 88:1 90:1 91:1 92:1 93:1 94:1 
0 0 0.0001 0 0.0001 0 0 0 0 0.0001 0 0 0 0 0 0 0 0 0 0 0 0 0 0 0 20:1 21:1 22:1 23:1 27:1 28:1 32:1 34:1 35:1 40:1 41:1 42:1 43:1 48:1 49:1 56:1 57:1 64:1 65:1 72:1 73:1 80:1 81:1 82:1 87:1 88:1 89:1 90:1 94:1 97:1 98:1 100:1 101:1 102:1 106:1 107:1 108:1 
0 0 0.0001 0 0.0001 0 0 0 0 0.0001 0 0 0 0 0 0 0 0 0 0 0 0 0 0 0 22:1 29:1 30:1 31:1 35:1 36:1 37:1 39:1 42:1 43:1 47:1 48:1 49:1 50:1 56:1 57:1 64:1 65:1 72:1 73:1 80:1 81:1 87:1 88:1 89:1 94:1 95:1 97:1 98:1 100:1 101:1 102:1 106:1 107:1 108:1 
0 0.0001 0.0001 0 0.0001 0 0 0 0 0.0001 0 0 0 0 0 0 0 0 0 0 0 0 0 0 0 28:1 29:1 30:1 31:1 34:1 35:1 36:1 39:1 40:1 42:1 43:1 48:1 49:1 50:1 56:1 57:1 64:1 65:1 72:1 73:1 80:1 81:1 87:1 88:1 89:1 90:1 91:1 94:1 95:1 99:1 100:1 101:1 102:1 
0 0.0001 0.0001 0 0.0001 0 0 0 0 0.0001 0 0.0001 0 0 0 0 0.0001 0 0 0 0 0 0 0 0 12:1 13:1 14:1 15:1 19:1 20:1 23:1 24:1 26:1 27:1 32:1 33:1 34:1 40:1 41:1 48:1 49:1 56:1 57:1 64:1 65:1 72:1 73:1 79:1 80:1 81:1 87:1 89:1 94:1 95:1 97:1 101:1 102:1 105:1 108:1 109:1 114:1 115:1 116:1 
0 0.0001 0.0001 0 0.0001 0.0001 0 0 0 0.0001 0 0 0 0 0 0 0.0001 0 0 0 0 0 0 0 0 3:1 10:1 11:1 12:1 13:1 18:1 19:1 21:1 22:1 23:1 25:1 26:1 31:1 32:1 33:1 40:1 41:1 48:1 49:1 56:1 57:1 64:1 65:1 72:1 73:1 80:1 81:1 87:1 88:1 89:1 95:1 97:1 102:1 103:1 105:1 110:1 113:1 114:1 115:1 116:1 117:1 118:1 124:1 
0 0.0001 0.0001 0 0.0001 0.0001 0 0.0001 0 0.0001 0 0.0001 0 0 0 0 0.0001 0 0 0 0 0 0 0 0 15:1 23:1 31:1 35:1 36:1 37:1 39:1 40:1 41:1 42:1 43:1 48:1 49:1 56:1 57:1 64:1 65:1 72:1 73:1 80:1 81:1 88:1 89:1 95:1 96:1 97:1 101:1 102:1 103:1 105:1 106:1 109:1 114:1 115:1 116:1 117:1 
0.0001 0.0001 0.0001 0 0.0001 0.0001 0 0.0001 0.0001 0.0001 0.0001 0.0001 0 0.0001 0.0001 0 0.0001 0 0.0001 0 0.0001 0 0 0 0.0001 43:1 44:1 45:1 46:1 47:1 49:1 50:1 52:1 55:1 56:1 57:1 64:1 65:1 72:1 73:1 79:1 80:1 81:1 82:1 83:1 84:1 85:1 86:1 87:1 
0.0001 0.0001 0.0001 0 0.0001 0.0001 0.0001 0.0001 0.0001 0.0001 0.0001 0.0001 0 0.0001 0.0001 0 0.0001 0 0.0001 0.0001 0 0 0 0 0.0001 9:1 10:1 17:1 18:1 19:1 25:1 26:1 27:1 28:1 34:1 36:1 37:1 41:1 42:1 45:1 46:1 49:1 54:1 55:1 57:1 63:1 65:1 71:1 72:1 73:1 80:1 81:1 88:1 89:1 96:1 97:1 104:1 105:1 106:1 107:1 109:1 110:1 111:1 112:1 115:1 116:1 117:1 
0.0001 0.0001 0.0001 0 0.0001 0.0001 0 0.0001 0.0001 0.0001 0 0.0001 0 0.0001 0 0 0.0001 0 0.0001 0 0 0 0 0 0 36:1 37:1 38:1 42:1 43:1 44:1 46:1 47:1 48:1 49:1 50:1 56:1 57:1 64:1 65:1 72:1 73:1 80:1 81:1 82:1 88:1 90:1 91:1 92:1 93:1 94:1 95:1 
0 0.0001 0.0001 0 0.0001 0 0 0 0 0.0001 0 0 0 0 0 0 0 0 0 0 0 0 0 0 0 26:1 27:1 28:1 29:1 30:1 31:1 33:1 34:1 35:1 39:1 41:1 42:1 47:1 48:1 49:1 56:1 57:1 64:1 65:1 72:1 73:1 80:1 81:1 88:1 89:1 90:1 95:1 96:1 98:1 99:1 100:1 101:1 102:1 103:1 
0 0.0001 0.0001 0 0.0001 0.0001 0 0.0001 0.0001 0.0001 0.0001 0.0001 0 0.0001 0.0001 0 0.0001 0 0 0 0 0 0 0 0 35:1 36:1 37:1 38:1 39:1 40:1 42:1 43:1 48:1 50:1 56:1 58:1 64:1 65:1 72:1 73:1 79:1 80:1 81:1 86:1 87:1 89:1 90:1 91:1 92:1 93:1 94:1 
0 0.0001 0.0001 0.0001 0.0001 0.0001 0 0.0001 0.0001 0.0001 0 0.0001 0 0 0 0 0.0001 0 0.0001 0 0 0 0 0 0 11:1 12:1 13:1 14:1 15:1 16:1 19:1 23:1 24:1 26:1 27:1 31:1 32:1 34:1 40:1 42:1 48:1 49:1 50:1 56:1 57:1 63:1 64:1 65:1 71:1 73:1 79:1 81:1 87:1 89:1 94:1 95:1 97:1 102:1 105:1 108:1 109:1 110:1 113:1 114:1 115:1 116:1 
0.0001 0.0001 0.0001 0 0.0001 0.0001 0 0.0001 0.0001 0.0001 0 0.0001 0 0 0 0 0.0001 0 0 0 0 0 0 0 0 33:1 35:1 36:1 41:1 42:1 43:1 44:1 45:1 46:1 49:1 54:1 55:1 56:1 57:1 64:1 65:1 72:1 73:1 80:1 81:1 86:1 87:1 88:1 89:1 90:1 91:1 92:1 93:1 94:1 
0 0.0001 0.0001 0 0.0001 0.0001 0 0.0001 0.0001 0.0001 0 0.0001 0 0 0 0 0.0001 0 0 0 0 0 0 0 0 11:1 12:1 13:1 21:1 22:1 25:1 26:1 27:1 28:1 30:1 31:1 33:1 37:1 39:1 41:1 47:1 48:1 49:1 56:1 57:1 64:1 65:1 72:1 73:1 80:1 81:1 88:1 90:1 96:1 99:1 104:1 108:1 109:1 111:1 112:1 117:1 118:1 119:1 
0 0.0001 0.0001 0 0.0001 0.0001 0 0.0001 0 0.0001 0 0.0001 0 0 0 0 0 0 0.0001 0 0 0 0 0 0 2:1 3:1 4:1 5:1 10:1 11:1 14:1 18:1 19:1 22:1 23:1 26:1 31:1 33:1 34:1 39:1 40:1 41:1 48:1 49:1 56:1 57:1 64:1 65:1 72:1 73:1 80:1 81:1 88:1 89:1 95:1 96:1 97:1 103:1 105:1 106:1 110:1 111:1 114:1 115:1 118:1 123:1 124:1 125:1 
0 0.0001 0.0001 0 0.0001 0 0 0 0.0001 0.0001 0 0.0001 0 0 0 0 0.0001 0 0 0 0 0 0 0.0001 0 28:1 29:1 30:1 31:1 32:1 35:1 36:1 40:1 42:1 43:1 48:1 49:1 50:1 56:1 57:1 64:1 65:1 72:1 73:1 80:1 81:1 88:1 89:1 90:1 91:1 95:1 96:1 99:1 100:1 101:1 102:1 103:1 
0 0.0001 0.0001 0 0.0001 0.0001 0 0.0001 0 0.0001 0 0.0001 0 0 0 0 0.0001 0 0 0 0 0 0 0 0 34:1 35:1 36:1 37:1 38:1 39:1 41:1 42:1 47:1 48:1 49:1 50:1 56:1 57:1 64:1 65:1 72:1 73:1 74:1 79:1 80:1 82:1 83:1 87:1 91:1 92:1 93:1 94:1 95:1 101:1 102:1 
0 0.0001 0.0001 0 0.0001 0 0 0 0 0.0001 0 0 0 0 0 0 0 0 0 0 0 0 0 0 0 26:1 27:1 28:1 29:1 30:1 33:1 34:1 35:1 38:1 39:1 41:1 42:1 47:1 48:1 49:1 50:1 56:1 58:1 64:1 65:1 66:1 72:1 73:1 79:1 80:1 81:1 86:1 87:1 89:1 92:1 93:1 94:1 97:1 98:1 99:1 100:1 
0 0.0001 0.0001 0 0.0001 0.0001 0 0.0001 0 0.0001 0 0.0001 0 0 0 0 0.0001 0 0 0 0 0 0 0 0 27:1 28:1 29:1 30:1 33:1 34:1 38:1 39:1 41:1 47:1 48:1 49:1 56:1 57:1 64:1 65:1 72:1 73:1 80:1 81:1 88:1 89:1 90:1 91:1 92:1 95:1 96:1 100:1 101:1 102:1 103:1 
0 0.0001 0.0001 0 0.0001 0.0001 0 0.0001 0 0.0001 0 0.0001 0 0 0 0 0.0001 0 0 0 0 0 0 0 0 30:1 31:1 36:1 37:1 38:1 39:1 40:1 43:1 48:1 50:1 56:1 57:1 58:1 64:1 65:1 72:1 73:1 79:1 80:1 81:1 87:1 89:1 93:1 94:1 95:1 97:1 98:1 99:1 100:1 101:1 
0.0001 0.0001 0.0001 0.0001 0.0001 0.0001 0.0001 0.0001 0.0001 0.0001 0.0001 0.0001 0.0001 0.0001 0.0001 0.0001 0.0001 0.0001 0.0001 0.0001 0 0 0.0001 0 0.0001 4:1 5:1 6:1 7:1 11:1 12:1 15:1 18:1 23:1 24:1 25:1 26:1 27:1 28:1 32:1 33:1 36:1 40:1 41:1 47:1 48:1 49:1 55:1 57:1 63:1 65:1 70:1 73:1 77:1 78:1 81:1 85:1 89:1 92:1 93:1 97:1 98:1 99:1 100:1 105:1 106:1 114:1 122:1 
0 0.0001 0.0001 0 0.0001 0 0 0 0 0.0001 0 0 0 0 0 0 0 0 0 0 0 0 0 0 0 26:1 27:1 28:1 29:1 33:1 34:1 35:1 36:1 37:1 38:1 39:1 42:1 47:1 48:1 49:1 56:1 57:1 64:1 65:1 72:1 73:1 80:1 81:1 86:1 87:1 88:1 89:1 92:1 93:1 94:1 97:1 98:1 99:1 100:1 
0 0.0001 0.0001 0 0.0001 0 0 0 0 0.0001 0 0 0 0 0 0 0 0 0 0 0 0 0 0 0 19:1 20:1 21:1 22:1 23:1 24:1 26:1 27:1 28:1 32:1 33:1 34:1 35:1 40:1 42:1 48:1 50:1 56:1 57:1 58:1 64:1 65:1 72:1 73:1 79:1 80:1 81:1 86:1 87:1 89:1 94:1 97:1 101:1 102:1 105:1 106:1 107:1 108:1 109:1 
0.0001 0.0001 0.0001 0 0.0001 0.0001 0 0.0001 0.0001 0.0001 0.0001 0.0001 0 0.0001 0 0 0 0 0 0 0 0 0 0 0 12:1 13:1 20:1 27:1 28:1 29:1 30:1 31:1 35:1 39:1 40:1 43:1 48:1 50:1 51:1 56:1 58:1 64:1 65:1 66:1 72:1 73:1 80:1 81:1 88:1 89:1 95:1 96:1 97:1 102:1 103:1 105:1 109:1 110:1 113:1 114:1 115:1 116:1 117:1 
0.0001 0.0001 0.0001 0 0.0001 0.0001 0 0.0001 0.0001 0.0001 0.0001 0.0001 0 0.0001 0.0001 0.0001 0.0001 0.0001 0.0001 0 0 0 0 0 0.0001 33:1 34:1 35:1 36:1 37:1 38:1 41:1 46:1 49:1 55:1 57:1 63:1 64:1 65:1 72:1 73:1 80:1 81:1 88:1 89:1 90:1 91:1 92:1 93:1 94:1 95:1 96:1 
0.0001 0.0001 0.0001 0.0001 0.0001 0.0001 0.0001 0.0001 0.0001 0.0001 0.0001 0.0001 0 0.0001 0.0001 0 0.0001 0.0001 0.0001 0 0 0 0.0001 0 0.0001 17:1 18:1 19:1 20:1 21:1 22:1 25:1 30:1 31:1 33:1 39:1 40:1 48:1 56:1 64:1 65:1 72:1 73:1 80:1 81:1 88:1 89:1 95:1 96:1 97:1 98:1 101:1 102:1 103:1 106:1 107:1 108:1 109:1 
0 0.0001 0.0001 0 0.0001 0 0 0 0 0.0001 0 0.0001 0 0 0 0 0.0001 0 0 0 0 0 0 0 0 34:1 35:1 36:1 37:1 38:1 39:1 41:1 42:1 47:1 48:1 49:1 56:1 57:1 64:1 65:1 72:1 73:1 80:1 81:1 82:1 83:1 84:1 86:1 87:1 88:1 92:1 93:1 94:1 95:1 96:1 
0 0.0001 0.0001 0 0.0001 0.0001 0 0.0001 0.0001 0.0001 0 0.0001 0 0.0001 0 0 0.0001 0 0 0 0 0 0 0 0 35:1 36:1 37:1 38:1 39:1 42:1 43:1 47:1 48:1 49:1 50:1 56:1 57:1 64:1 65:1 72:1 73:1 74:1 79:1 80:1 82:1 83:1 86:1 87:1 91:1 92:1 93:1 94:1 
0.0001 0.0001 0.0001 0.0001 0.0001 0.0001 0.0001 0.0001 0.0001 0.0001 0.0001 0.0001 0.0001 0.0001 0.0001 0.0001 0.0001 0.0001 0.0001 0.0001 0 0 0.0001 0.0001 0.0001 41:1 42:1 43:1 46:1 47:1 48:1 49:1 56:1 57:1 64:1 65:1 72:1 73:1 80:1 81:1 82:1 83:1 84:1 85:1 86:1 87:1 88:1 
0.0001 0.0001 0.0001 0.0001 0.0001 0.0001 0.0001 0.0001 0.0001 0.0001 0.0001 0.0001 0.0001 0.0001 0.0001 0.0001 0.0001 0.0001 0.0001 0.0001 0 0 0.0001 0 0.0001 37:1 41:1 42:1 43:1 44:1 45:1 46:1 49:1 54:1 55:1 57:1 64:1 65:1 72:1 73:1 80:1 81:1 82:1 87:1 88:1 90:1 91:1 92:1 93:1 94:1 95:1 
0.0001 0.0001 0.0001 0.0001 0.0001 0.0001 0.0001 0.0001 0.0001 0.0001 0.0001 0.0001 0.0001 0.0001 0.0001 0.0001 0.0001 0 0.0001 0 0 0 0 0 0 2:1 3:1 4:1 5:1 9:1 13:1 17:1 21:1 22:1 25:1 30:1 33:1 38:1 39:1 41:1 47:1 48:1 49:1 56:1 57:1 64:1 65:1 72:1 74:1 80:1 82:1 88:1 90:1 96:1 99:1 104:1 107:1 112:1 115:1 116:1 117:1 119:1 120:1 125:1 126:1 127:1 
0 0.0001 0.0001 0 0.0001 0.0001 0 0.0001 0.0001 0.0001 0 0.0001 0 0.0001 0 0.0001 0.0001 0 0.0001 0 0 0 0 0 0.0001 17:1 18:1 19:1 20:1 21:1 22:1 23:1 25:1 31:1 33:1 39:1 40:1 41:1 48:1 49:1 56:1 57:1 64:1 65:1 72:1 73:1 79:1 80:1 81:1 82:1 87:1 90:1 95:1 98:1 99:1 102:1 103:1 107:1 108:1 109:1 110:1 
0.0001 0.0001 0.0001 0 0.0001 0.0001 0 0.0001 0.0001 0.0001 0 0.0001 0 0.0001 0 0 0.0001 0 0.0001 0 0 0 0 0 0 29:1 30:1 34:1 39:1 40:1 42:1 48:1 49:1 50:1 56:1 57:1 64:1 65:1 72:1 73:1 80:1 81:1 87:1 88:1 89:1 90:1 94:1 95:1 98:1 99:1 100:1 101:1 102:1 
0.0001 0.0001 0.0001 0.0001 0.0001 0.0001 0.0001 0.0001 0.0001 0.0001 0 0.0001 0 0.0001 0 0.0001 0.0001 0 0.0001 0.0001 0 0 0 0 0.0001 17:1 22:1 25:1 30:1 31:1 33:1 39:1 40:1 41:1 48:1 49:1 56:1 57:1 64:1 65:1 72:1 73:1 80:1 81:1 88:1 89:1 90:1 96:1 98:1 99:1 104:1 107:1 108:1 109:1 110:1 111:1 112:1 
0 0.0001 0.0001 0 0.0001 0.0001 0 0.0001 0 0.0001 0 0.0001 0 0 0 0 0.0001 0 0 0 0 0 0 0 0 35:1 36:1 37:1 38:1 41:1 42:1 43:1 46:1 47:1 48:1 49:1 56:1 57:1 64:1 65:1 72:1 73:1 80:1 81:1 82:1 83:1 86:1 87:1 88:1 91:1 92:1 93:1 94:1 
0 0.0001 0.0001 0 0.0001 0 0 0 0 0.0001 0 0 0 0 0 0 0 0 0 0 0 0 0 0 0 35:1 36:1 37:1 38:1 41:1 42:1 43:1 44:1 46:1 47:1 48:1 49:1 56:1 57:1 64:1 65:1 72:1 73:1 80:1 81:1 82:1 83:1 87:1 88:1 91:1 92:1 93:1 94:1 95:1 
0.0001 0.0001 0.0001 0.0001 0.0001 0.0001 0.0001 0.0001 0.0001 0.0001 0.0001 0.0001 0.0001 0.0001 0.0001 0.0001 0.0001 0.0001 0.0001 0.0001 0 0 0.0001 0 0.0001 29:1 37:1 45:1 46:1 49:1 50:1 51:1 55:1 56:1 57:1 59:1 64:1 65:1 72:1 73:1 80:1 81:1 88:1 89:1 95:1 98:1 99:1 100:1 101:1 102:1 
0 0.0001 0.0001 0 0.0001 0 0 0 0 0.0001 0 0 0 0 0 0 0 0 0 0 0 0 0 0 0 20:1 21:1 22:1 27:1 28:1 30:1 35:1 37:1 38:1 39:1 40:1 42:1 43:1 48:1 49:1 50:1 56:1 57:1 64:1 65:1 72:1 73:1 80:1 81:1 88:1 89:1 90:1 96:1 98:1 99:1 102:1 103:1 108:1 109:1 110:1 
0 0.0001 0.0001 0 0.0001 0.0001 0.0001 0 0 0.0001 0 0.0001 0 0 0 0 0.0001 0 0 0 0 0 0 0.0001 0 2:1 3:1 9:1 10:1 11:1 12:1 17:1 18:1 20:1 21:1 25:1 29:1 30:1 33:1 38:1 39:1 41:1 47:1 49:1 55:1 56:1 57:1 64:1 65:1 72:1 73:1 80:1 81:1 88:1 89:1 96:1 97:1 104:1 105:1 111:1 112:1 113:1 118:1 119:1 121:1 122:1 123:1 124:1 125:1 126:1 
0 0.0001 0.0001 0 0.0001 0.0001 0 0 0 0.0001 0 0 0 0 0 0 0 0 0 0 0 0 0 0 0 3:1 4:1 5:1 11:1 13:1 14:1 18:1 19:1 20:1 21:1 26:1 27:1 29:1 30:1 34:1 38:1 39:1 42:1 47:1 49:1 50:1 55:1 56:1 57:1 64:1 65:1 72:1 73:1 80:1 81:1 88:1 89:1 96:1 97:1 98:1 104:1 106:1 111:1 112:1 114:1 115:1 118:1 119:1 123:1 124:1 125:1 126:1 
0.0001 0.0001 0.0001 0.0001 0.0001 0.0001 0.0001 0.0001 0.0001 0.0001 0.0001 0.0001 0.0001 0.0001 0.0001 0.0001 0.0001 0.0001 0.0001 0.0001 0 0 0.0001 0.0001 0.0001 34:1 35:1 36:1 37:1 38:1 39:1 42:1 43:1 47:1 49:1 50:1 51:1 55:1 56:1 57:1 59:1 64:1 66:1 67:1 72:1 75:1 80:1 83:1 84:1 88:1 92:1 93:1 94:1 95:1 96:1 
0 0.0001 0.0001 0 0.0001 0 0 0 0 0.0001 0 0 0 0 0 0 0 0 0 0 0 0 0 0 0 25:1 26:1 27:1 28:1 29:1 33:1 34:1 35:1 36:1 37:1 38:1 41:1 46:1 47:1 49:1 55:1 56:1 57:1 64:1 65:1 72:1 73:1 80:1 81:1 82:1 88:1 90:1 95:1 96:1 98:1 99:1 100:1 101:1 102:1 103:1 
0.0001 0.0001 0.0001 0 0.0001 0.0001 0 0.0001 0.0001 0.0001 0 0.0001 0 0.0001 0 0 0.0001 0 0.0001 0 0 0 0 0 0 33:1 34:1 35:1 36:1 41:1 42:1 45:1 46:1 49:1 54:1 55:1 57:1 63:1 64:1 65:1 72:1 73:1 80:1 81:1 82:1 88:1 90:1 91:1 92:1 93:1 94:1 95:1 96:1 
0.0001 0.0001 0.0001 0 0.0001 0.0001 0.0001 0.0001 0.0001 0.0001 0.0001 0.0001 0.0001 0.0001 0.0001 0.0001 0.0001 0.0001 0.0001 0.0001 0 0.0001 0.0001 0 0.0001 26:1 27:1 33:1 34:1 35:1 36:1 37:1 41:1 45:1 46:1 49:1 54:1 57:1 62:1 63:1 65:1 71:1 72:1 73:1 80:1 81:1 82:1 88:1 90:1 91:1 96:1 99:1 100:1 101:1 102:1 103:1 104:1 
0.0001 0.0001 0.0001 0.0001 0.0001 0.0001 0.0001 0.0001 0.0001 0.0001 0.0001 0.0001 0.0001 0.0001 0.0001 0.0001 0.0001 0.0001 0.0001 0.0001 0 0 0.0001 0 0.0001 29:1 30:1 31:1 36:1 37:1 39:1 40:1 48:1 49:1 56:1 57:1 63:1 64:1 65:1 71:1 73:1 78:1 79:1 81:1 85:1 86:1 89:1 93:1 97:1 98:1 99:1 100:1 
0 0.0001 0.0001 0 0.0001 0.0001 0 0.0001 0 0.0001 0 0.0001 0 0 0 0 0.0001 0 0.0001 0 0 0 0 0 0 27:1 28:1 29:1 30:1 31:1 32:1 35:1 36:1 40:1 48:1 50:1 51:1 56:1 58:1 64:1 65:1 66:1 72:1 73:1 79:1 80:1 81:1 85:1 86:1 87:1 89:1 90:1 92:1 93:1 98:1 99:1 100:1 
0 0.0001 0.0001 0 0.0001 0.0001 0 0.0001 0.0001 0.0001 0 0.0001 0 0 0 0 0.0001 0 0 0 0 0 0 0 0 20:1 21:1 22:1 23:1 31:1 32:1 34:1 35:1 36:1 37:1 40:1 42:1 48:1 49:1 56:1 57:1 64:1 65:1 72:1 73:1 80:1 81:1 87:1 89:1 94:1 95:1 97:1 98:1 102:1 106:1 107:1 108:1 109:1 
0.0001 0.0001 0.0001 0 0.0001 0.0001 0 0.0001 0.0001 0.0001 0.0001 0.0001 0 0.0001 0 0 0.0001 0 0.0001 0 0 0 0 0 0 36:1 37:1 38:1 39:1 40:1 42:1 43:1 44:1 48:1 49:1 50:1 56:1 57:1 64:1 65:1 71:1 72:1 73:1 78:1 79:1 81:1 85:1 86:1 89:1 90:1 91:1 92:1 
0.0001 0.0001 0.0001 0 0.0001 0.0001 0 0.0001 0.0001 0.0001 0.0001 0.0001 0 0.0001 0 0 0.0001 0 0.0001 0 0 0 0 0 0 28:1 29:1 30:1 34:1 35:1 36:1 38:1 39:1 42:1 47:1 48:1 49:1 50:1 56:1 57:1 64:1 65:1 72:1 73:1 74:1 80:1 82:1 83:1 84:1 85:1 87:1 88:1 93:1 94:1 95:1 103:1 
0.0001 0.0001 0.0001 0 0.0001 0.0001 0 0.0001 0.0001 0.0001 0 0.0001 0 0 0 0 0.0001 0 0 0 0 0 0 0 0 28:1 29:1 30:1 35:1 36:1 38:1 39:1 42:1 43:1 47:1 48:1 49:1 50:1 56:1 57:1 64:1 65:1 72:1 73:1 80:1 81:1 82:1 83:1 84:1 88:1 92:1 93:1 94:1 96:1 103:1 104:1 
0.0001 0.0001 0.0001 0.0001 0.0001 0.0001 0.0001 0.0001 0.0001 0.0001 0.0001 0.0001 0.0001 0.0001 0.0001 0.0001 0.0001 0.0001 0.0001 0.0001 0 0 0.0001 0 0.0001 35:1 36:1 37:1 39:1 40:1 41:1 42:1 43:1 48:1 49:1 56:1 57:1 64:1 65:1 72:1 73:1 74:1 79:1 80:1 83:1 86:1 87:1 92:1 93:1 94:1 
0.0001 0.0001 0.0001 0 0.0001 0.0001 0 0.0001 0.0001 0.0001 0.0001 0.0001 0 0.0001 0 0 0.0001 0 0.0001 0 0 0 0 0 0 31:1 35:1 36:1 39:1 40:1 42:1 43:1 48:1 49:1 50:1 56:1 57:1 64:1 65:1 72:1 73:1 80:1 81:1 88:1 89:1 90:1 95:1 96:1 99:1 100:1 101:1 102:1 103:1 
0 0.0001 0.0001 0 0.0001 0.0001 0 0.0001 0.0001 0.0001 0.0001 0.0001 0 0 0 0 0.0001 0 0 0 0 0 0 0 0 22:1 23:1 29:1 30:1 32:1 36:1 40:1 43:1 48:1 50:1 56:1 57:1 58:1 64:1 65:1 71:1 72:1 73:1 79:1 81:1 86:1 87:1 89:1 93:1 94:1 97:1 98:1 99:1 100:1 101:1 106:1 107:1 
0.0001 0.0001 0.0001 0.0001 0.0001 0.0001 0.0001 0.0001 0.0001 0.0001 0.0001 0.0001 0 0.0001 0 0 0.0001 0 0.0001 0 0 0 0 0 0.0001 20:1 27:1 28:1 35:1 38:1 39:1 43:1 47:1 50:1 51:1 55:1 56:1 58:1 64:1 65:1 66:1 72:1 73:1 80:1 81:1 87:1 88:1 89:1 94:1 95:1 97:1 98:1 99:1 100:1 101:1 102:1 107:1 108:1 
0 0.0001 0.0001 0 0.0001 0.0001 0 0.0001 0 0.0001 0 0.0001 0 0 0 0 0 0.0001 0 0 0 0.0001 0.0001 0 0.0001 2:1 3:1 9:1 10:1 11:1 12:1 13:1 14:1 17:1 21:1 22:1 25:1 30:1 33:1 38:1 39:1 41:1 47:1 48:1 49:1 56:1 57:1 64:1 65:1 72:1 73:1 80:1 81:1 88:1 89:1 96:1 97:1 104:1 105:1 112:1 113:1 119:1 120:1 121:1 122:1 123:1 124:1 125:1 126:1 127:1 
0.0001 0.0001 0.0001 0.0001 0.0001 0.0001 0.0001 0.0001 0.0001 0.0001 0.0001 0.0001 0.0001 0.0001 0.0001 0.0001 0.0001 0.0001 0.0001 0.0001 0.0001 0 0.0001 0 0.0001 3:1 4:1 5:1 11:1 13:1 21:1 27:1 28:1 29:1 35:1 37:1 43:1 45:1 50:1 51:1 53:1 58:1 61:1 62:1 66:1 70:1 74:1 78:1 82:1 86:1 87:1 90:1 95:1 98:1 103:1 106:1 110:1 111:1 114:1 115:1 118:1 123:1 124:1 125:1 126:1 
0 0 0.0001 0 0.0001 0 0 0 0 0.0001 0 0 0 0 0 0 0 0 0 0 0 0 0 0 0 18:1 19:1 20:1 21:1 26:1 27:1 28:1 29:1 30:1 31:1 34:1 39:1 40:1 41:1 42:1 48:1 49:1 56:1 57:1 64:1 65:1 72:1 73:1 80:1 81:1 87:1 88:1 89:1 94:1 95:1 97:1 101:1 102:1 105:1 106:1 107:1 108:1 109:1 
0 0.0001 0.0001 0 0.0001 0 0 0 0 0.0001 0 0 0 0 0 0 0 0 0 0 0 0 0 0 0 21:1 22:1 28:1 29:1 30:1 31:1 36:1 37:1 39:1 40:1 43:1 48:1 50:1 56:1 57:1 58:1 64:1 65:1 72:1 73:1 79:1 80:1 81:1 86:1 87:1 89:1 93:1 94:1 97:1 100:1 101:1 105:1 106:1 107:1 108:1 
0 0.0001 0.0001 0 0.0001 0 0 0 0 0.0001 0 0 0 0 0 0 0.0001 0 0 0 0 0 0 0 0 25:1 26:1 27:1 33:1 35:1 36:1 37:1 38:1 41:1 46:1 47:1 49:1 50:1 55:1 56:1 57:1 58:1 64:1 65:1 66:1 72:1 73:1 80:1 81:1 87:1 88:1 89:1 90:1 94:1 95:1 98:1 99:1 100:1 101:1 102:1 
0.0001 0.0001 0.0001 0 0.0001 0.0001 0 0.0001 0.0001 0.0001 0 0.0001 0 0 0 0 0.0001 0 0 0 0 0 0 0 0 34:1 35:1 36:1 37:1 38:1 41:1 42:1 45:1 46:1 49:1 54:1 55:1 57:1 63:1 64:1 65:1 72:1 73:1 80:1 81:1 82:1 83:1 88:1 91:1 92:1 93:1 94:1 95:1 96:1 
0 0.0001 0.0001 0 0.0001 0.0001 0 0.0001 0 0.0001 0 0.0001 0 0 0 0 0.0001 0 0 0 0 0 0 0 0 29:1 30:1 38:1 39:1 42:1 43:1 44:1 45:1 46:1 47:1 48:1 49:1 50:1 56:1 57:1 64:1 65:1 71:1 72:1 73:1 79:1 81:1 87:1 89:1 90:1 93:1 94:1 95:1 98:1 99:1 100:1 101:1 
0 0.0001 0.0001 0 0.0001 0 0 0 0 0.0001 0 0 0 0 0 0 0 0 0 0 0 0 0 0 0 34:1 35:1 36:1 37:1 38:1 39:1 41:1 42:1 47:1 48:1 49:1 56:1 57:1 64:1 65:1 72:1 73:1 80:1 81:1 82:1 87:1 88:1 90:1 91:1 92:1 93:1 94:1 95:1 
0 0.0001 0.0001 0 0.0001 0.0001 0 0 0 0.0001 0 0 0 0 0 0 0 0 0 0 0 0 0 0 0 2:1 3:1 4:1 10:1 11:1 12:1 18:1 19:1 20:1 21:1 25:1 26:1 29:1 30:1 31:1 32:1 33:1 40:1 41:1 48:1 49:1 56:1 57:1 64:1 65:1 72:1 73:1 80:1 81:1 88:1 89:1 96:1 97:1 104:1 105:1 111:1 112:1 113:1 114:1 118:1 119:1 122:1 123:1 124:1 125:1 126:1 
0.0001 0.0001 0.0001 0.0001 0.0001 0.0001 0.0001 0.0001 0.0001 0.0001 0.0001 0.0001 0.0001 0.0001 0.0001 0.0001 0.0001 0.0001 0.0001 0.0001 0 0 0.0001 0 0.0001 34:1 35:1 36:1 41:1 42:1 44:1 46:1 49:1 52:1 54:1 55:1 57:1 63:1 64:1 65:1 72:1 73:1 74:1 75:1 80:1 83:1 84:1 85:1 88:1 93:1 94:1 95:1 96:1 
0.0001 0.0001 0.0001 0 0.0001 0.0001 0 0.0001 0.0001 0.0001 0.0001 0.0001 0 0 0 0 0.0001 0 0 0 0 0 0 0 0 34:1 35:1 36:1 41:1 42:1 44:1 45:1 46:1 49:1 50:1 51:1 52:1 54:1 55:1 57:1 60:1 63:1 64:1 65:1 72:1 73:1 80:1 81:1 82:1 85:1 86:1 87:1 88:1 90:1 91:1 92:1 93:1 
0.0001 0.0001 0.0001 0 0.0001 0.0001 0 0.0001 0.0001 0.0001 0.0001 0.0001 0.0001 0.0001 0.0001 0.0001 0.0001 0.0001 0.0001 0.0001 0 0 0 0 0.0001 19:1 27:1 28:1 29:1 30:1 35:1 38:1 39:1 42:1 43:1 48:1 50:1 56:1 57:1 58:1 64:1 65:1 72:1 73:1 79:1 80:1 81:1 87:1 89:1 94:1 97:1 101:1 102:1 105:1 106:1 107:1 108:1 109:1 
0 0 0.0001 0 0.0001 0.0001 0 0 0 0.0001 0 0 0 0 0 0 0 0 0 0 0 0 0 0 0 4:1 5:1 6:1 11:1 12:1 13:1 14:1 15:1 18:1 19:1 21:1 22:1 23:1 26:1 27:1 30:1 31:1 34:1 39:1 41:1 42:1 47:1 48:1 49:1 56:1 57:1 64:1 65:1 72:1 73:1 80:1 81:1 88:1 89:1 96:1 97:1 103:1 104:1 105:1 106:1 110:1 111:1 114:1 118:1 122:1 123:1 124:1 125:1 126:1 
0.0001 0.0001 0.0001 0 0.0001 0.0001 0 0.0001 0.0001 0.0001 0 0.0001 0 0 0 0 0 0 0 0 0 0 0 0 0 28:1 35:1 36:1 37:1 38:1 39:1 42:1 43:1 47:1 50:1 55:1 56:1 57:1 58:1 64:1 65:1 72:1 73:1 80:1 81:1 88:1 89:1 90:1 95:1 96:1 98:1 99:1 100:1 101:1 102:1 103:1 
0.0001 0.0001 0.0001 0.0001 0.0001 0.0001 0 0.0001 0.0001 0.0001 0.0001 0.0001 0 0.0001 0.0001 0 0.0001 0 0.0001 0 0 0 0 0 0.0001 28:1 29:1 30:1 31:1 32:1 40:1 43:1 44:1 45:1 46:1 48:1 50:1 54:1 56:1 57:1 64:1 65:1 71:1 72:1 73:1 79:1 81:1 86:1 87:1 89:1 90:1 93:1 94:1 98:1 99:1 100:1 101:1 
0.0001 0.0001 0.0001 0.0001 0.0001 0.0001 0.0001 0.0001 0.0001 0.0001 0.0001 0.0001 0.0001 0.0001 0.0001 0.0001 0.0001 0.0001 0.0001 0.0001 0.0001 0 0.0001 0.0001 0.0001 50:1 51:1 52:1 53:1 54:1 55:1 56:1 57:1 58:1 64:1 65:1 72:1 73:1 74:1 75:1 76:1 77:1 78:1 79:1 80:1 
0 0.0001 0.0001 0 0.0001 0.0001 0 0.0001 0.0001 0.0001 0 0.0001 0 0 0 0 0 0 0 0 0 0 0 0 0 35:1 36:1 37:1 38:1 41:1 42:1 43:1 44:1 45:1 46:1 49:1 54:1 55:1 57:1 63:1 64:1 65:1 72:1 73:1 80:1 81:1 82:1 83:1 87:1 88:1 91:1 92:1 93:1 94:1 95:1 
0.0001 0.0001 0.0001 0 0.0001 0.0001 0 0.0001 0.0001 0.0001 0 0.0001 0 0.0001 0 0 0.0001 0 0.0001 0 0 0 0 0 0 34:1 35:1 41:1 42:1 43:1 44:1 45:1 46:1 47:1 49:1 51:1 55:1 56:1 57:1 64:1 65:1 72:1 73:1 74:1 80:1 82:1 83:1 84:1 86:1 87:1 88:1 92:1 93:1 94:1 
0.0001 0.0001 0.0001 0.0001 0.0001 0.0001 0.0001 0.0001 0.0001 0.0001 0.0001 0.0001 0.0001 0.0001 0.0001 0.0001 0.0001 0.0001 0.0001 0.0001 0 0 0.0001 0 0.0001 28:1 29:1 30:1 31:1 32:1 34:1 35:1 36:1 40:1 41:1 42:1 43:1 48:1 49:1 50:1 56:1 58:1 64:1 66:1 72:1 74:1 80:1 82:1 87:1 88:1 90:1 91:1 93:1 94:1 95:1 99:1 100:1 101:1 
0 0.0001 0.0001 0 0.0001 0 0 0 0 0.0001 0 0 0 0 0 0 0 0 0 0 0 0 0 0 0 20:1 21:1 22:1 27:1 28:1 30:1 31:1 35:1 39:1 40:1 42:1 43:1 48:1 49:1 50:1 56:1 57:1 64:1 65:1 72:1 73:1 80:1 81:1 88:1 89:1 95:1 96:1 97:1 101:1 102:1 103:1 106:1 107:1 108:1 109:1 
0.0001 0.0001 0.0001 0.0001 0.0001 0.0001 0.0001 0.0001 0.0001 0.0001 0.0001 0.0001 0.0001 0.0001 0.0001 0.0001 0.0001 0.0001 0.0001 0.0001 0.0001 0 0.0001 0 0.0001 35:1 36:1 42:1 43:1 44:1 45:1 49:1 50:1 53:1 54:1 55:1 57:1 63:1 65:1 71:1 72:1 73:1 80:1 81:1 87:1 88:1 95:1 
0.0001 0.0001 0.0001 0 0.0001 0 0 0.0001 0.0001 0.0001 0 0.0001 0 0 0 0 0 0 0 0 0 0 0 0 0 35:1 36:1 37:1 38:1 42:1 43:1 46:1 47:1 48:1 49:1 50:1 56:1 57:1 58:1 64:1 65:1 66:1 72:1 73:1 80:1 81:1 82:1 83:1 88:1 91:1 92:1 93:1 94:1 95:1 96:1 
0.0001 0.0001 0.0001 0 0.0001 0.0001 0 0.0001 0.0001 0.0001 0.0001 0.0001 0.0001 0.0001 0.0001 0.0001 0.0001 0.0001 0.0001 0 0 0 0 0 0.0001 11:1 12:1 13:1 14:1 15:1 16:1 18:1 19:1 24:1 25:1 26:1 32:1 33:1 40:1 41:1 48:1 49:1 56:1 57:1 64:1 65:1 72:1 73:1 80:1 88:1 96:1 99:1 100:1 104:1 108:1 109:1 111:1 112:1 117:1 118:1 119:1 
0.0001 0.0001 0.0001 0 0.0001 0.0001 0 0.0001 0.0001 0.0001 0.0001 0.0001 0 0.0001 0.0001 0 0.0001 0 0.0001 0 0 0 0 0 0.0001 34:1 35:1 36:1 37:1 38:1 39:1 40:1 41:1 42:1 48:1 49:1 56:1 57:1 64:1 65:1 72:1 73:1 74:1 80:1 82:1 83:1 87:1 88:1 91:1 92:1 93:1 94:1 
0 0.0001 0.0001 0 0.0001 0 0 0 0 0.0001 0 0 0 0 0 0 0 0 0 0 0 0 0 0 0 21:1 26:1 27:1 29:1 30:1 31:1 34:1 35:1 39:1 40:1 41:1 42:1 48:1 49:1 56:1 57:1 64:1 65:1 72:1 73:1 80:1 81:1 87:1 88:1 89:1 94:1 95:1 97:1 98:1 99:1 100:1 101:1 106:1 107:1 
0.0001 0.0001 0.0001 0.0001 0.0001 0.0001 0 0.0001 0.0001 0.0001 0.0001 0.0001 0 0.0001 0.0001 0 0.0001 0.0001 0.0001 0 0 0 0.0001 0 0.0001 37:1 38:1 45:1 46:1 47:1 48:1 50:1 51:1 52:1 53:1 54:1 56:1 57:1 58:1 64:1 65:1 72:1 73:1 79:1 80:1 81:1 85:1 86:1 89:1 90:1 91:1 92:1 93:1 
0 0.0001 0.0001 0 0.0001 0 0 0 0 0.0001 0 0 0 0 0 0 0 0 0 0 0 0 0 0 0 22:1 23:1 27:1 28:1 29:1 30:1 31:1 32:1 34:1 35:1 37:1 38:1 40:1 42:1 45:1 48:1 50:1 56:1 57:1 58:1 64:1 65:1 72:1 73:1 80:1 81:1 88:1 89:1 95:1 97:1 101:1 102:1 103:1 105:1 106:1 107:1 108:1 109:1 
0.0001 0.0001 0.0001 0.0001 0.0001 0.0001 0 0.0001 0.0001 0.0001 0.0001 0.0001 0 0.0001 0.0001 0 0.0001 0.0001 0.0001 0 0 0 0 0 0.0001 33:1 34:1 35:1 36:1 37:1 38:1 39:1 40:1 41:1 48:1 56:1 64:1 65:1 66:1 72:1 73:1 79:1 80:1 81:1 87:1 89:1 94:1 95:1 97:1 98:1 99:1 100:1 101:1 102:1 
0 0.0001 0.0001 0 0.0001 0 0 0 0 0.0001 0 0 0 0 0 0 0 0 0 0 0 0 0 0 0 34:1 35:1 36:1 37:1 38:1 39:1 42:1 43:1 44:1 47:1 48:1 49:1 50:1 56:1 57:1 64:1 65:1 72:1 73:1 79:1 80:1 81:1 86:1 87:1 89:1 90:1 91:1 92:1 93:1 94:1 
0 0.0001 0.0001 0 0.0001 0.0001 0 0 0 0.0001 0 0 0 0 0 0 0 0 0 0 0 0 0 0 0 1:1 2:1 3:1 9:1 12:1 13:1 17:1 21:1 22:1 25:1 30:1 31:1 33:1 34:1 35:1 36:1 37:1 38:1 39:1 41:1 47:1 49:1 55:1 56:1 57:1 64:1 65:1 72:1 73:1 80:1 81:1 88:1 89:1 96:1 97:1 104:1 105:1 106:1 112:1 114:1 115:1 119:1 120:1 123:1 124:1 125:1 126:1 
0 0.0001 0.0001 0 0.0001 0.0001 0 0.0001 0.0001 0.0001 0 0.0001 0 0 0 0 0 0 0 0 0 0 0 0 0 27:1 28:1 29:1 30:1 35:1 36:1 39:1 43:1 48:1 50:1 51:1 56:1 57:1 58:1 64:1 65:1 72:1 73:1 79:1 80:1 81:1 86:1 87:1 89:1 93:1 94:1 97:1 98:1 99:1 100:1 101:1 
0.0001 0.0001 0.0001 0.0001 0.0001 0.0001 0.0001 0.0001 0.0001 0.0001 0.0001 0.0001 0.0001 0.0001 0.0001 0.0001 0.0001 0.0001 0.0001 0 0 0 0.0001 0 0.0001 31:1 32:1 37:1 38:1 39:1 40:1 44:1 45:1 46:1 48:1 52:1 56:1 59:1 60:1 63:1 64:1 66:1 67:1 71:1 73:1 74:1 77:1 78:1 79:1 81:1 84:1 85:1 89:1 91:1 92:1 97:1 98:1 99:1 
0 0 0.0001 0 0.0001 0 0 0 0 0.0001 0 0 0 0 0 0 0 0 0 0 0 0 0 0 0 12:1 13:1 14:1 18:1 19:1 20:1 22:1 23:1 26:1 31:1 32:1 34:1 35:1 36:1 40:1 42:1 48:1 49:1 50:1 56:1 57:1 64:1 65:1 72:1 73:1 80:1 81:1 87:1 88:1 89:1 94:1 95:1 97:1 101:1 102:1 105:1 106:1 107:1 108:1 109:1 114:1 115:1 
0 0.0001 0.0001 0 0.0001 0 0 0 0 0.0001 0 0 0 0 0 0 0 0 0 0 0 0 0 0 0 22:1 23:1 24:1 29:1 30:1 31:1 32:1 36:1 37:1 39:1 40:1 43:1 44:1 47:1 48:1 50:1 51:1 56:1 58:1 64:1 65:1 66:1 71:1 72:1 73:1 79:1 81:1 86:1 87:1 89:1 93:1 94:1 97:1 99:1 100:1 101:1 105:1 106:1 107:1 
0.0001 0.0001 0.0001 0 0.0001 0.0001 0 0.0001 0.0001 0.0001 0.0001 0.0001 0 0.0001 0 0 0.0001 0 0.0001 0 0 0 0 0 0 29:1 30:1 36:1 37:1 38:1 39:1 40:1 44:1 48:1 51:1 56:1 58:1 59:1 64:1 66:1 71:1 72:1 73:1 74:1 78:1 79:1 81:1 85:1 86:1 89:1 92:1 93:1 97:1 98:1 99:1 100:1 
0 0.0001 0.0001 0 0.0001 0 0 0 0 0.0001 0 0.0001 0 0 0 0 0 0 0 0 0 0 0 0 0 34:1 35:1 36:1 37:1 38:1 39:1 40:1 42:1 48:1 49:1 50:1 56:1 57:1 64:1 65:1 72:1 73:1 80:1 81:1 86:1 87:1 88:1 89:1 90:1 91:1 92:1 93:1 94:1 
0 0.0001 0.0001 0 0.0001 0.0001 0 0.0001 0 0.0001 0 0.0001 0 0 0 0 0.0001 0 0 0 0 0 0 0 0 33:1 34:1 35:1 36:1 41:1 42:1 44:1 45:1 46:1 49:1 54:1 55:1 57:1 63:1 64:1 65:1 72:1 73:1 80:1 81:1 82:1 87:1 88:1 90:1 91:1 92:1 93:1 94:1 95:1 
0.0001 0.0001 0.0001 0 0.0001 0.0001 0 0.0001 0.0001 0.0001 0 0.0001 0 0.0001 0 0 0.0001 0 0.0001 0 0 0 0 0 0 35:1 36:1 37:1 38:1 39:1 40:1 42:1 43:1 48:1 49:1 50:1 56:1 57:1 64:1 65:1 72:1 73:1 78:1 79:1 81:1 85:1 86:1 89:1 90:1 91:1 92:1 93:1 
0.0001 0.0001 0.0001 0.0001 0.0001 0.0001 0.0001 0.0001 0.0001 0.0001 0.0001 0.0001 0.0001 0.0001 0.0001 0.0001 0.0001 0.0001 0.0001 0.0001 0 0 0.0001 0 0.0001 35:1 36:1 43:1 44:1 45:1 49:1 50:1 51:1 53:1 54:1 57:1 62:1 63:1 65:1 71:1 72:1 73:1 80:1 81:1 82:1 88:1 90:1 91:1 92:1 93:1 94:1 95:1 96:1 
0.0001 0.0001 0.0001 0 0.0001 0.0001 0 0.0001 0.0001 0.0001 0 0.0001 0 0.0001 0 0 0.0001 0 0.0001 0 0 0 0 0 0 31:1 32:1 38:1 39:1 40:1 44:1 45:1 48:1 50:1 51:1 52:1 53:1 56:1 57:1 58:1 64:1 65:1 71:1 72:1 73:1 78:1 79:1 81:1 84:1 85:1 86:1 89:1 91:1 92:1 97:1 98:1 99:1 
0.0001 0.0001 0.0001 0 0.0001 0.0001 0 0.0001 0.0001 0.0001 0.0001 0.0001 0 0.0001 0 0 0.0001 0 0 0 0 0 0 0 0 19:1 20:1 21:1 29:1 30:1 34:1 38:1 39:1 42:1 47:1 48:1 49:1 50:1 56:1 57:1 64:1 65:1 72:1 73:1 80:1 81:1 88:1 89:1 96:1 98:1 104:1 107:1 108:1 109:1 110:1 111:1 112:1 
0 0 0.0001 0 0.0001 0 0 0 0 0.0001 0 0 0 0 0 0 0 0 0 0 0 0 0 0 0 19:1 20:1 26:1 27:1 29:1 30:1 31:1 33:1 34:1 39:1 40:1 41:1 42:1 48:1 49:1 56:1 57:1 64:1 65:1 72:1 73:1 79:1 80:1 81:1 87:1 89:1 94:1 95:1 97:1 98:1 99:1 101:1 102:1 107:1 108:1 109:1 
0 0.0001 0.0001 0 0.0001 0.0001 0 0.0001 0.0001 0.0001 0.0001 0.0001 0 0.0001 0 0 0.0001 0 0 0 0 0 0 0 0 27:1 28:1 29:1 34:1 35:1 37:1 38:1 42:1 46:1 47:1 49:1 55:1 57:1 63:1 64:1 65:1 72:1 73:1 80:1 81:1 82:1 88:1 90:1 91:1 95:1 96:1 99:1 100:1 101:1 102:1 103:1 
0 0.0001 0.0001 0.0001 0.0001 0.0001 0 0.0001 0 0.0001 0 0.0001 0 0.0001 0 0 0.0001 0 0.0001 0 0 0 0 0 0 3:1 4:1 5:1 11:1 12:1 13:1 14:1 15:1 19:1 23:1 27:1 31:1 32:1 35:1 40:1 43:1 48:1 50:1 51:1 56:1 58:1 64:1 66:1 71:1 72:1 74:1 79:1 81:1 82:1 87:1 89:1 95:1 97:1 102:1 103:1 105:1 110:1 113:1 117:1 118:1 121:1 122:1 123:1 124:1 125:1 
0 0.0001 0.0001 0 0.0001 0.0001 0 0.0001 0 0.0001 0 0.0001 0 0 0.0001 0 0 0 0 0 0 0 0 0 0 6:1 13:1 14:1 20:1 21:1 22:1 27:1 28:1 30:1 31:1 34:1 35:1 39:1 40:1 42:1 48:1 49:1 50:1 56:1 57:1 64:1 65:1 72:1 73:1 80:1 81:1 88:1 89:1 96:1 97:1 104:1 105:1 106:1 112:1 114:1 119:1 120:1 123:1 124:1 125:1 126:1 127:1 
0.0001 0.0001 0.0001 0.0001 0.0001 0.0001 0.0001 0.0001 0.0001 0.0001 0.0001 0.0001 0.0001 0.0001 0.0001 0.0001 0.0001 0.0001 0.0001 0.0001 0 0.0001 0.0001 0 0.0001 43:1 44:1 50:1 51:1 52:1 53:1 54:1 55:1 56:1 57:1 58:1 64:1 65:1 72:1 73:1 76:1 77:1 78:1 79:1 80:1 81:1 82:1 83:1 84:1 
0 0.0001 0.0001 0 0.0001 0 0 0 0 0.0001 0 0 0 0 0 0 0.0001 0 0 0 0 0 0 0 0 17:1 18:1 19:1 20:1 21:1 22:1 25:1 30:1 31:1 33:1 39:1 40:1 41:1 48:1 49:1 56:1 57:1 64:1 65:1 72:1 73:1 80:1 81:1 88:1 89:1 95:1 96:1 97:1 98:1 102:1 103:1 106:1 107:1 108:1 109:1 110:1 
0 0.0001 0.0001 0 0.0001 0 0 0 0 0.0001 0 0 0 0 0 0 0 0 0 0 0 0 0 0 0 11:1 12:1 13:1 18:1 19:1 20:1 21:1 22:1 26:1 28:1 29:1 30:1 31:1 34:1 39:1 41:1 47:1 49:1 55:1 56:1 57:1 64:1 65:1 72:1 73:1 80:1 81:1 88:1 89:1 95:1 96:1 97:1 102:1 103:1 105:1 106:1 109:1 110:1 114:1 115:1 116:1 117:1 
0.0001 0.0001 0.0001 0.0001 0.0001 0.0001 0.0001 0.0001 0.0001 0.0001 0.0001 0.0001 0.0001 0.0001 0.0001 0.0001 0.0001 0.0001 0.0001 0.0001 0.0001 0.0001 0.0001 0 0.0001 5:1 6:1 13:1 20:1 21:1 28:1 29:1 36:1 37:1 38:1 43:1 44:1 46:1 51:1 54:1 59:1 62:1 67:1 70:1 75:1 78:1 83:1 86:1 91:1 94:1 99:1 102:1 107:1 110:1 115:1 118:1 123:1 124:1 125:1 
0 0.0001 0.0001 0 0.0001 0 0 0 0 0.0001 0 0 0 0 0 0 0 0 0 0 0 0 0 0 0 35:1 36:1 37:1 38:1 39:1 42:1 43:1 47:1 48:1 49:1 50:1 56:1 57:1 64:1 65:1 72:1 73:1 79:1 80:1 81:1 87:1 89:1 90:1 91:1 92:1 93:1 94:1 95:1 
0 0.0001 0.0001 0 0.0001 0 0 0 0 0.0001 0 0 0 0 0 0 0 0 0 0 0 0 0 0 0 31:1 32:1 35:1 36:1 37:1 38:1 39:1 40:1 42:1 43:1 48:1 49:1 50:1 56:1 57:1 64:1 65:1 72:1 73:1 80:1 81:1 87:1 88:1 89:1 90:1 94:1 95:1 98:1 99:1 100:1 101:1 102:1 
0 0.0001 0.0001 0 0.0001 0 0 0 0.0001 0.0001 0 0 0 0 0 0 0 0 0 0 0 0.0001 0 0 0 34:1 35:1 36:1 37:1 38:1 39:1 40:1 42:1 43:1 44:1 48:1 50:1 56:1 57:1 64:1 65:1 72:1 73:1 80:1 81:1 87:1 88:1 89:1 90:1 91:1 92:1 93:1 94:1 95:1 
0 0.0001 0.0001 0 0.0001 0 0 0 0 0.0001 0 0 0 0 0 0 0 0 0 0 0 0 0 0 0 20:1 27:1 28:1 35:1 36:1 37:1 38:1 39:1 43:1 47:1 48:1 50:1 51:1 56:1 58:1 64:1 65:1 66:1 72:1 73:1 79:1 80:1 81:1 86:1 87:1 89:1 93:1 94:1 97:1 100:1 101:1 105:1 106:1 107:1 108:1 
0.0001 0.0001 0.0001 0.0001 0.0001 0.0001 0.0001 0.0001 0.0001 0.0001 0.0001 0.0001 0.0001 0.0001 0.0001 0.0001 0.0001 0.0001 0.0001 0.0001 0 0 0.0001 0 0.0001 26:1 27:1 28:1 29:1 30:1 33:1 34:1 38:1 39:1 41:1 47:1 48:1 49:1 56:1 57:1 64:1 65:1 71:1 72:1 73:1 79:1 83:1 87:1 91:1 92:1 95:1 100:1 101:1 102:1 
0.0001 0.0001 0.0001 0.0001 0.0001 0.0001 0.0001 0.0001 0.0001 0.0001 0.0001 0.0001 0.0001 0.0001 0.0001 0.0001 0.0001 0.0001 0.0001 0.0001 0 0 0.0001 0.0001 0.0001 25:1 33:1 41:1 49:1 50:1 51:1 52:1 57:1 61:1 65:1 69:1 70:1 71:1 72:1 73:1 79:1 80:1 81:1 86:1 87:1 89:1 90:1 91:1 93:1 94:1 99:1 100:1 101:1 
0.0001 0.0001 0.0001 0 0.0001 0.0001 0.0001 0.0001 0.0001 0.0001 0.0001 0.0001 0 0.0001 0.0001 0.0001 0.0001 0 0.0001 0.0001 0 0 0 0 0 9:1 10:1 11:1 12:1 13:1 14:1 17:1 22:1 23:1 25:1 31:1 32:1 33:1 40:1 41:1 48:1 49:1 56:1 57:1 64:1 65:1 72:1 73:1 80:1 81:1 88:1 89:1 96:1 97:1 98:1 104:1 106:1 112:1 115:1 116:1 117:1 118:1 119:1 120:1 
0.0001 0.0001 0.0001 0 0.0001 0.0001 0 0.0001 0.0001 0.0001 0.0001 0.0001 0 0.0001 0 0 0.0001 0 0.0001 0 0 0 0 0 0 42:1 43:1 44:1 45:1 46:1 47:1 49:1 50:1 51:1 55:1 56:1 57:1 64:1 65:1 72:1 73:1 79:1 80:1 81:1 82:1 83:1 84:1 85:1 86:1 87:1 
0.0001 0.0001 0.0001 0 0.0001 0.0001 0 0.0001 0.0001 0.0001 0 0.0001 0 0 0 0 0 0 0 0 0 0 0 0 0 18:1 19:1 20:1 21:1 29:1 30:1 36:1 38:1 39:1 44:1 47:1 50:1 51:1 52:1 55:1 56:1 57:1 58:1 64:1 65:1 72:1 73:1 80:1 81:1 88:1 89:1 96:1 97:1 98:1 103:1 104:1 106:1 107:1 108:1 109:1 110:1 111:1 
0.0001 0.0001 0.0001 0 0.0001 0.0001 0.0001 0.0001 0.0001 0.0001 0.0001 0.0001 0 0.0001 0.0001 0.0001 0.0001 0 0.0001 0.0001 0 0 0 0 0.0001 1:1 2:1 3:1 9:1 11:1 12:1 13:1 17:1 21:1 22:1 26:1 30:1 31:1 34:1 39:1 42:1 48:1 49:1 50:1 56:1 57:1 64:1 65:1 66:1 72:1 74:1 80:1 82:1 88:1 90:1 91:1 96:1 99:1 103:1 104:1 107:1 108:1 110:1 111:1 116:1 117:1 118:1 126:1 
0.0001 0.0001 0.0001 0.0001 0.0001 0.0001 0 0.0001 0.0001 0.0001 0.0001 0.0001 0 0.0001 0 0 0.0001 0 0.0001 0 0 0 0 0 0 27:1 28:1 29:1 34:1 35:1 36:1 37:1 41:1 42:1 45:1 46:1 49:1 54:1 55:1 57:1 63:1 65:1 71:1 72:1 73:1 80:1 81:1 82:1 88:1 90:1 91:1 92:1 96:1 100:1 101:1 102:1 103:1 104:1 
0 0 0.0001 0 0.0001 0 0 0 0 0.0001 0 0 0 0 0 0 0 0 0 0 0 0 0 0 0 20:1 21:1 22:1 26:1 27:1 28:1 29:1 30:1 31:1 33:1 34:1 36:1 38:1 39:1 41:1 48:1 49:1 56:1 57:1 64:1 65:1 72:1 73:1 79:1 80:1 81:1 87:1 89:1 94:1 95:1 97:1 101:1 102:1 105:1 106:1 107:1 108:1 109:1 
0.0001 0.0001 0.0001 0 0.0001 0.0001 0 0.0001 0.0001 0.0001 0.0001 0.0001 0 0.0001 0.0001 0 0.0001 0.0001 0.0001 0 0 0 0.0001 0 0 19:1 20:1 21:1 26:1 27:1 29:1 30:1 34:1 38:1 39:1 47:1 49:1 55:1 56:1 57:1 64:1 65:1 72:1 73:1 80:1 81:1 88:1 89:1 96:1 97:1 98:1 104:1 107:1 108:1 109:1 110:1 111:1 
0 0 0.0001 0 0.0001 0.0001 0 0 0 0.0001 0 0 0 0 0 0 0 0 0 0 0 0 0 0 0 3:1 11:1 12:1 20:1 21:1 27:1 28:1 29:1 30:1 31:1 32:1 34:1 35:1 38:1 39:1 40:1 41:1 42:1 47:1 48:1 49:1 55:1 56:1 57:1 63:1 64:1 65:1 72:1 73:1 80:1 81:1 88:1 89:1 90:1 96:1 98:1 104:1 106:1 107:1 112:1 115:1 116:1 118:1 119:1 120:1 124:1 125:1 126:1 
0 0.0001 0.0001 0 0.0001 0 0 0.0001 0 0.0001 0 0.0001 0 0 0 0 0.0001 0 0 0 0 0 0 0 0 19:1 20:1 21:1 22:1 25:1 26:1 30:1 31:1 32:1 33:1 40:1 41:1 48:1 49:1 56:1 57:1 64:1 65:1 72:1 73:1 80:1 81:1 87:1 88:1 89:1 94:1 95:1 97:1 100:1 101:1 102:1 105:1 106:1 107:1 108:1 
0 0.0001 0.0001 0 0.0001 0 0 0 0 0.0001 0 0 0 0 0 0 0 0 0 0 0 0 0 0 0 19:1 20:1 21:1 22:1 26:1 27:1 30:1 31:1 33:1 34:1 39:1 40:1 41:1 48:1 49:1 56:1 57:1 64:1 65:1 72:1 73:1 80:1 81:1 88:1 89:1 95:1 96:1 97:1 98:1 102:1 103:1 106:1 107:1 108:1 109:1 110:1 
0 0.0001 0.0001 0 0.0001 0 0 0 0 0.0001 0 0 0 0 0 0 0 0 0 0 0 0 0 0 0 17:1 18:1 19:1 20:1 25:1 28:1 29:1 30:1 33:1 35:1 36:1 38:1 39:1 42:1 43:1 47:1 48:1 50:1 56:1 57:1 58:1 64:1 65:1 72:1 73:1 80:1 81:1 88:1 89:1 95:1 96:1 97:1 98:1 101:1 102:1 103:1 107:1 108:1 109:1 
0 0.0001 0.0001 0 0.0001 0 0 0 0 0.0001 0 0 0 0 0 0 0 0 0 0 0 0 0 0 0 20:1 21:1 22:1 23:1 27:1 28:1 31:1 32:1 35:1 40:1 42:1 43:1 48:1 49:1 50:1 56:1 57:1 64:1 65:1 72:1 73:1 79:1 80:1 81:1 87:1 89:1 94:1 95:1 97:1 98:1 101:1 102:1 106:1 107:1 108:1 109:1 
0 0.0001 0.0001 0 0.0001 0 0 0 0 0.0001 0 0 0 0 0 0 0 0 0 0 0 0 0 0 0 29:1 30:1 31:1 35:1 36:1 37:1 39:1 40:1 43:1 48:1 50:1 51:1 56:1 57:1 58:1 64:1 65:1 72:1 73:1 80:1 81:1 87:1 88:1 89:1 90:1 93:1 94:1 95:1 98:1 99:1 100:1 101:1 
0 0 0.0001 0 0.0001 0 0 0 0 0.0001 0 0 0 0 0 0 0 0 0 0 0 0 0 0 0 19:1 20:1 21:1 22:1 27:1 30:1 31:1 34:1 35:1 39:1 40:1 41:1 42:1 48:1 49:1 56:1 57:1 64:1 65:1 72:1 73:1 80:1 81:1 88:1 89:1 95:1 96:1 97:1 101:1 102:1 103:1 105:1 106:1 107:1 108:1 109:1 
0 0.0001 0.0001 0 0.0001 0 0 0 0 0.0001 0 0 0 0 0 0 0 0 0 0 0 0 0 0 0 27:1 28:1 29:1 30:1 31:1 34:1 35:1 39:1 41:1 42:1 47:1 48:1 49:1 56:1 57:1 64:1 65:1 72:1 73:1 80:1 81:1 82:1 88:1 89:1 90:1 91:1 95:1 96:1 99:1 100:1 101:1 102:1 103:1 
0 0.0001 0.0001 0.0001 0.0001 0 0 0 0 0.0001 0 0 0 0 0 0 0 0 0 0 0 0 0 0 0 9:1 10:1 11:1 12:1 20:1 21:1 22:1 30:1 31:1 34:1 35:1 39:1 40:1 42:1 48:1 49:1 50:1 56:1 57:1 64:1 65:1 72:1 73:1 80:1 81:1 88:1 89:1 96:1 97:1 102:1 103:1 104:1 105:1 109:1 110:1 113:1 114:1 115:1 116:1 117:1 
0.0001 0.0001 0.0001 0 0.0001 0.0001 0 0.0001 0.0001 0.0001 0 0.0001 0 0 0 0 0.0001 0 0 0 0 0 0 0 0 36:1 37:1 38:1 39:1 42:1 43:1 44:1 47:1 48:1 49:1 50:1 56:1 57:1 64:1 65:1 72:1 73:1 78:1 79:1 80:1 81:1 82:1 83:1 85:1 86:1 91:1 92:1 93:1 
0.0001 0.0001 0.0001 0.0001 0.0001 0.0001 0.0001 0.0001 0.0001 0.0001 0.0001 0.0001 0.0001 0.0001 0.0001 0.0001 0.0001 0.0001 0.0001 0.0001 0 0 0.0001 0 0.0001 7:1 14:1 15:1 22:1 29:1 30:1 36:1 37:1 39:1 43:1 44:1 47:1 51:1 55:1 58:1 59:1 63:1 66:1 71:1 74:1 79:1 82:1 86:1 87:1 90:1 94:1 98:1 101:1 102:1 106:1 109:1 114:1 116:1 117:1 122:1 123:1 124:1 
0.0001 0.0001 0.0001 0.0001 0.0001 0.0001 0.0001 0.0001 0.0001 0.0001 0.0001 0.0001 0.0001 0.0001 0.0001 0.0001 0.0001 0.0001 0.0001 0.0001 0.0001 0 0.0001 0 0.0001 7:1 8:1 15:1 22:1 24:1 30:1 32:1 37:1 40:1 45:1 48:1 52:1 53:1 56:1 60:1 64:1 67:1 68:1 71:1 72:1 75:1 79:1 82:1 87:1 90:1 94:1 97:1 102:1 105:1 109:1 110:1 113:1 117:1 121:1 122:1 123:1 124:1 
0 0 0.0001 0 0.0001 0 0 0 0 0.0001 0 0 0 0 0 0 0 0 0 0 0 0 0 0 0 12:1 13:1 14:1 19:1 20:1 21:1 22:1 23:1 26:1 27:1 29:1 31:1 34:1 40:1 41:1 42:1 48:1 49:1 56:1 57:1 64:1 65:1 72:1 73:1 80:1 81:1 87:1 88:1 89:1 94:1 95:1 97:1 101:1 102:1 105:1 107:1 108:1 109:1 113:1 114:1 115:1 
0.0001 0.0001 0.0001 0 0.0001 0.0001 0 0.0001 0.0001 0.0001 0 0.0001 0 0.0001 0 0 0.0001 0 0.0001 0 0 0 0 0 0 36:1 37:1 38:1 39:1 43:1 44:1 45:1 46:1 47:1 48:1 50:1 51:1 56:1 58:1 64:1 66:1 72:1 73:1 79:1 80:1 81:1 85:1 86:1 87:1 89:1 90:1 91:1 92:1 93:1 
0.0001 0.0001 0.0001 0 0.0001 0.0001 0 0.0001 0.0001 0.0001 0.0001 0.0001 0 0.0001 0 0 0.0001 0 0.0001 0 0 0 0 0 0 35:1 36:1 37:1 39:1 42:1 47:1 48:1 49:1 50:1 56:1 57:1 64:1 65:1 72:1 73:1 79:1 80:1 81:1 86:1 87:1 89:1 90:1 91:1 92:1 93:1 94:1 
0.0001 0.0001 0.0001 0.0001 0.0001 0.0001 0 0.0001 0.0001 0.0001 0.0001 0.0001 0 0.0001 0.0001 0.0001 0.0001 0 0.0001 0 0 0 0 0 0.0001 24:1 32:1 40:1 44:1 45:1 46:1 47:1 48:1 51:1 52:1 55:1 56:1 59:1 64:1 66:1 67:1 72:1 73:1 74:1 80:1 81:1 87:1 88:1 89:1 94:1 95:1 97:1 100:1 101:1 102:1 105:1 106:1 107:1 108:1 
0.0001 0.0001 0.0001 0.0001 0.0001 0.0001 0.0001 0.0001 0.0001 0.0001 0.0001 0.0001 0 0.0001 0.0001 0 0.0001 0 0.0001 0 0 0.0001 0 0 0.0001 4:1 5:1 6:1 12:1 13:1 14:1 19:1 20:1 21:1 22:1 23:1 27:1 29:1 31:1 34:1 35:1 37:1 39:1 42:1 47:1 50:1 55:1 58:1 63:1 66:1 71:1 74:1 79:1 82:1 87:1 90:1 95:1 98:1 102:1 103:1 106:1 110:1 114:1 117:1 118:1 122:1 123:1 124:1 125:1 
0 0.0001 0.0001 0 0.0001 0.0001 0 0 0 0.0001 0 0.0001 0 0 0 0 0.0001 0 0 0 0 0 0 0 0 5:1 6:1 7:1 12:1 13:1 14:1 15:1 16:1 20:1 24:1 28:1 32:1 35:1 40:1 43:1 48:1 50:1 51:1 56:1 58:1 64:1 65:1 66:1 72:1 73:1 79:1 80:1 81:1 87:1 89:1 94:1 95:1 97:1 102:1 105:1 109:1 110:1 113:1 117:1 121:1 122:1 123:1 124:1 125:1 
0.0001 0.0001 0.0001 0 0.0001 0.0001 0 0.0001 0 0.0001 0 0.0001 0 0 0 0 0 0 0 0 0 0 0 0 0 35:1 36:1 37:1 38:1 41:1 42:1 44:1 46:1 47:1 49:1 52:1 55:1 56:1 57:1 64:1 65:1 72:1 73:1 80:1 81:1 82:1 83:1 87:1 88:1 91:1 92:1 93:1 94:1 95:1 
0.0001 0.0001 0.0001 0.0001 0.0001 0.0001 0.0001 0.0001 0.0001 0.0001 0.0001 0.0001 0.0001 0.0001 0.0001 0.0001 0.0001 0.0001 0.0001 0 0 0 0 0 0.0001 43:1 44:1 45:1 46:1 47:1 49:1 50:1 51:1 55:1 56:1 57:1 64:1 65:1 72:1 73:1 74:1 78:1 79:1 80:1 82:1 83:1 84:1 85:1 86:1 
0.0001 0.0001 0.0001 0.0001 0.0001 0.0001 0 0.0001 0.0001 0.0001 0.0001 0.0001 0 0.0001 0.0001 0 0.0001 0 0.0001 0 0 0 0 0 0 20:1 28:1 29:1 36:1 37:1 43:1 44:1 45:1 46:1 50:1 51:1 54:1 55:1 57:1 58:1 63:1 64:1 65:1 72:1 73:1 80:1 81:1 88:1 89:1 95:1 96:1 97:1 98:1 99:1 102:1 103:1 107:1 108:1 109:1 110:1 
0 0.0001 0.0001 0 0.0001 0 0 0 0 0.0001 0 0.0001 0 0 0 0 0 0 0 0 0 0 0 0 0 34:1 35:1 36:1 37:1 38:1 42:1 46:1 47:1 48:1 50:1 51:1 52:1 56:1 57:1 58:1 64:1 65:1 72:1 73:1 79:1 80:1 81:1 86:1 87:1 89:1 90:1 91:1 92:1 93:1 94:1 
0.0001 0.0001 0.0001 0 0.0001 0.0001 0 0.0001 0.0001 0.0001 0 0.0001 0 0.0001 0 0 0.0001 0 0 0 0 0 0 0 0 30:1 36:1 38:1 39:1 43:1 44:1 47:1 48:1 50:1 51:1 56:1 57:1 58:1 64:1 65:1 72:1 73:1 80:1 81:1 88:1 89:1 90:1 95:1 96:1 98:1 99:1 100:1 101:1 102:1 103:1 
0.0001 0.0001 0.0001 0 0.0001 0.0001 0 0.0001 0 0.0001 0 0.0001 0 0 0 0 0.0001 0 0 0 0 0 0 0 0 35:1 36:1 37:1 38:1 42:1 43:1 46:1 47:1 48:1 50:1 51:1 56:1 57:1 58:1 64:1 65:1 72:1 73:1 79:1 80:1 81:1 84:1 85:1 86:1 87:1 89:1 90:1 91:1 92:1 
0.0001 0.0001 0.0001 0.0001 0.0001 0.0001 0.0001 0.0001 0.0001 0.0001 0.0001 0.0001 0 0.0001 0.0001 0 0.0001 0 0.0001 0 0.0001 0 0 0 0 1:1 2:1 3:1 4:1 11:1 12:1 18:1 20:1 21:1 26:1 29:1 33:1 34:1 37:1 38:1 41:1 46:1 49:1 54:1 57:1 63:1 65:1 71:1 72:1 73:1 80:1 81:1 88:1 89:1 96:1 97:1 98:1 103:1 104:1 106:1 111:1 114:1 115:1 118:1 119:1 123:1 124:1 125:1 126:1 
0 0.0001 0.0001 0 0.0001 0 0 0 0 0.0001 0 0 0 0 0 0 0 0 0 0 0 0 0 0 0 20:1 21:1 22:1 23:1 24:1 27:1 28:1 32:1 34:1 35:1 36:1 40:1 41:1 42:1 48:1 49:1 56:1 57:1 64:1 65:1 72:1 73:1 80:1 81:1 88:1 89:1 95:1 96:1 97:1 98:1 99:1 103:1 107:1 108:1 109:1 110:1 111:1 
0 0.0001 0.0001 0 0.0001 0 0 0 0 0.0001 0 0 0 0 0 0 0 0 0 0 0 0 0 0 0 17:1 18:1 19:1 20:1 21:1 22:1 25:1 26:1 30:1 31:1 34:1 35:1 39:1 41:1 47:1 48:1 49:1 56:1 57:1 64:1 65:1 72:1 73:1 80:1 81:1 87:1 88:1 89:1 94:1 95:1 97:1 101:1 102:1 105:1 106:1 107:1 108:1 109:1 
0 0 0.0001 0 0.0001 0 0 0 0 0.0001 0 0 0 0 0 0 0 0 0 0 0 0 0 0 0 27:1 28:1 29:1 30:1 34:1 35:1 37:1 38:1 39:1 41:1 42:1 46:1 47:1 48:1 49:1 56:1 57:1 64:1 65:1 72:1 73:1 80:1 81:1 87:1 88:1 89:1 90:1 94:1 95:1 98:1 99:1 100:1 101:1 102:1 
0 0.0001 0.0001 0 0.0001 0 0 0 0 0.0001 0 0 0 0 0 0 0 0 0 0 0 0 0 0 0 30:1 36:1 37:1 38:1 39:1 40:1 42:1 43:1 44:1 48:1 50:1 56:1 57:1 58:1 64:1 65:1 72:1 73:1 79:1 80:1 81:1 86:1 87:1 89:1 90:1 92:1 93:1 94:1 98:1 99:1 100:1 
0.0001 0.0001 0.0001 0.0001 0.0001 0.0001 0.0001 0.0001 0.0001 0.0001 0.0001 0.0001 0.0001 0.0001 0.0001 0.0001 0.0001 0.0001 0.0001 0.0001 0 0 0.0001 0 0.0001 30:1 31:1 32:1 37:1 38:1 40:1 45:1 46:1 48:1 52:1 53:1 54:1 56:1 59:1 60:1 62:1 63:1 66:1 67:1 68:1 70:1 73:1 74:1 77:1 78:1 81:1 84:1 85:1 89:1 91:1 92:1 97:1 98:1 99:1 
0 0.0001 0.0001 0 0.0001 0 0 0 0 0.0001 0 0 0 0 0 0 0 0 0 0 0 0 0 0 0 12:1 13:1 19:1 20:1 21:1 22:1 27:1 30:1 31:1 34:1 35:1 39:1 40:1 41:1 42:1 48:1 49:1 56:1 57:1 64:1 65:1 72:1 73:1 80:1 81:1 88:1 89:1 96:1 97:1 103:1 104:1 105:1 106:1 109:1 110:1 111:1 114:1 115:1 116:1 117:1 
0 0 0.0001 0 0.0001 0 0 0 0 0.0001 0 0 0 0 0 0 0 0 0 0 0 0 0 0 0 21:1 22:1 23:1 27:1 28:1 29:1 31:1 32:1 35:1 39:1 40:1 42:1 43:1 48:1 49:1 50:1 56:1 57:1 64:1 65:1 72:1 73:1 80:1 81:1 87:1 88:1 89:1 94:1 95:1 97:1 98:1 101:1 102:1 106:1 107:1 108:1 109:1 
0.0001 0.0001 0.0001 0 0.0001 0.0001 0 0.0001 0 0.0001 0 0.0001 0 0 0 0 0 0 0 0 0 0 0 0 0 35:1 36:1 37:1 43:1 45:1 46:1 47:1 48:1 49:1 50:1 51:1 52:1 53:1 54:1 55:1 56:1 57:1 58:1 64:1 65:1 72:1 73:1 80:1 81:1 82:1 87:1 90:1 91:1 92:1 93:1 94:1 95:1 
0 0.0001 0.0001 0 0.0001 0 0 0 0 0.0001 0 0 0 0 0 0 0 0 0 0 0 0 0 0 0 28:1 29:1 30:1 31:1 32:1 35:1 36:1 37:1 40:1 42:1 43:1 45:1 48:1 49:1 50:1 56:1 57:1 64:1 65:1 72:1 73:1 79:1 80:1 81:1 87:1 89:1 94:1 95:1 97:1 98:1 99:1 100:1 101:1 102:1 
0 0.0001 0.0001 0 0.0001 0.0001 0 0.0001 0.0001 0.0001 0 0.0001 0 0 0 0 0.0001 0 0 0 0 0 0 0 0 36:1 37:1 38:1 39:1 40:1 42:1 43:1 44:1 48:1 49:1 50:1 56:1 57:1 64:1 65:1 71:1 72:1 73:1 79:1 81:1 85:1 86:1 87:1 89:1 90:1 91:1 92:1 93:1 
0 0.0001 0.0001 0 0.0001 0 0 0 0 0.0001 0 0 0 0 0 0 0.0001 0 0 0 0 0 0 0 0 27:1 28:1 29:1 30:1 31:1 32:1 34:1 35:1 40:1 41:1 42:1 48:1 49:1 56:1 57:1 64:1 65:1 72:1 73:1 80:1 81:1 87:1 88:1 89:1 90:1 93:1 94:1 95:1 98:1 99:1 100:1 101:1 
0.0001 0.0001 0.0001 0 0.0001 0.0001 0 0.0001 0.0001 0.0001 0 0.0001 0 0 0 0 0.0001 0 0.0001 0 0 0 0 0 0 6:1 7:1 13:1 14:1 15:1 20:1 21:1 23:1 24:1 28:1 31:1 32:1 35:1 36:1 40:1 43:1 48:1 50:1 51:1 56:1 58:1 64:1 66:1 72:1 73:1 74:1 80:1 81:1 88:1 89:1 96:1 97:1 103:1 104:1 105:1 110:1 111:1 113:1 117:1 118:1 121:1 122:1 123:1 124:1 125:1 
0.0001 0.0001 0.0001 0 0.0001 0.0001 0 0.0001 0.0001 0.0001 0 0.0001 0 0.0001 0 0 0.0001 0 0.0001 0 0 0 0 0 0 35:1 41:1 42:1 43:1 44:1 45:1 46:1 49:1 54:1 55:1 56:1 57:1 64:1 65:1 72:1 73:1 80:1 81:1 82:1 83:1 84:1 86:1 87:1 88:1 92:1 93:1 94:1 
0 0.0001 0.0001 0 0.0001 0.0001 0 0.0001 0.0001 0.0001 0 0.0001 0 0 0 0 0.0001 0 0 0 0 0 0 0 0 20:1 21:1 22:1 23:1 24:1 27:1 28:1 32:1 34:1 40:1 41:1 42:1 48:1 49:1 56:1 57:1 64:1 65:1 72:1 73:1 80:1 81:1 88:1 89:1 96:1 97:1 98:1 99:1 100:1 101:1 102:1 103:1 104:1 106:1 
0.0001 0.0001 0.0001 0.0001 0.0001 0.0001 0.0001 0.0001 0.0001 0.0001 0.0001 0.0001 0.0001 0.0001 0.0001 0.0001 0.0001 0.0001 0.0001 0.0001 0.0001 0 0.0001 0.0001 0.0001 5:1 6:1 13:1 14:1 15:1 23:1 26:1 31:1 34:1 39:1 42:1 47:1 50:1 55:1 58:1 63:1 66:1 71:1 74:1 79:1 82:1 87:1 90:1 95:1 98:1 102:1 103:1 106:1 110:1 114:1 118:1 123:1 124:1 125:1 126:1 
0 0.0001 0.0001 0 0.0001 0 0 0 0 0.0001 0 0 0 0 0 0 0 0 0 0 0 0 0 0 0 29:1 30:1 35:1 36:1 37:1 38:1 39:1 42:1 43:1 44:1 45:1 46:1 50:1 51:1 52:1 54:1 55:1 57:1 58:1 63:1 64:1 65:1 72:1 73:1 80:1 81:1 87:1 88:1 89:1 92:1 93:1 94:1 95:1 97:1 98:1 99:1 100:1 
0.0001 0.0001 0.0001 0.0001 0.0001 0.0001 0.0001 0.0001 0.0001 0.0001 0.0001 0.0001 0.0001 0.0001 0.0001 0.0001 0.0001 0.0001 0.0001 0.0001 0.0001 0.0001 0.0001 0.0001 0.0001 22:1 23:1 24:1 29:1 30:1 32:1 35:1 36:1 37:1 40:1 43:1 48:1 51:1 56:1 58:1 59:1 64:1 66:1 71:1 72:1 73:1 74:1 78:1 79:1 81:1 85:1 86:1 89:1 92:1 93:1 97:1 99:1 100:1 105:1 106:1 107:1 
-0.0001 0.0001 0.0001 0.0001 0.0001 0.0001 0.0001 0.0001 0.0001 0.0001 0.0001 0.0001 0.0001 0.0001 0.0001 0.0001 0.0001 0.0001 0.0001 0.0001 0 0 0 0 0.0001 50:1 51:1 52:1 53:1 54:1 55:1 57:1 58:1 60:1 61:1 63:1 64:1 65:1 67:1 68:1 72:1 73:1 75:1 76:1 80:1 
-0.0001 0.0001 0.0001 0.0001 0.0001 0.0001 0.0001 0.0001 0.0001 0.0001 0.0001 0.0001 0.0001 0.0001 0.0001 0.0001 0.0001 0.0001 0.0001 0.0001 0 0 0.0001 0 0.0001 49:1 50:1 51:1 54:1 55:1 57:1 59:1 61:1 62:1 63:1 65:1 67:1 68:1 69:1 71:1 73:1 76:1 79:1 80:1 
-0.0001 0.0001 0.0001 0.0001 0.0001 0.0001 0.0001 0.0001 0.0001 0.0001 0.0001 0.0001 0.0001 0.0001 0.0001 0.0001 0.0001 0.0001 0.0001 0.0001 0 0 0 0.0001 0.0001 47:1 49:1 52:1 53:1 55:1 56:1 57:1 59:1 60:1 61:1 62:1 63:1 64:1 65:1 66:1 67:1 69:1 70:1 72:1 74:1 75:1 77:1 78:1 80:1 82:1 
-0.0001 0.0001 0.0001 0.0001 0.0001 0.0001 0.0001 0.0001 0.0001 0.0001 0.0001 0.0001 0.0001 0.0001 0.0001 0.0001 0.0001 0.0001 0.0001 0.0001 0 0 0.0001 0 0.0001 41:1 49:1 52:1 53:1 55:1 57:1 59:1 60:1 61:1 63:1 64:1 65:1 67:1 69:1 70:1 71:1 72:1 73:1 74:1 75:1 77:1 78:1 80:1 81:1 82:1 
-0.0001 0.0001 0.0001 0.0001 0.0001 0.0001 0.0001 0.0001 0.0001 0.0001 0.0001 0.0001 0.0001 0.0001 0.0001 0.0001 0.0001 0.0001 0.0001 0.0001 0.0001 0.0001 0.0001 0 0.0001 49:1 57:1 58:1 59:1 60:1 61:1 62:1 63:1 65:1 66:1 69:1 71:1 72:1 73:1 
-0.0001 0.0001 0.0001 0.0001 0.0001 0.0001 0.0001 0.0001 0.0001 0.0001 0.0001 0.0001 0.0001 0.0001 0.0001 0.0001 0.0001 0.0001 0.0001 0.0001 0.0001 0 0.0001 0 0.0001 49:1 57:1 58:1 59:1 60:1 61:1 62:1 63:1 64:1 65:1 68:1 69:1 72:1 80:1 
-0.0001 0.0001 0.0001 0.0001 0.0001 0.0001 0.0001 0.0001 0.0001 0.0001 0.0001 0.0001 0 0.0001 0.0001 0.0001 0.0001 0.0001 0.0001 0 0 0 0 0 0.0001 49:1 51:1 52:1 54:1 55:1 57:1 58:1 59:1 60:1 61:1 62:1 63:1 64:1 65:1 66:1 69:1 72:1 74:1 77:1 80:1 
-0.0001 0.0001 0.0001 0.0001 0.0001 0.0001 0.0001 0.0001 0.0001 0.0001 0.0001 0.0001 0.0001 0.0001 0.0001 0.0001 0.0001 0.0001 0.0001 0.0001 0 0 0.0001 0 0.0001 49:1 53:1 54:1 55:1 57:1 58:1 59:1 60:1 61:1 63:1 64:1 65:1 67:1 68:1 72:1 73:1 75:1 80:1 
-0.0001 0.0001 0.0001 0.0001 0.0001 0.0001 0.0001 0.0001 0.0001 0.0001 0.0001 0.0001 0.0001 0.0001 0.0001 0.0001 0.0001 0.0001 0.0001 0.0001 0 0 0.0001 0 0.0001 50:1 51:1 52:1 54:1 55:1 56:1 57:1 58:1 60:1 61:1 62:1 64:1 65:1 68:1 69:1 72:1 73:1 
-0.0001 0.0001 0.0001 0.0001 0.0001 0.0001 0.0001 0.0001 0.0001 0.0001 0.0001 0.0001 0.0001 0.0001 0.0001 0.0001 0.0001 0.0001 0.0001 0.0001 0 0 0.0001 0 0.0001 51:1 52:1 54:1 55:1 56:1 58:1 59:1 60:1 61:1 62:1 64:1 65:1 66:1 69:1 72:1 73:1 77:1 80:1 
-0.0001 0.0001 0.0001 0 0.0001 0.0001 0 0.0001 0.0001 0.0001 0 0.0001 0 0.0001 0 0 0.0001 0 0.0001 0 0 0 0 0 0 41:1 46:1 47:1 49:1 50:1 51:1 52:1 53:1 54:1 55:1 57:1 58:1 60:1 61:1 63:1 65:1 66:1 68:1 69:1 71:1 72:1 73:1 74:1 77:1 80:1 82:1 88:1 
-0.0001 0.0001 0.0001 0 0.0001 0.0001 0 0.0001 0.0001 0.0001 0.0001 0.0001 0 0.0001 0.0001 0 0.0001 0 0.0001 0 0 0 0 0 0 49:1 50:1 51:1 53:1 54:1 56:1 57:1 58:1 59:1 60:1 61:1 62:1 63:1 64:1 65:1 67:1 68:1 70:1 71:1 72:1 73:1 75:1 76:1 78:1 79:1 
-0.0001 0.0001 0.0001 0.0001 0.0001 0.0001 0.0001 0.0001 0.0001 0.0001 0.0001 0.0001 0.0001 0.0001 0.0001 0.0001 0.0001 0.0001 0.0001 0.0001 0 0 0.0001 0 0.0001 42:1 47:1 50:1 54:1 55:1 57:1 58:1 59:1 61:1 62:1 63:1 65:1 67:1 68:1 69:1 71:1 72:1 73:1 80:1 81:1 88:1 
-0.0001 0.0001 0.0001 0.0001 0.0001 0.0001 0.0001 0.0001 0.0001 0.0001 0.0001 0.0001 0.0001 0.0001 0.0001 0.0001 0.0001 0.0001 0.0001 0.0001 0.0001 0.0001 0.0001 0 0.0001 42:1 49:1 50:1 53:1 54:1 57:1 58:1 60:1 61:1 62:1 65:1 66:1 67:1 68:1 70:1 73:1 78:1 79:1 81:1 87:1 88:1 
-0.0001 0.0001 0.0001 0 0.0001 0.0001 0 0.0001 0.0001 0.0001 0 0.0001 0 0 0 0 0.0001 0 0 0 0 0 0 0 0 33:1 34:1 36:1 37:1 41:1 44:1 45:1 49:1 51:1 52:1 53:1 54:1 55:1 56:1 57:1 58:1 59:1 60:1 61:1 62:1 64:1 65:1 66:1 68:1 69:1 70:1 72:1 73:1 74:1 76:1 77:1 80:1 81:1 84:1 88:1 89:1 96:1 
-0.0001 0.0001 0.0001 0 0.0001 0.0001 0 0.0001 0.0001 0.0001 0 0.0001 0 0.0001 0 0 0.0001 0 0.0001 0 0 0 0 0 0 41:1 44:1 47:1 48:1 49:1 51:1 52:1 54:1 55:1 56:1 57:1 58:1 59:1 60:1 61:1 62:1 64:1 65:1 66:1 68:1 69:1 71:1 72:1 73:1 76:1 79:1 81:1 87:1 88:1 
-0.0001 0.0001 0.0001 0.0001 0.0001 0.0001 0.0001 0.0001 0.0001 0.0001 0.0001 0.0001 0.0001 0.0001 0.0001 0.0001 0.0001 0.0001 0.0001 0.0001 0 0 0.0001 0 0.0001 49:1 50:1 51:1 52:1 53:1 54:1 55:1 56:1 57:1 60:1 61:1 64:1 65:1 68:1 72:1 73:1 76:1 80:1 
-0.0001 0.0001 0.0001 0.0001 0.0001 0.0001 0.0001 0.0001 0.0001 0.0001 0.0001 0.0001 0.0001 0.0001 0.0001 0.0001 0.0001 0.0001 0.0001 0.0001 0 0 0 0 0.0001 41:1 42:1 43:1 46:1 49:1 51:1 52:1 53:1 54:1 55:1 56:1 57:1 60:1 64:1 65:1 68:1 72:1 73:1 76:1 80:1 81:1 88:1 
-0.0001 0.0001 0.0001 0 0.0001 0.0001 0 0.0001 0.0001 0.0001 0 0.0001 0 0.0001 0 0 0.0001 0 0.0001 0 0 0 0 0 0 43:1 44:1 45:1 47:1 48:1 50:1 51:1 52:1 53:1 54:1 55:1 56:1 58:1 59:1 61:1 62:1 64:1 65:1 66:1 68:1 69:1 72:1 73:1 76:1 77:1 80:1 81:1 88:1 
-0.0001 0.0001 0.0001 0 0.0001 0.0001 0 0.0001 0.0001 0.0001 0 0.0001 0 0.0001 0 0 0.0001 0 0.0001 0 0 0 0 0 0 43:1 44:1 45:1 47:1 48:1 50:1 51:1 53:1 54:1 55:1 56:1 57:1 58:1 60:1 61:1 62:1 64:1 65:1 66:1 68:1 69:1 72:1 73:1 76:1 80:1 81:1 88:1 
-0.0001 0.0001 0.0001 0.0001 0.0001 0.0001 0 0.0001 0.0001 0.0001 0.0001 0.0001 0 0.0001 0.0001 0 0.0001 0.0001 0.0001 0 0 0 0 0 0.0001 44:1 45:1 47:1 48:1 49:1 51:1 52:1 53:1 54:1 55:1 56:1 57:1 59:1 61:1 62:1 64:1 65:1 66:1 67:1 69:1 70:1 72:1 74:1 80:1 82:1 
-0.0001 0.0001 0.0001 0.0001 0.0001 0.0001 0.0001 0.0001 0.0001 0.0001 0.0001 0.0001 0 0.0001 0.0001 0.0001 0.0001 0 0.0001 0 0 0 0 0 0.0001 47:1 48:1 49:1 51:1 52:1 54:1 55:1 56:1 57:1 58:1 59:1 60:1 61:1 62:1 64:1 66:1 67:1 69:1 70:1 72:1 74:1 77:1 80:1 82:1 
