svm_type c_svc
kernel_type linear
nr_class 26
total_sv 2689
rho -2.36387 -3.60324 1.07568 -3.32047 2.41774 2.24578 -1.74888 1.58428 4.36739 0.151676 0.885761 1.96129 0.760337 2.79614 1.20631 1.16112 0.999185 0.677791 -0.388227 0.0795549 0.647726 -0.732508 0.266395 -1.61026 -0.751598 4.45114 7.00823 0.360976 1.50024 2.44585 0.034669 2.699 1.79502 3.30136 0.653446 1.2558 0.980992 2.36137 1.2298 1.50368 2.81435 1.8224 0.702708 1.0983 0.334406 -0.0984541 1.8575 0.867491 0.842001 3.67032 -2.17584 2.38645 2.08278 -1.5036 1.06673 2.60747 2.14025 -0.0157665 2.67338 1.45207 2.5519 1.83642 0.879288 -0.242158 1.89294 0.537141 0.313846 0.379145 -0.659147 1.24815 -0.88299 -0.269737 -1.57015 2.02682 0.268645 -1.70459 0.199559 1.55006 -1.93001 -1.17171 1.54955 0.415237 2.55555 0.573046 1.99222 -0.580298 1.02972 -0.403234 -0.0931127 -0.063917 -1.27288 -1.21574 -1.91539 -0.533391 2.53766 3.07854 -0.396595 1.86291 1.73423 1.55329 2.48439 2.56646 1.39638 2.95474 1.62557 1.72538 1.76126 1.80555 0.266735 1.06827 1.51335 -0.139764 1.07038 -0.0824939 0.411918 -3.97178 -2.89667 -4.08363 -2.18778 -2.89434 -3.38016 -5.58781 -3.9345 -5.60431 -3.52817 -1.86217 -1.74371 -2.77078 -2.80288 -2.93856 -2.40008 -2.33546 -2.46531 -1.28803 -3.40656 -1.53958 1.92196 0.473582 0.545873 1.77946 2.40163 1.1203 5.56018 2.83174 -0.398891 -0.829363 1.09546 -0.70325 -0.730733 0.554026 -2.05012 0.198878 -1.13915 -0.754318 0.980944 1.72513 1.15977 2.36648 2.57922 1.18867 2.82965 1.52099 0.765208 1.67922 1.87945 0.330255 3.66587 0.591507 -0.471489 0.57679 0.162129 1.61455 -0.343337 -4.24334 -0.614318 2.67415 -3.16358 1.72692 -0.410813 -0.98685 -0.9576 -0.217874 -4.20359 -0.215951 -0.39491 -1.5912 -1.56413 -1.12454 -1.60925 -7.99387 -1.10879 2.24225 -0.885842 0.484281 0.165991 -0.622651 -1.37184 -0.850362 -1.50344 -0.869947 0.00966823 -1.0079 -0.571075 -1.43638 -2.60063 0.269204 2.86072 2.78832 5.45839 0.821003 1.17191 1.00998 2.27086 -1.54493 -0.02809 0.12737 -1.47516 1.83869 -1.36081 -2.86246 2.0978 -0.799906 2.48338 -0.262512 -0.0760172 0.649366 0.607842 -0.942199 0.601582 0.150631 -2.10991 -0.815116 -0.505904 -1.05406 -4.03123 -4.77415 -2.32109 -2.50601 -1.79376 -1.89101 -1.93905 -2.9894 -0.944541 -1.96442 -1.93132 -1.46951 -3.72049 4.57135 0.893636 -0.158456 -0.287415 -0.201585 -2.92514 -0.0789159 0.118742 -1.59761 -0.586229 -0.554249 -1.23705 -2.73131 -1.98587 -1.62355 -3.84405 -3.45552 -1.72209 -0.685282 -3.01173 -3.33137 -1.22122 -3.70186 -0.597045 -0.690352 -1.1389 -2.05313 -0.786566 0.13867 -2.67249 -1.96559 -0.760201 -1.38346 -2.14439 -0.0756801 -0.88798 -0.0953601 0.327401 -0.801794 -0.860054 -1.65733 -1.17199 0.935518 -0.813397 0.866498 0.336084 -0.587064 0.345718 -4.08153 -1.17272 -1.01276 -0.66518 0.0206957 -1.21854 -3.28314 -0.817962 -2.54222 0.22769 0.309807 -0.0373018 0.579554 -0.388889 -0.0594369 0.197406 -0.772772 0.0120148 -0.686495 -4.58524 -0.607873 -0.143881 -0.297428 -0.373219 0.706056 0.106251 0.766523 -0.753116 -1.06617 0.276876
label 14 12 0 13 3 8 6 1 17 2 4 18 11 5 19 24 21 20 25 15 7 9 16 23 22 10
probA -2.45083 -1.28475 -1.63243 -1.59526 -3.57563 -1.83489 -2.74096 -3.50361 -1.89894 -1.89145 -2.71094 -3.66497 -3.31789 -2.4076 -2.54419 -3.02108 -1.91811 -3.00312 -3.05835 -2.88211 -3.36 -3.75353 -3.05958 -2.87777 -3.00578 -1.74624 -1.69423 -3.70945 -4.14201 -2.5444 -3.39433 -2.74068 -3.71988 -1.61221 -3.11426 -4.34978 -3.92897 -3.56624 -3.83236 -3.68332 -2.80601 -2.8494 -3.47582 -3.46128 -3.69653 -2.91173 -2.49168 -3.52574 -3.52469 -0.929572 -1.72538 -3.37485 -1.16452 -2.64814 -1.99629 -2.94479 -1.18801 -2.15585 -3.48033 -3.01445 -2.45185 -2.52765 -3.38153 -1.39892 -2.25147 -3.18203 -2.23043 -3.58325 -2.87687 -2.01673 -3.37779 -1.95816 -2.63622 -3.09458 -1.80196 -2.71532 -2.39958 -2.74005 -1.56133 -2.21227 -3.61426 -3.19 -1.78426 -2.09483 -3.061 -1.19455 -1.58296 -2.91618 -2.11152 -3.35139 -2.38235 -2.13896 -1.16019 -2.36213 -3.96376 -2.28389 -2.38395 -3.28594 -3.55397 -3.49761 -2.95838 -3.43334 -2.89526 -3.36228 -2.43851 -3.51135 -2.23984 -2.5228 -3.6109 -2.33391 -2.14315 -3.65974 -3.83242 -2.99202 -2.65812 -2.80855 -3.45356 -1.87755 -3.44532 -3.28591 -3.15172 -0.829736 -3.24445 -1.68319 -2.56661 -3.42698 -3.67509 -2.30372 -3.07228 -3.27353 -2.79878 -3.63195 -3.33917 -4.25442 -3.63426 -2.82082 -2.21222 -3.97091 -2.11033 -0.920587 -3.34338 -1.22187 -1.3459 -0.409552 -2.70886 -2.23533 -1.20764 -3.10796 -3.06202 -2.93863 -0.804356 -2.3007 -3.07957 -2.43511 -3.20681 -3.31329 -3.54937 -2.10069 -4.06653 -2.93164 -2.56602 -2.44806 -3.21836 -2.42372 -2.33117 -3.68388 -2.05099 -3.29542 -2.6828 -3.33224 -2.76552 -1.76429 -1.51594 -1.44818 -2.6233 -2.4972 -0.830547 -1.28163 -2.18582 -1.97573 -2.58244 -2.19807 -2.14003 -3.46498 -3.28298 -2.8074 -1.94397 -3.76118 -1.92897 -2.35493 -3.33509 -3.2959 -3.44818 -3.24973 -4.04111 -3.80985 -2.74195 -3.71602 -3.48351 -2.8902 -3.76086 -3.95542 -3.2923 -3.16799 -3.43155 -2.4977 -3.50844 -1.59464 -2.42163 -3.36685 -3.44669 -1.78501 -1.66187 -2.49492 -2.68588 -3.8819 -3.38351 -1.66737 -2.68985 -1.68676 -3.28932 -2.2407 -1.93353 -0.92824 -3.28522 -2.33615 -2.09292 -3.37025 -2.36764 -2.52632 -3.48392 -3.09954 -3.86946 -2.89919 -3.12434 -1.53894 -2.8439 -2.69727 -3.54922 -3.78921 -3.49818 -2.0842 -2.75164 -4.57848 -4.01514 -3.9576 -3.72477 -1.44973 -1.86421 -2.99738 -3.20643 -2.79514 -1.76595 -2.86992 -2.44812 -1.64685 -2.5683 -3.68748 -2.63612 -1.04334 -2.97349 -3.52146 -1.37067 -2.28274 -2.73972 -2.2455 -2.66306 -2.22285 -4.15198 -2.95758 -2.42049 -3.66343 -1.26634 -2.70641 -3.16436 -2.50461 -1.61881 -3.01721 -3.70771 -3.35823 -1.33097 -3.8455 -3.668 -3.38498 -2.96931 -3.86118 -3.37479 -3.02657 -3.7125 -2.62783 -3.34418 -2.19719 -3.72563 -3.58401 -2.30656 -1.81401 -2.64478 -2.98358 -2.24409 -2.6747 -3.07188 -1.32233 -3.62496 -1.94453 -3.72949 -3.41317 -2.47153 -3.0531 -2.81864 -3.43409 -2.75796 -2.80208 -3.16034 -3.75311 -0.875238 -2.57221 -3.11854 -3.08733 -3.49147 -3.58902 -2.80444 -2.92628 -3.69652 -2.18348 -3.23721
probB -0.40449 -0.177682 -0.0953547 -0.413657 -0.085101 -0.174169 -0.338123 -0.223094 -0.589497 -0.0257467 -0.378111 -0.155334 -0.193388 -0.278719 -0.298609 -0.12675 -0.136853 -0.183022 -0.35605 -0.238427 -0.595837 -0.00851472 -0.333718 -0.551255 -0.179428 0.295949 0.266395 -0.0755965 0.43111 0.271485 0.218419 -0.170155 -0.0710123 0.298916 0.00659814 0.34534 -0.157961 0.0543301 0.173673 -0.0684348 0.323113 -0.228778 -0.00892636 -0.106436 -0.316495 -0.499787 -0.278095 0.287661 -0.172023 -0.0360313 -0.0915534 -0.056705 -0.285257 -0.445547 -0.00350992 -0.216406 -0.132997 -0.256813 0.0214025 0.076689 -0.094886 -0.11632 -0.550671 -0.230743 -0.240096 -0.29375 -0.539633 -0.667956 -0.454962 -0.247353 -0.14905 -0.37048 -0.2925 0.0316064 0.0835192 -0.33442 0.143876 -0.00804351 0.0582098 -0.10918 0.0524086 0.02631 -0.181295 -0.248517 -0.187975 -0.092452 -0.516741 -0.101202 -0.301063 -0.538495 -0.666825 -0.263308 -1.32653 -0.133637 0.0999967 0.170939 0.0723344 -0.0966683 -0.141706 -0.0254893 -0.0288976 0.151197 -0.122957 -0.0362033 0.0291893 -0.148703 0.161851 -0.205205 -0.151871 -0.172376 -0.487362 0.227348 -0.0849849 -0.34707 -0.0941621 -0.0341829 0.0113649 -0.022774 0.0445962 -0.196334 0.10325 -0.170848 0.586426 -0.119651 0.177621 -0.225046 -0.29227 -0.254387 -0.0790837 -0.114628 -0.450998 0.17466 -0.211291 -0.531351 -0.0789386 -0.0669632 -0.0483742 0.236794 -0.156745 -0.34689 -0.273647 -0.168203 -0.121832 -0.555361 -0.0344582 -0.225287 -0.274854 -0.0785692 -0.00652071 -0.519597 -1.45565 -0.203905 -0.449764 -0.140153 0.148438 0.209956 0.122591 0.326361 -0.242419 0.151862 0.0711514 -0.0264196 -0.198574 0.0196252 -0.0265423 -0.156184 -0.173635 -0.00650996 0.0129964 -0.249558 -0.388057 0.340977 -0.00333901 0.117418 -0.0113696 -0.17313 -0.580188 0.0433319 0.098499 -0.361246 -0.216601 -0.303651 -0.165175 -0.209841 -0.427831 -0.308324 0.0641985 -0.365773 -0.19313 0.0792148 0.41283 -0.0446135 0.0282042 0.0147992 -0.127828 -0.222914 0.113273 -0.08814 0.209739 -0.194922 -0.266284 0.374033 -0.123072 -0.19944 -0.0555802 -0.184302 -0.11228 -0.37756 -0.116396 0.257237 -0.221476 -0.327688 -0.334578 -0.253965 -0.053559 -0.184268 0.0713837 -0.601957 -0.16582 -0.458935 -0.397487 -0.0187796 -0.0717779 0.0532596 -0.466895 0.0988301 -0.195947 -0.299707 -0.182653 -0.395266 0.669754 -0.13872 0.0318842 0.0909334 0.299437 -0.165514 0.316967 -0.283309 -0.135973 0.314831 -0.00934065 -0.183997 -0.605617 0.758992 0.0461975 -0.289171 -0.135099 0.160135 0.0470145 -0.30871 -0.0582873 -0.210671 0.0973663 -0.218613 -0.300897 -0.39446 0.0401887 -0.280843 -0.188902 -0.190516 -0.15578 0.0177328 -0.167802 -0.124215 -0.085143 -0.550361 -0.074351 -0.245861 0.235897 0.0824158 -0.263086 -0.259854 -0.179619 -0.0322145 -0.0349568 -0.441857 -0.586062 -0.0987664 -0.326415 -0.0361324 0.456876 -0.0338878 0.297019 0.0593449 -0.221506 0.595105 0.0362936 -0.132841 0.160887 -0.339656 -0.195591 -0.0675105 -0.160006 0.0521037 -0.170455 -0.488412 0.108144 0.219139 -0.00874502 -0.167902 0.37529 0.140341 -0.018428 0.0992337 -0.0744986 -0.391692 -0.0794289 -0.151174 -0.3612 0.166372 -0.230566 -0.00707847 -0.107302 0.204555 0.211655 0.192125 0.0849936 -0.0922064 0.0331039 -0.348389 -0.271623 -0.0594858 -0.178138 0.120566 0.291734
nr_sv 193 84 207 195 69 168 161 61 146 122 229 84 155 55 113 83 56 135 63 93 52 11 15 47 12 80
SV
0 0 0 0.05864116041033941 0 0 0 0 0 0 0 0 0 0 0 0 0 0 0 0 0 0 0 0 0 26:1 27:1 28:1 34:1 35:1 36:1 37:1 38:1 42:1 46:1 47:1 49:1 50:1 55:1 56:1 57:1 64:1 65:1 72:1 73:1 80:1 81:1 87:1 88:1 89:1 93:1 94:1 95:1 97:1 98:1 99:1 100:1 101:1 
0 0 0 0 0 0 0 0 0.06754061101501668 0 0 0 0 0 0 0 0 0 0 0 0 0 0 0 0 35:1 36:1 37:1 38:1 42:1 43:1 44:1 46:1 47:1 48:1 49:1 50:1 56:1 57:1 64:1 65:1 72:1 73:1 80:1 81:1 87:1 88:1 89:1 90:1 91:1 92:1 93:1 94:1 
0.03110962444597585 0 0 0 0 0 0 0 0 0 0 0 0 0 0 0 0 0 0 0 0 0 0 0 0 34:1 35:1 41:1 42:1 43:1 44:1 45:1 46:1 47:1 49:1 55:1 56:1 57:1 64:1 65:1 72:1 73:1 80:1 81:1 87:1 88:1 89:1 90:1 91:1 92:1 93:1 94:1 95:1 
0 0 0 0 0 0 0 0 0 0 0 0 0 0 0 0 0 0 0.02810224673566978 0 0 0 0 0 0 25:1 26:1 27:1 28:1 29:1 30:1 31:1 33:1 34:1 35:1 39:1 40:1 41:1 42:1 48:1 49:1 56:1 57:1 64:1 65:1 72:1 73:1 80:1 81:1 88:1 89:1 90:1 91:1 93:1 94:1 95:1 96:1 99:1 100:1 101:1 
0.003350733217685654 0 0 0 0 0 0 0 0 0.8506499242824268 0 0.006689247453564926 0 0 0 0.02245102379153995 0.08524050349235646 0 0 0 0 0 0 0.06934803556442522 0 36:1 37:1 38:1 39:1 40:1 42:1 43:1 47:1 48:1 49:1 50:1 56:1 57:1 63:1 64:1 65:1 71:1 73:1 77:1 78:1 81:1 84:1 85:1 89:1 90:1 91:1 92:1 
0 0.3893042405162653 0.08952008102703304 0 0 0.05096780596390531 0.01997518502820625 0.04235091856908893 0 0.2590650607861225 0 0 0.02260886162300717 0 0.0904999169997236 0 0 0.03155365381450662 0.1153700375822955 0 0 0 0 0 0.0545234246547902 20:1 21:1 22:1 23:1 24:1 27:1 28:1 29:1 32:1 34:1 35:1 36:1 40:1 43:1 44:1 48:1 51:1 56:1 59:1 63:1 64:1 66:1 67:1 71:1 74:1 78:1 82:1 85:1 86:1 89:1 90:1 92:1 93:1 97:1 99:1 100:1 105:1 106:1 107:1 
0.017248641832919 0.2140748174089572 0 0 0.002969822766368883 0 0 0.005671090829069705 0.2935071210724103 0 0.05751794413314405 0 0 0 0 0 0 0 0 0 0 0 0 0 0 19:1 20:1 21:1 23:1 26:1 27:1 29:1 31:1 34:1 37:1 38:1 39:1 41:1 42:1 46:1 47:1 48:1 49:1 55:1 57:1 63:1 65:1 71:1 73:1 78:1 79:1 81:1 85:1 89:1 92:1 97:1 98:1 99:1 100:1 106:1 
0 0 0 0 0 0 0 0 0 0 0 0 0 0 0 0 0 0 0 0 0 0 0 0.002684775210736248 0 29:1 33:1 34:1 35:1 37:1 38:1 41:1 46:1 47:1 49:1 55:1 56:1 57:1 64:1 65:1 72:1 73:1 80:1 81:1 82:1 88:1 90:1 91:1 92:1 96:1 100:1 101:1 102:1 103:1 104:1 
0 0 0 0 0 0 0 0 0 0 0 0 0 0 0 0 0 0 0.03101975589327261 0 0 0 0 0 0 17:1 18:1 19:1 20:1 21:1 22:1 25:1 26:1 27:1 28:1 29:1 30:1 31:1 33:1 34:1 37:1 39:1 41:1 47:1 48:1 49:1 56:1 57:1 64:1 65:1 72:1 73:1 80:1 81:1 88:1 89:1 90:1 95:1 96:1 98:1 99:1 101:1 102:1 103:1 107:1 108:1 109:1 
0 0 0 0 0 0 0.02764699160381961 0 0 0 0 0 0 0 0 0 0 0 0 0 0 0 0 0.01173323220118178 0 2:1 3:1 4:1 5:1 6:1 10:1 12:1 14:1 15:1 19:1 20:1 23:1 24:1 26:1 27:1 32:1 34:1 40:1 41:1 42:1 48:1 49:1 56:1 57:1 64:1 65:1 72:1 73:1 80:1 81:1 88:1 89:1 95:1 96:1 97:1 103:1 105:1 110:1 111:1 113:1 117:1 118:1 121:1 122:1 123:1 124:1 125:1 
0 0 0 0 0 0.09662255261460269 0 0 0 0 0.05378739333868254 0 0 0 0 0 0 0 0 0 0 0 0 0 0 20:1 21:1 22:1 26:1 27:1 28:1 29:1 30:1 31:1 33:1 34:1 37:1 38:1 39:1 41:1 46:1 47:1 49:1 54:1 55:1 56:1 57:1 64:1 65:1 72:1 73:1 80:1 81:1 88:1 90:1 95:1 96:1 98:1 99:1 100:1 101:1 102:1 103:1 109:1 110:1 
0 0 0 0.1699888961595944 0 0 0 0 0 0 0 0 0 0 0.03049832920082298 0 0 0.004755240173547286 0.01570477109539535 0 0 0.002437140691876328 0 0 0 11:1 12:1 13:1 14:1 22:1 23:1 31:1 32:1 40:1 45:1 46:1 48:1 52:1 53:1 56:1 59:1 60:1 64:1 67:1 72:1 74:1 75:1 79:1 80:1 82:1 86:1 87:1 89:1 90:1 94:1 97:1 101:1 102:1 105:1 107:1 108:1 109:1 113:1 114:1 115:1 
0 0.110686368687258 0.2068985666779197 0.06825594280906352 0 0.4331119005583797 0 0 0 0 0 0 0 0 0 0 0 0 0 0 0 0 0 0 0 3:1 4:1 5:1 6:1 11:1 15:1 19:1 23:1 24:1 27:1 32:1 34:1 35:1 40:1 42:1 48:1 50:1 56:1 57:1 58:1 64:1 65:1 72:1 73:1 80:1 81:1 88:1 89:1 96:1 97:1 104:1 105:1 112:1 113:1 114:1 119:1 120:1 122:1 123:1 124:1 125:1 126:1 127:1 
0 0 0 0 0 0.01519560821925577 0 0 0 0 0 0 0 0 0 0 0 0 0 0 0 0 0 0 0 11:1 12:1 18:1 19:1 20:1 21:1 26:1 29:1 30:1 31:1 34:1 39:1 40:1 41:1 48:1 49:1 56:1 57:1 64:1 65:1 72:1 73:1 80:1 81:1 88:1 89:1 95:1 96:1 97:1 103:1 105:1 109:1 110:1 111:1 113:1 114:1 115:1 116:1 117:1 
0 0 0 0 0 0 0 0 0 0 0 0.04523981222529929 0 0 0 0.06570732066375988 0 0 0 0 0 0 0 0.009193290140616601 0 34:1 35:1 36:1 40:1 41:1 42:1 48:1 49:1 56:1 57:1 64:1 65:1 72:1 73:1 79:1 80:1 81:1 82:1 86:1 87:1 90:1 91:1 92:1 93:1 94:1 
0 0 0 0 0 0 0 0 0 0 0 0 0 0 0 0 0.4554091537450695 0 0 0 0 0 0 0 0 26:1 27:1 33:1 34:1 41:1 46:1 47:1 49:1 55:1 56:1 57:1 64:1 65:1 72:1 73:1 80:1 81:1 87:1 88:1 89:1 90:1 94:1 95:1 99:1 100:1 101:1 102:1 
0.08678855772377572 0.1367308185328192 0 0 0 0 0 0 0 0 0.01998568825562035 0 0 0 0 0 0 0 0 0 0 0 0 0 0 11:1 18:1 19:1 20:1 26:1 28:1 29:1 30:1 34:1 38:1 39:1 41:1 42:1 47:1 49:1 55:1 56:1 57:1 64:1 65:1 72:1 73:1 80:1 81:1 88:1 89:1 95:1 96:1 97:1 101:1 102:1 103:1 105:1 108:1 109:1 113:1 114:1 115:1 
0 0.07753859540605409 0 0 0 0 0 0 0 0 0 0 0 0 0 0 0 0 0 0 0 0 0 0 0 3:1 4:1 5:1 13:1 14:1 15:1 16:1 21:1 22:1 24:1 28:1 29:1 30:1 32:1 35:1 36:1 40:1 42:1 43:1 48:1 50:1 56:1 58:1 64:1 65:1 66:1 72:1 73:1 79:1 80:1 81:1 87:1 89:1 95:1 97:1 102:1 103:1 105:1 110:1 113:1 117:1 118:1 121:1 122:1 123:1 124:1 125:1 
0 0.5741096634214826 0.8149284825645225 0 0 0 0 0.02411843768113557 0.5091017195852533 0 0 0 0 0 0.08989835776694809 0 0 0 0 0 0 0 0 0 0 35:1 36:1 37:1 38:1 39:1 43:1 46:1 47:1 48:1 50:1 56:1 57:1 63:1 64:1 65:1 71:1 73:1 78:1 79:1 81:1 85:1 86:1 89:1 90:1 91:1 92:1 
0 0 0.07852187416555237 0 0 0 0 0 0 0 0 0 0 0 0 0 0 0 0 0 0 0 0 0 0 35:1 36:1 37:1 38:1 39:1 40:1 41:1 42:1 43:1 48:1 49:1 50:1 51:1 56:1 58:1 64:1 66:1 71:1 72:1 73:1 74:1 79:1 81:1 82:1 86:1 87:1 90:1 91:1 92:1 93:1 94:1 
0 0 0 0 0 0 0 0 0 0.5536932056834876 0 0 0 0 0 0 0 0 0 0 0 0 0 0 0 28:1 29:1 30:1 31:1 35:1 36:1 39:1 40:1 42:1 43:1 44:1 45:1 48:1 50:1 53:1 56:1 57:1 58:1 64:1 65:1 71:1 72:1 73:1 78:1 79:1 81:1 85:1 86:1 89:1 91:1 92:1 93:1 97:1 98:1 99:1 
0.00645730709583157 0 0.1749503044425335 0 0 0 0 0 0 0.1666501235296518 0 0 0.002703311709576668 0 0 0 0 0 0 0 0 0 0 0 0 12:1 13:1 14:1 15:1 16:1 20:1 24:1 27:1 28:1 32:1 35:1 43:1 44:1 45:1 46:1 47:1 48:1 51:1 56:1 57:1 58:1 59:1 64:1 65:1 72:1 73:1 80:1 81:1 88:1 89:1 95:1 96:1 97:1 100:1 101:1 102:1 103:1 105:1 108:1 113:1 114:1 115:1 116:1 
0 0 0 0 0 0 0 0 0 0 0 0 0 0 0 0 0 0 0 0 0 0.003343623966076413 0 0 0 19:1 20:1 21:1 22:1 23:1 27:1 31:1 35:1 36:1 39:1 40:1 43:1 44:1 48:1 50:1 51:1 56:1 58:1 64:1 65:1 66:1 72:1 73:1 80:1 81:1 87:1 89:1 94:1 95:1 97:1 100:1 101:1 102:1 105:1 106:1 107:1 108:1 
0 0.03989937471266992 0 0.05512339907435085 0 0 0 0 0 0 0 0 0 0 0 0 0 0 0 0 0 0 0 0 0 18:1 19:1 26:1 29:1 34:1 37:1 38:1 41:1 42:1 46:1 47:1 49:1 55:1 57:1 63:1 64:1 65:1 72:1 73:1 80:1 81:1 82:1 88:1 90:1 91:1 96:1 99:1 100:1 104:1 108:1 109:1 110:1 111:1 112:1 
0 0 0.1255653917262738 0 0 0 0 0 0 0 0 0 0 0 0 0 0 0 0 0 0 0.01461786339718541 0 0 0 30:1 38:1 39:1 44:1 45:1 47:1 48:1 51:1 52:1 56:1 58:1 59:1 64:1 65:1 66:1 72:1 73:1 80:1 81:1 88:1 89:1 90:1 95:1 96:1 98:1 99:1 100:1 101:1 102:1 103:1 
0 0 0 0 0 0 0 0 0 0 0 0.03492840279137072 0 0 0 0 0.01153466513805882 0 0 0 0.02654432510768 0 0 0 0 26:1 27:1 28:1 36:1 37:1 38:1 39:1 47:1 48:1 56:1 57:1 64:1 65:1 72:1 73:1 79:1 80:1 81:1 85:1 86:1 87:1 89:1 90:1 91:1 92:1 93:1 98:1 99:1 
0 0 0.1881026716938096 0 0 0 0.02018452490814779 0 0.09800302012864433 0.09855634111644834 0 0 0 0 0 0 0 0 0.04182293030160057 0 0 0 0 0 0 20:1 21:1 22:1 26:1 27:1 28:1 30:1 31:1 32:1 33:1 40:1 41:1 48:1 49:1 56:1 57:1 64:1 65:1 72:1 73:1 79:1 81:1 86:1 89:1 93:1 97:1 98:1 99:1 100:1 106:1 107:1 
0 0 0 0 0 0 0 0 0 0 0 0 0 0 0.01666589222945528 0 0.007455473826831268 0 0 0 0 0 0 0 0 27:1 28:1 29:1 37:1 38:1 41:1 46:1 47:1 49:1 55:1 56:1 57:1 64:1 65:1 72:1 73:1 80:1 81:1 87:1 88:1 90:1 91:1 95:1 99:1 100:1 101:1 102:1 103:1 
0 0 0.06347185535205566 0 0 0 0 0 0 0 0 0 0 0 0 0 0.03398281948927873 0 0 0 0 0 0 0 0 12:1 13:1 21:1 22:1 25:1 26:1 30:1 33:1 38:1 39:1 41:1 47:1 49:1 55:1 56:1 57:1 64:1 65:1 72:1 73:1 80:1 81:1 88:1 89:1 90:1 96:1 98:1 103:1 104:1 106:1 107:1 111:1 116:1 117:1 118:1 119:1 
0.01392851123294267 0.5344918329538706 0.05603926776343653 0 0.05437869847074132 0.2461570506550727 0.04183433154566313 0 0 0 0.002940886202176775 0 0 0 0 0.02284087243818608 0.149730529651998 0 0.02225564271257447 0.05706380628782676 0.0228955459851131 0 0 0 0 2:1 3:1 4:1 5:1 6:1 9:1 10:1 14:1 15:1 17:1 23:1 25:1 31:1 33:1 39:1 41:1 47:1 49:1 55:1 57:1 63:1 65:1 71:1 72:1 73:1 80:1 81:1 88:1 89:1 96:1 97:1 98:1 103:1 104:1 107:1 111:1 116:1 118:1 119:1 125:1 126:1 
0 0 0 0 0 0 0 0 0 0 0 0 0 0 0 0.1226358625652773 0.5609856791553496 0 0 0 0 0 0 0.09396701095372822 0 33:1 34:1 35:1 36:1 40:1 41:1 48:1 49:1 56:1 57:1 64:1 65:1 72:1 73:1 74:1 80:1 82:1 83:1 87:1 88:1 91:1 92:1 93:1 94:1 95:1 
0 0 0.1792527861622507 0 0 0 0 0.000164043539280195 0 0 0 0 0 0 0 0.1530394234711036 0.5118930561841462 0 0 0.0005509828822246622 0 0 0 0 0 24:1 32:1 40:1 48:1 50:1 51:1 52:1 56:1 58:1 64:1 65:1 66:1 72:1 73:1 80:1 81:1 88:1 89:1 96:1 97:1 103:1 104:1 106:1 107:1 108:1 109:1 110:1 111:1 
0 0 0.02882520957141814 0 0 0 0 0.005163080117925498 0 0 0 0 0 0 0 0 0 0 0 0 0 0 0 0 0 27:1 28:1 29:1 30:1 31:1 35:1 39:1 40:1 42:1 43:1 48:1 50:1 51:1 56:1 58:1 64:1 65:1 66:1 72:1 73:1 80:1 81:1 88:1 89:1 90:1 91:1 95:1 96:1 99:1 100:1 101:1 102:1 103:1 
0 0 0 0 0 0 0.02766151255739825 0 0 0 0 0 0 0 0 0 0 0 0 0 0 0 0 0 0 19:1 20:1 21:1 22:1 27:1 28:1 29:1 30:1 31:1 32:1 34:1 35:1 40:1 42:1 48:1 50:1 56:1 57:1 58:1 64:1 65:1 71:1 72:1 73:1 78:1 79:1 81:1 86:1 89:1 93:1 94:1 97:1 100:1 101:1 105:1 106:1 107:1 108:1 
0 0.1761940495978575 0 0 0 0 0 0 0 0 0 0 0 0 0 0 0 0 0 0 0 0 0 0 0 1:1 2:1 3:1 11:1 19:1 20:1 28:1 29:1 35:1 36:1 37:1 38:1 42:1 43:1 46:1 47:1 50:1 55:1 56:1 57:1 58:1 64:1 65:1 72:1 73:1 80:1 81:1 88:1 89:1 96:1 97:1 104:1 105:1 106:1 112:1 114:1 120:1 122:1 123:1 124:1 125:1 126:1 127:1 
0 0 0 0 0 0 0 0 0 0 0 0 0 0 0 0 0 0 0 0 0 0.1046436743632987 0.02434823705125971 0 0 36:1 37:1 38:1 39:1 40:1 43:1 44:1 48:1 51:1 52:1 56:1 58:1 59:1 64:1 65:1 66:1 71:1 72:1 73:1 78:1 79:1 81:1 83:1 84:1 85:1 86:1 89:1 90:1 91:1 
0 0 0 0 0 0 0 0 0 0 0 0 0 0 0.00682336127591393 0 0 0 0 0 0 0 0 0 0 28:1 29:1 33:1 34:1 35:1 36:1 37:1 38:1 39:1 40:1 41:1 47:1 48:1 49:1 56:1 57:1 64:1 65:1 72:1 73:1 80:1 81:1 88:1 89:1 90:1 95:1 96:1 98:1 99:1 100:1 101:1 102:1 103:1 
0 0 0 0.02173311489729362 0.01329476557280876 0.2214408585633039 0.03869114462378728 0 0.05235094374266519 0 0 0.01025687366916379 0 0 0.1338370518369144 0 0 0 0 0 0 0 0 0 0 11:1 12:1 18:1 19:1 20:1 21:1 25:1 26:1 29:1 30:1 33:1 38:1 41:1 46:1 47:1 49:1 55:1 57:1 64:1 65:1 72:1 73:1 80:1 81:1 88:1 89:1 96:1 97:1 98:1 104:1 106:1 111:1 112:1 114:1 115:1 116:1 117:1 118:1 119:1 
0 0 0 0 0 0 0 0 0.002177768785898317 0 0 0 0 0 0 0 0 0 0 0 0 0 0 0 0 33:1 34:1 35:1 36:1 37:1 38:1 41:1 46:1 47:1 49:1 55:1 56:1 57:1 64:1 65:1 72:1 73:1 79:1 80:1 81:1 82:1 85:1 86:1 87:1 90:1 91:1 92:1 93:1 
0 0 0 0 0 0 0 0 0 0 0 0.003486287442679134 0.07080328635899527 0 0 0 0.12656325364904 0 0 0 0 0 0 0 0 20:1 21:1 22:1 23:1 28:1 31:1 32:1 34:1 35:1 36:1 40:1 41:1 42:1 48:1 49:1 56:1 57:1 63:1 64:1 65:1 71:1 73:1 78:1 79:1 81:1 86:1 89:1 90:1 93:1 94:1 98:1 99:1 100:1 101:1 107:1 108:1 
0 0 0 0.04040389253015994 0 0.1104703817801938 0 0.0501683081436473 0 0 0.04552303471110068 0 0.0186433955466764 0.009854775269664068 0.2906018785732337 0.06145913223753908 0 0 0.03879581001188155 0.01482797516561039 0 0.02079769086893285 0.03963110364438067 0 0.09539071419146222 15:1 23:1 31:1 39:1 40:1 44:1 45:1 46:1 48:1 52:1 56:1 60:1 64:1 67:1 68:1 72:1 74:1 75:1 79:1 80:1 81:1 82:1 87:1 89:1 94:1 95:1 97:1 101:1 102:1 105:1 106:1 108:1 109:1 114:1 115:1 116:1 
0 0 0 0 0 0 0 0 0.5552856332523491 0 0 0 0 0 0 0 0 0 0 0 0 0 0 0 0 27:1 28:1 29:1 30:1 31:1 32:1 35:1 36:1 40:1 42:1 43:1 48:1 49:1 50:1 56:1 57:1 64:1 65:1 72:1 73:1 80:1 81:1 88:1 89:1 90:1 95:1 96:1 98:1 99:1 100:1 101:1 102:1 103:1 
0.02595353609991522 0.0905511252090937 0 0.0513114773074755 0 0.06817044380766787 0 0 0 0 0 0.03721003929772898 0 0 0 0 0 0 0 0 0 0 0 0 0 4:1 5:1 13:1 21:1 22:1 30:1 34:1 38:1 39:1 41:1 42:1 47:1 48:1 49:1 56:1 57:1 64:1 65:1 72:1 73:1 80:1 81:1 88:1 89:1 96:1 97:1 104:1 106:1 112:1 114:1 115:1 116:1 119:1 120:1 124:1 125:1 126:1 127:1 
0 0 0 0 0 0 0 0 0 0.1423387795253482 0 0 0 0 0 0 0 0 0 0 0 0 0 0 0 27:1 29:1 30:1 31:1 32:1 35:1 36:1 37:1 40:1 42:1 43:1 48:1 49:1 50:1 51:1 56:1 57:1 64:1 65:1 71:1 72:1 73:1 79:1 81:1 85:1 86:1 87:1 89:1 92:1 93:1 97:1 98:1 99:1 
1 1 1 0 0.152860891043168 0.3837915795780722 0.1114231578305207 0.371369371298957 0.6379120006196092 1 0.2868264394217998 0.1029729937064054 0.3336622193743393 0.5040515070614494 0 0.1343538458042435 0.6444188799190161 0.1584438752341804 0.5058654524412666 0.09210741023071334 0 0 0.235707072342646 0.1621181154880956 0.140312374134851 49:1 50:1 51:1 57:1 58:1 59:1 60:1 61:1 65:1 67:1 69:1 70:1 71:1 72:1 73:1 74:1 75:1 
0 0 0.4489048683250748 0 0 0.09087965364163622 0 0 0 0 0 0 0 0 0 0 0 0 0 0 0 0 0 0 0 15:1 22:1 23:1 24:1 30:1 32:1 35:1 36:1 37:1 38:1 40:1 42:1 43:1 44:1 45:1 46:1 48:1 49:1 50:1 56:1 57:1 64:1 65:1 72:1 73:1 80:1 81:1 87:1 88:1 89:1 95:1 97:1 102:1 103:1 105:1 109:1 110:1 113:1 114:1 115:1 116:1 117:1 
0 0 0.02075475453581129 0 0 0 0 0 0 0 0 0 0 0 0 0 0 0 0 0 0 0 0 0 0 5:1 6:1 12:1 13:1 19:1 20:1 21:1 22:1 27:1 30:1 31:1 34:1 35:1 39:1 40:1 42:1 48:1 49:1 50:1 56:1 57:1 64:1 65:1 72:1 73:1 80:1 81:1 88:1 89:1 96:1 97:1 104:1 105:1 112:1 113:1 119:1 120:1 121:1 122:1 123:1 124:1 125:1 126:1 127:1 
0 0.0449125851260738 0 0 0 0.5004541528622264 0 0 0 0 0.08212231370115157 0 0 0.03482294869000325 0.2501943952134193 0 0 0.02079272337418623 0 0 0.01790675142348518 0.01078122774951369 0.01463358832693541 0 0.001962684096332728 33:1 34:1 35:1 36:1 37:1 45:1 46:1 47:1 51:1 55:1 56:1 59:1 64:1 67:1 72:1 75:1 80:1 83:1 84:1 86:1 87:1 88:1 92:1 93:1 94:1 
0 0 0 0 0 0 0 0 0 0 0 0 0 0 0 0 0 0 0.0865669333353936 0 0 0 0 0 0 43:1 44:1 45:1 46:1 47:1 48:1 50:1 51:1 54:1 56:1 57:1 64:1 65:1 70:1 71:1 72:1 73:1 74:1 76:1 77:1 78:1 82:1 83:1 84:1 
0 0.4143852551114522 0 0.05465747072123969 0.05950989147014865 0.3811669827794973 0.06889876269022917 0.191703549396897 0.2034034137030599 0.2166337390393939 0.05020769626411542 0.05237139520765535 0.1443965918991302 0.09298424517959379 0.07452132777935931 0.07074210024311571 0.07196061052536187 0.1056459264175364 0.06327887434975611 0.09605390628335586 0.02871393596913454 0.002287966838153881 0.01108050219465649 0 0.1334470471151918 4:1 5:1 6:1 7:1 8:1 11:1 12:1 19:1 24:1 27:1 32:1 34:1 35:1 39:1 40:1 42:1 47:1 50:1 55:1 58:1 62:1 66:1 70:1 74:1 77:1 78:1 82:1 85:1 89:1 90:1 92:1 93:1 97:1 100:1 105:1 107:1 108:1 113:1 115:1 121:1 122:1 123:1 
0 0 0 0 0 0 0 0.0351769891491892 0 0 0 0 0 0 0 0 0 0 0 0 0 0 0 0 0 35:1 36:1 37:1 41:1 42:1 43:1 45:1 46:1 47:1 48:1 49:1 56:1 57:1 64:1 65:1 72:1 73:1 80:1 81:1 86:1 87:1 88:1 89:1 90:1 91:1 92:1 93:1 94:1 
0 0 0.1499446610891865 0 0 0 0 0.02478898793911691 0 0 0 0 0 0 0 0.0255038058445015 0 0 0 0 0 0 0 0 0 5:1 6:1 7:1 8:1 11:1 12:1 13:1 16:1 18:1 19:1 24:1 25:1 32:1 33:1 40:1 42:1 48:1 50:1 56:1 57:1 58:1 64:1 65:1 72:1 73:1 79:1 80:1 81:1 86:1 87:1 89:1 93:1 94:1 97:1 100:1 101:1 105:1 107:1 108:1 113:1 114:1 121:1 
0.04152877040740542 0 0.4652747003922322 0 0 0.2011627370192936 0 0 0 0 0 0 0 0 0.06175227576843741 0 0 0 0 0 0 0 0 0 0 8:1 15:1 22:1 29:1 36:1 37:1 38:1 39:1 40:1 43:1 44:1 48:1 51:1 56:1 59:1 64:1 66:1 72:1 74:1 80:1 81:1 88:1 89:1 96:1 97:1 103:1 104:1 105:1 110:1 111:1 113:1 117:1 118:1 121:1 122:1 123:1 124:1 125:1 
0.03608654177167687 1 0.8253023415090589 0 0 0.7520529451770835 0 0.07138400226434348 0 0.1575438907858723 0.2195161540083871 0.0318138715000026 0.0176913696719716 0.1574463646200427 0 0 0 0 0 0.06634028388026239 0.0007858687355865471 0.06186484865977489 0.03186416854884704 0.0145969022343709 0.07798860491718304 35:1 43:1 51:1 59:1 65:1 66:1 67:1 68:1 69:1 70:1 71:1 72:1 73:1 80:1 81:1 87:1 88:1 89:1 90:1 91:1 92:1 93:1 94:1 95:1 
0 0 1 0 0.2537434187615737 0.2044562392472555 0.01125282755653711 0.07974667852189883 0 0 0.06837407833907379 0.3471082285017988 0 0.2032706460206341 0.04279291439574873 0.03610676042721776 0 0 0 0.03359315655694362 0 0.01142020048546276 0.05771353595560822 0.03409610758410631 0.003454313693799811 51:1 52:1 56:1 58:1 59:1 64:1 66:1 71:1 72:1 73:1 74:1 75:1 76:1 77:1 78:1 79:1 
0 0 0 0.09558139195030818 0 0 0 0 0.6174387906424734 0 0 0 0 0 0 0.02477025201966495 0.372401995703081 0 0 0 0 0 0 0 0 26:1 29:1 30:1 31:1 32:1 33:1 34:1 40:1 41:1 48:1 49:1 56:1 57:1 64:1 65:1 72:1 73:1 79:1 80:1 81:1 86:1 87:1 89:1 93:1 94:1 97:1 98:1 99:1 100:1 101:1 
0 0 0 0 0 0.004372849961711443 0 0 0 0 0 0 0 0 0 0 0 0 0 0 0 0 0 0 0 26:1 27:1 28:1 29:1 30:1 34:1 35:1 38:1 39:1 41:1 42:1 47:1 48:1 49:1 56:1 57:1 64:1 65:1 72:1 73:1 80:1 81:1 88:1 89:1 90:1 95:1 96:1 98:1 99:1 100:1 101:1 102:1 103:1 
0 0 0 0 0 0 0.04709978569370915 0 0 0 0 0 0 0 0 0 0 0 0 0 0 0 0 0 0 18:1 19:1 20:1 21:1 22:1 25:1 26:1 30:1 31:1 33:1 39:1 40:1 41:1 42:1 48:1 49:1 50:1 56:1 57:1 64:1 65:1 72:1 73:1 80:1 81:1 87:1 88:1 89:1 95:1 97:1 101:1 102:1 103:1 105:1 106:1 107:1 108:1 109:1 
0 0 0 0 0 0 0 0 0.0004748743026138763 0 0 0 0 0 0 0 0 0 0 0 0 0 0 0 0 23:1 24:1 29:1 30:1 31:1 32:1 36:1 37:1 39:1 40:1 42:1 43:1 44:1 48:1 49:1 50:1 56:1 57:1 64:1 65:1 72:1 73:1 80:1 81:1 87:1 88:1 89:1 95:1 97:1 98:1 101:1 102:1 103:1 106:1 107:1 108:1 109:1 
0 0.02284191296230337 0 0 0 0 0 0 0 0 0 0 0 0 0 0 0 0 0 0 0 0 0 0 0 29:1 30:1 31:1 39:1 40:1 43:1 44:1 45:1 46:1 47:1 48:1 50:1 51:1 56:1 57:1 58:1 64:1 65:1 71:1 72:1 73:1 79:1 81:1 86:1 87:1 89:1 92:1 93:1 94:1 97:1 98:1 99:1 100:1 
0 0 0 0 0 0 0 0 0 0 0 0 0 0 0 0.04398398235765986 0 0 0 0 0 0 0 0 0 19:1 20:1 22:1 23:1 24:1 27:1 32:1 34:1 35:1 40:1 42:1 48:1 49:1 50:1 56:1 57:1 64:1 65:1 72:1 73:1 79:1 81:1 87:1 89:1 92:1 93:1 94:1 95:1 97:1 100:1 106:1 107:1 108:1 
0 0 0 0 0 0 0 0 0 0 0 0 0 0 0.02290378926169421 0 0 0 0 0 0 0 0 0 0 21:1 22:1 23:1 24:1 28:1 29:1 32:1 35:1 36:1 40:1 43:1 48:1 56:1 58:1 64:1 65:1 71:1 72:1 73:1 78:1 79:1 81:1 85:1 86:1 89:1 92:1 93:1 97:1 98:1 99:1 100:1 106:1 107:1 
0 0 0 0 0 0 0 0 0.2111106167099277 0 0 0 0 0 0 0 0 0 0 0 0 0 0 0 0 29:1 30:1 31:1 36:1 37:1 39:1 40:1 43:1 44:1 48:1 50:1 56:1 57:1 58:1 64:1 65:1 71:1 72:1 73:1 78:1 79:1 81:1 85:1 86:1 89:1 90:1 91:1 93:1 99:1 100:1 
0 0 0 0 0 0 0 0 0 0.1215859303790718 0 0 0 0 0 0 0 0 0 0 0 0 0 0 0 27:1 28:1 29:1 30:1 31:1 32:1 35:1 40:1 42:1 43:1 48:1 49:1 50:1 56:1 57:1 64:1 65:1 71:1 72:1 73:1 79:1 81:1 86:1 87:1 89:1 93:1 94:1 97:1 98:1 99:1 100:1 101:1 
0 0.0190804136054714 0 0 0 0 0 0 0 0.06878343011939186 0 0 0.01108841137911115 0 0 0 0.1306064193183616 0 0 0 0 0 0 0.007008080941584305 0 4:1 5:1 11:1 12:1 13:1 14:1 15:1 16:1 18:1 19:1 20:1 24:1 26:1 32:1 34:1 40:1 41:1 48:1 49:1 55:1 56:1 57:1 63:1 65:1 71:1 73:1 79:1 81:1 86:1 87:1 89:1 94:1 97:1 101:1 102:1 105:1 109:1 113:1 116:1 117:1 121:1 122:1 123:1 124:1 
0 0.7217556508584007 0.4542873520624968 0 0 0 0 0 0.009633402745182996 0 0.02961609254721848 0 0 0 0 0 0 0 0 0.01554300327281556 0 0 0 0 0 18:1 19:1 27:1 28:1 33:1 34:1 36:1 37:1 38:1 41:1 46:1 47:1 49:1 55:1 57:1 63:1 64:1 65:1 72:1 73:1 80:1 81:1 88:1 89:1 96:1 97:1 98:1 103:1 104:1 106:1 107:1 108:1 109:1 110:1 111:1 
0 0 0 0.1413119238894879 0 0 0 0 0 0 0 0 0.02735510061696851 0 0 0 0 0 0.04671249008205929 0 0 0 0 0 0 20:1 21:1 22:1 23:1 24:1 26:1 27:1 28:1 32:1 33:1 34:1 35:1 40:1 41:1 42:1 48:1 49:1 56:1 57:1 64:1 65:1 72:1 73:1 79:1 80:1 81:1 86:1 87:1 89:1 93:1 94:1 97:1 98:1 100:1 101:1 106:1 107:1 108:1 
0 0.4835846411345219 0 0 0 0 0 0 0.2951432655104042 0 0 0 0 0 0 0 0 0 0 0 0 0 0 0 0 36:1 37:1 38:1 42:1 43:1 44:1 46:1 47:1 49:1 50:1 55:1 57:1 64:1 65:1 72:1 73:1 79:1 80:1 81:1 82:1 87:1 90:1 91:1 92:1 93:1 94:1 95:1 
0 0 0 0.1976469818842815 0 0 0 0 0 0 0 0 0 0 0 0 0 0 0 0 0 0 0 0 0 26:1 27:1 34:1 35:1 36:1 37:1 38:1 41:1 42:1 46:1 47:1 49:1 55:1 56:1 57:1 64:1 65:1 72:1 73:1 80:1 81:1 87:1 88:1 89:1 94:1 95:1 97:1 98:1 99:1 100:1 101:1 102:1 
0 0 0 0 0 0 0 0 0 0 0 0 0 0 0 0 0 0 0 0.04422351700352485 0 0 0 0 0 17:1 18:1 19:1 20:1 21:1 25:1 26:1 29:1 34:1 35:1 37:1 38:1 42:1 46:1 49:1 54:1 55:1 57:1 63:1 64:1 65:1 72:1 73:1 80:1 81:1 82:1 88:1 90:1 96:1 98:1 104:1 106:1 107:1 108:1 109:1 110:1 111:1 112:1 
0 0.09524026555577543 0 0 0 0 0 0 0 0.08101599367257897 0 0 0 0 0.06251158674919097 0 0 0 0 0 0 0 0 0 0 20:1 21:1 22:1 23:1 24:1 28:1 29:1 32:1 36:1 37:1 40:1 43:1 44:1 48:1 51:1 56:1 58:1 59:1 63:1 64:1 66:1 71:1 73:1 74:1 78:1 81:1 85:1 86:1 89:1 92:1 93:1 97:1 98:1 99:1 100:1 105:1 106:1 
0 0 0 0 0 0 0 0 0.1048892765046017 0 0 0 0 0 0 0 0 0 0 0 0 0 0 0 0 43:1 44:1 45:1 46:1 47:1 48:1 50:1 51:1 56:1 57:1 58:1 64:1 65:1 71:1 72:1 73:1 74:1 78:1 79:1 82:1 83:1 84:1 85:1 86:1 
0 0 0 0 0 0.08252996123677926 0 0 0 0 0 0 0 0 0 0 0 0 0 0 0 0 0 0 0 28:1 29:1 34:1 35:1 36:1 37:1 41:1 42:1 44:1 45:1 46:1 49:1 54:1 55:1 56:1 57:1 64:1 65:1 72:1 73:1 80:1 81:1 88:1 89:1 90:1 96:1 98:1 99:1 100:1 101:1 102:1 103:1 104:1 
0 0 0 0 0.0555711621219704 0 0 0 0 0 0 0 0 0 0 0 0 0 0 0 0 0 0 0 0 43:1 44:1 45:1 46:1 47:1 48:1 50:1 51:1 54:1 56:1 57:1 58:1 64:1 65:1 72:1 73:1 77:1 78:1 79:1 80:1 81:1 82:1 83:1 84:1 85:1 
0 0 0 0 0 0 0 0 0 0 0 0 0 0 0 0 0 0.03506016552694614 0 0.01666205328715491 0 0 0 0 0 20:1 26:1 27:1 28:1 29:1 33:1 34:1 35:1 37:1 38:1 41:1 46:1 49:1 54:1 55:1 57:1 63:1 64:1 65:1 72:1 73:1 80:1 81:1 82:1 88:1 90:1 96:1 98:1 99:1 100:1 102:1 103:1 104:1 108:1 109:1 110:1 
0 0 0.2476278061996273 0 0 0 0 0.0007594317053812764 0 0 0 0 0 0 0 0.0257224918083 0.1165449078819201 0 0 0 0 0 0 0.02889374284373761 0 20:1 21:1 22:1 23:1 24:1 25:1 26:1 27:1 32:1 33:1 34:1 40:1 41:1 48:1 49:1 56:1 57:1 64:1 65:1 72:1 73:1 80:1 81:1 88:1 89:1 96:1 97:1 98:1 102:1 103:1 107:1 108:1 109:1 
0 0 0.1092818873542439 0 0.04050363633930113 0 0 0 0 0 0 0.06575292578738505 0.02202093504865912 0 0 0 0 0 0 0 0 0 0 0 0 42:1 43:1 44:1 45:1 46:1 47:1 48:1 49:1 56:1 57:1 64:1 65:1 72:1 73:1 79:1 80:1 81:1 82:1 83:1 84:1 85:1 86:1 87:1 
0 0 0 0.7771133748747973 0 0 0 0.07539541956825903 0.1479233674816362 0 0 0 0 0 0 0.01803024724378392 0 0 0 0 0 0.009808081345915097 0 0 0 24:1 30:1 31:1 32:1 36:1 37:1 38:1 40:1 44:1 48:1 51:1 52:1 56:1 58:1 59:1 64:1 65:1 66:1 72:1 73:1 79:1 81:1 86:1 87:1 89:1 93:1 94:1 97:1 100:1 101:1 105:1 106:1 107:1 108:1 
0.5413809728838521 1 1 0 0.002125237861959052 0.04654175597789089 0.09126512027831377 0.06802219463574073 0 0.9775390551041401 0 0 0.07470410368727118 0.1164689387948278 0.09199338092471107 0 0.02116027227300392 0.1531324171449139 0.03498980252688626 0.1045598386115615 0 0.02452469899028201 0.03214708217346431 0.06667117696244125 0.09966711454217968 45:1 46:1 47:1 48:1 51:1 52:1 53:1 56:1 58:1 59:1 60:1 63:1 64:1 65:1 66:1 70:1 71:1 73:1 76:1 77:1 78:1 81:1 82:1 83:1 84:1 
0 0 0 0 0 0 0 0 0 0 0 0 0 0 0 0 0 0 0 0 0 0 0 0 0.004949573128256691 17:1 18:1 19:1 20:1 21:1 22:1 25:1 30:1 31:1 33:1 34:1 39:1 41:1 47:1 48:1 49:1 56:1 57:1 64:1 65:1 72:1 73:1 80:1 81:1 82:1 87:1 90:1 95:1 98:1 99:1 102:1 103:1 107:1 108:1 109:1 110:1 
0 0 0.1461112995817955 0 0 0.1153450484983645 0.0670963474922401 0.0118175410044901 0 0 0.04057260582530098 0 0.08095593745564487 0.06873720877408415 0.05971905184805758 0.04208288082214958 0 0.01290206140393675 0 0 0 0.01131789398480632 0 0 0 12:1 13:1 14:1 15:1 19:1 20:1 23:1 24:1 26:1 27:1 32:1 33:1 34:1 40:1 41:1 48:1 49:1 56:1 57:1 64:1 65:1 66:1 72:1 80:1 88:1 95:1 96:1 99:1 103:1 107:1 108:1 111:1 116:1 117:1 118:1 
0 0.6976877559502401 0.243318461366756 0.3432788065843761 0.07496486477453179 0.2585607077894622 0.1442902034007564 0.04791961811022156 0 0.1203134857597109 0.09204900951946521 0.09506406077217305 0 0.03559144306108351 0.1618806823585076 0.1013759209615814 0.3120409253768195 0.1821307632831944 0 0.1050639845414898 0 0 0.01131325644166772 0.1861691667446516 0.06173964350160116 31:1 39:1 47:1 48:1 56:1 64:1 67:1 68:1 72:1 75:1 80:1 82:1 83:1 88:1 89:1 90:1 95:1 96:1 97:1 98:1 99:1 100:1 101:1 102:1 103:1 
0 0 0.2699538669540434 0 0.04529010594647783 0 0 0 0.1827224862403155 0 0 0 0 0 0 0 0 0 0 0 0 0 0 0 0 43:1 44:1 45:1 46:1 49:1 50:1 51:1 54:1 55:1 57:1 63:1 64:1 65:1 72:1 73:1 80:1 81:1 82:1 83:1 84:1 85:1 86:1 87:1 88:1 
0 0.1914180156692935 0.0006157250016452405 0.097850101799158 0.04366098882951199 0.5598596056133565 0.2075463210134887 0.001220667624192998 0 0.1499107089302594 0.09950418082988444 0.01318098500457698 0.03940451995147218 0.1595751330772684 0.02913018651782427 0 0 0.08231027402488751 0 0.1247575723366297 0 0.03780732933196365 0.04406252535867464 0 0.134536177102155 17:1 18:1 19:1 25:1 26:1 27:1 34:1 35:1 36:1 37:1 42:1 45:1 46:1 50:1 54:1 55:1 58:1 63:1 66:1 67:1 71:1 72:1 75:1 80:1 83:1 88:1 91:1 92:1 96:1 100:1 104:1 108:1 109:1 111:1 112:1 117:1 118:1 119:1 
0.01798110580198691 0 0.7821903255724695 0.102606093190917 0 0 0 0 0 0 0 0 0 0 0 0.07920306853574113 0.3408924444759916 0 0 0 0 0 0 0 0 41:1 42:1 43:1 44:1 45:1 46:1 47:1 49:1 55:1 56:1 57:1 64:1 65:1 72:1 73:1 74:1 79:1 80:1 82:1 83:1 84:1 85:1 86:1 87:1 
0 0 0 0 0 0 0 0 0 0 0 0 0 0 0 0 0 0 0.03803089826289495 0 0 0 0 0 0 13:1 14:1 15:1 18:1 19:1 20:1 21:1 23:1 24:1 25:1 26:1 32:1 35:1 40:1 43:1 48:1 50:1 51:1 56:1 58:1 64:1 66:1 72:1 74:1 80:1 81:1 82:1 87:1 88:1 89:1 95:1 97:1 98:1 102:1 103:1 106:1 108:1 109:1 110:1 114:1 115:1 116:1 
0 0 0 0.06635636615602748 0 0 0 0 0 0 0 0 0 0 0 0 0 0 0 0 0 0 0 0 0 26:1 27:1 28:1 29:1 30:1 31:1 34:1 39:1 40:1 41:1 42:1 48:1 49:1 56:1 57:1 64:1 65:1 72:1 73:1 79:1 80:1 81:1 86:1 87:1 89:1 93:1 94:1 97:1 98:1 99:1 100:1 101:1 
0.0360907704672667 0 0 0 0 0 0.007206263076145076 0.04213244503995119 0.1851718242048132 0 0 0 0.002895840614050963 0.0522570897011472 0 0 0 0 0 0.04278433958333147 0 0 0 0 0 41:1 42:1 43:1 44:1 45:1 46:1 49:1 52:1 54:1 55:1 56:1 57:1 64:1 65:1 72:1 73:1 74:1 80:1 82:1 83:1 84:1 85:1 86:1 87:1 88:1 
0 0 0.6373039706318058 0 0 0 0 0.001256711919401651 0 0 0 0 0 0 0 0 0 0 0 0 0 0 0 0 0 26:1 27:1 28:1 29:1 33:1 34:1 35:1 37:1 38:1 39:1 41:1 47:1 48:1 49:1 56:1 57:1 64:1 65:1 72:1 73:1 80:1 81:1 82:1 88:1 90:1 96:1 98:1 99:1 100:1 101:1 102:1 103:1 104:1 
0 0 0 0 0 0.2100144910997475 0 0 0 0 0 0 0 0 0 0 0 0 0 0 0 0 0 0 0 17:1 18:1 19:1 20:1 21:1 26:1 27:1 29:1 30:1 33:1 34:1 35:1 38:1 39:1 41:1 47:1 49:1 55:1 56:1 57:1 64:1 65:1 72:1 73:1 80:1 81:1 88:1 89:1 96:1 97:1 98:1 103:1 104:1 106:1 107:1 108:1 109:1 110:1 111:1 
0 0 0 0 0 0 0 0 0.1024099367494128 0.02500391202118721 0 0 0 0 0 0 0 0 0 0 0 0 0 0 0 28:1 29:1 30:1 31:1 32:1 35:1 36:1 40:1 43:1 44:1 48:1 50:1 51:1 56:1 58:1 64:1 65:1 66:1 71:1 72:1 73:1 79:1 81:1 86:1 87:1 89:1 93:1 94:1 97:1 98:1 99:1 100:1 101:1 
0 0 0 0 0 0 0 0.002933907935930078 0 0 0 0 0 0 0 0 0 0 0 0 0 0 0 0 0 20:1 21:1 22:1 23:1 27:1 28:1 32:1 34:1 35:1 40:1 41:1 42:1 43:1 48:1 49:1 56:1 57:1 64:1 65:1 72:1 73:1 80:1 81:1 82:1 87:1 88:1 89:1 90:1 94:1 97:1 98:1 100:1 101:1 102:1 106:1 107:1 108:1 
0 0 0 0 0 0 0 0 0 0 0 0 0 0 0 0 0.1245852601817241 0 0 0 0 0 0 0 0 12:1 13:1 14:1 15:1 19:1 20:1 23:1 24:1 26:1 27:1 32:1 33:1 34:1 40:1 41:1 48:1 49:1 56:1 57:1 64:1 65:1 72:1 73:1 79:1 80:1 81:1 87:1 89:1 94:1 95:1 97:1 101:1 102:1 105:1 108:1 109:1 114:1 115:1 116:1 
0 0 0 0.009504803303980479 0 0 0 0 0 0 0 0 0 0 0 0 0 0 0 0 0 0 0 0.003024527106384903 0 3:1 10:1 11:1 12:1 13:1 18:1 19:1 21:1 22:1 23:1 25:1 26:1 31:1 32:1 33:1 40:1 41:1 48:1 49:1 56:1 57:1 64:1 65:1 72:1 73:1 80:1 81:1 87:1 88:1 89:1 95:1 97:1 102:1 103:1 105:1 110:1 113:1 114:1 115:1 116:1 117:1 118:1 124:1 
0 0 0 0 0 0 0 0 0 0 0.00304627257393316 0 0 0 0 0 0 0 0 0 0 0 0 0 0 15:1 23:1 31:1 35:1 36:1 37:1 39:1 40:1 41:1 42:1 43:1 48:1 49:1 56:1 57:1 64:1 65:1 72:1 73:1 80:1 81:1 88:1 89:1 95:1 96:1 97:1 101:1 102:1 103:1 105:1 106:1 109:1 114:1 115:1 116:1 117:1 
0 0 0 0 0 0 0 0.01013659606722932 0 0 0 0 0 0 0 0 0 0 0 0 0 0 0 0 0 43:1 44:1 45:1 46:1 47:1 49:1 50:1 52:1 55:1 56:1 57:1 64:1 65:1 72:1 73:1 79:1 80:1 81:1 82:1 83:1 84:1 85:1 86:1 87:1 
0 0.3447308260610316 0 0 0 0.08357591893729688 0.08757667362651181 0 0 0 0.05479858958501171 0 0 0 0.06847200674305116 0 0 0.01668752364560537 0 0.02296415086861807 0 0 0 0 0 9:1 10:1 17:1 18:1 19:1 25:1 26:1 27:1 28:1 34:1 36:1 37:1 41:1 42:1 45:1 46:1 49:1 54:1 55:1 57:1 63:1 65:1 71:1 72:1 73:1 80:1 81:1 88:1 89:1 96:1 97:1 104:1 105:1 106:1 107:1 109:1 110:1 111:1 112:1 115:1 116:1 117:1 
0 0 0.2140201308986282 0 0 0 0 0 0 0 0 0 0 0 0 0 0 0 0 0 0 0 0 0 0 35:1 36:1 37:1 38:1 39:1 40:1 42:1 43:1 48:1 50:1 56:1 58:1 64:1 65:1 72:1 73:1 79:1 80:1 81:1 86:1 87:1 89:1 90:1 91:1 92:1 93:1 94:1 
0 0.2158480465571833 0 0.002287233890854567 0 0 0 0.001516917162074914 0 0.1732166271817563 0 0.01026007390796015 0 0 0 0.0008990348236802688 0.06167033817195636 0 0 0 0 0 0 0 0 11:1 12:1 13:1 14:1 15:1 16:1 19:1 23:1 24:1 26:1 27:1 31:1 32:1 34:1 40:1 42:1 48:1 49:1 50:1 56:1 57:1 63:1 64:1 65:1 71:1 73:1 79:1 81:1 87:1 89:1 94:1 95:1 97:1 102:1 105:1 108:1 109:1 110:1 113:1 114:1 115:1 116:1 
0 0 0.09610453574623322 0 0 0 0 0 0 0 0 0 0 0 0 0 0 0 0 0 0 0 0 0 0 11:1 12:1 13:1 21:1 22:1 25:1 26:1 27:1 28:1 30:1 31:1 33:1 37:1 39:1 41:1 47:1 48:1 49:1 56:1 57:1 64:1 65:1 72:1 73:1 80:1 81:1 88:1 90:1 96:1 99:1 104:1 108:1 109:1 111:1 112:1 117:1 118:1 119:1 
0 0 0 0 0 0.02132548996979511 0 0 0 0 0 0 0 0 0 0 0 0 0 0 0 0.005935416568557164 0 0 0 2:1 3:1 4:1 5:1 10:1 11:1 14:1 18:1 19:1 22:1 23:1 26:1 31:1 33:1 34:1 39:1 40:1 41:1 48:1 49:1 56:1 57:1 64:1 65:1 72:1 73:1 80:1 81:1 88:1 89:1 95:1 96:1 97:1 103:1 105:1 106:1 110:1 111:1 114:1 115:1 118:1 123:1 124:1 125:1 
0 0 0 0 0 0 0 0 0 0.06086729439772867 0 0 0 0 0 0 0 0 0 0 0 0 0 0.06198504770411651 0 28:1 29:1 30:1 31:1 32:1 35:1 36:1 40:1 42:1 43:1 48:1 49:1 50:1 56:1 57:1 64:1 65:1 72:1 73:1 80:1 81:1 88:1 89:1 90:1 91:1 95:1 96:1 99:1 100:1 101:1 102:1 103:1 
0 0 0 0.2695034165770142 0 0 0 0 0 0 0 0 0 0 0 0.04108176089082579 0 0 0 0 0 0 0 0 0 34:1 35:1 36:1 37:1 38:1 39:1 41:1 42:1 47:1 48:1 49:1 50:1 56:1 57:1 64:1 65:1 72:1 73:1 74:1 79:1 80:1 82:1 83:1 87:1 91:1 92:1 93:1 94:1 95:1 101:1 102:1 
0 0.07486848397558926 0 0.02773252457795739 0 0 0 0 0 0 0 0 0 0 0 0 0 0 0 0 0 0 0 0 0 26:1 27:1 28:1 29:1 30:1 33:1 34:1 35:1 38:1 39:1 41:1 42:1 47:1 48:1 49:1 50:1 56:1 58:1 64:1 65:1 66:1 72:1 73:1 79:1 80:1 81:1 86:1 87:1 89:1 92:1 93:1 94:1 97:1 98:1 99:1 100:1 
0 0 0 0 0 0 0 0 0 0 0 0 0 0 0 0 0 0 0 0 0 0 0 0.05110473502433692 0 27:1 28:1 29:1 30:1 33:1 34:1 38:1 39:1 41:1 47:1 48:1 49:1 56:1 57:1 64:1 65:1 72:1 73:1 80:1 81:1 88:1 89:1 90:1 91:1 92:1 95:1 96:1 100:1 101:1 102:1 103:1 
0 0.03157316000156433 0 0 0.03009885755569338 0.1441496257894222 0 0 0 0.04480118025538321 0.004743257782511609 0.05408830880694969 0.08558917562976134 0 0.03730386680816563 0.004832585746074224 0.02545332828508805 0.0020887710889383 0.1333936112947943 0.008401057778931572 0 0.004664405388603046 0 0 0 4:1 5:1 6:1 7:1 11:1 12:1 15:1 18:1 23:1 24:1 25:1 26:1 27:1 28:1 32:1 33:1 36:1 40:1 41:1 47:1 48:1 49:1 55:1 57:1 63:1 65:1 70:1 73:1 77:1 78:1 81:1 85:1 89:1 92:1 93:1 97:1 98:1 99:1 100:1 105:1 106:1 114:1 122:1 
0 0.08504900006984187 0 0 0 0 0 0 0 0 0 0 0 0 0 0 0 0 0 0 0 0 0 0 0 26:1 27:1 28:1 29:1 33:1 34:1 35:1 36:1 37:1 38:1 39:1 42:1 47:1 48:1 49:1 56:1 57:1 64:1 65:1 72:1 73:1 80:1 81:1 86:1 87:1 88:1 89:1 92:1 93:1 94:1 97:1 98:1 99:1 100:1 
0 0 0 0 0 0 0 0.0698793108916333 0 0 0 0 0 0 0 0 0 0 0.001627594294529746 0 0 0 0 0 0 19:1 20:1 21:1 22:1 23:1 24:1 26:1 27:1 28:1 32:1 33:1 34:1 35:1 40:1 42:1 48:1 50:1 56:1 57:1 58:1 64:1 65:1 72:1 73:1 79:1 80:1 81:1 86:1 87:1 89:1 94:1 97:1 101:1 102:1 105:1 106:1 107:1 108:1 109:1 
0 0 0 0 0 0 0 0 0.1458092014145646 0 0 0.01477683199420926 0 0 0 0 0 0 0 0 0.01966477695651717 0 0 0 0 33:1 34:1 35:1 36:1 37:1 38:1 41:1 46:1 49:1 55:1 57:1 63:1 64:1 65:1 72:1 73:1 80:1 81:1 88:1 89:1 90:1 91:1 92:1 93:1 94:1 95:1 96:1 
0 0 0 0 0 0 0 0 0 0 0 0.02987066951159703 0 0 0 0 0 0 0 0 0 0 0 0 0 17:1 18:1 19:1 20:1 21:1 22:1 25:1 30:1 31:1 33:1 39:1 40:1 48:1 56:1 64:1 65:1 72:1 73:1 80:1 81:1 88:1 89:1 95:1 96:1 97:1 98:1 101:1 102:1 103:1 106:1 107:1 108:1 109:1 
0 0 0 0.09977177818140602 0 0 0 0 0 0 0 0 0 0 0 0 0.300391753208458 0 0 0 0 0 0 0 0 34:1 35:1 36:1 37:1 38:1 39:1 41:1 42:1 47:1 48:1 49:1 56:1 57:1 64:1 65:1 72:1 73:1 80:1 81:1 82:1 83:1 84:1 86:1 87:1 88:1 92:1 93:1 94:1 95:1 96:1 
0 0 0.6067122126469811 0 0 0 0 0.02504344436602737 0 0 0 0 0 0 0 0.06632587122581948 1 0 0 0 0 0 0 0.04989967243295059 0 41:1 42:1 43:1 46:1 47:1 48:1 49:1 56:1 57:1 64:1 65:1 72:1 73:1 80:1 81:1 82:1 83:1 84:1 85:1 86:1 87:1 88:1 
0.111769891722945 0 0 0 0 0 0 0 0.1072680981667786 0 0 0 0 0 0 0 0.1697361988343905 0 0 0 0 0.002769373857461862 0 0 0 37:1 41:1 42:1 43:1 44:1 45:1 46:1 49:1 54:1 55:1 57:1 64:1 65:1 72:1 73:1 80:1 81:1 82:1 87:1 88:1 90:1 91:1 92:1 93:1 94:1 95:1 
0 0 0.01821805035519359 0.07311563369937221 0.01098701012629155 0 0 0.01851720480040807 0 0 0 0 0 0.04943382002178042 0.008161638298236684 0.04858780926280195 0 0.03345859709998111 0.0425652570238293 0.04970919769657045 0 0.02987346550501736 0 0 0.02476060971002277 2:1 3:1 4:1 5:1 9:1 13:1 17:1 21:1 22:1 25:1 30:1 33:1 38:1 39:1 41:1 47:1 48:1 49:1 56:1 57:1 64:1 65:1 72:1 74:1 80:1 82:1 88:1 90:1 96:1 99:1 104:1 107:1 112:1 115:1 116:1 117:1 119:1 120:1 125:1 126:1 127:1 
0 0 0 0 0 0 0 0 0 0 0 0 0 0 0 0.1113146100105904 0.1954849791753707 0 0 0 0 0 0 0 0 17:1 18:1 19:1 20:1 21:1 22:1 23:1 25:1 31:1 33:1 39:1 40:1 41:1 48:1 49:1 56:1 57:1 64:1 65:1 72:1 73:1 79:1 80:1 81:1 82:1 87:1 90:1 95:1 98:1 99:1 102:1 103:1 107:1 108:1 109:1 110:1 
0 0 0 0 0 0 0 0 0 0 0 0.006543676754656448 0 0 0 0 0 0 0 0 0 0 0 0 0 29:1 30:1 34:1 39:1 40:1 42:1 48:1 49:1 50:1 56:1 57:1 64:1 65:1 72:1 73:1 80:1 81:1 87:1 88:1 89:1 90:1 94:1 95:1 98:1 99:1 100:1 101:1 102:1 
0 0 0.1097262970776504 0 0 0 0 0 0 0 0 0 0 0 0 0.07054306594652003 0.1687408808171409 0 0 0 0 0 0 0.01805349775552931 0 17:1 22:1 25:1 30:1 31:1 33:1 39:1 40:1 41:1 48:1 49:1 56:1 57:1 64:1 65:1 72:1 73:1 80:1 81:1 88:1 89:1 90:1 96:1 98:1 99:1 104:1 107:1 108:1 109:1 110:1 111:1 112:1 
0.02340416579468675 0 0 0 0 0 0.02054641780764298 0 0 0 0 0 0 0 0 0 0 0 0 0.02402570693204367 0 0 0 0 0 2:1 3:1 9:1 10:1 11:1 12:1 17:1 18:1 20:1 21:1 25:1 29:1 30:1 33:1 38:1 39:1 41:1 47:1 49:1 55:1 56:1 57:1 64:1 65:1 72:1 73:1 80:1 81:1 88:1 89:1 96:1 97:1 104:1 105:1 111:1 112:1 113:1 118:1 119:1 121:1 122:1 123:1 124:1 125:1 126:1 
0.148521087945636 0.1286009247459545 0.7285129957452412 0 0 0 0 0.07785256915041279 0 0.4261390517032866 0.03854909989476715 0 0 0 0 0 0 0 0 0 0 0.02578436190621818 0.01260590957355587 0 0 34:1 35:1 36:1 37:1 38:1 39:1 42:1 43:1 47:1 49:1 50:1 51:1 55:1 56:1 57:1 59:1 64:1 66:1 67:1 72:1 75:1 80:1 83:1 84:1 88:1 92:1 93:1 94:1 95:1 96:1 
0 0 0 0 0 0 0 0 0 0 0 0 0 0 0.06081683838810881 0 0 0 0 0 0 0 0 0 0 25:1 26:1 27:1 28:1 29:1 33:1 34:1 35:1 36:1 37:1 38:1 41:1 46:1 47:1 49:1 55:1 56:1 57:1 64:1 65:1 72:1 73:1 80:1 81:1 82:1 88:1 90:1 95:1 96:1 98:1 99:1 100:1 101:1 102:1 103:1 
0 0 0 0 0 0 0 0 0 0 0 0 0 0 0 0 0 0 0 0 0.02265174650788752 0 0 0 0 33:1 34:1 35:1 36:1 41:1 42:1 45:1 46:1 49:1 54:1 55:1 57:1 63:1 64:1 65:1 72:1 73:1 80:1 81:1 82:1 88:1 90:1 91:1 92:1 93:1 94:1 95:1 96:1 
0 0 0.2985731406223129 0 0 0 0.02198070415779472 0 0.2466548036066751 0 0.02914541132420506 0 0 0 0 0 0 0 0 0.001195053923075972 0 0 0 0 0 26:1 27:1 33:1 34:1 35:1 36:1 37:1 41:1 45:1 46:1 49:1 54:1 57:1 62:1 63:1 65:1 71:1 72:1 73:1 80:1 81:1 82:1 88:1 90:1 91:1 96:1 99:1 100:1 101:1 102:1 103:1 104:1 
0 0.1219074440755977 0 0 0 0 0 0 0.1349757461199187 0 0 0 0 0 0 0 0.1202415533811265 0 0 0 0.03515332008151899 0 0 0 0 29:1 30:1 31:1 36:1 37:1 39:1 40:1 48:1 49:1 56:1 57:1 63:1 64:1 65:1 71:1 73:1 78:1 79:1 81:1 85:1 86:1 89:1 93:1 97:1 98:1 99:1 100:1 
0 0 0 0 0 0 0 0 0.4478777935967699 0 0 0 0 0 0 0 0 0 0 0 0 0 0 0 0 20:1 21:1 22:1 23:1 31:1 32:1 34:1 35:1 36:1 37:1 40:1 42:1 48:1 49:1 56:1 57:1 64:1 65:1 72:1 73:1 80:1 81:1 87:1 89:1 94:1 95:1 97:1 98:1 102:1 106:1 107:1 108:1 109:1 
0.07950758840530897 0 0.2894182299484542 0 0 0 0 0 0 0 0 0 0 0 0 0 0 0 0 0 0 0 0 0 0 36:1 37:1 38:1 39:1 40:1 42:1 43:1 44:1 48:1 49:1 50:1 56:1 57:1 64:1 65:1 71:1 72:1 73:1 78:1 79:1 81:1 85:1 86:1 89:1 90:1 91:1 92:1 
0 0 0 0.0356073633336109 0 0 0 0 0 0 0 0 0 0 0 0 0 0 0 0 0 0 0 0 0 28:1 29:1 30:1 34:1 35:1 36:1 38:1 39:1 42:1 47:1 48:1 49:1 50:1 56:1 57:1 64:1 65:1 72:1 73:1 74:1 80:1 82:1 83:1 84:1 85:1 87:1 88:1 93:1 94:1 95:1 103:1 
0 0 0.240164535683878 0 0 0 0 0 0 0.09657981339949299 0.1862159238747789 0 0 0 0 0 0 0 0 0 0 0 0 0 0 28:1 29:1 30:1 35:1 36:1 38:1 39:1 42:1 43:1 47:1 48:1 49:1 50:1 56:1 57:1 64:1 65:1 72:1 73:1 80:1 81:1 82:1 83:1 84:1 88:1 92:1 93:1 94:1 96:1 103:1 104:1 
0 0 0.3565189728565155 0 0 0 0 0 0 0 0 0 0 0 0 0.02804463594963801 0 0 0 0 0 0 0 0 0 35:1 36:1 37:1 39:1 40:1 41:1 42:1 43:1 48:1 49:1 56:1 57:1 64:1 65:1 72:1 73:1 74:1 79:1 80:1 83:1 86:1 87:1 92:1 93:1 94:1 
0 0 0 0.2540645501239973 0 0 0 0 0.484528486055936 0 0 0 0 0 0 0 0.04153768110410831 0 0 0 0 0 0 0 0 22:1 23:1 29:1 30:1 32:1 36:1 40:1 43:1 48:1 50:1 56:1 57:1 58:1 64:1 65:1 71:1 72:1 73:1 79:1 81:1 86:1 87:1 89:1 93:1 94:1 97:1 98:1 99:1 100:1 101:1 106:1 107:1 
0 0 0 0 0.0009987035644721575 0.1785395556288473 0.06930623411829309 0 0 0 0 0 0.006508316852943164 0 0.04786834315000352 0 0 0 0 0 0 0.0167206153422857 0 0 0.01828577601806252 2:1 3:1 9:1 10:1 11:1 12:1 13:1 14:1 17:1 21:1 22:1 25:1 30:1 33:1 38:1 39:1 41:1 47:1 48:1 49:1 56:1 57:1 64:1 65:1 72:1 73:1 80:1 81:1 88:1 89:1 96:1 97:1 104:1 105:1 112:1 113:1 119:1 120:1 121:1 122:1 123:1 124:1 125:1 126:1 127:1 
0 0.1716960334148839 0 0.05032789226944966 0.01825349928681593 0.1707888754984879 0.1390173562649958 0.1146114790961898 0.006017696329211769 0.2548350328064907 0.1938951265226012 0.01599813337579202 0.02716945948013823 0.1149664106571216 0.08263710626037349 0 0 0.09137858427096798 0 0 0.06893649828986713 0.02974526136529334 0.06974983394090056 0 0.09892181229620103 3:1 4:1 5:1 11:1 13:1 21:1 27:1 28:1 29:1 35:1 37:1 43:1 45:1 50:1 51:1 53:1 58:1 61:1 62:1 66:1 70:1 74:1 78:1 82:1 86:1 87:1 90:1 95:1 98:1 103:1 106:1 110:1 111:1 114:1 115:1 118:1 123:1 124:1 125:1 126:1 
0 0 0 0 0 0 0 0 0.0161113994588684 0 0 0 0 0 0 0 0 0 0 0 0 0 0 0 0 25:1 26:1 27:1 33:1 35:1 36:1 37:1 38:1 41:1 46:1 47:1 49:1 50:1 55:1 56:1 57:1 58:1 64:1 65:1 66:1 72:1 73:1 80:1 81:1 87:1 88:1 89:1 90:1 94:1 95:1 98:1 99:1 100:1 101:1 102:1 
0 0 0 0 0 0 0 0 0 0 0 0 0 0 0 0 0 0 0.005122505820434328 0 0 0 0 0 0 2:1 3:1 4:1 10:1 11:1 12:1 18:1 19:1 20:1 21:1 25:1 26:1 29:1 30:1 31:1 32:1 33:1 40:1 41:1 48:1 49:1 56:1 57:1 64:1 65:1 72:1 73:1 80:1 81:1 88:1 89:1 96:1 97:1 104:1 105:1 111:1 112:1 113:1 114:1 118:1 119:1 122:1 123:1 124:1 125:1 126:1 
0 0.6967691599523349 0 0.04104300329167365 0 0 0.02800891385820283 0 0 0.6471345870123502 0.1961906649932455 0 0.005002868840549896 0.0128424266171645 0 0 0 0.1397378716467741 0 0.04066501092447403 0 0 0.05062659157292082 0 0.0523787021879266 34:1 35:1 36:1 41:1 42:1 44:1 46:1 49:1 52:1 54:1 55:1 57:1 63:1 64:1 65:1 72:1 73:1 74:1 75:1 80:1 83:1 84:1 85:1 88:1 93:1 94:1 95:1 96:1 
0.2609146721216258 0 0 0 0 0 0 0 0 0.1687105580035924 0 0 0 0 0 0 0 0 0 0 0 0 0 0 0 34:1 35:1 36:1 41:1 42:1 44:1 45:1 46:1 49:1 50:1 51:1 52:1 54:1 55:1 57:1 60:1 63:1 64:1 65:1 72:1 73:1 80:1 81:1 82:1 85:1 86:1 87:1 88:1 90:1 91:1 92:1 93:1 
0 0 0 0 0 0 0 0 0 0 0 0.009512879014891468 0 0 0 0 0 0 0 0 0 0 0 0 0 19:1 27:1 28:1 29:1 30:1 35:1 38:1 39:1 42:1 43:1 48:1 50:1 56:1 57:1 58:1 64:1 65:1 72:1 73:1 79:1 80:1 81:1 87:1 89:1 94:1 97:1 101:1 102:1 105:1 106:1 107:1 108:1 109:1 
0 0 0 0 0 0.0203069772261197 0 0 0 0 0 0 0 0 0 0 0 0 0 0 0 0 0 0 0 4:1 5:1 6:1 11:1 12:1 13:1 14:1 15:1 18:1 19:1 21:1 22:1 23:1 26:1 27:1 30:1 31:1 34:1 39:1 41:1 42:1 47:1 48:1 49:1 56:1 57:1 64:1 65:1 72:1 73:1 80:1 81:1 88:1 89:1 96:1 97:1 103:1 104:1 105:1 106:1 110:1 111:1 114:1 118:1 122:1 123:1 124:1 125:1 126:1 
0.006667373992433077 0 0 0 0 0 0 0 0 0 0 0 0 0 0 0 0 0 0 0 0 0 0 0 0 28:1 35:1 36:1 37:1 38:1 39:1 42:1 43:1 47:1 50:1 55:1 56:1 57:1 58:1 64:1 65:1 72:1 73:1 80:1 81:1 88:1 89:1 90:1 95:1 96:1 98:1 99:1 100:1 101:1 102:1 103:1 
0 0 0 0 0 0.672581905134127 0 0 0.09621937326295209 0 0 0 0 0 0 0 0.2520995123827985 0 0 0 0 0 0 0 0 28:1 29:1 30:1 31:1 32:1 40:1 43:1 44:1 45:1 46:1 48:1 50:1 54:1 56:1 57:1 64:1 65:1 71:1 72:1 73:1 79:1 81:1 86:1 87:1 89:1 90:1 93:1 94:1 98:1 99:1 100:1 101:1 
0 1 1 0 0 0 0 0 0.2479219144872597 0.1034139836182111 0 0 0 0 0 0 0.2103898791078397 0.0987578814186174 0 0 0 0 0 0.07076984847843282 0 50:1 51:1 52:1 53:1 54:1 55:1 56:1 57:1 58:1 64:1 65:1 72:1 73:1 74:1 75:1 76:1 77:1 78:1 79:1 80:1 
0 0 0 0 0 0 0 0 0 0 0.1250512500592435 0 0.03134368377549179 0 0.05331405577953025 0 0 0 0 0 0 0 0 0 0 28:1 29:1 30:1 31:1 32:1 34:1 35:1 36:1 40:1 41:1 42:1 43:1 48:1 49:1 50:1 56:1 58:1 64:1 66:1 72:1 74:1 80:1 82:1 87:1 88:1 90:1 91:1 93:1 94:1 95:1 99:1 100:1 101:1 
0 0 0 0 0 0 0 0 0 0 0.01118339759183332 0 0 0 0 0 0 0 0 0 0 0 0 0 0 20:1 21:1 22:1 27:1 28:1 30:1 31:1 35:1 39:1 40:1 42:1 43:1 48:1 49:1 50:1 56:1 57:1 64:1 65:1 72:1 73:1 80:1 81:1 88:1 89:1 95:1 96:1 97:1 101:1 102:1 103:1 106:1 107:1 108:1 109:1 
0.084874879801926 0.5884407672831448 1 0 0.02834831072745151 0.2210564562368945 0 0 0.2271090108089198 0 0.2243046059927042 0.01572585324470501 0 0.03414297192591645 0.07238414800674019 0 0 0 0 0 0.02521937426410693 0 0.09086081155274808 0 0 35:1 36:1 42:1 43:1 44:1 45:1 49:1 50:1 53:1 54:1 55:1 57:1 63:1 65:1 71:1 72:1 73:1 80:1 81:1 87:1 88:1 95:1 
0 0 1 0 0 0 0 0 0 0 0 0 0 0 0 0 0 0 0 0 0 0 0 0 0 35:1 36:1 37:1 38:1 42:1 43:1 46:1 47:1 48:1 49:1 50:1 56:1 57:1 58:1 64:1 65:1 66:1 72:1 73:1 80:1 81:1 82:1 83:1 88:1 91:1 92:1 93:1 94:1 95:1 96:1 
0 0 0 0 0 0 0 0.0412439327273387 0 0 0 0 0 0 0.05671224993307451 0.1167731089128495 0 0 0 0 0 0.019543890486613 0 0 0 11:1 12:1 13:1 14:1 15:1 16:1 18:1 19:1 24:1 25:1 26:1 32:1 33:1 40:1 41:1 48:1 49:1 56:1 57:1 64:1 65:1 72:1 73:1 80:1 88:1 96:1 99:1 100:1 104:1 108:1 109:1 111:1 112:1 117:1 118:1 119:1 
0 0 0 0 0 0 0 0.02673345043716514 0 0 0 0 0 0 0 0 0 0 0 0 0 0 0 0 0 37:1 38:1 45:1 46:1 47:1 48:1 50:1 51:1 52:1 53:1 54:1 56:1 57:1 58:1 64:1 65:1 72:1 73:1 79:1 80:1 81:1 85:1 86:1 89:1 90:1 91:1 92:1 93:1 
0 0 0 0.01961637364806287 0 0 0 0 0 0 0 0 0 0 0 0 0 0 0 0 0 0 0 0 0 33:1 34:1 35:1 36:1 37:1 38:1 39:1 40:1 41:1 48:1 56:1 64:1 65:1 66:1 72:1 73:1 79:1 80:1 81:1 87:1 89:1 94:1 95:1 97:1 98:1 99:1 100:1 101:1 102:1 
0 0.6743689373558469 0 0 0 0 0 0 0 0 0 0 0 0 0 0 0 0 0 0 0 0 0 0 0 34:1 35:1 36:1 37:1 38:1 39:1 42:1 43:1 44:1 47:1 48:1 49:1 50:1 56:1 57:1 64:1 65:1 72:1 73:1 79:1 80:1 81:1 86:1 87:1 89:1 90:1 91:1 92:1 93:1 94:1 
0 0.5038582404108434 0 0 0 0 0 0 0 0 0 0 0 0 0.03640811288276352 0 0 0 0 0 0 0 0 0 0 31:1 32:1 37:1 38:1 39:1 40:1 44:1 45:1 46:1 48:1 52:1 56:1 59:1 60:1 63:1 64:1 66:1 67:1 71:1 73:1 74:1 77:1 78:1 79:1 81:1 84:1 85:1 89:1 91:1 92:1 97:1 98:1 99:1 
0.02487212203620399 0.2596660327341652 0 0.1040206050172907 0 0 0 0 0 0 0 0 0 0 0 0 0 0 0 0 0 0 0 0 0 22:1 23:1 24:1 29:1 30:1 31:1 32:1 36:1 37:1 39:1 40:1 43:1 44:1 47:1 48:1 50:1 51:1 56:1 58:1 64:1 65:1 66:1 71:1 72:1 73:1 79:1 81:1 86:1 87:1 89:1 93:1 94:1 97:1 99:1 100:1 101:1 105:1 106:1 107:1 
0 0 0 0.1687640725313324 0 0 0 0 0 0 0 0 0 0 0 0 0 0 0 0 0 0 0 0 0 29:1 30:1 36:1 37:1 38:1 39:1 40:1 44:1 48:1 51:1 56:1 58:1 59:1 64:1 66:1 71:1 72:1 73:1 74:1 78:1 79:1 81:1 85:1 86:1 89:1 92:1 93:1 97:1 98:1 99:1 100:1 
0 0 0 0 0 0 0 0.05139529894363531 0 0.2776428008684936 0 0 0 0 0 0 0 0 0 0 0 0 0 0 0 35:1 36:1 37:1 38:1 39:1 40:1 42:1 43:1 48:1 49:1 50:1 56:1 57:1 64:1 65:1 72:1 73:1 78:1 79:1 81:1 85:1 86:1 89:1 90:1 91:1 92:1 93:1 
0 0.2930902053565498 0 0 0.01255988436691129 0 0 0 0.1769658061251636 0.01503900598039428 0 0 0.01080104421875751 0 0 0 0 0.02773236401083116 0 0 0 0.0127545841900086 0.04562498511078381 0 0 35:1 36:1 43:1 44:1 45:1 49:1 50:1 51:1 53:1 54:1 57:1 62:1 63:1 65:1 71:1 72:1 73:1 80:1 81:1 82:1 88:1 90:1 91:1 92:1 93:1 94:1 95:1 96:1 
0 0 0 0 0 0 0 0 0 0 0 0 0 0 0 0 0.0360907790430982 0 0 0 0 0 0 0 0 31:1 32:1 38:1 39:1 40:1 44:1 45:1 48:1 50:1 51:1 52:1 53:1 56:1 57:1 58:1 64:1 65:1 71:1 72:1 73:1 78:1 79:1 81:1 84:1 85:1 86:1 89:1 91:1 92:1 97:1 98:1 99:1 
0 0 0.2814324446472702 0 0 0 0 0 0 0 0 0 0 0 0 0 0 0 0 0 0 0 0 0 0 19:1 20:1 21:1 29:1 30:1 34:1 38:1 39:1 42:1 47:1 48:1 49:1 50:1 56:1 57:1 64:1 65:1 72:1 73:1 80:1 81:1 88:1 89:1 96:1 98:1 104:1 107:1 108:1 109:1 110:1 111:1 112:1 
0 0.1819710320818762 0.2301168612432438 0 0 0.08838392678642835 0 0 0 0 0 0.01139752074851473 0 0 0 0 0 0 0 0 0 0 0 0 0 6:1 13:1 14:1 20:1 21:1 22:1 27:1 28:1 30:1 31:1 34:1 35:1 39:1 40:1 42:1 48:1 49:1 50:1 56:1 57:1 64:1 65:1 72:1 73:1 80:1 81:1 88:1 89:1 96:1 97:1 104:1 105:1 106:1 112:1 114:1 119:1 120:1 123:1 124:1 125:1 126:1 127:1 
0.2797292946858803 0.883281216557423 0 0 0.05654494830043647 0.3098368828697164 0 0.1203697396144078 0.7523456117943338 0.5555583412255632 0 0.08091834703702754 0.08073778587140691 0 0 0.0599694521614335 0 0 0.09173831300841698 0.03841926914226022 0 0 0.09406513228924487 0.09324247991273156 0.05236396347182452 43:1 44:1 50:1 51:1 52:1 53:1 54:1 55:1 56:1 57:1 58:1 64:1 65:1 72:1 73:1 76:1 77:1 78:1 79:1 80:1 81:1 82:1 83:1 84:1 
0 0.05579513311280682 0 0.1273444740865963 0.2139556026208781 0.800516538558012 0.06559418235063104 0.131280956828176 0.1408060009459308 0.3722470141278937 0.09452515607424089 0.123658672800599 0.272009114645646 0.3265895597077174 0.142013478071058 0 0 0.05908414282587043 0.04423120565776487 0 0.07552630393488885 0.0114430617610895 0.04963913788903903 0 0.07857760295505403 5:1 6:1 13:1 20:1 21:1 28:1 29:1 36:1 37:1 38:1 43:1 44:1 46:1 51:1 54:1 59:1 62:1 67:1 70:1 75:1 78:1 83:1 86:1 91:1 94:1 99:1 102:1 107:1 110:1 115:1 118:1 123:1 124:1 125:1 
0 0 0 0 0 0 0 0 0 0 0 0 0 0 0 0 0 0 0 0 0 0.02809212972506035 0 0 0 34:1 35:1 36:1 37:1 38:1 39:1 40:1 42:1 43:1 44:1 48:1 50:1 56:1 57:1 64:1 65:1 72:1 73:1 80:1 81:1 87:1 88:1 89:1 90:1 91:1 92:1 93:1 94:1 95:1 
0 0 0 0 0 0 0 0 0 0 0 0 0 0.05927342985796372 0.08732413511243185 0.07767285423649262 0.1894998652936665 0 0 0 0 0 0 0 0 26:1 27:1 28:1 29:1 30:1 33:1 34:1 38:1 39:1 41:1 47:1 48:1 49:1 56:1 57:1 64:1 65:1 71:1 72:1 73:1 79:1 83:1 87:1 91:1 92:1 95:1 100:1 101:1 102:1 
0.1177649759606455 0.8162255962548253 0 0.2746565080668301 0 0.1270268684501511 0.2370553424154704 0.03960844935385503 0 0.423372809764371 0.1990632728829108 0.01038345024221753 0 0 0 0.06848688256888155 0.4576256791047985 0.06948612554654961 0 0.1784221868436928 0.01268523716693496 0.01548239554280529 0.03780568608461655 0.0437221093624042 0.1451802627114573 25:1 33:1 41:1 49:1 50:1 51:1 52:1 57:1 61:1 65:1 69:1 70:1 71:1 72:1 73:1 79:1 80:1 81:1 86:1 87:1 89:1 90:1 91:1 93:1 94:1 99:1 100:1 101:1 
0 0 0.2542985351714851 0.007054778684094113 0 0.05814285577470499 0 0 0 0 0 0.009080214679050595 0 0 0 0 0.007141478181059671 0 0.02405279737120022 0 0 0 0 0.02053293884009413 0 9:1 10:1 11:1 12:1 13:1 14:1 17:1 22:1 23:1 25:1 31:1 32:1 33:1 40:1 41:1 48:1 49:1 56:1 57:1 64:1 65:1 72:1 73:1 80:1 81:1 88:1 89:1 96:1 97:1 98:1 104:1 106:1 112:1 115:1 116:1 117:1 118:1 119:1 120:1 
0 0 0 0 0 0 0 0 0.0006129921878662083 0 0 0 0 0 0 0 0 0 0 0 0 0 0 0 0 18:1 19:1 20:1 21:1 29:1 30:1 36:1 38:1 39:1 44:1 47:1 50:1 51:1 52:1 55:1 56:1 57:1 58:1 64:1 65:1 72:1 73:1 80:1 81:1 88:1 89:1 96:1 97:1 98:1 103:1 104:1 106:1 107:1 108:1 109:1 110:1 111:1 
0 0 0.013289250526517 0 0 0 0 0 0 0 0 0 0.006484822512243711 0 0 0 0 0 0 0 0 0 0 0 0 1:1 2:1 3:1 9:1 11:1 12:1 13:1 17:1 21:1 22:1 26:1 30:1 31:1 34:1 39:1 42:1 48:1 49:1 50:1 56:1 57:1 64:1 65:1 66:1 72:1 74:1 80:1 82:1 88:1 90:1 91:1 96:1 99:1 103:1 104:1 107:1 108:1 110:1 111:1 116:1 117:1 118:1 126:1 
0 0.6065079636660501 0 0 0 0 0 0 0 0 0 0 0 0 0 0 0 0 0 0 0 0 0 0 0 27:1 28:1 29:1 34:1 35:1 36:1 37:1 41:1 42:1 45:1 46:1 49:1 54:1 55:1 57:1 63:1 65:1 71:1 72:1 73:1 80:1 81:1 82:1 88:1 90:1 91:1 92:1 96:1 100:1 101:1 102:1 103:1 104:1 
0 0 0 0 0 0 0 0 0 0 0 0 0 0 0 0 0 0.0005756978014629121 0 0 0 0.01623494389330217 0 0 0 20:1 21:1 22:1 26:1 27:1 28:1 29:1 30:1 31:1 33:1 34:1 36:1 38:1 39:1 41:1 48:1 49:1 56:1 57:1 64:1 65:1 72:1 73:1 79:1 80:1 81:1 87:1 89:1 94:1 95:1 97:1 101:1 102:1 105:1 106:1 107:1 108:1 109:1 
0 0.03574929116719619 0 0 0 0 0 0 0 0 0 0 0 0 0 0 0 0.02061036772668148 0 0 0 0 0 0 0 19:1 20:1 21:1 26:1 27:1 29:1 30:1 34:1 38:1 39:1 47:1 49:1 55:1 56:1 57:1 64:1 65:1 72:1 73:1 80:1 81:1 88:1 89:1 96:1 97:1 98:1 104:1 107:1 108:1 109:1 110:1 111:1 
0.0212563849595775 0 0 0 0 0 0 0 0 0 0 0 0 0 0 0 0 0 0 0 0 0 0 0 0 3:1 11:1 12:1 20:1 21:1 27:1 28:1 29:1 30:1 31:1 32:1 34:1 35:1 38:1 39:1 40:1 41:1 42:1 47:1 48:1 49:1 55:1 56:1 57:1 63:1 64:1 65:1 72:1 73:1 80:1 81:1 88:1 89:1 90:1 96:1 98:1 104:1 106:1 107:1 112:1 115:1 116:1 118:1 119:1 120:1 124:1 125:1 126:1 
0 0 0 0 0 0 0.03291229972850971 0 0 0 0 0 0 0 0 0.03860959470921348 0 0 0 0 0 0 0 0.02047519525601609 0 19:1 20:1 21:1 22:1 25:1 26:1 30:1 31:1 32:1 33:1 40:1 41:1 48:1 49:1 56:1 57:1 64:1 65:1 72:1 73:1 80:1 81:1 87:1 88:1 89:1 94:1 95:1 97:1 100:1 101:1 102:1 105:1 106:1 107:1 108:1 
0 0 0 0 0 0 0 0 0 0 0 0 0.002633157263313791 0 0 0 0 0 0 0 0 0 0 0 0 17:1 18:1 19:1 20:1 25:1 28:1 29:1 30:1 33:1 35:1 36:1 38:1 39:1 42:1 43:1 47:1 48:1 50:1 56:1 57:1 58:1 64:1 65:1 72:1 73:1 80:1 81:1 88:1 89:1 95:1 96:1 97:1 98:1 101:1 102:1 103:1 107:1 108:1 109:1 
0 0 0 0 0 0.1037278411403589 0 0 0 0 0 0 0 0 0 0 0 0 0 0 0 0 0 0 0 9:1 10:1 11:1 12:1 20:1 21:1 22:1 30:1 31:1 34:1 35:1 39:1 40:1 42:1 48:1 49:1 50:1 56:1 57:1 64:1 65:1 72:1 73:1 80:1 81:1 88:1 89:1 96:1 97:1 102:1 103:1 104:1 105:1 109:1 110:1 113:1 114:1 115:1 116:1 117:1 
0 0.1161856171795332 0 0.3631020554150312 0.01166568888345426 0.1821660823989395 0.05131325890512393 0.1682371278129761 0.3246366313550667 0.507724565996454 0.1657977522367035 0 0.09700659134298069 0.12007274583212 0.08319213496084925 0 0 0.06728296116490018 0 0.1191191626518864 0.006501967450927622 0.0277922151737985 0.0359477570923295 0 0.05586980262802365 7:1 14:1 15:1 22:1 29:1 30:1 36:1 37:1 39:1 43:1 44:1 47:1 51:1 55:1 58:1 59:1 63:1 66:1 71:1 74:1 79:1 82:1 86:1 87:1 90:1 94:1 98:1 101:1 102:1 106:1 109:1 114:1 116:1 117:1 122:1 123:1 124:1 
0 0 0 0.1143445371821637 0.03550145189282825 0.2356831926685527 0.0381201189183756 0 0 0 0 0 0.03715354475446896 0 0.1582495134795826 0.09482223423199042 0 0.04296877767357389 0.0694868510687676 0 0.06045171575951693 0.004295412845786252 0.006826511817765674 0 0 7:1 8:1 15:1 22:1 24:1 30:1 32:1 37:1 40:1 45:1 48:1 52:1 53:1 56:1 60:1 64:1 67:1 68:1 71:1 72:1 75:1 79:1 82:1 87:1 90:1 94:1 97:1 102:1 105:1 109:1 110:1 113:1 117:1 121:1 122:1 123:1 124:1 
0 0 0.3225205971764921 0 0 0 0 0 0 0 0 0 0 0 0.03167185919027232 0 0 0 0 0 0 0.05246845287055519 0 0 0 36:1 37:1 38:1 39:1 43:1 44:1 45:1 46:1 47:1 48:1 50:1 51:1 56:1 58:1 64:1 66:1 72:1 73:1 79:1 80:1 81:1 85:1 86:1 87:1 89:1 90:1 91:1 92:1 93:1 
0 0 0 0 0 0 0 0 0 0 0 0 0 0 0 0 0.06407600969985011 0 0 0 0 0 0 0 0 35:1 36:1 37:1 39:1 42:1 47:1 48:1 49:1 50:1 56:1 57:1 64:1 65:1 72:1 73:1 79:1 80:1 81:1 86:1 87:1 89:1 90:1 91:1 92:1 93:1 94:1 
0.119605343410666 0 0 0.423447439007249 0 0 0 0 0 0 0 0 0 0 0 0.009445879511734959 0 0 0 0 0 0 0 0 0 24:1 32:1 40:1 44:1 45:1 46:1 47:1 48:1 51:1 52:1 55:1 56:1 59:1 64:1 66:1 67:1 72:1 73:1 74:1 80:1 81:1 87:1 88:1 89:1 94:1 95:1 97:1 100:1 101:1 102:1 105:1 106:1 107:1 108:1 
0 0 0 0.05947808825728423 0.01195808243479465 0.2925607049626086 0 0 0 0 0 0 0 0.09878978399504464 0.02602637308469071 0 0 0 0.1172589393623882 0 0 0.02178031102427165 0 0 0 4:1 5:1 6:1 12:1 13:1 14:1 19:1 20:1 21:1 22:1 23:1 27:1 29:1 31:1 34:1 35:1 37:1 39:1 42:1 47:1 50:1 55:1 58:1 63:1 66:1 71:1 74:1 79:1 82:1 87:1 90:1 95:1 98:1 102:1 103:1 106:1 110:1 114:1 117:1 118:1 122:1 123:1 124:1 125:1 
0 0 0 0 0 0 0 0 0 0 0 0 0 0 0 0 0 0 0 0 0 0 0 0 0.008647152528320028 35:1 36:1 37:1 38:1 41:1 42:1 44:1 46:1 47:1 49:1 52:1 55:1 56:1 57:1 64:1 65:1 72:1 73:1 80:1 81:1 82:1 83:1 87:1 88:1 91:1 92:1 93:1 94:1 95:1 
0 0 0 0 0 0 0 0 0.04713340170758377 0 0 0 0 0 0 0 0 0 0 0 0 0 0 0 0 43:1 44:1 45:1 46:1 47:1 49:1 50:1 51:1 55:1 56:1 57:1 64:1 65:1 72:1 73:1 74:1 78:1 79:1 80:1 82:1 83:1 84:1 85:1 86:1 
0 0.09137710539840448 0 0 0 0 0 0 0 0 0 0 0 0 0 0 0 0 0 0 0 0 0 0 0 20:1 28:1 29:1 36:1 37:1 43:1 44:1 45:1 46:1 50:1 51:1 54:1 55:1 57:1 58:1 63:1 64:1 65:1 72:1 73:1 80:1 81:1 88:1 89:1 95:1 96:1 97:1 98:1 99:1 102:1 103:1 107:1 108:1 109:1 110:1 
0 0 0.1238628779737942 0 0 0 0 0 0.3275999289064626 0 0 0 0 0 0 0 0 0 0 0 0 0 0 0 0 30:1 36:1 38:1 39:1 43:1 44:1 47:1 48:1 50:1 51:1 56:1 57:1 58:1 64:1 65:1 72:1 73:1 80:1 81:1 88:1 89:1 90:1 95:1 96:1 98:1 99:1 100:1 101:1 102:1 103:1 
0 0 0 0.1896796018789566 0.002171630185094727 0.1614984257429531 0.0004527568167853326 0 0 0 0 0 0 0 0 0 0 0 0 0 0.0008783795666709392 0 0 0 0 1:1 2:1 3:1 4:1 11:1 12:1 18:1 20:1 21:1 26:1 29:1 33:1 34:1 37:1 38:1 41:1 46:1 49:1 54:1 57:1 63:1 65:1 71:1 72:1 73:1 80:1 81:1 88:1 89:1 96:1 97:1 98:1 103:1 104:1 106:1 111:1 114:1 115:1 118:1 119:1 123:1 124:1 125:1 126:1 
0 0 0 0.009531040262449747 0 0 0 0 0 0 0 0 0 0 0 0 0 0 0 0 0 0 0 0 0 27:1 28:1 29:1 30:1 34:1 35:1 37:1 38:1 39:1 41:1 42:1 46:1 47:1 48:1 49:1 56:1 57:1 64:1 65:1 72:1 73:1 80:1 81:1 87:1 88:1 89:1 90:1 94:1 95:1 98:1 99:1 100:1 101:1 102:1 
0.2619080117616897 1 1 0.6637720944746821 0.08425244366588365 0.3471705307249517 0.03519999268488 0.1972240484632996 0 1 0.1013057842719814 0.03699150454238199 0.1030721599508162 0.1566561044385459 0.1635644281092459 0.1226214282488225 0.4480735460375535 0.2658904197232284 0.1759572981734612 0.1279029150070177 0.03882956298632497 0.0597366994770706 0.1697449866778433 0.03055990834541352 0.1542875246134696 30:1 31:1 32:1 37:1 38:1 40:1 45:1 46:1 48:1 52:1 53:1 54:1 56:1 59:1 60:1 62:1 63:1 66:1 67:1 68:1 70:1 73:1 74:1 77:1 78:1 81:1 84:1 85:1 89:1 91:1 92:1 97:1 98:1 99:1 
0 0 0 0 0 0 0 0 0 0 0 0.001144753634131613 0 0 0 0 0 0 0 0 0 0 0 0 0 12:1 13:1 19:1 20:1 21:1 22:1 27:1 30:1 31:1 34:1 35:1 39:1 40:1 41:1 42:1 48:1 49:1 56:1 57:1 64:1 65:1 72:1 73:1 80:1 81:1 88:1 89:1 96:1 97:1 103:1 104:1 105:1 106:1 109:1 110:1 111:1 114:1 115:1 116:1 117:1 
0 0 0 0 0 0 0 0 0 0 0 0 0 0 0 0 0 0 0 0 0 0.02140249902396133 0 0 0 35:1 36:1 37:1 43:1 45:1 46:1 47:1 48:1 49:1 50:1 51:1 52:1 53:1 54:1 55:1 56:1 57:1 58:1 64:1 65:1 72:1 73:1 80:1 81:1 82:1 87:1 90:1 91:1 92:1 93:1 94:1 95:1 
0 0.02545196461539423 0 0 0 0 0 0 0 0.7422867903647919 0 0 0 0 0 0 0 0 0 0 0 0 0 0 0 36:1 37:1 38:1 39:1 40:1 42:1 43:1 44:1 48:1 49:1 50:1 56:1 57:1 64:1 65:1 71:1 72:1 73:1 79:1 81:1 85:1 86:1 87:1 89:1 90:1 91:1 92:1 93:1 
0 0 0.07861401666812615 0 0 0 0 0 0 0 0 0 0 0 0 0 0 0 0 0 0 0 0 0 0 6:1 7:1 13:1 14:1 15:1 20:1 21:1 23:1 24:1 28:1 31:1 32:1 35:1 36:1 40:1 43:1 48:1 50:1 51:1 56:1 58:1 64:1 66:1 72:1 73:1 74:1 80:1 81:1 88:1 89:1 96:1 97:1 103:1 104:1 105:1 110:1 111:1 113:1 117:1 118:1 121:1 122:1 123:1 124:1 125:1 
0 0 0 0 0 0 0 0 0 0 0 0 0 0.09355300840354279 0 0 0.03515988297576624 0 0 0 0 0 0 0 0 35:1 41:1 42:1 43:1 44:1 45:1 46:1 49:1 54:1 55:1 56:1 57:1 64:1 65:1 72:1 73:1 80:1 81:1 82:1 83:1 84:1 86:1 87:1 88:1 92:1 93:1 94:1 
0 0 0.3160285218238849 0.2451524857532592 0 0.06654822512383658 0 0 0 0 0.08425353109795886 0 0 0 0 0 0 0 0 0 0 0 0 0 0 20:1 21:1 22:1 23:1 24:1 27:1 28:1 32:1 34:1 40:1 41:1 42:1 48:1 49:1 56:1 57:1 64:1 65:1 72:1 73:1 80:1 81:1 88:1 89:1 96:1 97:1 98:1 99:1 100:1 101:1 102:1 103:1 104:1 106:1 
0 0.0479448087965024 0.1635532314032616 0.3879344772558179 0.07058297682130142 0.3551695838791309 0.0372078052625799 0 0.08038539054113845 0 0.0090348331516465 0.03520679708996645 0.01444281583020075 0 0 0.1100318565603165 0.2254146867492141 0.03487613639656008 0 0.01756943123538694 0.0600037831718846 0 0 0 0 5:1 6:1 13:1 14:1 15:1 23:1 26:1 31:1 34:1 39:1 42:1 47:1 50:1 55:1 58:1 63:1 66:1 71:1 74:1 79:1 82:1 87:1 90:1 95:1 98:1 102:1 103:1 106:1 110:1 114:1 118:1 123:1 124:1 125:1 126:1 
0.006236913281373331 0 0 0 0 0 0 0 0 0 0 0 0 0 0 0 0 0 0 0 0 0.04274801346300434 0 0 0 29:1 30:1 35:1 36:1 37:1 38:1 39:1 42:1 43:1 44:1 45:1 46:1 50:1 51:1 52:1 54:1 55:1 57:1 58:1 63:1 64:1 65:1 72:1 73:1 80:1 81:1 87:1 88:1 89:1 92:1 93:1 94:1 95:1 97:1 98:1 99:1 100:1 
0 0 0 0 0 0 0.01321158451487548 0 0 0 0 0 0 0 0 0 0 0 0 0 0 0 0 0 0 22:1 23:1 24:1 29:1 30:1 32:1 35:1 36:1 37:1 40:1 43:1 48:1 51:1 56:1 58:1 59:1 64:1 66:1 71:1 72:1 73:1 74:1 78:1 79:1 81:1 85:1 86:1 89:1 92:1 93:1 97:1 99:1 100:1 105:1 106:1 107:1 
-0 0.9196320773978287 0 0 0 0 0 0 0 1 0 0 0.008177982650878685 0 0 0 0 0.07747598223047494 0.1041688520750756 0 0 0 0.1759538995244906 0 0.01050602592124241 50:1 51:1 52:1 53:1 54:1 55:1 57:1 58:1 60:1 61:1 63:1 64:1 65:1 67:1 68:1 72:1 73:1 75:1 76:1 80:1 
-0 0.01412872295855022 0 0 0 0.05495344917215167 0 0 0.01065239667110077 0 0 0 0.01345749047218761 0 0 0 0 0.01755459437158751 0 0 0 0 0 0.1039105727367402 0 49:1 50:1 51:1 54:1 55:1 57:1 59:1 61:1 62:1 63:1 65:1 67:1 68:1 69:1 71:1 73:1 76:1 79:1 80:1 
-0 0 0 0 0 0 0 0 0 0.1515038727857904 0 0 3.619852866753694e-05 0 0 0 0 0.05954406863156855 0 0 0 0 0 0.1444731457944431 0 47:1 49:1 52:1 53:1 55:1 56:1 57:1 59:1 60:1 61:1 62:1 63:1 64:1 65:1 66:1 67:1 69:1 70:1 72:1 74:1 75:1 77:1 78:1 80:1 82:1 
-0.2333058867168252 1 0.2046779391732926 0 0 0 0.001057637224103615 0 0 0 0 0 0 0 0 0 0.1841600917271595 0 0.03120004541589095 0.0333401109772928 0 0 0.08387383075460429 0 0 41:1 49:1 52:1 53:1 55:1 57:1 59:1 60:1 61:1 63:1 64:1 65:1 67:1 69:1 70:1 71:1 72:1 73:1 74:1 75:1 77:1 78:1 80:1 81:1 82:1 
-0 0 0.1850876052901846 0 0 0 0 0 0 0 0 0 0.03126314989124843 0.1036174189370041 0 0 0 0 0 0.01083868750808483 0 0 0 0 0 49:1 57:1 58:1 59:1 60:1 61:1 62:1 63:1 65:1 66:1 69:1 71:1 72:1 73:1 
-0 0 0 0 0 0 0 0 0 0 0 0 0 0.002142894335122702 0.08719897256158751 0 0 0.00646981746744512 0 0 0.0146628298421971 0 0 0 0 49:1 57:1 58:1 59:1 60:1 61:1 62:1 63:1 64:1 65:1 68:1 69:1 72:1 80:1 
-0 0 0.6282869180427413 0 0 0 0 0 0 0 0 0 0 0 0.02881705455438583 0 0 0.03076062817164636 0 0 0 0 0 0 0 49:1 53:1 54:1 55:1 57:1 58:1 59:1 60:1 61:1 63:1 64:1 65:1 67:1 68:1 72:1 73:1 75:1 80:1 
-0 0 0 0 0 0 0 0 0 0 0 0 0 0.1485562852597576 0 0 0 0 0 0 0 0 0 0 0 50:1 51:1 52:1 54:1 55:1 56:1 57:1 58:1 60:1 61:1 62:1 64:1 65:1 68:1 69:1 72:1 73:1 
-0 0 0 0 0 0 0 0 0 0 0 0 0 0 0 0 0 0.05824900827602372 0 0 0 0.02143235289313641 0 0 0 51:1 52:1 54:1 55:1 56:1 58:1 59:1 60:1 61:1 62:1 64:1 65:1 66:1 69:1 72:1 73:1 77:1 80:1 
-0 0.4652946185210342 0 0 0 0 0 0 0 0 0.02231459430791788 0 0 0 0 0 0 0 0 0 0 0 0 0 0 42:1 47:1 50:1 54:1 55:1 57:1 58:1 59:1 61:1 62:1 63:1 65:1 67:1 68:1 69:1 71:1 72:1 73:1 80:1 81:1 88:1 
-0.03617178662736711 0.5197006132688958 0 0 0.02284047511352089 0 0.005350184164197569 0.3377371070626597 0 1 0 0.02752147031260233 0.004392761472780345 0.00389658904038026 0 0 0.2618019273315793 0.1051871425869092 0 0 0.005169068338732585 0 0.2036264903564713 0.03478195243251462 0.08341499278302203 42:1 49:1 50:1 53:1 54:1 57:1 58:1 60:1 61:1 62:1 65:1 66:1 67:1 68:1 70:1 73:1 78:1 79:1 81:1 87:1 88:1 
-0.05948926873241543 0 0 0 0 0 0 0 0 0 0 0.007280967468516305 0 0 0 0.06548266073425178 0 0 0 0 0 0 0 0 0 49:1 50:1 51:1 52:1 53:1 54:1 55:1 56:1 57:1 60:1 61:1 64:1 65:1 68:1 72:1 73:1 76:1 80:1 
-0 0 0.3359311631980046 0 0 0.1343411667530228 0 0 0 0 0 0 0 0 0 0 0.02524224788887696 0 0 0 0 0 0 0 0 41:1 42:1 43:1 46:1 49:1 51:1 52:1 53:1 54:1 55:1 56:1 57:1 60:1 64:1 65:1 68:1 72:1 73:1 76:1 80:1 81:1 88:1 
-0.3470905863054825 0.5424934870647038 1 0.1336993304784681 0.0379732209529007 0.2571341955201415 0.1011920626881098 0.1388094851582889 0.1241301854938304 0.6490194973423932 0.175371302184305 0.06272804942716795 0.05952110979403944 0.09252172827671729 0.1078604754109954 0.1094984568519246 0.1442764314267348 0.08134782403558488 0.03745109846381963 0.1392547299972466 0.02971422037402082 0.04055680172638876 0 0.03511051378151681 0.1145816681009027 24:1 31:1 32:1 34:1 35:1 39:1 40:1 42:1 43:1 47:1 50:1 51:1 55:1 58:1 59:1 63:1 65:1 66:1 67:1 70:1 71:1 73:1 75:1 78:1 79:1 81:1 83:1 86:1 87:1 89:1 91:1 92:1 94:1 95:1 96:1 97:1 100:1 101:1 104:1 105:1 
-0 0.3532704025926867 0 0 0 0.06466173721186917 0 0 0 0.06363246321162049 0 0 0 0.0151390201602812 0 0 0.015849475113868 0.01397800109612179 0 0 0 0 0.04776201610481162 0 0.007088336859988865 34:1 35:1 38:1 39:1 42:1 43:1 46:1 47:1 49:1 50:1 51:1 53:1 54:1 55:1 57:1 59:1 61:1 63:1 65:1 67:1 68:1 69:1 71:1 73:1 75:1 76:1 79:1 81:1 83:1 84:1 87:1 89:1 91:1 92:1 95:1 96:1 99:1 104:1 
-0.296292918288442 0.6043915798477384 0.4368944943119965 0.03847604634339702 0.07040253580385943 0 0 0.1227397293926107 0.1324438182953515 1 0 0.04279172639228859 0.05418855776321811 0.03427554609423516 0 0 0.08982459144810392 0.003851864478678979 0.1388547030794515 0.01610027924900398 0.01860612946692147 0.003363715539891854 0.004259730871296961 0 0.03506389246604066 37:1 38:1 39:1 45:1 47:1 50:1 51:1 52:1 53:1 55:1 56:1 57:1 58:1 60:1 61:1 64:1 65:1 66:1 69:1 72:1 73:1 74:1 77:1 82:1 85:1 90:1 
-0 0 0 0 0 0 0 0 0 0 0 0 0 0 0 0.006050497974286439 0 0 0 0 0 0 0 0 0 37:1 38:1 39:1 41:1 42:1 44:1 45:1 47:1 49:1 50:1 51:1 52:1 55:1 56:1 57:1 60:1 64:1 65:1 68:1 69:1 72:1 73:1 76:1 77:1 80:1 81:1 89:1 
-0 0 0 0 0 0.07265767347056666 0 0 0 0 0 0 0 0 0 0 0 0 0 0.0262060664525037 0 0 0 0.02026868500226081 0 49:1 54:1 55:1 57:1 58:1 59:1 62:1 63:1 65:1 66:1 67:1 68:1 69:1 70:1 71:1 72:1 73:1 76:1 77:1 80:1 
-0 0.3939880520138266 0.2642688367154694 0 0 0 0 0 0 0.2235128754641867 0 0 0 0 0 0 0 0 0 0 0 0 0 0 0 49:1 50:1 53:1 54:1 57:1 58:1 59:1 60:1 61:1 62:1 63:1 65:1 66:1 67:1 68:1 71:1 73:1 74:1 79:1 80:1 
-0 0 0 0 0 0 0 0 0 0 0 0 0 0.05531103406325136 0.06756873520863169 0 0 0 0 0 0.01457754274841953 0.02278719988925168 0 0 0 49:1 50:1 51:1 52:1 53:1 54:1 55:1 57:1 59:1 60:1 63:1 64:1 65:1 68:1 72:1 80:1 
-0.008687950114092079 0.1183620009509052 0 0.04352664595067166 0.01277662540680917 0.009586245618076413 0.07187834513712363 0.01508079140547617 0 0 0 0.00187056834864293 0.01952331255826676 0 0.0454894731754809 0 0.02780077599880019 0 0.03739138872748158 0 0 0.02587561330249217 0 0.01274491955976024 0.02988846083794642 10:1 11:1 18:1 19:1 25:1 26:1 27:1 30:1 31:1 32:1 33:1 34:1 35:1 38:1 40:1 41:1 43:1 45:1 46:1 48:1 49:1 51:1 52:1 53:1 56:1 57:1 60:1 61:1 64:1 65:1 68:1 69:1 72:1 73:1 76:1 77:1 80:1 81:1 84:1 88:1 89:1 92:1 96:1 97:1 100:1 104:1 105:1 112:1 113:1 120:1 
-0 0 0.2598220098475665 0 0 0.2300954367043047 0.02247076135028682 0.1157054376681486 0 0 0.1919085910681668 0 0.01774945933288386 0.01359390658340732 0.1305948907388386 0.03288820951646865 0.0465615146209083 0.05119689745826723 0 0.03578533238501115 0.0181476932782765 0.02079719401393077 0.1168587429423942 0 0 33:1 35:1 36:1 39:1 40:1 41:1 42:1 43:1 44:1 45:1 46:1 47:1 48:1 49:1 50:1 53:1 54:1 56:1 58:1 61:1 62:1 64:1 66:1 69:1 70:1 72:1 74:1 77:1 80:1 82:1 85:1 88:1 90:1 93:1 
-0 0.3162892611108158 0 0.02480768024842374 0 0 0 0 0 0 0 0 0 0 0 0 0 0 0.01342399007217711 0 0 0.02915064574806879 0 0 0 51:1 52:1 55:1 56:1 58:1 59:1 60:1 62:1 63:1 64:1 65:1 66:1 68:1 69:1 70:1 72:1 73:1 74:1 80:1 
-0 0.1830382770982916 0 0.002665520361004725 0 0 0 0 0 0 0 0 0 0 0 0 0 0 0 0 0 0 0 0 0 36:1 37:1 40:1 44:1 45:1 47:1 48:1 49:1 51:1 52:1 53:1 55:1 56:1 57:1 59:1 61:1 62:1 63:1 64:1 65:1 66:1 69:1 70:1 72:1 73:1 74:1 77:1 78:1 80:1 81:1 85:1 88:1 89:1 96:1 
-0.0005501550674052121 0 0 0 0 0.04663493562808396 0.03185334024718101 0 0 0 0.08437093441864257 0 0 0 0 0.03797328021493492 0 0.05048207151371822 0 0.005808864648637163 0.001156523207487085 0 0 0 0 33:1 41:1 49:1 50:1 51:1 57:1 58:1 59:1 60:1 62:1 63:1 65:1 68:1 69:1 70:1 71:1 73:1 76:1 77:1 79:1 80:1 81:1 84:1 85:1 88:1 92:1 93:1 
-0 0.00849524928394217 0 0.02426270036106458 0.005047517613729009 0 0.03859741577728152 0 0 0.04960089177005248 0.01419502902948443 0 0.03830423180761056 0 0.02863184764205679 0.02567370270708807 0.03905963418848164 0.02073277388508949 0.06114964259526741 0.04877227527813003 0 0.02256733079672489 0 0 0.01224150293005413 17:1 19:1 20:1 25:1 26:1 27:1 28:1 31:1 32:1 33:1 34:1 36:1 38:1 39:1 40:1 41:1 42:1 44:1 46:1 48:1 49:1 50:1 52:1 54:1 56:1 57:1 60:1 61:1 62:1 64:1 65:1 68:1 69:1 72:1 73:1 76:1 77:1 80:1 81:1 84:1 85:1 88:1 89:1 92:1 96:1 104:1 112:1 
-0.2460117090227305 0.3907234701380709 0.06554004294415865 0.02557144042291825 0.03977579330731541 0.1598334412039396 0 0.2044329259058131 0.1265047607926076 0.2970984227355153 0.1092552582860023 0.0281777228370402 0.07867955365381502 0 0 0 0 0 0.08681644492496583 0 0.004762581083459545 0.04505691801908485 0.124180152017216 0 0.03804280188717755 21:1 22:1 28:1 29:1 30:1 36:1 37:1 38:1 41:1 42:1 43:1 44:1 46:1 49:1 50:1 51:1 54:1 57:1 58:1 59:1 62:1 65:1 70:1 71:1 72:1 73:1 81:1 89:1 97:1 105:1 
-0.03214331456592727 0 0 0 0 0 0 0 0 0 0 0 0 0 0 0 0 0 0 0 0 0 0 0 0 46:1 47:1 50:1 51:1 52:1 53:1 54:1 55:1 56:1 57:1 58:1 60:1 61:1 64:1 65:1 69:1 72:1 73:1 77:1 80:1 81:1 
-0.2971444992763455 0 0 0 0.002525530010711439 0.01179533008662906 0 0 0.0766937544999903 0.4027857298319937 0 0 0 0.06354289956246215 0.01889392863808122 0 0 0 0 0.01814846476368736 0.02811491108436592 0 0 0 0 49:1 50:1 51:1 54:1 55:1 57:1 59:1 60:1 61:1 62:1 63:1 65:1 71:1 72:1 73:1 
-0 0 0 0 0 0 0 0 0 0 0 0 0 0 0 0 0 0 0 0 0 0 0 0.186738131488227 0 49:1 50:1 51:1 52:1 55:1 56:1 57:1 58:1 60:1 62:1 63:1 64:1 65:1 66:1 68:1 69:1 70:1 72:1 73:1 74:1 76:1 77:1 80:1 
-0 0 0.5644107091843082 0 0 0 0 0.2375632067241959 0.03148703071603906 0 0 0 0 0 0 0 0 0 0.04351983337816075 0.03698464887605879 0 0 0 0 0 49:1 50:1 51:1 52:1 53:1 54:1 55:1 57:1 59:1 60:1 63:1 64:1 65:1 66:1 68:1 72:1 73:1 74:1 
-0.007336311608970053 0 0 0 0 0 0 0 0 0 0 0 0 0 0 0 0 0 0 0 0 0 0 0 0 46:1 47:1 48:1 49:1 50:1 51:1 53:1 54:1 56:1 57:1 58:1 59:1 60:1 61:1 64:1 65:1 68:1 69:1 72:1 73:1 76:1 80:1 81:1 84:1 88:1 
-0 0 0.0664953367619818 0.00115655055397732 0.008522209693574798 0 0 0.2551192929913246 0 0 0.2180641188579577 0.02200210512722665 0.01067930413101161 0.04011059337724245 0 0.03244481494573783 0 0 0.05147476752072627 0 0.008890474857189338 0.008051609561019902 0 0.008345530463247725 0 49:1 57:1 58:1 59:1 60:1 61:1 65:1 66:1 67:1 68:1 69:1 70:1 71:1 79:1 80:1 
-0 0.4161743715324842 0.8361515576521524 0.009039089018575287 0 0.1778442035775543 0 0 0.04376979567406993 0 0.1274938919870849 0.02165005463048936 0 0 0 0 0 0 0 0 0 0.04715526988543205 0 0 0 37:1 38:1 39:1 42:1 43:1 44:1 45:1 47:1 48:1 49:1 50:1 52:1 53:1 56:1 57:1 60:1 64:1 65:1 68:1 72:1 73:1 76:1 80:1 81:1 84:1 88:1 89:1 92:1 96:1 
-0.1423597264591264 0 0.2370748067679056 0.07091052734329073 0 0.03025833388588581 0.00609569224852591 0 0 0.3130206499625596 0 0 0 0 0 0 0.1604965442093763 0 0 0.05997526197850407 0 0 0 0.001670815103752092 0.003458596956088274 33:1 41:1 44:1 45:1 46:1 47:1 48:1 49:1 52:1 54:1 55:1 56:1 57:1 59:1 60:1 62:1 64:1 65:1 67:1 69:1 70:1 72:1 73:1 74:1 75:1 77:1 78:1 80:1 81:1 82:1 84:1 85:1 88:1 89:1 92:1 93:1 96:1 
-0 0 0 0.01587337528263532 0 0 0 0 0 0 0 0 0 0 0 0 0 0 0.03493111223025972 0 0 0 0 0 0 31:1 39:1 40:1 42:1 43:1 46:1 47:1 48:1 50:1 51:1 54:1 56:1 58:1 59:1 62:1 64:1 65:1 66:1 67:1 68:1 69:1 70:1 72:1 73:1 76:1 77:1 80:1 81:1 88:1 89:1 97:1 
-0 0 0 0 0 0 0 0 0 0 0 0 0 0 0 0.0355748717270267 0 0 0 0 0 0 0 0 0 38:1 39:1 41:1 42:1 46:1 47:1 48:1 49:1 50:1 54:1 56:1 57:1 58:1 59:1 61:1 62:1 64:1 65:1 67:1 68:1 69:1 72:1 73:1 76:1 80:1 81:1 89:1 
-0 0.0782490017647309 0 0 0 0 0 0 0 0 0 0 0 0 0 0 0 0 0 0 0 0 0 0 0 35:1 36:1 37:1 39:1 40:1 43:1 45:1 46:1 47:1 48:1 49:1 51:1 53:1 54:1 56:1 57:1 58:1 59:1 61:1 62:1 64:1 65:1 66:1 69:1 72:1 73:1 74:1 77:1 80:1 81:1 82:1 84:1 85:1 88:1 89:1 95:1 96:1 
-0 0 0.7744248170226242 0 0 0 0 0 0.008082034270863731 0 0 0 0 0 0 0 0 0 0 0 0 0 0 0 0.06048866613930257 41:1 49:1 51:1 52:1 57:1 58:1 59:1 60:1 62:1 63:1 65:1 66:1 68:1 70:1 71:1 72:1 73:1 74:1 76:1 77:1 78:1 80:1 81:1 82:1 85:1 88:1 
-0 0 0 0 0 0 0 0 0.008731591532870953 0 0 0 0 0 0 0 0 0 0 0 0 0 0 0 0 43:1 44:1 49:1 51:1 52:1 53:1 54:1 55:1 56:1 57:1 58:1 61:1 62:1 64:1 65:1 66:1 69:1 72:1 73:1 77:1 80:1 81:1 85:1 88:1 
-0 0 0.9745881882293853 0 0 0 0.03816995825072744 0 0 0 0 0 0 0.05589985906559294 0.0169477546654636 0.08387629722875699 0 0 0 0 0 0 0 0 0 41:1 42:1 49:1 50:1 51:1 53:1 54:1 55:1 57:1 59:1 60:1 61:1 63:1 64:1 65:1 72:1 80:1 88:1 
-0 0.6139635926870545 0.5262559677743961 0 0 0 0 0 0.01058421942317126 0 0 0 0 0 0 0 0 0.03094179556866599 0 0.03844364749836707 0 0 0.0437824664418619 0 0.02892169079384892 49:1 51:1 53:1 54:1 57:1 58:1 59:1 61:1 62:1 63:1 65:1 66:1 68:1 69:1 71:1 73:1 74:1 76:1 79:1 80:1 
-0 0.6796770356931904 0.7998067636772297 0.04160379820071342 0.04893522672203921 0.3267347536990445 0.1096123321113249 0 0 0.5695930046224752 0 0.04043019670824648 0.106741006025684 0.2761499920836589 0.006233077219308502 0.03507245996331382 0.2765238244744901 0.09467778460607604 0.06674946497301773 0.06881703887513291 0.02031810779360434 0.005948004217060966 0.293856743291807 0.02282312260158851 0.0458810186857262 49:1 57:1 58:1 60:1 61:1 62:1 65:1 66:1 67:1 68:1 70:1 71:1 72:1 80:1 
-0 0 0.3685486203585044 0 0.007156151960727157 0 0.05512414547526662 0 0 0 0 0 0 0 0 0 0 0 0 0 0 0 0 0 0 41:1 44:1 45:1 46:1 49:1 50:1 51:1 52:1 54:1 55:1 56:1 58:1 59:1 62:1 63:1 64:1 66:1 67:1 69:1 70:1 72:1 74:1 77:1 78:1 79:1 80:1 82:1 85:1 88:1 
-0 0 0 0 0 0 0 0 0 0 0 0 0 0 0 0 0 0.09231188535645889 0 0.01784049062790153 0 0 0 0 0 41:1 49:1 50:1 51:1 52:1 53:1 54:1 55:1 57:1 60:1 61:1 63:1 65:1 66:1 68:1 69:1 71:1 72:1 74:1 77:1 80:1 88:1 
-0 0.2694700481641127 0 0 0 0 0 0 0 0 0 0 0 0 0 0 0 0 0 0 0 0 0 0 0 35:1 36:1 37:1 38:1 40:1 42:1 43:1 44:1 45:1 46:1 47:1 48:1 50:1 51:1 53:1 54:1 55:1 56:1 57:1 58:1 61:1 62:1 64:1 65:1 66:1 69:1 70:1 72:1 73:1 76:1 77:1 80:1 81:1 84:1 88:1 96:1 
-0 0 0 0 0 0 0 0.008549300775283816 0 0 0 0 0 0 0 0 0 0 0 0 0 0 0 0 0 33:1 35:1 36:1 37:1 41:1 43:1 45:1 47:1 48:1 49:1 50:1 51:1 53:1 54:1 55:1 56:1 57:1 58:1 61:1 62:1 64:1 65:1 66:1 69:1 72:1 73:1 77:1 80:1 81:1 89:1 
-0 0 0 0 0 0 0 0 0 0 0 0.06398792934195129 0 0 0 0.1240381402471994 0.05230501903309871 0.0199967374029079 0 0 0 0 0 0.01119246975721412 0 41:1 49:1 57:1 58:1 59:1 60:1 61:1 62:1 63:1 65:1 68:1 69:1 71:1 72:1 73:1 76:1 77:1 81:1 
-0.2128932689779887 0 0 0 0 0 0 0 0 0 0 0 0 0 0 0 0 0 0 0 0 0 0 0 0 42:1 50:1 52:1 56:1 57:1 58:1 59:1 60:1 61:1 63:1 64:1 65:1 66:1 67:1 69:1 70:1 71:1 72:1 73:1 74:1 77:1 78:1 80:1 81:1 88:1 
-0.2357044042625872 0.5594183449638558 0.433887935209145 0.01367595471735683 0.05364448240366885 0.1190317343565912 0.009760903721309963 0.0382856294505513 0.1450693251629191 1 0.2168593152762685 0.02000342274512492 0.05097829528328327 0.2159983563882721 0.04513725198706425 0.07154894056308836 0.2009274130470233 0.3069940761657549 0.08701917607362458 0.04805648510645238 0.01642402955959438 0.07112005519025259 0.1417758274602907 0.07777520030618547 0.1446793983919115 40:1 44:1 45:1 46:1 47:1 48:1 49:1 50:1 51:1 52:1 57:1 58:1 59:1 60:1 68:1 69:1 70:1 75:1 76:1 82:1 83:1 86:1 87:1 90:1 91:1 92:1 93:1 94:1 95:1 96:1 
-0 0 0 0 0 0 0 0 0 0 0.04845354543885851 0 0 0 0 0 0 0 0 0 0 0 0 0 0 41:1 49:1 50:1 51:1 55:1 57:1 58:1 59:1 60:1 62:1 63:1 65:1 66:1 68:1 69:1 70:1 71:1 72:1 73:1 74:1 80:1 88:1 
-0 0 0.08451670377263579 0 0.03235714878929011 0 0 0 0.01561477296797529 0.5658158600940225 0 0.006406477445600627 0 0 0 0.01435925177698281 0.1096504651008745 0.01957550015355565 0 0.03194376389378417 0 0.004708566306821772 0 0 0 41:1 49:1 51:1 54:1 57:1 58:1 59:1 60:1 62:1 63:1 65:1 66:1 68:1 70:1 71:1 73:1 74:1 76:1 77:1 78:1 79:1 80:1 81:1 84:1 85:1 
-0.2236501390428182 0 0 0 0.005054860464217522 0 0 0 0.06531478311085476 0 0 0.00237058306928476 0 0 0 0 0.1957796777735541 0 0.05938199195591725 0 0 0 0 0.04793581067383278 0 49:1 51:1 57:1 58:1 59:1 60:1 65:1 66:1 68:1 69:1 70:1 71:1 72:1 73:1 
-0 0 0 0 0 0 0.04248818190535369 0 0 0 0 0 0 0 0 0 0 0 0 0 0 0 0 0.03415100225816443 0 49:1 50:1 51:1 57:1 58:1 59:1 61:1 62:1 63:1 64:1 65:1 66:1 67:1 68:1 69:1 71:1 72:1 73:1 75:1 76:1 
-0 0.3871055986285809 0 0 0 0 0 0 0 0 0 0 0 0 0 0 0 0.007586949264766518 0 0 0 0 0.03362414131382924 0 0 44:1 45:1 49:1 50:1 52:1 53:1 57:1 58:1 59:1 60:1 61:1 62:1 65:1 67:1 68:1 70:1 71:1 73:1 79:1 80:1 81:1 88:1 
-0 0 0.1085230775973992 0 0 0 0 0 0 0 0 0 0 0 0 0 0 0 0 0 0 0 0 0 0.02229808802468541 33:1 41:1 43:1 49:1 50:1 51:1 52:1 53:1 54:1 55:1 57:1 58:1 59:1 60:1 61:1 63:1 65:1 66:1 67:1 68:1 71:1 73:1 75:1 79:1 80:1 81:1 83:1 88:1 89:1 91:1 96:1 
-0 0 0 0 0 0 0 0 0 0 0 0 0 0 0 0 0 0 0 0 0 0 0 0.004358595969004082 0 25:1 33:1 34:1 39:1 40:1 41:1 42:1 43:1 46:1 47:1 48:1 49:1 51:1 54:1 56:1 57:1 59:1 60:1 61:1 62:1 64:1 65:1 68:1 69:1 72:1 73:1 76:1 77:1 80:1 81:1 84:1 85:1 88:1 89:1 96:1 104:1 
-0.1186246378083393 0 0.2966641741162006 0 0.04741124756912726 0 0 0 0 0 0 0.05136882314220852 0 0 0 0 0 0 0 0 0 0 0 0 0 50:1 51:1 53:1 54:1 55:1 57:1 58:1 59:1 60:1 63:1 64:1 65:1 68:1 72:1 73:1 80:1 
-0 0 0 0 0 0.01776066151102918 0 0 0 0 0 0 0 0 0 0 0 0 0 0.02007660601074739 0 0 0 0 0 41:1 43:1 47:1 49:1 51:1 54:1 55:1 57:1 58:1 59:1 62:1 63:1 65:1 66:1 67:1 68:1 69:1 70:1 71:1 73:1 76:1 77:1 79:1 81:1 87:1 88:1 
-0.07810595580288275 0 0 0 0 0 0 0 0 0 0 0 0 0 0 0 0 0 0 0 0 0 0 0 0 36:1 37:1 43:1 44:1 45:1 48:1 49:1 50:1 51:1 53:1 55:1 56:1 57:1 58:1 59:1 61:1 62:1 63:1 64:1 65:1 66:1 69:1 70:1 72:1 73:1 74:1 76:1 77:1 78:1 80:1 81:1 82:1 84:1 85:1 88:1 89:1 
-0.1351532230937666 0.6480272236915814 0.235472438267571 0.1185932177037251 0.07751859345957919 0.1504181584436277 0 0.1120420369564284 0.004762244645656558 0.8862421075513782 0 0.04037436807322241 0.08568016826589143 0.1275182750736947 0.09456299805315752 0.1003889630329454 0.1661807173516278 0.1654327598356568 0.0922810407481281 0.01316078315699478 0.02835994568357455 0.04933035612017319 0.2027566324469785 0.06130012438057805 0.06934297221399394 32:1 39:1 40:1 43:1 44:1 45:1 46:1 48:1 51:1 52:1 53:1 54:1 56:1 59:1 61:1 63:1 64:1 66:1 67:1 68:1 69:1 71:1 74:1 76:1 77:1 78:1 79:1 81:1 82:1 83:1 84:1 86:1 89:1 91:1 92:1 94:1 99:1 102:1 
-0 0 0 0.008977942082999494 0 0 0 0 0 0 0 0 0 0 0 0 0 0 0 0 0 0 0 0.08256769035286649 0 49:1 54:1 55:1 56:1 57:1 58:1 59:1 60:1 61:1 62:1 64:1 65:1 66:1 68:1 69:1 72:1 73:1 74:1 76:1 80:1 
-0.07813453547653794 0 0 0 0 0.1154118907152356 0.01852607631761613 0 0 0 0.0666507300612601 0 0 0 0 0 0 0 0 0.006507899322163024 0 0 0 0 0 49:1 57:1 59:1 60:1 61:1 63:1 64:1 65:1 66:1 67:1 69:1 70:1 71:1 72:1 80:1 
-0.06110642752098441 0 0 0 0 0 0.0004302292877273681 0 0 0 0 0 0 0 0 0 0 0 0 0 0 0 0 0.05740098006689178 0 41:1 49:1 52:1 53:1 56:1 57:1 59:1 60:1 61:1 63:1 64:1 65:1 66:1 67:1 69:1 70:1 71:1 72:1 73:1 74:1 77:1 78:1 80:1 81:1 88:1 
-0 0 0 0 0 0 0 0 0 0 0 0 0 0 0 0 0 0 0 0 0 0 0 0.05063846558038793 0 40:1 41:1 47:1 48:1 49:1 51:1 52:1 54:1 55:1 56:1 57:1 59:1 60:1 61:1 62:1 64:1 65:1 66:1 67:1 68:1 69:1 70:1 72:1 73:1 74:1 76:1 77:1 78:1 80:1 81:1 82:1 84:1 85:1 88:1 89:1 92:1 96:1 
-0 0.4397222001108459 0 0 0 0 0 0 0 0 0 0 0 0 0 0 0 0 0 0 0 0 0 0 0 42:1 44:1 50:1 51:1 52:1 54:1 55:1 57:1 58:1 59:1 60:1 61:1 62:1 63:1 65:1 66:1 68:1 69:1 71:1 73:1 74:1 79:1 80:1 81:1 82:1 88:1 
-0.03148777040173974 0 0 0 0 0 0 0 0 0.4338242259498888 0 0 0 0 0 0 0 0 0 0 0 0 0 0 0 33:1 34:1 35:1 38:1 39:1 40:1 41:1 42:1 43:1 44:1 46:1 48:1 49:1 50:1 52:1 53:1 54:1 56:1 57:1 60:1 61:1 64:1 65:1 69:1 72:1 73:1 77:1 80:1 81:1 84:1 85:1 88:1 92:1 93:1 96:1 
-0 0 0.4500314845173367 0 0 0 0 0 0 0 0 0 0 0 0.001485200337164676 0 0.0009301436000771432 0 0 0 0 0 0 0 0 41:1 42:1 43:1 45:1 46:1 47:1 49:1 51:1 52:1 53:1 55:1 56:1 57:1 60:1 64:1 65:1 68:1 72:1 73:1 76:1 80:1 81:1 88:1 
-0 0 0 0 0 0 0.01477162616647996 0 0 0 0 0 0 0 0 0 0 0 0 0.008808193890908618 0 0 0 0 0 41:1 49:1 51:1 52:1 54:1 55:1 57:1 59:1 60:1 61:1 62:1 63:1 64:1 65:1 66:1 67:1 69:1 72:1 73:1 74:1 80:1 88:1 
-0 0.06063490814703577 0 0 0 0 0 0 0 0 0 0 0 0 0 0 0 0 0 0 0 0 0.002455960276501809 0 0 42:1 43:1 45:1 46:1 49:1 50:1 51:1 52:1 53:1 54:1 57:1 58:1 60:1 61:1 62:1 63:1 65:1 66:1 68:1 71:1 72:1 74:1 80:1 82:1 88:1 
-0 0 0 0 0 0 0 0 0 0 0 0 0 0 0 0 0 0 0 0 0 0 0 0.0255840707733807 0 33:1 41:1 49:1 51:1 52:1 55:1 56:1 57:1 58:1 59:1 60:1 62:1 63:1 64:1 65:1 66:1 68:1 69:1 70:1 72:1 73:1 74:1 76:1 77:1 80:1 81:1 82:1 84:1 88:1 89:1 
-0 0.1098439584498398 0 0 0 0 0 0 0 0 0 0 0 0 0 0 0 0 0 0 0 0 0 0 0 43:1 44:1 46:1 47:1 48:1 49:1 51:1 52:1 54:1 56:1 57:1 59:1 60:1 61:1 62:1 64:1 65:1 66:1 67:1 68:1 69:1 72:1 73:1 74:1 77:1 80:1 82:1 
-0.01334433900280964 0 0.3247426121292029 0 0 0 0 0 0.1382475807178908 0 0.04478811856497317 0 0 0 0 0 0.3265932683310608 0 0 0 0 0 0 0 0 49:1 50:1 53:1 54:1 55:1 57:1 58:1 61:1 63:1 65:1 67:1 68:1 69:1 71:1 72:1 73:1 80:1 
-0 0 0 0 0.05639392441665706 0 0.01917977699702209 0.07963106849204551 0 0 0 0 0 0 0 0 0 0 0 0 0 0 0.052956365362435 0 0 49:1 50:1 51:1 52:1 57:1 58:1 60:1 61:1 62:1 63:1 65:1 69:1 71:1 72:1 80:1 
-0.4032612291062805 0.7196933698278326 1 0 0.02047324320658649 0 0 0.03748738671660609 0.1589383966116045 0 0.01545178663363279 0.04120025443989692 0 0.03211202287219508 0 0 0.05109553578218541 0 0 0 0 0 0 0.03787461785140323 0 41:1 42:1 43:1 44:1 45:1 46:1 47:1 48:1 49:1 51:1 52:1 56:1 57:1 60:1 64:1 65:1 68:1 72:1 73:1 76:1 80:1 81:1 84:1 88:1 
-0 0 0 0 0 0.03547881108286159 0 0 0 0 0 0 0 0 0 0 0 0 0 0 0 0 0 0 0 35:1 41:1 42:1 43:1 49:1 50:1 51:1 53:1 54:1 55:1 57:1 58:1 59:1 61:1 63:1 65:1 67:1 68:1 69:1 71:1 73:1 75:1 76:1 79:1 81:1 87:1 88:1 89:1 96:1 
-0 0 0 0 0 0 0.04140366936559238 0.09115906723678542 0 0.02633289621200589 0 0 0 0 0 0 0 0 0 0.060704030433471 0 0 0.08900090007451905 0 0.04970156025195276 33:1 41:1 43:1 45:1 46:1 47:1 49:1 51:1 52:1 53:1 55:1 56:1 57:1 58:1 59:1 60:1 61:1 64:1 66:1 67:1 68:1 69:1 72:1 74:1 75:1 77:1 80:1 82:1 83:1 85:1 88:1 91:1 93:1 96:1 
-0.02326866095132401 0 0.7345344603686296 0.03755305663048652 0.01919229350316607 0.03656078775222578 0 0.1818332070342947 0 0.354811756086063 0 0 0.02802429885616351 0.02510973501743888 0.06687801933867786 0.01741136289140159 0.01019836089989512 0.04060562505918379 0.01176463735005052 0.005441163817652899 0 0 0.01844558211889552 0 0.1094892813483819 21:1 29:1 30:1 37:1 38:1 41:1 44:1 45:1 46:1 49:1 52:1 54:1 55:1 56:1 57:1 58:1 59:1 60:1 64:1 65:1 66:1 67:1 73:1 81:1 89:1 97:1 105:1 
-0 0 0 0 0 0 0 0 0 0 0.008948026001935403 0 0 0 0 0 0.03375400392988571 0 0 0 0 0 0 0 0 28:1 29:1 35:1 36:1 37:1 39:1 40:1 41:1 42:1 43:1 45:1 46:1 47:1 48:1 49:1 50:1 53:1 54:1 56:1 57:1 58:1 61:1 64:1 65:1 68:1 69:1 72:1 73:1 80:1 81:1 88:1 89:1 95:1 96:1 103:1 
-0 0 0 0 0 0.07028880958834378 0 0 0 0.2588663199554617 0 0 0 0 0 0 0 0.0459853136650861 0 0 0 0 0 0 0 36:1 37:1 42:1 43:1 44:1 45:1 47:1 48:1 50:1 51:1 53:1 54:1 55:1 56:1 58:1 59:1 61:1 62:1 64:1 65:1 66:1 69:1 72:1 73:1 74:1 76:1 77:1 80:1 81:1 88:1 89:1 
-0 0 0 0 0 0 0 0 0 0 0 0 0 0 0 0 0 0 0 0 0 0 0.01346440845734639 0 0 43:1 44:1 49:1 51:1 52:1 53:1 54:1 55:1 56:1 57:1 58:1 59:1 61:1 62:1 64:1 66:1 69:1 70:1 72:1 74:1 77:1 78:1 80:1 82:1 85:1 88:1 
-0.08361907462864358 0.466431866422617 0.1967867030837 0 0 0 0 0 0.0180268581035277 0.04730624842756004 0 0 0 0.003763919583527138 0 0 0 0 0 0 0 0.02111936865410524 0 0 0 38:1 39:1 43:1 44:1 45:1 46:1 47:1 48:1 51:1 52:1 54:1 55:1 56:1 58:1 59:1 62:1 64:1 65:1 66:1 67:1 70:1 72:1 73:1 74:1 81:1 89:1 
-0 0 0.1150825675408628 0 0 0 0 0.01021661302389856 0.01942880497549193 0 0 0 0 0 0 0 0 0 0 0 0 0 0 0 0 36:1 37:1 40:1 43:1 44:1 45:1 48:1 50:1 51:1 53:1 55:1 56:1 57:1 58:1 59:1 61:1 63:1 64:1 65:1 66:1 69:1 70:1 72:1 73:1 74:1 77:1 78:1 80:1 81:1 82:1 89:1 
-0 0 0 0.001512844537961114 0 0 0 0.1335463254105225 0 0 0 0 0.000723299036446741 0.01464466373428975 0.01194784783093921 0 0 0.03213521357440891 0 0 0 0.03130060657544322 0 0 0.0211374836763281 30:1 31:1 33:1 34:1 35:1 37:1 38:1 39:1 41:1 42:1 43:1 45:1 47:1 48:1 49:1 50:1 51:1 52:1 53:1 56:1 57:1 60:1 61:1 64:1 65:1 68:1 72:1 73:1 76:1 80:1 81:1 84:1 88:1 89:1 92:1 97:1 100:1 
-0 -0 0 0 0 0 0 0 0 0 0 0 0 0 0 0 0 0 0 0 0.01646203230439571 0 0 0 0 27:1 28:1 34:1 35:1 36:1 37:1 38:1 39:1 42:1 45:1 47:1 49:1 53:1 55:1 57:1 61:1 63:1 65:1 69:1 70:1 71:1 73:1 77:1 78:1 81:1 83:1 84:1 85:1 86:1 89:1 90:1 91:1 94:1 95:1 103:1 104:1 
-0 -0 0.1910657203200321 0 0 0 0 0.1829982690851338 0 0 0 0 0 0 0 0 0 0 0 0 0 0 0 0 0 36:1 43:1 44:1 50:1 51:1 52:1 58:1 59:1 60:1 65:1 66:1 67:1 68:1 69:1 73:1 74:1 75:1 77:1 78:1 79:1 80:1 81:1 82:1 89:1 
-0 -0 0 0 0.01065352120738738 0 0 0 0 0 0 0 0 0 0 0 0 0 0 0 0 0 0 0 0 42:1 43:1 44:1 45:1 46:1 49:1 50:1 54:1 57:1 62:1 65:1 69:1 70:1 73:1 76:1 77:1 78:1 79:1 80:1 81:1 82:1 83:1 84:1 
-0 -0 0 0 0 0 0 0 0 0 0 0 0 0 0 0.001573877786459447 0 0 0 0 0 0 0 0.0560942174658353 0 48:1 51:1 52:1 53:1 54:1 55:1 56:1 57:1 58:1 59:1 62:1 63:1 64:1 65:1 69:1 70:1 71:1 73:1 75:1 76:1 77:1 79:1 81:1 82:1 83:1 87:1 
-0 -0 0 0 0 0 0 0 0 0 0 0 0 0 0 0 0 0 0 0 0 0.01420409199315857 0 0 0 27:1 28:1 29:1 34:1 35:1 36:1 37:1 38:1 41:1 42:1 44:1 45:1 49:1 53:1 57:1 61:1 65:1 68:1 69:1 73:1 76:1 77:1 81:1 83:1 84:1 85:1 86:1 89:1 90:1 91:1 94:1 95:1 103:1 104:1 
-0.6736539172148197 -0 1 0 0.01418953759546135 1 0 0 0.3507056577087075 0 0.4883473328393737 0 0 0 0.2039672252550361 0 0 0.08737498800197271 0 0 0 0.0708581241254522 0.2075170083599361 0 0 36:1 37:1 38:1 43:1 44:1 46:1 47:1 51:1 52:1 53:1 54:1 55:1 58:1 59:1 63:1 66:1 71:1 72:1 73:1 74:1 80:1 81:1 88:1 89:1 96:1 
-0 -0 0 0 0 0 0 0 0 0.1225147831876896 0 0 0 0 0 0 0 0 0 0 0 0 0 0 0 43:1 44:1 45:1 49:1 50:1 51:1 52:1 53:1 57:1 60:1 61:1 65:1 67:1 68:1 73:1 74:1 75:1 76:1 77:1 78:1 79:1 80:1 81:1 82:1 85:1 86:1 
-0 -0 0.4715176338841089 0 0 0 0 0 0 0 0 0 0 0 0 0 0 0 0 0 0 0 0 0 0 41:1 42:1 43:1 44:1 49:1 52:1 53:1 54:1 55:1 57:1 62:1 63:1 65:1 70:1 71:1 73:1 76:1 77:1 78:1 79:1 80:1 81:1 82:1 83:1 84:1 88:1 
-0.1347193438618808 -0 0.959746702280142 0.4714074760415802 0.1303820138552873 0.1939996566485975 0 0.3866874158111438 0 1 0.05705237006690524 0.008558732048147121 0.2773213195971256 0.02026676401862372 0 0.1113675490456934 0.03241313377115333 0.08631078697641839 0.1733146165057401 0.07145215941716346 0 0.01082644977628779 0.4862284834967343 0.005659727343747921 0.2658444864528657 23:1 24:1 30:1 31:1 32:1 37:1 38:1 40:1 44:1 45:1 48:1 51:1 52:1 59:1 62:1 66:1 67:1 70:1 74:1 77:1 78:1 81:1 82:1 83:1 84:1 85:1 86:1 89:1 90:1 91:1 94:1 97:1 98:1 105:1 
-0 -0 0 0 0 0 0 0 0 0 0.1578753537302016 0 0 0 0 0 0 0 0 0 0 0 0 0 0 29:1 30:1 31:1 32:1 35:1 36:1 37:1 42:1 43:1 47:1 49:1 50:1 55:1 57:1 62:1 63:1 65:1 69:1 70:1 71:1 73:1 77:1 79:1 81:1 82:1 83:1 84:1 85:1 87:1 95:1 96:1 104:1 
-0 -0 1 0 0 0 0 0 0 0 0 0 0 0.02093004037921951 0.08225048038612423 0 0 0 0 0 0 0.02226774193094833 0 0 0.006311840416721286 6:1 14:1 22:1 29:1 30:1 36:1 37:1 38:1 39:1 42:1 43:1 44:1 47:1 50:1 51:1 52:1 55:1 59:1 60:1 61:1 62:1 63:1 64:1 67:1 71:1 75:1 79:1 82:1 83:1 87:1 90:1 95:1 97:1 98:1 103:1 105:1 111:1 112:1 113:1 120:1 128:1 
-0 -0 0 0.1227837750633518 0 0.2084288895046207 0.01823263555246667 0 0 0 0 0 0 0.04424130230212467 0.06847579457901116 0 0.4612069460453775 0.2445956699089569 0 0.0830183782876828 0 0.01436779601740333 0.2875714428433941 0.03403751129399902 0.2062160849883312 33:1 34:1 35:1 36:1 44:1 45:1 46:1 47:1 55:1 56:1 64:1 66:1 67:1 68:1 69:1 72:1 74:1 77:1 78:1 79:1 80:1 82:1 83:1 87:1 88:1 91:1 92:1 93:1 94:1 95:1 
-0 -0 0 0 0 0 0 0 0.4972752607844729 0 0 0 0.007846676187077675 0 0 0 0.2143515003029058 0 0 0 0 0 0 0 0 49:1 50:1 51:1 52:1 53:1 57:1 61:1 65:1 68:1 69:1 70:1 71:1 73:1 74:1 75:1 76:1 79:1 80:1 
-0 -0 0.4813032767783017 0.021439665710429 0 0 0.076018211297416 0 0 0 0.0108843409985087 0 0 0 0 0 0.1564666776340124 0 0 0.02295156509453559 0 0 0 0 0 6:1 12:1 13:1 14:1 15:1 19:1 20:1 23:1 26:1 27:1 31:1 33:1 34:1 39:1 41:1 47:1 49:1 55:1 57:1 63:1 65:1 71:1 72:1 73:1 79:1 80:1 81:1 87:1 88:1 89:1 94:1 95:1 96:1 97:1 101:1 102:1 104:1 105:1 106:1 109:1 112:1 114:1 115:1 116:1 117:1 120:1 128:1 
-0 -0 0.1024285412526967 0.153821679120173 0.05820639988466785 0 0.001984234237515157 0 0 0 0 0 0 0.09455778758585208 0 0 0 0 0 0 0.04367097952916309 0 0 0 0.09054930155421351 3:1 4:1 5:1 11:1 13:1 14:1 22:1 30:1 38:1 46:1 47:1 52:1 53:1 55:1 59:1 60:1 61:1 62:1 63:1 66:1 71:1 73:1 74:1 79:1 81:1 87:1 89:1 95:1 97:1 103:1 104:1 105:1 112:1 113:1 114:1 120:1 122:1 123:1 124:1 125:1 126:1 
-0 -0 0 0 0 0.1533831810035927 0 0 0 0.357539473001736 0.1918492090075978 0.0008050997323760073 0 0.02577122937808757 0 0 0 0 0 0.03579316478091008 0 0 0 0.006456630681854163 0 28:1 34:1 35:1 36:1 41:1 42:1 49:1 57:1 59:1 60:1 65:1 67:1 68:1 73:1 74:1 75:1 76:1 77:1 85:1 86:1 87:1 95:1 96:1 104:1 
-0 -0 0.5534637388593828 0 0 0.1539059455247878 0 0 0 0 0 0 0 0.1287218671372172 0 0 0 0 0 0 0 0 0 0.03448112553938269 0 27:1 28:1 29:1 30:1 34:1 35:1 38:1 42:1 46:1 49:1 50:1 55:1 56:1 57:1 62:1 63:1 64:1 65:1 68:1 69:1 70:1 72:1 73:1 74:1 75:1 76:1 80:1 88:1 96:1 104:1 
-0 -0 0 0.195882357979649 0.09296345003669887 0.2307778012765332 0.0365722417086469 0.03341008798483591 0 0.6219353794377125 0 0.110103866603823 0.07946907357992153 0.07799428497688285 0.1351930497154895 0.03334543984024459 0 0 0 0 0.006763010180083948 0 0 0 0.06926256239837854 19:1 20:1 21:1 26:1 27:1 29:1 33:1 34:1 37:1 38:1 41:1 45:1 46:1 49:1 53:1 57:1 61:1 65:1 69:1 73:1 77:1 78:1 81:1 83:1 84:1 85:1 86:1 89:1 90:1 91:1 94:1 102:1 110:1 111:1 112:1 
-0 -0 0 0 0 0.3208433419403705 0 0 0.0001791176712168411 0 0 0 0 0 0 0 0 0 0 0 0 0 0 0 0 35:1 36:1 37:1 42:1 43:1 45:1 46:1 49:1 54:1 55:1 57:1 63:1 64:1 65:1 70:1 71:1 72:1 73:1 74:1 75:1 76:1 77:1 80:1 88:1 96:1 
-0 -0 0 0 0 0 0 0 0 0 0 0 0 0 0 0 0.1217448964864426 0 0 0 0 0 0.02051024876387059 0 0 34:1 35:1 36:1 37:1 41:1 45:1 46:1 49:1 53:1 54:1 57:1 61:1 62:1 65:1 68:1 69:1 70:1 71:1 73:1 76:1 79:1 81:1 83:1 84:1 87:1 88:1 89:1 90:1 91:1 96:1 
-0 -0 0 0.2977901480421764 0 0.3952363155248166 0.1483685784321143 0 0 0 0.5094697908749306 0 0.1226879339789558 0.1313635495137593 0.2348014159225856 0 0 0.1960456934480564 0 0 0.04319656025396484 0 0 0.07931236524071876 0 28:1 29:1 30:1 31:1 33:1 34:1 35:1 36:1 39:1 40:1 48:1 56:1 61:1 63:1 64:1 68:1 69:1 70:1 71:1 75:1 78:1 79:1 82:1 83:1 86:1 87:1 88:1 90:1 95:1 96:1 98:1 99:1 100:1 101:1 102:1 103:1 
-0.1787451425510504 -0 0 0.1516252835432445 0.03582308097782919 0.2945230702526054 0 0.4222978666469262 0.2056638436891347 1 0 0.08524379746514101 0.1133471259953044 0.08120391943124833 0.03457803577126107 0.04486505284545807 0 0.140127320316763 0.008466924932275306 0 0 0 0 0 0.001683916668237034 14:1 15:1 16:1 21:1 22:1 28:1 35:1 36:1 38:1 42:1 43:1 46:1 50:1 53:1 54:1 57:1 58:1 61:1 65:1 69:1 73:1 77:1 81:1 84:1 85:1 89:1 92:1 93:1 97:1 99:1 100:1 101:1 105:1 107:1 109:1 113:1 114:1 115:1 117:1 118:1 
-1 -0.5873547861908547 1 0 0.006630693102738754 0.4849101313862675 0 0.5100806094145725 0 1 0 0 0 0 0.07887006356796597 0 0 0.0520232163698363 0.1583668866285097 0 0 0 0.516217515104039 0 0 27:1 28:1 29:1 35:1 37:1 43:1 45:1 46:1 50:1 51:1 52:1 53:1 54:1 55:1 58:1 59:1 60:1 63:1 64:1 66:1 67:1 72:1 73:1 74:1 75:1 80:1 81:1 89:1 97:1 
-0 -0 0 0 0 0 0 0 0 0 0 0 0 0 0 0 0 0 0 0.08318674916066918 0 0 0 0 0 18:1 19:1 26:1 33:1 34:1 38:1 41:1 46:1 49:1 54:1 57:1 61:1 62:1 65:1 69:1 70:1 73:1 77:1 78:1 79:1 81:1 85:1 87:1 89:1 92:1 93:1 95:1 97:1 98:1 99:1 100:1 103:1 104:1 106:1 107:1 112:1 
-0.3335958893573944 -0 1 0 0 0 0 0 0.03043735206432634 0 0.1122829752521552 0.08098105763599769 0.004476245389886612 0 0 0 0 0 0.1778089334713559 0 0 0 0 0 0.2175947102280509 50:1 51:1 52:1 57:1 58:1 60:1 65:1 67:1 68:1 69:1 70:1 71:1 73:1 74:1 75:1 79:1 80:1 
-0 -0.3158160702656813 0 0 0 0 0 0 0 0 0 0 0 0 0 0 0 0 0 0 0 0 0 0 0 42:1 43:1 44:1 45:1 49:1 50:1 52:1 57:1 59:1 60:1 61:1 65:1 67:1 69:1 72:1 73:1 74:1 75:1 77:1 78:1 79:1 80:1 81:1 82:1 86:1 87:1 
-0 -0 0 0 0 0 0 0 0 0.3760284588694195 0 0 0 0 0 0.07903865598851101 0.141913404705427 0 0 0 0 0 0 0 0 27:1 28:1 29:1 30:1 34:1 35:1 38:1 39:1 40:1 41:1 42:1 47:1 48:1 49:1 55:1 56:1 57:1 63:1 64:1 65:1 71:1 73:1 78:1 79:1 81:1 86:1 87:1 89:1 90:1 93:1 94:1 95:1 96:1 98:1 99:1 100:1 101:1 104:1 
-0.5142640896969793 -0 0 0 0 0 0 0 0 0.7238035784096282 0.006753746448385543 0 0 0 0 0.08370550050555758 0.0949613888763208 0 0 0 0.006192131740319243 0 0 0 0 31:1 32:1 35:1 36:1 37:1 39:1 40:1 43:1 46:1 47:1 48:1 50:1 51:1 54:1 55:1 56:1 58:1 62:1 63:1 65:1 70:1 73:1 77:1 78:1 81:1 84:1 85:1 86:1 89:1 91:1 92:1 94:1 97:1 98:1 99:1 102:1 
-0.3811495467455987 -0.09341040764132282 0 0 0 0 0 0 0 0 0 0 0 0 0 0 0 0 0 0 0 0 0 0 0 36:1 37:1 38:1 39:1 43:1 44:1 47:1 48:1 50:1 51:1 56:1 57:1 58:1 63:1 64:1 65:1 70:1 71:1 72:1 73:1 78:1 79:1 81:1 85:1 86:1 87:1 89:1 90:1 91:1 92:1 95:1 96:1 
-0 -0 0 0 0 0.4331389174014345 0 0 0 0.1904084656322151 0 0 0 0 0 0 0 0.244069555691512 0 0 0 0 0 0 0.01543930741208064 38:1 39:1 40:1 44:1 45:1 46:1 47:1 48:1 50:1 51:1 52:1 54:1 55:1 58:1 62:1 63:1 65:1 66:1 69:1 70:1 73:1 76:1 77:1 78:1 81:1 83:1 84:1 86:1 89:1 90:1 94:1 
-0 -0 0 0 0 0 0 0 0.009701125602056297 0.1960972469974383 0 0 0 0 0 0 0 0 0 0 0 0 0 0 0 28:1 29:1 30:1 31:1 32:1 35:1 36:1 42:1 43:1 48:1 50:1 56:1 57:1 58:1 63:1 64:1 65:1 70:1 71:1 73:1 77:1 78:1 79:1 81:1 85:1 86:1 89:1 90:1 91:1 92:1 93:1 94:1 102:1 103:1 
-0 -0 0 0 0 0 0 0 0 0 0 0 0.02077136007468018 0 0 0 0 0 0 0 0 0 0 0 0 28:1 29:1 30:1 31:1 34:1 35:1 36:1 39:1 41:1 42:1 49:1 54:1 55:1 57:1 62:1 63:1 65:1 69:1 70:1 73:1 76:1 77:1 78:1 81:1 82:1 83:1 84:1 86:1 87:1 90:1 91:1 95:1 96:1 104:1 
-0 -0 0 0 0 0 0.05000785802424532 0 0 0 0 0 0 0 0 0 0 0 0 0 0 0 0 0 0 37:1 41:1 42:1 43:1 45:1 46:1 49:1 51:1 53:1 54:1 57:1 61:1 62:1 65:1 69:1 70:1 71:1 73:1 75:1 76:1 77:1 79:1 80:1 81:1 82:1 83:1 88:1 96:1 
-0 -0 0 0 0 0.1859311652565891 0 0 0 0 0 0 0 0 0 0 0 0 0 0 0 0 0 0 0 37:1 38:1 42:1 43:1 44:1 45:1 46:1 47:1 50:1 54:1 55:1 57:1 62:1 65:1 69:1 70:1 71:1 73:1 76:1 77:1 79:1 80:1 81:1 82:1 83:1 84:1 89:1 90:1 
-0 -0 0.417161198022893 0 0 0 0.03798455951357563 0 0 0 0 0 0 0 0 0 0 0 0 0 0 0 0 0 0 22:1 30:1 31:1 39:1 47:1 51:1 52:1 53:1 54:1 55:1 58:1 59:1 62:1 63:1 64:1 65:1 71:1 72:1 73:1 79:1 80:1 81:1 88:1 89:1 96:1 97:1 104:1 105:1 106:1 107:1 108:1 109:1 110:1 111:1 112:1 
-0 -0.05172410831548527 0.274074822263605 0 0 0.2534405213129285 0 0 0 0 0 0 0 0 0 0 0 0 0.0001716562283906632 0 0 0 0 0.07103939273876204 0 10:1 11:1 12:1 18:1 20:1 21:1 26:1 29:1 33:1 34:1 40:1 41:1 48:1 49:1 56:1 57:1 63:1 64:1 65:1 69:1 70:1 71:1 72:1 73:1 76:1 77:1 80:1 81:1 84:1 88:1 89:1 90:1 91:1 92:1 96:1 104:1 112:1 120:1 
-0 -0.1607058748601465 0 0 0 0 0 0 0 0 0 0 0 0 0 0 0.003259995580174314 0 0 0 0 0 0 0 0 32:1 36:1 37:1 38:1 39:1 40:1 43:1 44:1 47:1 48:1 50:1 51:1 54:1 55:1 56:1 58:1 61:1 62:1 63:1 65:1 69:1 71:1 73:1 76:1 77:1 78:1 79:1 81:1 82:1 83:1 84:1 86:1 89:1 90:1 94:1 102:1 
