svm_type c_svc
kernel_type polynomial
degree 4
gamma 0.0078125
coef0 0
nr_class 26
total_sv 3687
rho -0.999719 -0.998642 1.00001 -0.999862 1.00002 -0.999383 -0.999878 -0.999437 -0.999694 0.999889 -0.999806 -0.999257 -0.99989 -0.999695 -0.999832 -0.999881 -0.99962 -0.999856 -0.999696 -0.999887 -0.999929 -0.999939 -0.999883 -0.999932 -0.999846 1.00004 1.00015 -0.999804 1.00003 0.999757 -0.999824 0.999994 0.999914 0.999919 -0.999656 0.999963 -0.99984 -0.999441 -0.999796 -0.999811 0.99995 -0.999813 -0.99939 -0.999868 -0.99995 -0.999918 -0.999864 -0.999892 -0.999795 0.999906 -0.999882 1.00008 -0.999721 -0.999882 -0.999682 -0.999809 0.999786 -0.999812 -0.999556 -0.999862 -0.99978 -0.999865 -0.999884 -0.999818 -0.999859 -0.999831 -0.999909 -0.999945 -0.999937 -0.999869 -0.999937 -0.999893 -0.999915 -0.99822 -0.999823 -0.999919 -0.999818 -0.999867 -0.999439 -0.999909 -0.999715 -0.999888 -0.999875 -0.999883 -0.999917 -0.999869 -0.99993 -0.999907 -0.999932 -0.999935 -0.999947 -0.999934 -0.999949 -0.999901 1.00008 1.00007 -0.999486 1.00005 0.999981 1 0.999951 1.00003 -0.999779 1.00001 1.00005 -0.999645 1.00009 -0.999639 0.999806 -0.999786 -0.999941 -0.999926 -0.999821 -0.999943 0.99992 -0.999997 -0.999997 -0.999971 -0.999967 -0.999975 -0.99998 -0.999975 -0.999975 -0.999977 -0.999995 -0.999978 -0.99998 -0.999977 -0.999997 -0.999976 -0.999972 -0.999975 -0.999974 -0.999994 -0.999981 -0.999898 -0.999194 -0.999584 0.999857 -0.999854 1.00004 -0.99989 -0.999758 -0.99988 -0.999935 -0.999347 -0.999886 -0.999728 -0.999898 -0.999918 -0.99994 -0.99991 -0.999918 -0.999859 1.00005 1 1.00001 0.99998 0.999999 -0.999781 1.00003 0.999999 -0.999727 1.00006 -0.9997 0.999817 -0.999859 -0.999904 -0.999936 -0.999816 -0.999912 0.999975 -0.999861 0.999823 -0.999875 0.999994 -0.999908 -0.999865 -0.999909 -0.99992 -0.999804 -0.999911 -0.999984 -0.999914 -0.999968 -0.999932 -0.999919 -0.99997 -0.999938 0.999969 -0.99993 0.999965 -0.999972 -0.999892 -0.999932 -0.999957 0.999832 -0.999962 -0.999921 -0.999962 -0.99998 -0.999968 -0.99997 -0.999967 -0.999955 -0.99988 -0.999721 -0.999917 -0.999877 -0.999911 -0.999924 -0.999838 -0.999929 -0.999932 -0.999924 -0.999941 -0.99995 -0.999946 -0.999938 -0.999934 0.999961 -0.999945 0.999977 -0.999903 -0.999912 0.999951 -0.999949 0.99928 -0.999932 -0.999957 -0.999981 -0.999957 -0.99997 -0.999892 -0.999973 -0.999969 -0.999979 -0.999965 -0.999922 -0.999967 -0.999951 -0.99996 -0.999973 -0.999972 -0.999969 -0.999963 -0.999961 1.00001 0.999971 0.999893 0.999982 0.999953 0.999898 -0.999915 -0.999985 -0.999963 -0.999934 -0.999958 0.999927 -0.99997 -0.999959 0.999888 -0.999965 0.99882 -0.999962 -0.999965 -0.999971 -0.999967 -0.999984 -0.999975 -0.999911 0.999976 -0.999908 0.99967 -0.999918 -0.999933 -0.999942 -0.999922 -0.999927 -0.999867 1.00003 0.999907 0.999859 -0.999906 -0.999964 -0.999971 -0.999922 -0.999971 0.999925 -0.999922 -0.99988 -0.999946 -0.999952 -0.999958 -0.999944 -0.999976 -0.999929 0.999827 -0.999909 -0.999932 -0.999963 -0.999916 -0.999953 0.999923 -0.999839 -0.999928 -0.999946 -0.999856 -0.999932 -0.999722 -0.999941 -0.999962 -0.999897 -0.999941 0.999944 0.999887 0.999988 -0.999981 0.999982 1.00001 -0.999858 0.999997 -0.999971 0.999962 0.99999
label 14 12 0 13 3 8 6 1 17 2 4 18 11 5 19 24 21 20 25 15 7 9 16 23 22 10
probA -31494.8 -6040.74 -9181.02 -38890.1 -27323.5 -14508.4 -49948.4 -25213.7 -37535.7 -11534.6 -56776.1 -30844.2 -123118 -46026.9 -56004 -92242.5 -30644.1 -95277.6 -18872.5 -127262 -389772 -177921 -75117.4 -53123 -63711.3 -22821.7 -30031.1 -42989.8 -75739.9 -29306.1 -47261.1 -46339.2 -49569.7 -42805.5 -43537 -56584.7 -40590.6 -16278 -68964.6 -89551.8 -39850.2 -93458.9 0.205172 -125220 -50823.8 -93031.5 -90138.7 -55300.6 -54738.2 -13873 -46708.8 -41241.2 -17063.6 -59170.8 -36721.8 -75339.5 -19484.2 -79615 -47047.5 -141894 -108177 -121171 -152632 -48016.5 -94521.7 -23506.5 -83724.4 -256558 -37749.3 -121917 -432762 -54894.7 -60120.9 0.0850705 -27668.2 -66583.1 -70632.1 -87811.5 -23060.2 -93187.6 -58452.9 -72097.1 -98849.8 -119021 -132720 -48568.1 -167088 -25258.2 -69255 -25219.9 -68813.1 -193340 -85017.6 -114247 -64177.1 -30441.6 0.303109 -62088.8 -67343.5 -51294.4 -56357.4 -66944.5 -57443.1 -83398.1 -34322.7 -32612.6 -31130.3 0.486941 -42639.3 -52412.6 -335773 -95539.9 -55046.7 -332134 -49201.7 -53546.9 -82310.9 -164254 -149492 -55575.6 -210003 -72505.8 -250374 -199665 -184890 -289975 -109246 -345212 -44547.3 -209400 -41044.5 -419472 -244917 -805815 -149864 -62489.5 0.285356 -35899.1 -13615.4 -49679.2 0.227113 -153928 -84973.9 -56634.5 -67144.9 -5402.94 -91826.7 -20381 -149058 -171752 -8213.61 -140615 -6311.83 -62384 -47857.8 -56166.5 -49202.1 -43750.3 -66224.1 -50410.9 -56129 -40434.3 0.388486 -39706.1 0.302555 -40316.3 -38796.1 -68721.1 -90556.7 -85876.6 -147883 0.479388 -114620 -18741 -81386 -62528 -172494 -38569.6 -84960.8 -66492.3 -59535.6 -108042 -19848 -237881 -627431 -40489.7 -106386 -10337.4 -79359.2 -16804.5 -145430 -81166.7 -166690 -144451 -153700 -180476 -28781.9 -202068 -27215.4 -217152 -1.32429e+06 -249584 -199715 -216164 -118223 -111580 -61166.9 -189737 -149222 -197764 -154608 -60000.3 -212388 -21670.3 -255861 -208323 -198597 -212900 -228177 -108199 -117309 -117818 -122373 -91407.9 -133344 -77422.3 -113678 -18833.4 -149835 -222308 -167509 -152802 -36943.9 -34552.7 -188327 -226666 -176779 -176856 -63711.4 -248344 -33618.6 -143042 -166106 -217331 -208119 -644599 -100297 -192818 -156873 -32428.8 -193123 -89496.5 -56553.7 0.458718 -487568 -155628 -156610 -243891 -96022 -167381 -198073 -97572.4 -236604 0.365815 -149332 -77989 -81245.1 -142852 -463582 -119217 -90624.9 -96278.7 -119390 -35731.6 -145194 -20845.7 -62713.5 -146167 -94573.7 0.165462 -34212.8 0.145127 -58388.7 -57334.1 -217766 -238736 -69662.9 -351172 -99027.7 -157362 -30984.7 -165794 -947214 -302608 -201818 -57186.2 -100937 -43466.1 -74172.7 -41444.8 -97908.2 -91374.5 -3573.9 -96124.4 -59494.2 -281309 -102539 -93854.6 -131083 -35965.5 -127751 -154547 0.280597 -8208.67 -92076.6 0.601838 -803670 0.739136 -449845 -112536 -30732.3 -157327 -422538 -83584.1 -179087
probB 31486.8 6034.9 -9178.74 38884.5 -27320.3 14501.9 49940.7 25203.9 37528.2 -11531.7 56767.6 30826.8 123105 46017 55996.7 92232.8 30635.7 95266.9 18866.9 127249 389739 177907 75108.9 53117.1 63701.9 -22820.1 -30031 42982.8 -75737.7 -29299 47252.9 -46336.2 -49564.2 -42799.7 43526.5 -56580.4 40585 16271.5 68953.1 89540.2 -39846.2 93445.4 -0.177705 125205 50820 93021.5 90127.7 55293.3 54729 -13870.2 46702.3 -41239.8 17058.7 59161.6 36713.2 75328.3 -19479.3 79602.3 47032.7 141876 108162 121155 152613 48009.5 94508.3 23500.2 83715.2 256542 37742.9 121901 432733 54887.3 60112.6 -0.0753478 27661.9 66574.2 70621.6 87800.8 23049.3 93176.6 58440.6 72089.1 98839.9 119008 132709 48561.8 167075 25253.2 69247.8 25215.4 68804.8 193325 85011.2 114232 -64175.8 -30440.4 -0.138465 -62087.5 -67339.3 -51290.2 -56352.6 -66942.7 57432.8 -83394.6 -34321.2 32602 -31129.5 -0.403463 -42631.7 52403.1 335749 95527.7 55037.7 332120 -49196.9 53543.5 82306.4 164247 149485 55570.9 209995 72502.7 250364 199659 184885 289964 109240 345201 44542.8 209391 41040.1 419456 244906 805787 149857 62480 -0.121529 35886.8 -13612.9 49672.3 0.152704 153912 84957.8 56628.8 67137.5 5399.92 91816.9 20374.1 149043 171735 8210.47 140600 6308.28 62375.2 -47856.2 -56163.4 -49198.2 -43747.6 -66220.8 50402.2 -56126.9 -40431.3 -0.338686 -39705 -0.270169 -40309.5 38791.2 68714.6 90547.4 85862.8 147869 0.436018 114604 -18738.8 81376.5 -62526.8 172476 38564.9 84952.3 66484.4 59523.9 108031 19844.5 237857 627419 40483.7 106374 10333.9 79351.8 -16803.4 145421 -81162.7 166683 144439 153691 180467 -28777.8 202061 27211 217142 1.32426e+06 249575 199707 216155 118216 111570 61154.3 189722 149209 197747 154596 59991.5 212372 21666.2 255842 208309 198583 212885 228162 108190 -117304 117811 -122368 91400.5 133333 -77418.1 113671 -18823.9 149825 222297 167503 152795 36940.7 34548.3 188321 226658 176774 176847 63705.3 248334 33614.1 143034 166099 217321 208110 644572 100291 -192816 -156868 -32425.8 -193119 -89492.6 -56549.5 -0.115093 487550 155620 156599 243880 -96016.5 167375 198063 -97565.1 236593 0.126228 149325 77984.2 81240.5 142846 463573 119211 90616.1 -96275.6 119379 -35723.8 145181 20842.6 62708 146154 94565.4 -0.101181 -34212.1 0.0719214 -58382.2 57329.4 217759 238726 69657.3 351162 -99021 157350 30979 165785 947176 302590 201806 57181.7 100929 -43460.3 74165.8 41440.9 97901.7 91367 3572.02 -96117.6 59486 281294 102532 93845.6 131076 35957 127743 154538 -0.261179 8206.88 -92072.8 0.617481 -803663 -0.394644 -449838 -112534 30728 -157323 422523 -83580.2 -179083
nr_sv 303 133 281 368 74 365 197 73 185 154 320 105 200 57 120 87 66 175 67 126 56 13 15 51 12 84
SV
0 0.01 0.01 0.01 0.01 0 0 0 0 0.01 0 0 0 0 0 0 0 0 0 0 0 0 0 0 0 26:1 27:1 28:1 34:1 35:1 36:1 37:1 38:1 42:1 46:1 47:1 49:1 50:1 55:1 56:1 57:1 64:1 65:1 72:1 73:1 80:1 81:1 87:1 88:1 89:1 93:1 94:1 95:1 97:1 98:1 99:1 100:1 101:1 
0 0.01 0.01 0 0.01 0 0 0 0 0.01 0 0.01 0 0 0 0 0 0 0 0 0 0 0 0 0 35:1 36:1 37:1 38:1 42:1 43:1 44:1 46:1 47:1 48:1 49:1 50:1 56:1 57:1 64:1 65:1 72:1 73:1 80:1 81:1 87:1 88:1 89:1 90:1 91:1 92:1 93:1 94:1 
0.01 0.01 0.01 0 0.01 0.01 0 0.01 0.01 0.01 0 0.01 0 0 0 0 0.01 0 0 0 0 0 0 0 0 34:1 35:1 41:1 42:1 43:1 44:1 45:1 46:1 47:1 49:1 55:1 56:1 57:1 64:1 65:1 72:1 73:1 80:1 81:1 87:1 88:1 89:1 90:1 91:1 92:1 93:1 94:1 95:1 
0.01 0.01 0.01 0 0.01 0.01 0 0.01 0.01 0.01 0 0.01 0 0.01 0 0 0.01 0 0 0 0 0 0 0 0 34:1 35:1 36:1 41:1 42:1 44:1 45:1 46:1 49:1 54:1 55:1 57:1 63:1 64:1 65:1 72:1 73:1 80:1 81:1 82:1 88:1 90:1 91:1 92:1 93:1 94:1 95:1 96:1 
0 0.01 0.01 0 0.01 0 0 0 0 0.01 0 0 0 0 0 0 0 0 0 0 0 0 0 0 0 29:1 30:1 31:1 36:1 37:1 39:1 40:1 43:1 44:1 48:1 50:1 51:1 56:1 57:1 58:1 64:1 65:1 72:1 73:1 79:1 80:1 81:1 86:1 87:1 89:1 92:1 93:1 94:1 97:1 98:1 99:1 100:1 
0 0.01 0.01 0 0.01 0 0 0 0 0.01 0 0 0 0 0 0 0 0 0 0 0 0 0 0 0 25:1 26:1 27:1 28:1 29:1 30:1 31:1 33:1 34:1 35:1 39:1 40:1 41:1 42:1 48:1 49:1 56:1 57:1 64:1 65:1 72:1 73:1 80:1 81:1 88:1 89:1 90:1 91:1 93:1 94:1 95:1 96:1 99:1 100:1 101:1 
0 0.01 0.01 0 0.01 0 0 0 0 0.01 0 0 0 0 0 0 0 0 0 0 0 0 0 0 0 13:1 19:1 20:1 21:1 22:1 27:1 30:1 31:1 34:1 35:1 39:1 40:1 42:1 48:1 50:1 56:1 57:1 58:1 64:1 65:1 72:1 73:1 79:1 80:1 81:1 87:1 89:1 90:1 95:1 97:1 98:1 102:1 107:1 108:1 109:1 110:1 115:1 116:1 
0.01 0.01 0.01 0.01 0.01 0.01 0.01 0.01 0.01 0.01 0.01 0.01 0.01 0.01 0.01 0.01 0.01 0.01 0.01 0.01 0 0 0 0 0.01 36:1 37:1 38:1 39:1 40:1 42:1 43:1 47:1 48:1 49:1 50:1 56:1 57:1 63:1 64:1 65:1 71:1 73:1 77:1 78:1 81:1 84:1 85:1 89:1 90:1 91:1 92:1 
0 0.01 0.01 0 0.01 0.01 0 0.01 0 0.01 0.01 0.01 0.01 0 0 0 0.01 0 0 0 0 0 0 0 0 19:1 20:1 21:1 22:1 25:1 26:1 27:1 30:1 31:1 33:1 39:1 40:1 41:1 48:1 49:1 56:1 57:1 64:1 65:1 72:1 73:1 80:1 81:1 88:1 90:1 95:1 96:1 98:1 99:1 102:1 103:1 107:1 108:1 109:1 110:1 
0.01 0.01 0.01 0.01 0.01 0.01 0.01 0.01 0.01 0.01 0.01 0.01 0.01 0.01 0.01 0 0.01 0.01 0.01 0 0 0 0 0 0.01 20:1 21:1 22:1 23:1 24:1 27:1 28:1 29:1 32:1 34:1 35:1 36:1 40:1 43:1 44:1 48:1 51:1 56:1 59:1 63:1 64:1 66:1 67:1 71:1 74:1 78:1 82:1 85:1 86:1 89:1 90:1 92:1 93:1 97:1 99:1 100:1 105:1 106:1 107:1 
0 0 0.01 0 0.01 0 0 0 0 0.01 0 0 0 0 0 0 0 0 0 0 0 0 0 0 0 21:1 22:1 23:1 27:1 28:1 29:1 30:1 31:1 32:1 35:1 40:1 42:1 43:1 48:1 50:1 56:1 57:1 58:1 64:1 65:1 72:1 73:1 80:1 81:1 87:1 88:1 89:1 94:1 95:1 97:1 100:1 101:1 102:1 105:1 106:1 107:1 108:1 
0 0 0.01 0 0.01 0 0 0 0 0.01 0 0 0 0 0 0 0 0 0 0 0 0 0 0 0 20:1 21:1 22:1 27:1 30:1 34:1 35:1 36:1 37:1 38:1 39:1 41:1 42:1 46:1 47:1 48:1 49:1 56:1 57:1 64:1 65:1 72:1 73:1 80:1 81:1 88:1 89:1 95:1 96:1 97:1 102:1 103:1 105:1 106:1 107:1 108:1 109:1 110:1 
0.01 0.01 0.01 0.01 0.01 0.01 0 0.01 0.01 0.01 0.01 0.01 0.01 0.01 0.01 0.01 0.01 0.01 0.01 0 0 0 0.01 0 0.01 19:1 20:1 21:1 23:1 26:1 27:1 29:1 31:1 34:1 37:1 38:1 39:1 41:1 42:1 46:1 47:1 48:1 49:1 55:1 57:1 63:1 65:1 71:1 73:1 78:1 79:1 81:1 85:1 89:1 92:1 97:1 98:1 99:1 100:1 106:1 
0.01 0.01 0.01 0 0.01 0.01 0.01 0.01 0.01 0.01 0 0.01 0 0.01 0 0 0.01 0 0 0 0 0 0 0 0.01 29:1 33:1 34:1 35:1 37:1 38:1 41:1 46:1 47:1 49:1 55:1 56:1 57:1 64:1 65:1 72:1 73:1 80:1 81:1 82:1 88:1 90:1 91:1 92:1 96:1 100:1 101:1 102:1 103:1 104:1 
0 0.01 0.01 0 0.01 0 0 0 0 0.01 0 0 0 0 0 0 0 0 0 0 0 0 0 0 0 33:1 34:1 35:1 36:1 37:1 41:1 42:1 43:1 45:1 46:1 47:1 49:1 55:1 56:1 57:1 64:1 65:1 72:1 73:1 80:1 81:1 82:1 87:1 88:1 90:1 91:1 92:1 93:1 94:1 95:1 
0 0 0.01 0 0.01 0 0 0 0 0.01 0 0 0 0 0 0 0 0 0 0 0 0 0 0 0 17:1 18:1 19:1 20:1 21:1 22:1 25:1 26:1 27:1 28:1 29:1 30:1 31:1 33:1 34:1 37:1 39:1 41:1 47:1 48:1 49:1 56:1 57:1 64:1 65:1 72:1 73:1 80:1 81:1 88:1 89:1 90:1 95:1 96:1 98:1 99:1 101:1 102:1 103:1 107:1 108:1 109:1 
0 0.01 0.01 0 0.01 0 0 0 0 0.01 0 0 0 0 0 0 0 0 0 0 0 0 0 0 0 27:1 28:1 29:1 30:1 31:1 32:1 34:1 35:1 40:1 41:1 42:1 48:1 49:1 50:1 56:1 57:1 64:1 65:1 72:1 73:1 79:1 80:1 81:1 86:1 87:1 89:1 90:1 94:1 98:1 99:1 100:1 101:1 102:1 
0 0.01 0.01 0 0.01 0.01 0 0 0 0.01 0 0 0 0 0 0 0 0 0.01 0 0 0 0 0 0 2:1 3:1 4:1 5:1 6:1 10:1 12:1 14:1 15:1 19:1 20:1 23:1 24:1 26:1 27:1 32:1 34:1 40:1 41:1 42:1 48:1 49:1 56:1 57:1 64:1 65:1 72:1 73:1 80:1 81:1 88:1 89:1 95:1 96:1 97:1 103:1 105:1 110:1 111:1 113:1 117:1 118:1 121:1 122:1 123:1 124:1 125:1 
0 0.01 0.01 0 0.01 0.01 0 0 0 0.01 0 0 0 0 0 0 0 0 0.01 0 0 0 0 0 0 20:1 21:1 22:1 26:1 27:1 28:1 29:1 30:1 31:1 33:1 34:1 37:1 38:1 39:1 41:1 46:1 47:1 49:1 54:1 55:1 56:1 57:1 64:1 65:1 72:1 73:1 80:1 81:1 88:1 90:1 95:1 96:1 98:1 99:1 100:1 101:1 102:1 103:1 109:1 110:1 
0 0.01 0.01 0 0.01 0.01 0 0.01 0.01 0.01 0 0.01 0 0 0 0 0.01 0 0 0 0 0 0 0 0 28:1 29:1 30:1 31:1 34:1 35:1 36:1 39:1 40:1 41:1 42:1 48:1 49:1 56:1 57:1 64:1 65:1 72:1 73:1 79:1 81:1 86:1 87:1 89:1 92:1 93:1 94:1 97:1 98:1 99:1 
0 0 0.01 0 0.01 0 0 0 0 0.01 0 0 0 0 0 0 0 0 0 0 0 0 0 0 0 21:1 22:1 26:1 27:1 28:1 29:1 30:1 31:1 32:1 33:1 34:1 40:1 41:1 42:1 43:1 48:1 49:1 51:1 56:1 57:1 64:1 65:1 72:1 73:1 80:1 81:1 87:1 88:1 89:1 94:1 95:1 97:1 98:1 101:1 102:1 106:1 107:1 108:1 109:1 
0.01 0.01 0.01 0.01 0.01 0.01 0.01 0.01 0.01 0.01 0.01 0.01 0.01 0.01 0.01 0 0.01 0.01 0.01 0 0 0 0.01 0 0.01 11:1 12:1 13:1 14:1 22:1 23:1 31:1 32:1 40:1 45:1 46:1 48:1 52:1 53:1 56:1 59:1 60:1 64:1 67:1 72:1 74:1 75:1 79:1 80:1 82:1 86:1 87:1 89:1 90:1 94:1 97:1 101:1 102:1 105:1 107:1 108:1 109:1 113:1 114:1 115:1 
0.01 0.01 0.01 0.01 0.01 0.01 0.01 0.01 0.01 0.01 0.01 0.01 0 0.01 0 0 0.01 0 0.01 0 0 0 0 0 0.01 3:1 4:1 5:1 6:1 11:1 15:1 19:1 23:1 24:1 27:1 32:1 34:1 35:1 40:1 42:1 48:1 50:1 56:1 57:1 58:1 64:1 65:1 72:1 73:1 80:1 81:1 88:1 89:1 96:1 97:1 104:1 105:1 112:1 113:1 114:1 119:1 120:1 122:1 123:1 124:1 125:1 126:1 127:1 
0 0.01 0.01 0 0.01 0 0 0 0 0.01 0 0.01 0 0 0 0 0 0 0 0 0 0 0 0 0 11:1 12:1 18:1 19:1 20:1 21:1 26:1 29:1 30:1 31:1 34:1 39:1 40:1 41:1 48:1 49:1 56:1 57:1 64:1 65:1 72:1 73:1 80:1 81:1 88:1 89:1 95:1 96:1 97:1 103:1 105:1 109:1 110:1 111:1 113:1 114:1 115:1 116:1 117:1 
0.01 0.01 0.01 0 0.01 0.01 0.01 0.01 0.01 0.01 0.01 0.01 0 0.01 0.01 0.01 0.01 0.01 0.01 0.01 0 0 0.01 0 0.01 34:1 35:1 36:1 40:1 41:1 42:1 48:1 49:1 56:1 57:1 64:1 65:1 72:1 73:1 79:1 80:1 81:1 82:1 86:1 87:1 90:1 91:1 92:1 93:1 94:1 
0 0.01 0.01 0 0.01 0 0 0 0 0.01 0 0.01 0 0 0 0 0 0 0 0 0 0 0 0 0 21:1 22:1 28:1 29:1 30:1 31:1 35:1 36:1 39:1 40:1 43:1 48:1 51:1 56:1 58:1 59:1 64:1 65:1 66:1 72:1 73:1 79:1 80:1 81:1 87:1 89:1 94:1 95:1 97:1 98:1 99:1 100:1 101:1 102:1 106:1 
0.01 0.01 0.01 0 0.01 0.01 0.01 0.01 0.01 0.01 0.01 0.01 0 0.01 0.01 0 0.01 0.01 0.01 0.01 0 0 0 0 0.01 26:1 27:1 33:1 34:1 41:1 46:1 47:1 49:1 55:1 56:1 57:1 64:1 65:1 72:1 73:1 80:1 81:1 87:1 88:1 89:1 90:1 94:1 95:1 99:1 100:1 101:1 102:1 
0 0.01 0.01 0 0.01 0.01 0 0.01 0 0.01 0 0 0 0 0 0 0 0 0 0 0 0 0 0 0 11:1 18:1 19:1 20:1 26:1 28:1 29:1 30:1 34:1 38:1 39:1 41:1 42:1 47:1 49:1 55:1 56:1 57:1 64:1 65:1 72:1 73:1 80:1 81:1 88:1 89:1 95:1 96:1 97:1 101:1 102:1 103:1 105:1 108:1 109:1 113:1 114:1 115:1 
0 0.01 0.01 0 0.01 0.01 0 0 0 0.01 0 0 0 0 0 0 0 0 0 0 0 0 0 0 0 3:1 4:1 5:1 13:1 14:1 15:1 16:1 21:1 22:1 24:1 28:1 29:1 30:1 32:1 35:1 36:1 40:1 42:1 43:1 48:1 50:1 56:1 58:1 64:1 65:1 66:1 72:1 73:1 79:1 80:1 81:1 87:1 89:1 95:1 97:1 102:1 103:1 105:1 110:1 113:1 117:1 118:1 121:1 122:1 123:1 124:1 125:1 
0 0.01 0.01 0 0.01 0 0 0.01 0 0.01 0 0.01 0 0 0 0 0 0 0 0 0 0 0 0 0 26:1 33:1 34:1 35:1 36:1 37:1 38:1 41:1 42:1 46:1 47:1 49:1 50:1 55:1 56:1 57:1 64:1 65:1 72:1 73:1 80:1 81:1 88:1 89:1 90:1 91:1 95:1 99:1 100:1 101:1 102:1 
0.01 0.01 0.01 0.01 0.01 0.01 0.01 0.01 0.01 0.01 0.01 0.01 0.01 0.01 0.01 0.01 0.01 0.01 0.01 0.01 0 0 0.01 0 0.01 35:1 36:1 37:1 38:1 39:1 43:1 46:1 47:1 48:1 50:1 56:1 57:1 63:1 64:1 65:1 71:1 73:1 78:1 79:1 81:1 85:1 86:1 89:1 90:1 91:1 92:1 
0 0.01 0.01 0 0.01 0.01 0 0.01 0.01 0.01 0 0.01 0 0 0 0 0.01 0 0 0 0 0 0 0 0 33:1 34:1 35:1 36:1 37:1 38:1 41:1 46:1 47:1 49:1 55:1 56:1 57:1 64:1 65:1 72:1 73:1 80:1 81:1 82:1 88:1 90:1 91:1 92:1 93:1 94:1 95:1 96:1 
0.01 0.01 0.01 0 0.01 0.01 0 0.01 0.01 0.01 0 0.01 0 0 0 0 0.01 0 0.01 0 0 0 0 0 0 35:1 36:1 37:1 38:1 39:1 40:1 41:1 42:1 43:1 48:1 49:1 50:1 51:1 56:1 58:1 64:1 66:1 71:1 72:1 73:1 74:1 79:1 81:1 82:1 86:1 87:1 90:1 91:1 92:1 93:1 94:1 
0 0.01 0.01 0 0.01 0 0 0 0 0.01 0 0 0 0 0 0 0 0 0 0 0 0 0 0 0 28:1 29:1 30:1 31:1 35:1 36:1 39:1 40:1 42:1 43:1 44:1 45:1 48:1 50:1 53:1 56:1 57:1 58:1 64:1 65:1 71:1 72:1 73:1 78:1 79:1 81:1 85:1 86:1 89:1 91:1 92:1 93:1 97:1 98:1 99:1 
0 0.01 0.01 0 0.01 0.01 0 0.01 0 0.01 0 0.01 0 0 0 0 0 0 0.01 0 0 0 0 0 0 12:1 13:1 14:1 15:1 16:1 20:1 24:1 27:1 28:1 32:1 35:1 43:1 44:1 45:1 46:1 47:1 48:1 51:1 56:1 57:1 58:1 59:1 64:1 65:1 72:1 73:1 80:1 81:1 88:1 89:1 95:1 96:1 97:1 100:1 101:1 102:1 103:1 105:1 108:1 113:1 114:1 115:1 116:1 
0 0.01 0.01 0 0.01 0.01 0 0.01 0 0.01 0 0.01 0 0 0 0 0 0 0 0 0 0 0 0 0 19:1 20:1 21:1 22:1 23:1 27:1 31:1 35:1 36:1 39:1 40:1 43:1 44:1 48:1 50:1 51:1 56:1 58:1 64:1 65:1 66:1 72:1 73:1 80:1 81:1 87:1 89:1 94:1 95:1 97:1 100:1 101:1 102:1 105:1 106:1 107:1 108:1 
0 0.01 0.01 0 0.01 0 0 0 0 0.01 0 0 0 0 0 0 0 0 0 0 0 0 0 0 0 30:1 35:1 36:1 37:1 38:1 39:1 40:1 42:1 43:1 48:1 49:1 50:1 56:1 57:1 64:1 65:1 71:1 72:1 73:1 79:1 81:1 86:1 87:1 89:1 92:1 93:1 94:1 97:1 98:1 99:1 100:1 
0 0.01 0.01 0 0.01 0 0 0 0 0.01 0 0 0 0 0 0 0 0 0 0 0 0 0 0 0 30:1 31:1 36:1 37:1 38:1 39:1 40:1 42:1 43:1 48:1 49:1 50:1 56:1 57:1 64:1 65:1 72:1 73:1 79:1 80:1 81:1 86:1 87:1 89:1 93:1 94:1 97:1 98:1 99:1 100:1 101:1 
0.01 0.01 0.01 0.01 0.01 0.01 0.01 0.01 0.01 0.01 0 0.01 0 0.01 0 0 0.01 0 0 0 0 0 0 0 0.01 18:1 19:1 26:1 29:1 34:1 37:1 38:1 41:1 42:1 46:1 47:1 49:1 55:1 57:1 63:1 64:1 65:1 72:1 73:1 80:1 81:1 82:1 88:1 90:1 91:1 96:1 99:1 100:1 104:1 108:1 109:1 110:1 111:1 112:1 
0.01 0.01 0.01 0.01 0.01 0.01 0.01 0.01 0.01 0.01 0.01 0.01 0.01 0.01 0.01 0.01 0.01 0.01 0.01 0.01 0 0.01 0.01 0 0.01 30:1 38:1 39:1 44:1 45:1 47:1 48:1 51:1 52:1 56:1 58:1 59:1 64:1 65:1 66:1 72:1 73:1 80:1 81:1 88:1 89:1 90:1 95:1 96:1 98:1 99:1 100:1 101:1 102:1 103:1 
0.01 0.01 0.01 0.01 0.01 0.01 0.01 0.01 0.01 0.01 0.01 0.01 0.01 0.01 0.01 0 0.01 0.01 0.01 0 0 0 0 0 0.01 26:1 27:1 28:1 36:1 37:1 38:1 39:1 47:1 48:1 56:1 57:1 64:1 65:1 72:1 73:1 79:1 80:1 81:1 85:1 86:1 87:1 89:1 90:1 91:1 92:1 93:1 98:1 99:1 
0.01 0.01 0.01 0 0.01 0.01 0.01 0.01 0.01 0.01 0.01 0.01 0 0.01 0.01 0.01 0.01 0.01 0.01 0.01 0 0 0 0 0.01 20:1 21:1 22:1 26:1 27:1 28:1 30:1 31:1 32:1 33:1 40:1 41:1 48:1 49:1 56:1 57:1 64:1 65:1 72:1 73:1 79:1 81:1 86:1 89:1 93:1 97:1 98:1 99:1 100:1 106:1 107:1 
0.01 0.01 0.01 0 0.01 0.01 0 0.01 0.01 0.01 0.01 0.01 0 0.01 0.01 0.01 0.01 0.01 0.01 0 0 0 0 0 0.01 27:1 28:1 29:1 37:1 38:1 41:1 46:1 47:1 49:1 55:1 56:1 57:1 64:1 65:1 72:1 73:1 80:1 81:1 87:1 88:1 90:1 91:1 95:1 99:1 100:1 101:1 102:1 103:1 
0.01 0.01 0.01 0 0.01 0.01 0 0.01 0 0.01 0 0.01 0 0 0 0 0.01 0 0 0 0 0 0 0 0 12:1 13:1 21:1 22:1 25:1 26:1 30:1 33:1 38:1 39:1 41:1 47:1 49:1 55:1 56:1 57:1 64:1 65:1 72:1 73:1 80:1 81:1 88:1 89:1 90:1 96:1 98:1 103:1 104:1 106:1 107:1 111:1 116:1 117:1 118:1 119:1 
0.01 0.01 0.01 0.01 0.01 0.01 0.01 0.01 0.01 0.01 0.01 0.01 0.01 0.01 0.01 0.01 0.01 0.01 0.01 0.01 0 0 0 0 0.01 2:1 3:1 4:1 5:1 6:1 9:1 10:1 14:1 15:1 17:1 23:1 25:1 31:1 33:1 39:1 41:1 47:1 49:1 55:1 57:1 63:1 65:1 71:1 72:1 73:1 80:1 81:1 88:1 89:1 96:1 97:1 98:1 103:1 104:1 107:1 111:1 116:1 118:1 119:1 125:1 126:1 
0 0.01 0.01 0 0.01 0.01 0 0 0 0.01 0 0.01 0 0 0 0 0 0 0 0 0 0 0 0 0 9:1 10:1 11:1 19:1 20:1 21:1 29:1 30:1 33:1 34:1 35:1 38:1 39:1 41:1 47:1 49:1 55:1 56:1 57:1 64:1 65:1 72:1 73:1 80:1 81:1 82:1 88:1 90:1 96:1 98:1 99:1 104:1 107:1 108:1 109:1 112:1 117:1 118:1 119:1 120:1 
0.01 0.01 0.01 0.01 0.01 0.01 0.01 0.01 0.01 0.01 0.01 0.01 0.01 0.01 0.01 0.01 0.01 0.01 0.01 0.01 0 0 0 0.01 0.01 33:1 34:1 35:1 36:1 40:1 41:1 48:1 49:1 56:1 57:1 64:1 65:1 72:1 73:1 74:1 80:1 82:1 83:1 87:1 88:1 91:1 92:1 93:1 94:1 95:1 
0.01 0.01 0.01 0.01 0.01 0.01 0.01 0.01 0.01 0.01 0.01 0.01 0.01 0.01 0.01 0.01 0.01 0.01 0.01 0.01 0 0 0.01 0 0.01 24:1 32:1 40:1 48:1 50:1 51:1 52:1 56:1 58:1 64:1 65:1 66:1 72:1 73:1 80:1 81:1 88:1 89:1 96:1 97:1 103:1 104:1 106:1 107:1 108:1 109:1 110:1 111:1 
0 0 0.01 0 0.01 0 0 0 0 0.01 0 0 0 0 0 0 0 0 0 0 0 0 0 0 0 19:1 20:1 21:1 22:1 26:1 27:1 30:1 31:1 32:1 33:1 34:1 40:1 41:1 48:1 49:1 56:1 57:1 64:1 65:1 72:1 73:1 80:1 81:1 87:1 88:1 89:1 94:1 95:1 97:1 98:1 99:1 100:1 101:1 102:1 107:1 108:1 
0 0.01 0.01 0 0.01 0 0 0.01 0 0.01 0 0.01 0 0 0 0 0 0 0 0 0 0 0 0 0 34:1 35:1 36:1 37:1 38:1 39:1 40:1 41:1 42:1 48:1 49:1 56:1 57:1 64:1 65:1 72:1 73:1 80:1 81:1 86:1 87:1 88:1 89:1 90:1 91:1 92:1 93:1 94:1 
0.01 0.01 0.01 0 0.01 0.01 0 0.01 0 0.01 0.01 0.01 0 0 0 0 0 0 0 0 0 0 0 0 0 27:1 28:1 29:1 30:1 31:1 35:1 39:1 40:1 42:1 43:1 48:1 50:1 51:1 56:1 58:1 64:1 65:1 66:1 72:1 73:1 80:1 81:1 88:1 89:1 90:1 91:1 95:1 96:1 99:1 100:1 101:1 102:1 103:1 
0 0.01 0.01 0 0.01 0 0 0 0 0.01 0 0 0 0 0 0 0 0 0 0 0 0 0 0 0 27:1 34:1 35:1 36:1 37:1 38:1 39:1 42:1 43:1 47:1 48:1 49:1 50:1 56:1 57:1 64:1 65:1 72:1 73:1 79:1 80:1 81:1 86:1 87:1 89:1 93:1 94:1 97:1 98:1 99:1 100:1 101:1 
0 0.01 0.01 0 0.01 0 0 0 0 0.01 0 0 0 0 0 0 0 0 0 0 0 0 0 0 0 28:1 29:1 30:1 31:1 34:1 35:1 37:1 39:1 40:1 42:1 48:1 50:1 56:1 57:1 58:1 64:1 65:1 72:1 73:1 80:1 81:1 87:1 88:1 89:1 93:1 94:1 95:1 97:1 98:1 99:1 100:1 101:1 
0 0.01 0.01 0 0.01 0 0 0 0 0.01 0 0 0 0 0 0 0 0 0 0 0 0 0 0 0 19:1 20:1 21:1 22:1 27:1 28:1 29:1 30:1 31:1 32:1 34:1 35:1 40:1 42:1 48:1 50:1 56:1 57:1 58:1 64:1 65:1 71:1 72:1 73:1 78:1 79:1 81:1 86:1 89:1 93:1 94:1 97:1 100:1 101:1 105:1 106:1 107:1 108:1 
0 0 0.01 0 0.01 0 0 0 0 0.01 0 0 0 0 0 0 0 0 0 0 0 0 0 0 0 27:1 28:1 29:1 30:1 31:1 34:1 35:1 39:1 40:1 41:1 42:1 43:1 48:1 49:1 56:1 57:1 64:1 65:1 72:1 73:1 80:1 81:1 87:1 88:1 89:1 90:1 94:1 95:1 98:1 99:1 100:1 101:1 102:1 
0.01 0.01 0.01 0.01 0.01 0.01 0.01 0.01 0.01 0.01 0 0.01 0 0 0.01 0 0 0 0.01 0 0 0 0 0 0 1:1 2:1 3:1 11:1 19:1 20:1 28:1 29:1 35:1 36:1 37:1 38:1 42:1 43:1 46:1 47:1 50:1 55:1 56:1 57:1 58:1 64:1 65:1 72:1 73:1 80:1 81:1 88:1 89:1 96:1 97:1 104:1 105:1 106:1 112:1 114:1 120:1 122:1 123:1 124:1 125:1 126:1 127:1 
0 0.01 0.01 0 0.01 0 0 0 0 0.01 0 0 0 0 0 0 0 0 0 0 0 0 0 0 0 34:1 35:1 36:1 37:1 38:1 41:1 42:1 46:1 47:1 49:1 55:1 56:1 57:1 64:1 65:1 72:1 73:1 80:1 81:1 82:1 87:1 88:1 90:1 91:1 92:1 93:1 94:1 95:1 
0.01 0.01 0.01 0.01 0.01 0.01 0.01 0.01 0.01 0.01 0.01 0.01 0.01 0.01 0.01 0.01 0.01 0.01 0.01 0.01 0 0 0.01 0 0.01 36:1 37:1 38:1 39:1 40:1 48:1 50:1 51:1 56:1 58:1 64:1 65:1 66:1 71:1 72:1 73:1 78:1 79:1 81:1 85:1 86:1 89:1 90:1 91:1 92:1 93:1 
0.01 0.01 0.01 0 0.01 0.01 0 0.01 0.01 0.01 0.01 0.01 0 0.01 0.01 0 0.01 0 0.01 0 0 0 0 0 0.01 43:1 44:1 45:1 46:1 47:1 49:1 50:1 51:1 52:1 55:1 56:1 57:1 64:1 65:1 72:1 73:1 74:1 78:1 79:1 80:1 82:1 83:1 84:1 85:1 86:1 
0.01 0.01 0.01 0 0.01 0.01 0 0.01 0.01 0.01 0.01 0.01 0 0.01 0.01 0 0.01 0 0.01 0 0 0 0 0 0.01 36:1 37:1 38:1 39:1 40:1 43:1 44:1 48:1 51:1 52:1 56:1 58:1 59:1 64:1 65:1 66:1 71:1 72:1 73:1 78:1 79:1 81:1 83:1 84:1 85:1 86:1 89:1 90:1 91:1 
0.01 0.01 0.01 0 0.01 0.01 0.01 0.01 0.01 0.01 0.01 0.01 0 0.01 0.01 0 0.01 0.01 0.01 0 0 0 0 0 0.01 35:1 36:1 37:1 41:1 42:1 45:1 46:1 49:1 54:1 55:1 57:1 63:1 64:1 65:1 72:1 73:1 80:1 81:1 88:1 90:1 91:1 92:1 93:1 94:1 95:1 96:1 
0 0.01 0.01 0 0.01 0 0 0 0 0.01 0 0 0 0 0 0 0 0 0 0 0 0 0 0 0 28:1 29:1 33:1 34:1 35:1 36:1 37:1 38:1 39:1 40:1 41:1 47:1 48:1 49:1 56:1 57:1 64:1 65:1 72:1 73:1 80:1 81:1 88:1 89:1 90:1 95:1 96:1 98:1 99:1 100:1 101:1 102:1 103:1 
0 0.01 0.01 0 0.01 0 0 0 0 0.01 0 0 0 0 0 0 0 0 0 0 0 0 0 0 0 13:1 21:1 27:1 28:1 29:1 35:1 36:1 37:1 38:1 39:1 42:1 43:1 47:1 48:1 50:1 56:1 57:1 58:1 64:1 65:1 72:1 73:1 80:1 81:1 87:1 88:1 89:1 94:1 95:1 97:1 101:1 102:1 105:1 106:1 107:1 108:1 109:1 114:1 
0 0.01 0.01 0 0.01 0.01 0 0.01 0.01 0.01 0.01 0.01 0 0 0 0 0.01 0 0.01 0.01 0 0 0 0 0.01 11:1 12:1 18:1 19:1 20:1 21:1 25:1 26:1 29:1 30:1 33:1 38:1 41:1 46:1 47:1 49:1 55:1 57:1 64:1 65:1 72:1 73:1 80:1 81:1 88:1 89:1 96:1 97:1 98:1 104:1 106:1 111:1 112:1 114:1 115:1 116:1 117:1 118:1 119:1 
0.01 0.01 0.01 0 0.01 0.01 0 0.01 0.01 0.01 0 0.01 0 0.01 0 0 0.01 0 0.01 0 0 0 0 0 0 33:1 34:1 35:1 36:1 37:1 38:1 41:1 46:1 47:1 49:1 55:1 56:1 57:1 64:1 65:1 72:1 73:1 79:1 80:1 81:1 82:1 85:1 86:1 87:1 90:1 91:1 92:1 93:1 
0 0.01 0.01 0 0.01 0.01 0 0.01 0.01 0.01 0 0.01 0 0 0 0.01 0.01 0 0.01 0 0 0 0 0 0 20:1 21:1 22:1 23:1 28:1 31:1 32:1 34:1 35:1 36:1 40:1 41:1 42:1 48:1 49:1 56:1 57:1 63:1 64:1 65:1 71:1 73:1 78:1 79:1 81:1 86:1 89:1 90:1 93:1 94:1 98:1 99:1 100:1 101:1 107:1 108:1 
0.01 0.01 0.01 0.01 0.01 0.01 0.01 0.01 0.01 0.01 0.01 0.01 0.01 0.01 0.01 0.01 0.01 0.01 0.01 0.01 0 0.01 0.01 0.01 0.01 15:1 23:1 31:1 39:1 40:1 44:1 45:1 46:1 48:1 52:1 56:1 60:1 64:1 67:1 68:1 72:1 74:1 75:1 79:1 80:1 81:1 82:1 87:1 89:1 94:1 95:1 97:1 101:1 102:1 105:1 106:1 108:1 109:1 114:1 115:1 116:1 
0 0 0.01 0 0.01 0 0 0 0 0.01 0 0 0 0 0 0 0 0 0 0 0 0 0 0 0 2:1 3:1 4:1 5:1 6:1 12:1 13:1 14:1 20:1 22:1 23:1 27:1 28:1 31:1 35:1 39:1 40:1 42:1 43:1 48:1 50:1 56:1 57:1 58:1 64:1 65:1 72:1 73:1 80:1 81:1 87:1 88:1 89:1 95:1 97:1 103:1 105:1 110:1 111:1 113:1 117:1 118:1 121:1 122:1 123:1 124:1 125:1 
0 0.01 0.01 0 0.01 0 0 0 0 0.01 0 0 0 0 0 0 0 0 0 0 0 0 0 0 0 27:1 28:1 29:1 30:1 31:1 32:1 35:1 36:1 40:1 42:1 43:1 48:1 49:1 50:1 56:1 57:1 64:1 65:1 72:1 73:1 80:1 81:1 88:1 89:1 90:1 95:1 96:1 98:1 99:1 100:1 101:1 102:1 103:1 
0.01 0.01 0.01 0 0.01 0.01 0 0.01 0.01 0.01 0 0.01 0 0.01 0 0 0.01 0 0.01 0 0 0 0 0 0 4:1 5:1 13:1 21:1 22:1 30:1 34:1 38:1 39:1 41:1 42:1 47:1 48:1 49:1 56:1 57:1 64:1 65:1 72:1 73:1 80:1 81:1 88:1 89:1 96:1 97:1 104:1 106:1 112:1 114:1 115:1 116:1 119:1 120:1 124:1 125:1 126:1 127:1 
0 0.01 0.01 0 0.01 0 0 0 0 0.01 0 0 0 0 0 0 0 0 0 0 0 0 0 0 0 18:1 19:1 20:1 21:1 22:1 26:1 27:1 30:1 31:1 34:1 39:1 40:1 41:1 42:1 48:1 49:1 56:1 57:1 64:1 65:1 72:1 73:1 80:1 81:1 88:1 89:1 95:1 97:1 101:1 102:1 103:1 105:1 106:1 107:1 108:1 109:1 
0 0.01 0.01 0 0.01 0.01 0 0.01 0 0.01 0 0.01 0 0 0 0 0 0 0 0 0 0 0 0 0 36:1 37:1 38:1 39:1 40:1 43:1 44:1 48:1 50:1 51:1 56:1 58:1 64:1 65:1 66:1 72:1 73:1 79:1 80:1 81:1 85:1 86:1 87:1 89:1 90:1 91:1 92:1 93:1 98:1 99:1 
0 0.01 0.01 0 0.01 0 0 0 0 0.01 0 0 0 0 0 0 0 0 0 0 0 0 0 0 0 27:1 29:1 30:1 31:1 32:1 35:1 36:1 37:1 40:1 42:1 43:1 48:1 49:1 50:1 51:1 56:1 57:1 64:1 65:1 71:1 72:1 73:1 79:1 81:1 85:1 86:1 87:1 89:1 92:1 93:1 97:1 98:1 99:1 
0.01 0.01 0.01 0 0.01 0.01 0 0.01 0 0.01 0 0.01 0 0 0 0 0 0 0 0 0 0 0 0 0 31:1 36:1 37:1 38:1 39:1 40:1 43:1 44:1 48:1 50:1 51:1 56:1 58:1 64:1 65:1 66:1 72:1 73:1 79:1 80:1 81:1 86:1 87:1 89:1 93:1 94:1 97:1 98:1 99:1 100:1 101:1 
0.01 0.01 0.01 0.01 0.01 0.01 0.01 0.01 0.01 0.01 0.01 0.01 0.01 0.01 0.01 0.01 0.01 0.01 0.01 0.01 0.01 0.01 0.01 0.01 0.01 49:1 50:1 51:1 57:1 58:1 59:1 60:1 61:1 65:1 67:1 69:1 70:1 71:1 72:1 73:1 74:1 75:1 
0 0.01 0.01 0 0.01 0 0 0 0 0.01 0 0 0 0 0 0 0 0 0 0 0 0 0 0 0 15:1 22:1 23:1 24:1 30:1 32:1 35:1 36:1 37:1 38:1 40:1 42:1 43:1 44:1 45:1 46:1 48:1 49:1 50:1 56:1 57:1 64:1 65:1 72:1 73:1 80:1 81:1 87:1 88:1 89:1 95:1 97:1 102:1 103:1 105:1 109:1 110:1 113:1 114:1 115:1 116:1 117:1 
0 0.01 0.01 0 0.01 0.01 0 0 0 0.01 0 0 0 0 0 0 0 0 0 0 0 0 0 0 0 5:1 6:1 12:1 13:1 19:1 20:1 21:1 22:1 27:1 30:1 31:1 34:1 35:1 39:1 40:1 42:1 48:1 49:1 50:1 56:1 57:1 64:1 65:1 72:1 73:1 80:1 81:1 88:1 89:1 96:1 97:1 104:1 105:1 112:1 113:1 119:1 120:1 121:1 122:1 123:1 124:1 125:1 126:1 127:1 
0.01 0.01 0.01 0.01 0.01 0.01 0.01 0.01 0.01 0.01 0.01 0.01 0.01 0.01 0.01 0.01 0.01 0.01 0.01 0.01 0 0.01 0.01 0 0.01 33:1 34:1 35:1 36:1 37:1 45:1 46:1 47:1 51:1 55:1 56:1 59:1 64:1 67:1 72:1 75:1 80:1 83:1 84:1 86:1 87:1 88:1 92:1 93:1 94:1 
0 0.01 0.01 0 0.01 0 0 0 0 0.01 0 0 0 0 0 0 0 0 0 0 0 0 0 0 0 3:1 4:1 5:1 13:1 14:1 15:1 20:1 21:1 23:1 27:1 28:1 32:1 34:1 35:1 40:1 42:1 48:1 50:1 56:1 57:1 58:1 64:1 65:1 72:1 73:1 79:1 80:1 81:1 87:1 89:1 94:1 95:1 97:1 102:1 105:1 109:1 110:1 113:1 116:1 117:1 121:1 122:1 123:1 124:1 
0.01 0.01 0.01 0.01 0.01 0.01 0.01 0.01 0.01 0.01 0.01 0.01 0.01 0.01 0.01 0.01 0.01 0.01 0.01 0.01 0 0 0.01 0 0.01 43:1 44:1 45:1 46:1 47:1 48:1 50:1 51:1 54:1 56:1 57:1 64:1 65:1 70:1 71:1 72:1 73:1 74:1 76:1 77:1 78:1 82:1 83:1 84:1 
0.01 0.01 0.01 0.01 0.01 0.01 0.01 0.01 0.01 0.01 0.01 0.01 0.01 0.01 0.01 0.01 0.01 0.01 0.01 0.01 0 0.01 0.01 0 0.01 4:1 5:1 6:1 7:1 8:1 11:1 12:1 19:1 24:1 27:1 32:1 34:1 35:1 39:1 40:1 42:1 47:1 50:1 55:1 58:1 62:1 66:1 70:1 74:1 77:1 78:1 82:1 85:1 89:1 90:1 92:1 93:1 97:1 100:1 105:1 107:1 108:1 113:1 115:1 121:1 122:1 123:1 
0 0.01 0.01 0.01 0.01 0.01 0 0.01 0 0.01 0 0.01 0 0 0 0 0 0 0.01 0 0 0 0 0 0 3:1 4:1 5:1 6:1 7:1 12:1 13:1 15:1 20:1 23:1 24:1 27:1 28:1 32:1 35:1 40:1 43:1 48:1 51:1 56:1 58:1 59:1 64:1 66:1 72:1 74:1 79:1 80:1 81:1 82:1 87:1 89:1 95:1 97:1 102:1 103:1 105:1 109:1 110:1 113:1 114:1 116:1 117:1 122:1 123:1 124:1 
0 0.01 0.01 0 0.01 0 0 0 0 0.01 0 0 0 0 0 0 0 0 0 0 0 0 0 0 0 4:1 5:1 6:1 11:1 12:1 13:1 14:1 15:1 18:1 19:1 22:1 23:1 26:1 31:1 32:1 34:1 40:1 41:1 42:1 48:1 49:1 56:1 57:1 64:1 65:1 72:1 73:1 80:1 81:1 88:1 89:1 95:1 96:1 97:1 103:1 105:1 106:1 110:1 111:1 114:1 117:1 118:1 122:1 123:1 124:1 125:1 
0 0.01 0.01 0 0.01 0 0 0 0 0.01 0 0 0 0 0 0 0 0 0 0 0 0 0 0 0 27:1 28:1 29:1 30:1 31:1 34:1 35:1 39:1 40:1 41:1 42:1 48:1 49:1 56:1 57:1 64:1 65:1 72:1 73:1 79:1 80:1 81:1 86:1 87:1 89:1 93:1 94:1 97:1 98:1 99:1 100:1 101:1 
0 0.01 0.01 0 0.01 0 0 0 0 0.01 0 0 0 0 0 0 0 0 0 0 0 0 0 0 0 20:1 26:1 27:1 28:1 29:1 30:1 31:1 33:1 34:1 36:1 37:1 39:1 40:1 41:1 43:1 44:1 48:1 50:1 51:1 56:1 58:1 64:1 66:1 72:1 73:1 74:1 79:1 80:1 81:1 86:1 87:1 89:1 94:1 97:1 98:1 100:1 101:1 102:1 106:1 107:1 108:1 
0 0 0.01 0 0.01 0 0 0 0 0.01 0 0 0 0 0 0 0 0 0 0 0 0 0 0 0 21:1 27:1 28:1 29:1 30:1 31:1 34:1 35:1 36:1 39:1 40:1 42:1 48:1 49:1 50:1 56:1 57:1 64:1 65:1 72:1 73:1 79:1 80:1 81:1 86:1 87:1 89:1 93:1 94:1 97:1 100:1 101:1 105:1 106:1 107:1 108:1 
0 0.01 0.01 0 0.01 0 0 0 0 0.01 0 0 0 0 0 0 0 0 0 0 0 0 0 0 0 34:1 35:1 36:1 37:1 38:1 39:1 40:1 42:1 43:1 48:1 49:1 50:1 56:1 57:1 64:1 65:1 72:1 73:1 80:1 81:1 87:1 88:1 89:1 90:1 91:1 92:1 93:1 94:1 95:1 
0 0.01 0.01 0 0.01 0.01 0 0 0 0.01 0 0.01 0 0 0 0 0 0 0 0 0 0 0 0 0 35:1 36:1 37:1 41:1 42:1 43:1 45:1 46:1 47:1 48:1 49:1 56:1 57:1 64:1 65:1 72:1 73:1 80:1 81:1 86:1 87:1 88:1 89:1 90:1 91:1 92:1 93:1 94:1 
0 0.01 0.01 0 0.01 0.01 0 0.01 0.01 0.01 0 0.01 0 0 0 0.01 0.01 0 0.01 0 0 0 0 0 0 5:1 6:1 7:1 8:1 11:1 12:1 13:1 16:1 18:1 19:1 24:1 25:1 32:1 33:1 40:1 42:1 48:1 50:1 56:1 57:1 58:1 64:1 65:1 72:1 73:1 79:1 80:1 81:1 86:1 87:1 89:1 93:1 94:1 97:1 100:1 101:1 105:1 107:1 108:1 113:1 114:1 121:1 
0.01 0.01 0.01 0.01 0.01 0.01 0.01 0.01 0.01 0.01 0.01 0.01 0.01 0.01 0.01 0.01 0.01 0.01 0.01 0.01 0 0 0.01 0 0.01 8:1 15:1 22:1 29:1 36:1 37:1 38:1 39:1 40:1 43:1 44:1 48:1 51:1 56:1 59:1 64:1 66:1 72:1 74:1 80:1 81:1 88:1 89:1 96:1 97:1 103:1 104:1 105:1 110:1 111:1 113:1 117:1 118:1 121:1 122:1 123:1 124:1 125:1 
0.01 0.01 0.01 0.01 0.01 0.01 0.01 0.01 0.01 0.01 0.01 0.01 0.01 0.01 0.01 0.01 0.01 0.01 0.01 0.01 0.01 0.01 0.01 0 0.01 35:1 43:1 51:1 59:1 65:1 66:1 67:1 68:1 69:1 70:1 71:1 72:1 73:1 80:1 81:1 87:1 88:1 89:1 90:1 91:1 92:1 93:1 94:1 95:1 
0.01 0.01 0.01 0.01 0.01 0.01 0.01 0.01 0.01 0.01 0.01 0.01 0.01 0.01 0.01 0.01 0.01 0.01 0.01 0.01 0.01 0.01 0.01 0 0.01 51:1 52:1 56:1 58:1 59:1 64:1 66:1 71:1 72:1 73:1 74:1 75:1 76:1 77:1 78:1 79:1 
0.01 0.01 0.01 0.01 0.01 0.01 0 0.01 0.01 0.01 0 0.01 0 0.01 0 0 0.01 0 0.01 0 0 0 0 0 0 26:1 29:1 30:1 31:1 32:1 33:1 34:1 40:1 41:1 48:1 49:1 56:1 57:1 64:1 65:1 72:1 73:1 79:1 80:1 81:1 86:1 87:1 89:1 93:1 94:1 97:1 98:1 99:1 100:1 101:1 
0 0.01 0.01 0 0.01 0 0 0 0 0.01 0 0 0 0 0 0 0 0 0 0 0 0 0 0 0 26:1 27:1 28:1 29:1 30:1 34:1 35:1 38:1 39:1 41:1 42:1 47:1 48:1 49:1 56:1 57:1 64:1 65:1 72:1 73:1 80:1 81:1 88:1 89:1 90:1 95:1 96:1 98:1 99:1 100:1 101:1 102:1 103:1 
0 0.01 0.01 0 0.01 0 0 0 0 0.01 0 0 0 0 0 0 0.01 0 0 0 0 0 0 0 0 27:1 28:1 29:1 30:1 33:1 34:1 35:1 38:1 39:1 40:1 41:1 48:1 49:1 56:1 57:1 64:1 65:1 72:1 73:1 80:1 81:1 87:1 88:1 89:1 94:1 95:1 97:1 98:1 99:1 100:1 101:1 102:1 
0 0 0.01 0 0.01 0 0 0 0 0.01 0 0 0 0 0 0 0 0 0 0 0 0 0 0 0 18:1 19:1 20:1 21:1 22:1 25:1 26:1 30:1 31:1 33:1 39:1 40:1 41:1 42:1 48:1 49:1 50:1 56:1 57:1 64:1 65:1 72:1 73:1 80:1 81:1 87:1 88:1 89:1 95:1 97:1 101:1 102:1 103:1 105:1 106:1 107:1 108:1 109:1 
0 0.01 0.01 0 0.01 0 0 0 0 0.01 0 0 0 0 0 0 0 0 0 0 0 0 0 0 0 23:1 24:1 29:1 30:1 31:1 32:1 36:1 37:1 39:1 40:1 42:1 43:1 44:1 48:1 49:1 50:1 56:1 57:1 64:1 65:1 72:1 73:1 80:1 81:1 87:1 88:1 89:1 95:1 97:1 98:1 101:1 102:1 103:1 106:1 107:1 108:1 109:1 
0 0.01 0.01 0 0.01 0 0 0 0 0.01 0 0 0 0 0 0 0 0 0 0 0 0 0 0 0 13:1 14:1 20:1 21:1 28:1 29:1 35:1 36:1 37:1 38:1 42:1 43:1 46:1 47:1 48:1 49:1 50:1 56:1 57:1 64:1 65:1 72:1 73:1 80:1 81:1 88:1 89:1 94:1 95:1 96:1 97:1 102:1 105:1 109:1 110:1 113:1 114:1 115:1 116:1 117:1 
0 0.01 0.01 0 0.01 0.01 0 0 0 0.01 0 0.01 0 0 0 0 0.01 0 0 0 0 0 0 0 0 29:1 30:1 31:1 39:1 40:1 43:1 44:1 45:1 46:1 47:1 48:1 50:1 51:1 56:1 57:1 58:1 64:1 65:1 71:1 72:1 73:1 79:1 81:1 86:1 87:1 89:1 92:1 93:1 94:1 97:1 98:1 99:1 100:1 
0.01 0.01 0.01 0 0.01 0.01 0 0.01 0.01 0.01 0.01 0.01 0 0.01 0.01 0 0.01 0 0.01 0 0 0 0 0 0 28:1 29:1 30:1 31:1 35:1 37:1 39:1 40:1 42:1 48:1 49:1 56:1 57:1 64:1 65:1 72:1 73:1 80:1 81:1 87:1 88:1 90:1 94:1 95:1 99:1 100:1 101:1 102:1 
0.01 0.01 0.01 0 0.01 0.01 0 0.01 0.01 0.01 0.01 0.01 0 0.01 0 0 0.01 0 0.01 0 0 0 0 0 0 19:1 20:1 22:1 23:1 24:1 27:1 32:1 34:1 35:1 40:1 42:1 48:1 49:1 50:1 56:1 57:1 64:1 65:1 72:1 73:1 79:1 81:1 87:1 89:1 92:1 93:1 94:1 95:1 97:1 100:1 106:1 107:1 108:1 
0 0.01 0.01 0 0.01 0.01 0 0 0 0.01 0 0 0 0 0 0 0 0 0 0 0 0 0 0 0 5:1 6:1 7:1 12:1 13:1 15:1 20:1 21:1 22:1 23:1 24:1 28:1 32:1 34:1 35:1 36:1 40:1 42:1 48:1 50:1 56:1 57:1 58:1 64:1 65:1 72:1 73:1 80:1 81:1 88:1 89:1 95:1 96:1 97:1 103:1 105:1 110:1 111:1 113:1 114:1 117:1 118:1 122:1 123:1 124:1 125:1 
0 0.01 0.01 0 0.01 0.01 0 0.01 0.01 0.01 0 0.01 0 0.01 0 0 0.01 0 0.01 0 0 0 0 0 0 21:1 22:1 23:1 24:1 28:1 29:1 32:1 35:1 36:1 40:1 43:1 48:1 56:1 58:1 64:1 65:1 71:1 72:1 73:1 78:1 79:1 81:1 85:1 86:1 89:1 92:1 93:1 97:1 98:1 99:1 100:1 106:1 107:1 
0 0.01 0.01 0 0.01 0.01 0 0.01 0.01 0.01 0 0.01 0 0.01 0 0 0.01 0 0 0 0 0 0 0 0 29:1 30:1 31:1 36:1 37:1 39:1 40:1 43:1 44:1 48:1 50:1 56:1 57:1 58:1 64:1 65:1 71:1 72:1 73:1 78:1 79:1 81:1 85:1 86:1 89:1 90:1 91:1 93:1 99:1 100:1 
0 0.01 0.01 0 0.01 0.01 0 0.01 0.01 0.01 0 0.01 0 0 0 0 0.01 0 0 0 0 0 0 0 0 27:1 28:1 29:1 30:1 31:1 32:1 35:1 40:1 42:1 43:1 48:1 49:1 50:1 56:1 57:1 64:1 65:1 71:1 72:1 73:1 79:1 81:1 86:1 87:1 89:1 93:1 94:1 97:1 98:1 99:1 100:1 101:1 
0.01 0.01 0.01 0.01 0.01 0.01 0.01 0.01 0.01 0.01 0.01 0.01 0.01 0.01 0.01 0.01 0.01 0 0.01 0.01 0 0 0 0 0.01 4:1 5:1 11:1 12:1 13:1 14:1 15:1 16:1 18:1 19:1 20:1 24:1 26:1 32:1 34:1 40:1 41:1 48:1 49:1 55:1 56:1 57:1 63:1 65:1 71:1 73:1 79:1 81:1 86:1 87:1 89:1 94:1 97:1 101:1 102:1 105:1 109:1 113:1 116:1 117:1 121:1 122:1 123:1 124:1 
0 0.01 0.01 0 0.01 0.01 0 0.01 0.01 0.01 0 0.01 0 0 0 0 0.01 0 0 0 0 0 0 0 0 18:1 19:1 27:1 28:1 33:1 34:1 36:1 37:1 38:1 41:1 46:1 47:1 49:1 55:1 57:1 63:1 64:1 65:1 72:1 73:1 80:1 81:1 88:1 89:1 96:1 97:1 98:1 103:1 104:1 106:1 107:1 108:1 109:1 110:1 111:1 
0 0.01 0.01 0 0.01 0.01 0 0.01 0.01 0.01 0 0.01 0 0 0 0 0.01 0 0 0 0 0 0 0 0 35:1 36:1 37:1 38:1 39:1 40:1 44:1 48:1 49:1 50:1 51:1 52:1 56:1 57:1 64:1 65:1 72:1 73:1 80:1 81:1 82:1 86:1 87:1 88:1 90:1 91:1 92:1 93:1 94:1 
0 0.01 0.01 0 0.01 0 0 0 0 0.01 0 0 0 0 0 0 0 0 0 0 0 0 0 0 0 20:1 21:1 22:1 23:1 24:1 26:1 27:1 28:1 32:1 33:1 34:1 35:1 40:1 41:1 42:1 48:1 49:1 56:1 57:1 64:1 65:1 72:1 73:1 79:1 80:1 81:1 86:1 87:1 89:1 93:1 94:1 97:1 98:1 100:1 101:1 106:1 107:1 108:1 
0.01 0.01 0.01 0 0.01 0.01 0 0.01 0.01 0.01 0.01 0.01 0 0.01 0.01 0 0.01 0 0.01 0 0 0 0 0 0.01 36:1 37:1 38:1 42:1 43:1 44:1 46:1 47:1 49:1 50:1 55:1 57:1 64:1 65:1 72:1 73:1 79:1 80:1 81:1 82:1 87:1 90:1 91:1 92:1 93:1 94:1 95:1 
0 0.01 0.01 0 0.01 0 0 0 0 0.01 0 0 0 0 0 0 0 0 0 0 0 0 0 0 0 27:1 28:1 29:1 30:1 31:1 34:1 35:1 39:1 40:1 41:1 42:1 48:1 49:1 56:1 57:1 64:1 65:1 72:1 73:1 80:1 81:1 87:1 88:1 89:1 92:1 93:1 94:1 95:1 97:1 98:1 99:1 100:1 
0 0.01 0.01 0 0.01 0 0 0 0.01 0.01 0 0 0 0 0 0 0 0 0 0 0 0 0 0 0 26:1 27:1 34:1 35:1 36:1 37:1 38:1 41:1 42:1 46:1 47:1 49:1 55:1 56:1 57:1 64:1 65:1 72:1 73:1 80:1 81:1 87:1 88:1 89:1 94:1 95:1 97:1 98:1 99:1 100:1 101:1 102:1 
0 0.01 0.01 0 0.01 0.01 0 0.01 0 0.01 0.01 0.01 0 0 0.01 0 0.01 0.01 0.01 0 0 0 0 0 0 17:1 18:1 19:1 20:1 21:1 25:1 26:1 29:1 34:1 35:1 37:1 38:1 42:1 46:1 49:1 54:1 55:1 57:1 63:1 64:1 65:1 72:1 73:1 80:1 81:1 82:1 88:1 90:1 96:1 98:1 104:1 106:1 107:1 108:1 109:1 110:1 111:1 112:1 
0 0.01 0.01 0 0.01 0.01 0 0.01 0.01 0.01 0 0.01 0 0 0 0 0.01 0 0.01 0 0 0 0 0 0 20:1 21:1 22:1 23:1 24:1 28:1 29:1 32:1 36:1 37:1 40:1 43:1 44:1 48:1 51:1 56:1 58:1 59:1 63:1 64:1 66:1 71:1 73:1 74:1 78:1 81:1 85:1 86:1 89:1 92:1 93:1 97:1 98:1 99:1 100:1 105:1 106:1 
0 0 0.01 0 0.01 0 0 0 0 0.01 0 0 0 0 0 0 0 0 0 0 0 0 0 0 0 13:1 14:1 20:1 21:1 22:1 27:1 28:1 30:1 31:1 32:1 35:1 36:1 40:1 42:1 43:1 48:1 50:1 56:1 57:1 64:1 65:1 72:1 73:1 80:1 81:1 87:1 88:1 89:1 94:1 95:1 97:1 101:1 102:1 105:1 107:1 108:1 109:1 113:1 114:1 115:1 
0.01 0.01 0.01 0.01 0.01 0.01 0.01 0.01 0.01 0.01 0.01 0.01 0.01 0.01 0.01 0.01 0.01 0.01 0.01 0.01 0 0 0.01 0 0.01 43:1 44:1 45:1 46:1 47:1 48:1 50:1 51:1 56:1 57:1 58:1 64:1 65:1 71:1 72:1 73:1 74:1 78:1 79:1 82:1 83:1 84:1 85:1 86:1 
0 0.01 0.01 0 0.01 0.01 0 0 0 0.01 0 0.01 0 0 0 0 0 0 0 0 0 0 0 0 0 28:1 29:1 34:1 35:1 36:1 37:1 41:1 42:1 44:1 45:1 46:1 49:1 54:1 55:1 56:1 57:1 64:1 65:1 72:1 73:1 80:1 81:1 88:1 89:1 90:1 96:1 98:1 99:1 100:1 101:1 102:1 103:1 104:1 
0.01 0.01 0.01 0 0.01 0.01 0.01 0.01 0.01 0.01 0.01 0.01 0 0.01 0.01 0 0.01 0 0.01 0 0 0 0 0 0.01 43:1 44:1 45:1 46:1 47:1 48:1 50:1 51:1 54:1 56:1 57:1 58:1 64:1 65:1 72:1 73:1 77:1 78:1 79:1 80:1 81:1 82:1 83:1 84:1 85:1 
0 0.01 0.01 0 0.01 0.01 0 0 0 0.01 0 0.01 0 0 0 0 0 0 0 0 0 0 0 0 0 33:1 34:1 35:1 36:1 37:1 38:1 39:1 47:1 48:1 49:1 50:1 51:1 56:1 57:1 64:1 65:1 72:1 73:1 80:1 81:1 82:1 87:1 88:1 90:1 91:1 92:1 93:1 94:1 95:1 
0 0.01 0.01 0 0.01 0.01 0 0.01 0.01 0.01 0 0.01 0 0 0 0 0.01 0 0 0 0 0 0 0 0 20:1 26:1 27:1 28:1 29:1 33:1 34:1 35:1 37:1 38:1 41:1 46:1 49:1 54:1 55:1 57:1 63:1 64:1 65:1 72:1 73:1 80:1 81:1 82:1 88:1 90:1 96:1 98:1 99:1 100:1 102:1 103:1 104:1 108:1 109:1 110:1 
0 0.01 0.01 0 0.01 0 0 0 0 0.01 0 0 0 0 0 0 0.01 0 0 0 0 0 0 0 0 18:1 19:1 25:1 26:1 33:1 36:1 37:1 38:1 39:1 41:1 42:1 43:1 47:1 48:1 49:1 56:1 57:1 64:1 65:1 72:1 73:1 80:1 81:1 87:1 88:1 89:1 95:1 97:1 98:1 99:1 102:1 103:1 107:1 108:1 109:1 110:1 
0.01 0.01 0.01 0 0.01 0.01 0 0.01 0 0.01 0 0.01 0 0 0 0 0.01 0 0.01 0 0 0 0 0 0 22:1 23:1 24:1 29:1 30:1 32:1 35:1 36:1 37:1 40:1 43:1 44:1 45:1 46:1 48:1 50:1 51:1 52:1 54:1 56:1 57:1 58:1 63:1 64:1 65:1 70:1 71:1 73:1 77:1 78:1 81:1 85:1 89:1 92:1 93:1 97:1 98:1 99:1 100:1 105:1 106:1 
0 0.01 0.01 0 0.01 0.01 0 0.01 0 0.01 0 0.01 0 0 0 0 0.01 0 0 0 0 0 0 0 0 34:1 35:1 36:1 37:1 38:1 39:1 41:1 47:1 48:1 49:1 56:1 57:1 64:1 65:1 72:1 73:1 80:1 81:1 87:1 88:1 89:1 90:1 91:1 92:1 93:1 94:1 95:1 
0.01 0.01 0.01 0 0.01 0.01 0 0.01 0.01 0.01 0 0.01 0 0 0 0 0.01 0 0 0 0 0 0 0 0 20:1 21:1 27:1 28:1 29:1 34:1 35:1 39:1 40:1 41:1 42:1 48:1 49:1 56:1 57:1 64:1 65:1 72:1 73:1 80:1 81:1 87:1 88:1 89:1 95:1 97:1 102:1 105:1 106:1 107:1 108:1 109:1 
0 0.01 0.01 0 0.01 0.01 0 0.01 0 0.01 0 0.01 0 0 0 0 0.01 0 0 0 0 0 0 0 0 33:1 34:1 35:1 36:1 37:1 38:1 41:1 42:1 46:1 47:1 49:1 55:1 56:1 57:1 64:1 65:1 72:1 73:1 74:1 80:1 82:1 88:1 90:1 91:1 92:1 93:1 94:1 95:1 96:1 
0.01 0.01 0.01 0 0.01 0.01 0 0.01 0.01 0.01 0.01 0.01 0 0.01 0 0 0.01 0 0.01 0 0 0 0 0 0 20:1 21:1 22:1 23:1 24:1 25:1 26:1 27:1 32:1 33:1 34:1 40:1 41:1 48:1 49:1 56:1 57:1 64:1 65:1 72:1 73:1 80:1 81:1 88:1 89:1 96:1 97:1 98:1 102:1 103:1 107:1 108:1 109:1 
0.01 0.01 0.01 0.01 0.01 0.01 0.01 0.01 0.01 0.01 0.01 0.01 0.01 0.01 0.01 0.01 0.01 0.01 0.01 0.01 0 0 0.01 0 0.01 42:1 43:1 44:1 45:1 46:1 47:1 48:1 49:1 56:1 57:1 64:1 65:1 72:1 73:1 79:1 80:1 81:1 82:1 83:1 84:1 85:1 86:1 87:1 
0 0.01 0.01 0 0.01 0 0 0 0 0.01 0 0 0 0 0 0 0 0 0 0 0 0 0 0 0 28:1 29:1 30:1 31:1 35:1 36:1 37:1 39:1 40:1 43:1 48:1 50:1 51:1 56:1 57:1 58:1 64:1 65:1 72:1 73:1 79:1 80:1 81:1 87:1 89:1 93:1 94:1 95:1 97:1 98:1 99:1 100:1 101:1 
0.01 0.01 0.01 0.01 0.01 0.01 0 0.01 0.01 0.01 0.01 0.01 0 0.01 0 0 0.01 0 0.01 0 0 0 0 0 0 24:1 30:1 31:1 32:1 36:1 37:1 38:1 40:1 44:1 48:1 51:1 52:1 56:1 58:1 59:1 64:1 65:1 66:1 72:1 73:1 79:1 81:1 86:1 87:1 89:1 93:1 94:1 97:1 100:1 101:1 105:1 106:1 107:1 108:1 
0.01 0.01 0.01 0.01 0.01 0.01 0.01 0.01 0.01 0.01 0.01 0.01 0.01 0.01 0.01 0.01 0.01 0.01 0.01 0.01 0 0 0.01 0.01 0.01 45:1 46:1 47:1 48:1 51:1 52:1 53:1 56:1 58:1 59:1 60:1 63:1 64:1 65:1 66:1 70:1 71:1 73:1 76:1 77:1 78:1 81:1 82:1 83:1 84:1 
0 0.01 0.01 0 0.01 0 0 0 0 0.01 0 0 0 0 0 0 0 0 0 0 0 0 0 0 0 34:1 35:1 36:1 37:1 38:1 39:1 40:1 41:1 42:1 48:1 49:1 50:1 56:1 57:1 64:1 65:1 72:1 73:1 79:1 80:1 81:1 85:1 86:1 87:1 89:1 90:1 91:1 92:1 93:1 
0 0.01 0.01 0 0.01 0 0 0 0 0.01 0 0 0 0 0 0 0 0 0 0 0 0 0 0 0 30:1 31:1 34:1 35:1 36:1 37:1 39:1 40:1 41:1 42:1 48:1 49:1 56:1 57:1 64:1 65:1 72:1 73:1 79:1 80:1 81:1 86:1 87:1 89:1 90:1 91:1 92:1 93:1 94:1 98:1 99:1 
0 0.01 0.01 0 0.01 0.01 0 0.01 0.01 0.01 0 0.01 0 0 0 0 0.01 0 0 0 0 0 0 0 0 17:1 18:1 19:1 20:1 21:1 22:1 25:1 30:1 31:1 33:1 34:1 39:1 41:1 47:1 48:1 49:1 56:1 57:1 64:1 65:1 72:1 73:1 80:1 81:1 82:1 87:1 90:1 95:1 98:1 99:1 102:1 103:1 107:1 108:1 109:1 110:1 
0.01 0.01 0.01 0.01 0.01 0.01 0.01 0.01 0.01 0.01 0.01 0.01 0.01 0.01 0.01 0.01 0.01 0.01 0.01 0 0 0 0.01 0 0.01 12:1 13:1 14:1 15:1 19:1 20:1 23:1 24:1 26:1 27:1 32:1 33:1 34:1 40:1 41:1 48:1 49:1 56:1 57:1 64:1 65:1 66:1 72:1 80:1 88:1 95:1 96:1 99:1 103:1 107:1 108:1 111:1 116:1 117:1 118:1 
0.01 0.01 0.01 0.01 0.01 0.01 0.01 0.01 0.01 0.01 0.01 0.01 0.01 0.01 0.01 0.01 0.01 0.01 0.01 0.01 0.01 0 0.01 0 0.01 31:1 39:1 47:1 48:1 56:1 64:1 67:1 68:1 72:1 75:1 80:1 82:1 83:1 88:1 89:1 90:1 95:1 96:1 97:1 98:1 99:1 100:1 101:1 102:1 103:1 
0.01 0.01 0.01 0.01 0.01 0.01 0.01 0.01 0.01 0.01 0.01 0.01 0.01 0.01 0.01 0.01 0.01 0.01 0.01 0.01 0 0 0.01 0 0.01 43:1 44:1 45:1 46:1 49:1 50:1 51:1 54:1 55:1 57:1 63:1 64:1 65:1 72:1 73:1 80:1 81:1 82:1 83:1 84:1 85:1 86:1 87:1 88:1 
0.01 0.01 0.01 0.01 0.01 0.01 0.01 0.01 0.01 0.01 0.01 0.01 0.01 0.01 0.01 0.01 0.01 0.01 0.01 0.01 0 0.01 0.01 0 0.01 17:1 18:1 19:1 25:1 26:1 27:1 34:1 35:1 36:1 37:1 42:1 45:1 46:1 50:1 54:1 55:1 58:1 63:1 66:1 67:1 71:1 72:1 75:1 80:1 83:1 88:1 91:1 92:1 96:1 100:1 104:1 108:1 109:1 111:1 112:1 117:1 118:1 119:1 
0.01 0.01 0.01 0.01 0.01 0.01 0.01 0.01 0.01 0.01 0.01 0.01 0.01 0.01 0.01 0.01 0.01 0.01 0.01 0.01 0 0 0 0 0.01 41:1 42:1 43:1 44:1 45:1 46:1 47:1 49:1 55:1 56:1 57:1 64:1 65:1 72:1 73:1 74:1 79:1 80:1 82:1 83:1 84:1 85:1 86:1 87:1 
0.01 0.01 0.01 0 0.01 0.01 0.01 0.01 0.01 0.01 0.01 0.01 0 0.01 0.01 0.01 0.01 0 0.01 0 0 0 0 0 0 13:1 14:1 15:1 18:1 19:1 20:1 21:1 23:1 24:1 25:1 26:1 32:1 35:1 40:1 43:1 48:1 50:1 51:1 56:1 58:1 64:1 66:1 72:1 74:1 80:1 81:1 82:1 87:1 88:1 89:1 95:1 97:1 98:1 102:1 103:1 106:1 108:1 109:1 110:1 114:1 115:1 116:1 
0 0.01 0.01 0 0.01 0 0 0 0 0.01 0 0.01 0 0 0 0 0.01 0 0 0 0 0 0 0 0 26:1 27:1 28:1 29:1 30:1 31:1 34:1 39:1 40:1 41:1 42:1 48:1 49:1 56:1 57:1 64:1 65:1 72:1 73:1 79:1 80:1 81:1 86:1 87:1 89:1 93:1 94:1 97:1 98:1 99:1 100:1 101:1 
0.01 0.01 0.01 0 0.01 0.01 0.01 0.01 0.01 0.01 0.01 0.01 0 0.01 0.01 0.01 0.01 0.01 0.01 0 0 0 0.01 0 0.01 41:1 42:1 43:1 44:1 45:1 46:1 49:1 52:1 54:1 55:1 56:1 57:1 64:1 65:1 72:1 73:1 74:1 80:1 82:1 83:1 84:1 85:1 86:1 87:1 88:1 
0 0.01 0.01 0 0.01 0 0 0.01 0 0.01 0 0.01 0 0 0 0 0 0 0 0.01 0 0 0 0 0 26:1 27:1 28:1 29:1 33:1 34:1 35:1 37:1 38:1 39:1 41:1 47:1 48:1 49:1 56:1 57:1 64:1 65:1 72:1 73:1 80:1 81:1 82:1 88:1 90:1 96:1 98:1 99:1 100:1 101:1 102:1 103:1 104:1 
0 0.01 0.01 0 0.01 0 0 0 0 0.01 0 0 0 0 0 0 0 0 0 0 0 0 0 0 0 17:1 18:1 19:1 20:1 21:1 26:1 27:1 29:1 30:1 33:1 34:1 35:1 38:1 39:1 41:1 47:1 49:1 55:1 56:1 57:1 64:1 65:1 72:1 73:1 80:1 81:1 88:1 89:1 96:1 97:1 98:1 103:1 104:1 106:1 107:1 108:1 109:1 110:1 111:1 
0 0.01 0.01 0 0.01 0 0 0.01 0 0.01 0 0.01 0 0 0 0 0 0 0 0 0 0 0 0 0 28:1 29:1 30:1 31:1 32:1 35:1 36:1 40:1 43:1 44:1 48:1 50:1 51:1 56:1 58:1 64:1 65:1 66:1 71:1 72:1 73:1 79:1 81:1 86:1 87:1 89:1 93:1 94:1 97:1 98:1 99:1 100:1 101:1 
0 0.01 0.01 0 0.01 0.01 0 0.01 0 0.01 0 0.01 0 0 0 0 0.01 0 0 0 0 0 0 0 0 35:1 36:1 41:1 42:1 43:1 45:1 46:1 47:1 49:1 50:1 55:1 56:1 57:1 64:1 65:1 72:1 73:1 80:1 81:1 82:1 86:1 87:1 88:1 90:1 91:1 92:1 93:1 94:1 
0 0 0.01 0 0.01 0 0 0 0 0.01 0 0 0 0 0 0 0 0 0 0 0 0 0 0 0 20:1 21:1 22:1 23:1 27:1 28:1 32:1 34:1 35:1 40:1 41:1 42:1 43:1 48:1 49:1 56:1 57:1 64:1 65:1 72:1 73:1 80:1 81:1 82:1 87:1 88:1 89:1 90:1 94:1 97:1 98:1 100:1 101:1 102:1 106:1 107:1 108:1 
0 0 0.01 0 0.01 0 0 0 0 0.01 0 0 0 0 0 0 0 0 0 0 0 0 0 0 0 22:1 29:1 30:1 31:1 35:1 36:1 37:1 39:1 42:1 43:1 47:1 48:1 49:1 50:1 56:1 57:1 64:1 65:1 72:1 73:1 80:1 81:1 87:1 88:1 89:1 94:1 95:1 97:1 98:1 100:1 101:1 102:1 106:1 107:1 108:1 
0 0.01 0.01 0 0.01 0 0 0 0 0.01 0 0 0 0 0 0 0 0 0 0 0 0 0 0 0 28:1 29:1 30:1 31:1 34:1 35:1 36:1 39:1 40:1 42:1 43:1 48:1 49:1 50:1 56:1 57:1 64:1 65:1 72:1 73:1 80:1 81:1 87:1 88:1 89:1 90:1 91:1 94:1 95:1 99:1 100:1 101:1 102:1 
0 0.01 0.01 0 0.01 0 0 0 0 0.01 0 0.01 0 0 0 0 0.01 0 0 0 0 0 0 0 0 12:1 13:1 14:1 15:1 19:1 20:1 23:1 24:1 26:1 27:1 32:1 33:1 34:1 40:1 41:1 48:1 49:1 56:1 57:1 64:1 65:1 72:1 73:1 79:1 80:1 81:1 87:1 89:1 94:1 95:1 97:1 101:1 102:1 105:1 108:1 109:1 114:1 115:1 116:1 
0 0.01 0.01 0 0.01 0.01 0 0 0 0.01 0 0 0 0 0 0 0.01 0 0 0 0 0 0 0 0 3:1 10:1 11:1 12:1 13:1 18:1 19:1 21:1 22:1 23:1 25:1 26:1 31:1 32:1 33:1 40:1 41:1 48:1 49:1 56:1 57:1 64:1 65:1 72:1 73:1 80:1 81:1 87:1 88:1 89:1 95:1 97:1 102:1 103:1 105:1 110:1 113:1 114:1 115:1 116:1 117:1 118:1 124:1 
0 0.01 0.01 0 0.01 0.01 0 0.01 0 0.01 0 0.01 0 0 0 0 0.01 0 0 0 0 0 0 0 0 15:1 23:1 31:1 35:1 36:1 37:1 39:1 40:1 41:1 42:1 43:1 48:1 49:1 56:1 57:1 64:1 65:1 72:1 73:1 80:1 81:1 88:1 89:1 95:1 96:1 97:1 101:1 102:1 103:1 105:1 106:1 109:1 114:1 115:1 116:1 117:1 
0.01 0.01 0.01 0 0.01 0.01 0 0.01 0.01 0.01 0.01 0.01 0 0.01 0.01 0 0.01 0 0.01 0 0.01 0 0 0 0.01 43:1 44:1 45:1 46:1 47:1 49:1 50:1 52:1 55:1 56:1 57:1 64:1 65:1 72:1 73:1 79:1 80:1 81:1 82:1 83:1 84:1 85:1 86:1 87:1 
0.01 0.01 0.01 0 0.01 0.01 0.01 0.01 0.01 0.01 0.01 0.01 0 0.01 0.01 0 0.01 0 0.01 0.01 0 0 0 0 0.01 9:1 10:1 17:1 18:1 19:1 25:1 26:1 27:1 28:1 34:1 36:1 37:1 41:1 42:1 45:1 46:1 49:1 54:1 55:1 57:1 63:1 65:1 71:1 72:1 73:1 80:1 81:1 88:1 89:1 96:1 97:1 104:1 105:1 106:1 107:1 109:1 110:1 111:1 112:1 115:1 116:1 117:1 
0.01 0.01 0.01 0 0.01 0.01 0 0.01 0.01 0.01 0 0.01 0 0.01 0 0 0.01 0 0.01 0 0 0 0 0 0 36:1 37:1 38:1 42:1 43:1 44:1 46:1 47:1 48:1 49:1 50:1 56:1 57:1 64:1 65:1 72:1 73:1 80:1 81:1 82:1 88:1 90:1 91:1 92:1 93:1 94:1 95:1 
0 0.01 0.01 0 0.01 0 0 0 0 0.01 0 0 0 0 0 0 0 0 0 0 0 0 0 0 0 26:1 27:1 28:1 29:1 30:1 31:1 33:1 34:1 35:1 39:1 41:1 42:1 47:1 48:1 49:1 56:1 57:1 64:1 65:1 72:1 73:1 80:1 81:1 88:1 89:1 90:1 95:1 96:1 98:1 99:1 100:1 101:1 102:1 103:1 
0 0.01 0.01 0 0.01 0.01 0 0.01 0.01 0.01 0.01 0.01 0 0.01 0.01 0 0.01 0 0 0 0 0 0 0 0 35:1 36:1 37:1 38:1 39:1 40:1 42:1 43:1 48:1 50:1 56:1 58:1 64:1 65:1 72:1 73:1 79:1 80:1 81:1 86:1 87:1 89:1 90:1 91:1 92:1 93:1 94:1 
0 0.01 0.01 0.01 0.01 0.01 0 0.01 0.01 0.01 0 0.01 0 0 0 0 0.01 0 0.01 0 0 0 0 0 0 11:1 12:1 13:1 14:1 15:1 16:1 19:1 23:1 24:1 26:1 27:1 31:1 32:1 34:1 40:1 42:1 48:1 49:1 50:1 56:1 57:1 63:1 64:1 65:1 71:1 73:1 79:1 81:1 87:1 89:1 94:1 95:1 97:1 102:1 105:1 108:1 109:1 110:1 113:1 114:1 115:1 116:1 
0.01 0.01 0.01 0 0.01 0.01 0 0.01 0.01 0.01 0 0.01 0 0 0 0 0.01 0 0 0 0 0 0 0 0 33:1 35:1 36:1 41:1 42:1 43:1 44:1 45:1 46:1 49:1 54:1 55:1 56:1 57:1 64:1 65:1 72:1 73:1 80:1 81:1 86:1 87:1 88:1 89:1 90:1 91:1 92:1 93:1 94:1 
0 0.01 0.01 0 0.01 0.01 0 0.01 0.01 0.01 0 0.01 0 0 0 0 0.01 0 0 0 0 0 0 0 0 11:1 12:1 13:1 21:1 22:1 25:1 26:1 27:1 28:1 30:1 31:1 33:1 37:1 39:1 41:1 47:1 48:1 49:1 56:1 57:1 64:1 65:1 72:1 73:1 80:1 81:1 88:1 90:1 96:1 99:1 104:1 108:1 109:1 111:1 112:1 117:1 118:1 119:1 
0 0.01 0.01 0 0.01 0.01 0 0.01 0 0.01 0 0.01 0 0 0 0 0 0 0.01 0 0 0 0 0 0 2:1 3:1 4:1 5:1 10:1 11:1 14:1 18:1 19:1 22:1 23:1 26:1 31:1 33:1 34:1 39:1 40:1 41:1 48:1 49:1 56:1 57:1 64:1 65:1 72:1 73:1 80:1 81:1 88:1 89:1 95:1 96:1 97:1 103:1 105:1 106:1 110:1 111:1 114:1 115:1 118:1 123:1 124:1 125:1 
0 0.01 0.01 0 0.01 0 0 0 0.01 0.01 0 0.01 0 0 0 0 0.01 0 0 0 0 0 0 0.01 0 28:1 29:1 30:1 31:1 32:1 35:1 36:1 40:1 42:1 43:1 48:1 49:1 50:1 56:1 57:1 64:1 65:1 72:1 73:1 80:1 81:1 88:1 89:1 90:1 91:1 95:1 96:1 99:1 100:1 101:1 102:1 103:1 
0 0.01 0.01 0 0.01 0.01 0 0.01 0 0.01 0 0.01 0 0 0 0 0.01 0 0 0 0 0 0 0 0 34:1 35:1 36:1 37:1 38:1 39:1 41:1 42:1 47:1 48:1 49:1 50:1 56:1 57:1 64:1 65:1 72:1 73:1 74:1 79:1 80:1 82:1 83:1 87:1 91:1 92:1 93:1 94:1 95:1 101:1 102:1 
0 0.01 0.01 0 0.01 0 0 0 0 0.01 0 0 0 0 0 0 0 0 0 0 0 0 0 0 0 26:1 27:1 28:1 29:1 30:1 33:1 34:1 35:1 38:1 39:1 41:1 42:1 47:1 48:1 49:1 50:1 56:1 58:1 64:1 65:1 66:1 72:1 73:1 79:1 80:1 81:1 86:1 87:1 89:1 92:1 93:1 94:1 97:1 98:1 99:1 100:1 
0 0.01 0.01 0 0.01 0.01 0 0.01 0 0.01 0 0.01 0 0 0 0 0.01 0 0 0 0 0 0 0 0 27:1 28:1 29:1 30:1 33:1 34:1 38:1 39:1 41:1 47:1 48:1 49:1 56:1 57:1 64:1 65:1 72:1 73:1 80:1 81:1 88:1 89:1 90:1 91:1 92:1 95:1 96:1 100:1 101:1 102:1 103:1 
0 0.01 0.01 0 0.01 0.01 0 0.01 0 0.01 0 0.01 0 0 0 0 0.01 0 0 0 0 0 0 0 0 30:1 31:1 36:1 37:1 38:1 39:1 40:1 43:1 48:1 50:1 56:1 57:1 58:1 64:1 65:1 72:1 73:1 79:1 80:1 81:1 87:1 89:1 93:1 94:1 95:1 97:1 98:1 99:1 100:1 101:1 
0.01 0.01 0.01 0.01 0.01 0.01 0.01 0.01 0.01 0.01 0.01 0.01 0.01 0.01 0.01 0.01 0.01 0.01 0.01 0.01 0 0 0.01 0 0.01 4:1 5:1 6:1 7:1 11:1 12:1 15:1 18:1 23:1 24:1 25:1 26:1 27:1 28:1 32:1 33:1 36:1 40:1 41:1 47:1 48:1 49:1 55:1 57:1 63:1 65:1 70:1 73:1 77:1 78:1 81:1 85:1 89:1 92:1 93:1 97:1 98:1 99:1 100:1 105:1 106:1 114:1 122:1 
0 0.01 0.01 0 0.01 0 0 0 0 0.01 0 0 0 0 0 0 0 0 0 0 0 0 0 0 0 26:1 27:1 28:1 29:1 33:1 34:1 35:1 36:1 37:1 38:1 39:1 42:1 47:1 48:1 49:1 56:1 57:1 64:1 65:1 72:1 73:1 80:1 81:1 86:1 87:1 88:1 89:1 92:1 93:1 94:1 97:1 98:1 99:1 100:1 
0 0.01 0.01 0 0.01 0 0 0 0 0.01 0 0 0 0 0 0 0 0 0 0 0 0 0 0 0 19:1 20:1 21:1 22:1 23:1 24:1 26:1 27:1 28:1 32:1 33:1 34:1 35:1 40:1 42:1 48:1 50:1 56:1 57:1 58:1 64:1 65:1 72:1 73:1 79:1 80:1 81:1 86:1 87:1 89:1 94:1 97:1 101:1 102:1 105:1 106:1 107:1 108:1 109:1 
0.01 0.01 0.01 0 0.01 0.01 0 0.01 0.01 0.01 0.01 0.01 0 0.01 0 0 0 0 0 0 0 0 0 0 0 12:1 13:1 20:1 27:1 28:1 29:1 30:1 31:1 35:1 39:1 40:1 43:1 48:1 50:1 51:1 56:1 58:1 64:1 65:1 66:1 72:1 73:1 80:1 81:1 88:1 89:1 95:1 96:1 97:1 102:1 103:1 105:1 109:1 110:1 113:1 114:1 115:1 116:1 117:1 
0.01 0.01 0.01 0 0.01 0.01 0 0.01 0.01 0.01 0.01 0.01 0 0.01 0.01 0.01 0.01 0.01 0.01 0 0 0 0 0 0.01 33:1 34:1 35:1 36:1 37:1 38:1 41:1 46:1 49:1 55:1 57:1 63:1 64:1 65:1 72:1 73:1 80:1 81:1 88:1 89:1 90:1 91:1 92:1 93:1 94:1 95:1 96:1 
0.01 0.01 0.01 0.01 0.01 0.01 0.01 0.01 0.01 0.01 0.01 0.01 0 0.01 0.01 0 0.01 0.01 0.01 0 0 0 0.01 0 0.01 17:1 18:1 19:1 20:1 21:1 22:1 25:1 30:1 31:1 33:1 39:1 40:1 48:1 56:1 64:1 65:1 72:1 73:1 80:1 81:1 88:1 89:1 95:1 96:1 97:1 98:1 101:1 102:1 103:1 106:1 107:1 108:1 109:1 
0 0.01 0.01 0 0.01 0 0 0 0 0.01 0 0.01 0 0 0 0 0.01 0 0 0 0 0 0 0 0 34:1 35:1 36:1 37:1 38:1 39:1 41:1 42:1 47:1 48:1 49:1 56:1 57:1 64:1 65:1 72:1 73:1 80:1 81:1 82:1 83:1 84:1 86:1 87:1 88:1 92:1 93:1 94:1 95:1 96:1 
0 0.01 0.01 0 0.01 0.01 0 0.01 0.01 0.01 0 0.01 0 0.01 0 0 0.01 0 0 0 0 0 0 0 0 35:1 36:1 37:1 38:1 39:1 42:1 43:1 47:1 48:1 49:1 50:1 56:1 57:1 64:1 65:1 72:1 73:1 74:1 79:1 80:1 82:1 83:1 86:1 87:1 91:1 92:1 93:1 94:1 
0.01 0.01 0.01 0.01 0.01 0.01 0.01 0.01 0.01 0.01 0.01 0.01 0.01 0.01 0.01 0.01 0.01 0.01 0.01 0.01 0 0 0.01 0.01 0.01 41:1 42:1 43:1 46:1 47:1 48:1 49:1 56:1 57:1 64:1 65:1 72:1 73:1 80:1 81:1 82:1 83:1 84:1 85:1 86:1 87:1 88:1 
0.01 0.01 0.01 0.01 0.01 0.01 0.01 0.01 0.01 0.01 0.01 0.01 0.01 0.01 0.01 0.01 0.01 0.01 0.01 0.01 0 0 0.01 0 0.01 37:1 41:1 42:1 43:1 44:1 45:1 46:1 49:1 54:1 55:1 57:1 64:1 65:1 72:1 73:1 80:1 81:1 82:1 87:1 88:1 90:1 91:1 92:1 93:1 94:1 95:1 
0.01 0.01 0.01 0.01 0.01 0.01 0.01 0.01 0.01 0.01 0.01 0.01 0.01 0.01 0.01 0.01 0.01 0 0.01 0 0 0 0 0 0 2:1 3:1 4:1 5:1 9:1 13:1 17:1 21:1 22:1 25:1 30:1 33:1 38:1 39:1 41:1 47:1 48:1 49:1 56:1 57:1 64:1 65:1 72:1 74:1 80:1 82:1 88:1 90:1 96:1 99:1 104:1 107:1 112:1 115:1 116:1 117:1 119:1 120:1 125:1 126:1 127:1 
0 0.01 0.01 0 0.01 0.01 0 0.01 0.01 0.01 0 0.01 0 0.01 0 0.01 0.01 0 0.01 0 0 0 0 0 0.01 17:1 18:1 19:1 20:1 21:1 22:1 23:1 25:1 31:1 33:1 39:1 40:1 41:1 48:1 49:1 56:1 57:1 64:1 65:1 72:1 73:1 79:1 80:1 81:1 82:1 87:1 90:1 95:1 98:1 99:1 102:1 103:1 107:1 108:1 109:1 110:1 
0.01 0.01 0.01 0 0.01 0.01 0 0.01 0.01 0.01 0 0.01 0 0.01 0 0 0.01 0 0.01 0 0 0 0 0 0 29:1 30:1 34:1 39:1 40:1 42:1 48:1 49:1 50:1 56:1 57:1 64:1 65:1 72:1 73:1 80:1 81:1 87:1 88:1 89:1 90:1 94:1 95:1 98:1 99:1 100:1 101:1 102:1 
0.01 0.01 0.01 0.01 0.01 0.01 0.01 0.01 0.01 0.01 0 0.01 0 0.01 0 0.01 0.01 0 0.01 0.01 0 0 0 0 0.01 17:1 22:1 25:1 30:1 31:1 33:1 39:1 40:1 41:1 48:1 49:1 56:1 57:1 64:1 65:1 72:1 73:1 80:1 81:1 88:1 89:1 90:1 96:1 98:1 99:1 104:1 107:1 108:1 109:1 110:1 111:1 112:1 
0 0.01 0.01 0 0.01 0.01 0 0.01 0 0.01 0 0.01 0 0 0 0 0.01 0 0 0 0 0 0 0 0 35:1 36:1 37:1 38:1 41:1 42:1 43:1 46:1 47:1 48:1 49:1 56:1 57:1 64:1 65:1 72:1 73:1 80:1 81:1 82:1 83:1 86:1 87:1 88:1 91:1 92:1 93:1 94:1 
0 0.01 0.01 0 0.01 0 0 0 0 0.01 0 0 0 0 0 0 0 0 0 0 0 0 0 0 0 35:1 36:1 37:1 38:1 41:1 42:1 43:1 44:1 46:1 47:1 48:1 49:1 56:1 57:1 64:1 65:1 72:1 73:1 80:1 81:1 82:1 83:1 87:1 88:1 91:1 92:1 93:1 94:1 95:1 
0.01 0.01 0.01 0.01 0.01 0.01 0.01 0.01 0.01 0.01 0.01 0.01 0.01 0.01 0.01 0.01 0.01 0.01 0.01 0.01 0 0 0.01 0 0.01 29:1 37:1 45:1 46:1 49:1 50:1 51:1 55:1 56:1 57:1 59:1 64:1 65:1 72:1 73:1 80:1 81:1 88:1 89:1 95:1 98:1 99:1 100:1 101:1 102:1 
0 0.01 0.01 0 0.01 0 0 0 0 0.01 0 0 0 0 0 0 0 0 0 0 0 0 0 0 0 20:1 21:1 22:1 27:1 28:1 30:1 35:1 37:1 38:1 39:1 40:1 42:1 43:1 48:1 49:1 50:1 56:1 57:1 64:1 65:1 72:1 73:1 80:1 81:1 88:1 89:1 90:1 96:1 98:1 99:1 102:1 103:1 108:1 109:1 110:1 
0 0.01 0.01 0 0.01 0.01 0.01 0 0 0.01 0 0.01 0 0 0 0 0.01 0 0 0 0 0 0 0.01 0 2:1 3:1 9:1 10:1 11:1 12:1 17:1 18:1 20:1 21:1 25:1 29:1 30:1 33:1 38:1 39:1 41:1 47:1 49:1 55:1 56:1 57:1 64:1 65:1 72:1 73:1 80:1 81:1 88:1 89:1 96:1 97:1 104:1 105:1 111:1 112:1 113:1 118:1 119:1 121:1 122:1 123:1 124:1 125:1 126:1 
0 0.01 0.01 0 0.01 0.01 0 0 0 0.01 0 0 0 0 0 0 0 0 0 0 0 0 0 0 0 3:1 4:1 5:1 11:1 13:1 14:1 18:1 19:1 20:1 21:1 26:1 27:1 29:1 30:1 34:1 38:1 39:1 42:1 47:1 49:1 50:1 55:1 56:1 57:1 64:1 65:1 72:1 73:1 80:1 81:1 88:1 89:1 96:1 97:1 98:1 104:1 106:1 111:1 112:1 114:1 115:1 118:1 119:1 123:1 124:1 125:1 126:1 
0.01 0.01 0.01 0.01 0.01 0.01 0.01 0.01 0.01 0.01 0.01 0.01 0.01 0.01 0.01 0.01 0.01 0.01 0.01 0.01 0 0 0.01 0.01 0.01 34:1 35:1 36:1 37:1 38:1 39:1 42:1 43:1 47:1 49:1 50:1 51:1 55:1 56:1 57:1 59:1 64:1 66:1 67:1 72:1 75:1 80:1 83:1 84:1 88:1 92:1 93:1 94:1 95:1 96:1 
0 0.01 0.01 0 0.01 0 0 0 0 0.01 0 0 0 0 0 0 0 0 0 0 0 0 0 0 0 25:1 26:1 27:1 28:1 29:1 33:1 34:1 35:1 36:1 37:1 38:1 41:1 46:1 47:1 49:1 55:1 56:1 57:1 64:1 65:1 72:1 73:1 80:1 81:1 82:1 88:1 90:1 95:1 96:1 98:1 99:1 100:1 101:1 102:1 103:1 
0.01 0.01 0.01 0 0.01 0.01 0 0.01 0.01 0.01 0 0.01 0 0.01 0 0 0.01 0 0.01 0 0 0 0 0 0 33:1 34:1 35:1 36:1 41:1 42:1 45:1 46:1 49:1 54:1 55:1 57:1 63:1 64:1 65:1 72:1 73:1 80:1 81:1 82:1 88:1 90:1 91:1 92:1 93:1 94:1 95:1 96:1 
0.01 0.01 0.01 0 0.01 0.01 0.01 0.01 0.01 0.01 0.01 0.01 0.01 0.01 0.01 0.01 0.01 0.01 0.01 0.01 0 0.01 0.01 0 0.01 26:1 27:1 33:1 34:1 35:1 36:1 37:1 41:1 45:1 46:1 49:1 54:1 57:1 62:1 63:1 65:1 71:1 72:1 73:1 80:1 81:1 82:1 88:1 90:1 91:1 96:1 99:1 100:1 101:1 102:1 103:1 104:1 
0.01 0.01 0.01 0.01 0.01 0.01 0.01 0.01 0.01 0.01 0.01 0.01 0.01 0.01 0.01 0.01 0.01 0.01 0.01 0.01 0 0 0.01 0 0.01 29:1 30:1 31:1 36:1 37:1 39:1 40:1 48:1 49:1 56:1 57:1 63:1 64:1 65:1 71:1 73:1 78:1 79:1 81:1 85:1 86:1 89:1 93:1 97:1 98:1 99:1 100:1 
0 0.01 0.01 0 0.01 0.01 0 0.01 0 0.01 0 0.01 0 0 0 0 0.01 0 0.01 0 0 0 0 0 0 27:1 28:1 29:1 30:1 31:1 32:1 35:1 36:1 40:1 48:1 50:1 51:1 56:1 58:1 64:1 65:1 66:1 72:1 73:1 79:1 80:1 81:1 85:1 86:1 87:1 89:1 90:1 92:1 93:1 98:1 99:1 100:1 
0 0.01 0.01 0 0.01 0.01 0 0.01 0.01 0.01 0 0.01 0 0 0 0 0.01 0 0 0 0 0 0 0 0 20:1 21:1 22:1 23:1 31:1 32:1 34:1 35:1 36:1 37:1 40:1 42:1 48:1 49:1 56:1 57:1 64:1 65:1 72:1 73:1 80:1 81:1 87:1 89:1 94:1 95:1 97:1 98:1 102:1 106:1 107:1 108:1 109:1 
0.01 0.01 0.01 0 0.01 0.01 0 0.01 0.01 0.01 0.01 0.01 0 0.01 0 0 0.01 0 0.01 0 0 0 0 0 0 36:1 37:1 38:1 39:1 40:1 42:1 43:1 44:1 48:1 49:1 50:1 56:1 57:1 64:1 65:1 71:1 72:1 73:1 78:1 79:1 81:1 85:1 86:1 89:1 90:1 91:1 92:1 
0.01 0.01 0.01 0 0.01 0.01 0 0.01 0.01 0.01 0.01 0.01 0 0.01 0 0 0.01 0 0.01 0 0 0 0 0 0 28:1 29:1 30:1 34:1 35:1 36:1 38:1 39:1 42:1 47:1 48:1 49:1 50:1 56:1 57:1 64:1 65:1 72:1 73:1 74:1 80:1 82:1 83:1 84:1 85:1 87:1 88:1 93:1 94:1 95:1 103:1 
0.01 0.01 0.01 0 0.01 0.01 0 0.01 0.01 0.01 0 0.01 0 0 0 0 0.01 0 0 0 0 0 0 0 0 28:1 29:1 30:1 35:1 36:1 38:1 39:1 42:1 43:1 47:1 48:1 49:1 50:1 56:1 57:1 64:1 65:1 72:1 73:1 80:1 81:1 82:1 83:1 84:1 88:1 92:1 93:1 94:1 96:1 103:1 104:1 
0.01 0.01 0.01 0.01 0.01 0.01 0.01 0.01 0.01 0.01 0.01 0.01 0.01 0.01 0.01 0.01 0.01 0.01 0.01 0.01 0 0 0.01 0 0.01 35:1 36:1 37:1 39:1 40:1 41:1 42:1 43:1 48:1 49:1 56:1 57:1 64:1 65:1 72:1 73:1 74:1 79:1 80:1 83:1 86:1 87:1 92:1 93:1 94:1 
0.01 0.01 0.01 0 0.01 0.01 0 0.01 0.01 0.01 0.01 0.01 0 0.01 0 0 0.01 0 0.01 0 0 0 0 0 0 31:1 35:1 36:1 39:1 40:1 42:1 43:1 48:1 49:1 50:1 56:1 57:1 64:1 65:1 72:1 73:1 80:1 81:1 88:1 89:1 90:1 95:1 96:1 99:1 100:1 101:1 102:1 103:1 
0 0.01 0.01 0 0.01 0.01 0 0.01 0.01 0.01 0.01 0.01 0 0 0 0 0.01 0 0 0 0 0 0 0 0 22:1 23:1 29:1 30:1 32:1 36:1 40:1 43:1 48:1 50:1 56:1 57:1 58:1 64:1 65:1 71:1 72:1 73:1 79:1 81:1 86:1 87:1 89:1 93:1 94:1 97:1 98:1 99:1 100:1 101:1 106:1 107:1 
0.01 0.01 0.01 0.01 0.01 0.01 0.01 0.01 0.01 0.01 0.01 0.01 0 0.01 0 0 0.01 0 0.01 0 0 0 0 0 0.01 20:1 27:1 28:1 35:1 38:1 39:1 43:1 47:1 50:1 51:1 55:1 56:1 58:1 64:1 65:1 66:1 72:1 73:1 80:1 81:1 87:1 88:1 89:1 94:1 95:1 97:1 98:1 99:1 100:1 101:1 102:1 107:1 108:1 
0 0.01 0.01 0 0.01 0.01 0 0.01 0 0.01 0 0.01 0 0 0 0 0 0.01 0 0 0 0.01 0.01 0 0.01 2:1 3:1 9:1 10:1 11:1 12:1 13:1 14:1 17:1 21:1 22:1 25:1 30:1 33:1 38:1 39:1 41:1 47:1 48:1 49:1 56:1 57:1 64:1 65:1 72:1 73:1 80:1 81:1 88:1 89:1 96:1 97:1 104:1 105:1 112:1 113:1 119:1 120:1 121:1 122:1 123:1 124:1 125:1 126:1 127:1 
0.01 0.01 0.01 0.01 0.01 0.01 0.01 0.01 0.01 0.01 0.01 0.01 0.01 0.01 0.01 0.01 0.01 0.01 0.01 0.01 0.01 0 0.01 0 0.01 3:1 4:1 5:1 11:1 13:1 21:1 27:1 28:1 29:1 35:1 37:1 43:1 45:1 50:1 51:1 53:1 58:1 61:1 62:1 66:1 70:1 74:1 78:1 82:1 86:1 87:1 90:1 95:1 98:1 103:1 106:1 110:1 111:1 114:1 115:1 118:1 123:1 124:1 125:1 126:1 
0 0 0.01 0 0.01 0 0 0 0 0.01 0 0 0 0 0 0 0 0 0 0 0 0 0 0 0 18:1 19:1 20:1 21:1 26:1 27:1 28:1 29:1 30:1 31:1 34:1 39:1 40:1 41:1 42:1 48:1 49:1 56:1 57:1 64:1 65:1 72:1 73:1 80:1 81:1 87:1 88:1 89:1 94:1 95:1 97:1 101:1 102:1 105:1 106:1 107:1 108:1 109:1 
0 0.01 0.01 0 0.01 0 0 0 0 0.01 0 0 0 0 0 0 0 0 0 0 0 0 0 0 0 21:1 22:1 28:1 29:1 30:1 31:1 36:1 37:1 39:1 40:1 43:1 48:1 50:1 56:1 57:1 58:1 64:1 65:1 72:1 73:1 79:1 80:1 81:1 86:1 87:1 89:1 93:1 94:1 97:1 100:1 101:1 105:1 106:1 107:1 108:1 
0 0.01 0.01 0 0.01 0 0 0 0 0.01 0 0 0 0 0 0 0.01 0 0 0 0 0 0 0 0 25:1 26:1 27:1 33:1 35:1 36:1 37:1 38:1 41:1 46:1 47:1 49:1 50:1 55:1 56:1 57:1 58:1 64:1 65:1 66:1 72:1 73:1 80:1 81:1 87:1 88:1 89:1 90:1 94:1 95:1 98:1 99:1 100:1 101:1 102:1 
0.01 0.01 0.01 0 0.01 0.01 0 0.01 0.01 0.01 0 0.01 0 0 0 0 0.01 0 0 0 0 0 0 0 0 34:1 35:1 36:1 37:1 38:1 41:1 42:1 45:1 46:1 49:1 54:1 55:1 57:1 63:1 64:1 65:1 72:1 73:1 80:1 81:1 82:1 83:1 88:1 91:1 92:1 93:1 94:1 95:1 96:1 
0 0.01 0.01 0 0.01 0.01 0 0.01 0 0.01 0 0.01 0 0 0 0 0.01 0 0 0 0 0 0 0 0 29:1 30:1 38:1 39:1 42:1 43:1 44:1 45:1 46:1 47:1 48:1 49:1 50:1 56:1 57:1 64:1 65:1 71:1 72:1 73:1 79:1 81:1 87:1 89:1 90:1 93:1 94:1 95:1 98:1 99:1 100:1 101:1 
0 0.01 0.01 0 0.01 0 0 0 0 0.01 0 0 0 0 0 0 0 0 0 0 0 0 0 0 0 34:1 35:1 36:1 37:1 38:1 39:1 41:1 42:1 47:1 48:1 49:1 56:1 57:1 64:1 65:1 72:1 73:1 80:1 81:1 82:1 87:1 88:1 90:1 91:1 92:1 93:1 94:1 95:1 
0 0.01 0.01 0 0.01 0.01 0 0 0 0.01 0 0 0 0 0 0 0 0 0 0 0 0 0 0 0 2:1 3:1 4:1 10:1 11:1 12:1 18:1 19:1 20:1 21:1 25:1 26:1 29:1 30:1 31:1 32:1 33:1 40:1 41:1 48:1 49:1 56:1 57:1 64:1 65:1 72:1 73:1 80:1 81:1 88:1 89:1 96:1 97:1 104:1 105:1 111:1 112:1 113:1 114:1 118:1 119:1 122:1 123:1 124:1 125:1 126:1 
0.01 0.01 0.01 0.01 0.01 0.01 0.01 0.01 0.01 0.01 0.01 0.01 0.01 0.01 0.01 0.01 0.01 0.01 0.01 0.01 0 0 0.01 0 0.01 34:1 35:1 36:1 41:1 42:1 44:1 46:1 49:1 52:1 54:1 55:1 57:1 63:1 64:1 65:1 72:1 73:1 74:1 75:1 80:1 83:1 84:1 85:1 88:1 93:1 94:1 95:1 96:1 
0.01 0.01 0.01 0 0.01 0.01 0 0.01 0.01 0.01 0.01 0.01 0 0 0 0 0.01 0 0 0 0 0 0 0 0 34:1 35:1 36:1 41:1 42:1 44:1 45:1 46:1 49:1 50:1 51:1 52:1 54:1 55:1 57:1 60:1 63:1 64:1 65:1 72:1 73:1 80:1 81:1 82:1 85:1 86:1 87:1 88:1 90:1 91:1 92:1 93:1 
0.01 0.01 0.01 0 0.01 0.01 0 0.01 0.01 0.01 0.01 0.01 0.01 0.01 0.01 0.01 0.01 0.01 0.01 0.01 0 0 0 0 0.01 19:1 27:1 28:1 29:1 30:1 35:1 38:1 39:1 42:1 43:1 48:1 50:1 56:1 57:1 58:1 64:1 65:1 72:1 73:1 79:1 80:1 81:1 87:1 89:1 94:1 97:1 101:1 102:1 105:1 106:1 107:1 108:1 109:1 
0 0 0.01 0 0.01 0.01 0 0 0 0.01 0 0 0 0 0 0 0 0 0 0 0 0 0 0 0 4:1 5:1 6:1 11:1 12:1 13:1 14:1 15:1 18:1 19:1 21:1 22:1 23:1 26:1 27:1 30:1 31:1 34:1 39:1 41:1 42:1 47:1 48:1 49:1 56:1 57:1 64:1 65:1 72:1 73:1 80:1 81:1 88:1 89:1 96:1 97:1 103:1 104:1 105:1 106:1 110:1 111:1 114:1 118:1 122:1 123:1 124:1 125:1 126:1 
0.01 0.01 0.01 0 0.01 0.01 0 0.01 0.01 0.01 0 0.01 0 0 0 0 0 0 0 0 0 0 0 0 0 28:1 35:1 36:1 37:1 38:1 39:1 42:1 43:1 47:1 50:1 55:1 56:1 57:1 58:1 64:1 65:1 72:1 73:1 80:1 81:1 88:1 89:1 90:1 95:1 96:1 98:1 99:1 100:1 101:1 102:1 103:1 
0.01 0.01 0.01 0.01 0.01 0.01 0 0.01 0.01 0.01 0.01 0.01 0 0.01 0.01 0 0.01 0 0.01 0 0 0 0 0 0.01 28:1 29:1 30:1 31:1 32:1 40:1 43:1 44:1 45:1 46:1 48:1 50:1 54:1 56:1 57:1 64:1 65:1 71:1 72:1 73:1 79:1 81:1 86:1 87:1 89:1 90:1 93:1 94:1 98:1 99:1 100:1 101:1 
0.01 0.01 0.01 0.01 0.01 0.01 0.01 0.01 0.01 0.01 0.01 0.01 0.01 0.01 0.01 0.01 0.01 0.01 0.01 0.01 0.01 0 0.01 0.01 0.01 50:1 51:1 52:1 53:1 54:1 55:1 56:1 57:1 58:1 64:1 65:1 72:1 73:1 74:1 75:1 76:1 77:1 78:1 79:1 80:1 
0 0.01 0.01 0 0.01 0.01 0 0.01 0.01 0.01 0 0.01 0 0 0 0 0 0 0 0 0 0 0 0 0 35:1 36:1 37:1 38:1 41:1 42:1 43:1 44:1 45:1 46:1 49:1 54:1 55:1 57:1 63:1 64:1 65:1 72:1 73:1 80:1 81:1 82:1 83:1 87:1 88:1 91:1 92:1 93:1 94:1 95:1 
0.01 0.01 0.01 0 0.01 0.01 0 0.01 0.01 0.01 0 0.01 0 0.01 0 0 0.01 0 0.01 0 0 0 0 0 0 34:1 35:1 41:1 42:1 43:1 44:1 45:1 46:1 47:1 49:1 51:1 55:1 56:1 57:1 64:1 65:1 72:1 73:1 74:1 80:1 82:1 83:1 84:1 86:1 87:1 88:1 92:1 93:1 94:1 
0.01 0.01 0.01 0.01 0.01 0.01 0.01 0.01 0.01 0.01 0.01 0.01 0.01 0.01 0.01 0.01 0.01 0.01 0.01 0.01 0 0 0.01 0 0.01 28:1 29:1 30:1 31:1 32:1 34:1 35:1 36:1 40:1 41:1 42:1 43:1 48:1 49:1 50:1 56:1 58:1 64:1 66:1 72:1 74:1 80:1 82:1 87:1 88:1 90:1 91:1 93:1 94:1 95:1 99:1 100:1 101:1 
0 0.01 0.01 0 0.01 0 0 0 0 0.01 0 0 0 0 0 0 0 0 0 0 0 0 0 0 0 20:1 21:1 22:1 27:1 28:1 30:1 31:1 35:1 39:1 40:1 42:1 43:1 48:1 49:1 50:1 56:1 57:1 64:1 65:1 72:1 73:1 80:1 81:1 88:1 89:1 95:1 96:1 97:1 101:1 102:1 103:1 106:1 107:1 108:1 109:1 
0.01 0.01 0.01 0.01 0.01 0.01 0.01 0.01 0.01 0.01 0.01 0.01 0.01 0.01 0.01 0.01 0.01 0.01 0.01 0.01 0.01 0 0.01 0 0.01 35:1 36:1 42:1 43:1 44:1 45:1 49:1 50:1 53:1 54:1 55:1 57:1 63:1 65:1 71:1 72:1 73:1 80:1 81:1 87:1 88:1 95:1 
0.01 0.01 0.01 0 0.01 0 0 0.01 0.01 0.01 0 0.01 0 0 0 0 0 0 0 0 0 0 0 0 0 35:1 36:1 37:1 38:1 42:1 43:1 46:1 47:1 48:1 49:1 50:1 56:1 57:1 58:1 64:1 65:1 66:1 72:1 73:1 80:1 81:1 82:1 83:1 88:1 91:1 92:1 93:1 94:1 95:1 96:1 
0.01 0.01 0.01 0 0.01 0.01 0 0.01 0.01 0.01 0.01 0.01 0.01 0.01 0.01 0.01 0.01 0.01 0.01 0 0 0 0 0 0.01 11:1 12:1 13:1 14:1 15:1 16:1 18:1 19:1 24:1 25:1 26:1 32:1 33:1 40:1 41:1 48:1 49:1 56:1 57:1 64:1 65:1 72:1 73:1 80:1 88:1 96:1 99:1 100:1 104:1 108:1 109:1 111:1 112:1 117:1 118:1 119:1 
0.01 0.01 0.01 0 0.01 0.01 0 0.01 0.01 0.01 0.01 0.01 0 0.01 0.01 0 0.01 0 0.01 0 0 0 0 0 0.01 34:1 35:1 36:1 37:1 38:1 39:1 40:1 41:1 42:1 48:1 49:1 56:1 57:1 64:1 65:1 72:1 73:1 74:1 80:1 82:1 83:1 87:1 88:1 91:1 92:1 93:1 94:1 
0 0.01 0.01 0 0.01 0 0 0 0 0.01 0 0 0 0 0 0 0 0 0 0 0 0 0 0 0 21:1 26:1 27:1 29:1 30:1 31:1 34:1 35:1 39:1 40:1 41:1 42:1 48:1 49:1 56:1 57:1 64:1 65:1 72:1 73:1 80:1 81:1 87:1 88:1 89:1 94:1 95:1 97:1 98:1 99:1 100:1 101:1 106:1 107:1 
0.01 0.01 0.01 0.01 0.01 0.01 0 0.01 0.01 0.01 0.01 0.01 0 0.01 0.01 0 0.01 0.01 0.01 0 0 0 0.01 0 0.01 37:1 38:1 45:1 46:1 47:1 48:1 50:1 51:1 52:1 53:1 54:1 56:1 57:1 58:1 64:1 65:1 72:1 73:1 79:1 80:1 81:1 85:1 86:1 89:1 90:1 91:1 92:1 93:1 
0 0.01 0.01 0 0.01 0 0 0 0 0.01 0 0 0 0 0 0 0 0 0 0 0 0 0 0 0 22:1 23:1 27:1 28:1 29:1 30:1 31:1 32:1 34:1 35:1 37:1 38:1 40:1 42:1 45:1 48:1 50:1 56:1 57:1 58:1 64:1 65:1 72:1 73:1 80:1 81:1 88:1 89:1 95:1 97:1 101:1 102:1 103:1 105:1 106:1 107:1 108:1 109:1 
0.01 0.01 0.01 0.01 0.01 0.01 0 0.01 0.01 0.01 0.01 0.01 0 0.01 0.01 0 0.01 0.01 0.01 0 0 0 0 0 0.01 33:1 34:1 35:1 36:1 37:1 38:1 39:1 40:1 41:1 48:1 56:1 64:1 65:1 66:1 72:1 73:1 79:1 80:1 81:1 87:1 89:1 94:1 95:1 97:1 98:1 99:1 100:1 101:1 102:1 
0 0.01 0.01 0 0.01 0 0 0 0 0.01 0 0 0 0 0 0 0 0 0 0 0 0 0 0 0 34:1 35:1 36:1 37:1 38:1 39:1 42:1 43:1 44:1 47:1 48:1 49:1 50:1 56:1 57:1 64:1 65:1 72:1 73:1 79:1 80:1 81:1 86:1 87:1 89:1 90:1 91:1 92:1 93:1 94:1 
0 0.01 0.01 0 0.01 0.01 0 0 0 0.01 0 0 0 0 0 0 0 0 0 0 0 0 0 0 0 1:1 2:1 3:1 9:1 12:1 13:1 17:1 21:1 22:1 25:1 30:1 31:1 33:1 34:1 35:1 36:1 37:1 38:1 39:1 41:1 47:1 49:1 55:1 56:1 57:1 64:1 65:1 72:1 73:1 80:1 81:1 88:1 89:1 96:1 97:1 104:1 105:1 106:1 112:1 114:1 115:1 119:1 120:1 123:1 124:1 125:1 126:1 
0 0.01 0.01 0 0.01 0.01 0 0.01 0.01 0.01 0 0.01 0 0 0 0 0 0 0 0 0 0 0 0 0 27:1 28:1 29:1 30:1 35:1 36:1 39:1 43:1 48:1 50:1 51:1 56:1 57:1 58:1 64:1 65:1 72:1 73:1 79:1 80:1 81:1 86:1 87:1 89:1 93:1 94:1 97:1 98:1 99:1 100:1 101:1 
0.01 0.01 0.01 0.01 0.01 0.01 0.01 0.01 0.01 0.01 0.01 0.01 0.01 0.01 0.01 0.01 0.01 0.01 0.01 0 0 0 0.01 0 0.01 31:1 32:1 37:1 38:1 39:1 40:1 44:1 45:1 46:1 48:1 52:1 56:1 59:1 60:1 63:1 64:1 66:1 67:1 71:1 73:1 74:1 77:1 78:1 79:1 81:1 84:1 85:1 89:1 91:1 92:1 97:1 98:1 99:1 
0 0 0.01 0 0.01 0 0 0 0 0.01 0 0 0 0 0 0 0 0 0 0 0 0 0 0 0 12:1 13:1 14:1 18:1 19:1 20:1 22:1 23:1 26:1 31:1 32:1 34:1 35:1 36:1 40:1 42:1 48:1 49:1 50:1 56:1 57:1 64:1 65:1 72:1 73:1 80:1 81:1 87:1 88:1 89:1 94:1 95:1 97:1 101:1 102:1 105:1 106:1 107:1 108:1 109:1 114:1 115:1 
0 0.01 0.01 0 0.01 0 0 0 0 0.01 0 0 0 0 0 0 0 0 0 0 0 0 0 0 0 22:1 23:1 24:1 29:1 30:1 31:1 32:1 36:1 37:1 39:1 40:1 43:1 44:1 47:1 48:1 50:1 51:1 56:1 58:1 64:1 65:1 66:1 71:1 72:1 73:1 79:1 81:1 86:1 87:1 89:1 93:1 94:1 97:1 99:1 100:1 101:1 105:1 106:1 107:1 
0.01 0.01 0.01 0 0.01 0.01 0 0.01 0.01 0.01 0.01 0.01 0 0.01 0 0 0.01 0 0.01 0 0 0 0 0 0 29:1 30:1 36:1 37:1 38:1 39:1 40:1 44:1 48:1 51:1 56:1 58:1 59:1 64:1 66:1 71:1 72:1 73:1 74:1 78:1 79:1 81:1 85:1 86:1 89:1 92:1 93:1 97:1 98:1 99:1 100:1 
0 0.01 0.01 0 0.01 0 0 0 0 0.01 0 0.01 0 0 0 0 0 0 0 0 0 0 0 0 0 34:1 35:1 36:1 37:1 38:1 39:1 40:1 42:1 48:1 49:1 50:1 56:1 57:1 64:1 65:1 72:1 73:1 80:1 81:1 86:1 87:1 88:1 89:1 90:1 91:1 92:1 93:1 94:1 
0 0.01 0.01 0 0.01 0.01 0 0.01 0 0.01 0 0.01 0 0 0 0 0.01 0 0 0 0 0 0 0 0 33:1 34:1 35:1 36:1 41:1 42:1 44:1 45:1 46:1 49:1 54:1 55:1 57:1 63:1 64:1 65:1 72:1 73:1 80:1 81:1 82:1 87:1 88:1 90:1 91:1 92:1 93:1 94:1 95:1 
0.01 0.01 0.01 0 0.01 0.01 0 0.01 0.01 0.01 0 0.01 0 0.01 0 0 0.01 0 0.01 0 0 0 0 0 0 35:1 36:1 37:1 38:1 39:1 40:1 42:1 43:1 48:1 49:1 50:1 56:1 57:1 64:1 65:1 72:1 73:1 78:1 79:1 81:1 85:1 86:1 89:1 90:1 91:1 92:1 93:1 
0.01 0.01 0.01 0.01 0.01 0.01 0.01 0.01 0.01 0.01 0.01 0.01 0.01 0.01 0.01 0.01 0.01 0.01 0.01 0.01 0 0 0.01 0 0.01 35:1 36:1 43:1 44:1 45:1 49:1 50:1 51:1 53:1 54:1 57:1 62:1 63:1 65:1 71:1 72:1 73:1 80:1 81:1 82:1 88:1 90:1 91:1 92:1 93:1 94:1 95:1 96:1 
0.01 0.01 0.01 0 0.01 0.01 0 0.01 0.01 0.01 0 0.01 0 0.01 0 0 0.01 0 0.01 0 0 0 0 0 0 31:1 32:1 38:1 39:1 40:1 44:1 45:1 48:1 50:1 51:1 52:1 53:1 56:1 57:1 58:1 64:1 65:1 71:1 72:1 73:1 78:1 79:1 81:1 84:1 85:1 86:1 89:1 91:1 92:1 97:1 98:1 99:1 
0.01 0.01 0.01 0 0.01 0.01 0 0.01 0.01 0.01 0.01 0.01 0 0.01 0 0 0.01 0 0 0 0 0 0 0 0 19:1 20:1 21:1 29:1 30:1 34:1 38:1 39:1 42:1 47:1 48:1 49:1 50:1 56:1 57:1 64:1 65:1 72:1 73:1 80:1 81:1 88:1 89:1 96:1 98:1 104:1 107:1 108:1 109:1 110:1 111:1 112:1 
0 0 0.01 0 0.01 0 0 0 0 0.01 0 0 0 0 0 0 0 0 0 0 0 0 0 0 0 19:1 20:1 26:1 27:1 29:1 30:1 31:1 33:1 34:1 39:1 40:1 41:1 42:1 48:1 49:1 56:1 57:1 64:1 65:1 72:1 73:1 79:1 80:1 81:1 87:1 89:1 94:1 95:1 97:1 98:1 99:1 101:1 102:1 107:1 108:1 109:1 
0 0.01 0.01 0 0.01 0.01 0 0.01 0.01 0.01 0.01 0.01 0 0.01 0 0 0.01 0 0 0 0 0 0 0 0 27:1 28:1 29:1 34:1 35:1 37:1 38:1 42:1 46:1 47:1 49:1 55:1 57:1 63:1 64:1 65:1 72:1 73:1 80:1 81:1 82:1 88:1 90:1 91:1 95:1 96:1 99:1 100:1 101:1 102:1 103:1 
0 0.01 0.01 0.01 0.01 0.01 0 0.01 0 0.01 0 0.01 0 0.01 0 0 0.01 0 0.01 0 0 0 0 0 0 3:1 4:1 5:1 11:1 12:1 13:1 14:1 15:1 19:1 23:1 27:1 31:1 32:1 35:1 40:1 43:1 48:1 50:1 51:1 56:1 58:1 64:1 66:1 71:1 72:1 74:1 79:1 81:1 82:1 87:1 89:1 95:1 97:1 102:1 103:1 105:1 110:1 113:1 117:1 118:1 121:1 122:1 123:1 124:1 125:1 
0 0.01 0.01 0 0.01 0.01 0 0.01 0 0.01 0 0.01 0 0 0.01 0 0 0 0 0 0 0 0 0 0 6:1 13:1 14:1 20:1 21:1 22:1 27:1 28:1 30:1 31:1 34:1 35:1 39:1 40:1 42:1 48:1 49:1 50:1 56:1 57:1 64:1 65:1 72:1 73:1 80:1 81:1 88:1 89:1 96:1 97:1 104:1 105:1 106:1 112:1 114:1 119:1 120:1 123:1 124:1 125:1 126:1 127:1 
0.01 0.01 0.01 0.01 0.01 0.01 0.01 0.01 0.01 0.01 0.01 0.01 0.01 0.01 0.01 0.01 0.01 0.01 0.01 0.01 0 0.01 0.01 0 0.01 43:1 44:1 50:1 51:1 52:1 53:1 54:1 55:1 56:1 57:1 58:1 64:1 65:1 72:1 73:1 76:1 77:1 78:1 79:1 80:1 81:1 82:1 83:1 84:1 
0 0.01 0.01 0 0.01 0 0 0 0 0.01 0 0 0 0 0 0 0.01 0 0 0 0 0 0 0 0 17:1 18:1 19:1 20:1 21:1 22:1 25:1 30:1 31:1 33:1 39:1 40:1 41:1 48:1 49:1 56:1 57:1 64:1 65:1 72:1 73:1 80:1 81:1 88:1 89:1 95:1 96:1 97:1 98:1 102:1 103:1 106:1 107:1 108:1 109:1 110:1 
0 0.01 0.01 0 0.01 0 0 0 0 0.01 0 0 0 0 0 0 0 0 0 0 0 0 0 0 0 11:1 12:1 13:1 18:1 19:1 20:1 21:1 22:1 26:1 28:1 29:1 30:1 31:1 34:1 39:1 41:1 47:1 49:1 55:1 56:1 57:1 64:1 65:1 72:1 73:1 80:1 81:1 88:1 89:1 95:1 96:1 97:1 102:1 103:1 105:1 106:1 109:1 110:1 114:1 115:1 116:1 117:1 
0.01 0.01 0.01 0.01 0.01 0.01 0.01 0.01 0.01 0.01 0.01 0.01 0.01 0.01 0.01 0.01 0.01 0.01 0.01 0.01 0.01 0.01 0.01 0 0.01 5:1 6:1 13:1 20:1 21:1 28:1 29:1 36:1 37:1 38:1 43:1 44:1 46:1 51:1 54:1 59:1 62:1 67:1 70:1 75:1 78:1 83:1 86:1 91:1 94:1 99:1 102:1 107:1 110:1 115:1 118:1 123:1 124:1 125:1 
0 0.01 0.01 0 0.01 0 0 0 0 0.01 0 0 0 0 0 0 0 0 0 0 0 0 0 0 0 35:1 36:1 37:1 38:1 39:1 42:1 43:1 47:1 48:1 49:1 50:1 56:1 57:1 64:1 65:1 72:1 73:1 79:1 80:1 81:1 87:1 89:1 90:1 91:1 92:1 93:1 94:1 95:1 
0 0.01 0.01 0 0.01 0 0 0 0 0.01 0 0 0 0 0 0 0 0 0 0 0 0 0 0 0 31:1 32:1 35:1 36:1 37:1 38:1 39:1 40:1 42:1 43:1 48:1 49:1 50:1 56:1 57:1 64:1 65:1 72:1 73:1 80:1 81:1 87:1 88:1 89:1 90:1 94:1 95:1 98:1 99:1 100:1 101:1 102:1 
0 0.01 0.01 0 0.01 0 0 0 0.01 0.01 0 0 0 0 0 0 0 0 0 0 0 0.01 0 0 0 34:1 35:1 36:1 37:1 38:1 39:1 40:1 42:1 43:1 44:1 48:1 50:1 56:1 57:1 64:1 65:1 72:1 73:1 80:1 81:1 87:1 88:1 89:1 90:1 91:1 92:1 93:1 94:1 95:1 
0 0.01 0.01 0 0.01 0 0 0 0 0.01 0 0 0 0 0 0 0 0 0 0 0 0 0 0 0 20:1 27:1 28:1 35:1 36:1 37:1 38:1 39:1 43:1 47:1 48:1 50:1 51:1 56:1 58:1 64:1 65:1 66:1 72:1 73:1 79:1 80:1 81:1 86:1 87:1 89:1 93:1 94:1 97:1 100:1 101:1 105:1 106:1 107:1 108:1 
0.01 0.01 0.01 0.01 0.01 0.01 0.01 0.01 0.01 0.01 0.01 0.01 0.01 0.01 0.01 0.01 0.01 0.01 0.01 0.01 0 0 0.01 0 0.01 26:1 27:1 28:1 29:1 30:1 33:1 34:1 38:1 39:1 41:1 47:1 48:1 49:1 56:1 57:1 64:1 65:1 71:1 72:1 73:1 79:1 83:1 87:1 91:1 92:1 95:1 100:1 101:1 102:1 
0.01 0.01 0.01 0.01 0.01 0.01 0.01 0.01 0.01 0.01 0.01 0.01 0.01 0.01 0.01 0.01 0.01 0.01 0.01 0.01 0 0 0.01 0.01 0.01 25:1 33:1 41:1 49:1 50:1 51:1 52:1 57:1 61:1 65:1 69:1 70:1 71:1 72:1 73:1 79:1 80:1 81:1 86:1 87:1 89:1 90:1 91:1 93:1 94:1 99:1 100:1 101:1 
0.01 0.01 0.01 0 0.01 0.01 0.01 0.01 0.01 0.01 0.01 0.01 0 0.01 0.01 0.01 0.01 0 0.01 0.01 0 0 0 0 0 9:1 10:1 11:1 12:1 13:1 14:1 17:1 22:1 23:1 25:1 31:1 32:1 33:1 40:1 41:1 48:1 49:1 56:1 57:1 64:1 65:1 72:1 73:1 80:1 81:1 88:1 89:1 96:1 97:1 98:1 104:1 106:1 112:1 115:1 116:1 117:1 118:1 119:1 120:1 
0.01 0.01 0.01 0 0.01 0.01 0 0.01 0.01 0.01 0.01 0.01 0 0.01 0 0 0.01 0 0.01 0 0 0 0 0 0 42:1 43:1 44:1 45:1 46:1 47:1 49:1 50:1 51:1 55:1 56:1 57:1 64:1 65:1 72:1 73:1 79:1 80:1 81:1 82:1 83:1 84:1 85:1 86:1 87:1 
0.01 0.01 0.01 0 0.01 0.01 0 0.01 0.01 0.01 0 0.01 0 0 0 0 0 0 0 0 0 0 0 0 0 18:1 19:1 20:1 21:1 29:1 30:1 36:1 38:1 39:1 44:1 47:1 50:1 51:1 52:1 55:1 56:1 57:1 58:1 64:1 65:1 72:1 73:1 80:1 81:1 88:1 89:1 96:1 97:1 98:1 103:1 104:1 106:1 107:1 108:1 109:1 110:1 111:1 
0.01 0.01 0.01 0 0.01 0.01 0.01 0.01 0.01 0.01 0.01 0.01 0 0.01 0.01 0.01 0.01 0 0.01 0.01 0 0 0 0 0.01 1:1 2:1 3:1 9:1 11:1 12:1 13:1 17:1 21:1 22:1 26:1 30:1 31:1 34:1 39:1 42:1 48:1 49:1 50:1 56:1 57:1 64:1 65:1 66:1 72:1 74:1 80:1 82:1 88:1 90:1 91:1 96:1 99:1 103:1 104:1 107:1 108:1 110:1 111:1 116:1 117:1 118:1 126:1 
0.01 0.01 0.01 0.01 0.01 0.01 0 0.01 0.01 0.01 0.01 0.01 0 0.01 0 0 0.01 0 0.01 0 0 0 0 0 0 27:1 28:1 29:1 34:1 35:1 36:1 37:1 41:1 42:1 45:1 46:1 49:1 54:1 55:1 57:1 63:1 65:1 71:1 72:1 73:1 80:1 81:1 82:1 88:1 90:1 91:1 92:1 96:1 100:1 101:1 102:1 103:1 104:1 
0 0 0.01 0 0.01 0 0 0 0 0.01 0 0 0 0 0 0 0 0 0 0 0 0 0 0 0 20:1 21:1 22:1 26:1 27:1 28:1 29:1 30:1 31:1 33:1 34:1 36:1 38:1 39:1 41:1 48:1 49:1 56:1 57:1 64:1 65:1 72:1 73:1 79:1 80:1 81:1 87:1 89:1 94:1 95:1 97:1 101:1 102:1 105:1 106:1 107:1 108:1 109:1 
0.01 0.01 0.01 0 0.01 0.01 0 0.01 0.01 0.01 0.01 0.01 0 0.01 0.01 0 0.01 0.01 0.01 0 0 0 0.01 0 0 19:1 20:1 21:1 26:1 27:1 29:1 30:1 34:1 38:1 39:1 47:1 49:1 55:1 56:1 57:1 64:1 65:1 72:1 73:1 80:1 81:1 88:1 89:1 96:1 97:1 98:1 104:1 107:1 108:1 109:1 110:1 111:1 
0 0 0.01 0 0.01 0.01 0 0 0 0.01 0 0 0 0 0 0 0 0 0 0 0 0 0 0 0 3:1 11:1 12:1 20:1 21:1 27:1 28:1 29:1 30:1 31:1 32:1 34:1 35:1 38:1 39:1 40:1 41:1 42:1 47:1 48:1 49:1 55:1 56:1 57:1 63:1 64:1 65:1 72:1 73:1 80:1 81:1 88:1 89:1 90:1 96:1 98:1 104:1 106:1 107:1 112:1 115:1 116:1 118:1 119:1 120:1 124:1 125:1 126:1 
0 0.01 0.01 0 0.01 0 0 0.01 0 0.01 0 0.01 0 0 0 0 0.01 0 0 0 0 0 0 0 0 19:1 20:1 21:1 22:1 25:1 26:1 30:1 31:1 32:1 33:1 40:1 41:1 48:1 49:1 56:1 57:1 64:1 65:1 72:1 73:1 80:1 81:1 87:1 88:1 89:1 94:1 95:1 97:1 100:1 101:1 102:1 105:1 106:1 107:1 108:1 
0 0.01 0.01 0 0.01 0 0 0 0 0.01 0 0 0 0 0 0 0 0 0 0 0 0 0 0 0 19:1 20:1 21:1 22:1 26:1 27:1 30:1 31:1 33:1 34:1 39:1 40:1 41:1 48:1 49:1 56:1 57:1 64:1 65:1 72:1 73:1 80:1 81:1 88:1 89:1 95:1 96:1 97:1 98:1 102:1 103:1 106:1 107:1 108:1 109:1 110:1 
0 0.01 0.01 0 0.01 0 0 0 0 0.01 0 0 0 0 0 0 0 0 0 0 0 0 0 0 0 17:1 18:1 19:1 20:1 25:1 28:1 29:1 30:1 33:1 35:1 36:1 38:1 39:1 42:1 43:1 47:1 48:1 50:1 56:1 57:1 58:1 64:1 65:1 72:1 73:1 80:1 81:1 88:1 89:1 95:1 96:1 97:1 98:1 101:1 102:1 103:1 107:1 108:1 109:1 
0 0.01 0.01 0 0.01 0 0 0 0 0.01 0 0 0 0 0 0 0 0 0 0 0 0 0 0 0 20:1 21:1 22:1 23:1 27:1 28:1 31:1 32:1 35:1 40:1 42:1 43:1 48:1 49:1 50:1 56:1 57:1 64:1 65:1 72:1 73:1 79:1 80:1 81:1 87:1 89:1 94:1 95:1 97:1 98:1 101:1 102:1 106:1 107:1 108:1 109:1 
0 0.01 0.01 0 0.01 0 0 0 0 0.01 0 0 0 0 0 0 0 0 0 0 0 0 0 0 0 29:1 30:1 31:1 35:1 36:1 37:1 39:1 40:1 43:1 48:1 50:1 51:1 56:1 57:1 58:1 64:1 65:1 72:1 73:1 80:1 81:1 87:1 88:1 89:1 90:1 93:1 94:1 95:1 98:1 99:1 100:1 101:1 
0 0 0.01 0 0.01 0 0 0 0 0.01 0 0 0 0 0 0 0 0 0 0 0 0 0 0 0 19:1 20:1 21:1 22:1 27:1 30:1 31:1 34:1 35:1 39:1 40:1 41:1 42:1 48:1 49:1 56:1 57:1 64:1 65:1 72:1 73:1 80:1 81:1 88:1 89:1 95:1 96:1 97:1 101:1 102:1 103:1 105:1 106:1 107:1 108:1 109:1 
0 0.01 0.01 0 0.01 0 0 0 0 0.01 0 0 0 0 0 0 0 0 0 0 0 0 0 0 0 27:1 28:1 29:1 30:1 31:1 34:1 35:1 39:1 41:1 42:1 47:1 48:1 49:1 56:1 57:1 64:1 65:1 72:1 73:1 80:1 81:1 82:1 88:1 89:1 90:1 91:1 95:1 96:1 99:1 100:1 101:1 102:1 103:1 
0 0.01 0.01 0.01 0.01 0 0 0 0 0.01 0 0 0 0 0 0 0 0 0 0 0 0 0 0 0 9:1 10:1 11:1 12:1 20:1 21:1 22:1 30:1 31:1 34:1 35:1 39:1 40:1 42:1 48:1 49:1 50:1 56:1 57:1 64:1 65:1 72:1 73:1 80:1 81:1 88:1 89:1 96:1 97:1 102:1 103:1 104:1 105:1 109:1 110:1 113:1 114:1 115:1 116:1 117:1 
0.01 0.01 0.01 0 0.01 0.01 0 0.01 0.01 0.01 0 0.01 0 0 0 0 0.01 0 0 0 0 0 0 0 0 36:1 37:1 38:1 39:1 42:1 43:1 44:1 47:1 48:1 49:1 50:1 56:1 57:1 64:1 65:1 72:1 73:1 78:1 79:1 80:1 81:1 82:1 83:1 85:1 86:1 91:1 92:1 93:1 
0.01 0.01 0.01 0.01 0.01 0.01 0.01 0.01 0.01 0.01 0.01 0.01 0.01 0.01 0.01 0.01 0.01 0.01 0.01 0.01 0 0 0.01 0 0.01 7:1 14:1 15:1 22:1 29:1 30:1 36:1 37:1 39:1 43:1 44:1 47:1 51:1 55:1 58:1 59:1 63:1 66:1 71:1 74:1 79:1 82:1 86:1 87:1 90:1 94:1 98:1 101:1 102:1 106:1 109:1 114:1 116:1 117:1 122:1 123:1 124:1 
0.01 0.01 0.01 0.01 0.01 0.01 0.01 0.01 0.01 0.01 0.01 0.01 0.01 0.01 0.01 0.01 0.01 0.01 0.01 0.01 0.01 0 0.01 0 0.01 7:1 8:1 15:1 22:1 24:1 30:1 32:1 37:1 40:1 45:1 48:1 52:1 53:1 56:1 60:1 64:1 67:1 68:1 71:1 72:1 75:1 79:1 82:1 87:1 90:1 94:1 97:1 102:1 105:1 109:1 110:1 113:1 117:1 121:1 122:1 123:1 124:1 
0 0 0.01 0 0.01 0 0 0 0 0.01 0 0 0 0 0 0 0 0 0 0 0 0 0 0 0 12:1 13:1 14:1 19:1 20:1 21:1 22:1 23:1 26:1 27:1 29:1 31:1 34:1 40:1 41:1 42:1 48:1 49:1 56:1 57:1 64:1 65:1 72:1 73:1 80:1 81:1 87:1 88:1 89:1 94:1 95:1 97:1 101:1 102:1 105:1 107:1 108:1 109:1 113:1 114:1 115:1 
0.01 0.01 0.01 0 0.01 0.01 0 0.01 0.01 0.01 0 0.01 0 0.01 0 0 0.01 0 0.01 0 0 0 0 0 0 36:1 37:1 38:1 39:1 43:1 44:1 45:1 46:1 47:1 48:1 50:1 51:1 56:1 58:1 64:1 66:1 72:1 73:1 79:1 80:1 81:1 85:1 86:1 87:1 89:1 90:1 91:1 92:1 93:1 
0.01 0.01 0.01 0 0.01 0.01 0 0.01 0.01 0.01 0.01 0.01 0 0.01 0 0 0.01 0 0.01 0 0 0 0 0 0 35:1 36:1 37:1 39:1 42:1 47:1 48:1 49:1 50:1 56:1 57:1 64:1 65:1 72:1 73:1 79:1 80:1 81:1 86:1 87:1 89:1 90:1 91:1 92:1 93:1 94:1 
0.01 0.01 0.01 0.01 0.01 0.01 0 0.01 0.01 0.01 0.01 0.01 0 0.01 0.01 0.01 0.01 0 0.01 0 0 0 0 0 0.01 24:1 32:1 40:1 44:1 45:1 46:1 47:1 48:1 51:1 52:1 55:1 56:1 59:1 64:1 66:1 67:1 72:1 73:1 74:1 80:1 81:1 87:1 88:1 89:1 94:1 95:1 97:1 100:1 101:1 102:1 105:1 106:1 107:1 108:1 
0.01 0.01 0.01 0.01 0.01 0.01 0.01 0.01 0.01 0.01 0.01 0.01 0 0.01 0.01 0 0.01 0 0.01 0 0 0.01 0 0 0.01 4:1 5:1 6:1 12:1 13:1 14:1 19:1 20:1 21:1 22:1 23:1 27:1 29:1 31:1 34:1 35:1 37:1 39:1 42:1 47:1 50:1 55:1 58:1 63:1 66:1 71:1 74:1 79:1 82:1 87:1 90:1 95:1 98:1 102:1 103:1 106:1 110:1 114:1 117:1 118:1 122:1 123:1 124:1 125:1 
0 0.01 0.01 0 0.01 0.01 0 0 0 0.01 0 0.01 0 0 0 0 0.01 0 0 0 0 0 0 0 0 5:1 6:1 7:1 12:1 13:1 14:1 15:1 16:1 20:1 24:1 28:1 32:1 35:1 40:1 43:1 48:1 50:1 51:1 56:1 58:1 64:1 65:1 66:1 72:1 73:1 79:1 80:1 81:1 87:1 89:1 94:1 95:1 97:1 102:1 105:1 109:1 110:1 113:1 117:1 121:1 122:1 123:1 124:1 125:1 
0.01 0.01 0.01 0 0.01 0.01 0 0.01 0 0.01 0 0.01 0 0 0 0 0 0 0 0 0 0 0 0 0 35:1 36:1 37:1 38:1 41:1 42:1 44:1 46:1 47:1 49:1 52:1 55:1 56:1 57:1 64:1 65:1 72:1 73:1 80:1 81:1 82:1 83:1 87:1 88:1 91:1 92:1 93:1 94:1 95:1 
0.01 0.01 0.01 0.01 0.01 0.01 0.01 0.01 0.01 0.01 0.01 0.01 0.01 0.01 0.01 0.01 0.01 0.01 0.01 0 0 0 0 0 0.01 43:1 44:1 45:1 46:1 47:1 49:1 50:1 51:1 55:1 56:1 57:1 64:1 65:1 72:1 73:1 74:1 78:1 79:1 80:1 82:1 83:1 84:1 85:1 86:1 
0.01 0.01 0.01 0.01 0.01 0.01 0 0.01 0.01 0.01 0.01 0.01 0 0.01 0.01 0 0.01 0 0.01 0 0 0 0 0 0 20:1 28:1 29:1 36:1 37:1 43:1 44:1 45:1 46:1 50:1 51:1 54:1 55:1 57:1 58:1 63:1 64:1 65:1 72:1 73:1 80:1 81:1 88:1 89:1 95:1 96:1 97:1 98:1 99:1 102:1 103:1 107:1 108:1 109:1 110:1 
0 0.01 0.01 0 0.01 0 0 0 0 0.01 0 0.01 0 0 0 0 0 0 0 0 0 0 0 0 0 34:1 35:1 36:1 37:1 38:1 42:1 46:1 47:1 48:1 50:1 51:1 52:1 56:1 57:1 58:1 64:1 65:1 72:1 73:1 79:1 80:1 81:1 86:1 87:1 89:1 90:1 91:1 92:1 93:1 94:1 
0.01 0.01 0.01 0 0.01 0.01 0 0.01 0.01 0.01 0 0.01 0 0.01 0 0 0.01 0 0 0 0 0 0 0 0 30:1 36:1 38:1 39:1 43:1 44:1 47:1 48:1 50:1 51:1 56:1 57:1 58:1 64:1 65:1 72:1 73:1 80:1 81:1 88:1 89:1 90:1 95:1 96:1 98:1 99:1 100:1 101:1 102:1 103:1 
0.01 0.01 0.01 0 0.01 0.01 0 0.01 0 0.01 0 0.01 0 0 0 0 0.01 0 0 0 0 0 0 0 0 35:1 36:1 37:1 38:1 42:1 43:1 46:1 47:1 48:1 50:1 51:1 56:1 57:1 58:1 64:1 65:1 72:1 73:1 79:1 80:1 81:1 84:1 85:1 86:1 87:1 89:1 90:1 91:1 92:1 
0.01 0.01 0.01 0.01 0.01 0.01 0.01 0.01 0.01 0.01 0.01 0.01 0 0.01 0.01 0 0.01 0 0.01 0 0.01 0 0 0 0 1:1 2:1 3:1 4:1 11:1 12:1 18:1 20:1 21:1 26:1 29:1 33:1 34:1 37:1 38:1 41:1 46:1 49:1 54:1 57:1 63:1 65:1 71:1 72:1 73:1 80:1 81:1 88:1 89:1 96:1 97:1 98:1 103:1 104:1 106:1 111:1 114:1 115:1 118:1 119:1 123:1 124:1 125:1 126:1 
0 0.01 0.01 0 0.01 0 0 0 0 0.01 0 0 0 0 0 0 0 0 0 0 0 0 0 0 0 20:1 21:1 22:1 23:1 24:1 27:1 28:1 32:1 34:1 35:1 36:1 40:1 41:1 42:1 48:1 49:1 56:1 57:1 64:1 65:1 72:1 73:1 80:1 81:1 88:1 89:1 95:1 96:1 97:1 98:1 99:1 103:1 107:1 108:1 109:1 110:1 111:1 
0 0.01 0.01 0 0.01 0 0 0 0 0.01 0 0 0 0 0 0 0 0 0 0 0 0 0 0 0 17:1 18:1 19:1 20:1 21:1 22:1 25:1 26:1 30:1 31:1 34:1 35:1 39:1 41:1 47:1 48:1 49:1 56:1 57:1 64:1 65:1 72:1 73:1 80:1 81:1 87:1 88:1 89:1 94:1 95:1 97:1 101:1 102:1 105:1 106:1 107:1 108:1 109:1 
0 0 0.01 0 0.01 0 0 0 0 0.01 0 0 0 0 0 0 0 0 0 0 0 0 0 0 0 27:1 28:1 29:1 30:1 34:1 35:1 37:1 38:1 39:1 41:1 42:1 46:1 47:1 48:1 49:1 56:1 57:1 64:1 65:1 72:1 73:1 80:1 81:1 87:1 88:1 89:1 90:1 94:1 95:1 98:1 99:1 100:1 101:1 102:1 
0 0.01 0.01 0 0.01 0 0 0 0 0.01 0 0 0 0 0 0 0 0 0 0 0 0 0 0 0 30:1 36:1 37:1 38:1 39:1 40:1 42:1 43:1 44:1 48:1 50:1 56:1 57:1 58:1 64:1 65:1 72:1 73:1 79:1 80:1 81:1 86:1 87:1 89:1 90:1 92:1 93:1 94:1 98:1 99:1 100:1 
0.01 0.01 0.01 0.01 0.01 0.01 0.01 0.01 0.01 0.01 0.01 0.01 0.01 0.01 0.01 0.01 0.01 0.01 0.01 0.01 0 0 0.01 0 0.01 30:1 31:1 32:1 37:1 38:1 40:1 45:1 46:1 48:1 52:1 53:1 54:1 56:1 59:1 60:1 62:1 63:1 66:1 67:1 68:1 70:1 73:1 74:1 77:1 78:1 81:1 84:1 85:1 89:1 91:1 92:1 97:1 98:1 99:1 
0 0.01 0.01 0 0.01 0 0 0 0 0.01 0 0 0 0 0 0 0 0 0 0 0 0 0 0 0 12:1 13:1 19:1 20:1 21:1 22:1 27:1 30:1 31:1 34:1 35:1 39:1 40:1 41:1 42:1 48:1 49:1 56:1 57:1 64:1 65:1 72:1 73:1 80:1 81:1 88:1 89:1 96:1 97:1 103:1 104:1 105:1 106:1 109:1 110:1 111:1 114:1 115:1 116:1 117:1 
0 0 0.01 0 0.01 0 0 0 0 0.01 0 0 0 0 0 0 0 0 0 0 0 0 0 0 0 21:1 22:1 23:1 27:1 28:1 29:1 31:1 32:1 35:1 39:1 40:1 42:1 43:1 48:1 49:1 50:1 56:1 57:1 64:1 65:1 72:1 73:1 80:1 81:1 87:1 88:1 89:1 94:1 95:1 97:1 98:1 101:1 102:1 106:1 107:1 108:1 109:1 
0.01 0.01 0.01 0 0.01 0.01 0 0.01 0 0.01 0 0.01 0 0 0 0 0 0 0 0 0 0 0 0 0 35:1 36:1 37:1 43:1 45:1 46:1 47:1 48:1 49:1 50:1 51:1 52:1 53:1 54:1 55:1 56:1 57:1 58:1 64:1 65:1 72:1 73:1 80:1 81:1 82:1 87:1 90:1 91:1 92:1 93:1 94:1 95:1 
0 0.01 0.01 0 0.01 0 0 0 0 0.01 0 0 0 0 0 0 0 0 0 0 0 0 0 0 0 28:1 29:1 30:1 31:1 32:1 35:1 36:1 37:1 40:1 42:1 43:1 45:1 48:1 49:1 50:1 56:1 57:1 64:1 65:1 72:1 73:1 79:1 80:1 81:1 87:1 89:1 94:1 95:1 97:1 98:1 99:1 100:1 101:1 102:1 
0 0.01 0.01 0 0.01 0.01 0 0.01 0.01 0.01 0 0.01 0 0 0 0 0.01 0 0 0 0 0 0 0 0 36:1 37:1 38:1 39:1 40:1 42:1 43:1 44:1 48:1 49:1 50:1 56:1 57:1 64:1 65:1 71:1 72:1 73:1 79:1 81:1 85:1 86:1 87:1 89:1 90:1 91:1 92:1 93:1 
0 0.01 0.01 0 0.01 0 0 0 0 0.01 0 0 0 0 0 0 0.01 0 0 0 0 0 0 0 0 27:1 28:1 29:1 30:1 31:1 32:1 34:1 35:1 40:1 41:1 42:1 48:1 49:1 56:1 57:1 64:1 65:1 72:1 73:1 80:1 81:1 87:1 88:1 89:1 90:1 93:1 94:1 95:1 98:1 99:1 100:1 101:1 
0.01 0.01 0.01 0 0.01 0.01 0 0.01 0.01 0.01 0 0.01 0 0 0 0 0.01 0 0.01 0 0 0 0 0 0 6:1 7:1 13:1 14:1 15:1 20:1 21:1 23:1 24:1 28:1 31:1 32:1 35:1 36:1 40:1 43:1 48:1 50:1 51:1 56:1 58:1 64:1 66:1 72:1 73:1 74:1 80:1 81:1 88:1 89:1 96:1 97:1 103:1 104:1 105:1 110:1 111:1 113:1 117:1 118:1 121:1 122:1 123:1 124:1 125:1 
0.01 0.01 0.01 0 0.01 0.01 0 0.01 0.01 0.01 0 0.01 0 0.01 0 0 0.01 0 0.01 0 0 0 0 0 0 35:1 41:1 42:1 43:1 44:1 45:1 46:1 49:1 54:1 55:1 56:1 57:1 64:1 65:1 72:1 73:1 80:1 81:1 82:1 83:1 84:1 86:1 87:1 88:1 92:1 93:1 94:1 
0 0.01 0.01 0 0.01 0.01 0 0.01 0.01 0.01 0 0.01 0 0 0 0 0.01 0 0 0 0 0 0 0 0 20:1 21:1 22:1 23:1 24:1 27:1 28:1 32:1 34:1 40:1 41:1 42:1 48:1 49:1 56:1 57:1 64:1 65:1 72:1 73:1 80:1 81:1 88:1 89:1 96:1 97:1 98:1 99:1 100:1 101:1 102:1 103:1 104:1 106:1 
0.01 0.01 0.01 0.01 0.01 0.01 0.01 0.01 0.01 0.01 0.01 0.01 0.01 0.01 0.01 0.01 0.01 0.01 0.01 0.01 0.01 0 0.01 0.01 0.01 5:1 6:1 13:1 14:1 15:1 23:1 26:1 31:1 34:1 39:1 42:1 47:1 50:1 55:1 58:1 63:1 66:1 71:1 74:1 79:1 82:1 87:1 90:1 95:1 98:1 102:1 103:1 106:1 110:1 114:1 118:1 123:1 124:1 125:1 126:1 
0 0.01 0.01 0 0.01 0 0 0 0 0.01 0 0 0 0 0 0 0 0 0 0 0 0 0 0 0 29:1 30:1 35:1 36:1 37:1 38:1 39:1 42:1 43:1 44:1 45:1 46:1 50:1 51:1 52:1 54:1 55:1 57:1 58:1 63:1 64:1 65:1 72:1 73:1 80:1 81:1 87:1 88:1 89:1 92:1 93:1 94:1 95:1 97:1 98:1 99:1 100:1 
0.01 0.01 0.01 0.01 0.01 0.01 0.01 0.01 0.01 0.01 0.01 0.01 0.01 0.01 0.01 0.01 0.01 0.01 0.01 0.01 0.01 0.01 0.01 0.01 0.01 22:1 23:1 24:1 29:1 30:1 32:1 35:1 36:1 37:1 40:1 43:1 48:1 51:1 56:1 58:1 59:1 64:1 66:1 71:1 72:1 73:1 74:1 78:1 79:1 81:1 85:1 86:1 89:1 92:1 93:1 97:1 99:1 100:1 105:1 106:1 107:1 
-0.01 0.01 0.01 0.01 0.01 0.01 0.01 0.01 0.01 0.01 0.01 0.01 0.01 0.01 0.01 0.01 0.01 0.01 0.01 0.01 0 0 0 0 0.01 50:1 51:1 52:1 53:1 54:1 55:1 57:1 58:1 60:1 61:1 63:1 64:1 65:1 67:1 68:1 72:1 73:1 75:1 76:1 80:1 
-0.01 0.01 0.01 0.01 0.01 0.01 0.01 0.01 0.01 0.01 0.01 0.01 0.01 0.01 0.01 0.01 0.01 0.01 0.01 0.01 0 0 0.01 0 0.01 49:1 50:1 51:1 54:1 55:1 57:1 59:1 61:1 62:1 63:1 65:1 67:1 68:1 69:1 71:1 73:1 76:1 79:1 80:1 
-0.01 0.01 0.01 0.01 0.01 0.01 0.01 0.01 0.01 0.01 0.01 0.01 0.01 0.01 0.01 0.01 0.01 0.01 0.01 0.01 0 0 0 0.01 0.01 47:1 49:1 52:1 53:1 55:1 56:1 57:1 59:1 60:1 61:1 62:1 63:1 64:1 65:1 66:1 67:1 69:1 70:1 72:1 74:1 75:1 77:1 78:1 80:1 82:1 
-0.01 0.01 0.01 0.01 0.01 0.01 0.01 0.01 0.01 0.01 0.01 0.01 0.01 0.01 0.01 0.01 0.01 0.01 0.01 0.01 0 0 0.01 0 0.01 41:1 49:1 52:1 53:1 55:1 57:1 59:1 60:1 61:1 63:1 64:1 65:1 67:1 69:1 70:1 71:1 72:1 73:1 74:1 75:1 77:1 78:1 80:1 81:1 82:1 
-0.01 0.01 0.01 0.01 0.01 0.01 0.01 0.01 0.01 0.01 0.01 0.01 0.01 0.01 0.01 0.01 0.01 0.01 0.01 0.01 0.01 0.01 0.01 0 0.01 49:1 57:1 58:1 59:1 60:1 61:1 62:1 63:1 65:1 66:1 69:1 71:1 72:1 73:1 
-0.01 0.01 0.01 0.01 0.01 0.01 0.01 0.01 0.01 0.01 0.01 0.01 0.01 0.01 0.01 0.01 0.01 0.01 0.01 0.01 0.01 0 0.01 0 0.01 49:1 57:1 58:1 59:1 60:1 61:1 62:1 63:1 64:1 65:1 68:1 69:1 72:1 80:1 
-0.01 0.01 0.01 0.01 0.01 0.01 0.01 0.01 0.01 0.01 0.01 0.01 0 0.01 0.01 0.01 0.01 0.01 0.01 0 0 0 0 0 0.01 49:1 51:1 52:1 54:1 55:1 57:1 58:1 59:1 60:1 61:1 62:1 63:1 64:1 65:1 66:1 69:1 72:1 74:1 77:1 80:1 
-0.01 0.01 0.01 0.01 0.01 0.01 0.01 0.01 0.01 0.01 0.01 0.01 0.01 0.01 0.01 0.01 0.01 0.01 0.01 0.01 0 0 0.01 0 0.01 49:1 53:1 54:1 55:1 57:1 58:1 59:1 60:1 61:1 63:1 64:1 65:1 67:1 68:1 72:1 73:1 75:1 80:1 
-0.01 0.01 0.01 0.01 0.01 0.01 0.01 0.01 0.01 0.01 0.01 0.01 0.01 0.01 0.01 0.01 0.01 0.01 0.01 0.01 0 0 0.01 0 0.01 50:1 51:1 52:1 54:1 55:1 56:1 57:1 58:1 60:1 61:1 62:1 64:1 65:1 68:1 69:1 72:1 73:1 
-0.01 0.01 0.01 0.01 0.01 0.01 0.01 0.01 0.01 0.01 0.01 0.01 0.01 0.01 0.01 0.01 0.01 0.01 0.01 0.01 0 0 0.01 0 0.01 51:1 52:1 54:1 55:1 56:1 58:1 59:1 60:1 61:1 62:1 64:1 65:1 66:1 69:1 72:1 73:1 77:1 80:1 
-0.01 0.01 0.01 0 0.01 0.01 0 0.01 0.01 0.01 0 0.01 0 0.01 0 0 0.01 0 0.01 0 0 0 0 0 0 41:1 46:1 47:1 49:1 50:1 51:1 52:1 53:1 54:1 55:1 57:1 58:1 60:1 61:1 63:1 65:1 66:1 68:1 69:1 71:1 72:1 73:1 74:1 77:1 80:1 82:1 88:1 
-0.01 0.01 0.01 0 0.01 0.01 0 0.01 0.01 0.01 0.01 0.01 0 0.01 0.01 0 0.01 0 0.01 0 0 0 0 0 0 49:1 50:1 51:1 53:1 54:1 56:1 57:1 58:1 59:1 60:1 61:1 62:1 63:1 64:1 65:1 67:1 68:1 70:1 71:1 72:1 73:1 75:1 76:1 78:1 79:1 
-0.01 0.01 0.01 0.01 0.01 0.01 0.01 0.01 0.01 0.01 0.01 0.01 0.01 0.01 0.01 0.01 0.01 0.01 0.01 0.01 0 0 0.01 0 0.01 42:1 47:1 50:1 54:1 55:1 57:1 58:1 59:1 61:1 62:1 63:1 65:1 67:1 68:1 69:1 71:1 72:1 73:1 80:1 81:1 88:1 
-0.01 0.01 0.01 0.01 0.01 0.01 0.01 0.01 0.01 0.01 0.01 0.01 0.01 0.01 0.01 0.01 0.01 0.01 0.01 0.01 0.01 0.01 0.01 0 0.01 42:1 49:1 50:1 53:1 54:1 57:1 58:1 60:1 61:1 62:1 65:1 66:1 67:1 68:1 70:1 73:1 78:1 79:1 81:1 87:1 88:1 
-0.01 0.01 0.01 0 0.01 0.01 0 0.01 0.01 0.01 0 0.01 0 0 0 0 0.01 0 0 0 0 0 0 0 0 33:1 34:1 36:1 37:1 41:1 44:1 45:1 49:1 51:1 52:1 53:1 54:1 55:1 56:1 57:1 58:1 59:1 60:1 61:1 62:1 64:1 65:1 66:1 68:1 69:1 70:1 72:1 73:1 74:1 76:1 77:1 80:1 81:1 84:1 88:1 89:1 96:1 
-0.01 0.01 0.01 0 0.01 0.01 0 0.01 0.01 0.01 0 0.01 0 0.01 0 0 0.01 0 0.01 0 0 0 0 0 0 41:1 44:1 47:1 48:1 49:1 51:1 52:1 54:1 55:1 56:1 57:1 58:1 59:1 60:1 61:1 62:1 64:1 65:1 66:1 68:1 69:1 71:1 72:1 73:1 76:1 79:1 81:1 87:1 88:1 
-0.01 0.01 0.01 0.01 0.01 0.01 0.01 0.01 0.01 0.01 0.01 0.01 0.01 0.01 0.01 0.01 0.01 0.01 0.01 0.01 0 0 0.01 0 0.01 49:1 50:1 51:1 52:1 53:1 54:1 55:1 56:1 57:1 60:1 61:1 64:1 65:1 68:1 72:1 73:1 76:1 80:1 
-0.01 0.01 0.01 0.01 0.01 0.01 0.01 0.01 0.01 0.01 0.01 0.01 0.01 0.01 0.01 0.01 0.01 0.01 0.01 0.01 0 0 0 0 0.01 41:1 42:1 43:1 46:1 49:1 51:1 52:1 53:1 54:1 55:1 56:1 57:1 60:1 64:1 65:1 68:1 72:1 73:1 76:1 80:1 81:1 88:1 
-0.01 0.01 0.01 0 0.01 0.01 0 0.01 0.01 0.01 0 0.01 0 0.01 0 0 0.01 0 0.01 0 0 0 0 0 0 43:1 44:1 45:1 47:1 48:1 50:1 51:1 52:1 53:1 54:1 55:1 56:1 58:1 59:1 61:1 62:1 64:1 65:1 66:1 68:1 69:1 72:1 73:1 76:1 77:1 80:1 81:1 88:1 
-0.01 0.01 0.01 0 0.01 0.01 0 0.01 0.01 0.01 0 0.01 0 0.01 0 0 0.01 0 0.01 0 0 0 0 0 0 43:1 44:1 45:1 47:1 48:1 50:1 51:1 53:1 54:1 55:1 56:1 57:1 58:1 60:1 61:1 62:1 64:1 65:1 66:1 68:1 69:1 72:1 73:1 76:1 80:1 81:1 88:1 
-0.01 0.01 0.01 0.01 0.01 0.01 0 0.01 0.01 0.01 0.01 0.01 0 0.01 0.01 0 0.01 0.01 0.01 0 0 0 0 0 0.01 44:1 45:1 47:1 48:1 49:1 51:1 52:1 53:1 54:1 55:1 56:1 57:1 59:1 61:1 62:1 64:1 65:1 66:1 67:1 69:1 70:1 72:1 74:1 80:1 82:1 
-0.01 0.01 0.01 0.01 0.01 0.01 0.01 0.01 0.01 0.01 0.01 0.01 0 0.01 0.01 0.01 0.01 0 0.01 0 0 0 0 0 0.01 47:1 48:1 49:1 51:1 52:1 54:1 55:1 56:1 57:1 58:1 59:1 60:1 61:1 62:1 64:1 66:1 67:1 69:1 70:1 72:1 74:1 77:1 80:1 82:1 
-0.01 0.01 0.01 0.01 0.01 0.01 0.01 0.01 0.01 0.01 0.01 0.01 0.01 0.01 0.01 0.01 0.01 0.01 0.01 0.01 0.01 0.01 0.01 0 0.01 24:1 31:1 32:1 34:1 35:1 39:1 40:1 42:1 43:1 47:1 50:1 51:1 55:1 58:1 59:1 63:1 65:1 66:1 67:1 70:1 71:1 73:1 75:1 78:1 79:1 81:1 83:1 86:1 87:1 89:1 91:1 92:1 94:1 95:1 96:1 97:1 100:1 101:1 104:1 105:1 
-0.01 0.01 0.01 0.01 0.01 0.01 0.01 0.01 0.01 0.01 0.01 0.01 0 0.01 0.01 0.01 0.01 0.01 0.01 0.01 0 0 0.01 0 0.01 34:1 35:1 38:1 39:1 42:1 43:1 46:1 47:1 49:1 50:1 51:1 53:1 54:1 55:1 57:1 59:1 61:1 63:1 65:1 67:1 68:1 69:1 71:1 73:1 75:1 76:1 79:1 81:1 83:1 84:1 87:1 89:1 91:1 92:1 95:1 96:1 99:1 104:1 
-0.01 0.01 0.01 0.01 0.01 0.01 0.01 0.01 0.01 0.01 0.01 0.01 0.01 0.01 0.01 0.01 0.01 0.01 0.01 0.01 0.01 0 0.01 0 0.01 37:1 38:1 39:1 45:1 47:1 50:1 51:1 52:1 53:1 55:1 56:1 57:1 58:1 60:1 61:1 64:1 65:1 66:1 69:1 72:1 73:1 74:1 77:1 82:1 85:1 90:1 
-0.01 0.01 0.01 0.01 0.01 0.01 0 0.01 0.01 0.01 0.01 0.01 0 0.01 0.01 0 0.01 0 0.01 0 0 0 0.01 0 0.01 37:1 38:1 39:1 41:1 42:1 44:1 45:1 47:1 49:1 50:1 51:1 52:1 55:1 56:1 57:1 60:1 64:1 65:1 68:1 69:1 72:1 73:1 76:1 77:1 80:1 81:1 89:1 
-0.01 0.01 0.01 0.01 0.01 0.01 0.01 0.01 0.01 0.01 0.01 0.01 0.01 0.01 0.01 0.01 0.01 0.01 0.01 0.01 0 0 0.01 0 0.01 49:1 54:1 55:1 57:1 58:1 59:1 62:1 63:1 65:1 66:1 67:1 68:1 69:1 70:1 71:1 72:1 73:1 76:1 77:1 80:1 
-0.01 0.01 0.01 0.01 0.01 0.01 0.01 0.01 0.01 0.01 0.01 0.01 0.01 0.01 0.01 0.01 0.01 0.01 0.01 0.01 0 0 0.01 0 0.01 49:1 50:1 53:1 54:1 57:1 58:1 59:1 60:1 61:1 62:1 63:1 65:1 66:1 67:1 68:1 71:1 73:1 74:1 79:1 80:1 
-0.01 0.01 0.01 0.01 0.01 0.01 0.01 0.01 0.01 0.01 0.01 0.01 0.01 0.01 0.01 0.01 0.01 0.01 0.01 0.01 0 0 0.01 0 0.01 49:1 50:1 51:1 53:1 54:1 55:1 57:1 59:1 60:1 61:1 63:1 64:1 65:1 67:1 68:1 72:1 80:1 
-0.01 0.01 0.01 0.01 0.01 0.01 0.01 0.01 0.01 0.01 0.01 0.01 0.01 0.01 0.01 0.01 0.01 0.01 0.01 0.01 0.01 0 0.01 0 0.01 49:1 50:1 51:1 52:1 53:1 54:1 55:1 57:1 59:1 60:1 63:1 64:1 65:1 68:1 72:1 80:1 
-0.01 0.01 0.01 0.01 0.01 0.01 0.01 0.01 0.01 0.01 0.01 0.01 0.01 0.01 0.01 0.01 0.01 0.01 0.01 0.01 0 0.01 0.01 0.01 0.01 10:1 11:1 18:1 19:1 25:1 26:1 27:1 30:1 31:1 32:1 33:1 34:1 35:1 38:1 40:1 41:1 43:1 45:1 46:1 48:1 49:1 51:1 52:1 53:1 56:1 57:1 60:1 61:1 64:1 65:1 68:1 69:1 72:1 73:1 76:1 77:1 80:1 81:1 84:1 88:1 89:1 92:1 96:1 97:1 100:1 104:1 105:1 112:1 113:1 120:1 
-0.01 0.01 0.01 0 0.01 0.01 0 0.01 0.01 0.01 0 0.01 0 0 0 0 0.01 0 0.01 0 0 0 0 0 0 31:1 32:1 34:1 35:1 38:1 39:1 40:1 41:1 42:1 43:1 44:1 45:1 46:1 48:1 49:1 50:1 52:1 53:1 56:1 57:1 58:1 60:1 61:1 64:1 65:1 66:1 68:1 69:1 72:1 73:1 76:1 80:1 81:1 84:1 88:1 89:1 92:1 96:1 97:1 
-0.01 0.01 0.01 0.01 0.01 0.01 0.01 0.01 0.01 0.01 0.01 0.01 0.01 0.01 0.01 0.01 0.01 0.01 0.01 0.01 0 0.01 0.01 0 0.01 33:1 35:1 36:1 39:1 40:1 41:1 42:1 43:1 44:1 45:1 46:1 47:1 48:1 49:1 50:1 53:1 54:1 56:1 58:1 61:1 62:1 64:1 66:1 69:1 70:1 72:1 74:1 77:1 80:1 82:1 85:1 88:1 90:1 93:1 
-0.01 0.01 0.01 0.01 0.01 0.01 0.01 0.01 0.01 0.01 0.01 0.01 0.01 0.01 0.01 0.01 0.01 0.01 0.01 0.01 0 0 0.01 0 0.01 51:1 52:1 55:1 56:1 58:1 59:1 60:1 62:1 63:1 64:1 65:1 66:1 68:1 69:1 70:1 72:1 73:1 74:1 80:1 
-0.01 0.01 0.01 0 0.01 0.01 0 0.01 0.01 0.01 0.01 0.01 0 0.01 0 0 0.01 0 0.01 0 0 0 0 0 0 41:1 44:1 46:1 49:1 51:1 52:1 54:1 55:1 57:1 59:1 60:1 62:1 63:1 65:1 66:1 67:1 68:1 69:1 70:1 71:1 72:1 73:1 74:1 77:1 80:1 81:1 82:1 
-0.01 0.01 0.01 0 0.01 0.01 0 0.01 0.01 0.01 0 0.01 0 0.01 0 0 0.01 0 0.01 0 0 0 0 0 0 36:1 37:1 40:1 44:1 45:1 47:1 48:1 49:1 51:1 52:1 53:1 55:1 56:1 57:1 59:1 61:1 62:1 63:1 64:1 65:1 66:1 69:1 70:1 72:1 73:1 74:1 77:1 78:1 80:1 81:1 85:1 88:1 89:1 96:1 
-0.01 0.01 0.01 0.01 0.01 0.01 0.01 0.01 0.01 0.01 0.01 0.01 0.01 0.01 0.01 0.01 0.01 0.01 0.01 0.01 0 0 0 0 0.01 33:1 41:1 49:1 50:1 51:1 57:1 58:1 59:1 60:1 62:1 63:1 65:1 68:1 69:1 70:1 71:1 73:1 76:1 77:1 79:1 80:1 81:1 84:1 85:1 88:1 92:1 93:1 
-0.01 0.01 0.01 0 0.01 0.01 0 0.01 0.01 0.01 0.01 0.01 0 0.01 0.01 0 0.01 0 0.01 0 0 0 0 0 0.01 49:1 50:1 51:1 52:1 54:1 55:1 56:1 57:1 58:1 60:1 61:1 62:1 64:1 65:1 68:1 69:1 72:1 73:1 76:1 80:1 
-0.01 0.01 0.01 0 0.01 0.01 0 0.01 0.01 0.01 0 0.01 0 0.01 0 0 0.01 0 0.01 0 0 0 0 0 0 33:1 34:1 35:1 41:1 42:1 43:1 46:1 47:1 48:1 49:1 50:1 51:1 53:1 54:1 56:1 57:1 58:1 59:1 60:1 61:1 64:1 65:1 67:1 68:1 72:1 73:1 80:1 81:1 88:1 89:1 
-0.01 0.01 0.01 0 0.01 0.01 0 0.01 0.01 0.01 0 0.01 0 0 0 0 0.01 0 0.01 0 0 0 0 0 0 33:1 41:1 43:1 44:1 46:1 47:1 49:1 50:1 51:1 52:1 53:1 54:1 55:1 56:1 57:1 58:1 60:1 61:1 64:1 65:1 66:1 68:1 72:1 73:1 74:1 76:1 80:1 81:1 84:1 88:1 89:1 96:1 
-0.01 0.01 0.01 0.01 0.01 0.01 0.01 0.01 0.01 0.01 0.01 0.01 0 0.01 0 0.01 0.01 0.01 0.01 0 0 0 0 0 0.01 17:1 19:1 20:1 25:1 26:1 27:1 28:1 31:1 32:1 33:1 34:1 36:1 38:1 39:1 40:1 41:1 42:1 44:1 46:1 48:1 49:1 50:1 52:1 54:1 56:1 57:1 60:1 61:1 62:1 64:1 65:1 68:1 69:1 72:1 73:1 76:1 77:1 80:1 81:1 84:1 85:1 88:1 89:1 92:1 96:1 104:1 112:1 
-0.01 0.01 0.01 0.01 0.01 0.01 0.01 0.01 0.01 0.01 0.01 0.01 0.01 0.01 0.01 0.01 0.01 0.01 0.01 0.01 0 0.01 0.01 0 0.01 21:1 22:1 28:1 29:1 30:1 36:1 37:1 38:1 41:1 42:1 43:1 44:1 46:1 49:1 50:1 51:1 54:1 57:1 58:1 59:1 62:1 65:1 70:1 71:1 72:1 73:1 81:1 89:1 97:1 105:1 
-0.01 0.01 0.01 0.01 0.01 0.01 0.01 0.01 0.01 0.01 0.01 0.01 0.01 0.01 0.01 0.01 0.01 0.01 0.01 0.01 0 0 0.01 0 0.01 46:1 47:1 50:1 51:1 52:1 53:1 54:1 55:1 56:1 57:1 58:1 60:1 61:1 64:1 65:1 69:1 72:1 73:1 77:1 80:1 81:1 
-0.01 0.01 0.01 0 0.01 0.01 0 0.01 0.01 0.01 0 0.01 0 0.01 0 0 0.01 0 0.01 0 0 0 0 0 0 41:1 42:1 43:1 45:1 46:1 47:1 49:1 50:1 51:1 52:1 53:1 55:1 57:1 58:1 60:1 61:1 63:1 64:1 65:1 66:1 68:1 69:1 72:1 73:1 74:1 76:1 80:1 81:1 84:1 88:1 
-0.01 0.01 0.01 0.01 0.01 0.01 0.01 0.01 0.01 0.01 0.01 0.01 0.01 0.01 0.01 0.01 0.01 0.01 0.01 0.01 0.01 0.01 0.01 0.01 0.01 49:1 50:1 51:1 54:1 55:1 57:1 59:1 60:1 61:1 62:1 63:1 65:1 71:1 72:1 73:1 
-0.01 0.01 0.01 0 0.01 0.01 0 0.01 0.01 0.01 0 0.01 0 0 0 0 0.01 0 0 0 0 0 0 0 0 42:1 44:1 45:1 47:1 48:1 49:1 50:1 51:1 52:1 53:1 54:1 55:1 56:1 57:1 58:1 59:1 60:1 61:1 62:1 64:1 65:1 66:1 68:1 69:1 72:1 73:1 76:1 77:1 80:1 84:1 88:1 
-0.01 0.01 0.01 0 0.01 0.01 0 0.01 0.01 0.01 0 0.01 0 0 0 0 0.01 0 0 0 0 0 0 0 0 35:1 39:1 41:1 42:1 43:1 44:1 46:1 47:1 48:1 49:1 50:1 52:1 53:1 54:1 56:1 57:1 58:1 60:1 61:1 64:1 65:1 66:1 68:1 69:1 72:1 73:1 74:1 76:1 77:1 80:1 81:1 82:1 84:1 85:1 88:1 89:1 90:1 96:1 
-0.01 0.01 0.01 0 0.01 0.01 0 0.01 0.01 0.01 0.01 0.01 0 0.01 0 0 0.01 0 0.01 0 0 0 0 0.01 0 49:1 50:1 51:1 52:1 55:1 56:1 57:1 58:1 60:1 62:1 63:1 64:1 65:1 66:1 68:1 69:1 70:1 72:1 73:1 74:1 76:1 77:1 80:1 
-0.01 0.01 0.01 0.01 0.01 0.01 0.01 0.01 0.01 0.01 0.01 0.01 0.01 0.01 0.01 0.01 0.01 0.01 0.01 0.01 0 0 0.01 0 0.01 49:1 50:1 51:1 52:1 53:1 54:1 55:1 57:1 59:1 60:1 63:1 64:1 65:1 66:1 68:1 72:1 73:1 74:1 
-0.01 0.01 0.01 0 0.01 0.01 0 0.01 0.01 0.01 0.01 0.01 0 0.01 0 0 0.01 0 0.01 0 0 0 0 0 0 46:1 47:1 48:1 49:1 50:1 51:1 53:1 54:1 56:1 57:1 58:1 59:1 60:1 61:1 64:1 65:1 68:1 69:1 72:1 73:1 76:1 80:1 81:1 84:1 88:1 
-0.01 0.01 0.01 0.01 0.01 0.01 0.01 0.01 0.01 0.01 0.01 0.01 0.01 0.01 0.01 0.01 0.01 0.01 0.01 0.01 0.01 0.01 0.01 0.01 0.01 49:1 57:1 58:1 59:1 60:1 61:1 65:1 66:1 67:1 68:1 69:1 70:1 71:1 79:1 80:1 
-0.01 0.01 0.01 0.01 0.01 0.01 0.01 0.01 0.01 0.01 0.01 0.01 0.01 0.01 0.01 0.01 0.01 0.01 0.01 0.01 0 0 0 0 0.01 37:1 38:1 39:1 42:1 43:1 44:1 45:1 47:1 48:1 49:1 50:1 52:1 53:1 56:1 57:1 60:1 64:1 65:1 68:1 72:1 73:1 76:1 80:1 81:1 84:1 88:1 89:1 92:1 96:1 
-0.01 0.01 0.01 0 0.01 0.01 0 0.01 0.01 0.01 0 0.01 0 0.01 0 0.01 0.01 0 0.01 0 0 0 0 0 0 33:1 41:1 44:1 45:1 46:1 47:1 48:1 49:1 52:1 54:1 55:1 56:1 57:1 59:1 60:1 62:1 64:1 65:1 67:1 69:1 70:1 72:1 73:1 74:1 75:1 77:1 78:1 80:1 81:1 82:1 84:1 85:1 88:1 89:1 92:1 93:1 96:1 
-0.01 0.01 0.01 0.01 0.01 0.01 0 0.01 0.01 0.01 0.01 0.01 0 0.01 0.01 0 0.01 0 0.01 0 0 0 0 0 0.01 31:1 39:1 40:1 42:1 43:1 46:1 47:1 48:1 50:1 51:1 54:1 56:1 58:1 59:1 62:1 64:1 65:1 66:1 67:1 68:1 69:1 70:1 72:1 73:1 76:1 77:1 80:1 81:1 88:1 89:1 97:1 
-0.01 0.01 0.01 0 0.01 0.01 0 0.01 0.01 0.01 0.01 0.01 0 0.01 0.01 0.01 0.01 0 0.01 0 0 0 0 0 0.01 38:1 39:1 41:1 42:1 46:1 47:1 48:1 49:1 50:1 54:1 56:1 57:1 58:1 59:1 61:1 62:1 64:1 65:1 67:1 68:1 69:1 72:1 73:1 76:1 80:1 81:1 89:1 
-0.01 0.01 0.01 0.01 0.01 0.01 0.01 0.01 0.01 0.01 0.01 0.01 0.01 0.01 0.01 0.01 0.01 0.01 0.01 0.01 0 0 0.01 0 0.01 54:1 55:1 56:1 57:1 58:1 59:1 60:1 61:1 62:1 64:1 65:1 66:1 68:1 69:1 72:1 73:1 76:1 80:1 
-0.01 0.01 0.01 0.01 0.01 0.01 0.01 0.01 0.01 0.01 0.01 0.01 0.01 0.01 0.01 0.01 0.01 0.01 0.01 0.01 0 0 0 0 0.01 49:1 50:1 51:1 52:1 54:1 57:1 58:1 60:1 62:1 63:1 64:1 65:1 68:1 69:1 70:1 72:1 73:1 76:1 77:1 80:1 
-0.01 0.01 0.01 0 0.01 0.01 0 0.01 0.01 0.01 0 0.01 0 0 0 0 0.01 0 0.01 0 0 0 0 0 0 35:1 36:1 37:1 39:1 40:1 43:1 45:1 46:1 47:1 48:1 49:1 51:1 53:1 54:1 56:1 57:1 58:1 59:1 61:1 62:1 64:1 65:1 66:1 69:1 72:1 73:1 74:1 77:1 80:1 81:1 82:1 84:1 85:1 88:1 89:1 95:1 96:1 
-0.01 0.01 0.01 0 0.01 0.01 0 0.01 0.01 0.01 0.01 0.01 0 0.01 0 0 0.01 0 0.01 0 0 0 0 0 0.01 41:1 49:1 51:1 52:1 57:1 58:1 59:1 60:1 62:1 63:1 65:1 66:1 68:1 70:1 71:1 72:1 73:1 74:1 76:1 77:1 78:1 80:1 81:1 82:1 85:1 88:1 
