svm_type c_svc
kernel_type polynomial
degree 4
gamma 0.0078125
coef0 0
nr_class 26
total_sv 3251
rho 0.300881 0.424003 0.899152 -0.574159 0.989454 0.306944 -0.412337 0.821641 0.812419 0.464533 0.21384 0.740501 0.0465266 0.769546 0.35891 0.173283 0.742417 0.266322 -0.400081 0.0809742 -0.149397 -0.810395 0.0460294 -0.61825 -0.113695 0.30044 0.963402 -0.644121 0.977249 -0.0135601 -0.593171 0.688064 0.403638 0.22003 -0.0687151 0.608554 -0.240119 0.667009 0.105625 -0.135587 0.412994 -0.0409038 -0.606019 -0.200852 -0.467683 -0.84409 -0.233691 -0.722122 -0.365649 0.811839 -0.75257 0.970364 -0.2189 -0.713224 0.563185 0.352405 -0.0499287 -0.246485 0.508664 -0.386713 0.563844 -0.0439859 -0.301567 0.211788 -0.254454 -0.70909 -0.412084 -0.582994 -0.8987 -0.423734 -0.877641 -0.550842 -0.902698 0.929977 -0.650728 -0.885143 0.152497 -0.262546 -0.610201 -0.65944 0.143769 -0.704186 0.0825016 -0.486505 -0.692802 -0.432402 -0.681358 -0.874016 -0.759141 -0.822572 -0.9622 -0.781388 -0.980579 -0.806023 1.00318 0.700672 0.154678 0.897448 0.837028 0.711766 0.604209 0.928919 0.512085 0.925889 0.749868 0.651328 0.859121 0.689875 0.148353 0.552208 0.474604 -0.433238 0.547289 0.114571 0.418643 -0.987757 -1.00746 -0.939492 -0.953443 -0.970788 -0.982948 -1.0158 -1.01056 -0.95972 -0.98618 -0.987289 -0.960629 -0.982724 -1.00904 -0.994601 -0.998023 -1.01117 -0.987988 -0.995382 -1.0014 -0.543753 0.644788 0.403831 0.196621 -0.0250726 0.653746 -0.188352 0.696046 0.149043 -0.12385 0.314811 -0.0003952 -0.534052 -0.168618 -0.410718 -0.882778 -0.181475 -0.643956 -0.312159 0.880058 0.825927 0.664759 0.548793 0.938713 0.420353 0.895453 0.624473 0.516617 0.843405 0.633378 -0.0230741 0.649082 0.280177 -0.560799 0.397829 -0.0782687 0.440409 -0.412139 -0.652716 -0.63984 0.101626 -0.811738 -0.0278838 -0.560642 -0.718005 -0.419875 -0.675169 -0.997507 -0.73512 -0.80614 -0.962296 -0.788302 -0.918927 -0.869603 -0.653665 -0.445776 0.316093 -0.585109 0.292431 -0.26108 -0.529922 -0.104958 -0.438118 -0.817161 -0.628414 -0.713515 -0.936318 -0.568631 -0.883153 -0.767355 -0.213232 0.527651 -0.336255 0.592021 -0.025129 -0.262441 0.218196 -0.259748 -0.681427 -0.347625 -0.481806 -0.881913 -0.392456 -0.799796 -0.572322 0.648074 -0.143669 0.666497 0.16488 -0.0517437 0.364306 0.0343168 -0.496522 -0.0982037 -0.317984 -0.86043 -0.146787 -0.554843 -0.264042 -0.856095 -0.297149 -0.634391 -0.698446 -0.417333 -0.660062 -0.927037 -0.757271 -0.846462 -0.986561 -0.739899 -0.896749 -0.863412 0.831405 0.325493 0.107059 0.490462 0.204489 -0.52872 0.0481578 -0.16797 -0.807119 0.0105542 -0.473502 -0.147582 -0.626978 -0.69833 -0.410534 -0.752895 -0.923407 -0.723916 -0.82107 -1.00218 -0.804885 -0.894527 -0.840673 -0.240548 0.195237 -0.151935 -0.679249 -0.277667 -0.500302 -0.918352 -0.316406 -0.667153 -0.419522 0.603942 0.0993392 -0.542343 -0.0755011 -0.302977 -0.807346 -0.0832418 -0.695944 -0.275225 -0.356808 -0.799868 -0.576451 -0.69552 -0.930419 -0.536015 -1.04822 -0.694211 -0.610401 -0.173905 -0.421798 -0.893244 -0.221708 -0.695881 -0.394674 0.447897 0.296196 -0.643042 0.456436 -0.0329715 0.303744 -0.223215 -0.779875 -0.0295518 -0.596894 -0.285386 -0.753544 0.180646 -0.390488 0.0312651 0.774803 0.591531 0.71201 -0.526883 -0.210069 0.403917
label 14 12 0 13 3 8 6 1 17 2 4 18 11 5 19 24 21 20 25 15 7 9 16 23 22 10
probA -4.60058 -4.25219 -5.05097 -5.14123 -8.09677 -5.46183 -5.69847 -6.83809 -4.92531 -5.4684 -6.15609 -6.92382 -6.30473 -6.31547 -5.61822 -6.71137 -5.26345 -6.61142 -5.43782 -7.20826 -6.11588 -10.7325 -5.88771 -9.34684 -6.84712 -4.83012 -5.37616 -5.44081 -7.37884 -5.14908 -6.20486 -5.90436 -5.31936 -5.14766 -5.70713 -6.08892 -6.07166 -6.09451 -6.10607 -5.14858 -5.33186 -5.18229 -5.1732 -5.77296 -8.8886 -11.8951 -4.4058 -6.68127 -5.47036 -4.69661 -4.97632 -7.41391 -4.77579 -6.38266 -5.30227 -5.87049 -5.4186 -6.00381 -6.70902 -6.24406 -8.13344 -6.79201 -6.67014 -5.10351 -6.74154 -5.50577 -6.27243 -9.16652 -11.291 -6.14112 -9.97464 -5.83939 -7.18665 -7.8095 -6.21122 -6.71418 -5.92533 -6.24025 -6.09598 -6.83185 -5.38045 -5.9453 -6.22606 -6.49878 -5.44812 -4.31366 -6.96779 -5.4616 -5.45947 -15.2423 -10.0734 -6.80051 -7.90467 -6.46043 -8.63596 -6.43172 -7.04801 -7.93987 -7.74217 -8.5487 -7.724 -7.55195 -6.5963 -8.4562 -5.42506 -6.81498 -6.84083 -6.11113 -6.97238 -5.6906 -5.28679 -12.4107 -8.49287 -5.46323 -8.43459 -8.80615 -9.18113 -6.93117 -7.12054 -7.31129 -11.5181 -2.18055 -14.6593 -10.5485 -10.101 -10.1616 -8.17791 -11.2001 -8.11338 -14.1827 -18.3772 -28.5093 -8.61144 -18.3849 -10.9392 -6.93002 -7.30247 -7.15617 -7.26339 -5.45543 -7.25112 -7.11111 -6.87577 -3.20192 -7.7841 -6.4012 -5.54241 -5.82058 -7.16854 -6.6035 -2.19164 -5.94563 -8.54889 -6.71628 -7.16739 -6.75165 -7.73988 -5.39609 -8.73296 -7.37312 -7.94708 -5.79417 -7.15245 -5.79355 -6.67232 -5.93437 -6.552 -6.49726 -7.90874 -6.05696 -6.11146 -5.78125 -6.27234 -4.90047 -8.59399 -4.54504 -4.47719 -5.16596 -6.83826 -5.4154 -6.03387 -6.86756 -6.46385 -7.10159 -15.4938 -10.499 -6.13962 -13.6851 -4.92082 -6.9866 -8.36465 -5.4917 -8.11598 -6.45108 -8.90635 -8.17663 -6.60305 -8.16689 -6.00249 -8.62368 -14.7963 -16.6601 -7.7547 -13.5472 -8.6521 -7.43572 -7.09912 -6.67016 -7.63504 -9.85391 -7.70812 -5.70217 -7.31662 -5.74405 -8.79101 -12.2018 -14.0532 -7.43275 -11.8627 -6.54088 -8.94057 -8.65091 -9.43459 -6.23884 -8.5136 -6.43842 -6.65014 -7.29096 -8.2087 -5.0186 -10.9793 -8.30186 -9.92425 -9.2914 -8.52882 -5.00598 -8.13534 -7.9409 -6.24776 -8.76636 -6.66122 -6.68697 -13.8856 -18.2693 -7.60635 -12.9089 -8.62298 -6.57709 -7.8669 -9.14876 -8.71542 -8.91932 -7.24448 -7.18411 -7.08125 -7.8112 -7.75594 -10.0997 -7.03331 -8.08737 -9.26789 -8.06719 -8.77492 -6.52751 -8.84169 -13.0206 -12.6824 -9.06865 -14.068 -9.64216 -7.44869 -7.50444 -5.81762 -6.15849 -7.3299 -5.62405 -6.95424 -5.26685 -10.3254 -8.94271 -3.66827 -7.63969 -6.86034 -8.03388 -7.54718 -12.8659 -7.00461 -6.80958 -8.611 -6.82382 -6.66599 -6.75518 -10.9963 -13.6103 -7.32286 -10.8151 -6.51119 -6.23397 -7.41322 -8.15699 -10.9429 -7.22321 -10.1932 -8.63804 -6.71183 -5.39944 -8.64374 -6.03568 -5.30524 -6.58766 -7.60866 -10.8968 -5.8447 -10.2299 -3.81693 -9.59655 -5.71448 -6.93391 -8.57168 -10.2523 -7.6572 -12.5761 -7.91761 -5.97686 -8.57226
probB -0.802276 -0.239571 -1.01149 0.912166 -3.90432 -0.474582 1.0286 -2.75952 -1.08023 -1.00274 -0.462598 -2.78612 0.271178 -2.41979 -0.450354 -0.702896 -1.5263 -0.914076 0.489524 -0.301687 0.845616 6.20634 -0.51061 4.07161 0.358695 0.0947989 -1.02522 1.82852 -2.66637 0.819281 2.41937 -1.47126 -0.692348 -0.195103 0.780873 -1.28522 1.73946 -1.43986 0.427545 0.499848 -0.486855 0.714546 1.27953 1.0699 4.69179 8.16781 0.379314 3.01635 1.0209 -0.832279 0.966591 -2.94166 0.508145 1.98434 -1.03934 -1.11929 0.00815965 0.976965 -1.75042 1.45043 -2.26165 0.679079 0.732148 -0.133664 1.21012 0.8453 1.45313 4.12283 6.73648 0.970529 5.35838 1.34164 2.61232 -3.69281 1.92601 2.45065 -0.202025 0.697978 0.901684 2.23056 -0.42446 1.94456 0.026048 1.94877 1.25146 0.368668 2.39164 1.20811 1.49664 10.2501 5.87361 2.04734 3.87411 2.02714 -4.2297 -1.49176 -0.389502 -3.593 -3.43934 -3.0621 -2.32007 -3.31578 -1.35178 -3.8846 -1.15113 -2.494 -2.41618 -1.67602 -0.734173 -1.45643 -1.62129 5.4583 -2.99959 -0.56573 -1.85487 4.53578 4.75859 3.35902 2.991 2.51286 6.97331 0.00174446 10.0185 6.35553 6.12049 5.39062 3.83066 6.89612 3.4766 9.45171 13.8786 23.9094 3.87443 13.6063 5.73518 1.90623 -2.70977 -2.1321 -1.66202 0.00834909 -2.84777 1.03806 -2.50804 -0.141866 0.278433 -1.29929 -0.0535064 0.728999 0.464007 1.76098 -0.677372 -0.111099 3.14477 0.609272 -3.17938 -2.87659 -2.9049 -1.30914 -4.69742 -1.53478 -3.95777 -1.61566 -2.4686 -2.06452 -2.67172 -0.405389 -1.71485 -1.08235 3.21915 -1.73146 0.0115988 -0.908407 1.25727 0.848396 3.30886 -0.520604 1.57014 0.234046 2.29119 1.57084 0.892928 2.48051 2.18182 2.75544 10.529 6.67388 1.71556 9.13366 1.52378 1.46267 2.87656 -0.44572 3.48666 -0.572862 2.43277 2.60241 0.166513 2.65298 1.80346 3.69346 9.66539 12.6896 2.7986 8.88824 3.84504 1.5875 -1.32482 1.61444 -1.23225 1.55633 0.87273 -0.3321 1.59677 0.884554 2.45248 6.42242 9.21297 1.8196 6.77563 1.70149 -4.22322 1.23631 -3.90104 0.032078 -0.0640275 -1.72501 0.0832167 1.73451 0.428192 0.820931 6.65574 0.455881 3.84858 1.04516 4.78534 1.66111 3.91022 2.78183 1.08119 4.30987 2.58268 2.63744 9.36352 14.3405 3.04482 8.10694 3.61459 -2.84301 -1.51525 -1.65111 -3.63397 -1.47572 0.805071 -0.58127 0.732343 4.31806 -0.612045 3.07026 0.189436 3.19459 3.79579 1.76831 3.83612 2.42002 4.23723 8.26941 8.91287 3.9034 9.0175 4.30183 0.338708 -1.94803 0.155489 1.47752 1.07184 1.24593 3.46943 0.142933 4.45734 1.26322 -0.675917 0.355559 1.9149 0.927386 2.20985 8.56925 0.192587 2.63691 1.33907 1.75399 2.26289 2.34494 6.53509 9.4182 2.13577 7.03551 2.1131 1.43804 1.08357 2.70339 7.26198 0.653458 4.97162 1.93043 -1.36691 -0.703583 4.04929 -1.39621 0.250977 -0.496345 1.32088 6.72652 -0.365303 4.50735 0.518818 6.47436 -1.73585 1.98184 -1.11838 -6.48591 -4.07862 -7.44691 3.14637 1.02705 -2.43371
nr_sv 201 95 237 304 66 334 182 71 177 147 285 101 179 57 120 86 65 163 67 87 56 13 15 49 12 82
SV
0 0 0 168.4032024162229 0 0 0 0 0 0 0 0 0 0 0 0 0 0 0 0 0 0 0 0 0 26:1 27:1 28:1 34:1 35:1 36:1 37:1 38:1 42:1 46:1 47:1 49:1 50:1 55:1 56:1 57:1 64:1 65:1 72:1 73:1 80:1 81:1 87:1 88:1 89:1 93:1 94:1 95:1 97:1 98:1 99:1 100:1 101:1 
0 0 0 0 0 0 0 0 58.64756342606994 0 0 0 0 0 0 0 0 0 0 0 0 0 0 0 0 29:1 30:1 31:1 36:1 37:1 39:1 40:1 43:1 44:1 48:1 50:1 51:1 56:1 57:1 58:1 64:1 65:1 72:1 73:1 79:1 80:1 81:1 86:1 87:1 89:1 92:1 93:1 94:1 97:1 98:1 99:1 100:1 
327.9685145641097 618.2890859696263 422.4473271023292 84.78360500692051 233.8774158679973 274.4895586625916 76.95723687759546 386.5917304397828 457.9911662882253 524.4015236118502 195.0263159894207 268.0861880851582 159.5143614644002 212.8630208489619 212.9314533205884 393.8760584817722 443.3487224838006 173.200625628542 116.6144329895003 141.7285312818342 91.02957034084675 30.4817619731038 120.1372381131842 159.4316603712536 145.8171449553123 36:1 37:1 38:1 39:1 40:1 42:1 43:1 47:1 48:1 49:1 50:1 56:1 57:1 63:1 64:1 65:1 71:1 73:1 77:1 78:1 81:1 84:1 85:1 89:1 90:1 91:1 92:1 
0 0 0 0 0 0 0 0 0 0 27.18935542503213 0 0 0 0 0 0 0 0 0 0 0 0 0 0 19:1 20:1 21:1 22:1 25:1 26:1 27:1 30:1 31:1 33:1 39:1 40:1 41:1 48:1 49:1 56:1 57:1 64:1 65:1 72:1 73:1 80:1 81:1 88:1 90:1 95:1 96:1 98:1 99:1 102:1 103:1 107:1 108:1 109:1 110:1 
64.01636133595839 105.1606268015905 146.3159135540254 57.24327361120663 79.2105584512455 92.82565961816738 52.32719036697414 103.0470974302408 49.55370251647904 112.0415380228614 110.9170795832777 71.49180347482982 135.2935056588988 96.92219100314661 106.0325176674742 64.28470209615028 42.30276874060325 78.81238978712111 145.9554161635788 58.41301634207895 36.39479838667592 22.58868025707686 63.60299301797892 15.89848892549242 95.93494020989806 20:1 21:1 22:1 23:1 24:1 27:1 28:1 29:1 32:1 34:1 35:1 36:1 40:1 43:1 44:1 48:1 51:1 56:1 59:1 63:1 64:1 66:1 67:1 71:1 74:1 78:1 82:1 85:1 86:1 89:1 90:1 92:1 93:1 97:1 99:1 100:1 105:1 106:1 107:1 
72.37137344525105 275.371824116285 150.0207191225395 53.10144695644719 77.28332294316402 100.3103193344511 36.36919393626295 141.0216323537061 190.7490944898222 185.2228311651518 76.21450966899123 86.86668082468712 61.18861017939378 74.21087798398749 91.90038013662013 88.27618457206756 131.0493888978079 66.9909898211247 80.98377684714234 60.86163341195575 31.49278376915701 22.12481683443895 53.41771557559986 5.813240307017584 63.57518408034496 19:1 20:1 21:1 23:1 26:1 27:1 29:1 31:1 34:1 37:1 38:1 39:1 41:1 42:1 46:1 47:1 48:1 49:1 55:1 57:1 63:1 65:1 71:1 73:1 78:1 79:1 81:1 85:1 89:1 92:1 97:1 98:1 99:1 100:1 106:1 
25.55959534435733 0 190.3343177933948 0 0 0 63.545802520002 0 0 0 0 0 0 0 37.53876863560272 19.85346629675204 100.984201235172 0 0 57.61405765654528 0 0 0 49.01577502737347 10.52973509456011 29:1 33:1 34:1 35:1 37:1 38:1 41:1 46:1 47:1 49:1 55:1 56:1 57:1 64:1 65:1 72:1 73:1 80:1 81:1 82:1 88:1 90:1 91:1 92:1 96:1 100:1 101:1 102:1 103:1 104:1 
0 0 0 0 0 0 0 0 0 0 0 0 0 0 0 0 0 0 0 0 0 2.45127782035629 0 0 0 17:1 18:1 19:1 20:1 21:1 22:1 25:1 26:1 27:1 28:1 29:1 30:1 31:1 33:1 34:1 37:1 39:1 41:1 47:1 48:1 49:1 56:1 57:1 64:1 65:1 72:1 73:1 80:1 81:1 88:1 89:1 90:1 95:1 96:1 98:1 99:1 101:1 102:1 103:1 107:1 108:1 109:1 
0 0 0 0 0 0 0 0 0 0 0 0 0 0 0 0 0 0 6.538579451983669 0 0 0 0 0 0 2:1 3:1 4:1 5:1 6:1 10:1 12:1 14:1 15:1 19:1 20:1 23:1 24:1 26:1 27:1 32:1 34:1 40:1 41:1 42:1 48:1 49:1 56:1 57:1 64:1 65:1 72:1 73:1 80:1 81:1 88:1 89:1 95:1 96:1 97:1 103:1 105:1 110:1 111:1 113:1 117:1 118:1 121:1 122:1 123:1 124:1 125:1 
0 47.38212741152201 0 0 0 0 0 0 0 0 0 0 0 0 0 0 0 0 0 0 0 0 0 0 0 28:1 29:1 30:1 31:1 34:1 35:1 36:1 39:1 40:1 41:1 42:1 48:1 49:1 56:1 57:1 64:1 65:1 72:1 73:1 79:1 81:1 86:1 87:1 89:1 92:1 93:1 94:1 97:1 98:1 99:1 
40.33744199384666 71.06618576500411 107.9997090543797 84.32458959938415 60.66762875317693 101.9913886482838 29.50454953766691 69.8522850369605 35.01904228753387 63.92492846426111 56.58818673157293 52.4698651391094 55.5166371344432 67.95170141764436 88.44047102837825 62.040046266358 52.28840306110563 65.35855001329675 64.25860631286945 37.30425834298694 21.50117754116741 13.53282581839987 51.90163949666736 20.19595905287098 54.45234905767838 11:1 12:1 13:1 14:1 22:1 23:1 31:1 32:1 40:1 45:1 46:1 48:1 52:1 53:1 56:1 59:1 60:1 64:1 67:1 72:1 74:1 75:1 79:1 80:1 82:1 86:1 87:1 89:1 90:1 94:1 97:1 101:1 102:1 105:1 107:1 108:1 109:1 113:1 114:1 115:1 
25.87581947601008 63.64745119730628 83.53528650160331 51.70480463319769 37.09073504664078 60.862008417095 20.83327876942247 38.75859398860855 46.82387776396964 43.23084622400583 26.30636182032605 32.06441404678345 21.81282492034646 29.51963099861251 27.16914524232719 15.56828343024621 48.15960298714558 21.80326644166743 35.6172891298329 18.83216717640594 24.98816728897007 0 17.30931122383801 13.70086433412775 17.42378722203101 3:1 4:1 5:1 6:1 11:1 15:1 19:1 23:1 24:1 27:1 32:1 34:1 35:1 40:1 42:1 48:1 50:1 56:1 57:1 58:1 64:1 65:1 72:1 73:1 80:1 81:1 88:1 89:1 96:1 97:1 104:1 105:1 112:1 113:1 114:1 119:1 120:1 122:1 123:1 124:1 125:1 126:1 127:1 
0 16.68539140380293 9.387226719324119 0 0 0 0 0 0 0 0 0 0 0 0 0 0 0 0 0 0 0 0 0 0 11:1 12:1 18:1 19:1 20:1 21:1 26:1 29:1 30:1 31:1 34:1 39:1 40:1 41:1 48:1 49:1 56:1 57:1 64:1 65:1 72:1 73:1 80:1 81:1 88:1 89:1 95:1 96:1 97:1 103:1 105:1 109:1 110:1 111:1 113:1 114:1 115:1 116:1 117:1 
68.44895129331347 366.5998558477619 132.0114443827908 52.70649094569666 151.2714546752512 12.24861327851123 4.913330075885528 152.4354671635154 844.9714887145204 454.8377688536822 68.59429281904157 177.4414700587893 69.33727348577042 115.4057507172128 103.224017856005 354.8750275905911 833.0607414557555 79.21845693141184 69.5264327021759 90.30558732316595 73.59618100727398 0 67.41461270847873 76.30151422251765 28.51838928973735 34:1 35:1 36:1 40:1 41:1 42:1 48:1 49:1 56:1 57:1 64:1 65:1 72:1 73:1 79:1 80:1 81:1 82:1 86:1 87:1 90:1 91:1 92:1 93:1 94:1 
0 0 0 0 0 0 0 0 0 0 0 0 0 0 0 0 0 0 0 0 0 3.138744411838267 0 0 0 21:1 22:1 28:1 29:1 30:1 31:1 35:1 36:1 39:1 40:1 43:1 48:1 51:1 56:1 58:1 59:1 64:1 65:1 66:1 72:1 73:1 79:1 80:1 81:1 87:1 89:1 94:1 95:1 97:1 98:1 99:1 100:1 101:1 102:1 106:1 
53.58698194076594 125.6017347719493 285.7584215718172 0 85.56360916876284 40.93183146856544 22.00583176066766 87.94786500996221 318.8141806058295 7.260131239200613 0 117.3928977031918 30.52615110878721 57.31019573582917 71.10368851907977 49.79131084635797 649.2817278651601 7.109099951288745 7.921867111851834 113.3547266933056 30.62306989948178 0 26.05743579229317 50.24473192322056 49.91145013769273 26:1 27:1 33:1 34:1 41:1 46:1 47:1 49:1 55:1 56:1 57:1 64:1 65:1 72:1 73:1 80:1 81:1 87:1 88:1 89:1 90:1 94:1 95:1 99:1 100:1 101:1 102:1 
0 21.20905304913942 10.32400213461776 0 0 0 0 0 0 0 0 0 0 0 0 0 0 0 0 0 0 0 0 0 2.382605819310739 11:1 18:1 19:1 20:1 26:1 28:1 29:1 30:1 34:1 38:1 39:1 41:1 42:1 47:1 49:1 55:1 56:1 57:1 64:1 65:1 72:1 73:1 80:1 81:1 88:1 89:1 95:1 96:1 97:1 101:1 102:1 103:1 105:1 108:1 109:1 113:1 114:1 115:1 
0 0 0 10.93334715635092 0 0 0 0 0 0 0 0 0 0 0 0 0 0 0 0 0 0 0 0 0 3:1 4:1 5:1 13:1 14:1 15:1 16:1 21:1 22:1 24:1 28:1 29:1 30:1 32:1 35:1 36:1 40:1 42:1 43:1 48:1 50:1 56:1 58:1 64:1 65:1 66:1 72:1 73:1 79:1 80:1 81:1 87:1 89:1 95:1 97:1 102:1 103:1 105:1 110:1 113:1 117:1 118:1 121:1 122:1 123:1 124:1 125:1 
173.2062385358983 886.6940040979556 389.7832458720957 80.56206609694176 327.1460969599859 233.2905778839438 103.4235686451243 376.3485534018454 437.0592694415817 241.9466206011843 193.8420007771657 253.1396579386216 151.0564281665491 290.7860468450035 272.1445468746791 116.4389376325649 288.4730136953565 198.7132064243568 73.34856973871597 155.7122840680919 166.1252266093657 0 186.9481878424809 12.12668899599337 124.7675085318244 35:1 36:1 37:1 38:1 39:1 43:1 46:1 47:1 48:1 50:1 56:1 57:1 63:1 64:1 65:1 71:1 73:1 78:1 79:1 81:1 85:1 86:1 89:1 90:1 91:1 92:1 
0 5.273533629438655 4.087944215451355 0 0 0 0 0 0 145.4516683526135 1.816679908520138 0 0 0 0 0 0 0 0 0 0 0 0 0 0 35:1 36:1 37:1 38:1 39:1 40:1 41:1 42:1 43:1 48:1 49:1 50:1 51:1 56:1 58:1 64:1 66:1 71:1 72:1 73:1 74:1 79:1 81:1 82:1 86:1 87:1 90:1 91:1 92:1 93:1 94:1 
0 0 0 0 0 0 0 0 0 21.55858832202919 0 0 0 0 0 0 0 0 0 0 0 0 0 0 0 28:1 29:1 30:1 31:1 35:1 36:1 39:1 40:1 42:1 43:1 44:1 45:1 48:1 50:1 53:1 56:1 57:1 58:1 64:1 65:1 71:1 72:1 73:1 78:1 79:1 81:1 85:1 86:1 89:1 91:1 92:1 93:1 97:1 98:1 99:1 
0 0 0 0 0 0 0.9368070177219652 0 0 0 0 0 0 0 0 0 0 0 0 0 0 0 0 0 0 12:1 13:1 14:1 15:1 16:1 20:1 24:1 27:1 28:1 32:1 35:1 43:1 44:1 45:1 46:1 47:1 48:1 51:1 56:1 57:1 58:1 59:1 64:1 65:1 72:1 73:1 80:1 81:1 88:1 89:1 95:1 96:1 97:1 100:1 101:1 102:1 103:1 105:1 108:1 113:1 114:1 115:1 116:1 
0 0 19.36477895321954 0 0 0 0 0 0 0 0 0 0 0 0 0 0 0 0 0 0 18.49577495518209 0 0 0 19:1 20:1 21:1 22:1 23:1 27:1 31:1 35:1 36:1 39:1 40:1 43:1 44:1 48:1 50:1 51:1 56:1 58:1 64:1 65:1 66:1 72:1 73:1 80:1 81:1 87:1 89:1 94:1 95:1 97:1 100:1 101:1 102:1 105:1 106:1 107:1 108:1 
36.3193822687234 112.1236041510947 133.704945530601 37.65552502471478 36.65261503802695 28.60535602178605 18.05012544217507 38.37566374055399 37.45736938548226 35.95250858134866 0 42.4714080325545 24.65198551517183 34.30727807028696 41.86116686840271 48.85339483035788 47.95496031235125 11.03190268321 7.965504797234913 43.33704307043953 15.67533435921995 8.716903869387775 19.387303725212 0 32.00035279841155 18:1 19:1 26:1 29:1 34:1 37:1 38:1 41:1 42:1 46:1 47:1 49:1 55:1 57:1 63:1 64:1 65:1 72:1 73:1 80:1 81:1 82:1 88:1 90:1 91:1 96:1 99:1 100:1 104:1 108:1 109:1 110:1 111:1 112:1 
158.2579836492638 178.2029516647486 264.9563322042331 100.5176465850657 38.34653951318299 116.9025176541761 26.53022970297052 104.8493340401069 49.63640423468991 140.5769020470515 58.92675760094485 29.66757396460271 26.26447766343316 38.24162755878639 49.94064573399464 0 104.3131390982305 41.33870809424862 15.39026341832781 16.51272931783319 7.791317267557964 86.55305950048164 38.30514014369071 41.97986008951479 35.49351530950319 30:1 38:1 39:1 44:1 45:1 47:1 48:1 51:1 52:1 56:1 58:1 59:1 64:1 65:1 66:1 72:1 73:1 80:1 81:1 88:1 89:1 90:1 95:1 96:1 98:1 99:1 100:1 101:1 102:1 103:1 
0 203.9055111410511 107.8506107434278 73.91958103991935 92.43619065666054 93.29681598201988 23.66679168983887 37.67385443995931 91.90176957247853 14.58983836990787 33.74695424241875 87.46892158834109 50.56398973288354 80.27859575676844 163.0856318295878 23.92066430334478 384.5374614968956 81.55683272536069 7.403257193954414 76.82915464035348 88.40767228611124 0 25.75308568055962 34.83226156510769 44.13633116522157 26:1 27:1 28:1 36:1 37:1 38:1 39:1 47:1 48:1 56:1 57:1 64:1 65:1 72:1 73:1 79:1 80:1 81:1 85:1 86:1 87:1 89:1 90:1 91:1 92:1 93:1 98:1 99:1 
115.0803032154903 136.8168370297523 237.8811864391083 18.29691890383612 170.3021551145906 77.83602201653906 59.08364845783525 264.5347372027414 221.4950741530367 207.0150779737614 98.20527610688436 157.9571075131804 103.9034714321845 145.7841207103759 79.09003056690095 131.6710449603933 185.6597243968165 113.3941383111244 190.1817223265449 124.9647478629001 71.95943167403443 10.51316325772969 88.50012623937184 31.28656190646472 90.4141642034898 20:1 21:1 22:1 26:1 27:1 28:1 30:1 31:1 32:1 33:1 40:1 41:1 48:1 49:1 56:1 57:1 64:1 65:1 72:1 73:1 79:1 81:1 86:1 89:1 93:1 97:1 98:1 99:1 100:1 106:1 107:1 
51.44025422074398 0 115.0616349654625 46.8103920739097 97.37897739813191 93.79959734133493 59.85943551921122 64.75109389717153 0 23.28002269762949 48.30251484656034 70.58600982716949 44.03413529367818 93.2273848052486 110.4128991357195 76.7623688978959 134.7570014713178 70.43505270462992 15.17799010073566 13.34185000260451 38.54379944444587 5.642274637277245 43.16925033023858 18.93900691563751 35.77679865513786 27:1 28:1 29:1 37:1 38:1 41:1 46:1 47:1 49:1 55:1 56:1 57:1 64:1 65:1 72:1 73:1 80:1 81:1 87:1 88:1 90:1 91:1 95:1 99:1 100:1 101:1 102:1 103:1 
20.78623363850227 39.65671059877584 112.0680245649846 0.06352868517575698 12.61249895195128 8.454929912142264 34.45746576747305 18.67589713068039 4.170172670264799 8.006603289674626 1.451040816404951 8.846922956588903 0 7.353330329335915 2.733344704798094 8.130307905748147 42.40461435326666 3.012650535791103 0 20.61202559881244 1.404019619947628 0 4.851823894107485 14.49723268935889 6.433411678337018 12:1 13:1 21:1 22:1 25:1 26:1 30:1 33:1 38:1 39:1 41:1 47:1 49:1 55:1 56:1 57:1 64:1 65:1 72:1 73:1 80:1 81:1 88:1 89:1 90:1 96:1 98:1 103:1 104:1 106:1 107:1 111:1 116:1 117:1 118:1 119:1 
54.02206259650032 95.73947470008629 100.7093381171073 47.61878967496332 77.11399376782755 90.21531396924155 73.36597614813935 77.72800978137116 85.60637629550394 68.93829127008969 65.51600041823899 70.90294851591896 47.3464346461198 77.99563773719028 87.92997252558752 72.23129223371014 116.2915308766837 43.77609146343614 59.25056325843493 85.98401298536018 41.95558876326109 31.87993441047232 38.21433703710703 21.36041331552062 50.0464776513171 2:1 3:1 4:1 5:1 6:1 9:1 10:1 14:1 15:1 17:1 23:1 25:1 31:1 33:1 39:1 41:1 47:1 49:1 55:1 57:1 63:1 65:1 71:1 72:1 73:1 80:1 81:1 88:1 89:1 96:1 97:1 98:1 103:1 104:1 107:1 111:1 116:1 118:1 119:1 125:1 126:1 
0 7.337326718269182 6.260624275754513 0 0 0 3.371745709967704 0 0 1.32782503188225 0 0 0 0 0 0 0 0 0 0 0 0 0 0 0 9:1 10:1 11:1 19:1 20:1 21:1 29:1 30:1 33:1 34:1 35:1 38:1 39:1 41:1 47:1 49:1 55:1 56:1 57:1 64:1 65:1 72:1 73:1 80:1 81:1 82:1 88:1 90:1 96:1 98:1 99:1 104:1 107:1 108:1 109:1 112:1 117:1 118:1 119:1 120:1 
226.2928212363204 214.1880592922717 491.6306160272727 50.06994246746852 349.227503826656 173.9766114057675 166.1113575907851 342.4952710273018 329.7496989442677 419.8475643380782 178.224290753959 294.4667980151287 185.9899922741128 360.461000716769 258.7913645626317 493.0607799195299 1000 240.6741410356185 100.5679764840717 298.054767691824 147.3941103595517 27.9267867686928 183.0051098095691 293.3179762044645 404.7844607838764 33:1 34:1 35:1 36:1 40:1 41:1 48:1 49:1 56:1 57:1 64:1 65:1 72:1 73:1 74:1 80:1 82:1 83:1 87:1 88:1 91:1 92:1 93:1 94:1 95:1 
392.1688796504403 434.1992387927266 751.3742256579112 156.3980432998359 509.0092316588991 384.3616259623802 180.72990114717 467.9902766616652 458.8292807273943 393.2230579883579 295.6562880040524 447.1547201777382 232.1288559781815 443.4482728422213 411.1913087470954 505.2459770762024 723.7607455530283 331.9917890301028 121.0596162315133 285.1576184372104 202.8252708405032 37.34212457333415 273.0329203182636 171.3092503794691 226.6148849306203 24:1 32:1 40:1 48:1 50:1 51:1 52:1 56:1 58:1 64:1 65:1 66:1 72:1 73:1 80:1 81:1 88:1 89:1 96:1 97:1 103:1 104:1 106:1 107:1 108:1 109:1 110:1 111:1 
0 0 13.89993476303478 0 0 0 0 0 0 60.3941323693084 17.9333586512417 0 0 0 0 0 0 0 0 0 0 0 0 0 0 27:1 28:1 29:1 30:1 31:1 35:1 39:1 40:1 42:1 43:1 48:1 50:1 51:1 56:1 58:1 64:1 65:1 66:1 72:1 73:1 80:1 81:1 88:1 89:1 90:1 91:1 95:1 96:1 99:1 100:1 101:1 102:1 103:1 
0 31.18137872712434 0 0 0 0 36.01377378487273 0 0 0 0 0 0 0 0 0 0 0 6.365746409984633 0 0 0 0 0 0 19:1 20:1 21:1 22:1 27:1 28:1 29:1 30:1 31:1 32:1 34:1 35:1 40:1 42:1 48:1 50:1 56:1 57:1 58:1 64:1 65:1 71:1 72:1 73:1 78:1 79:1 81:1 86:1 89:1 93:1 94:1 97:1 100:1 101:1 105:1 106:1 107:1 108:1 
33.32891500901591 41.79020783156923 95.37455118769044 38.19774162893968 6.349642980057698 40.03809161404429 9.388835693063486 25.49328648873146 24.77784150742494 10.77272323827402 12.40085080845627 3.735988037794261 3.593421227203887 8.640069512120078 34.81077872488443 0 0 0.3575434098510171 3.327323620800831 3.037822164443045 1.99963230372061 0 4.739454373666163 0 4.609620655525091 1:1 2:1 3:1 11:1 19:1 20:1 28:1 29:1 35:1 36:1 37:1 38:1 42:1 43:1 46:1 47:1 50:1 55:1 56:1 57:1 58:1 64:1 65:1 72:1 73:1 80:1 81:1 88:1 89:1 96:1 97:1 104:1 105:1 106:1 112:1 114:1 120:1 122:1 123:1 124:1 125:1 126:1 127:1 
188.4227748762387 413.0818581249745 507.4503242007903 35.38264128527805 371.7603095711596 207.0346683423925 90.48356408696425 349.863626349271 422.343975626783 185.125361591923 154.0670562053082 356.6020907126996 165.6477609150074 325.3340682370702 207.067537806647 263.9522357753066 403.2511324097323 240.744169598809 77.27944533470027 202.0587010696216 154.4067780246937 0 166.0947467751036 97.6793805323428 138.3413728332408 36:1 37:1 38:1 39:1 40:1 48:1 50:1 51:1 56:1 58:1 64:1 65:1 66:1 71:1 72:1 73:1 78:1 79:1 81:1 85:1 86:1 89:1 90:1 91:1 92:1 93:1 
82.83760061604823 120.9892495929334 261.1887456650754 0.6643045330866173 0 0 0 21.2393939666665 115.7696397381951 440.9111044355421 0 0 32.75920150467946 0 0 0 0 5.237504464440868 51.8566666557281 0 0 175.5790440299801 43.47724961841671 41.24427331279014 50.2300702238797 36:1 37:1 38:1 39:1 40:1 43:1 44:1 48:1 51:1 52:1 56:1 58:1 59:1 64:1 65:1 66:1 71:1 72:1 73:1 78:1 79:1 81:1 83:1 84:1 85:1 86:1 89:1 90:1 91:1 
201.5797327494427 361.8801777230727 334.7003248007548 0 182.9276539175651 110.9685196063233 11.49351032362492 72.23022516424381 132.7267721567629 0 163.5727525252569 149.8186522906748 54.91702629765385 141.7480291862267 105.4974504208063 58.97004024914425 102.5656570038866 107.5987871885438 21.79449234864344 0 59.73314394512742 0 0 26.4880026895633 0 35:1 36:1 37:1 41:1 42:1 45:1 46:1 49:1 54:1 55:1 57:1 63:1 64:1 65:1 72:1 73:1 80:1 81:1 88:1 90:1 91:1 92:1 93:1 94:1 95:1 96:1 
0 0 0 6.046543320903484 0 0 0 0 0 0 0 0 0 0 0 0 0 0 0 0 0 0 0 0 0 13:1 21:1 27:1 28:1 29:1 35:1 36:1 37:1 38:1 39:1 42:1 43:1 47:1 48:1 50:1 56:1 57:1 58:1 64:1 65:1 72:1 73:1 80:1 81:1 87:1 88:1 89:1 94:1 95:1 97:1 101:1 102:1 105:1 106:1 107:1 108:1 109:1 114:1 
25.63398468630116 20.5960191094391 65.71815456484754 11.15708960916696 33.47744117537032 56.63111894351945 29.34245681880019 48.07952566243563 60.87839118840121 60.30060516153939 42.31800063947984 40.85297979879081 24.27450131410258 30.70599485931779 32.59835810529218 11.37094333152033 29.5740326331253 22.07853465389713 5.5897933279728 46.2640987701622 5.57334514005951 2.465613732415172 17.30544068971252 0 26.08304384183796 11:1 12:1 18:1 19:1 20:1 21:1 25:1 26:1 29:1 30:1 33:1 38:1 41:1 46:1 47:1 49:1 55:1 57:1 64:1 65:1 72:1 73:1 80:1 81:1 88:1 89:1 96:1 97:1 98:1 104:1 106:1 111:1 112:1 114:1 115:1 116:1 117:1 118:1 119:1 
0 124.1316518725273 0 0 0 0 0 0 0 0 0 0 0 0 0 0 0 0 0 0 0 0 0 0 0 33:1 34:1 35:1 36:1 37:1 38:1 41:1 46:1 47:1 49:1 55:1 56:1 57:1 64:1 65:1 72:1 73:1 79:1 80:1 81:1 82:1 85:1 86:1 87:1 90:1 91:1 92:1 93:1 
0 127.3695259630477 0 13.67912637789304 0 0.9426565037766076 0 0 13.50477484155248 70.72243447319654 1.787347375639169 0 21.53689236987974 0 0 41.78957176066603 151.444339847991 0 28.50444291997109 0 0 0 0 0 0 20:1 21:1 22:1 23:1 28:1 31:1 32:1 34:1 35:1 36:1 40:1 41:1 42:1 48:1 49:1 56:1 57:1 63:1 64:1 65:1 71:1 73:1 78:1 79:1 81:1 86:1 89:1 90:1 93:1 94:1 98:1 99:1 100:1 101:1 107:1 108:1 
105.5020300032551 142.4512199844585 215.9123328062647 99.17792106901645 120.876931594196 123.372685062351 46.41268871887107 116.7536721138795 78.32592585006586 97.48733829953038 92.04712478334936 107.9730698009297 90.11719391084598 119.8501840560216 161.4026716517395 116.1243872452341 143.9483570516902 101.5777405299537 67.47975237561744 75.10614671727139 48.04230283457864 29.1581521607557 123.5045051350204 56.34298764903821 85.28446826012772 15:1 23:1 31:1 39:1 40:1 44:1 45:1 46:1 48:1 52:1 56:1 60:1 64:1 67:1 68:1 72:1 74:1 75:1 79:1 80:1 81:1 82:1 87:1 89:1 94:1 95:1 97:1 101:1 102:1 105:1 106:1 108:1 109:1 114:1 115:1 116:1 
0 0 0 1.23839024627456 0 0 0 0 0 0 0 0 0 0 0 0 0 0 0 0 0 1.53145381799418 0 0 0 2:1 3:1 4:1 5:1 6:1 12:1 13:1 14:1 20:1 22:1 23:1 27:1 28:1 31:1 35:1 39:1 40:1 42:1 43:1 48:1 50:1 56:1 57:1 58:1 64:1 65:1 72:1 73:1 80:1 81:1 87:1 88:1 89:1 95:1 97:1 103:1 105:1 110:1 111:1 113:1 117:1 118:1 121:1 122:1 123:1 124:1 125:1 
0 0 0 0 0 0 0 0 144.4883973522311 0 0 0 0 0 0 0 0 0 0 0 0 0 0 0 0 27:1 28:1 29:1 30:1 31:1 32:1 35:1 36:1 40:1 42:1 43:1 48:1 49:1 50:1 56:1 57:1 64:1 65:1 72:1 73:1 80:1 81:1 88:1 89:1 90:1 95:1 96:1 98:1 99:1 100:1 101:1 102:1 103:1 
55.90081071509591 75.04822051831786 107.2305192233723 27.71511920257695 47.2775306050291 45.1726490966803 1.946191415089195 49.31361154426781 29.93932834969219 36.14194687909575 23.53211164919665 46.42941735265779 19.47450261187273 41.76984874118731 27.51180493970464 11.85222895612358 50.20256922546042 23.55564890828708 0 13.7742956468285 22.91784673308051 0 23.45534360466436 3.33620812264218 15.93155910366323 4:1 5:1 13:1 21:1 22:1 30:1 34:1 38:1 39:1 41:1 42:1 47:1 48:1 49:1 56:1 57:1 64:1 65:1 72:1 73:1 80:1 81:1 88:1 89:1 96:1 97:1 104:1 106:1 112:1 114:1 115:1 116:1 119:1 120:1 124:1 125:1 126:1 127:1 
0 0 0 0 0 0 0 0 0 0 0 0 0 0 0 0 0 0 0 0 0 52.76740411785937 0 0 0 36:1 37:1 38:1 39:1 40:1 43:1 44:1 48:1 50:1 51:1 56:1 58:1 64:1 65:1 66:1 72:1 73:1 79:1 80:1 81:1 85:1 86:1 87:1 89:1 90:1 91:1 92:1 93:1 98:1 99:1 
0 0 0 39.57482530893342 0 0 0 0 9.872564553610289 0 0 0 0 0 8.132462452667102 0 0 0 0 0 0 0 0 0 0 31:1 36:1 37:1 38:1 39:1 40:1 43:1 44:1 48:1 50:1 51:1 56:1 58:1 64:1 65:1 66:1 72:1 73:1 79:1 80:1 81:1 86:1 87:1 89:1 93:1 94:1 97:1 98:1 99:1 100:1 101:1 
1000 1000 1000 1000 1000 1000 1000 1000 1000 1000 1000 1000 1000 1000 1000 1000 1000 1000 1000 1000 1000 533.7756636689503 1000 1000 1000 49:1 50:1 51:1 57:1 58:1 59:1 60:1 61:1 65:1 67:1 69:1 70:1 71:1 72:1 73:1 74:1 75:1 
0 0 4.555911770911524 1.48374088617452 0 0 0 0 0 0 0 0 0 0 0 0 0 0 0 0 0 0 0 0 0 15:1 22:1 23:1 24:1 30:1 32:1 35:1 36:1 37:1 38:1 40:1 42:1 43:1 44:1 45:1 46:1 48:1 49:1 50:1 56:1 57:1 64:1 65:1 72:1 73:1 80:1 81:1 87:1 88:1 89:1 95:1 97:1 102:1 103:1 105:1 109:1 110:1 113:1 114:1 115:1 116:1 117:1 
0 20.15049801288139 47.4440734437444 0 0 0 8.154347435457113 0 0 0 0 0 0 0 0 0 0 0 0 0 0 0 0 0 0 5:1 6:1 12:1 13:1 19:1 20:1 21:1 22:1 27:1 30:1 31:1 34:1 35:1 39:1 40:1 42:1 48:1 49:1 50:1 56:1 57:1 64:1 65:1 72:1 73:1 80:1 81:1 88:1 89:1 96:1 97:1 104:1 105:1 112:1 113:1 119:1 120:1 121:1 122:1 123:1 124:1 125:1 126:1 127:1 
596.9019171083605 907.5527932423337 912.0448195368207 235.5082145127941 936.880506066604 717.1861172109051 343.2809241528668 830.4572027479054 765.8328598139526 782.0596327023985 655.7425036849015 807.8966505403422 529.5167240034514 862.6556099449039 758.4273831883733 583.1548011637789 773.0294174921346 827.683972759582 302.5404406080665 529.5560619074985 404.9788773735555 122.6865680687335 522.9524777759889 165.5438925354158 478.4738948986291 33:1 34:1 35:1 36:1 37:1 45:1 46:1 47:1 51:1 55:1 56:1 59:1 64:1 67:1 72:1 75:1 80:1 83:1 84:1 86:1 87:1 88:1 92:1 93:1 94:1 
0 0 0 9.940691351140897 0 0 0 0 0 0 0 0 0 0 0 0 0 0 0 0 0 0 0 0 0 3:1 4:1 5:1 13:1 14:1 15:1 20:1 21:1 23:1 27:1 28:1 32:1 34:1 35:1 40:1 42:1 48:1 50:1 56:1 57:1 58:1 64:1 65:1 72:1 73:1 79:1 80:1 81:1 87:1 89:1 94:1 95:1 97:1 102:1 105:1 109:1 110:1 113:1 116:1 117:1 121:1 122:1 123:1 124:1 
638.3284753883895 1000 731.3603295384476 131.8706868880778 555.1062698306306 564.5652583602969 151.1973964893707 583.7238018199249 494.2883856873407 561.7804979938437 347.583060001142 536.4627943708837 359.1489848938569 576.5497569327315 390.9276542674365 387.0495314117226 591.9744338490924 350.6550301777689 219.8987080898137 300.7943719033051 227.4060836421641 53.7127772309 315.4357456489861 219.0698069832504 223.2056093297755 43:1 44:1 45:1 46:1 47:1 48:1 50:1 51:1 54:1 56:1 57:1 64:1 65:1 70:1 71:1 72:1 73:1 74:1 76:1 77:1 78:1 82:1 83:1 84:1 
96.09839484073353 124.0975507963102 136.4807836434208 76.33458082236722 135.3170373637057 123.6590762873254 60.51069368209465 142.4811249231941 126.1790762644883 138.4445690550201 106.2162748186109 121.3910966853819 118.4734525407056 124.7537326644041 126.5858514839497 95.96983733838596 127.6267757949905 104.1360260516552 118.4182388825221 90.92235650110055 58.97869453333885 24.96774638725944 79.12982825684782 24.47927720169309 100.9105405489495 4:1 5:1 6:1 7:1 8:1 11:1 12:1 19:1 24:1 27:1 32:1 34:1 35:1 39:1 40:1 42:1 47:1 50:1 55:1 58:1 62:1 66:1 70:1 74:1 77:1 78:1 82:1 85:1 89:1 90:1 92:1 93:1 97:1 100:1 105:1 107:1 108:1 113:1 115:1 121:1 122:1 123:1 
0 16.25556636449381 27.27694023022479 19.60051165044258 5.750031585223439 23.60705329300554 7.106293643518269 4.778386203441476 0.7174710315676692 2.68689761979304 8.463812614472493 2.928195415343635 13.63956116420368 8.74879010021756 3.955298372610395 5.93734462526486 10.62182474310165 0 34.93239239575934 0 0 3.637330380865908 0 0 2.331418722478404 3:1 4:1 5:1 6:1 7:1 12:1 13:1 15:1 20:1 23:1 24:1 27:1 28:1 32:1 35:1 40:1 43:1 48:1 51:1 56:1 58:1 59:1 64:1 66:1 72:1 74:1 79:1 80:1 81:1 82:1 87:1 89:1 95:1 97:1 102:1 103:1 105:1 109:1 110:1 113:1 114:1 116:1 117:1 122:1 123:1 124:1 
0 0 0 9.894606335105225 0 0 0 0 0 0 0 0 0 0 0 0 0 0 0 0 0 0 0 0 0 4:1 5:1 6:1 11:1 12:1 13:1 14:1 15:1 18:1 19:1 22:1 23:1 26:1 31:1 32:1 34:1 40:1 41:1 42:1 48:1 49:1 56:1 57:1 64:1 65:1 72:1 73:1 80:1 81:1 88:1 89:1 95:1 96:1 97:1 103:1 105:1 106:1 110:1 111:1 114:1 117:1 118:1 122:1 123:1 124:1 125:1 
0 0 0 53.05266849473752 0 0 0 0 0 0 0 0 0 0 0 0 0 0 4.50590913629564 0 0 0 0 0 0 20:1 26:1 27:1 28:1 29:1 30:1 31:1 33:1 34:1 36:1 37:1 39:1 40:1 41:1 43:1 44:1 48:1 50:1 51:1 56:1 58:1 64:1 66:1 72:1 73:1 74:1 79:1 80:1 81:1 86:1 87:1 89:1 94:1 97:1 98:1 100:1 101:1 102:1 106:1 107:1 108:1 
0 4.91845728448314 15.57171657385448 0.5865918115542724 0 7.665440538807597 16.38275633642788 1.280214549190782 0 0 0 3.594630986249154 19.90304918767931 0 0 55.43001465563695 78.20806239246731 0 18.28724132068201 9.463293459241372 0 0 0 8.207124262389598 13.1065380629395 5:1 6:1 7:1 8:1 11:1 12:1 13:1 16:1 18:1 19:1 24:1 25:1 32:1 33:1 40:1 42:1 48:1 50:1 56:1 57:1 58:1 64:1 65:1 72:1 73:1 79:1 80:1 81:1 86:1 87:1 89:1 93:1 94:1 97:1 100:1 101:1 105:1 107:1 108:1 113:1 114:1 121:1 
101.017270982998 113.3585287400325 190.7129561969216 77.65880073437785 123.6403484667725 169.8543484493096 49.48789909175269 126.9005636486658 114.4683342972454 90.0401885857587 86.46985298382594 106.1365492181485 68.29979582049306 114.9436681854168 142.5331606185827 71.22688947264213 119.1865940722466 87.4838250832633 42.65370409277987 62.29145330975724 70.54859720945956 18.56765272483896 76.69240209191615 18.92401830166097 56.71650451174425 8:1 15:1 22:1 29:1 36:1 37:1 38:1 39:1 40:1 43:1 44:1 48:1 51:1 56:1 59:1 64:1 66:1 72:1 74:1 80:1 81:1 88:1 89:1 96:1 97:1 103:1 104:1 105:1 110:1 111:1 113:1 117:1 118:1 121:1 122:1 123:1 124:1 125:1 
995.2375841711209 1000 1000 325.3355075262963 1000 1000 403.8230831173635 1000 1000 1000 1000 1000 722.4938153762048 1000 746.696828482536 662.5782369761007 1000 882.1385201125368 357.7408371629124 778.2656290765919 483.4769059693513 252.2817322008976 711.7336673126234 301.7132257488937 700.5225898493027 35:1 43:1 51:1 59:1 65:1 66:1 67:1 68:1 69:1 70:1 71:1 72:1 73:1 80:1 81:1 87:1 88:1 89:1 90:1 91:1 92:1 93:1 94:1 95:1 
1000 1000 1000 1000 1000 1000 1000 1000 1000 1000 1000 1000 1000 1000 1000 1000 1000 1000 1000 1000 1000 661.4097114533888 1000 1000 1000 51:1 52:1 56:1 58:1 59:1 64:1 66:1 71:1 72:1 73:1 74:1 75:1 76:1 77:1 78:1 79:1 
0 0 0 146.2196305546101 0 0 0 0 134.2128921029212 0 0 0 0 0 0 45.46053901644031 657.8735743430541 0 0 5.414841068209603 0 0 0 5.682933733797624 0 26:1 29:1 30:1 31:1 32:1 33:1 34:1 40:1 41:1 48:1 49:1 56:1 57:1 64:1 65:1 72:1 73:1 79:1 80:1 81:1 86:1 87:1 89:1 93:1 94:1 97:1 98:1 99:1 100:1 101:1 
0 0 0 1.106220789923709 0 0 0 0 0 0 0 0 0 0 0 0 0 0 0 0 0 0 0 0 0 13:1 14:1 20:1 21:1 28:1 29:1 35:1 36:1 37:1 38:1 42:1 43:1 46:1 47:1 48:1 49:1 50:1 56:1 57:1 64:1 65:1 72:1 73:1 80:1 81:1 88:1 89:1 94:1 95:1 96:1 97:1 102:1 105:1 109:1 110:1 113:1 114:1 115:1 116:1 117:1 
35.35777002938355 71.43286390661018 27.62151974762934 16.32656239514106 82.48595550869017 56.93731192654313 0 62.70519083479808 118.0410747274798 78.15731484987427 115.1349777259094 57.68866392779036 30.82486175481237 55.18129960512879 48.73664464492281 0 81.13335354130406 25.10529593829975 7.511679899454097 0 31.17595431451123 0 23.99011309466392 0 0 28:1 29:1 30:1 31:1 35:1 37:1 39:1 40:1 42:1 48:1 49:1 56:1 57:1 64:1 65:1 72:1 73:1 80:1 81:1 87:1 88:1 90:1 94:1 95:1 99:1 100:1 101:1 102:1 
29.87426910523687 28.15255798561938 37.95064938126023 0 47.86342361269607 11.96537543061747 18.13804502885709 50.36702435508791 45.35371531435151 59.7849006271195 30.95137772353951 52.74518386602686 35.93014710279242 45.44331196143524 11.55630993058172 104.0960026710411 142.8152694728985 19.50317180362165 14.35300284752083 26.94963291020028 14.57070345683848 0 16.2091578549226 12.92161735276495 23.68788623788453 19:1 20:1 22:1 23:1 24:1 27:1 32:1 34:1 35:1 40:1 42:1 48:1 49:1 50:1 56:1 57:1 64:1 65:1 72:1 73:1 79:1 81:1 87:1 89:1 92:1 93:1 94:1 95:1 97:1 100:1 106:1 107:1 108:1 
0 0 0 0.04652833514907977 0 9.901020310568388 0 0 0 0 0 0 0 0 0 0 0 0 0 0 0 0 0 0 0 5:1 6:1 7:1 12:1 13:1 15:1 20:1 21:1 22:1 23:1 24:1 28:1 32:1 34:1 35:1 36:1 40:1 42:1 48:1 50:1 56:1 57:1 58:1 64:1 65:1 72:1 73:1 80:1 81:1 88:1 89:1 95:1 96:1 97:1 103:1 105:1 110:1 111:1 113:1 114:1 117:1 118:1 122:1 123:1 124:1 125:1 
27.58784241980613 53.08372745007784 2.759650424458047 5.79198586558843 60.51457970695784 77.48677595394841 19.68983765596035 20.35038711727371 35.8348173378981 26.96737106034613 69.59965522855188 50.83687130785669 62.68426250283536 46.26619826497871 60.13970730390482 27.19618757632195 153.9268449027437 24.89981838261026 0 24.32897038282147 31.47196746331011 0 16.72689381684214 5.828224675718858 6.422888771202386 21:1 22:1 23:1 24:1 28:1 29:1 32:1 35:1 36:1 40:1 43:1 48:1 56:1 58:1 64:1 65:1 71:1 72:1 73:1 78:1 79:1 81:1 85:1 86:1 89:1 92:1 93:1 97:1 98:1 99:1 100:1 106:1 107:1 
0 0 0 0 0 0 0 0 137.2811852829214 0 0 0 0 0 0 0 0 0 0 0 0 0 0 0 0 29:1 30:1 31:1 36:1 37:1 39:1 40:1 43:1 44:1 48:1 50:1 56:1 57:1 58:1 64:1 65:1 71:1 72:1 73:1 78:1 79:1 81:1 85:1 86:1 89:1 90:1 91:1 93:1 99:1 100:1 
0 62.33219271841145 0 0 0 0 0 0 0 0 0 0 0 0 0 0 75.57917705688723 0 0 0 0 0 0 0 0 27:1 28:1 29:1 30:1 31:1 32:1 35:1 40:1 42:1 43:1 48:1 49:1 50:1 56:1 57:1 64:1 65:1 71:1 72:1 73:1 79:1 81:1 86:1 87:1 89:1 93:1 94:1 97:1 98:1 99:1 100:1 101:1 
30.26365906648181 72.16301559339195 46.45771195548038 29.96632746141526 43.37910474989639 64.74249929390866 24.01495910277606 58.31500096666296 63.46391550604744 56.10878455207035 37.05457131599402 41.87313112018656 42.06188197496004 39.30942612047872 42.49428635999635 51.04321746089818 88.8578295972973 26.49447715579504 52.80071170544058 32.18102437678262 27.0555217052636 9.588230999284276 20.2970526402135 14.23028443045562 28.19074553186699 4:1 5:1 11:1 12:1 13:1 14:1 15:1 16:1 18:1 19:1 20:1 24:1 26:1 32:1 34:1 40:1 41:1 48:1 49:1 55:1 56:1 57:1 63:1 65:1 71:1 73:1 79:1 81:1 86:1 87:1 89:1 94:1 97:1 101:1 102:1 105:1 109:1 113:1 116:1 117:1 121:1 122:1 123:1 124:1 
20.61131090095333 32.64764726325525 141.4827653450696 19.52613433443965 0 45.53354774693238 15.76494852033501 17.44493876376084 17.66404106900581 31.23397200974087 19.43327613638441 8.941469389244965 0.6776223244528747 8.17602866706998 64.95764974114041 0 18.40593149622129 9.494318503339265 0 18.61481524827788 0 0 3.192349464500378 0 0 18:1 19:1 27:1 28:1 33:1 34:1 36:1 37:1 38:1 41:1 46:1 47:1 49:1 55:1 57:1 63:1 64:1 65:1 72:1 73:1 80:1 81:1 88:1 89:1 96:1 97:1 98:1 103:1 104:1 106:1 107:1 108:1 109:1 110:1 111:1 
0 0 0 0 0 0 0 0 76.69666695019338 0 0 0 0 0 0 0 0 0 0 0 0 45.41999310999716 0 0 0 35:1 36:1 37:1 38:1 39:1 40:1 44:1 48:1 49:1 50:1 51:1 52:1 56:1 57:1 64:1 65:1 72:1 73:1 80:1 81:1 82:1 86:1 87:1 88:1 90:1 91:1 92:1 93:1 94:1 
18.55355991930928 407.8629753678879 57.92472820667282 17.31540530393593 60.29248926072953 91.27732285617763 2.016572446214748 79.02079107521531 887.5238953365703 312.8367949340773 188.0840756013438 57.43746475896104 29.13537757480015 50.01366326043206 13.36748256782163 0 0 0.6786182528177603 0 0 13.85703249929596 0 14.45289138693379 0 20.18155341446186 36:1 37:1 38:1 42:1 43:1 44:1 46:1 47:1 49:1 50:1 55:1 57:1 64:1 65:1 72:1 73:1 79:1 80:1 81:1 82:1 87:1 90:1 91:1 92:1 93:1 94:1 95:1 
0 0 0 85.82430905962136 0 0 0 0 0 0 0 0 0 0 0 0 0 0 0 0 0 0 0 0 0 26:1 27:1 34:1 35:1 36:1 37:1 38:1 41:1 42:1 46:1 47:1 49:1 55:1 56:1 57:1 64:1 65:1 72:1 73:1 80:1 81:1 87:1 88:1 89:1 94:1 95:1 97:1 98:1 99:1 100:1 101:1 102:1 
0 7.924412595384938 28.8761973551268 0 5.764108784202896 72.43711922266493 27.6691749808496 8.191639398508698 10.63460280861462 22.97224370350924 49.86852648565732 0 14.8740882215341 5.840075239927808 29.52250602972744 0 0 57.82434599763785 19.96401932401766 16.22227920527065 0.5709452961827846 0 5.627133457153654 0 3.605859517659435 17:1 18:1 19:1 20:1 21:1 25:1 26:1 29:1 34:1 35:1 37:1 38:1 42:1 46:1 49:1 54:1 55:1 57:1 63:1 64:1 65:1 72:1 73:1 80:1 81:1 82:1 88:1 90:1 96:1 98:1 104:1 106:1 107:1 108:1 109:1 110:1 111:1 112:1 
19.94694934783746 57.27230944025978 69.42569685676222 12.86057493879865 0 3.862819566344093 0 31.8656241302057 56.79106040286056 44.19557498990607 37.55863356537384 0 33.83290091773696 0 0 0 0 0 61.35466773640021 0 0 0 0 0 13.34175247697686 20:1 21:1 22:1 23:1 24:1 28:1 29:1 32:1 36:1 37:1 40:1 43:1 44:1 48:1 51:1 56:1 58:1 59:1 63:1 64:1 66:1 71:1 73:1 74:1 78:1 81:1 85:1 86:1 89:1 92:1 93:1 97:1 98:1 99:1 100:1 105:1 106:1 
110.035578094019 402.4108319768108 532.7918107879888 64.00528153312396 401.8873213589117 116.4140317308432 92.16117729823956 524.1265652401069 738.6757345859728 658.9319071590855 393.8373034401193 297.916683181606 150.9806325335751 277.8936102045143 196.2232744652289 267.4154420723364 432.2186769986257 184.8081685981177 91.75696590114845 160.1995926249028 107.2605499700804 0 134.0053284584122 0 167.565577252968 43:1 44:1 45:1 46:1 47:1 48:1 50:1 51:1 56:1 57:1 58:1 64:1 65:1 71:1 72:1 73:1 74:1 78:1 79:1 82:1 83:1 84:1 85:1 86:1 
0 0 0 0 0 4.797191174554608 0 0 0 13.98303563611023 41.92484951277764 0 0 0 0 0 0 7.353673322825721 0 0 0 0 0 0 0 20:1 26:1 27:1 28:1 29:1 33:1 34:1 35:1 37:1 38:1 41:1 46:1 49:1 54:1 55:1 57:1 63:1 64:1 65:1 72:1 73:1 80:1 81:1 82:1 88:1 90:1 96:1 98:1 99:1 100:1 102:1 103:1 104:1 108:1 109:1 110:1 
0 0 0 0 0 0 0 0 0 0 0 0 0 0 0 0 0 0 0 0 0 4.724336992427105 0 0 0 18:1 19:1 25:1 26:1 33:1 36:1 37:1 38:1 39:1 41:1 42:1 43:1 47:1 48:1 49:1 56:1 57:1 64:1 65:1 72:1 73:1 80:1 81:1 87:1 88:1 89:1 95:1 97:1 98:1 99:1 102:1 103:1 107:1 108:1 109:1 110:1 
0 58.33152824063816 0 0 0 0 0 0 16.31252817472292 40.25708596491525 0 0 0 0 0 0 0 0 0 0 0 0 0 0 0 22:1 23:1 24:1 29:1 30:1 32:1 35:1 36:1 37:1 40:1 43:1 44:1 45:1 46:1 48:1 50:1 51:1 52:1 54:1 56:1 57:1 58:1 63:1 64:1 65:1 70:1 71:1 73:1 77:1 78:1 81:1 85:1 89:1 92:1 93:1 97:1 98:1 99:1 100:1 105:1 106:1 
0 93.35355085899411 0 0 0 0 0 0 0 0 0 0 0 0 0 0 98.85963387525837 0 0 0 0 0 0 0 0 34:1 35:1 36:1 37:1 38:1 39:1 41:1 47:1 48:1 49:1 56:1 57:1 64:1 65:1 72:1 73:1 80:1 81:1 87:1 88:1 89:1 90:1 91:1 92:1 93:1 94:1 95:1 
24.32427381530543 0 111.6647308929318 0 0 0 0 18.46924879268134 4.481780334693108 0 0 0 0 0 11.76871885429465 21.07286553697229 11.53275356518551 0 10.79866918661321 0 0 0 0 0 13.88559832919359 20:1 21:1 27:1 28:1 29:1 34:1 35:1 39:1 40:1 41:1 42:1 48:1 49:1 56:1 57:1 64:1 65:1 72:1 73:1 80:1 81:1 87:1 88:1 89:1 95:1 97:1 102:1 105:1 106:1 107:1 108:1 109:1 
0 81.06486724746996 0 0 0 0 0 0 0 0 0 0 0 0 0 0 0 0 0 0 0 0 0 0 0 33:1 34:1 35:1 36:1 37:1 38:1 41:1 42:1 46:1 47:1 49:1 55:1 56:1 57:1 64:1 65:1 72:1 73:1 74:1 80:1 82:1 88:1 90:1 91:1 92:1 93:1 94:1 95:1 96:1 
13.9407153395472 17.72571822317487 171.566190141143 0 0 0 0 58.48786587369964 80.83488284452061 71.13651837619946 38.82500796396018 31.91115526242754 24.32362283582606 0 0 67.27351047409998 209.2115374953847 0 72.25576972676805 24.54621652171533 0 0 0 35.11506138499649 8.744450174610719 20:1 21:1 22:1 23:1 24:1 25:1 26:1 27:1 32:1 33:1 34:1 40:1 41:1 48:1 49:1 56:1 57:1 64:1 65:1 72:1 73:1 80:1 81:1 88:1 89:1 96:1 97:1 98:1 102:1 103:1 107:1 108:1 109:1 
116.0005396902234 0 307.2238518209687 87.86675938735753 70.28504635771769 0 0 83.41096004429964 323.3303317778649 191.9484872232406 85.6391593741622 137.5842805312934 46.05028695105147 76.75837479676107 56.7890176535462 8.851845176720964 864.0299232349615 64.18711404474605 18.66082684057045 0 44.38689884555181 11.09442275952733 10.26700753833905 0 0 42:1 43:1 44:1 45:1 46:1 47:1 48:1 49:1 56:1 57:1 64:1 65:1 72:1 73:1 79:1 80:1 81:1 82:1 83:1 84:1 85:1 86:1 87:1 
41.02145711467875 96.77757046220871 102.4145964606326 230.179416269123 38.5665590759807 50.64970077962155 0.3519679221606314 75.94177295142234 61.99402888707206 100.3615766453536 78.17468254812162 20.71274202399144 34.2541896163119 37.35165709971339 48.17414176499059 100.573435825931 17.43691962490882 23.7381405709606 31.81502891018384 14.31526709351108 5.762885814305394 42.1029848258181 46.89387895022445 0 47.47553646804926 24:1 30:1 31:1 32:1 36:1 37:1 38:1 40:1 44:1 48:1 51:1 52:1 56:1 58:1 59:1 64:1 65:1 66:1 72:1 73:1 79:1 81:1 86:1 87:1 89:1 93:1 94:1 97:1 100:1 101:1 105:1 106:1 107:1 108:1 
973.2608439750345 1000 1000 161.3992310506059 887.1914946287818 581.3805399159967 234.7339660918553 951.160525382183 761.4697294061633 1000 505.603251338169 725.8903830977659 455.5281801820596 821.8933345890019 585.7327621389411 581.9639620245711 835.8313523013275 615.9450794290793 309.643935494571 498.9452191796312 310.1135764809432 86.90294344265072 560.6754530760342 303.6702532055047 454.3847633491032 45:1 46:1 47:1 48:1 51:1 52:1 53:1 56:1 58:1 59:1 60:1 63:1 64:1 65:1 66:1 70:1 71:1 73:1 76:1 77:1 78:1 81:1 82:1 83:1 84:1 
0 0 0 0 0 0 0 3.749576280604775 22.67622379570347 27.20501862492755 0 0 0 0 0 0 0 0 0 0 0 0 0 0 6.235195903060532 17:1 18:1 19:1 20:1 21:1 22:1 25:1 30:1 31:1 33:1 34:1 39:1 41:1 47:1 48:1 49:1 56:1 57:1 64:1 65:1 72:1 73:1 80:1 81:1 82:1 87:1 90:1 95:1 98:1 99:1 102:1 103:1 107:1 108:1 109:1 110:1 
104.8767052692096 139.1081306083915 185.419987355531 28.32094059791196 154.3225327978141 168.634403690691 57.24593350019706 132.1125062085936 125.8524842822852 122.6303667390574 167.4484534756374 127.0672112730467 117.9340683706491 139.9247152730487 127.1664521428214 136.127275122726 237.8055025235014 99.62409388973346 43.76994406387625 69.45176950373437 65.80489645354926 18.69643506652931 80.98300695569829 29.3393943414256 55.08678766611245 12:1 13:1 14:1 15:1 19:1 20:1 23:1 24:1 26:1 27:1 32:1 33:1 34:1 40:1 41:1 48:1 49:1 56:1 57:1 64:1 65:1 66:1 72:1 80:1 88:1 95:1 96:1 99:1 103:1 107:1 108:1 111:1 116:1 117:1 118:1 
669.5986108964343 907.2611398887133 1000 502.271075273582 1000 972.4133135794318 435.9621475629561 947.0970474785038 926.6069830394051 802.0613401972586 695.3763689690564 923.4893776637983 561.2758900627572 938.6307541417827 840.6960984529062 720.8389283338092 1000 812.0947062023939 327.4298600731663 637.2673668908701 451.9069202783432 86.17476611009768 603.0317954693612 410.3529050120489 531.8894594689889 31:1 39:1 47:1 48:1 56:1 64:1 67:1 68:1 72:1 75:1 80:1 82:1 83:1 88:1 89:1 90:1 95:1 96:1 97:1 98:1 99:1 100:1 101:1 102:1 103:1 
356.3783103363851 865.2831038338779 941.0891960875092 45.37608708207682 292.3906955344644 217.5231764292967 130.1007681443632 282.9651373855845 881.1432400076197 477.430917547927 244.1206107212741 253.0043522541246 118.4490693076382 258.9986570195762 151.1601835331403 139.2805003334777 326.0039744156518 202.7144555822249 75.17354749970279 210.1580535746771 105.4423000778762 4.119081155460695 147.2328171652983 17.88495819537146 185.9603809629568 43:1 44:1 45:1 46:1 49:1 50:1 51:1 54:1 55:1 57:1 63:1 64:1 65:1 72:1 73:1 80:1 81:1 82:1 83:1 84:1 85:1 86:1 87:1 88:1 
109.4883446940507 157.2344358315634 189.6319110245019 64.62183328281192 164.4194200689428 228.7892011154044 154.3544624875036 146.514839798823 130.9917569214682 136.6001709088432 162.0623038881617 143.5814476519727 109.4325991162719 173.1361099496123 165.8501020761064 126.4184953581892 146.5035326053446 158.3481254040239 68.52528118376496 157.0299668114265 65.90894364716793 45.38266680922636 102.2331199272932 30.6772490159751 140.4801977858911 17:1 18:1 19:1 25:1 26:1 27:1 34:1 35:1 36:1 37:1 42:1 45:1 46:1 50:1 54:1 55:1 58:1 63:1 66:1 67:1 71:1 72:1 75:1 80:1 83:1 88:1 91:1 92:1 96:1 100:1 104:1 108:1 109:1 111:1 112:1 117:1 118:1 119:1 
20.19034310850633 499.1291587429856 271.1780165853333 102.8086857294777 228.6877465224132 224.2428536529519 101.8078829687863 209.424614758734 368.1787558866095 275.0689880315448 300.3395915201423 208.5535942790816 134.7330400635771 190.7693400649747 169.889586429144 297.8922011806698 1000 139.941269844058 131.5242459397199 160.6707370371309 97.46202377759927 35.03487819464532 161.7957735658621 19.77184412412265 112.7699983434425 41:1 42:1 43:1 44:1 45:1 46:1 47:1 49:1 55:1 56:1 57:1 64:1 65:1 72:1 73:1 74:1 79:1 80:1 82:1 83:1 84:1 85:1 86:1 87:1 
0 2.919170034370264 47.14053178288717 23.46395289226513 0.5371398323292226 31.13155647230611 9.865887221778946 8.985826578874992 9.458472361397851 22.71156447003406 16.09170878695777 0.4675797017433896 36.2050737420285 1.049510044809788 23.220206503327 12.45562250419746 12.51971761595802 4.562536433005135 33.79298656090839 12.17421857781546 0 0 1.051735464771925 0 9.490732371813069 13:1 14:1 15:1 18:1 19:1 20:1 21:1 23:1 24:1 25:1 26:1 32:1 35:1 40:1 43:1 48:1 50:1 51:1 56:1 58:1 64:1 66:1 72:1 74:1 80:1 81:1 82:1 87:1 88:1 89:1 95:1 97:1 98:1 102:1 103:1 106:1 108:1 109:1 110:1 114:1 115:1 116:1 
251.0170773317244 194.8837978148863 317.3102900222174 5.59850525038318 0 19.71896223909205 0 0 558.0113500061682 0 0 0 0 0 0 0 202.1288192583388 259.5906201092204 0 0 0 9.637408787924853 11.9877037497977 21.21962812175826 29.76175579513542 41:1 42:1 43:1 44:1 45:1 46:1 49:1 52:1 54:1 55:1 56:1 57:1 64:1 65:1 72:1 73:1 74:1 80:1 82:1 83:1 84:1 85:1 86:1 87:1 88:1 
0 0 16.7860410164675 0 0 0 0 0 0 0 0 0 0 0 0 0 0 0 0 0 0 0 0 0 0 26:1 27:1 28:1 29:1 33:1 34:1 35:1 37:1 38:1 39:1 41:1 47:1 48:1 49:1 56:1 57:1 64:1 65:1 72:1 73:1 80:1 81:1 82:1 88:1 90:1 96:1 98:1 99:1 100:1 101:1 102:1 103:1 104:1 
0 22.39266665253505 68.0226344559896 0 0 0 0 0 155.025107342925 73.06304042832421 0 0 0 0 0 0 0 0 0 0 0 0 0 0 0 28:1 29:1 30:1 31:1 32:1 35:1 36:1 40:1 43:1 44:1 48:1 50:1 51:1 56:1 58:1 64:1 65:1 66:1 71:1 72:1 73:1 79:1 81:1 86:1 87:1 89:1 93:1 94:1 97:1 98:1 99:1 100:1 101:1 
0 0 0 0 0 0 0 0 0 0 0 0 0 0 0 42.61642830954938 0 0 0 0 0 0 0 0 0 12:1 13:1 14:1 15:1 19:1 20:1 23:1 24:1 26:1 27:1 32:1 33:1 34:1 40:1 41:1 48:1 49:1 56:1 57:1 64:1 65:1 72:1 73:1 79:1 80:1 81:1 87:1 89:1 94:1 95:1 97:1 101:1 102:1 105:1 108:1 109:1 114:1 115:1 116:1 
0 5.733655113621773 0 27.41027424588677 0 0 0 0 0 0 0.6213269726687296 0 0 0 0 0 34.32097875247602 0 1.867368100183619 0 0 0 0 9.37951368072898 3.801828521713989 3:1 10:1 11:1 12:1 13:1 18:1 19:1 21:1 22:1 23:1 25:1 26:1 31:1 32:1 33:1 40:1 41:1 48:1 49:1 56:1 57:1 64:1 65:1 72:1 73:1 80:1 81:1 87:1 88:1 89:1 95:1 97:1 102:1 103:1 105:1 110:1 113:1 114:1 115:1 116:1 117:1 118:1 124:1 
0 0 3.219782913533528 0 0 0 0 0 0 0 0 0 0 0 0 0 41.43876483510476 0 0 0 0 0 0 0 0 15:1 23:1 31:1 35:1 36:1 37:1 39:1 40:1 41:1 42:1 43:1 48:1 49:1 56:1 57:1 64:1 65:1 72:1 73:1 80:1 81:1 88:1 89:1 95:1 96:1 97:1 101:1 102:1 103:1 105:1 106:1 109:1 114:1 115:1 116:1 117:1 
0 0 0 0 15.47995571723473 0 0 56.9570298408357 0 154.3953872813412 0 24.62816764634964 10.44576326602313 44.5744013665116 1.687961093235642 2.134620771859712 0 0 1.587881463602511 6.340897681097331 29.863687541263 2.540612349396475 32.03678084081252 2.914163367212931 40.02547094584651 43:1 44:1 45:1 46:1 47:1 49:1 50:1 52:1 55:1 56:1 57:1 64:1 65:1 72:1 73:1 79:1 80:1 81:1 82:1 83:1 84:1 85:1 86:1 87:1 
15.61170398943514 66.46242172995612 83.11678557596468 4.569877544442334 8.67113329539171 60.46359550252345 39.94689657984983 13.3948371947632 25.13689725488264 26.79011971497481 34.87658426919778 36.57217780280708 1.208479243526745 0 31.45273822490038 0 5.42058298495596 0 9.078001734618217 26.82241262126232 0 9.400881598916675 4.083970720652716 2.337473633357123 28.43645548177681 9:1 10:1 17:1 18:1 19:1 25:1 26:1 27:1 28:1 34:1 36:1 37:1 41:1 42:1 45:1 46:1 49:1 54:1 55:1 57:1 63:1 65:1 71:1 72:1 73:1 80:1 81:1 88:1 89:1 96:1 97:1 104:1 105:1 106:1 107:1 109:1 110:1 111:1 112:1 115:1 116:1 117:1 
22.24322755855193 0 243.9643781570979 1.72772135758572 0 0 0 0 0 0 0 0 0 0 0 0 0 0 0 0 0 0 0 0 0 36:1 37:1 38:1 42:1 43:1 44:1 46:1 47:1 48:1 49:1 50:1 56:1 57:1 64:1 65:1 72:1 73:1 80:1 81:1 82:1 88:1 90:1 91:1 92:1 93:1 94:1 95:1 
0 250.7909808625347 33.43089029967603 0 0 61.6008308430072 0 24.73352793026358 45.52192369423255 9.367091478751471 67.7401226434001 0 0 0 50.54864744633841 0 0 0 0 0 0 94.50261636024145 0 0 0 35:1 36:1 37:1 38:1 39:1 40:1 42:1 43:1 48:1 50:1 56:1 58:1 64:1 65:1 72:1 73:1 79:1 80:1 81:1 86:1 87:1 89:1 90:1 91:1 92:1 93:1 94:1 
8.374175640844062 111.758579641653 41.28270321277203 32.21616474443131 11.58878348004005 31.51588653679905 0 22.73599746772842 37.7587737362573 61.5010633721276 18.43516468082288 16.78224074094282 24.49382930465238 11.59534420854296 29.90312591895864 35.02792033824673 55.7551698899511 8.599557412296823 27.18564397403497 9.044762268331123 3.806749925268164 5.97575376250685 1.401568580810224 0 8.576379546585519 11:1 12:1 13:1 14:1 15:1 16:1 19:1 23:1 24:1 26:1 27:1 31:1 32:1 34:1 40:1 42:1 48:1 49:1 50:1 56:1 57:1 63:1 64:1 65:1 71:1 73:1 79:1 81:1 87:1 89:1 94:1 95:1 97:1 102:1 105:1 108:1 109:1 110:1 113:1 114:1 115:1 116:1 
0 16.06619229071045 46.47074481315151 0 0 35.91184342650001 0 0 0 0 0 0 0 0 2.914882598883177 0 0 0 0 0 0 8.970347012792473 0 0 0 11:1 12:1 13:1 21:1 22:1 25:1 26:1 27:1 28:1 30:1 31:1 33:1 37:1 39:1 41:1 47:1 48:1 49:1 56:1 57:1 64:1 65:1 72:1 73:1 80:1 81:1 88:1 90:1 96:1 99:1 104:1 108:1 109:1 111:1 112:1 117:1 118:1 119:1 
0 0 15.22216276118222 0 0 7.831852065833965 0 0 0 0 0 0 0 0 0 0 0 0 19.80640819845852 0 0 0 0 0 0 2:1 3:1 4:1 5:1 10:1 11:1 14:1 18:1 19:1 22:1 23:1 26:1 31:1 33:1 34:1 39:1 40:1 41:1 48:1 49:1 56:1 57:1 64:1 65:1 72:1 73:1 80:1 81:1 88:1 89:1 95:1 96:1 97:1 103:1 105:1 106:1 110:1 111:1 114:1 115:1 118:1 123:1 124:1 125:1 
0 0 0 0 0 0 0 0 36.47286854833956 0 0 0 0 0 0 0 0 0 0 0 0 0 0 130.1435882860879 0 28:1 29:1 30:1 31:1 32:1 35:1 36:1 40:1 42:1 43:1 48:1 49:1 50:1 56:1 57:1 64:1 65:1 72:1 73:1 80:1 81:1 88:1 89:1 90:1 91:1 95:1 96:1 99:1 100:1 101:1 102:1 103:1 
0 0 0 12.94032933609001 0 0 0 0 0 0 0 0 0 0 0 0 0 0 0 0 0 0 0 0 0 26:1 27:1 28:1 29:1 30:1 33:1 34:1 35:1 38:1 39:1 41:1 42:1 47:1 48:1 49:1 50:1 56:1 58:1 64:1 65:1 66:1 72:1 73:1 79:1 80:1 81:1 86:1 87:1 89:1 92:1 93:1 94:1 97:1 98:1 99:1 100:1 
0 0 0 0 0 0 0 0 0 0 0 0 0 0 0 0 0 0 0 0 0 0 0 108.850072424519 0 27:1 28:1 29:1 30:1 33:1 34:1 38:1 39:1 41:1 47:1 48:1 49:1 56:1 57:1 64:1 65:1 72:1 73:1 80:1 81:1 88:1 89:1 90:1 91:1 92:1 95:1 96:1 100:1 101:1 102:1 103:1 
0 0 21.09125957304193 0 0 0 0 0 100.8720036572962 2.320011702321582 0 0 0 0 0 0 0 0 0 0 0 5.808881534600358 0 0 0 30:1 31:1 36:1 37:1 38:1 39:1 40:1 43:1 48:1 50:1 56:1 57:1 58:1 64:1 65:1 72:1 73:1 79:1 80:1 81:1 87:1 89:1 93:1 94:1 95:1 97:1 98:1 99:1 100:1 101:1 
38.32679594642027 92.21807057015174 63.78557672465503 37.01807876379048 55.12221013103026 55.64748579362305 29.31481850368411 82.03502213247516 97.3285594371507 118.2489660146514 49.98661429709523 55.75223131504638 71.53089671990013 50.15270107646702 60.64300292635359 121.5035018331893 96.40677781768197 44.3907522877315 144.0088539350978 67.07921998568088 23.84264892282753 15.20542632274521 26.72868643942606 28.82020693779124 56.38987943842658 4:1 5:1 6:1 7:1 11:1 12:1 15:1 18:1 23:1 24:1 25:1 26:1 27:1 28:1 32:1 33:1 36:1 40:1 41:1 47:1 48:1 49:1 55:1 57:1 63:1 65:1 70:1 73:1 77:1 78:1 81:1 85:1 89:1 92:1 93:1 97:1 98:1 99:1 100:1 105:1 106:1 114:1 122:1 
0 0 0 0 0 0 0 0 0 0 0 0 0 0 0 7.879528680130197 0 0 6.944150095948045 0 0 0 0 0 0 19:1 20:1 21:1 22:1 23:1 24:1 26:1 27:1 28:1 32:1 33:1 34:1 35:1 40:1 42:1 48:1 50:1 56:1 57:1 58:1 64:1 65:1 72:1 73:1 79:1 80:1 81:1 86:1 87:1 89:1 94:1 97:1 101:1 102:1 105:1 106:1 107:1 108:1 109:1 
21.49762949914473 22.34596503899764 99.82767136396507 0 0 7.060505329994769 0 16.13251671852161 8.984047542618679 16.36051586385092 23.86637213493875 0 3.285762891879543 0 15.56971349398072 0 0 0.4402471256286344 0 0 0 0 3.693527510670624 0 4.477206535512432 12:1 13:1 20:1 27:1 28:1 29:1 30:1 31:1 35:1 39:1 40:1 43:1 48:1 50:1 51:1 56:1 58:1 64:1 65:1 66:1 72:1 73:1 80:1 81:1 88:1 89:1 95:1 96:1 97:1 102:1 103:1 105:1 109:1 110:1 113:1 114:1 115:1 116:1 117:1 
13.12905528496061 417.1015802406645 251.5292976672508 0 44.89466048279388 93.37064818384992 15.94207453127052 137.1030125299899 356.9945103451853 173.5253905784456 105.5118931749974 42.79561015857241 30.6627919512152 24.43962557817945 0.6385769962959654 2.2403290330416 146.2176903285487 125.6322965748315 18.25551325342742 99.83527146392396 48.13217850232135 0 44.99689378552689 39.02546747187851 79.08534459781337 33:1 34:1 35:1 36:1 37:1 38:1 41:1 46:1 49:1 55:1 57:1 63:1 64:1 65:1 72:1 73:1 80:1 81:1 88:1 89:1 90:1 91:1 92:1 93:1 94:1 95:1 96:1 
44.46790108920158 80.91906645676706 13.88784215933028 7.989400406856983 125.6635714605402 151.6686073605793 48.60848466681514 72.5031617934205 133.0662766854399 67.95214189640788 104.7740077729784 108.8351433065895 54.88124619288141 110.6284465813267 130.9336476896932 31.87156691947148 80.50415920837011 97.16835906005794 38.64116203725909 44.85026122098553 53.16780162233824 8.653141824806582 55.93590917356916 28.26046228518402 45.18933894845929 17:1 18:1 19:1 20:1 21:1 22:1 25:1 30:1 31:1 33:1 39:1 40:1 48:1 56:1 64:1 65:1 72:1 73:1 80:1 81:1 88:1 89:1 95:1 96:1 97:1 98:1 101:1 102:1 103:1 106:1 107:1 108:1 109:1 
947.0776472160983 771.5163806642843 1000 212.2048163750925 961.6049075061189 698.1396763726502 375.3097407234099 943.0466010376107 902.085567121089 856.106040007154 563.261774823496 866.8163027533011 491.9828752152738 808.6395710684995 635.2714478638001 699.8423119122259 1000 620.6726651168643 324.5097120204196 710.6362825564811 403.4176512403852 46.4566465294235 532.1331781993943 494.3040600830516 542.6830859867861 41:1 42:1 43:1 46:1 47:1 48:1 49:1 56:1 57:1 64:1 65:1 72:1 73:1 80:1 81:1 82:1 83:1 84:1 85:1 86:1 87:1 88:1 
81.65365345518511 0 225.0856303849229 24.12847614383689 44.58130729083 71.06604017106466 16.25789801053131 62.03776582753257 279.6861854861039 258.6094777033164 0 22.8987116161563 21.90962622965077 57.74129993629423 49.77029177394625 37.59438239329843 332.0344972836439 39.69462788893112 23.33223026588454 77.3084614876495 19.65318160311716 55.72579656018427 33.33153124205972 0.0818471334322402 121.7190654230837 37:1 41:1 42:1 43:1 44:1 45:1 46:1 49:1 54:1 55:1 57:1 64:1 65:1 72:1 73:1 80:1 81:1 82:1 87:1 88:1 90:1 91:1 92:1 93:1 94:1 95:1 
44.67677327576575 49.63528779580098 93.11858707231323 14.33878165250451 85.09023191984485 97.11436996869192 49.04579807042267 69.57183784036259 63.06894127548462 52.30433463423971 63.71959860899224 63.73775312910719 53.07885008051121 66.72223405604929 88.4908564334376 93.29669239242554 95.58060314776428 50.17350375191941 41.63379968795824 56.20369335845723 35.47014810035477 26.50446880623677 39.11020443324518 16.03489742357305 37.39412101196432 2:1 3:1 4:1 5:1 9:1 13:1 17:1 21:1 22:1 25:1 30:1 33:1 38:1 39:1 41:1 47:1 48:1 49:1 56:1 57:1 64:1 65:1 72:1 74:1 80:1 82:1 88:1 90:1 96:1 99:1 104:1 107:1 112:1 115:1 116:1 117:1 119:1 120:1 125:1 126:1 127:1 
0 0 20.57289070292953 0 0 0 18.3476154431805 24.19874842605409 0 0 0 0 21.61101618350349 0 5.367624159131346 116.0198642837107 189.8302586697487 0 52.8463663599871 18.80229941414303 0 9.088072722687448 0 18.25857170636492 11.5328962308689 17:1 18:1 19:1 20:1 21:1 22:1 23:1 25:1 31:1 33:1 39:1 40:1 41:1 48:1 49:1 56:1 57:1 64:1 65:1 72:1 73:1 79:1 80:1 81:1 82:1 87:1 90:1 95:1 98:1 99:1 102:1 103:1 107:1 108:1 109:1 110:1 
0 0 0 10.37379373275165 0 0 0 0 0 0 0 0 0 0 0 0 391.3215648535563 0 0 0 0 0 0 97.24172812899776 0 29:1 30:1 34:1 39:1 40:1 42:1 48:1 49:1 50:1 56:1 57:1 64:1 65:1 72:1 73:1 80:1 81:1 87:1 88:1 89:1 90:1 94:1 95:1 98:1 99:1 100:1 101:1 102:1 
46.22587048932028 73.49742480961237 217.3895019300366 43.00655498969227 59.72192678325101 110.9220627969512 120.9857607750148 61.32349974502181 66.74601202928871 59.9354340784509 0.6046458461375488 55.4751203061667 26.0432301949659 40.52724638932584 47.68342969997516 132.1973605370665 379.077005049135 30.1440847132763 18.675215476455 140.1187575285644 21.71174884548993 0 24.78169975879917 80.00219309203227 54.95376777167754 17:1 22:1 25:1 30:1 31:1 33:1 39:1 40:1 41:1 48:1 49:1 56:1 57:1 64:1 65:1 72:1 73:1 80:1 81:1 88:1 89:1 90:1 96:1 98:1 99:1 104:1 107:1 108:1 109:1 110:1 111:1 112:1 
653.8279079946926 425.9629092457051 927.265951249456 134.6700810779436 602.1846244036336 401.6469495735922 204.0739396470971 614.0431701627268 660.6711027619292 565.1820804657185 384.8823544392903 546.0607741057346 295.1325598086988 550.1292207678529 425.7394780727146 328.3662670609814 585.0713876845725 355.9785579199168 165.7565729311776 311.3264366069037 236.8876166079258 32.69299290056897 300.9364010133061 172.1704591931979 275.4574991445648 29:1 37:1 45:1 46:1 49:1 50:1 51:1 55:1 56:1 57:1 59:1 64:1 65:1 72:1 73:1 80:1 81:1 88:1 89:1 95:1 98:1 99:1 100:1 101:1 102:1 
0 0 35.56871776237418 0 0 0 0 0 0 12.5736323565645 0 0 0 0 0 0 0 0 0 0 0 0 0 0 0 20:1 21:1 22:1 27:1 28:1 30:1 35:1 37:1 38:1 39:1 40:1 42:1 43:1 48:1 49:1 50:1 56:1 57:1 64:1 65:1 72:1 73:1 80:1 81:1 88:1 89:1 90:1 96:1 98:1 99:1 102:1 103:1 108:1 109:1 110:1 
5.128630273785683 2.267259791738895 12.57098114960864 2.244825717201099 0 24.13652585488014 40.8936485615426 0.2598703969392339 0 0 0 0 0 0 23.37737390264826 0 10.15701584055799 0 5.043868881330758 17.99097976425966 4.620932009633711 0 0 3.54588520872344 14.26182996083696 2:1 3:1 9:1 10:1 11:1 12:1 17:1 18:1 20:1 21:1 25:1 29:1 30:1 33:1 38:1 39:1 41:1 47:1 49:1 55:1 56:1 57:1 64:1 65:1 72:1 73:1 80:1 81:1 88:1 89:1 96:1 97:1 104:1 105:1 111:1 112:1 113:1 118:1 119:1 121:1 122:1 123:1 124:1 125:1 126:1 
173.7876816428327 223.5496739080577 343.7176902979691 17.96113752941522 49.2821004628919 175.6539010614788 100.2652550426064 128.3784297688147 51.84863661958132 265.3427143219919 252.152677123142 43.3392774857634 64.08691711258024 166.5711125496392 63.99139757960431 90.14212547074462 80.88584669162984 137.5845215801704 46.66148410578066 71.2383771804307 11.81875024471818 26.09175997563128 74.27151332196252 40.32132646944363 109.0894436192628 34:1 35:1 36:1 37:1 38:1 39:1 42:1 43:1 47:1 49:1 50:1 51:1 55:1 56:1 57:1 59:1 64:1 66:1 67:1 72:1 75:1 80:1 83:1 84:1 88:1 92:1 93:1 94:1 95:1 96:1 
101.9976378696222 173.7868555112527 304.9528864633422 44.49755187379237 141.8929409701491 176.5236334587347 120.6341700137092 157.0428377985369 291.0119994063332 188.0003007768637 165.0369504838165 140.3599086904674 85.57341740310216 126.765359722215 132.9411531542345 99.52120604629472 155.8662057835455 209.3483328362009 50.68179681960201 185.2091257522094 66.39819137297823 40.21116466148617 102.2643343216974 23.46810430584364 102.1333133900389 26:1 27:1 33:1 34:1 35:1 36:1 37:1 41:1 45:1 46:1 49:1 54:1 57:1 62:1 63:1 65:1 71:1 72:1 73:1 80:1 81:1 82:1 88:1 90:1 91:1 96:1 99:1 100:1 101:1 102:1 103:1 104:1 
255.3461551922614 614.5673040389482 384.9581984368351 96.64463342661848 396.785693773931 290.4601711544995 127.8912448614453 351.0566679430035 396.6448643894319 447.1096301309479 281.4473727538375 352.4644850630283 178.0375042654218 366.1228871058881 347.9790814687337 360.3336096625896 631.383221478984 259.4665100604893 104.112845449185 276.6856947406875 184.3409419627638 9.587040637752152 200.019807681474 123.7362552682889 204.199426400413 29:1 30:1 31:1 36:1 37:1 39:1 40:1 48:1 49:1 56:1 57:1 63:1 64:1 65:1 71:1 73:1 78:1 79:1 81:1 85:1 86:1 89:1 93:1 97:1 98:1 99:1 100:1 
0 7.328251712660244 39.37023294302026 0 0 0 0 0 0 23.2902554824397 0 0 0 0 0 0 0 0 13.12244117315342 0 0 0 0 0 0 27:1 28:1 29:1 30:1 31:1 32:1 35:1 36:1 40:1 48:1 50:1 51:1 56:1 58:1 64:1 65:1 66:1 72:1 73:1 79:1 80:1 81:1 85:1 86:1 87:1 89:1 90:1 92:1 93:1 98:1 99:1 100:1 
0 0 7.323726115988184 25.95636803693073 1.031000727885188 13.80419685473375 0 23.31380742928754 90.54350908108492 31.71281067799911 0 0 8.695279466659269 0 39.36813840958069 45.67061332292732 4.562036885358635 0 2.420227174455486 0 0 0 0 0 0 20:1 21:1 22:1 23:1 31:1 32:1 34:1 35:1 36:1 37:1 40:1 42:1 48:1 49:1 56:1 57:1 64:1 65:1 72:1 73:1 80:1 81:1 87:1 89:1 94:1 95:1 97:1 98:1 102:1 106:1 107:1 108:1 109:1 
0 0 0 0 0 0 0 0 37.64225396412643 0 0 0 0 0 0 0 0 0 0 0 0 0 0 0 0 36:1 37:1 38:1 39:1 40:1 42:1 43:1 44:1 48:1 49:1 50:1 56:1 57:1 64:1 65:1 71:1 72:1 73:1 78:1 79:1 81:1 85:1 86:1 89:1 90:1 91:1 92:1 
0 11.82042695254944 0 9.04469656400649 0 0 0 0 0 0 0 0 0 0 0 0 90.52914823901629 0 0 0 0 0 0 0 0 28:1 29:1 30:1 34:1 35:1 36:1 38:1 39:1 42:1 47:1 48:1 49:1 50:1 56:1 57:1 64:1 65:1 72:1 73:1 74:1 80:1 82:1 83:1 84:1 85:1 87:1 88:1 93:1 94:1 95:1 103:1 
7.691631580156963 122.4199059926967 272.773433170772 0 0 0 0 0 0 0 0 0 0 0 0 0 0 0 0 0 0 0 0 0 0 28:1 29:1 30:1 35:1 36:1 38:1 39:1 42:1 43:1 47:1 48:1 49:1 50:1 56:1 57:1 64:1 65:1 72:1 73:1 80:1 81:1 82:1 83:1 84:1 88:1 92:1 93:1 94:1 96:1 103:1 104:1 
297.7116515495126 183.1588171563247 578.3349724939901 86.8497290587861 326.4806267053735 240.5152155035776 79.64871894147275 378.579486079841 243.290382316041 350.4394016482728 493.695716846624 275.4353680656955 189.9393924935754 300.9414970055676 274.5003785310055 382.5952234232894 501.567922896036 183.7723926529337 107.9744536158254 145.6017546972732 124.0194032936373 23.86615114898288 170.8061011328889 71.51457650192756 107.4286747946871 35:1 36:1 37:1 39:1 40:1 41:1 42:1 43:1 48:1 49:1 56:1 57:1 64:1 65:1 72:1 73:1 74:1 79:1 80:1 83:1 86:1 87:1 92:1 93:1 94:1 
48.20851402583442 0 224.6427516249526 0 0 0 0 0 0 0 0 0 0 0 0 0 260.5803564776487 0 0 0 0 0 0 123.8599266954061 0 31:1 35:1 36:1 39:1 40:1 42:1 43:1 48:1 49:1 50:1 56:1 57:1 64:1 65:1 72:1 73:1 80:1 81:1 88:1 89:1 90:1 95:1 96:1 99:1 100:1 101:1 102:1 103:1 
0 20.92052786194338 0 93.28682164669263 0 26.18833535945443 14.5768477482356 0 204.2407839574943 0.6855377067109926 82.95475369570578 3.34773151021481 0 0 0 44.30901346986727 255.3042412428946 0 0 0 0 0 0 0 0 22:1 23:1 29:1 30:1 32:1 36:1 40:1 43:1 48:1 50:1 56:1 57:1 58:1 64:1 65:1 71:1 72:1 73:1 79:1 81:1 86:1 87:1 89:1 93:1 94:1 97:1 98:1 99:1 100:1 101:1 106:1 107:1 
0 89.96346523954465 0 72.57969058413126 0 0 10.89166028452146 0 0 19.14502023884483 2.620123016057601 0 0 0 0 0 6.701806505513763 0 0 0 0 0 0 0 4.370746279928161 20:1 27:1 28:1 35:1 38:1 39:1 43:1 47:1 50:1 51:1 55:1 56:1 58:1 64:1 65:1 66:1 72:1 73:1 80:1 81:1 87:1 88:1 89:1 94:1 95:1 97:1 98:1 99:1 100:1 101:1 102:1 107:1 108:1 
2.969917224639362 1.084904861903633 18.62315368735916 9.88942222399586 0 7.482725039837463 17.10610071092377 7.113627846219254 0 0 4.37019905528066 0 0 0 19.84196970853586 0 0 1.922133002704974 4.69708160206053 7.003995104710567 1.506896333709081 15.15409454324494 0 1.295571307771807 12.37438484143025 2:1 3:1 9:1 10:1 11:1 12:1 13:1 14:1 17:1 21:1 22:1 25:1 30:1 33:1 38:1 39:1 41:1 47:1 48:1 49:1 56:1 57:1 64:1 65:1 72:1 73:1 80:1 81:1 88:1 89:1 96:1 97:1 104:1 105:1 112:1 113:1 119:1 120:1 121:1 122:1 123:1 124:1 125:1 126:1 127:1 
103.9118856230344 133.9529953144719 154.8190688566266 88.41560465634394 160.7461590444539 200.5326290728387 118.6395625231587 158.9122674716164 152.2651111842302 155.7759203474143 152.0670004773064 149.934399617833 122.8627491612453 170.3075741334959 136.9808521619144 83.56314635891039 135.9461851863366 115.5664617477849 76.92912083095223 116.8419081975522 196.0778647613128 35.25828650916797 99.75255805935859 29.83766339143599 111.8586580129798 3:1 4:1 5:1 11:1 13:1 21:1 27:1 28:1 29:1 35:1 37:1 43:1 45:1 50:1 51:1 53:1 58:1 61:1 62:1 66:1 70:1 74:1 78:1 82:1 86:1 87:1 90:1 95:1 98:1 103:1 106:1 110:1 111:1 114:1 115:1 118:1 123:1 124:1 125:1 126:1 
0 0 0 15.53793455473266 0 0 0 0 0 0 0 0 0 0 0 0 0 0 0 0 0 0 0 0 0 25:1 26:1 27:1 33:1 35:1 36:1 37:1 38:1 41:1 46:1 47:1 49:1 50:1 55:1 56:1 57:1 58:1 64:1 65:1 66:1 72:1 73:1 80:1 81:1 87:1 88:1 89:1 90:1 94:1 95:1 98:1 99:1 100:1 101:1 102:1 
0 0 2.68109952757062 2.0385552316422 0 2.80019369576253 0 0 0 0 0 0 0 0 0 0 0 0 14.85303931124758 0 0 0 0 0 0 2:1 3:1 4:1 10:1 11:1 12:1 18:1 19:1 20:1 21:1 25:1 26:1 29:1 30:1 31:1 32:1 33:1 40:1 41:1 48:1 49:1 56:1 57:1 64:1 65:1 72:1 73:1 80:1 81:1 88:1 89:1 96:1 97:1 104:1 105:1 111:1 112:1 113:1 114:1 118:1 119:1 122:1 123:1 124:1 125:1 126:1 
261.8039176156494 565.3703757976493 434.1845695152036 62.9311514239306 233.175572229373 222.4119041595514 143.5812174336778 274.7962977570394 255.7835534004334 372.0964368253786 229.0404618804969 199.6906635388949 125.5800622606591 235.8776599621648 163.3592415226114 136.4637310654894 359.9836701421536 253.7542748605406 60.46001818287341 195.8575281850336 74.48857860015079 27.1448657340341 189.0357680629269 70.39835598631679 157.1266993370578 34:1 35:1 36:1 41:1 42:1 44:1 46:1 49:1 52:1 54:1 55:1 57:1 63:1 64:1 65:1 72:1 73:1 74:1 75:1 80:1 83:1 84:1 85:1 88:1 93:1 94:1 95:1 96:1 
0 0 0 0 0 0 0 0 0 94.88348338018264 0 0 0 0 0 0 0 0 0 0 0 0 0 0 0 34:1 35:1 36:1 41:1 42:1 44:1 45:1 46:1 49:1 50:1 51:1 52:1 54:1 55:1 57:1 60:1 63:1 64:1 65:1 72:1 73:1 80:1 81:1 82:1 85:1 86:1 87:1 88:1 90:1 91:1 92:1 93:1 
75.02563765588793 76.51781679870084 160.0097947872973 0 74.11836784111401 28.37796252464518 31.43356091005965 113.1440848013661 122.309980168842 97.56047999799505 59.45897601643601 85.20652710179296 37.72417789499443 73.85489214330474 53.92768612948408 135.9770190323555 42.31321197720796 38.73816825570083 21.1314209627816 51.81519514356888 25.26605629404503 0 33.99068600329439 0 49.15249532867551 19:1 27:1 28:1 29:1 30:1 35:1 38:1 39:1 42:1 43:1 48:1 50:1 56:1 57:1 58:1 64:1 65:1 72:1 73:1 79:1 80:1 81:1 87:1 89:1 94:1 97:1 101:1 102:1 105:1 106:1 107:1 108:1 109:1 
0 0 0 0 0 7.517829426940117 0 0 0 0 0 0 0 0 0 0 0 0 0 0 0 0.7721256577844059 0 0 0 4:1 5:1 6:1 11:1 12:1 13:1 14:1 15:1 18:1 19:1 21:1 22:1 23:1 26:1 27:1 30:1 31:1 34:1 39:1 41:1 42:1 47:1 48:1 49:1 56:1 57:1 64:1 65:1 72:1 73:1 80:1 81:1 88:1 89:1 96:1 97:1 103:1 104:1 105:1 106:1 110:1 111:1 114:1 118:1 122:1 123:1 124:1 125:1 126:1 
0 135.8692802831452 122.6024038888591 0 0 0 0 0 56.21713612842736 4.762546946815677 0 0 0 0 0 0 0 0 0 0 0 0 0 0 0 28:1 35:1 36:1 37:1 38:1 39:1 42:1 43:1 47:1 50:1 55:1 56:1 57:1 58:1 64:1 65:1 72:1 73:1 80:1 81:1 88:1 89:1 90:1 95:1 96:1 98:1 99:1 100:1 101:1 102:1 103:1 
0 86.37470456816473 0 34.67151920180304 0 154.6500840833809 0 0 48.52330490415797 0 0 0 0 0 68.0425314496018 0 63.12124149747579 0 0 0 0 0 0 0 0 28:1 29:1 30:1 31:1 32:1 40:1 43:1 44:1 45:1 46:1 48:1 50:1 54:1 56:1 57:1 64:1 65:1 71:1 72:1 73:1 79:1 81:1 86:1 87:1 89:1 90:1 93:1 94:1 98:1 99:1 100:1 101:1 
1000 1000 1000 420.9646004866549 1000 1000 689.4062204489297 1000 1000 1000 1000 1000 1000 1000 1000 1000 1000 1000 738.538262864169 1000 956.2793992908067 113.5792193753256 1000 781.988782605007 1000 50:1 51:1 52:1 53:1 54:1 55:1 56:1 57:1 58:1 64:1 65:1 72:1 73:1 74:1 75:1 76:1 77:1 78:1 79:1 80:1 
79.71352906856754 92.89701376409165 245.8354988654123 102.8034959453394 92.75277358696179 106.693169766437 81.77386197268069 138.0161978555731 93.41021140196216 134.9659434781231 223.6557509852433 90.35434487037894 96.54126608202364 110.8175657101799 119.9973745017684 126.9921363130096 61.64595425879882 118.3419497530086 96.43331287724969 63.26463337089098 41.59442543908884 25.23475720251615 61.79726752762793 0 85.55661763976826 28:1 29:1 30:1 31:1 32:1 34:1 35:1 36:1 40:1 41:1 42:1 43:1 48:1 49:1 50:1 56:1 58:1 64:1 66:1 72:1 74:1 80:1 82:1 87:1 88:1 90:1 91:1 93:1 94:1 95:1 99:1 100:1 101:1 
1000 1000 1000 287.9499442548836 1000 1000 401.967688278592 1000 1000 1000 1000 1000 791.7974664982838 1000 1000 842.871415108729 1000 944.2194684314067 458.0246115191389 812.4786470166919 652.7049963868374 130.0890013383747 951.0579991637436 246.8262287005461 620.0285503632225 35:1 36:1 42:1 43:1 44:1 45:1 49:1 50:1 53:1 54:1 55:1 57:1 63:1 65:1 71:1 72:1 73:1 80:1 81:1 87:1 88:1 95:1 
0 0 140.0148884792009 0 0 0 0 0 0 0 0 0 0 0 0 0 0 0 0 0 0 0 0 0 0 35:1 36:1 37:1 38:1 42:1 43:1 46:1 47:1 48:1 49:1 50:1 56:1 57:1 58:1 64:1 65:1 66:1 72:1 73:1 80:1 81:1 82:1 83:1 88:1 91:1 92:1 93:1 94:1 95:1 96:1 
76.20943352117382 105.1316079886308 109.6297657638391 17.35795254310966 110.9014434374016 112.271360052597 44.41892452692582 102.9562400265641 117.2018675060663 87.39780063271579 91.39024722358961 92.36465205712031 85.0873948723851 97.40282542933616 92.32742541279055 147.3774993974588 223.3761819225842 67.0978489840392 41.38536302331885 69.10578605026508 45.16130505932757 12.59469098610219 54.99403255753904 19.14649790410016 36.46426752520787 11:1 12:1 13:1 14:1 15:1 16:1 18:1 19:1 24:1 25:1 26:1 32:1 33:1 40:1 41:1 48:1 49:1 56:1 57:1 64:1 65:1 72:1 73:1 80:1 88:1 96:1 99:1 100:1 104:1 108:1 109:1 111:1 112:1 117:1 118:1 119:1 
0 134.6769791949376 0 25.91591171863169 0 0 0 0 0 109.0213859035127 0 0 0 0 0 0 25.37923194673049 0 0 0 0 0 0 0 0 34:1 35:1 36:1 37:1 38:1 39:1 40:1 41:1 42:1 48:1 49:1 56:1 57:1 64:1 65:1 72:1 73:1 74:1 80:1 82:1 83:1 87:1 88:1 91:1 92:1 93:1 94:1 
312.6477701841706 162.6269461655592 363.3489696257396 25.9588356911448 10.94384680419771 16.86975996094009 0 84.87983662731722 327.5292471458005 221.6594382229702 0 0 0 30.32888571451406 0 0 61.63258208872475 0 2.305080482320305 0 0 0 32.91383135625249 0 8.107960721195289 37:1 38:1 45:1 46:1 47:1 48:1 50:1 51:1 52:1 53:1 54:1 56:1 57:1 58:1 64:1 65:1 72:1 73:1 79:1 80:1 81:1 85:1 86:1 89:1 90:1 91:1 92:1 93:1 
0 0 0 10.28847971663343 0 0 0 0 12.4122352113783 3.680234853024487 0 0 0 0 0 0 0 0 0 0 0 0 0 0 0 22:1 23:1 27:1 28:1 29:1 30:1 31:1 32:1 34:1 35:1 37:1 38:1 40:1 42:1 45:1 48:1 50:1 56:1 57:1 58:1 64:1 65:1 72:1 73:1 80:1 81:1 88:1 89:1 95:1 97:1 101:1 102:1 103:1 105:1 106:1 107:1 108:1 109:1 
55.57980847552281 66.7809499580792 141.9309145128923 211.1715808542728 98.22559946589556 102.7889175778088 20.01878576129772 122.5326949312169 149.2230885580348 70.99152333707512 63.91506654203673 111.7701499018167 30.61106784873041 92.63261500995773 169.1505393075742 71.78228899433617 189.5171163543496 112.8400005127781 2.24820019970983 49.53029006571533 49.97398361903703 24.07313657388634 63.7262714426742 0 36.30729483879792 33:1 34:1 35:1 36:1 37:1 38:1 39:1 40:1 41:1 48:1 56:1 64:1 65:1 66:1 72:1 73:1 79:1 80:1 81:1 87:1 89:1 94:1 95:1 97:1 98:1 99:1 100:1 101:1 102:1 
0 0.2830406139803716 0.5220802756744565 0 0 0 1.653831405143223 0 0 0 0 0 0 0 0 0 0 0 0 0 0 9.300819516973446 0 0 0 1:1 2:1 3:1 9:1 12:1 13:1 17:1 21:1 22:1 25:1 30:1 31:1 33:1 34:1 35:1 36:1 37:1 38:1 39:1 41:1 47:1 49:1 55:1 56:1 57:1 64:1 65:1 72:1 73:1 80:1 81:1 88:1 89:1 96:1 97:1 104:1 105:1 106:1 112:1 114:1 115:1 119:1 120:1 123:1 124:1 125:1 126:1 
0 0 0 0 0 0 0 0 23.22060843974388 0 0 0 0 0 0 0 0 0 0 0 0 0 0 0 0 27:1 28:1 29:1 30:1 35:1 36:1 39:1 43:1 48:1 50:1 51:1 56:1 57:1 58:1 64:1 65:1 72:1 73:1 79:1 80:1 81:1 86:1 87:1 89:1 93:1 94:1 97:1 98:1 99:1 100:1 101:1 
97.14718128339841 76.37626350724439 194.1522316392525 71.36473030068797 52.22276487800143 91.32336723486371 6.243619006628995 41.13780516213243 0 74.4950269691674 10.13899662817437 20.42094461388485 71.10643885966311 30.02477286170756 73.578731530509 30.93308145676842 32.71825181703148 13.14368419384221 37.67499021857721 16.74051747836664 0 10.84458441822763 48.28149106108329 0 38.17376563881317 31:1 32:1 37:1 38:1 39:1 40:1 44:1 45:1 46:1 48:1 52:1 56:1 59:1 60:1 63:1 64:1 66:1 67:1 71:1 73:1 74:1 77:1 78:1 79:1 81:1 84:1 85:1 89:1 91:1 92:1 97:1 98:1 99:1 
13.81805677088174 51.86997062906222 143.9438563909461 70.82017986467186 0 2.998625407341437 0 0 0 6.662970126370653 23.46093852602328 0 0 0 109.2430647043254 0 0 0 0 0 0 0 7.429146559124675 0 0 29:1 30:1 36:1 37:1 38:1 39:1 40:1 44:1 48:1 51:1 56:1 58:1 59:1 64:1 66:1 71:1 72:1 73:1 74:1 78:1 79:1 81:1 85:1 86:1 89:1 92:1 93:1 97:1 98:1 99:1 100:1 
0 0 0 0 0 0 0 0 114.0117013548765 83.7631503543608 0 0 0 0 0 0 0 0 0 0 0 0 0 0 0 35:1 36:1 37:1 38:1 39:1 40:1 42:1 43:1 48:1 49:1 50:1 56:1 57:1 64:1 65:1 72:1 73:1 78:1 79:1 81:1 85:1 86:1 89:1 90:1 91:1 92:1 93:1 
159.9926118206197 496.9771830332859 265.05123021912 0 71.85071872961153 206.0499145813689 26.87032925300258 89.09664190006659 482.4409978662274 585.6448472743449 188.5246881266818 14.26322091345658 0 103.9833647187607 0 0 107.8691227563039 45.08560041196007 0 9.313937102886147 0.8101943323068171 6.432524703012893 95.28780100208441 27.8374020474715 33.504510486633 35:1 36:1 43:1 44:1 45:1 49:1 50:1 51:1 53:1 54:1 57:1 62:1 63:1 65:1 71:1 72:1 73:1 80:1 81:1 82:1 88:1 90:1 91:1 92:1 93:1 94:1 95:1 96:1 
0 17.6871243574861 0 22.03270323477745 0 0 0 0 37.89902905842141 4.754473185338082 0 0 0 0 0 0 112.8938953472305 0 0 0 0 0 0 12.65828073354961 0 31:1 32:1 38:1 39:1 40:1 44:1 45:1 48:1 50:1 51:1 52:1 53:1 56:1 57:1 58:1 64:1 65:1 71:1 72:1 73:1 78:1 79:1 81:1 84:1 85:1 86:1 89:1 91:1 92:1 97:1 98:1 99:1 
76.31701310265142 90.21599725856844 217.1952670248496 34.1738909094345 36.34078532300693 92.39076874532785 0 54.70838939438591 60.55760883206014 31.88846041510881 35.15439572429911 37.39453415666567 17.17250756650792 30.42794612490612 48.14301790750198 0 19.48587070479304 18.29252544472183 0 0 14.54696453118365 0 23.09516192552589 0 2.846297343962999 19:1 20:1 21:1 29:1 30:1 34:1 38:1 39:1 42:1 47:1 48:1 49:1 50:1 56:1 57:1 64:1 65:1 72:1 73:1 80:1 81:1 88:1 89:1 96:1 98:1 104:1 107:1 108:1 109:1 110:1 111:1 112:1 
0 62.75227356505597 0 12.20638990319014 0 0 0 0 22.8739579273308 45.66828912136388 48.92617401149416 0 0 0 0 0 0 1.076006605002554 0 0 0 0 0 0 0 27:1 28:1 29:1 34:1 35:1 37:1 38:1 42:1 46:1 47:1 49:1 55:1 57:1 63:1 64:1 65:1 72:1 73:1 80:1 81:1 82:1 88:1 90:1 91:1 95:1 96:1 99:1 100:1 101:1 102:1 103:1 
4.029743325833156 14.33021697257242 32.07997356161878 17.73518175063357 7.806121837962489 8.868722945228303 11.58075779632582 9.402549475283394 10.08977082451769 5.4197348315225 0 5.096887997199101 2.975226202963043 7.383280125676745 0 0 3.782185897222315 2.259607676321497 13.19047418516682 2.452060943198928 8.181069035056552 0 2.256374813045083 0 7.774117448081862 3:1 4:1 5:1 11:1 12:1 13:1 14:1 15:1 19:1 23:1 27:1 31:1 32:1 35:1 40:1 43:1 48:1 50:1 51:1 56:1 58:1 64:1 66:1 71:1 72:1 74:1 79:1 81:1 82:1 87:1 89:1 95:1 97:1 102:1 103:1 105:1 110:1 113:1 117:1 118:1 121:1 122:1 123:1 124:1 125:1 
0 46.08324151716976 70.70342375446185 0 0 36.03053862699615 0 1.646673912421915 6.315350166773966 31.86917655840442 0 0 0.4606267530308864 0 10.13965365462728 0 0 0 5.322641401705151 0 0 0 0 0 0 6:1 13:1 14:1 20:1 21:1 22:1 27:1 28:1 30:1 31:1 34:1 35:1 39:1 40:1 42:1 48:1 49:1 50:1 56:1 57:1 64:1 65:1 72:1 73:1 80:1 81:1 88:1 89:1 96:1 97:1 104:1 105:1 106:1 112:1 114:1 119:1 120:1 123:1 124:1 125:1 126:1 127:1 
796.1542597014499 1000 1000 26.34029985031997 571.3428933427076 288.0006716658949 32.35004325762875 460.7382154527542 776.6028248875816 934.9024361828544 80.02352312889033 473.9162692943319 117.8622721320084 437.7404305391864 196.2787479746412 144.080426301423 455.1050501258077 260.7976284036549 10.01963970524211 135.548508105393 0 44.57338470352937 247.47764673152 81.29377873034967 88.64147354542574 43:1 44:1 50:1 51:1 52:1 53:1 54:1 55:1 56:1 57:1 58:1 64:1 65:1 72:1 73:1 76:1 77:1 78:1 79:1 80:1 81:1 82:1 83:1 84:1 
0 14.03215015170445 0 0 0 0 0 0 0 0 1.784330774408851 0 0 0 0 0 0 0 0 0 0 0 0 0 0 11:1 12:1 13:1 18:1 19:1 20:1 21:1 22:1 26:1 28:1 29:1 30:1 31:1 34:1 39:1 41:1 47:1 49:1 55:1 56:1 57:1 64:1 65:1 72:1 73:1 80:1 81:1 88:1 89:1 95:1 96:1 97:1 102:1 103:1 105:1 106:1 109:1 110:1 114:1 115:1 116:1 117:1 
244.64646761266 281.9154971986705 428.0320327758683 192.6410086447164 404.5032215106037 429.6906946763334 191.0062451873834 365.3538790528556 338.7528716166595 308.1909514719401 307.6560823779109 378.6482282781172 326.0849964644481 393.1309318862242 336.850740436731 219.8354101801072 315.1027777628811 272.7561664345938 228.1234200158727 203.9848857182742 196.9615578654115 68.98573792085784 213.2964736673363 67.56052850517338 246.159872153292 5:1 6:1 13:1 20:1 21:1 28:1 29:1 36:1 37:1 38:1 43:1 44:1 46:1 51:1 54:1 59:1 62:1 67:1 70:1 75:1 78:1 83:1 86:1 91:1 94:1 99:1 102:1 107:1 110:1 115:1 118:1 123:1 124:1 125:1 
0 0 0 0 0 0 0 0 0 0 0 0 0 0 0 0 0 0 0 0 0 96.42469084124916 0 0 0 34:1 35:1 36:1 37:1 38:1 39:1 40:1 42:1 43:1 44:1 48:1 50:1 56:1 57:1 64:1 65:1 72:1 73:1 80:1 81:1 87:1 88:1 89:1 90:1 91:1 92:1 93:1 94:1 95:1 
225.9672516365044 397.8770134970079 341.4690257294445 103.2635737636861 310.5558686478292 230.795487036902 128.781715257094 309.8918573597557 278.3521234764565 294.9043520616042 274.3443222568804 272.3697071881605 185.454177727929 290.9237228547829 249.0889645102156 278.749517917166 433.7649654992468 252.4714433117644 164.3187384521706 186.9220873283566 130.0524728105659 46.09091089895013 166.322429417972 58.25080948672044 177.7953312343355 26:1 27:1 28:1 29:1 30:1 33:1 34:1 38:1 39:1 41:1 47:1 48:1 49:1 56:1 57:1 64:1 65:1 71:1 72:1 73:1 79:1 83:1 87:1 91:1 92:1 95:1 100:1 101:1 102:1 
435.1016692399447 619.9585845107141 512.6597857183061 132.1935752247282 438.5954811376803 440.5787486263438 257.676147469315 459.4071844470348 809.8003843582264 565.92939350299 458.6892680492755 421.73205436699 255.0299391992699 412.0549381628244 345.7751316819972 384.0580355493687 836.6729554683782 312.7022829877062 148.7422385340171 489.2270378842587 168.3010686425784 50.50390171268073 274.9604834452196 201.3761851679525 459.341895040862 25:1 33:1 41:1 49:1 50:1 51:1 52:1 57:1 61:1 65:1 69:1 70:1 71:1 72:1 73:1 79:1 80:1 81:1 86:1 87:1 89:1 90:1 91:1 93:1 94:1 99:1 100:1 101:1 
27.20800992082501 76.5227870430901 107.6220561747915 5.485332879791363 45.02048044860282 45.62552240046571 47.81001675192791 40.45217661077701 51.13718143509646 42.72111777455835 16.67076450485072 39.9272875555349 22.6873259794768 25.52799305286321 32.65734500398548 42.95877857025047 178.8779204138246 23.44467168981767 67.15332942551399 43.36121886300965 9.10113276864727 5.989337666909342 15.60033909402242 23.51704148966846 32.26332951032785 9:1 10:1 11:1 12:1 13:1 14:1 17:1 22:1 23:1 25:1 31:1 32:1 33:1 40:1 41:1 48:1 49:1 56:1 57:1 64:1 65:1 72:1 73:1 80:1 81:1 88:1 89:1 96:1 97:1 98:1 104:1 106:1 112:1 115:1 116:1 117:1 118:1 119:1 120:1 
13.13372944863029 24.75424164706261 43.68474740841538 14.10546883336036 28.36245006305753 40.9576240978018 41.07659827125343 24.86735400354769 19.81310672045759 31.15477225798989 22.83526593327129 27.29276330999252 30.47509551757612 28.8080872633606 19.0459820343933 57.9756448276373 22.50833351569482 17.87647903896292 18.61611761570133 24.4229747442837 6.169484680299579 5.313584867298074 12.56346789257949 11.10603170645642 28.88853534149153 1:1 2:1 3:1 9:1 11:1 12:1 13:1 17:1 21:1 22:1 26:1 30:1 31:1 34:1 39:1 42:1 48:1 49:1 50:1 56:1 57:1 64:1 65:1 66:1 72:1 74:1 80:1 82:1 88:1 90:1 91:1 96:1 99:1 103:1 104:1 107:1 108:1 110:1 111:1 116:1 117:1 118:1 126:1 
0 178.8598301134463 85.25142790067414 0 0 66.03562458350505 0 0 59.43734729132288 65.99589626610579 17.51298904239232 0 0 0 0 0 0 0 0 0 0 0 0 0 0 27:1 28:1 29:1 34:1 35:1 36:1 37:1 41:1 42:1 45:1 46:1 49:1 54:1 55:1 57:1 63:1 65:1 71:1 72:1 73:1 80:1 81:1 82:1 88:1 90:1 91:1 92:1 96:1 100:1 101:1 102:1 103:1 104:1 
72.61396579265465 184.1887671486462 124.4437025025326 34.48682979204874 128.1498551534985 135.9856959428446 0 98.90267729949493 179.6646612755762 136.9616020764668 80.38826835335315 105.6850351066795 61.79405784185269 116.542728760415 115.93597372321 28.0928854369127 38.73729573350848 128.4394251031648 27.89144588785681 39.28392491907059 52.66801008849406 3.603382547355494 64.78781762363485 9.032160225334174 38.55145973019015 19:1 20:1 21:1 26:1 27:1 29:1 30:1 34:1 38:1 39:1 47:1 49:1 55:1 56:1 57:1 64:1 65:1 72:1 73:1 80:1 81:1 88:1 89:1 96:1 97:1 98:1 104:1 107:1 108:1 109:1 110:1 111:1 
0 0 0 0 0 0 0 0 0 0 0 0 0 0 0 67.46276702715615 148.3170225712623 0 0 0 0 0 0 33.13230549400272 0 19:1 20:1 21:1 22:1 25:1 26:1 30:1 31:1 32:1 33:1 40:1 41:1 48:1 49:1 56:1 57:1 64:1 65:1 72:1 73:1 80:1 81:1 87:1 88:1 89:1 94:1 95:1 97:1 100:1 101:1 102:1 105:1 106:1 107:1 108:1 
0 0 0 0 0 0 0 0 0 0 0 0 0 0 0 5.845125081874491 0 0 0 0 0 0 0 0 0 20:1 21:1 22:1 23:1 27:1 28:1 31:1 32:1 35:1 40:1 42:1 43:1 48:1 49:1 50:1 56:1 57:1 64:1 65:1 72:1 73:1 79:1 80:1 81:1 87:1 89:1 94:1 95:1 97:1 98:1 101:1 102:1 106:1 107:1 108:1 109:1 
4.662255219103369 34.37702956774651 29.47824982629491 0.8003195229359082 0 8.821606030887084 0 0 0 0.6859055347441522 0 6.994123046447829 0 0 0 0 0 0 0 0 0 0 0 0 5.455486836563429 9:1 10:1 11:1 12:1 20:1 21:1 22:1 30:1 31:1 34:1 35:1 39:1 40:1 42:1 48:1 49:1 50:1 56:1 57:1 64:1 65:1 72:1 73:1 80:1 81:1 88:1 89:1 96:1 97:1 102:1 103:1 104:1 105:1 109:1 110:1 113:1 114:1 115:1 116:1 117:1 
136.6155737476102 202.6028779488424 214.9653251585147 126.0752676163294 206.7102445777427 206.9908899872606 103.7812301521407 202.1972520126542 230.2522474011518 184.7541853566901 182.801523427182 181.8526528499887 147.2507244354477 196.4524928833559 190.1896916817851 144.4761456337071 180.0252253859109 137.3523016220521 93.9488428996515 140.3229985877329 100.5113977609447 35.22724423382543 116.8670842991134 33.69763730241249 124.0524718131751 7:1 14:1 15:1 22:1 29:1 30:1 36:1 37:1 39:1 43:1 44:1 47:1 51:1 55:1 58:1 59:1 63:1 66:1 71:1 74:1 79:1 82:1 86:1 87:1 90:1 94:1 98:1 101:1 102:1 106:1 109:1 114:1 116:1 117:1 122:1 123:1 124:1 
131.9982825464683 170.0858112730756 265.3471863375493 104.0694720257272 197.2812589009054 187.7575223186674 81.4535582309525 200.1689542236352 161.0404250592537 155.459879684646 149.9704244493616 177.6943764246152 138.873218905038 191.5222000662566 231.4594612801555 158.1970908972462 188.7724613852887 139.6165346301366 85.50477231861073 110.6735558587784 114.823426659955 26.01622040018017 130.0330467486993 51.32578391193928 107.1601704252462 7:1 8:1 15:1 22:1 24:1 30:1 32:1 37:1 40:1 45:1 48:1 52:1 53:1 56:1 60:1 64:1 67:1 68:1 71:1 72:1 75:1 79:1 82:1 87:1 90:1 94:1 97:1 102:1 105:1 109:1 110:1 113:1 117:1 121:1 122:1 123:1 124:1 
40.26839138840081 149.3943777895647 200.4070600998424 0 0 141.7262466974584 0 42.79363874848477 118.8281783113121 46.02549544723169 54.55259823822522 0 7.269106323659414 0 70.06238855236458 0 0 1.291688399315978 7.684973915814751 0 0 132.7610627291728 47.32590304973498 0 11.23503950723725 36:1 37:1 38:1 39:1 43:1 44:1 45:1 46:1 47:1 48:1 50:1 51:1 56:1 58:1 64:1 66:1 72:1 73:1 79:1 80:1 81:1 85:1 86:1 87:1 89:1 90:1 91:1 92:1 93:1 
0 262.3175593839269 0 0 0 0 0 0 0 0 0 0 0 0 0 0 0 0 0 0 0 0 0 0 0 35:1 36:1 37:1 39:1 42:1 47:1 48:1 49:1 50:1 56:1 57:1 64:1 65:1 72:1 73:1 79:1 80:1 81:1 86:1 87:1 89:1 90:1 91:1 92:1 93:1 94:1 
71.71698632733414 95.98923220603291 186.4190360667932 126.8493408537714 0 94.53812007447587 17.47799875913143 16.19929386461343 0 1.62119102600311 12.72071800547963 0 0 0 80.8413325069285 131.1565252161666 119.7067086863497 0 29.65878533934436 0 0 6.203796155116578 6.890012378417323 0 7.799358209684378 24:1 32:1 40:1 44:1 45:1 46:1 47:1 48:1 51:1 52:1 55:1 56:1 59:1 64:1 66:1 67:1 72:1 73:1 74:1 80:1 81:1 87:1 88:1 89:1 94:1 95:1 97:1 100:1 101:1 102:1 105:1 106:1 107:1 108:1 
0 4.934273314209151 2.406126868995781 38.65946752891631 2.633722785086293 74.41888080364851 10.01720250944311 2.015789045774721 11.40477555585981 10.00115268069355 25.50148264782929 0 33.54808545121494 7.409581943668547 38.10830808365461 0 0 1.980041598593435 35.69887980723917 0 2.881278432069961 31.51884898940842 0 0 2.065943163537857 4:1 5:1 6:1 12:1 13:1 14:1 19:1 20:1 21:1 22:1 23:1 27:1 29:1 31:1 34:1 35:1 37:1 39:1 42:1 47:1 50:1 55:1 58:1 63:1 66:1 71:1 74:1 79:1 82:1 87:1 90:1 95:1 98:1 102:1 103:1 106:1 110:1 114:1 117:1 118:1 122:1 123:1 124:1 125:1 
0 0 0 0 0 0 0 0 0 0 0 0 0 0 0 4.649349027911419 6.833177155776024 0 0 0 4.657250404993643 0 0 0 0 5:1 6:1 7:1 12:1 13:1 14:1 15:1 16:1 20:1 24:1 28:1 32:1 35:1 40:1 43:1 48:1 50:1 51:1 56:1 58:1 64:1 65:1 66:1 72:1 73:1 79:1 80:1 81:1 87:1 89:1 94:1 95:1 97:1 102:1 105:1 109:1 110:1 113:1 117:1 121:1 122:1 123:1 124:1 125:1 
186.9914005803302 0 89.20250111420987 11.48670962710439 31.73530386978048 0 26.00645058945197 39.42290873709322 125.9783392988687 0 0 2.491887606239036 33.0685888483075 68.32292146045185 56.73227174257101 33.30704112283416 122.782859583766 0 0.7623437653692884 15.4832086017621 20.14591416126348 0 0.4450187800351534 156.9871501074573 15.0741839620314 43:1 44:1 45:1 46:1 47:1 49:1 50:1 51:1 55:1 56:1 57:1 64:1 65:1 72:1 73:1 74:1 78:1 79:1 80:1 82:1 83:1 84:1 85:1 86:1 
25.7759121387265 67.26861845124495 34.26999283199123 15.85342236956514 0 85.31596551304909 0 0 62.94663517042031 16.25872942225584 29.85350549769707 0 0 0 9.025256169362503 0 0 0 0 0 0 2.485025848034006 0 0 0 20:1 28:1 29:1 36:1 37:1 43:1 44:1 45:1 46:1 50:1 51:1 54:1 55:1 57:1 58:1 63:1 64:1 65:1 72:1 73:1 80:1 81:1 88:1 89:1 95:1 96:1 97:1 98:1 99:1 102:1 103:1 107:1 108:1 109:1 110:1 
0 0 75.80524979715581 0 0 0 0 0 186.6742160627113 0 0 0 0 0 0 0 0 0 0 0 0 0 0 14.72423273610868 0 30:1 36:1 38:1 39:1 43:1 44:1 47:1 48:1 50:1 51:1 56:1 57:1 58:1 64:1 65:1 72:1 73:1 80:1 81:1 88:1 89:1 90:1 95:1 96:1 98:1 99:1 100:1 101:1 102:1 103:1 
19.95387788463397 33.02272608384649 35.26339992742832 35.39080739159849 31.03432201429159 73.28936068832118 41.49851532902451 32.50756267157401 48.35848628372784 40.80293385506555 35.94903376622349 31.30448028310238 22.60651002869482 27.13734339148476 36.70166144903328 11.92776088358158 31.03960812113947 19.27584110714431 7.778769087898605 27.9265074732022 34.36677009196429 7.372180912054009 18.76005361630661 2.982947413455442 21.1465363409411 1:1 2:1 3:1 4:1 11:1 12:1 18:1 20:1 21:1 26:1 29:1 33:1 34:1 37:1 38:1 41:1 46:1 49:1 54:1 57:1 63:1 65:1 71:1 72:1 73:1 80:1 81:1 88:1 89:1 96:1 97:1 98:1 103:1 104:1 106:1 111:1 114:1 115:1 118:1 119:1 123:1 124:1 125:1 126:1 
260.2603018679062 399.6673186903276 306.9666607574641 319.9710933084498 236.0417668530841 359.8509064920819 91.93050703412338 291.7057246392476 243.7827560614954 415.2697057801725 181.8505823350684 222.1246740307207 199.4897829865693 274.6028943483477 244.9759855168308 205.6939518120381 268.5597368530016 266.6325224756399 231.6928640934903 162.7296992893512 139.6779247450227 48.62008808935452 318.0485622321202 99.21178141514217 198.6995516402024 30:1 31:1 32:1 37:1 38:1 40:1 45:1 46:1 48:1 52:1 53:1 54:1 56:1 59:1 60:1 62:1 63:1 66:1 67:1 68:1 70:1 73:1 74:1 77:1 78:1 81:1 84:1 85:1 89:1 91:1 92:1 97:1 98:1 99:1 
0 19.50674983625537 0 0 0 0 0 0 0 0 0 0 0 0 0 0 0 0 0 0 0 0 0 0 0 12:1 13:1 19:1 20:1 21:1 22:1 27:1 30:1 31:1 34:1 35:1 39:1 40:1 41:1 42:1 48:1 49:1 56:1 57:1 64:1 65:1 72:1 73:1 80:1 81:1 88:1 89:1 96:1 97:1 103:1 104:1 105:1 106:1 109:1 110:1 111:1 114:1 115:1 116:1 117:1 
0 0 0 0 0 0 0 0 0 0 0 0 0 0 0 0 0 0 0 0 0 29.77220430177621 0 0 0 35:1 36:1 37:1 43:1 45:1 46:1 47:1 48:1 49:1 50:1 51:1 52:1 53:1 54:1 55:1 56:1 57:1 58:1 64:1 65:1 72:1 73:1 80:1 81:1 82:1 87:1 90:1 91:1 92:1 93:1 94:1 95:1 
0 5.593698274044378 44.76491263039367 13.73697040824975 0 45.41903143280573 0 0 13.02259856583999 7.164541123834565 0 0 10.16220495370339 0 4.647102715300463 0 0 0 11.58548408847619 0 0 0 0 0 0 6:1 7:1 13:1 14:1 15:1 20:1 21:1 23:1 24:1 28:1 31:1 32:1 35:1 36:1 40:1 43:1 48:1 50:1 51:1 56:1 58:1 64:1 66:1 72:1 73:1 74:1 80:1 81:1 88:1 89:1 96:1 97:1 103:1 104:1 105:1 110:1 111:1 113:1 117:1 118:1 121:1 122:1 123:1 124:1 125:1 
0 29.25027612961691 57.39021735153663 49.9901355000159 0 0 0 0 10.67973565913406 16.82266453613168 0 0 0 0 0 0 97.78312072593295 0 0 0 0 0 0 11.13630325033046 0 20:1 21:1 22:1 23:1 24:1 27:1 28:1 32:1 34:1 40:1 41:1 42:1 48:1 49:1 56:1 57:1 64:1 65:1 72:1 73:1 80:1 81:1 88:1 89:1 96:1 97:1 98:1 99:1 100:1 101:1 102:1 103:1 104:1 106:1 
185.6683358238479 237.800251231417 292.3634607251306 211.1345917532365 299.0567639429181 211.5228691557525 156.8320875994346 268.9467230427867 281.2459188638764 242.2167701490523 179.5235692735279 248.7814052402747 153.2669366997869 279.1463126411413 243.5079807275093 257.650083132788 263.7295523336902 183.999866848628 129.2376621506836 178.1564395578075 187.784465767575 46.31683182719782 151.2307428228566 51.85534841195525 146.0288194855898 5:1 6:1 13:1 14:1 15:1 23:1 26:1 31:1 34:1 39:1 42:1 47:1 50:1 55:1 58:1 63:1 66:1 71:1 74:1 79:1 82:1 87:1 90:1 95:1 98:1 102:1 103:1 106:1 110:1 114:1 118:1 123:1 124:1 125:1 126:1 
0 61.73961613321141 0 0 0 0 0 0 0 0 0 0 0 0 0 0 0 0 0 0 0 16.04548987077507 0 0 0 29:1 30:1 35:1 36:1 37:1 38:1 39:1 42:1 43:1 44:1 45:1 46:1 50:1 51:1 52:1 54:1 55:1 57:1 58:1 63:1 64:1 65:1 72:1 73:1 80:1 81:1 87:1 88:1 89:1 92:1 93:1 94:1 95:1 97:1 98:1 99:1 100:1 
0 0 0 11.7482445056061 0 0 0 0 0 0 0 0 0 0 0 0 0 0 0 0 0 0 0 0 0 22:1 23:1 24:1 29:1 30:1 32:1 35:1 36:1 37:1 40:1 43:1 48:1 51:1 56:1 58:1 59:1 64:1 66:1 71:1 72:1 73:1 74:1 78:1 79:1 81:1 85:1 86:1 89:1 92:1 93:1 97:1 99:1 100:1 105:1 106:1 107:1 
-0 1000 0 0 0 0 0 0 0 655.6611375205414 0 0 0 0 0 0 0 0 0 0 0 0 34.26122843631224 0 0 50:1 51:1 52:1 53:1 54:1 55:1 57:1 58:1 60:1 61:1 63:1 64:1 65:1 67:1 68:1 72:1 73:1 75:1 76:1 80:1 
-103.7902335635024 1000 970.8609034807751 0 981.9159788180831 333.7637604195789 0 767.9001465176589 687.311708483827 351.3622935151461 222.0601023116148 739.6685625850337 164.8123818179272 848.2348412764868 361.0049366652657 185.8775669737801 861.1325527118802 318.8395141983469 63.59396556919 145.1984916307927 0 2.613654313533664 34.97835290228051 336.4313189890223 0 49:1 50:1 51:1 54:1 55:1 57:1 59:1 61:1 62:1 63:1 65:1 67:1 68:1 69:1 71:1 73:1 76:1 79:1 80:1 
-0 28.42697407335019 234.0359419901913 0 0 0 0 24.39343958478283 0 323.5742221256789 0 0 0 60.10687076211107 0 0 50.0253185227238 0 0 0 0 0 0 368.9112200854075 0 47:1 49:1 52:1 53:1 55:1 56:1 57:1 59:1 60:1 61:1 62:1 63:1 64:1 65:1 66:1 67:1 69:1 70:1 72:1 74:1 75:1 77:1 78:1 80:1 82:1 
-48.33538857158226 937.4737396739072 626.4093133536834 0 0 0 0 36.97164098150179 0 138.5663241018114 0 0 0 0 0 0 527.5498474846661 0 5.357058425144967 86.33298687621402 0 0 126.2722759005175 278.5267778850559 0 41:1 49:1 52:1 53:1 55:1 57:1 59:1 60:1 61:1 63:1 64:1 65:1 67:1 69:1 70:1 71:1 72:1 73:1 74:1 75:1 77:1 78:1 80:1 81:1 82:1 
-1000 1000 1000 525.9866450157778 1000 1000 711.6614162228788 1000 1000 1000 1000 1000 1000 1000 1000 1000 1000 1000 581.1794729161744 1000 1000 195.2674086835242 1000 228.1252386063456 1000 49:1 57:1 58:1 59:1 60:1 61:1 62:1 63:1 65:1 66:1 69:1 71:1 72:1 73:1 
-1000 1000 1000 792.8771357551561 1000 1000 1000 1000 1000 1000 1000 1000 1000 1000 1000 1000 1000 1000 857.8320576057614 1000 1000 337.2625153406038 1000 715.217858387418 1000 49:1 57:1 58:1 59:1 60:1 61:1 62:1 63:1 64:1 65:1 68:1 69:1 72:1 80:1 
-0 427.296148814364 1000 0 405.7299326241839 0 0 396.2718027084455 0 0 0 191.2225891155791 0 295.1001949501049 0 0 376.3907902251002 0 0 0 0 0 0 0 0 49:1 53:1 54:1 55:1 57:1 58:1 59:1 60:1 61:1 63:1 64:1 65:1 67:1 68:1 72:1 73:1 75:1 80:1 
-308.3438693379674 1000 1000 172.3145571132942 1000 735.3500033056305 207.157194879936 1000 1000 1000 688.3242819942965 1000 578.9783430517972 1000 943.9334167455801 624.8819774012896 1000 715.7256957819113 319.9568964142607 498.545137006431 338.5612203926006 60.20020228022148 513.5148773504109 140.9225743176821 421.4740602318991 50:1 51:1 52:1 54:1 55:1 56:1 57:1 58:1 60:1 61:1 62:1 64:1 65:1 68:1 69:1 72:1 73:1 
-492.7301290977574 894.7982365036968 1000 223.1916645532797 1000 779.312014416864 298.9563995296346 1000 1000 1000 666.280064979882 1000 556.3313502786046 1000 927.1064445688104 614.1143537482158 873.3922151121753 810.3372340203995 191.5252127750389 626.8924266956539 380.3546127224018 122.078621451814 589.9170063514841 0 375.6248428796522 51:1 52:1 54:1 55:1 56:1 58:1 59:1 60:1 61:1 62:1 64:1 65:1 66:1 69:1 72:1 73:1 77:1 80:1 
-0 0 0 0 0 0 0 0 0 0 0 0 0 0 0 0 0 0 0 0 0 0 0 57.83327210605314 0 49:1 50:1 51:1 53:1 54:1 56:1 57:1 58:1 59:1 60:1 61:1 62:1 63:1 64:1 65:1 67:1 68:1 70:1 71:1 72:1 73:1 75:1 76:1 78:1 79:1 
-0 72.31617243826825 529.6521210773341 0 123.7319712800614 0 0 84.09507243170445 0 0 0 24.78095232729251 0 0 0 0 0 0 0 0 0 0 0 0 0 42:1 47:1 50:1 54:1 55:1 57:1 58:1 59:1 61:1 62:1 63:1 65:1 67:1 68:1 69:1 71:1 72:1 73:1 80:1 81:1 88:1 
-507.0204190439158 1000 1000 230.9022602017262 1000 831.3372656435351 317.8132453450902 1000 1000 1000 746.4761975802651 1000 616.185731177804 1000 797.1214021761798 613.8484264841331 1000 832.4130659144029 253.1383423132245 774.2095301525335 316.8134613890703 82.30624025131728 957.5018290644113 223.4182717368024 667.2974206551975 42:1 49:1 50:1 53:1 54:1 57:1 58:1 60:1 61:1 62:1 65:1 66:1 67:1 68:1 70:1 73:1 78:1 79:1 81:1 87:1 88:1 
-392.8088367939112 299.4900906763221 873.1981965671906 11.55996642231668 645.3712511456764 132.1706916846192 81.17717695638032 493.1254578644378 533.0396240030298 218.3595559863803 0 521.294059501588 21.84080067066297 689.1826469456105 173.2241511274877 170.3842762518488 640.5746005007194 329.3772252944943 106.3047305564695 0 41.6009798169253 0 5.248355867260525 346.3715497909079 13.02391417985667 49:1 50:1 51:1 52:1 53:1 54:1 55:1 56:1 57:1 60:1 61:1 64:1 65:1 68:1 72:1 73:1 76:1 80:1 
-311.9047575404958 360.8393946894656 645.4601962183395 0 40.81894646163996 147.8797567870299 31.7143982456825 4.659044202779349 58.13463979181746 0 0 39.68612850737001 8.394613083742199 0 2.832292309212826 38.31789516018822 89.42922281576372 0 7.435494334286928 164.034472375384 38.52856440141731 0 199.6009537623238 31.19687265153115 52.37240216625532 41:1 42:1 43:1 46:1 49:1 51:1 52:1 53:1 54:1 55:1 56:1 57:1 60:1 64:1 65:1 68:1 72:1 73:1 76:1 80:1 81:1 88:1 
-0 132.2730183761676 445.1503418376759 0 0 39.27233338584713 0 13.3440337691393 0 0 0 0 0 0 0 0 0 0 13.12001162740575 0 0 0 0 0 0 44:1 45:1 47:1 48:1 49:1 51:1 52:1 53:1 54:1 55:1 56:1 57:1 59:1 61:1 62:1 64:1 65:1 66:1 67:1 69:1 70:1 72:1 74:1 80:1 82:1 
-0 0 0 0 0 0 0 0 0 0 0 0 0 0 0 0 0 0 1.471263430089529 0 0 0 0 0 0 47:1 48:1 49:1 51:1 52:1 54:1 55:1 56:1 57:1 58:1 59:1 60:1 61:1 62:1 64:1 66:1 67:1 69:1 70:1 72:1 74:1 77:1 80:1 82:1 
-196.280372220449 240.0694604591367 260.3959144973834 143.3010946032664 144.1474161899281 156.1907604040256 85.61564269668617 189.8355175300036 179.1874765064088 230.1946228603271 166.5495257252468 145.8950824088611 117.2131014053662 162.6174620298995 144.6472027393802 205.364752464464 185.0987351737621 115.3923303991734 75.83575281662293 168.7584860809104 44.89414796004324 29.3886419394984 88.13002090237549 48.39438880787211 169.8697585785274 24:1 31:1 32:1 34:1 35:1 39:1 40:1 42:1 43:1 47:1 50:1 51:1 55:1 58:1 59:1 63:1 65:1 66:1 67:1 70:1 71:1 73:1 75:1 78:1 79:1 81:1 83:1 86:1 87:1 89:1 91:1 92:1 94:1 95:1 96:1 97:1 100:1 101:1 104:1 105:1 
