svm_type c_svc
kernel_type polynomial
degree 1
gamma 0.0078125
coef0 0
nr_class 26
total_sv 3667
rho -0.587798 0.165113 0.585998 -0.817034 0.907209 -0.00110583 -0.807302 -0.0298752 -0.471662 0.422048 -0.579401 0.503841 -0.791715 -0.270626 -0.631511 -0.853097 -0.478238 -0.761469 -0.54275 -0.84936 -0.953778 -0.989385 -0.83589 -1.00335 -0.737309 0.923396 1.0818 -0.583212 0.917652 0.280019 -0.611974 0.793716 0.58263 0.907148 -0.34548 0.715352 -0.708448 -0.149061 -0.435938 -0.684758 0.742827 -0.691506 -0.270703 -0.717371 -0.927844 -0.952471 -0.803569 -0.984104 -0.578838 0.486202 -0.870344 0.855815 -0.161422 -0.892215 -0.302397 -0.5385 0.60546 -0.740379 0.348855 -0.884922 -0.586784 -0.706352 -0.866875 -0.649922 -0.869854 -0.719426 -0.917933 -0.963747 -0.989033 -0.946381 -1.00451 -0.882199 -0.879969 0.688617 -0.407088 -0.903041 -0.529476 -0.610948 -0.320678 -0.813342 0.230252 -0.888451 -0.632524 -0.779323 -0.900304 -0.752113 -0.898084 -0.817964 -0.915914 -0.968934 -0.991881 -0.962508 -1.00738 -0.883373 1.11321 0.995621 -0.623214 0.915802 0.869692 0.923597 0.909876 1.00475 -0.703356 1.01873 0.972779 -0.618034 0.876776 -0.613787 0.706845 -0.746873 -0.961056 -0.969986 -0.768514 -0.968264 0.812458 -1.07865 -1.11139 -0.815034 -0.912611 -0.839285 -1.02223 -1.03376 -1.05821 -1.03612 -1.03817 -1.02437 -0.903496 -1.04084 -1.09649 -1.04159 -1.01022 -1.03242 -1.03491 -1.00977 -1.07634 -0.896866 0.291862 -0.12722 0.345812 -0.807393 0.604719 -0.88899 -0.502783 -0.909798 -0.85194 0.106625 -0.871619 -0.748038 -0.850307 -0.981618 -1.00543 -0.901791 -1.00225 -0.762561 0.927092 0.919574 0.958344 0.949127 0.990053 -0.709023 0.988485 0.883216 -0.631595 0.898087 -0.606122 0.683545 -0.835708 -0.962437 -0.981505 -0.761793 -0.972201 0.910356 -0.750358 0.666259 -0.808772 0.344905 -0.986654 -0.66772 -0.853501 -0.945235 -0.363645 -0.939381 -1.07269 -0.94201 -0.974306 -1.00626 -0.978545 -1.00111 -0.976709 0.703231 -0.744883 0.508985 -0.907253 -0.487054 -0.723831 -0.905033 0.471467 -0.845825 -0.68776 -0.950378 -0.964291 -0.993601 -0.88865 -0.998423 -0.916466 -0.803511 0.0943918 -0.942273 -0.686134 -0.789737 -0.916726 -0.66903 -0.931265 -0.936066 -0.959303 -0.960008 -1.00282 -0.974801 -1.00333 -0.97208 0.881782 -0.90051 0.883815 -0.78156 -0.842224 0.667223 -0.906936 0.267689 -0.892879 -0.979214 -1.02027 -0.943787 -0.991169 -0.796242 -1.02957 -0.954321 -0.948207 -0.898335 -0.405771 -1.00757 -0.848454 -0.926014 -0.996302 -1.02261 -1.00249 -1.00298 -0.937605 1.01582 0.918196 0.819206 0.847272 0.858241 0.848055 -0.737891 -0.959954 -1.01013 -0.863011 -0.988419 0.832663 -0.946146 -0.948595 0.403119 -1.02644 -0.204804 -0.96575 -0.993403 -1.02982 -1.03003 -1.00584 -0.984096 -0.84255 0.658687 -0.919657 0.572709 -0.868375 -0.98226 -1.01755 -0.942352 -0.988163 -0.720814 0.941625 0.738281 0.695917 -0.899918 -0.955757 -0.98641 -0.837284 -1.00614 0.81384 -0.841067 -0.572949 -0.936202 -0.958255 -0.973715 -0.903767 -1.00961 -0.873746 0.71093 -0.860457 -0.969245 -1.00816 -0.959396 -0.994768 0.780589 -0.735828 -0.933619 -0.992257 -0.824504 -0.968237 -0.641618 -0.956979 -0.989001 -0.795337 -0.99172 0.935274 0.903256 0.945551 -0.928054 0.947666 0.98538 -0.909469 0.984465 -0.982778 0.872768 0.986951
label 14 12 0 13 3 8 6 1 17 2 4 18 11 5 19 24 21 20 25 15 7 9 16 23 22 10
probA -12.8383 -4.60605 -9.16944 -18.8397 -6.94835 -6.75447 -23.2282 -13.2197 -22.9345 -6.71108 -21.4755 -5.84232 -34.8346 -17.4546 -22.8551 -52.6307 -17.2252 -32.3831 -11.4313 -45.2343 -122.699 -150.141 -36.629 -266.177 -28.1206 -24.1987 -37.2832 -14.8971 -11.7797 -8.68321 -16.3785 -13.8909 -11.0457 -18.5668 -14.0599 -10.3446 -27.7411 -7.01676 -17.9569 -28.6753 -19.2842 -24.053 -9.84848 -26.2677 -77.5414 -91.265 -35.137 -282.354 -18.1475 -6.6475 -26.0642 -7.22091 -5.62655 -25.9871 -15.4388 -21.2882 -9.81164 -25.3028 -7.73939 -49.4424 -33.3339 -30.9923 -50.6973 -14.1992 -56.8218 -12.7398 -55.0533 -132.5 -166.522 -90.2108 -422.836 -33.7956 -24.2931 -7.35941 -8.15215 -28.6815 -27.1817 -25.6985 -9.80465 -28.0139 -7.99548 -51.4562 -25.8556 -32.2939 -62.2271 -21.6397 -51.5251 -16.0509 -58.5886 -112.514 -143.031 -75.6563 -333.771 -38.2633 -34.6429 -41.5933 -0.106699 -22.3947 -19.9573 -35.9057 -24.205 -25.5055 -28.4336 -33.8265 -32.2863 -27.2295 -24.4184 -0.159568 -23.6512 -26.4929 -231.32 -141.352 -42.9327 -152.375 -24.0045 -11.3326 -36.5294 -9.06676 -14.0408 -7.97098 -26.9859 -18.705 -72.0191 -52.1126 -40.9705 -43.459 -11.8107 -41.8725 -15.0838 -43.9233 -303.821 -201.912 -44.5048 -176.808 -30.3543 -26.5866 -5.83911 -8.99745 -7.15312 -16.9762 -7.88534 -38.455 -13.2904 -33.7847 -35.3288 -7.51035 -26.4937 -13.4688 -29.4834 -245.132 -146.64 -36.3914 -196.078 -18.9398 -29.2235 -25.1496 -34.9978 -24.7434 -21.1412 -18.4666 -23.6724 -20.3997 0.0465233 -29.0374 -1.80948 -20.7456 -44.0448 -178.666 -105.803 -30.2785 -172.735 -30.1353 -17.9855 -26.4009 -22.6224 -6.10123 -50.8196 -14.7823 -24.2797 -34.1898 -5.06084 -37.7816 -16.4819 -69.4498 -114.707 -144.701 -53.6442 -235.353 -36.4254 -43.652 -25.406 -8.67209 -36.5685 -18.7547 -26.4127 -43.7145 -20.5588 -38.2605 -12.471 -53.5511 -136.996 -118.986 -35.3016 -149.758 -31.1708 -33.2836 -9.67292 -70.0494 -32.2856 -42.4071 -67.4402 -18.0938 -79.743 -15.1676 -76.0076 -135.927 -223.245 -79.9037 -327.245 -46.2165 -18.6506 -42.6051 -17.4551 -16.7741 -36.8618 -21.922 -41.5931 -17.008 -40.2151 -126.591 -237.931 -47.3252 -173.14 -29.6085 -52.2124 -32.3128 -30.3527 -25.3095 -6.83719 -43.4212 -12.2518 -22.215 -184.718 -189.269 -46.5546 -136.397 -16.3234 -58.1378 -42.9606 0.762939 -38.334 0.00286926 -56.384 0.0214422 -79.5725 -94.4406 0.282968 -145.909 -41.0983 -30.841 -41.5265 -23.243 -43.5333 -3.20083 -37.9741 -178.928 -239.199 -64.2046 -177.908 -25.6965 -26.62 -24.4769 -21.7781 -24.2392 -34.9304 -161.73 -185.347 -35.7547 -146.641 -0.31073 -52.356 0.16172 -36.6649 -50.7141 -107.432 -109.828 -34.2257 -222.251 -52.4253 -39.7647 -11.725 -60.4397 -114.559 -117.748 -49.2146 -420.148 -32.2418 -23.8918 -32.9513 -97.5049 -155.745 -39.2997 -138.647 -21.753 -31.6324 -89.1307 -166.284 -39.9025 -130.431 -26.3011 -92.4728 -95.3301 -1.06531 -219.92 -59.7136 0.695311 -82.5778 0.638376 -101.962 -110.716 0.936856 -107.157 -153.405 -43.587 -188.593
probB 7.67069 0.446178 -4.30585 15.1559 -1.30279 2.26609 18.7688 6.52573 18.4445 -0.871924 16.4774 0.254948 30.2885 10.4807 18.5396 47.9155 12.7781 27.0301 6.08262 40.229 119.011 146.061 31.1961 262.485 22.1046 -19.8544 -32.8462 10.0232 -5.45649 -1.55408 11.5113 -7.61069 -4.61552 -14.331 8.71595 -3.5678 22.9773 3.5401 12.4719 23.4805 -11.7136 19.7788 3.94576 21.77 73.2691 87.6111 30.9503 279.005 12.7786 -3.18144 22.6623 -0.928932 1.95846 21.9495 9.95558 16.7595 -5.631 21.3837 2.30326 45.8728 27.7509 26.4485 46.7869 11.1127 53.1972 8.28846 51.4806 128.222 162.689 86.6447 419.462 30.0151 20.4071 -0.452443 4.2286 24.7275 21.5025 20.6963 4.41989 24.0739 2.20724 47.4869 21.0159 28.1542 57.766 17.0567 47.686 11.7834 55.2417 108.409 139.723 72.0531 331.282 34.0465 -29.4181 -37.7998 -0.0125587 -17.7783 -15.6608 -31.5903 -19.5274 -20.3453 23.6546 -28.6619 -26.8985 20.6242 -20.1886 -0.0211056 -18.2784 22.3308 227.849 137.619 35.9219 148.617 -19.3161 6.545 31.4838 5.06505 8.71185 0.920036 22.3076 16.8658 68.499 48.9889 36.7386 37.7237 5.51767 38.1002 9.43003 39.6457 300.565 198.06 39.8072 171.961 25.4918 22.5711 0.308202 3.24029 -3.26246 14.4638 -1.44933 35.3184 9.8532 32.2307 30.4889 -0.060222 23.8684 8.64239 25.4514 241.396 144.39 32.5273 192.382 14.4976 -24.5688 -20.504 -31.0775 -21.1735 -16.7006 15.198 -19.8503 -16.0079 -0.123213 -25.0209 1.03866 -16.2462 40.4174 174.762 102.862 25.0542 168.92 -26.2909 13.7913 -22.9798 17.5273 -1.89235 48.8572 11.2974 20.3044 30.7671 1.25031 34.2244 12.6559 64.4646 110.503 141.662 50.1832 231.098 32.7269 -38.8817 19.922 -3.47843 32.9749 12.3246 20.5431 38.9543 -14.021 32.4323 6.0859 49.4581 132.726 115.005 30.3229 145.998 26.488 28.9436 4.61524 67.2337 28.3248 37.9743 63.4861 13.5159 76.5879 11.7832 72.43 131.492 219.848 76.5642 323.849 43.0409 -14.1067 38.6724 -13.7957 13.968 31.7646 -17.0636 37.6523 -9.53379 35.9546 123.623 235.136 43.3507 169.184 22.8208 49.0249 29.7001 26.4163 19.9392 0.807453 39.37 6.25162 18.3411 181.096 185.267 41.4947 131.848 12.2169 -55.8219 -39.4479 0.333084 -34.1692 0.163581 -53.4036 -0.0214799 76.7798 92.2743 -0.21053 141.98 -36.8684 27.6163 36.6159 -14.9865 41.2638 -0.72005 34.2381 175.879 235.998 60.4873 174.099 21.9601 22.1584 -19.4472 19.5972 -19.2494 30.0453 158.337 183.033 32.4957 142.261 -0.0665915 -50.059 0.043183 -30.2364 46.2569 103.691 106.104 28.5871 219.287 -46.354 35.2227 6.19851 57.2557 110.463 113.844 44.1966 417.515 27.696 -19.9417 28.9885 94.0876 152.529 36.5872 135.345 -18.6725 26.4509 85.3663 163.104 35.1654 126.52 20.8425 89.2234 92.1805 0.615226 216.327 -57.5923 0.543656 -79.0926 -0.329173 -98.4792 -107.35 -0.602353 -103.92 149.148 -38.8646 -184.886
nr_sv 303 133 281 371 74 342 197 73 185 154 320 105 200 57 120 87 66 175 67 126 56 13 15 51 12 84
SV
0 0.1 0.1 0 0 0 0 0 0.1 0.1 0 0 0 0 0 0 0 0 0 0 0 0 0 0 0 26:1 27:1 28:1 34:1 35:1 36:1 37:1 38:1 42:1 46:1 47:1 49:1 50:1 55:1 56:1 57:1 64:1 65:1 72:1 73:1 80:1 81:1 87:1 88:1 89:1 93:1 94:1 95:1 97:1 98:1 99:1 100:1 101:1 
0 0.1 0.1 0 0 0 0 0 0.1 0.1 0 0 0 0 0 0 0 0 0 0 0 0 0 0 0 35:1 36:1 37:1 38:1 42:1 43:1 44:1 46:1 47:1 48:1 49:1 50:1 56:1 57:1 64:1 65:1 72:1 73:1 80:1 81:1 87:1 88:1 89:1 90:1 91:1 92:1 93:1 94:1 
0.1 0.1 0.1 0 0.1 0 0 0 0.1 0.1 0 0 0 0 0 0 0.1 0 0 0 0 0 0 0 0 34:1 35:1 41:1 42:1 43:1 44:1 45:1 46:1 47:1 49:1 55:1 56:1 57:1 64:1 65:1 72:1 73:1 80:1 81:1 87:1 88:1 89:1 90:1 91:1 92:1 93:1 94:1 95:1 
0.1 0.1 0.1 0 0.1 0.1 0 0.1 0.1 0.1 0.03217287455242313 0.1 0 0.1 0 0 0.1 0 0 0 0 0 0 0 0.007493434967864232 34:1 35:1 36:1 41:1 42:1 44:1 45:1 46:1 49:1 54:1 55:1 57:1 63:1 64:1 65:1 72:1 73:1 80:1 81:1 82:1 88:1 90:1 91:1 92:1 93:1 94:1 95:1 96:1 
0 0.1 0.1 0 0 0 0 0 0 0.1 0 0 0 0 0 0 0 0 0 0 0 0 0 0 0 29:1 30:1 31:1 36:1 37:1 39:1 40:1 43:1 44:1 48:1 50:1 51:1 56:1 57:1 58:1 64:1 65:1 72:1 73:1 79:1 80:1 81:1 86:1 87:1 89:1 92:1 93:1 94:1 97:1 98:1 99:1 100:1 
0 0 0.1 0 0 0 0 0 0 0.1 0 0 0 0 0 0 0.1 0.04496011841915512 0 0 0 0 0 0 0 25:1 26:1 27:1 28:1 29:1 30:1 31:1 33:1 34:1 35:1 39:1 40:1 41:1 42:1 48:1 49:1 56:1 57:1 64:1 65:1 72:1 73:1 80:1 81:1 88:1 89:1 90:1 91:1 93:1 94:1 95:1 96:1 99:1 100:1 101:1 
0 0.1 0.1 0 0 0.09376666666666697 0 0 0 0.1 0 0 0 0 0 0 0 0 0 0 0 0 0 0 0 13:1 19:1 20:1 21:1 22:1 27:1 30:1 31:1 34:1 35:1 39:1 40:1 42:1 48:1 50:1 56:1 57:1 58:1 64:1 65:1 72:1 73:1 79:1 80:1 81:1 87:1 89:1 90:1 95:1 97:1 98:1 102:1 107:1 108:1 109:1 110:1 115:1 116:1 
0.1 0.1 0.1 0.1 0.1 0.1 0 0.1 0.1 0.1 0 0.1 0.1 0.1 0.1 0.1 0.1 0.03821309425758401 0.1 0.01186503657850874 0 0 0.1 0.005043877799396666 0.1 36:1 37:1 38:1 39:1 40:1 42:1 43:1 47:1 48:1 49:1 50:1 56:1 57:1 63:1 64:1 65:1 71:1 73:1 77:1 78:1 81:1 84:1 85:1 89:1 90:1 91:1 92:1 
0 0 0.1 0 0.1 0.1 0 0.1 0 0.1 0.1 0.1 0 0 0 0 0.1 0 0 0 0 0 0 0.004359437159068006 0 19:1 20:1 21:1 22:1 25:1 26:1 27:1 30:1 31:1 33:1 39:1 40:1 41:1 48:1 49:1 56:1 57:1 64:1 65:1 72:1 73:1 80:1 81:1 88:1 90:1 95:1 96:1 98:1 99:1 102:1 103:1 107:1 108:1 109:1 110:1 
0 0.1 0.1 0.1 0.1 0.1 0.1 0.1 0.1 0.1 0.1 0.1 0.1 0.1 0.1 0.1 0.1 0.1 0.1 0.1 0 0 0.1 0 0.1 20:1 21:1 22:1 23:1 24:1 27:1 28:1 29:1 32:1 34:1 35:1 36:1 40:1 43:1 44:1 48:1 51:1 56:1 59:1 63:1 64:1 66:1 67:1 71:1 74:1 78:1 82:1 85:1 86:1 89:1 90:1 92:1 93:1 97:1 99:1 100:1 105:1 106:1 107:1 
0 0 0.1 0 0 0 0 0 0 0.1 0 0 0 0 0 0 0 0 0 0 0 0 0 0 0 21:1 22:1 23:1 27:1 28:1 29:1 30:1 31:1 32:1 35:1 40:1 42:1 43:1 48:1 50:1 56:1 57:1 58:1 64:1 65:1 72:1 73:1 80:1 81:1 87:1 88:1 89:1 94:1 95:1 97:1 100:1 101:1 102:1 105:1 106:1 107:1 108:1 
0 0.01690993577597897 0.1 0 0 0.1 0 0 0 0.1 0 0 0 0 0 0 0 0 0 0 0 0 0 0 0 20:1 21:1 22:1 27:1 30:1 34:1 35:1 36:1 37:1 38:1 39:1 41:1 42:1 46:1 47:1 48:1 49:1 56:1 57:1 64:1 65:1 72:1 73:1 80:1 81:1 88:1 89:1 95:1 96:1 97:1 102:1 103:1 105:1 106:1 107:1 108:1 109:1 110:1 
0.06482902339679783 0.1 0.1 0.1 0.1 0.1 0 0.1 0.1 0.1 0.1 0.1 0.1 0.1 0.1 0.1 0.1 0.1 0.1 0.05019377918058857 0 0.02970232096329269 0.1 0 0.1 19:1 20:1 21:1 23:1 26:1 27:1 29:1 31:1 34:1 37:1 38:1 39:1 41:1 42:1 46:1 47:1 48:1 49:1 55:1 57:1 63:1 65:1 71:1 73:1 78:1 79:1 81:1 85:1 89:1 92:1 97:1 98:1 99:1 100:1 106:1 
0.02923102425660502 0.1 0.1 0 0.1 0.1 0 0.1 0.1 0.1 0 0.1 0 0 0 0.03491259766398495 0.1 0.01079571811998086 0 0 0 0 0 0 0 29:1 33:1 34:1 35:1 37:1 38:1 41:1 46:1 47:1 49:1 55:1 56:1 57:1 64:1 65:1 72:1 73:1 80:1 81:1 82:1 88:1 90:1 91:1 92:1 96:1 100:1 101:1 102:1 103:1 104:1 
0 0.1 0.1 0 0 0 0 0 0.1 0.1 0 0 0 0 0 0 0.1 0 0 0 0 0 0 0 0 33:1 34:1 35:1 36:1 37:1 41:1 42:1 43:1 45:1 46:1 47:1 49:1 55:1 56:1 57:1 64:1 65:1 72:1 73:1 80:1 81:1 82:1 87:1 88:1 90:1 91:1 92:1 93:1 94:1 95:1 
0 0 0.1 0 0 0.1 0 0 0 0.1 0.02985525335155741 0 0 0 0 0 0 0 0.02898681154819175 0 0 0 0 0 0 17:1 18:1 19:1 20:1 21:1 22:1 25:1 26:1 27:1 28:1 29:1 30:1 31:1 33:1 34:1 37:1 39:1 41:1 47:1 48:1 49:1 56:1 57:1 64:1 65:1 72:1 73:1 80:1 81:1 88:1 89:1 90:1 95:1 96:1 98:1 99:1 101:1 102:1 103:1 107:1 108:1 109:1 
0 0.1 0.1 0 0 0 0 0 0.05997891766665354 0.1 0 0 0 0 0 0 0.1 0 0 0 0 0 0 0 0 27:1 28:1 29:1 30:1 31:1 32:1 34:1 35:1 40:1 41:1 42:1 48:1 49:1 50:1 56:1 57:1 64:1 65:1 72:1 73:1 79:1 80:1 81:1 86:1 87:1 89:1 90:1 94:1 98:1 99:1 100:1 101:1 102:1 
0 0.1 0.1 0 0.1 0.1 0 0.1 0.03427140555195862 0.1 0 0.1 0 0 0 0 0.1 0 0.1 0 0 0 0 0 0 2:1 3:1 4:1 5:1 6:1 10:1 12:1 14:1 15:1 19:1 20:1 23:1 24:1 26:1 27:1 32:1 34:1 40:1 41:1 42:1 48:1 49:1 56:1 57:1 64:1 65:1 72:1 73:1 80:1 81:1 88:1 89:1 95:1 96:1 97:1 103:1 105:1 110:1 111:1 113:1 117:1 118:1 121:1 122:1 123:1 124:1 125:1 
0 0.1 0.1 0 0 0.1 0 0 0 0.1 0.1 0 0 0 0.1 0 0 0.1 0 0 0 0 0 0 0 20:1 21:1 22:1 26:1 27:1 28:1 29:1 30:1 31:1 33:1 34:1 37:1 38:1 39:1 41:1 46:1 47:1 49:1 54:1 55:1 56:1 57:1 64:1 65:1 72:1 73:1 80:1 81:1 88:1 90:1 95:1 96:1 98:1 99:1 100:1 101:1 102:1 103:1 109:1 110:1 
0 0.1 0.1 0 0 0 0 0.1 0.1 0.1 0 0 0 0 0 0 0.1 0 0 0 0 0 0 0 0 28:1 29:1 30:1 31:1 34:1 35:1 36:1 39:1 40:1 41:1 42:1 48:1 49:1 56:1 57:1 64:1 65:1 72:1 73:1 79:1 81:1 86:1 87:1 89:1 92:1 93:1 94:1 97:1 98:1 99:1 
0 0 0.1 0 0 0 0 0 0 0.1 0.01903328934098035 0 0 0 0 0 0 0 0 0 0 0 0 0 0 21:1 22:1 26:1 27:1 28:1 29:1 30:1 31:1 32:1 33:1 34:1 40:1 41:1 42:1 43:1 48:1 49:1 51:1 56:1 57:1 64:1 65:1 72:1 73:1 80:1 81:1 87:1 88:1 89:1 94:1 95:1 97:1 98:1 101:1 102:1 106:1 107:1 108:1 109:1 
0.1 0.1 0.1 0.1 0.1 0.1 0.1 0.1 0 0.1 0.1 0.1 0.1 0.1 0.1 0.003839045248156481 0.1 0.1 0.1 0 0 0.03414634146341387 0.1 0 0.1 11:1 12:1 13:1 14:1 22:1 23:1 31:1 32:1 40:1 45:1 46:1 48:1 52:1 53:1 56:1 59:1 60:1 64:1 67:1 72:1 74:1 75:1 79:1 80:1 82:1 86:1 87:1 89:1 90:1 94:1 97:1 101:1 102:1 105:1 107:1 108:1 109:1 113:1 114:1 115:1 
0.1 0.1 0.1 0 0.1 0.1 0.1 0.1 0.1 0.1 0.02775403470625862 0.1 0 0 0 0 0 0 0.1 0 0 0 0 0 0 3:1 4:1 5:1 6:1 11:1 15:1 19:1 23:1 24:1 27:1 32:1 34:1 35:1 40:1 42:1 48:1 50:1 56:1 57:1 58:1 64:1 65:1 72:1 73:1 80:1 81:1 88:1 89:1 96:1 97:1 104:1 105:1 112:1 113:1 114:1 119:1 120:1 122:1 123:1 124:1 125:1 126:1 127:1 
0 0.1 0.1 0 0.1 0.1 0 0.001597172920883962 0 0.1 0 0.1 0 0 0 0 0.1 0 0 0 0 0 0 0 0 11:1 12:1 18:1 19:1 20:1 21:1 26:1 29:1 30:1 31:1 34:1 39:1 40:1 41:1 48:1 49:1 56:1 57:1 64:1 65:1 72:1 73:1 80:1 81:1 88:1 89:1 95:1 96:1 97:1 103:1 105:1 109:1 110:1 111:1 113:1 114:1 115:1 116:1 117:1 
0 0.1 0.1 0 0.1 0 0 0.1 0.1 0.1 0 0.1 0 0 0 0 0.1 0 0 0.1 0 0 0 0.02303724411927435 0 34:1 35:1 36:1 40:1 41:1 42:1 48:1 49:1 56:1 57:1 64:1 65:1 72:1 73:1 79:1 80:1 81:1 82:1 86:1 87:1 90:1 91:1 92:1 93:1 94:1 
0 0.1 0.1 0 0.1 0.1 0 0.1 0 0.1 0.05720091484869239 0.1 0 0.02887499999999976 0 0 0 0 0.02108753315649964 0 0 0 0 0 0 21:1 22:1 28:1 29:1 30:1 31:1 35:1 36:1 39:1 40:1 43:1 48:1 51:1 56:1 58:1 59:1 64:1 65:1 66:1 72:1 73:1 79:1 80:1 81:1 87:1 89:1 94:1 95:1 97:1 98:1 99:1 100:1 101:1 102:1 106:1 
0.1 0.1 0.1 0 0.1 0 0 0.03236671711531164 0.1 0.1 0 0.1 0 0 0 0 0.1 0 0 0.090398419681316 0 0 0 0 0.07843293523045161 26:1 27:1 33:1 34:1 41:1 46:1 47:1 49:1 55:1 56:1 57:1 64:1 65:1 72:1 73:1 80:1 81:1 87:1 88:1 89:1 90:1 94:1 95:1 99:1 100:1 101:1 102:1 
0 0.1 0.1 0.1 0 0.1 0 0 0 0.1 0.05842557472339358 0 0 0 0 0 0 0 0 0 0 0 0 0 0 11:1 18:1 19:1 20:1 26:1 28:1 29:1 30:1 34:1 38:1 39:1 41:1 42:1 47:1 49:1 55:1 56:1 57:1 64:1 65:1 72:1 73:1 80:1 81:1 88:1 89:1 95:1 96:1 97:1 101:1 102:1 103:1 105:1 108:1 109:1 113:1 114:1 115:1 
0 0.1 0.1 0.1 0.1 0.1 0 0.1 0 0.1 0 0.1 0.04212192160943751 0 0.00670186403174827 0 0 0 0.1 0 0 0 0 0 0 3:1 4:1 5:1 13:1 14:1 15:1 16:1 21:1 22:1 24:1 28:1 29:1 30:1 32:1 35:1 36:1 40:1 42:1 43:1 48:1 50:1 56:1 58:1 64:1 65:1 66:1 72:1 73:1 79:1 80:1 81:1 87:1 89:1 95:1 97:1 102:1 103:1 105:1 110:1 113:1 117:1 118:1 121:1 122:1 123:1 124:1 125:1 
0.04132453129894618 0.1 0.1 0 0 0 0 0.1 0.1 0.1 0 0 0 0 0 0 0 0 0 0 0 0 0 0 0 26:1 33:1 34:1 35:1 36:1 37:1 38:1 41:1 42:1 46:1 47:1 49:1 50:1 55:1 56:1 57:1 64:1 65:1 72:1 73:1 80:1 81:1 88:1 89:1 90:1 91:1 95:1 99:1 100:1 101:1 102:1 
0.1 0.1 0.1 0.1 0.1 0.1 0 0.1 0.1 0.1 0 0.1 0 0.1 0.1 0 0.1 0 0.1 0 0 0 0 0 0 35:1 36:1 37:1 38:1 39:1 43:1 46:1 47:1 48:1 50:1 56:1 57:1 63:1 64:1 65:1 71:1 73:1 78:1 79:1 81:1 85:1 86:1 89:1 90:1 91:1 92:1 
0 0.1 0.1 0 0.1 0.1 0 0.08765963179052999 0.1 0.1 0 0 0 0 0 0 0.1 0 0 0 0 0 0 0 0 33:1 34:1 35:1 36:1 37:1 38:1 41:1 46:1 47:1 49:1 55:1 56:1 57:1 64:1 65:1 72:1 73:1 80:1 81:1 82:1 88:1 90:1 91:1 92:1 93:1 94:1 95:1 96:1 
0.1 0.1 0.1 0 0.1 0.1 0 0.1 0.1 0.1 0.1 0 0 0 0 0.1 0.1 0 0.1 0 0 0 0.01464452353755498 0 0.1 35:1 36:1 37:1 38:1 39:1 40:1 41:1 42:1 43:1 48:1 49:1 50:1 51:1 56:1 58:1 64:1 66:1 71:1 72:1 73:1 74:1 79:1 81:1 82:1 86:1 87:1 90:1 91:1 92:1 93:1 94:1 
0 0.1 0.1 0 0.1 0.1 0 0.1 0.1 0.1 0 0.1 0 0.1 0 0 0 0 0.1 0 0 0.04154557848519252 0 0 0 28:1 29:1 30:1 31:1 35:1 36:1 39:1 40:1 42:1 43:1 44:1 45:1 48:1 50:1 53:1 56:1 57:1 58:1 64:1 65:1 71:1 72:1 73:1 78:1 79:1 81:1 85:1 86:1 89:1 91:1 92:1 93:1 97:1 98:1 99:1 
0.1 0.1 0.1 0 0.1 0.1 0 0.1 0 0.1 0 0.1 0 0 0 0 0 0 0.1 0 0 0 0 0 0 12:1 13:1 14:1 15:1 16:1 20:1 24:1 27:1 28:1 32:1 35:1 43:1 44:1 45:1 46:1 47:1 48:1 51:1 56:1 57:1 58:1 59:1 64:1 65:1 72:1 73:1 80:1 81:1 88:1 89:1 95:1 96:1 97:1 100:1 101:1 102:1 103:1 105:1 108:1 113:1 114:1 115:1 116:1 
0 0.1 0.1 0 0.1 0.1 0 0.1 0.03997972005016349 0.1 0 0.1 0 0.07112500000000024 0 0 0 0 0.1 0 0 0 0 0 0 19:1 20:1 21:1 22:1 23:1 27:1 31:1 35:1 36:1 39:1 40:1 43:1 44:1 48:1 50:1 51:1 56:1 58:1 64:1 65:1 66:1 72:1 73:1 80:1 81:1 87:1 89:1 94:1 95:1 97:1 100:1 101:1 102:1 105:1 106:1 107:1 108:1 
0 0.1 0.1 0 0 0 0 0 0.1 0.1 0 0 0 0 0 0 0 0 0 0 0 0 0 0 0 30:1 35:1 36:1 37:1 38:1 39:1 40:1 42:1 43:1 48:1 49:1 50:1 56:1 57:1 64:1 65:1 71:1 72:1 73:1 79:1 81:1 86:1 87:1 89:1 92:1 93:1 94:1 97:1 98:1 99:1 100:1 
0 0.1 0.1 0 0 0 0 0 0 0.1 0 0 0 0 0 0 0 0 0 0 0 0 0 0 0 30:1 31:1 36:1 37:1 38:1 39:1 40:1 42:1 43:1 48:1 49:1 50:1 56:1 57:1 64:1 65:1 72:1 73:1 79:1 80:1 81:1 86:1 87:1 89:1 93:1 94:1 97:1 98:1 99:1 100:1 101:1 
0.1 0.1 0.1 0.08032411606761933 0.1 0.1 0.1 0.1 0.1 0.1 0.1 0.1 0.01052388054168554 0.1 0.1 0.06508740233601507 0.1 0.1 0.1 0.1 0 0 0 0 0.1 18:1 19:1 26:1 29:1 34:1 37:1 38:1 41:1 42:1 46:1 47:1 49:1 55:1 57:1 63:1 64:1 65:1 72:1 73:1 80:1 81:1 82:1 88:1 90:1 91:1 96:1 99:1 100:1 104:1 108:1 109:1 110:1 111:1 112:1 
0.1 0.1 0.1 0.06267061785699041 0.1 0.1 0.01991555242786876 0.1 0 0.1 0.1 0.1 0 0.1 0 0 0.1 0.1 0.1 0 0 0 0.08002432593085324 0 0 30:1 38:1 39:1 44:1 45:1 47:1 48:1 51:1 52:1 56:1 58:1 59:1 64:1 65:1 66:1 72:1 73:1 80:1 81:1 88:1 89:1 90:1 95:1 96:1 98:1 99:1 100:1 101:1 102:1 103:1 
0 0.1 0.1 0.1 0.1 0.1 0 0 0.005632073595107793 0.1 0 0.1 0 0.1 0.03872575060503891 0 0.1 0.03214876059558842 0 0 0 0 0 0 0 26:1 27:1 28:1 36:1 37:1 38:1 39:1 47:1 48:1 56:1 57:1 64:1 65:1 72:1 73:1 79:1 80:1 81:1 85:1 86:1 87:1 89:1 90:1 91:1 92:1 93:1 98:1 99:1 
0 0.1 0.1 0 0.1 0.1 0 0.1 0.1 0.1 0 0.1 0.1 0.1 0 0.1 0.1 0 0.1 0.01002224172631936 0 0 0 0 0.05703125000000102 20:1 21:1 22:1 26:1 27:1 28:1 30:1 31:1 32:1 33:1 40:1 41:1 48:1 49:1 56:1 57:1 64:1 65:1 72:1 73:1 79:1 81:1 86:1 89:1 93:1 97:1 98:1 99:1 100:1 106:1 107:1 
0.1 0.1 0.1 0 0.1 0.1 0 0 0.1 0.1 0 0.1 0 0.1 0 0 0.1 0 0 0 0 0 0 0 0 27:1 28:1 29:1 37:1 38:1 41:1 46:1 47:1 49:1 55:1 56:1 57:1 64:1 65:1 72:1 73:1 80:1 81:1 87:1 88:1 90:1 91:1 95:1 99:1 100:1 101:1 102:1 103:1 
0.1 0.1 0.1 0.05278302083163747 0.1 0.1 0.1 0.1 0.1 0.1 0.1 0.1 0 0 0 0.02605708954456597 0.1 0 0 0 0 0 0 0 0 12:1 13:1 21:1 22:1 25:1 26:1 30:1 33:1 38:1 39:1 41:1 47:1 49:1 55:1 56:1 57:1 64:1 65:1 72:1 73:1 80:1 81:1 88:1 89:1 90:1 96:1 98:1 103:1 104:1 106:1 107:1 111:1 116:1 117:1 118:1 119:1 
0.1 0.1 0.1 0.1 0.1 0.1 0.1 0.1 0.1 0.1 0.1 0.1 0.1 0.1 0.1 0.1 0.1 0 0.1 0.1 0.06061731473659939 0.003779925890580426 0.05663233755926748 0 0.1 2:1 3:1 4:1 5:1 6:1 9:1 10:1 14:1 15:1 17:1 23:1 25:1 31:1 33:1 39:1 41:1 47:1 49:1 55:1 57:1 63:1 65:1 71:1 72:1 73:1 80:1 81:1 88:1 89:1 96:1 97:1 98:1 103:1 104:1 107:1 111:1 116:1 118:1 119:1 125:1 126:1 
0 0.1 0.1 0 0.1 0.1 0.1 0.1 0.02279313765190356 0.1 0 0.1 0 0 0.1 0 0.1 0 0.1 0 0 0 0 0 0.06655131453911534 9:1 10:1 11:1 19:1 20:1 21:1 29:1 30:1 33:1 34:1 35:1 38:1 39:1 41:1 47:1 49:1 55:1 56:1 57:1 64:1 65:1 72:1 73:1 80:1 81:1 82:1 88:1 90:1 96:1 98:1 99:1 104:1 107:1 108:1 109:1 112:1 117:1 118:1 119:1 120:1 
0.1 0.1 0.1 0 0.1 0 0.1 0.1 0.1 0.1 0.04618830658991151 0.1 0 0.1 0 0.1 0.1 0.1 0 0.1 0 0 0 0.1 0.1 33:1 34:1 35:1 36:1 40:1 41:1 48:1 49:1 56:1 57:1 64:1 65:1 72:1 73:1 74:1 80:1 82:1 83:1 87:1 88:1 91:1 92:1 93:1 94:1 95:1 
0.1 0.1 0.1 0 0.1 0.1 0.1 0.1 0.1 0.1 0.1 0.1 0 0.1 0 0.1 0.1 0 0.1 0.1 0 0 0 0 0.1 24:1 32:1 40:1 48:1 50:1 51:1 52:1 56:1 58:1 64:1 65:1 66:1 72:1 73:1 80:1 81:1 88:1 89:1 96:1 97:1 103:1 104:1 106:1 107:1 108:1 109:1 110:1 111:1 
0 0 0.1 0 0 0 0 0 0 0.1 0 0 0 0 0 0 0.1 0 0 0 0 0 0 0 0 19:1 20:1 21:1 22:1 26:1 27:1 30:1 31:1 32:1 33:1 34:1 40:1 41:1 48:1 49:1 56:1 57:1 64:1 65:1 72:1 73:1 80:1 81:1 87:1 88:1 89:1 94:1 95:1 97:1 98:1 99:1 100:1 101:1 102:1 107:1 108:1 
0 0.1 0.1 0 0 0 0 0 0 0.1 0 0 0 0 0 0 0.09798136645962632 0 0 0 0 0 0 0 0 34:1 35:1 36:1 37:1 38:1 39:1 40:1 41:1 42:1 48:1 49:1 56:1 57:1 64:1 65:1 72:1 73:1 80:1 81:1 86:1 87:1 88:1 89:1 90:1 91:1 92:1 93:1 94:1 
0.1 0.1 0.1 0 0.1 0.1 0 0.1 0 0.1 0.1 0 0 0 0 0 0 0 0.1 0 0 0 0 0 0 27:1 28:1 29:1 30:1 31:1 35:1 39:1 40:1 42:1 43:1 48:1 50:1 51:1 56:1 58:1 64:1 65:1 66:1 72:1 73:1 80:1 81:1 88:1 89:1 90:1 91:1 95:1 96:1 99:1 100:1 101:1 102:1 103:1 
0 0.1 0.1 0 0 0 0 0 0 0.1 0 0 0 0 0 0 0 0 0 0 0 0 0 0 0 27:1 34:1 35:1 36:1 37:1 38:1 39:1 42:1 43:1 47:1 48:1 49:1 50:1 56:1 57:1 64:1 65:1 72:1 73:1 79:1 80:1 81:1 86:1 87:1 89:1 93:1 94:1 97:1 98:1 99:1 100:1 101:1 
0 0 0.1 0 0 0 0 0 0 0.1 0 0 0 0 0 0 0 0 0 0 0 0 0 0 0 28:1 29:1 30:1 31:1 34:1 35:1 37:1 39:1 40:1 42:1 48:1 50:1 56:1 57:1 58:1 64:1 65:1 72:1 73:1 80:1 81:1 87:1 88:1 89:1 93:1 94:1 95:1 97:1 98:1 99:1 100:1 101:1 
0 0.1 0.1 0 0.1 0.1 0 0.1 0.1 0.1 0.1 0.1 0 0.1 0 0 0 0 0 0 0 0 0 0 0 19:1 20:1 21:1 22:1 27:1 28:1 29:1 30:1 31:1 32:1 34:1 35:1 40:1 42:1 48:1 50:1 56:1 57:1 58:1 64:1 65:1 71:1 72:1 73:1 78:1 79:1 81:1 86:1 89:1 93:1 94:1 97:1 100:1 101:1 105:1 106:1 107:1 108:1 
0 0 0.1 0 0 0 0 0 0 0.1 0 0 0 0 0 0 0 0 0 0 0 0 0 0 0 27:1 28:1 29:1 30:1 31:1 34:1 35:1 39:1 40:1 41:1 42:1 43:1 48:1 49:1 56:1 57:1 64:1 65:1 72:1 73:1 80:1 81:1 87:1 88:1 89:1 90:1 94:1 95:1 98:1 99:1 100:1 101:1 102:1 
0.064615421047651 0.1 0.1 0 0.1 0.1 0.1 0.1 0.1 0.1 0 0.1 0 0 0.1 0 0 0 0.09715525061886825 0 0 0 0 0 0 1:1 2:1 3:1 11:1 19:1 20:1 28:1 29:1 35:1 36:1 37:1 38:1 42:1 43:1 46:1 47:1 50:1 55:1 56:1 57:1 58:1 64:1 65:1 72:1 73:1 80:1 81:1 88:1 89:1 96:1 97:1 104:1 105:1 106:1 112:1 114:1 120:1 122:1 123:1 124:1 125:1 126:1 127:1 
0 0.1 0.1 0 0.07931149825783435 0 0 0 0 0.1 0 0 0 0 0 0 0.1 0 0 0 0 0 0 0 0 34:1 35:1 36:1 37:1 38:1 41:1 42:1 46:1 47:1 49:1 55:1 56:1 57:1 64:1 65:1 72:1 73:1 80:1 81:1 82:1 87:1 88:1 90:1 91:1 92:1 93:1 94:1 95:1 
0.1 0.1 0.1 0 0.1 0.1 0 0.1 0.1 0.1 0 0.1 0 0.1 0 0.1 0.1 0 0.1 0.1 0 0 0 0 0.1 36:1 37:1 38:1 39:1 40:1 48:1 50:1 51:1 56:1 58:1 64:1 65:1 66:1 71:1 72:1 73:1 78:1 79:1 81:1 85:1 86:1 89:1 90:1 91:1 92:1 93:1 
0.1 0.1 0.1 0 0.1 0.1 0.0839031667839555 0.1 0.1 0.1 0.1 0.1 0.1 0.1 0.1 0 0.1 0 0.1 0 0 0 0.1 0 0.1 43:1 44:1 45:1 46:1 47:1 49:1 50:1 51:1 52:1 55:1 56:1 57:1 64:1 65:1 72:1 73:1 74:1 78:1 79:1 80:1 82:1 83:1 84:1 85:1 86:1 
0.1 0.1 0.1 0 0.1 0.1 0.1 0.1 0.1 0.1 0 0.1 0.1 0.1 0.04173005768993868 0 0.1 0.1 0.1 0.02945083908519887 0 0 0.1 0 0.1 36:1 37:1 38:1 39:1 40:1 43:1 44:1 48:1 51:1 52:1 56:1 58:1 59:1 64:1 65:1 66:1 71:1 72:1 73:1 78:1 79:1 81:1 83:1 84:1 85:1 86:1 89:1 90:1 91:1 
0.1 0.1 0.1 0 0.1 0.1 0 0.1 0.1 0.1 0.1 0.1 0 0.1 0.1 0 0.1 0.1 0 0 0 0 0 0 0 35:1 36:1 37:1 41:1 42:1 45:1 46:1 49:1 54:1 55:1 57:1 63:1 64:1 65:1 72:1 73:1 80:1 81:1 88:1 90:1 91:1 92:1 93:1 94:1 95:1 96:1 
0 0 0.1 0 0 0 0 0 0 0.1 0 0 0 0 0 0 0.1 0 0 0 0 0 0 0 0 28:1 29:1 33:1 34:1 35:1 36:1 37:1 38:1 39:1 40:1 41:1 47:1 48:1 49:1 56:1 57:1 64:1 65:1 72:1 73:1 80:1 81:1 88:1 89:1 90:1 95:1 96:1 98:1 99:1 100:1 101:1 102:1 103:1 
0 0.1 0.1 0 0 0.0370000000000039 0 0 0 0.1 0 0 0 0 0 0 0 0 0 0 0 0 0 0 0 13:1 21:1 27:1 28:1 29:1 35:1 36:1 37:1 38:1 39:1 42:1 43:1 47:1 48:1 50:1 56:1 57:1 58:1 64:1 65:1 72:1 73:1 80:1 81:1 87:1 88:1 89:1 94:1 95:1 97:1 101:1 102:1 105:1 106:1 107:1 108:1 109:1 114:1 
0.1 0.1 0.1 0.1 0.1 0.1 0.1 0.1 0.1 0.1 0.1 0.1 0 0.1 0.1 0 0.1 0 0.1 0.1 0 0 0.02553845821081447 0 0.1 11:1 12:1 18:1 19:1 20:1 21:1 25:1 26:1 29:1 30:1 33:1 38:1 41:1 46:1 47:1 49:1 55:1 57:1 64:1 65:1 72:1 73:1 80:1 81:1 88:1 89:1 96:1 97:1 98:1 104:1 106:1 111:1 112:1 114:1 115:1 116:1 117:1 118:1 119:1 
0 0.1 0.1 0 0.1 0.1 0 0.1 0 0.1 0 0.1 0 0 0 0.06797387381984495 0.1 0 0 0 0 0 0 0 0 33:1 34:1 35:1 36:1 37:1 38:1 41:1 46:1 47:1 49:1 55:1 56:1 57:1 64:1 65:1 72:1 73:1 79:1 80:1 81:1 82:1 85:1 86:1 87:1 90:1 91:1 92:1 93:1 
0 0.1 0.1 0.04693613226645951 0.1 0.1 0 0.1 0.1 0.1 0.1 0.1 0.1 0.1 0 0.1 0.1 0 0.1 0 0 0 0 0 0 20:1 21:1 22:1 23:1 28:1 31:1 32:1 34:1 35:1 36:1 40:1 41:1 42:1 48:1 49:1 56:1 57:1 63:1 64:1 65:1 71:1 73:1 78:1 79:1 81:1 86:1 89:1 90:1 93:1 94:1 98:1 99:1 100:1 101:1 107:1 108:1 
0.1 0.1 0.1 0.1 0.1 0.1 0.1 0.1 0 0.1 0.1 0.1 0.1 0.1 0.1 0.1 0.1 0.1 0.1 0.1 0 0 0.1 0 0.1 15:1 23:1 31:1 39:1 40:1 44:1 45:1 46:1 48:1 52:1 56:1 60:1 64:1 67:1 68:1 72:1 74:1 75:1 79:1 80:1 81:1 82:1 87:1 89:1 94:1 95:1 97:1 101:1 102:1 105:1 106:1 108:1 109:1 114:1 115:1 116:1 
0 0.1 0.1 0 0.1 0.1 0 0 0 0.1 0 0.1 0 0 0 0 0 0 0.1 0 0 0 0 0 0 2:1 3:1 4:1 5:1 6:1 12:1 13:1 14:1 20:1 22:1 23:1 27:1 28:1 31:1 35:1 39:1 40:1 42:1 43:1 48:1 50:1 56:1 57:1 58:1 64:1 65:1 72:1 73:1 80:1 81:1 87:1 88:1 89:1 95:1 97:1 103:1 105:1 110:1 111:1 113:1 117:1 118:1 121:1 122:1 123:1 124:1 125:1 
0 0.1 0.1 0 0 0 0 0 0.1 0.1 0 0 0 0 0 0 0 0 0 0 0 0 0 0 0 27:1 28:1 29:1 30:1 31:1 32:1 35:1 36:1 40:1 42:1 43:1 48:1 49:1 50:1 56:1 57:1 64:1 65:1 72:1 73:1 80:1 81:1 88:1 89:1 90:1 95:1 96:1 98:1 99:1 100:1 101:1 102:1 103:1 
0.1 0.1 0.1 0.1 0.1 0.1 0 0.1 0.1 0.1 0 0.1 0 0.05400000000000177 0 0 0.1 0 0 0 0.01417329929024469 0 0 0 0 4:1 5:1 13:1 21:1 22:1 30:1 34:1 38:1 39:1 41:1 42:1 47:1 48:1 49:1 56:1 57:1 64:1 65:1 72:1 73:1 80:1 81:1 88:1 89:1 96:1 97:1 104:1 106:1 112:1 114:1 115:1 116:1 119:1 120:1 124:1 125:1 126:1 127:1 
0 0 0.1 0 0 0 0 0.1 0 0.1 0 0 0 0 0 0 0 0 0 0 0 0 0 0 0 18:1 19:1 20:1 21:1 22:1 26:1 27:1 30:1 31:1 34:1 39:1 40:1 41:1 42:1 48:1 49:1 56:1 57:1 64:1 65:1 72:1 73:1 80:1 81:1 88:1 89:1 95:1 97:1 101:1 102:1 103:1 105:1 106:1 107:1 108:1 109:1 
0.1 0.1 0.1 0 0.1 0 0 0.1 0 0.1 0 0.1 0 0 0 0 0 0 0.1 0 0 0 0 0 0 36:1 37:1 38:1 39:1 40:1 43:1 44:1 48:1 50:1 51:1 56:1 58:1 64:1 65:1 66:1 72:1 73:1 79:1 80:1 81:1 85:1 86:1 87:1 89:1 90:1 91:1 92:1 93:1 98:1 99:1 
0 0.1 0.1 0 0 0 0 0.1 0.1 0.1 0 0 0 0 0 0 0 0 0 0 0 0 0 0 0 27:1 29:1 30:1 31:1 32:1 35:1 36:1 37:1 40:1 42:1 43:1 48:1 49:1 50:1 51:1 56:1 57:1 64:1 65:1 71:1 72:1 73:1 79:1 81:1 85:1 86:1 87:1 89:1 92:1 93:1 97:1 98:1 99:1 
0.1 0.1 0.1 0 0.1 0 0 0.1 0 0.1 0 0.1 0 0 0 0 0 0 0 0 0 0 0 0 0 31:1 36:1 37:1 38:1 39:1 40:1 43:1 44:1 48:1 50:1 51:1 56:1 58:1 64:1 65:1 66:1 72:1 73:1 79:1 80:1 81:1 86:1 87:1 89:1 93:1 94:1 97:1 98:1 99:1 100:1 101:1 
0.1 0.1 0.1 0.1 0.1 0.1 0.1 0.1 0.1 0.1 0.1 0.1 0.1 0.1 0.1 0.1 0.1 0.1 0.1 0.1 0.06089186838799503 0 0.1 0.1 0.1 49:1 50:1 51:1 57:1 58:1 59:1 60:1 61:1 65:1 67:1 69:1 70:1 71:1 72:1 73:1 74:1 75:1 
0 0.1 0.1 0 0 0.1 0 0 0 0.1 0 0 0 0 0 0 0 0 0 0 0 0 0 0 0 15:1 22:1 23:1 24:1 30:1 32:1 35:1 36:1 37:1 38:1 40:1 42:1 43:1 44:1 45:1 46:1 48:1 49:1 50:1 56:1 57:1 64:1 65:1 72:1 73:1 80:1 81:1 87:1 88:1 89:1 95:1 97:1 102:1 103:1 105:1 109:1 110:1 113:1 114:1 115:1 116:1 117:1 
0 0.1 0.1 0 0.1 0.1 0 0.07953282578274563 0 0.1 0 0.01414821322891078 0 0 0 0 0 0 0.04163636363636442 0 0 0 0 0 0 5:1 6:1 12:1 13:1 19:1 20:1 21:1 22:1 27:1 30:1 31:1 34:1 35:1 39:1 40:1 42:1 48:1 49:1 50:1 56:1 57:1 64:1 65:1 72:1 73:1 80:1 81:1 88:1 89:1 96:1 97:1 104:1 105:1 112:1 113:1 119:1 120:1 121:1 122:1 123:1 124:1 125:1 126:1 127:1 
0.1 0.1 0.1 0.1 0.1 0.1 0.1 0.1 0 0.1 0.1 0.1 0.1 0.1 0.1 0.1 0.1 0.1 0.1 0.1 0.06971069724075361 0.09643978507535358 0.1 0 0.1 33:1 34:1 35:1 36:1 37:1 45:1 46:1 47:1 51:1 55:1 56:1 59:1 64:1 67:1 72:1 75:1 80:1 83:1 84:1 86:1 87:1 88:1 92:1 93:1 94:1 
0 0 0.1 0 0.1 0.1 0 0 0.02582035771661427 0.1 0 0.1 0 0 0 0 0 0 0.1 0 0 0 0 0 0 3:1 4:1 5:1 13:1 14:1 15:1 20:1 21:1 23:1 27:1 28:1 32:1 34:1 35:1 40:1 42:1 48:1 50:1 56:1 57:1 58:1 64:1 65:1 72:1 73:1 79:1 80:1 81:1 87:1 89:1 94:1 95:1 97:1 102:1 105:1 109:1 110:1 113:1 116:1 117:1 121:1 122:1 123:1 124:1 
0.1 0.1 0.1 0.1 0.1 0.1 0.1 0.1 0.1 0.1 0.1 0.1 0.1 0.1 0.1 0.1 0.1 0.1 0.1 0.1 0 0 0.1 0 0.1 43:1 44:1 45:1 46:1 47:1 48:1 50:1 51:1 54:1 56:1 57:1 64:1 65:1 70:1 71:1 72:1 73:1 74:1 76:1 77:1 78:1 82:1 83:1 84:1 
0.1 0.1 0.1 0.1 0.1 0.1 0.1 0.1 0.1 0.1 0.1 0.1 0.1 0.1 0.1 0.1 0.1 0.1 0.1 0.1 0.05940041971827818 0.08748082864298171 0.1 0 0.1 4:1 5:1 6:1 7:1 8:1 11:1 12:1 19:1 24:1 27:1 32:1 34:1 35:1 39:1 40:1 42:1 47:1 50:1 55:1 58:1 62:1 66:1 70:1 74:1 77:1 78:1 82:1 85:1 89:1 90:1 92:1 93:1 97:1 100:1 105:1 107:1 108:1 113:1 115:1 121:1 122:1 123:1 
0.01051198257080555 0.1 0.1 0.1 0.1 0.1 0.1 0.1 0 0.1 0.1 0.1 0.1 0.1 0.1 0 0 0 0.1 0 0 0 0 0 0.1 3:1 4:1 5:1 6:1 7:1 12:1 13:1 15:1 20:1 23:1 24:1 27:1 28:1 32:1 35:1 40:1 43:1 48:1 51:1 56:1 58:1 59:1 64:1 66:1 72:1 74:1 79:1 80:1 81:1 82:1 87:1 89:1 95:1 97:1 102:1 103:1 105:1 109:1 110:1 113:1 114:1 116:1 117:1 122:1 123:1 124:1 
0 0 0.1 0 0.1 0.1 0 0.006784151873160416 0 0.1 0 0.06042230489402227 0 0 0 0 0 0 0.1 0 0 0 0 0 0 4:1 5:1 6:1 11:1 12:1 13:1 14:1 15:1 18:1 19:1 22:1 23:1 26:1 31:1 32:1 34:1 40:1 41:1 42:1 48:1 49:1 56:1 57:1 64:1 65:1 72:1 73:1 80:1 81:1 88:1 89:1 95:1 96:1 97:1 103:1 105:1 106:1 110:1 111:1 114:1 117:1 118:1 122:1 123:1 124:1 125:1 
0 0 0.1 0 0 0 0 0 0 0.1 0 0 0 0 0 0 0.1 0 0 0 0 0 0 0 0 27:1 28:1 29:1 30:1 31:1 34:1 35:1 39:1 40:1 41:1 42:1 48:1 49:1 56:1 57:1 64:1 65:1 72:1 73:1 79:1 80:1 81:1 86:1 87:1 89:1 93:1 94:1 97:1 98:1 99:1 100:1 101:1 
0 0.1 0.1 0 0 0.1 0 0.1 0 0.1 0.1 0 0 0 0 0 0 0 0.1 0 0 0 0 0 0 20:1 26:1 27:1 28:1 29:1 30:1 31:1 33:1 34:1 36:1 37:1 39:1 40:1 41:1 43:1 44:1 48:1 50:1 51:1 56:1 58:1 64:1 66:1 72:1 73:1 74:1 79:1 80:1 81:1 86:1 87:1 89:1 94:1 97:1 98:1 100:1 101:1 102:1 106:1 107:1 108:1 
0 0 0.1 0 0 0 0 0 0 0.08181818181817878 0 0 0 0 0 0 0 0 0 0 0 0 0 0 0 21:1 27:1 28:1 29:1 30:1 31:1 34:1 35:1 36:1 39:1 40:1 42:1 48:1 49:1 50:1 56:1 57:1 64:1 65:1 72:1 73:1 79:1 80:1 81:1 86:1 87:1 89:1 93:1 94:1 97:1 100:1 101:1 105:1 106:1 107:1 108:1 
0 0.1 0.1 0 0 0 0 0 0.1 0.1 0 0 0 0 0 0 0 0 0 0 0 0 0 0 0 34:1 35:1 36:1 37:1 38:1 39:1 40:1 42:1 43:1 48:1 49:1 50:1 56:1 57:1 64:1 65:1 72:1 73:1 80:1 81:1 87:1 88:1 89:1 90:1 91:1 92:1 93:1 94:1 95:1 
0 0.1 0.1 0 0 0 0 0 0 0.1 0 0 0 0 0 0 0.1 0 0 0 0 0 0 0 0 35:1 36:1 37:1 41:1 42:1 43:1 45:1 46:1 47:1 48:1 49:1 56:1 57:1 64:1 65:1 72:1 73:1 80:1 81:1 86:1 87:1 88:1 89:1 90:1 91:1 92:1 93:1 94:1 
0 0.1 0.1 0 0.1 0.1 0 0.1 0.1 0.1 0.1 0.1 0.1 0 0 0.1 0.1 0 0.1 0.07625354883419355 0 0 0 0 0.1 5:1 6:1 7:1 8:1 11:1 12:1 13:1 16:1 18:1 19:1 24:1 25:1 32:1 33:1 40:1 42:1 48:1 50:1 56:1 57:1 58:1 64:1 65:1 72:1 73:1 79:1 80:1 81:1 86:1 87:1 89:1 93:1 94:1 97:1 100:1 101:1 105:1 107:1 108:1 113:1 114:1 121:1 
0.1 0.1 0.1 0.1 0.1 0.1 0.1 0.1 0 0.1 0.1 0.1 0.09735305655720493 0.1 0.1 0 0 0.1 0.1 0 0.01201935781171254 0 0.1 0 0.02517141378250356 8:1 15:1 22:1 29:1 36:1 37:1 38:1 39:1 40:1 43:1 44:1 48:1 51:1 56:1 59:1 64:1 66:1 72:1 74:1 80:1 81:1 88:1 89:1 96:1 97:1 103:1 104:1 105:1 110:1 111:1 113:1 117:1 118:1 121:1 122:1 123:1 124:1 125:1 
0.1 0.1 0.1 0.1 0.1 0.1 0.1 0.1 0.1 0.1 0.1 0.1 0.1 0.1 0.1 0.1 0.1 0.1 0.1 0.1 0.01853027725144157 0 0.1 0.02275963858038986 0.1 35:1 43:1 51:1 59:1 65:1 66:1 67:1 68:1 69:1 70:1 71:1 72:1 73:1 80:1 81:1 87:1 88:1 89:1 90:1 91:1 92:1 93:1 94:1 95:1 
0.1 0.1 0.1 0.1 0.1 0.1 0.1 0.1 0.1 0.1 0.1 0.1 0.1 0.1 0.1 0.1 0.1 0.1 0.1 0.1 0.1 0.01115527724633794 0.1 0.08756575758913457 0.1 51:1 52:1 56:1 58:1 59:1 64:1 66:1 71:1 72:1 73:1 74:1 75:1 76:1 77:1 78:1 79:1 
0 0.1 0.1 0 0.1 0 0 0.05814985608187633 0 0.1 0 0 0 0 0 0.1 0.1 0 0 0.02665689569705354 0 0 0 0 0 26:1 29:1 30:1 31:1 32:1 33:1 34:1 40:1 41:1 48:1 49:1 56:1 57:1 64:1 65:1 72:1 73:1 79:1 80:1 81:1 86:1 87:1 89:1 93:1 94:1 97:1 98:1 99:1 100:1 101:1 
0 0.1 0.1 0 0 0 0 0 0 0.1 0 0 0 0 0 0 0 0 0 0 0 0 0 0 0 26:1 27:1 28:1 29:1 30:1 34:1 35:1 38:1 39:1 41:1 42:1 47:1 48:1 49:1 56:1 57:1 64:1 65:1 72:1 73:1 80:1 81:1 88:1 89:1 90:1 95:1 96:1 98:1 99:1 100:1 101:1 102:1 103:1 
0 0 0.1 0 0 0 0 0 0 0.1 0 0 0 0 0 0 0.1 0 0 0 0 0 0 0 0 27:1 28:1 29:1 30:1 33:1 34:1 35:1 38:1 39:1 40:1 41:1 48:1 49:1 56:1 57:1 64:1 65:1 72:1 73:1 80:1 81:1 87:1 88:1 89:1 94:1 95:1 97:1 98:1 99:1 100:1 101:1 102:1 
0 0 0.1 0 0 0 0 0.06504899993785693 0 0.1 0.1 0 0 0 0 0 0.1 0 0 0 0 0 0 0 0 18:1 19:1 20:1 21:1 22:1 25:1 26:1 30:1 31:1 33:1 39:1 40:1 41:1 42:1 48:1 49:1 50:1 56:1 57:1 64:1 65:1 72:1 73:1 80:1 81:1 87:1 88:1 89:1 95:1 97:1 101:1 102:1 103:1 105:1 106:1 107:1 108:1 109:1 
0 0.1 0.1 0 0 0 0 0 0 0.1 0 0 0 0 0 0 0 0 0 0 0 0 0 0 0 23:1 24:1 29:1 30:1 31:1 32:1 36:1 37:1 39:1 40:1 42:1 43:1 44:1 48:1 49:1 50:1 56:1 57:1 64:1 65:1 72:1 73:1 80:1 81:1 87:1 88:1 89:1 95:1 97:1 98:1 101:1 102:1 103:1 106:1 107:1 108:1 109:1 
0 0.1 0.1 0 0 0.1 0 0 0 0.1 0 0 0 0 0 0 0 0 0 0 0 0 0 0 0 13:1 14:1 20:1 21:1 28:1 29:1 35:1 36:1 37:1 38:1 42:1 43:1 46:1 47:1 48:1 49:1 50:1 56:1 57:1 64:1 65:1 72:1 73:1 80:1 81:1 88:1 89:1 94:1 95:1 96:1 97:1 102:1 105:1 109:1 110:1 113:1 114:1 115:1 116:1 117:1 
0.1 0.1 0.1 0 0.1 0.1 0 0.1 0 0.1 0 0 0 0 0 0 0.1 0 0 0 0 0 0 0 0 29:1 30:1 31:1 39:1 40:1 43:1 44:1 45:1 46:1 47:1 48:1 50:1 51:1 56:1 57:1 58:1 64:1 65:1 71:1 72:1 73:1 79:1 81:1 86:1 87:1 89:1 92:1 93:1 94:1 97:1 98:1 99:1 100:1 
0 0.1 0.1 0 0.1 0.0629999999999961 0 0 0 0.1 0 0.1 0 0 0 0 0.04856872805833012 0 0 0 0 0 0 0 0 28:1 29:1 30:1 31:1 35:1 37:1 39:1 40:1 42:1 48:1 49:1 56:1 57:1 64:1 65:1 72:1 73:1 80:1 81:1 87:1 88:1 90:1 94:1 95:1 99:1 100:1 101:1 102:1 
0 0.1 0.1 0 0.1 0 0 0.1 0.1 0.1 0 0.1 0 0 0 0.06189256040711402 0.1 0 0.1 0 0 0 0 0 0 19:1 20:1 22:1 23:1 24:1 27:1 32:1 34:1 35:1 40:1 42:1 48:1 49:1 50:1 56:1 57:1 64:1 65:1 72:1 73:1 79:1 81:1 87:1 89:1 92:1 93:1 94:1 95:1 97:1 100:1 106:1 107:1 108:1 
0 0.1 0.1 0 0.1 0.1 0 0.03132984807559591 0.1 0.1 0 0.1 0 0 0 0 0 0 0.1 0 0 0 0 0 0 5:1 6:1 7:1 12:1 13:1 15:1 20:1 21:1 22:1 23:1 24:1 28:1 32:1 34:1 35:1 36:1 40:1 42:1 48:1 50:1 56:1 57:1 58:1 64:1 65:1 72:1 73:1 80:1 81:1 88:1 89:1 95:1 96:1 97:1 103:1 105:1 110:1 111:1 113:1 114:1 117:1 118:1 122:1 123:1 124:1 125:1 
0 0.1 0.1 0.1 0.1 0.1 0 0.1 0.1 0.1 0.1 0.1 0.1 0.1 0.1 0 0.1 0 0.1 0 0 0 0 0 0 21:1 22:1 23:1 24:1 28:1 29:1 32:1 35:1 36:1 40:1 43:1 48:1 56:1 58:1 64:1 65:1 71:1 72:1 73:1 78:1 79:1 81:1 85:1 86:1 89:1 92:1 93:1 97:1 98:1 99:1 100:1 106:1 107:1 
0 0.1 0.1 0 0.1 0.1 0 0.1 0.1 0.1 0 0.1 0 0.1 0 0 0.1 0 0 0 0 0 0 0 0 29:1 30:1 31:1 36:1 37:1 39:1 40:1 43:1 44:1 48:1 50:1 56:1 57:1 58:1 64:1 65:1 71:1 72:1 73:1 78:1 79:1 81:1 85:1 86:1 89:1 90:1 91:1 93:1 99:1 100:1 
0 0.1 0.1 0 0.1 0 0 0.1 0.1 0.1 0 0 0 0 0 0 0.1 0 0 0 0 0 0 0 0 27:1 28:1 29:1 30:1 31:1 32:1 35:1 40:1 42:1 43:1 48:1 49:1 50:1 56:1 57:1 64:1 65:1 71:1 72:1 73:1 79:1 81:1 86:1 87:1 89:1 93:1 94:1 97:1 98:1 99:1 100:1 101:1 
0 0.1 0.1 0.1 0.1 0.1 0.08008444757213125 0.1 0.1 0.1 0.1 0.1 0.1 0.1 0.1 0.1 0.1 0 0.1 0 0 0 0 0 0.1 4:1 5:1 11:1 12:1 13:1 14:1 15:1 16:1 18:1 19:1 20:1 24:1 26:1 32:1 34:1 40:1 41:1 48:1 49:1 55:1 56:1 57:1 63:1 65:1 71:1 73:1 79:1 81:1 86:1 87:1 89:1 94:1 97:1 101:1 102:1 105:1 109:1 113:1 116:1 117:1 121:1 122:1 123:1 124:1 
0.1 0.1 0.1 0 0.1 0.1 0 0.1 0.1 0.1 0.1 0.1 0 0 0.1 0 0.1 0 0 0 0 0 0 0 0 18:1 19:1 27:1 28:1 33:1 34:1 36:1 37:1 38:1 41:1 46:1 47:1 49:1 55:1 57:1 63:1 64:1 65:1 72:1 73:1 80:1 81:1 88:1 89:1 96:1 97:1 98:1 103:1 104:1 106:1 107:1 108:1 109:1 110:1 111:1 
0.1 0.1 0.1 0 0.1 0 0 0.1 0 0.1 0 0.1 0 0 0 0 0 0 0 0 0 0 0 0 0 35:1 36:1 37:1 38:1 39:1 40:1 44:1 48:1 49:1 50:1 51:1 52:1 56:1 57:1 64:1 65:1 72:1 73:1 80:1 81:1 82:1 86:1 87:1 88:1 90:1 91:1 92:1 93:1 94:1 
0 0 0.1 0 0 0 0 0 0.03597954762278777 0.1 0.06965497098963239 0 0 0 0 0 0.1 0 0 0 0 0 0 0 0 20:1 21:1 22:1 23:1 24:1 26:1 27:1 28:1 32:1 33:1 34:1 35:1 40:1 41:1 42:1 48:1 49:1 56:1 57:1 64:1 65:1 72:1 73:1 79:1 80:1 81:1 86:1 87:1 89:1 93:1 94:1 97:1 98:1 100:1 101:1 106:1 107:1 108:1 
0.1 0.1 0.1 0.08793905511071512 0.1 0.1 0 0.1 0.1 0.1 0 0.1 0 0.1 0 0 0.1 0 0 0 0 0 0 0 0.01772676023327627 36:1 37:1 38:1 42:1 43:1 44:1 46:1 47:1 49:1 50:1 55:1 57:1 64:1 65:1 72:1 73:1 79:1 80:1 81:1 82:1 87:1 90:1 91:1 92:1 93:1 94:1 95:1 
0 0 0.1 0 0 0 0 0 0 0.1 0 0 0 0 0 0 0 0 0 0 0 0 0 0 0 27:1 28:1 29:1 30:1 31:1 34:1 35:1 39:1 40:1 41:1 42:1 48:1 49:1 56:1 57:1 64:1 65:1 72:1 73:1 80:1 81:1 87:1 88:1 89:1 92:1 93:1 94:1 95:1 97:1 98:1 99:1 100:1 
0 0.1 0.1 0 0 0 0 0 0 0.1 0 0 0 0 0 0 0 0 0 0 0 0 0 0 0 26:1 27:1 34:1 35:1 36:1 37:1 38:1 41:1 42:1 46:1 47:1 49:1 55:1 56:1 57:1 64:1 65:1 72:1 73:1 80:1 81:1 87:1 88:1 89:1 94:1 95:1 97:1 98:1 99:1 100:1 101:1 102:1 
0.1 0.1 0.1 0 0.1 0.1 0.1 0.1 0.1 0.1 0.1 0.1 0.05103160150636147 0.1 0.1 0 0.08156169570177321 0.1 0.1 0.1 0 0 0 0 0.1 17:1 18:1 19:1 20:1 21:1 25:1 26:1 29:1 34:1 35:1 37:1 38:1 42:1 46:1 49:1 54:1 55:1 57:1 63:1 64:1 65:1 72:1 73:1 80:1 81:1 82:1 88:1 90:1 96:1 98:1 104:1 106:1 107:1 108:1 109:1 110:1 111:1 112:1 
0.1 0.1 0.1 0.1 0.1 0.1 0.1 0.1 0.1 0.1 0.1 0.1 0.1 0.1 0.1 0.01265733698903659 0.1 0.1 0.1 0 0 0 0 0 0.1 20:1 21:1 22:1 23:1 24:1 28:1 29:1 32:1 36:1 37:1 40:1 43:1 44:1 48:1 51:1 56:1 58:1 59:1 63:1 64:1 66:1 71:1 73:1 74:1 78:1 81:1 85:1 86:1 89:1 92:1 93:1 97:1 98:1 99:1 100:1 105:1 106:1 
0 0 0.1 0 0 0.1 0 0 0.08370459487529459 0 0 0 0 0 0 0 0 0 0 0 0 0 0 0 0 13:1 14:1 20:1 21:1 22:1 27:1 28:1 30:1 31:1 32:1 35:1 36:1 40:1 42:1 43:1 48:1 50:1 56:1 57:1 64:1 65:1 72:1 73:1 80:1 81:1 87:1 88:1 89:1 94:1 95:1 97:1 101:1 102:1 105:1 107:1 108:1 109:1 113:1 114:1 115:1 
0.1 0.1 0.1 0.03526826911353392 0.1 0.1 0.1 0.1 0.1 0.1 0.1 0.1 0.1 0.1 0.1 0.1 0.1 0.1 0.1 0.1 0 0 0 0 0.1 43:1 44:1 45:1 46:1 47:1 48:1 50:1 51:1 56:1 57:1 58:1 64:1 65:1 71:1 72:1 73:1 74:1 78:1 79:1 82:1 83:1 84:1 85:1 86:1 
0.1 0.1 0.1 0 0.1 0.1 0 0 0.1 0.1 0 0.1 0 0 0 0 0 0 0 0 0 0 0 0 0 28:1 29:1 34:1 35:1 36:1 37:1 41:1 42:1 44:1 45:1 46:1 49:1 54:1 55:1 56:1 57:1 64:1 65:1 72:1 73:1 80:1 81:1 88:1 89:1 90:1 96:1 98:1 99:1 100:1 101:1 102:1 103:1 104:1 
0.1 0.1 0.1 0 0.1 0.1 0 0.1 0.1 0.1 0 0.1 0 0.1 0.05739426010140076 0.01644846817185999 0.1 0 0.1 0 0 0 0.1 0 0.1 43:1 44:1 45:1 46:1 47:1 48:1 50:1 51:1 54:1 56:1 57:1 58:1 64:1 65:1 72:1 73:1 77:1 78:1 79:1 80:1 81:1 82:1 83:1 84:1 85:1 
0 0.1 0.1 0 0 0 0 0 0 0.1 0 0 0 0 0 0 0 0 0 0 0 0 0 0 0 33:1 34:1 35:1 36:1 37:1 38:1 39:1 47:1 48:1 49:1 50:1 51:1 56:1 57:1 64:1 65:1 72:1 73:1 80:1 81:1 82:1 87:1 88:1 90:1 91:1 92:1 93:1 94:1 95:1 
0.1 0.1 0.1 0 0.1 0.1 0.1 0.1 0.1 0.1 0.1 0.1 0 0.1 0.1 0 0.1 0.1 0.1 0 0 0 0 0 0.1 20:1 26:1 27:1 28:1 29:1 33:1 34:1 35:1 37:1 38:1 41:1 46:1 49:1 54:1 55:1 57:1 63:1 64:1 65:1 72:1 73:1 80:1 81:1 82:1 88:1 90:1 96:1 98:1 99:1 100:1 102:1 103:1 104:1 108:1 109:1 110:1 
0 0.1 0.1 0 0 0 0 0 0 0.1 0 0 0 0 0 0 0.1 0 0 0 0 0 0 0 0 18:1 19:1 25:1 26:1 33:1 36:1 37:1 38:1 39:1 41:1 42:1 43:1 47:1 48:1 49:1 56:1 57:1 64:1 65:1 72:1 73:1 80:1 81:1 87:1 88:1 89:1 95:1 97:1 98:1 99:1 102:1 103:1 107:1 108:1 109:1 110:1 
0.1 0.1 0.1 0.1 0.1 0.1 0 0.1 0.1 0.1 0.1 0.1 0.1 0.1 0.1 0 0.1 0.08145002699972689 0.1 0 0 0.01127468700559812 0 0 0.08520870595447572 22:1 23:1 24:1 29:1 30:1 32:1 35:1 36:1 37:1 40:1 43:1 44:1 45:1 46:1 48:1 50:1 51:1 52:1 54:1 56:1 57:1 58:1 63:1 64:1 65:1 70:1 71:1 73:1 77:1 78:1 81:1 85:1 89:1 92:1 93:1 97:1 98:1 99:1 100:1 105:1 106:1 
0 0.1 0.1 0 0 0 0 0 0 0.1 0 0 0 0 0 0 0.1 0 0 0 0 0 0 0 0 34:1 35:1 36:1 37:1 38:1 39:1 41:1 47:1 48:1 49:1 56:1 57:1 64:1 65:1 72:1 73:1 80:1 81:1 87:1 88:1 89:1 90:1 91:1 92:1 93:1 94:1 95:1 
0 0.1 0.1 0 0 0 0 0.08321692309049525 0.1 0.1 0 0 0 0 0 0 0 0 0 0 0 0 0 0 0 20:1 21:1 27:1 28:1 29:1 34:1 35:1 39:1 40:1 41:1 42:1 48:1 49:1 56:1 57:1 64:1 65:1 72:1 73:1 80:1 81:1 87:1 88:1 89:1 95:1 97:1 102:1 105:1 106:1 107:1 108:1 109:1 
0.1 0.1 0.1 0 0.1 0.1 0 0.1 0 0.1 0 0.1 0 0 0 0 0.1 0 0.1 0 0 0 0 0 0 33:1 34:1 35:1 36:1 37:1 38:1 41:1 42:1 46:1 47:1 49:1 55:1 56:1 57:1 64:1 65:1 72:1 73:1 74:1 80:1 82:1 88:1 90:1 91:1 92:1 93:1 94:1 95:1 96:1 
0.1 0.1 0.1 0 0.1 0.1 0 0.1 0.1 0.1 0.1 0 0 0 0 0.1 0.1 0 0.1 0 0 0 0 0 0 20:1 21:1 22:1 23:1 24:1 25:1 26:1 27:1 32:1 33:1 34:1 40:1 41:1 48:1 49:1 56:1 57:1 64:1 65:1 72:1 73:1 80:1 81:1 88:1 89:1 96:1 97:1 98:1 102:1 103:1 107:1 108:1 109:1 
0.1 0.1 0.1 0 0.1 0.1 0 0.1 0.1 0.1 0 0.1 0 0.1 0 0 0.1 0 0 0 0 0 0 0 0 42:1 43:1 44:1 45:1 46:1 47:1 48:1 49:1 56:1 57:1 64:1 65:1 72:1 73:1 79:1 80:1 81:1 82:1 83:1 84:1 85:1 86:1 87:1 
0 0.1 0.1 0 0 0 0 0 0 0.1 0 0 0 0 0 0 0 0 0 0 0 0 0 0 0 28:1 29:1 30:1 31:1 35:1 36:1 37:1 39:1 40:1 43:1 48:1 50:1 51:1 56:1 57:1 58:1 64:1 65:1 72:1 73:1 79:1 80:1 81:1 87:1 89:1 93:1 94:1 95:1 97:1 98:1 99:1 100:1 101:1 
0.1 0.1 0.1 0.1 0.1 0.1 0 0.1 0.1 0.1 0.1 0.1 0.1 0.1 0.1 0 0.1 0.08397475603361899 0.1 0 0 0 0.07764757589615709 0 0.1 24:1 30:1 31:1 32:1 36:1 37:1 38:1 40:1 44:1 48:1 51:1 52:1 56:1 58:1 59:1 64:1 65:1 66:1 72:1 73:1 79:1 81:1 86:1 87:1 89:1 93:1 94:1 97:1 100:1 101:1 105:1 106:1 107:1 108:1 
0.1 0.1 0.1 0.1 0.1 0.1 0.1 0.1 0.1 0.1 0.1 0.1 0.1 0.1 0.1 0.1 0.1 0.1 0.1 0.1 0.02644112877002362 0.04442024890859794 0.1 0.09495612220060334 0.1 45:1 46:1 47:1 48:1 51:1 52:1 53:1 56:1 58:1 59:1 60:1 63:1 64:1 65:1 66:1 70:1 71:1 73:1 76:1 77:1 78:1 81:1 82:1 83:1 84:1 
0 0.1 0.1 0 0 0 0 0 0 0.1 0 0 0 0 0 0 0.1 0 0 0 0 0 0 0 0 34:1 35:1 36:1 37:1 38:1 39:1 40:1 41:1 42:1 48:1 49:1 50:1 56:1 57:1 64:1 65:1 72:1 73:1 79:1 80:1 81:1 85:1 86:1 87:1 89:1 90:1 91:1 92:1 93:1 
0 0.1 0.1 0 0 0 0 0 0 0.1 0 0 0 0 0 0 0 0 0 0 0 0 0 0 0 30:1 31:1 34:1 35:1 36:1 37:1 39:1 40:1 41:1 42:1 48:1 49:1 56:1 57:1 64:1 65:1 72:1 73:1 79:1 80:1 81:1 86:1 87:1 89:1 90:1 91:1 92:1 93:1 94:1 98:1 99:1 
0 0.1 0.1 0 0.1 0.1 0 0.1 0.1 0.1 0 0.1 0 0 0.03730769230769226 0.1 0.1 0 0.1 0.02969653204765051 0 0 0 0 0.1 17:1 18:1 19:1 20:1 21:1 22:1 25:1 30:1 31:1 33:1 34:1 39:1 41:1 47:1 48:1 49:1 56:1 57:1 64:1 65:1 72:1 73:1 80:1 81:1 82:1 87:1 90:1 95:1 98:1 99:1 102:1 103:1 107:1 108:1 109:1 110:1 
0.1 0.1 0.1 0 0.1 0.1 0.1 0.1 0.1 0.1 0.1 0.1 0.1 0.1 0.1 0.1 0.1 0.1 0.1 0 0 0.03286194329067489 0 0.0164709239970805 0 12:1 13:1 14:1 15:1 19:1 20:1 23:1 24:1 26:1 27:1 32:1 33:1 34:1 40:1 41:1 48:1 49:1 56:1 57:1 64:1 65:1 66:1 72:1 80:1 88:1 95:1 96:1 99:1 103:1 107:1 108:1 111:1 116:1 117:1 118:1 
0.1 0.1 0.1 0.1 0.1 0.1 0.1 0.1 0 0.1 0.1 0.1 0.1 0.1 0.1 0.1 0.1 0.1 0.1 0.1 0.0216966892544107 0 0.1 0.1 0.1 31:1 39:1 47:1 48:1 56:1 64:1 67:1 68:1 72:1 75:1 80:1 82:1 83:1 88:1 89:1 90:1 95:1 96:1 97:1 98:1 99:1 100:1 101:1 102:1 103:1 
0.1 0.1 0.1 0.1 0.1 0.1 0.1 0.1 0.1 0.1 0.1 0.1 0 0.1 0.1 0.1 0.1 0.1 0.1 0.04087659339891094 0 0 0.1 0 0.1 43:1 44:1 45:1 46:1 49:1 50:1 51:1 54:1 55:1 57:1 63:1 64:1 65:1 72:1 73:1 80:1 81:1 82:1 83:1 84:1 85:1 86:1 87:1 88:1 
0.1 0.1 0.1 0.1 0.1 0.1 0.1 0.1 0.1 0.1 0.1 0.1 0.1 0.1 0.1 0.1 0.1 0.1 0.1 0.1 0 0.1 0.1 0 0.1 17:1 18:1 19:1 25:1 26:1 27:1 34:1 35:1 36:1 37:1 42:1 45:1 46:1 50:1 54:1 55:1 58:1 63:1 66:1 67:1 71:1 72:1 75:1 80:1 83:1 88:1 91:1 92:1 96:1 100:1 104:1 108:1 109:1 111:1 112:1 117:1 118:1 119:1 
0.1 0.1 0.1 0.1 0.1 0.1 0.1 0.1 0.1 0.1 0.1 0.1 0 0.1 0.1 0.1 0.1 0 0.1 0.1 0 0 0.1 0.01786927365763202 0.1 41:1 42:1 43:1 44:1 45:1 46:1 47:1 49:1 55:1 56:1 57:1 64:1 65:1 72:1 73:1 74:1 79:1 80:1 82:1 83:1 84:1 85:1 86:1 87:1 
0 0.1 0.1 0.1 0.1 0.1 0.1 0.1 0 0.1 0.1 0.1 0.1 0.1 0.1 0 0 0 0.1 0 0 0 0 0 0.1 13:1 14:1 15:1 18:1 19:1 20:1 21:1 23:1 24:1 25:1 26:1 32:1 35:1 40:1 43:1 48:1 50:1 51:1 56:1 58:1 64:1 66:1 72:1 74:1 80:1 81:1 82:1 87:1 88:1 89:1 95:1 97:1 98:1 102:1 103:1 106:1 108:1 109:1 110:1 114:1 115:1 116:1 
0 0.1 0.1 0 0 0 0 0 0 0.1 0 0 0 0 0 0 0.1 0 0 0 0 0 0 0 0 26:1 27:1 28:1 29:1 30:1 31:1 34:1 39:1 40:1 41:1 42:1 48:1 49:1 56:1 57:1 64:1 65:1 72:1 73:1 79:1 80:1 81:1 86:1 87:1 89:1 93:1 94:1 97:1 98:1 99:1 100:1 101:1 
0.1 0.1 0.1 0.02541923088646697 0.1 0.1 0.1 0.1 0.1 0.1 0.1 0.1 0.1 0.1 0.1 0.1 0.1 0.1 0.1 0.1 0 0 0.1 0 0.1 41:1 42:1 43:1 44:1 45:1 46:1 49:1 52:1 54:1 55:1 56:1 57:1 64:1 65:1 72:1 73:1 74:1 80:1 82:1 83:1 84:1 85:1 86:1 87:1 88:1 
0 0.1 0.1 0 0 0.1 0 0.1 0.003800071156540756 0.1 0.04765306122449228 0 0 0 0 0 0.1 0 0 0 0 0 0 0 0 26:1 27:1 28:1 29:1 33:1 34:1 35:1 37:1 38:1 39:1 41:1 47:1 48:1 49:1 56:1 57:1 64:1 65:1 72:1 73:1 80:1 81:1 82:1 88:1 90:1 96:1 98:1 99:1 100:1 101:1 102:1 103:1 104:1 
0 0.1 0.1 0 0 0.1 0 0 0 0.1 0.1 0 0 0 0 0 0 0 0 0 0 0 0 0 0 17:1 18:1 19:1 20:1 21:1 26:1 27:1 29:1 30:1 33:1 34:1 35:1 38:1 39:1 41:1 47:1 49:1 55:1 56:1 57:1 64:1 65:1 72:1 73:1 80:1 81:1 88:1 89:1 96:1 97:1 98:1 103:1 104:1 106:1 107:1 108:1 109:1 110:1 111:1 
0 0.1 0.1 0 0.1 0.1 0 0.1 0.1 0.1 0.00642414685615018 0.1 0 0.1 0 0 0 0 0.1 0 0 0 0 0 0 28:1 29:1 30:1 31:1 32:1 35:1 36:1 40:1 43:1 44:1 48:1 50:1 51:1 56:1 58:1 64:1 65:1 66:1 71:1 72:1 73:1 79:1 81:1 86:1 87:1 89:1 93:1 94:1 97:1 98:1 99:1 100:1 101:1 
0.1 0.1 0.1 0 0.1 0 0 0 0.1 0.1 0 0 0 0 0 0 0.1 0 0 0 0 0 0 0 0 35:1 36:1 41:1 42:1 43:1 45:1 46:1 47:1 49:1 50:1 55:1 56:1 57:1 64:1 65:1 72:1 73:1 80:1 81:1 82:1 86:1 87:1 88:1 90:1 91:1 92:1 93:1 94:1 
0 0 0.1 0 0 0 0 0.1 0.1 0.1 0 0 0 0 0 0 0 0 0.07450788935202518 0 0 0 0 0 0 20:1 21:1 22:1 23:1 27:1 28:1 32:1 34:1 35:1 40:1 41:1 42:1 43:1 48:1 49:1 56:1 57:1 64:1 65:1 72:1 73:1 80:1 81:1 82:1 87:1 88:1 89:1 90:1 94:1 97:1 98:1 100:1 101:1 102:1 106:1 107:1 108:1 
0 0 0.1 0 0 0 0 0 0 0.1 0 0 0 0 0 0 0 0 0 0 0 0 0 0 0 22:1 29:1 30:1 31:1 35:1 36:1 37:1 39:1 42:1 43:1 47:1 48:1 49:1 50:1 56:1 57:1 64:1 65:1 72:1 73:1 80:1 81:1 87:1 88:1 89:1 94:1 95:1 97:1 98:1 100:1 101:1 102:1 106:1 107:1 108:1 
0 0.1 0.1 0 0 0 0 0 0 0.1 0 0 0 0 0 0 0 0 0 0 0 0 0 0 0 28:1 29:1 30:1 31:1 34:1 35:1 36:1 39:1 40:1 42:1 43:1 48:1 49:1 50:1 56:1 57:1 64:1 65:1 72:1 73:1 80:1 81:1 87:1 88:1 89:1 90:1 91:1 94:1 95:1 99:1 100:1 101:1 102:1 
0 0 0.1 0 0.1 0.1 0 0.07004525631894866 0.1 0.1 0 0.1 0 0 0 0.05297153513210625 0.1 0 0.1 0 0 0 0 0 0 12:1 13:1 14:1 15:1 19:1 20:1 23:1 24:1 26:1 27:1 32:1 33:1 34:1 40:1 41:1 48:1 49:1 56:1 57:1 64:1 65:1 72:1 73:1 79:1 80:1 81:1 87:1 89:1 94:1 95:1 97:1 101:1 102:1 105:1 108:1 109:1 114:1 115:1 116:1 
0 0 0.1 0 0.1 0.1 0 0.1 0 0.1 0 0.1 0 0 0 0 0.1 0 0.1 0 0 0 0 0.003704242372207567 0 3:1 10:1 11:1 12:1 13:1 18:1 19:1 21:1 22:1 23:1 25:1 26:1 31:1 32:1 33:1 40:1 41:1 48:1 49:1 56:1 57:1 64:1 65:1 72:1 73:1 80:1 81:1 87:1 88:1 89:1 95:1 97:1 102:1 103:1 105:1 110:1 113:1 114:1 115:1 116:1 117:1 118:1 124:1 
0 0.1 0.1 0 0 0 0 0 0.1 0.1 0 0 0 0 0 0 0 0 0 0 0 0 0 0 0 15:1 23:1 31:1 35:1 36:1 37:1 39:1 40:1 41:1 42:1 43:1 48:1 49:1 56:1 57:1 64:1 65:1 72:1 73:1 80:1 81:1 88:1 89:1 95:1 96:1 97:1 101:1 102:1 103:1 105:1 106:1 109:1 114:1 115:1 116:1 117:1 
0.1 0.1 0.1 0 0.1 0.1 0 0.1 0.1 0.1 0 0.1 0 0.1 0 0 0.1 0 0.1 0 0 0 0 0 0 43:1 44:1 45:1 46:1 47:1 49:1 50:1 52:1 55:1 56:1 57:1 64:1 65:1 72:1 73:1 79:1 80:1 81:1 82:1 83:1 84:1 85:1 86:1 87:1 
0.1 0.1 0.1 0.1 0.1 0.1 0.1 0.1 0.1 0.1 0.1 0.1 0 0.1 0.1 0 0.1 0.1 0.1 0.1 0 0.04128996415065023 0.05172824456214543 0 0.1 9:1 10:1 17:1 18:1 19:1 25:1 26:1 27:1 28:1 34:1 36:1 37:1 41:1 42:1 45:1 46:1 49:1 54:1 55:1 57:1 63:1 65:1 71:1 72:1 73:1 80:1 81:1 88:1 89:1 96:1 97:1 104:1 105:1 106:1 107:1 109:1 110:1 111:1 112:1 115:1 116:1 117:1 
0.1 0.1 0.1 0 0.1 0 0 0.1 0.1 0.1 0 0.1 0 0 0 0 0 0 0 0 0 0 0 0 0 36:1 37:1 38:1 42:1 43:1 44:1 46:1 47:1 48:1 49:1 50:1 56:1 57:1 64:1 65:1 72:1 73:1 80:1 81:1 82:1 88:1 90:1 91:1 92:1 93:1 94:1 95:1 
0 0 0.1 0 0 0 0 0 0 0.1 0 0 0 0 0 0 0 0 0 0 0 0 0 0 0 26:1 27:1 28:1 29:1 30:1 31:1 33:1 34:1 35:1 39:1 41:1 42:1 47:1 48:1 49:1 56:1 57:1 64:1 65:1 72:1 73:1 80:1 81:1 88:1 89:1 90:1 95:1 96:1 98:1 99:1 100:1 101:1 102:1 103:1 
0 0.1 0.1 0 0.1 0 0 0 0 0.1 0 0.1 0 0 0 0 0 0 0 0 0 0 0 0 0 35:1 36:1 37:1 38:1 39:1 40:1 42:1 43:1 48:1 50:1 56:1 58:1 64:1 65:1 72:1 73:1 79:1 80:1 81:1 86:1 87:1 89:1 90:1 91:1 92:1 93:1 94:1 
0 0.1 0.1 0.1 0.1 0.1 0 0.1 0.1 0.1 0.1 0.1 0.004958881827337456 0.1 0.1 0.1 0.1 0 0.1 0 0 0 0 0 0 11:1 12:1 13:1 14:1 15:1 16:1 19:1 23:1 24:1 26:1 27:1 31:1 32:1 34:1 40:1 42:1 48:1 49:1 50:1 56:1 57:1 63:1 64:1 65:1 71:1 73:1 79:1 81:1 87:1 89:1 94:1 95:1 97:1 102:1 105:1 108:1 109:1 110:1 113:1 114:1 115:1 116:1 
0.1 0.1 0.1 0 0.1 0.1 0 0.1 0.1 0.1 0 0.04320664439830003 0 0 0 0 0.1 0 0 0 0 0 0 0 0 33:1 35:1 36:1 41:1 42:1 43:1 44:1 45:1 46:1 49:1 54:1 55:1 56:1 57:1 64:1 65:1 72:1 73:1 80:1 81:1 86:1 87:1 88:1 89:1 90:1 91:1 92:1 93:1 94:1 
0 0.1 0.1 0 0.1 0.1 0 0.1 0.1 0.1 0.1 0.1 0 0.1 0.09329813596825173 0 0.1 0 0 0 0 0 0 0 0 11:1 12:1 13:1 21:1 22:1 25:1 26:1 27:1 28:1 30:1 31:1 33:1 37:1 39:1 41:1 47:1 48:1 49:1 56:1 57:1 64:1 65:1 72:1 73:1 80:1 81:1 88:1 90:1 96:1 99:1 104:1 108:1 109:1 111:1 112:1 117:1 118:1 119:1 
0 0.08437369438696181 0.1 0 0.1 0.1 0.1 0.1 0 0.1 0 0 0 0 0 0 0.1 0 0.1 0 0 0 0 0 0 2:1 3:1 4:1 5:1 10:1 11:1 14:1 18:1 19:1 22:1 23:1 26:1 31:1 33:1 34:1 39:1 40:1 41:1 48:1 49:1 56:1 57:1 64:1 65:1 72:1 73:1 80:1 81:1 88:1 89:1 95:1 96:1 97:1 103:1 105:1 106:1 110:1 111:1 114:1 115:1 118:1 123:1 124:1 125:1 
0 0.1 0.1 0 0 0 0 0 0.1 0.1 0 0 0 0 0 0 0 0 0 0 0 0 0 0 0 28:1 29:1 30:1 31:1 32:1 35:1 36:1 40:1 42:1 43:1 48:1 49:1 50:1 56:1 57:1 64:1 65:1 72:1 73:1 80:1 81:1 88:1 89:1 90:1 91:1 95:1 96:1 99:1 100:1 101:1 102:1 103:1 
0 0.1 0.1 0 0.1 0 0 0.09139166978608983 0 0.1 0 0 0 0 0 0.1 0.1 0 0 0 0 0 0 0 0.1 34:1 35:1 36:1 37:1 38:1 39:1 41:1 42:1 47:1 48:1 49:1 50:1 56:1 57:1 64:1 65:1 72:1 73:1 74:1 79:1 80:1 82:1 83:1 87:1 91:1 92:1 93:1 94:1 95:1 101:1 102:1 
0 0.1 0.1 0 0 0 0 0.1 0 0.1 0 0 0 0 0 0 0 0 0 0 0 0 0 0 0.1 26:1 27:1 28:1 29:1 30:1 33:1 34:1 35:1 38:1 39:1 41:1 42:1 47:1 48:1 49:1 50:1 56:1 58:1 64:1 65:1 66:1 72:1 73:1 79:1 80:1 81:1 86:1 87:1 89:1 92:1 93:1 94:1 97:1 98:1 99:1 100:1 
0 0.1 0.1 0 0 0 0 0 0 0.1 0 0 0 0 0 0 0.1 0.06066473793302879 0 0 0 0 0 0.01524288022059539 0 27:1 28:1 29:1 30:1 33:1 34:1 38:1 39:1 41:1 47:1 48:1 49:1 56:1 57:1 64:1 65:1 72:1 73:1 80:1 81:1 88:1 89:1 90:1 91:1 92:1 95:1 96:1 100:1 101:1 102:1 103:1 
0 0.1 0.1 0 0 0 0 0 0 0.1 0 0 0 0 0 0 0 0 0 0 0 0 0 0 0 30:1 31:1 36:1 37:1 38:1 39:1 40:1 43:1 48:1 50:1 56:1 57:1 58:1 64:1 65:1 72:1 73:1 79:1 80:1 81:1 87:1 89:1 93:1 94:1 95:1 97:1 98:1 99:1 100:1 101:1 
0.1 0.1 0.1 0.1 0.1 0.1 0.1 0.1 0.1 0.1 0.1 0.1 0.1 0.1 0.1 0.1 0.1 0.1 0.1 0.1 0 0.01916770470393329 0.1 0.007827804052167587 0.1 4:1 5:1 6:1 7:1 11:1 12:1 15:1 18:1 23:1 24:1 25:1 26:1 27:1 28:1 32:1 33:1 36:1 40:1 41:1 47:1 48:1 49:1 55:1 57:1 63:1 65:1 70:1 73:1 77:1 78:1 81:1 85:1 89:1 92:1 93:1 97:1 98:1 99:1 100:1 105:1 106:1 114:1 122:1 
0 0.07716950379417102 0.1 0 0 0 0 0 0 0.1 0 0 0 0 0 0 0 0 0 0 0 0 0 0 0 26:1 27:1 28:1 29:1 33:1 34:1 35:1 36:1 37:1 38:1 39:1 42:1 47:1 48:1 49:1 56:1 57:1 64:1 65:1 72:1 73:1 80:1 81:1 86:1 87:1 88:1 89:1 92:1 93:1 94:1 97:1 98:1 99:1 100:1 
0 0.1 0.1 0 0 0 0 0 0 0.1 0.1 0 0 0 0 0 0 0 0.1 0 0 0 0 0 0 19:1 20:1 21:1 22:1 23:1 24:1 26:1 27:1 28:1 32:1 33:1 34:1 35:1 40:1 42:1 48:1 50:1 56:1 57:1 58:1 64:1 65:1 72:1 73:1 79:1 80:1 81:1 86:1 87:1 89:1 94:1 97:1 101:1 102:1 105:1 106:1 107:1 108:1 109:1 
0.1 0.1 0.1 0 0.1 0.1 0 0.1 0 0.1 0.1 0.1 0 0.008238095238095832 0 0 0 0 0 0 0 0 0 0 0 12:1 13:1 20:1 27:1 28:1 29:1 30:1 31:1 35:1 39:1 40:1 43:1 48:1 50:1 51:1 56:1 58:1 64:1 65:1 66:1 72:1 73:1 80:1 81:1 88:1 89:1 95:1 96:1 97:1 102:1 103:1 105:1 109:1 110:1 113:1 114:1 115:1 116:1 117:1 
0.1 0.1 0.1 0 0.1 0.1 0 0.1 0.1 0.1 0.1 0.1 0 0.1 0 0 0.1 0.05384615384615101 0 0 0 0 0 0 0 33:1 34:1 35:1 36:1 37:1 38:1 41:1 46:1 49:1 55:1 57:1 63:1 64:1 65:1 72:1 73:1 80:1 81:1 88:1 89:1 90:1 91:1 92:1 93:1 94:1 95:1 96:1 
0 0.01080416047259866 0.1 0.1 0.1 0.1 0.01246305418719267 0.1 0 0.1 0.1 0.1 0 0.1 0.1 0 0.1 0.1 0 0.02675321480814197 0 0 0.04491044798454547 0 0.1 17:1 18:1 19:1 20:1 21:1 22:1 25:1 30:1 31:1 33:1 39:1 40:1 48:1 56:1 64:1 65:1 72:1 73:1 80:1 81:1 88:1 89:1 95:1 96:1 97:1 98:1 101:1 102:1 103:1 106:1 107:1 108:1 109:1 
0 0.1 0.1 0 0 0 0 0 0 0.1 0 0 0 0 0 0 0.1 0 0 0 0 0 0 0 0 34:1 35:1 36:1 37:1 38:1 39:1 41:1 42:1 47:1 48:1 49:1 56:1 57:1 64:1 65:1 72:1 73:1 80:1 81:1 82:1 83:1 84:1 86:1 87:1 88:1 92:1 93:1 94:1 95:1 96:1 
0.1 0.1 0.1 0 0.1 0.1 0 0.1 0 0.1 0 0.1 0 0.1 0 0 0.1 0 0.02687479692720916 0 0 0 0 0 0 35:1 36:1 37:1 38:1 39:1 42:1 43:1 47:1 48:1 49:1 50:1 56:1 57:1 64:1 65:1 72:1 73:1 74:1 79:1 80:1 82:1 83:1 86:1 87:1 91:1 92:1 93:1 94:1 
0.1 0.1 0.1 0 0.1 0.1 0 0.1 0.1 0.1 0 0.1 0 0.1 0 0.1 0.1 0 0 0.1 0 0 0.1 0.1 0 41:1 42:1 43:1 46:1 47:1 48:1 49:1 56:1 57:1 64:1 65:1 72:1 73:1 80:1 81:1 82:1 83:1 84:1 85:1 86:1 87:1 88:1 
0.1 0.1 0.1 0.1 0.1 0.1 0.0160968332160445 0.1 0.1 0.1 0.1 0.1 0 0.1 0 0 0.1 0.04301368901687803 0 0.04655315022980641 0 0 0 0 0.1 37:1 41:1 42:1 43:1 44:1 45:1 46:1 49:1 54:1 55:1 57:1 64:1 65:1 72:1 73:1 80:1 81:1 82:1 87:1 88:1 90:1 91:1 92:1 93:1 94:1 95:1 
0.1 0.1 0.1 0.1 0.1 0.1 0.1 0.1 0 0.1 0.1 0.1 0.1 0.1 0.1 0.1 0.1 0.1 0.1 0.1 0.01443825001053028 0.09805099850495003 0.06828591514359116 0.01867809048194188 0.1 2:1 3:1 4:1 5:1 9:1 13:1 17:1 21:1 22:1 25:1 30:1 33:1 38:1 39:1 41:1 47:1 48:1 49:1 56:1 57:1 64:1 65:1 72:1 74:1 80:1 82:1 88:1 90:1 96:1 99:1 104:1 107:1 112:1 115:1 116:1 117:1 119:1 120:1 125:1 126:1 127:1 
0 0.1 0.1 0 0.1 0.1 0.1 0.1 0.004212283904853334 0.1 0 0 0 0 0 0.1 0.1 0 0.1 0.1 0 0 0 0 0.08247925488315043 17:1 18:1 19:1 20:1 21:1 22:1 23:1 25:1 31:1 33:1 39:1 40:1 41:1 48:1 49:1 56:1 57:1 64:1 65:1 72:1 73:1 79:1 80:1 81:1 82:1 87:1 90:1 95:1 98:1 99:1 102:1 103:1 107:1 108:1 109:1 110:1 
0.09055555555556169 0.1 0.1 0 0.1 0 0 0 0.1 0.1 0 0 0 0 0 0 0.1 0 0 0 0 0 0 0.01178850293845214 0 29:1 30:1 34:1 39:1 40:1 42:1 48:1 49:1 50:1 56:1 57:1 64:1 65:1 72:1 73:1 80:1 81:1 87:1 88:1 89:1 90:1 94:1 95:1 98:1 99:1 100:1 101:1 102:1 
0.1 0.1 0.1 0 0.1 0.1 0.1 0.1 0.1 0.1 0.08626024979449372 0 0 0 0 0.1 0.1 0 0 0.1 0 0 0 0.04938248836080518 0.1 17:1 22:1 25:1 30:1 31:1 33:1 39:1 40:1 41:1 48:1 49:1 56:1 57:1 64:1 65:1 72:1 73:1 80:1 81:1 88:1 89:1 90:1 96:1 98:1 99:1 104:1 107:1 108:1 109:1 110:1 111:1 112:1 
0 0.1 0.1 0 0.1 0 0 0 0 0.1 0 0 0 0 0 0 0.1 0 0 0 0 0 0 0 0 35:1 36:1 37:1 38:1 41:1 42:1 43:1 46:1 47:1 48:1 49:1 56:1 57:1 64:1 65:1 72:1 73:1 80:1 81:1 82:1 83:1 86:1 87:1 88:1 91:1 92:1 93:1 94:1 
0 0.1 0.1 0 0 0 0 0 0 0.1 0 0 0 0 0 0 0.1 0 0 0 0 0 0 0 0 35:1 36:1 37:1 38:1 41:1 42:1 43:1 44:1 46:1 47:1 48:1 49:1 56:1 57:1 64:1 65:1 72:1 73:1 80:1 81:1 82:1 83:1 87:1 88:1 91:1 92:1 93:1 94:1 95:1 
0.1 0.1 0.1 0 0.1 0.1 0 0.1 0.1 0.1 0.01920862668292135 0.1 0 0.1 0 0 0.1 0 0 0 0 0 0 0 0 29:1 37:1 45:1 46:1 49:1 50:1 51:1 55:1 56:1 57:1 59:1 64:1 65:1 72:1 73:1 80:1 81:1 88:1 89:1 95:1 98:1 99:1 100:1 101:1 102:1 
0 0.1 0.1 0 0 0.1 0 0 0.1 0.1 0 0 0 0 0 0 0 0 0 0 0 0 0 0 0 20:1 21:1 22:1 27:1 28:1 30:1 35:1 37:1 38:1 39:1 40:1 42:1 43:1 48:1 49:1 50:1 56:1 57:1 64:1 65:1 72:1 73:1 80:1 81:1 88:1 89:1 90:1 96:1 98:1 99:1 102:1 103:1 108:1 109:1 110:1 
0.1 0.1 0.1 0.1 0.1 0.1 0.1 0.1 0 0.1 0.06649646052649308 0.1 0 0 0.1 0 0.1 0 0.1 0.09085865300947245 0.0057142314286826 0 0 0 0.1 2:1 3:1 9:1 10:1 11:1 12:1 17:1 18:1 20:1 21:1 25:1 29:1 30:1 33:1 38:1 39:1 41:1 47:1 49:1 55:1 56:1 57:1 64:1 65:1 72:1 73:1 80:1 81:1 88:1 89:1 96:1 97:1 104:1 105:1 111:1 112:1 113:1 118:1 119:1 121:1 122:1 123:1 124:1 125:1 126:1 
0 0.1 0.1 0 0.1 0.1 0.1 0.03975935949585292 0.1 0.1 0 0.1 0 0 0.05381730064262551 0 0 0 0.1 0 0 0 0 0 0 3:1 4:1 5:1 11:1 13:1 14:1 18:1 19:1 20:1 21:1 26:1 27:1 29:1 30:1 34:1 38:1 39:1 42:1 47:1 49:1 50:1 55:1 56:1 57:1 64:1 65:1 72:1 73:1 80:1 81:1 88:1 89:1 96:1 97:1 98:1 104:1 106:1 111:1 112:1 114:1 115:1 118:1 119:1 123:1 124:1 125:1 126:1 
0.1 0.1 0.1 0.06100985901594292 0.1 0.1 0.1 0.1 0 0.1 0.1 0.1 0.1 0.1 0.1 0.1 0 0.1 0.1 0.1 0 0 0.1 0 0.1 34:1 35:1 36:1 37:1 38:1 39:1 42:1 43:1 47:1 49:1 50:1 51:1 55:1 56:1 57:1 59:1 64:1 66:1 67:1 72:1 75:1 80:1 83:1 84:1 88:1 92:1 93:1 94:1 95:1 96:1 
0 0.1 0.1 0 0 0.1 0 0.1 0.1 0.1 0.06448543287670182 0 0 0 0 0 0.01944369430191736 0 0 0 0 0 0 0 0 25:1 26:1 27:1 28:1 29:1 33:1 34:1 35:1 36:1 37:1 38:1 41:1 46:1 47:1 49:1 55:1 56:1 57:1 64:1 65:1 72:1 73:1 80:1 81:1 82:1 88:1 90:1 95:1 96:1 98:1 99:1 100:1 101:1 102:1 103:1 
0.1 0.1 0.1 0 0.1 0.1 0.1 0.1 0.1 0.1 0.1 0.1 0 0.1 0 0.1 0.1 0.1 0.1 0.1 0 0 0.1 0 0.1 33:1 34:1 35:1 36:1 41:1 42:1 45:1 46:1 49:1 54:1 55:1 57:1 63:1 64:1 65:1 72:1 73:1 80:1 81:1 82:1 88:1 90:1 91:1 92:1 93:1 94:1 95:1 96:1 
0.1 0.1 0.1 0.1 0.1 0.1 0.1 0.1 0.1 0.1 0.1 0.1 0.1 0.1 0.1 0.1 0.1 0.1 0.1 0.1 0 0 0.1 0 0.1 26:1 27:1 33:1 34:1 35:1 36:1 37:1 41:1 45:1 46:1 49:1 54:1 57:1 62:1 63:1 65:1 71:1 72:1 73:1 80:1 81:1 82:1 88:1 90:1 91:1 96:1 99:1 100:1 101:1 102:1 103:1 104:1 
0.1 0.1 0.1 0.1 0.1 0.1 0 0.1 0.1 0.1 0 0.1 0 0.1 0.1 0.1 0.1 0 0.05593525259456452 0 0 0 0 0 0 29:1 30:1 31:1 36:1 37:1 39:1 40:1 48:1 49:1 56:1 57:1 63:1 64:1 65:1 71:1 73:1 78:1 79:1 81:1 85:1 86:1 89:1 93:1 97:1 98:1 99:1 100:1 
0 0.1 0.1 0 0.1 0.0502333333333328 0 0.1 0 0.1 0 0.1 0 0.04013203463203294 0 0 0 0 0.1 0 0 0 0 0 0 27:1 28:1 29:1 30:1 31:1 32:1 35:1 36:1 40:1 48:1 50:1 51:1 56:1 58:1 64:1 65:1 66:1 72:1 73:1 79:1 80:1 81:1 85:1 86:1 87:1 89:1 90:1 92:1 93:1 98:1 99:1 100:1 
0 0 0.1 0 0 0 0 0 0.1 0.1 0 0 0 0 0 0 0 0 0 0 0 0 0 0 0 20:1 21:1 22:1 23:1 31:1 32:1 34:1 35:1 36:1 37:1 40:1 42:1 48:1 49:1 56:1 57:1 64:1 65:1 72:1 73:1 80:1 81:1 87:1 89:1 94:1 95:1 97:1 98:1 102:1 106:1 107:1 108:1 109:1 
0.1 0.1 0.1 0 0.1 0.1 0 0.1 0.1 0.1 0 0.1 0 0.09176190476190417 0 0 0.1 0 0 0 0 0 0 0 0 36:1 37:1 38:1 39:1 40:1 42:1 43:1 44:1 48:1 49:1 50:1 56:1 57:1 64:1 65:1 71:1 72:1 73:1 78:1 79:1 81:1 85:1 86:1 89:1 90:1 91:1 92:1 
0.1 0.1 0.1 0 0.1 0.1 0 0.1 0 0.1 0 0.1 0 0.1 0 0 0.1 0.09078521565124224 0 0 0 0 0 0 0 28:1 29:1 30:1 34:1 35:1 36:1 38:1 39:1 42:1 47:1 48:1 49:1 50:1 56:1 57:1 64:1 65:1 72:1 73:1 74:1 80:1 82:1 83:1 84:1 85:1 87:1 88:1 93:1 94:1 95:1 103:1 
0.009444444444438318 0.1 0.1 0 0.1 0.1 0 0 0 0.1 0 0.1 0 0 0 0 0 0 0 0 0 0 0 0 0 28:1 29:1 30:1 35:1 36:1 38:1 39:1 42:1 43:1 47:1 48:1 49:1 50:1 56:1 57:1 64:1 65:1 72:1 73:1 80:1 81:1 82:1 83:1 84:1 88:1 92:1 93:1 94:1 96:1 103:1 104:1 
0.1 0.1 0.1 0 0.1 0.1 0 0.1 0.1 0.1 0.1 0.1 0 0.1 0 0 0.1 0 0 0 0 0 0 0 0 35:1 36:1 37:1 39:1 40:1 41:1 42:1 43:1 48:1 49:1 56:1 57:1 64:1 65:1 72:1 73:1 74:1 79:1 80:1 83:1 86:1 87:1 92:1 93:1 94:1 
0.1 0.1 0.1 0 0 0 0 0 0.1 0.1 0 0 0 0 0 0 0.1 0 0 0 0 0 0 0 0 31:1 35:1 36:1 39:1 40:1 42:1 43:1 48:1 49:1 50:1 56:1 57:1 64:1 65:1 72:1 73:1 80:1 81:1 88:1 89:1 90:1 95:1 96:1 99:1 100:1 101:1 102:1 103:1 
0 0.1 0.1 0.1 0.1 0.1 0 0.1 0.1 0.1 0.01161619757078913 0.1 0 0 0 0 0.1 0 0 0 0 0 0 0 0 22:1 23:1 29:1 30:1 32:1 36:1 40:1 43:1 48:1 50:1 56:1 57:1 58:1 64:1 65:1 71:1 72:1 73:1 79:1 81:1 86:1 87:1 89:1 93:1 94:1 97:1 98:1 99:1 100:1 101:1 106:1 107:1 
0.1 0.1 0.1 0.01467572062084344 0.1 0.1 0 0 0.06860361512970638 0.1 0 0.1 0 0.1 0 0 0 0 0 0 0 0 0 0 0 20:1 27:1 28:1 35:1 38:1 39:1 43:1 47:1 50:1 51:1 55:1 56:1 58:1 64:1 65:1 66:1 72:1 73:1 80:1 81:1 87:1 88:1 89:1 94:1 95:1 97:1 98:1 99:1 100:1 101:1 102:1 107:1 108:1 
0.1 0.1 0.1 0.1 0.1 0.1 0.1 0.1 0.04194563174807855 0.1 0 0.1 0 0.1 0.1 0 0.1 0 0.1 0.1 0 0.03408830805299806 0 0 0.1 2:1 3:1 9:1 10:1 11:1 12:1 13:1 14:1 17:1 21:1 22:1 25:1 30:1 33:1 38:1 39:1 41:1 47:1 48:1 49:1 56:1 57:1 64:1 65:1 72:1 73:1 80:1 81:1 88:1 89:1 96:1 97:1 104:1 105:1 112:1 113:1 119:1 120:1 121:1 122:1 123:1 124:1 125:1 126:1 127:1 
0.1 0.1 0.1 0.1 0.1 0.1 0.1 0.1 0.1 0.1 0.1 0.1 0.1 0.1 0.1 0.1 0.1 0.1 0.1 0.1 0.1 0.1 0.1 0 0.1 3:1 4:1 5:1 11:1 13:1 21:1 27:1 28:1 29:1 35:1 37:1 43:1 45:1 50:1 51:1 53:1 58:1 61:1 62:1 66:1 70:1 74:1 78:1 82:1 86:1 87:1 90:1 95:1 98:1 103:1 106:1 110:1 111:1 114:1 115:1 118:1 123:1 124:1 125:1 126:1 
0 0 0.1 0 0 0 0 0 0 0 0 0 0 0 0 0 0 0 0 0 0 0 0 0 0 18:1 19:1 20:1 21:1 26:1 27:1 28:1 29:1 30:1 31:1 34:1 39:1 40:1 41:1 42:1 48:1 49:1 56:1 57:1 64:1 65:1 72:1 73:1 80:1 81:1 87:1 88:1 89:1 94:1 95:1 97:1 101:1 102:1 105:1 106:1 107:1 108:1 109:1 
0 0.1 0.1 0 0 0 0 0 0 0.1 0 0.1 0 0 0 0 0 0 0 0 0 0 0 0 0 21:1 22:1 28:1 29:1 30:1 31:1 36:1 37:1 39:1 40:1 43:1 48:1 50:1 56:1 57:1 58:1 64:1 65:1 72:1 73:1 79:1 80:1 81:1 86:1 87:1 89:1 93:1 94:1 97:1 100:1 101:1 105:1 106:1 107:1 108:1 
0.1 0.1 0.1 0 0 0 0 0.1 0.03256098862518072 0.1 0 0 0 0 0 0 0.1 0 0 0.05580510443837739 0 0 0 0 0.1 25:1 26:1 27:1 33:1 35:1 36:1 37:1 38:1 41:1 46:1 47:1 49:1 50:1 55:1 56:1 57:1 58:1 64:1 65:1 66:1 72:1 73:1 80:1 81:1 87:1 88:1 89:1 90:1 94:1 95:1 98:1 99:1 100:1 101:1 102:1 
0.1 0.1 0.1 0.0160961058758291 0.1 0.1 0 0.1 0.1 0.1 0 0.1 0 0.1 0.1 0 0.1 0.1 0 0 0 0 0.02623098210727037 0 0 34:1 35:1 36:1 37:1 38:1 41:1 42:1 45:1 46:1 49:1 54:1 55:1 57:1 63:1 64:1 65:1 72:1 73:1 80:1 81:1 82:1 83:1 88:1 91:1 92:1 93:1 94:1 95:1 96:1 
0 0.1 0.1 0 0 0.1 0 0 0.02058823529411465 0.1 0 0 0 0 0 0 0.1 0 0 0 0 0 0 0 0 29:1 30:1 38:1 39:1 42:1 43:1 44:1 45:1 46:1 47:1 48:1 49:1 50:1 56:1 57:1 64:1 65:1 71:1 72:1 73:1 79:1 81:1 87:1 89:1 90:1 93:1 94:1 95:1 98:1 99:1 100:1 101:1 
0 0.1 0.1 0 0 0 0 0 0 0.1 0 0 0 0 0 0 0.1 0 0 0 0 0 0 0 0 34:1 35:1 36:1 37:1 38:1 39:1 41:1 42:1 47:1 48:1 49:1 56:1 57:1 64:1 65:1 72:1 73:1 80:1 81:1 82:1 87:1 88:1 90:1 91:1 92:1 93:1 94:1 95:1 
0 0.1 0.1 0 0.1 0.1 0.1 0.1 0 0.1 0.05081740191147896 0.1 0 0 0 0 0.1 0 0.1 0 0.02280812062744393 0 0 0 0.04868506493506398 2:1 3:1 4:1 10:1 11:1 12:1 18:1 19:1 20:1 21:1 25:1 26:1 29:1 30:1 31:1 32:1 33:1 40:1 41:1 48:1 49:1 56:1 57:1 64:1 65:1 72:1 73:1 80:1 81:1 88:1 89:1 96:1 97:1 104:1 105:1 111:1 112:1 113:1 114:1 118:1 119:1 122:1 123:1 124:1 125:1 126:1 
0.1 0.1 0.1 0.1 0.1 0.1 0.1 0.1 0.1 0.1 0.1 0.1 0.1 0.1 0.1 0.1 0.1 0.1 0.1 0.1 0 0 0.1 0.01193529242611731 0.1 34:1 35:1 36:1 41:1 42:1 44:1 46:1 49:1 52:1 54:1 55:1 57:1 63:1 64:1 65:1 72:1 73:1 74:1 75:1 80:1 83:1 84:1 85:1 88:1 93:1 94:1 95:1 96:1 
0.1 0.1 0.1 0 0.1 0.1 0 0.1 0.1 0.1 0.1 0.1 0.09038462762691755 0.1 0 0 0.1 0.1 0.1 0 0 0 0.1 0 0.1 34:1 35:1 36:1 41:1 42:1 44:1 45:1 46:1 49:1 50:1 51:1 52:1 54:1 55:1 57:1 60:1 63:1 64:1 65:1 72:1 73:1 80:1 81:1 82:1 85:1 86:1 87:1 88:1 90:1 91:1 92:1 93:1 
0 0.1 0.1 0 0.1 0 0 0.1 0.1 0.1 0.1 0.08640049248593958 0 0 0 0 0 0 0 0 0 0 0 0 0 19:1 27:1 28:1 29:1 30:1 35:1 38:1 39:1 42:1 43:1 48:1 50:1 56:1 57:1 58:1 64:1 65:1 72:1 73:1 79:1 80:1 81:1 87:1 89:1 94:1 97:1 101:1 102:1 105:1 106:1 107:1 108:1 109:1 
0 0 0.1 0.1 0.1 0.1 0 0.1 0 0.1 0.04122818782901585 0 0 0 0.1 0 0 0 0.1 0 0 0 0 0 0 4:1 5:1 6:1 11:1 12:1 13:1 14:1 15:1 18:1 19:1 21:1 22:1 23:1 26:1 27:1 30:1 31:1 34:1 39:1 41:1 42:1 47:1 48:1 49:1 56:1 57:1 64:1 65:1 72:1 73:1 80:1 81:1 88:1 89:1 96:1 97:1 103:1 104:1 105:1 106:1 110:1 111:1 114:1 118:1 122:1 123:1 124:1 125:1 126:1 
0.08948801742919446 0.1 0.1 0 0 0.1 0 0 0.1 0.1 0 0 0 0 0 0 0 0 0 0 0 0 0 0 0 28:1 35:1 36:1 37:1 38:1 39:1 42:1 43:1 47:1 50:1 55:1 56:1 57:1 58:1 64:1 65:1 72:1 73:1 80:1 81:1 88:1 89:1 90:1 95:1 96:1 98:1 99:1 100:1 101:1 102:1 103:1 
0 0.1 0.1 0.1 0.1 0.1 0 0.1 0 0.1 0 0.1 0 0.1 0.1 0 0.1 0 0.05381610216627712 0 0 0 0 0 0 28:1 29:1 30:1 31:1 32:1 40:1 43:1 44:1 45:1 46:1 48:1 50:1 54:1 56:1 57:1 64:1 65:1 71:1 72:1 73:1 79:1 81:1 86:1 87:1 89:1 90:1 93:1 94:1 98:1 99:1 100:1 101:1 
0.1 0.1 0.1 0.1 0.1 0.1 0.1 0.1 0.1 0.1 0.1 0.1 0.1 0.1 0.1 0.1 0.1 0.1 0.1 0.1 0 0 0.1 0.1 0.1 50:1 51:1 52:1 53:1 54:1 55:1 56:1 57:1 58:1 64:1 65:1 72:1 73:1 74:1 75:1 76:1 77:1 78:1 79:1 80:1 
0.1 0.1 0.1 0 0.1 0.1 0 0.1 0.1 0.1 0 0.1 0 0.1 0.1 0 0.1 0.1 0 0 0 0 0 0 0 35:1 36:1 37:1 38:1 41:1 42:1 43:1 44:1 45:1 46:1 49:1 54:1 55:1 57:1 63:1 64:1 65:1 72:1 73:1 80:1 81:1 82:1 83:1 87:1 88:1 91:1 92:1 93:1 94:1 95:1 
0.1 0.1 0.1 0 0.1 0.1 0 0.1 0 0.1 0 0.1 0 0.1 0 0 0.1 0 0.1 0 0 0 0 0 0 34:1 35:1 41:1 42:1 43:1 44:1 45:1 46:1 47:1 49:1 51:1 55:1 56:1 57:1 64:1 65:1 72:1 73:1 74:1 80:1 82:1 83:1 84:1 86:1 87:1 88:1 92:1 93:1 94:1 
0 0.1 0.1 0 0.1 0.1 0.1 0.1 0 0.1 0.1 0.1 0.1 0.1 0.1 0.1 0.02045693783860047 0.1 0.1 0.05556800148704192 0 0 0.1 0 0.1 28:1 29:1 30:1 31:1 32:1 34:1 35:1 36:1 40:1 41:1 42:1 43:1 48:1 49:1 50:1 56:1 58:1 64:1 66:1 72:1 74:1 80:1 82:1 87:1 88:1 90:1 91:1 93:1 94:1 95:1 99:1 100:1 101:1 
0 0.1 0.1 0 0 0 0 0 0.03673960606807142 0.1 0 0 0 0 0 0 0 0 0 0 0 0 0 0 0 20:1 21:1 22:1 27:1 28:1 30:1 31:1 35:1 39:1 40:1 42:1 43:1 48:1 49:1 50:1 56:1 57:1 64:1 65:1 72:1 73:1 80:1 81:1 88:1 89:1 95:1 96:1 97:1 101:1 102:1 103:1 106:1 107:1 108:1 109:1 
0.1 0.1 0.1 0 0.1 0.1 0.1 0.1 0.1 0.1 0.1 0.1 0.1 0.1 0.1 0 0.1 0.1 0.1 0 0.1 0.07955165035015843 0.1 0 0 35:1 36:1 42:1 43:1 44:1 45:1 49:1 50:1 53:1 54:1 55:1 57:1 63:1 65:1 71:1 72:1 73:1 80:1 81:1 87:1 88:1 95:1 
0.1 0.1 0.1 0 0 0 0 0.1 0 0.1 0 0 0 0 0 0 0 0 0 0 0 0 0 0 0 35:1 36:1 37:1 38:1 42:1 43:1 46:1 47:1 48:1 49:1 50:1 56:1 57:1 58:1 64:1 65:1 66:1 72:1 73:1 80:1 81:1 82:1 83:1 88:1 91:1 92:1 93:1 94:1 95:1 96:1 
0.1 0.1 0.1 0 0.1 0.1 0.1 0.1 0.1 0.1 0.1 0.1 0.1 0.1 0.1 0.1 0.1 0 0.1 0.06943252125708027 0 0.05465727376783724 0 0 0 11:1 12:1 13:1 14:1 15:1 16:1 18:1 19:1 24:1 25:1 26:1 32:1 33:1 40:1 41:1 48:1 49:1 56:1 57:1 64:1 65:1 72:1 73:1 80:1 88:1 96:1 99:1 100:1 104:1 108:1 109:1 111:1 112:1 117:1 118:1 119:1 
0.1 0.1 0.1 0 0.1 0 0 0.1 0 0.1 0 0.1 0 0.005867965367965303 0 0 0.1 0 0.1 0 0 0 0 0 0 34:1 35:1 36:1 37:1 38:1 39:1 40:1 41:1 42:1 48:1 49:1 56:1 57:1 64:1 65:1 72:1 73:1 74:1 80:1 82:1 83:1 87:1 88:1 91:1 92:1 93:1 94:1 
0 0 0.1 0 0 0 0 0 0 0.1 0 0 0 0 0 0 0 0 0 0 0 0 0 0 0 21:1 26:1 27:1 29:1 30:1 31:1 34:1 35:1 39:1 40:1 41:1 42:1 48:1 49:1 56:1 57:1 64:1 65:1 72:1 73:1 80:1 81:1 87:1 88:1 89:1 94:1 95:1 97:1 98:1 99:1 100:1 101:1 106:1 107:1 
0.1 0.1 0.1 0 0.1 0.1 0 0.1 0 0.1 0 0.1 0 0.1 0.06127424939496109 0 0.1 0.1 0.1 0 0 0 0.1 0 0 37:1 38:1 45:1 46:1 47:1 48:1 50:1 51:1 52:1 53:1 54:1 56:1 57:1 58:1 64:1 65:1 72:1 73:1 79:1 80:1 81:1 85:1 86:1 89:1 90:1 91:1 92:1 93:1 
0 0.1 0.1 0 0 0.1 0 0.04588694045491979 0 0.1 0 0 0 0 0 0 0 0 0 0 0 0 0 0 0 22:1 23:1 27:1 28:1 29:1 30:1 31:1 32:1 34:1 35:1 37:1 38:1 40:1 42:1 45:1 48:1 50:1 56:1 57:1 58:1 64:1 65:1 72:1 73:1 80:1 81:1 88:1 89:1 95:1 97:1 101:1 102:1 103:1 105:1 106:1 107:1 108:1 109:1 
0 0.1 0.1 0 0.1 0.05600000000000025 0 0.007230647275732793 0 0.1 0 0.1 0 0 0 0 0.1 0 0 0 0 0 0 0 0 33:1 34:1 35:1 36:1 37:1 38:1 39:1 40:1 41:1 48:1 56:1 64:1 65:1 66:1 72:1 73:1 79:1 80:1 81:1 87:1 89:1 94:1 95:1 97:1 98:1 99:1 100:1 101:1 102:1 
0 0.1 0.1 0 0 0 0 0 0.004326863831350359 0.1 0 0 0 0 0 0 0 0 0 0 0 0 0 0 0 34:1 35:1 36:1 37:1 38:1 39:1 42:1 43:1 44:1 47:1 48:1 49:1 50:1 56:1 57:1 64:1 65:1 72:1 73:1 79:1 80:1 81:1 86:1 87:1 89:1 90:1 91:1 92:1 93:1 94:1 
0 0.1 0.1 0.08164204545454595 0.1 0.1 0.1 0.1 0 0.1 0 0.0127159520662363 0 0 0.1 0 0 0 0.1 0 0 0 0 0 0.03121986547409789 1:1 2:1 3:1 9:1 12:1 13:1 17:1 21:1 22:1 25:1 30:1 31:1 33:1 34:1 35:1 36:1 37:1 38:1 39:1 41:1 47:1 49:1 55:1 56:1 57:1 64:1 65:1 72:1 73:1 80:1 81:1 88:1 89:1 96:1 97:1 104:1 105:1 106:1 112:1 114:1 115:1 119:1 120:1 123:1 124:1 125:1 126:1 
0 0.1 0.1 0 0.1 0 0 0 0.1 0.1 0 0.1 0 0 0 0 0 0 0 0 0 0 0 0 0 27:1 28:1 29:1 30:1 35:1 36:1 39:1 43:1 48:1 50:1 51:1 56:1 57:1 58:1 64:1 65:1 72:1 73:1 79:1 80:1 81:1 86:1 87:1 89:1 93:1 94:1 97:1 98:1 99:1 100:1 101:1 
0.1 0.1 0.1 0.1 0.1 0.1 0.1 0.1 0.0627156640079051 0.1 0.1 0.1 0.1 0.1 0.1 0.1 0.1 0.1 0.1 0.1 0 0 0.1 0 0.1 31:1 32:1 37:1 38:1 39:1 40:1 44:1 45:1 46:1 48:1 52:1 56:1 59:1 60:1 63:1 64:1 66:1 67:1 71:1 73:1 74:1 77:1 78:1 79:1 81:1 84:1 85:1 89:1 91:1 92:1 97:1 98:1 99:1 
0 0 0.1 0 0 0.1 0 0 0 0 0 0 0 0 0 0 0 0 0.1 0 0 0 0 0 0 12:1 13:1 14:1 18:1 19:1 20:1 22:1 23:1 26:1 31:1 32:1 34:1 35:1 36:1 40:1 42:1 48:1 49:1 50:1 56:1 57:1 64:1 65:1 72:1 73:1 80:1 81:1 87:1 88:1 89:1 94:1 95:1 97:1 101:1 102:1 105:1 106:1 107:1 108:1 109:1 114:1 115:1 
0 0.1 0.1 0.1 0 0.1 0 0.1 0 0.1 0 0 0 0 0.1 0 0 0 0.1 0 0 0 0 0 0 22:1 23:1 24:1 29:1 30:1 31:1 32:1 36:1 37:1 39:1 40:1 43:1 44:1 47:1 48:1 50:1 51:1 56:1 58:1 64:1 65:1 66:1 71:1 72:1 73:1 79:1 81:1 86:1 87:1 89:1 93:1 94:1 97:1 99:1 100:1 101:1 105:1 106:1 107:1 
0.1 0.1 0.1 0.1 0.1 0.1 0 0.1 0 0.1 0.1 0.1 0 0.1 0.1 0 0.1 0.1 0.1 0 0 0 0.1 0 0.1 29:1 30:1 36:1 37:1 38:1 39:1 40:1 44:1 48:1 51:1 56:1 58:1 59:1 64:1 66:1 71:1 72:1 73:1 74:1 78:1 79:1 81:1 85:1 86:1 89:1 92:1 93:1 97:1 98:1 99:1 100:1 
0 0.1 0.1 0 0 0 0 0 0 0.1 0 0 0 0 0 0 0 0 0 0 0 0 0 0 0 34:1 35:1 36:1 37:1 38:1 39:1 40:1 42:1 48:1 49:1 50:1 56:1 57:1 64:1 65:1 72:1 73:1 80:1 81:1 86:1 87:1 88:1 89:1 90:1 91:1 92:1 93:1 94:1 
0.1 0.1 0.1 0 0.1 0.1 0 0.1 0.1 0.1 0.1 0.1 0 0.1 0 0 0.1 0.03277830228379856 0.1 0 0 0 0 0 0.1 33:1 34:1 35:1 36:1 41:1 42:1 44:1 45:1 46:1 49:1 54:1 55:1 57:1 63:1 64:1 65:1 72:1 73:1 80:1 81:1 82:1 87:1 88:1 90:1 91:1 92:1 93:1 94:1 95:1 
0 0.1 0.1 0 0.1 0 0 0.1 0.1 0.1 0 0.1 0 0 0 0 0.1 0 0 0 0 0 0 0 0 35:1 36:1 37:1 38:1 39:1 40:1 42:1 43:1 48:1 49:1 50:1 56:1 57:1 64:1 65:1 72:1 73:1 78:1 79:1 81:1 85:1 86:1 89:1 90:1 91:1 92:1 93:1 
0.1 0.1 0.1 0.1 0.1 0.1 0.1 0.1 0.1 0.1 0.1 0.1 0.1 0.1 0.1 0 0.1 0.1 0.1 0.1 0 0 0.1 0 0.1 35:1 36:1 43:1 44:1 45:1 49:1 50:1 51:1 53:1 54:1 57:1 62:1 63:1 65:1 71:1 72:1 73:1 80:1 81:1 82:1 88:1 90:1 91:1 92:1 93:1 94:1 95:1 96:1 
0.1 0.1 0.1 0.1 0.1 0.1 0 0.1 0.09436792640489221 0.1 0 0.1 0 0.1 0.1 0.1 0.1 0.1 0.1 0 0 0 0.1 0 0.1 31:1 32:1 38:1 39:1 40:1 44:1 45:1 48:1 50:1 51:1 52:1 53:1 56:1 57:1 58:1 64:1 65:1 71:1 72:1 73:1 78:1 79:1 81:1 84:1 85:1 86:1 89:1 91:1 92:1 97:1 98:1 99:1 
0.1 0.1 0.1 0 0.1 0.1 0 0 0.1 0.1 0.1 0.1 0 0 0 0 0 0 0 0 0 0 0 0 0 19:1 20:1 21:1 29:1 30:1 34:1 38:1 39:1 42:1 47:1 48:1 49:1 50:1 56:1 57:1 64:1 65:1 72:1 73:1 80:1 81:1 88:1 89:1 96:1 98:1 104:1 107:1 108:1 109:1 110:1 111:1 112:1 
0 0 0.1 0 0 0 0 0 0 0.1 0 0 0 0 0 0 0.1 0 0 0 0 0 0 0 0 19:1 20:1 26:1 27:1 29:1 30:1 31:1 33:1 34:1 39:1 40:1 41:1 42:1 48:1 49:1 56:1 57:1 64:1 65:1 72:1 73:1 79:1 80:1 81:1 87:1 89:1 94:1 95:1 97:1 98:1 99:1 101:1 102:1 107:1 108:1 109:1 
0 0.1 0.1 0.1 0.1 0.1 0.02835327234341957 0.1 0.1 0.1 0.1 0.1 0 0.1 0.1 0 0.1 0.04136436840007614 0 0 0 0 0 0 0 27:1 28:1 29:1 34:1 35:1 37:1 38:1 42:1 46:1 47:1 49:1 55:1 57:1 63:1 64:1 65:1 72:1 73:1 80:1 81:1 82:1 88:1 90:1 91:1 95:1 96:1 99:1 100:1 101:1 102:1 103:1 
0 0.1 0.1 0.1 0.1 0.1 0.1 0.1 0 0.1 0.1 0.1 0 0.1 0.1 0 0.1 0 0.1 0 0 0 0 0 0.1 3:1 4:1 5:1 11:1 12:1 13:1 14:1 15:1 19:1 23:1 27:1 31:1 32:1 35:1 40:1 43:1 48:1 50:1 51:1 56:1 58:1 64:1 66:1 71:1 72:1 74:1 79:1 81:1 82:1 87:1 89:1 95:1 97:1 102:1 103:1 105:1 110:1 113:1 117:1 118:1 121:1 122:1 123:1 124:1 125:1 
0 0.1 0.1 0 0 0.1 0 0.1 0.1 0.1 0 0 0 0 0 0 0 0 0 0 0 0 0 0 0 6:1 13:1 14:1 20:1 21:1 22:1 27:1 28:1 30:1 31:1 34:1 35:1 39:1 40:1 42:1 48:1 49:1 50:1 56:1 57:1 64:1 65:1 72:1 73:1 80:1 81:1 88:1 89:1 96:1 97:1 104:1 105:1 106:1 112:1 114:1 119:1 120:1 123:1 124:1 125:1 126:1 127:1 
0.1 0.1 0.1 0.1 0.1 0.1 0.1 0.1 0.1 0.1 0.1 0.1 0.1 0.1 0.1 0.1 0.1 0.1 0.1 0.1 0 0 0.1 0.0494943341389865 0.1 43:1 44:1 50:1 51:1 52:1 53:1 54:1 55:1 56:1 57:1 58:1 64:1 65:1 72:1 73:1 76:1 77:1 78:1 79:1 80:1 81:1 82:1 83:1 84:1 
0 0 0.1 0 0.1 0.1 0 0.1 0 0.1 0 0 0 0 0 0.01861453942702642 0.1 0 0 0 0 0 0 0.04603241997738411 0 17:1 18:1 19:1 20:1 21:1 22:1 25:1 30:1 31:1 33:1 39:1 40:1 41:1 48:1 49:1 56:1 57:1 64:1 65:1 72:1 73:1 80:1 81:1 88:1 89:1 95:1 96:1 97:1 98:1 102:1 103:1 106:1 107:1 108:1 109:1 110:1 
0 0.1 0.1 0.003417645081233776 0.1 0.1 0 0 0 0.1 0.01897636653286738 0.1 0 0 0 0 0 0 0 0 0 0 0 0 0 11:1 12:1 13:1 18:1 19:1 20:1 21:1 22:1 26:1 28:1 29:1 30:1 31:1 34:1 39:1 41:1 47:1 49:1 55:1 56:1 57:1 64:1 65:1 72:1 73:1 80:1 81:1 88:1 89:1 95:1 96:1 97:1 102:1 103:1 105:1 106:1 109:1 110:1 114:1 115:1 116:1 117:1 
0.1 0.1 0.1 0.1 0.1 0.1 0.1 0.1 0.1 0.1 0.1 0.1 0.1 0.1 0.1 0.1 0.1 0.1 0.1 0.1 0.1 0.1 0.1 0 0.1 5:1 6:1 13:1 20:1 21:1 28:1 29:1 36:1 37:1 38:1 43:1 44:1 46:1 51:1 54:1 59:1 62:1 67:1 70:1 75:1 78:1 83:1 86:1 91:1 94:1 99:1 102:1 107:1 110:1 115:1 118:1 123:1 124:1 125:1 
0 0.1 0.1 0 0 0 0 0 0.1 0.1 0 0 0 0 0 0 0 0 0 0 0 0 0 0 0 35:1 36:1 37:1 38:1 39:1 42:1 43:1 47:1 48:1 49:1 50:1 56:1 57:1 64:1 65:1 72:1 73:1 79:1 80:1 81:1 87:1 89:1 90:1 91:1 92:1 93:1 94:1 95:1 
0 0.1 0.1 0 0 0 0 0 0 0.1 0 0 0 0 0 0 0 0 0 0 0 0 0 0 0 31:1 32:1 35:1 36:1 37:1 38:1 39:1 40:1 42:1 43:1 48:1 49:1 50:1 56:1 57:1 64:1 65:1 72:1 73:1 80:1 81:1 87:1 88:1 89:1 90:1 94:1 95:1 98:1 99:1 100:1 101:1 102:1 
0 0.1 0.1 0 0 0 0 0 0.02124265843600621 0.1 0 0 0 0 0 0 0 0 0 0 0 0 0 0 0 34:1 35:1 36:1 37:1 38:1 39:1 40:1 42:1 43:1 44:1 48:1 50:1 56:1 57:1 64:1 65:1 72:1 73:1 80:1 81:1 87:1 88:1 89:1 90:1 91:1 92:1 93:1 94:1 95:1 
0 0.1 0.1 0 0.1 0.1 0 0 0 0.1 0 0.1 0 0 0 0 0 0 0 0 0 0 0 0 0 20:1 27:1 28:1 35:1 36:1 37:1 38:1 39:1 43:1 47:1 48:1 50:1 51:1 56:1 58:1 64:1 65:1 66:1 72:1 73:1 79:1 80:1 81:1 86:1 87:1 89:1 93:1 94:1 97:1 100:1 101:1 105:1 106:1 107:1 108:1 
0.1 0.1 0.1 0.03181818181818211 0.1 0.1 0.1 0.1 0.1 0.1 0.1 0.1 0.1 0.1 0.1 0.1 0.1 0.1 0.1 0.08961546854033955 0 0.02975985021547245 0 0 0.1 26:1 27:1 28:1 29:1 30:1 33:1 34:1 38:1 39:1 41:1 47:1 48:1 49:1 56:1 57:1 64:1 65:1 71:1 72:1 73:1 79:1 83:1 87:1 91:1 92:1 95:1 100:1 101:1 102:1 
0.1 0.1 0.1 0.1 0.1 0.1 0.1 0.1 0.1 0.1 0.1 0.1 0.1 0.1 0.1 0.1 0.1 0.1 0.1 0.1 0.06203596458518649 0.1 0.1 0.1 0.1 25:1 33:1 41:1 49:1 50:1 51:1 52:1 57:1 61:1 65:1 69:1 70:1 71:1 72:1 73:1 79:1 80:1 81:1 86:1 87:1 89:1 90:1 91:1 93:1 94:1 99:1 100:1 101:1 
0.1 0.1 0.1 0 0.1 0.1 0.1 0.1 0.1 0.1 0.03381068244656257 0.1 0 0 0 0.1 0.1 0 0.1 0.1 0 0 0 0.008362720896615434 0.1 9:1 10:1 11:1 12:1 13:1 14:1 17:1 22:1 23:1 25:1 31:1 32:1 33:1 40:1 41:1 48:1 49:1 56:1 57:1 64:1 65:1 72:1 73:1 80:1 81:1 88:1 89:1 96:1 97:1 98:1 104:1 106:1 112:1 115:1 116:1 117:1 118:1 119:1 120:1 
0.1 0.1 0.1 0 0.1 0.1 0 0.1 0.1 0.1 0 0.1 0 0.1 0 0 0.1 0 0.1 0 0 0 0 0 0 42:1 43:1 44:1 45:1 46:1 47:1 49:1 50:1 51:1 55:1 56:1 57:1 64:1 65:1 72:1 73:1 79:1 80:1 81:1 82:1 83:1 84:1 85:1 86:1 87:1 
0.1 0.1 0.1 0 0.1 0.1 0 0.1 0.1 0.1 0.1 0.1 0 0.1 0 0 0 0 0 0 0 0 0 0 0 18:1 19:1 20:1 21:1 29:1 30:1 36:1 38:1 39:1 44:1 47:1 50:1 51:1 52:1 55:1 56:1 57:1 58:1 64:1 65:1 72:1 73:1 80:1 81:1 88:1 89:1 96:1 97:1 98:1 103:1 104:1 106:1 107:1 108:1 109:1 110:1 111:1 
0.1 0.1 0.1 0 0.1 0.1 0.1 0.1 0.1 0.1 0.1 0.1 0.1 0.1 0.1 0.1 0.1 0.01494531109915744 0.1 0.1 0 0 0 0 0.1 1:1 2:1 3:1 9:1 11:1 12:1 13:1 17:1 21:1 22:1 26:1 30:1 31:1 34:1 39:1 42:1 48:1 49:1 50:1 56:1 57:1 64:1 65:1 66:1 72:1 74:1 80:1 82:1 88:1 90:1 91:1 96:1 99:1 103:1 104:1 107:1 108:1 110:1 111:1 116:1 117:1 118:1 126:1 
0.1 0.1 0.1 0.1 0.1 0.1 0.1 0.1 0.1 0.1 0.1 0.1 0.005686760441587272 0.1 0.1 0 0.1 0.1 0.1 0 0 0 0 0 0.1 27:1 28:1 29:1 34:1 35:1 36:1 37:1 41:1 42:1 45:1 46:1 49:1 54:1 55:1 57:1 63:1 65:1 71:1 72:1 73:1 80:1 81:1 82:1 88:1 90:1 91:1 92:1 96:1 100:1 101:1 102:1 103:1 104:1 
0 0 0.1 0 0 0.1 0 0 0 0 0.03795237218454886 0 0 0 0 0 0 0 0 0 0 0.03590516040020519 0 0 0 20:1 21:1 22:1 26:1 27:1 28:1 29:1 30:1 31:1 33:1 34:1 36:1 38:1 39:1 41:1 48:1 49:1 56:1 57:1 64:1 65:1 72:1 73:1 79:1 80:1 81:1 87:1 89:1 94:1 95:1 97:1 101:1 102:1 105:1 106:1 107:1 108:1 109:1 
0.1 0.1 0.1 0 0.1 0.1 0 0.1 0.1 0.1 0 0.1 0 0.1 0.02158318425759978 0 0 0.0941385901798074 0 0 0 0 0 0 0 19:1 20:1 21:1 26:1 27:1 29:1 30:1 34:1 38:1 39:1 47:1 49:1 55:1 56:1 57:1 64:1 65:1 72:1 73:1 80:1 81:1 88:1 89:1 96:1 97:1 98:1 104:1 107:1 108:1 109:1 110:1 111:1 
0 0.1 0.1 0 0 0.1 0 0 0 0.1 0 0 0 0 0 0 0 0 0.1 0 0 0 0 0 0 3:1 11:1 12:1 20:1 21:1 27:1 28:1 29:1 30:1 31:1 32:1 34:1 35:1 38:1 39:1 40:1 41:1 42:1 47:1 48:1 49:1 55:1 56:1 57:1 63:1 64:1 65:1 72:1 73:1 80:1 81:1 88:1 89:1 90:1 96:1 98:1 104:1 106:1 107:1 112:1 115:1 116:1 118:1 119:1 120:1 124:1 125:1 126:1 
0 0 0.1 0 0 0 0 0 0 0 0 0 0 0 0 0.09616095475184352 0.1 0 0 0 0 0 0 0 0 19:1 20:1 21:1 22:1 25:1 26:1 30:1 31:1 32:1 33:1 40:1 41:1 48:1 49:1 56:1 57:1 64:1 65:1 72:1 73:1 80:1 81:1 87:1 88:1 89:1 94:1 95:1 97:1 100:1 101:1 102:1 105:1 106:1 107:1 108:1 
0 0 0.1 0 0 0.1 0 0 0 0.1 0 0 0 0 0 0 0.1 0 0 0 0 0 0 0 0 19:1 20:1 21:1 22:1 26:1 27:1 30:1 31:1 33:1 34:1 39:1 40:1 41:1 48:1 49:1 56:1 57:1 64:1 65:1 72:1 73:1 80:1 81:1 88:1 89:1 95:1 96:1 97:1 98:1 102:1 103:1 106:1 107:1 108:1 109:1 110:1 
0 0.1 0.1 0 0 0.1 0 0 0 0.1 0.09357585314384982 0 0 0 0 0 0 0 0 0 0 0 0 0 0 17:1 18:1 19:1 20:1 25:1 28:1 29:1 30:1 33:1 35:1 36:1 38:1 39:1 42:1 43:1 47:1 48:1 50:1 56:1 57:1 58:1 64:1 65:1 72:1 73:1 80:1 81:1 88:1 89:1 95:1 96:1 97:1 98:1 101:1 102:1 103:1 107:1 108:1 109:1 
0 0.1 0.1 0 0 0 0 0 0.1 0.1 0 0 0 0 0 0 0 0 0 0 0 0 0 0 0 20:1 21:1 22:1 23:1 27:1 28:1 31:1 32:1 35:1 40:1 42:1 43:1 48:1 49:1 50:1 56:1 57:1 64:1 65:1 72:1 73:1 79:1 80:1 81:1 87:1 89:1 94:1 95:1 97:1 98:1 101:1 102:1 106:1 107:1 108:1 109:1 
0 0.1 0.1 0 0 0 0 0 0 0.1 0 0 0 0 0 0 0 0 0 0 0 0 0 0 0 29:1 30:1 31:1 35:1 36:1 37:1 39:1 40:1 43:1 48:1 50:1 51:1 56:1 57:1 58:1 64:1 65:1 72:1 73:1 80:1 81:1 87:1 88:1 89:1 90:1 93:1 94:1 95:1 98:1 99:1 100:1 101:1 
0 0 0.1 0 0 0 0 0 0 0.1 0 0 0 0 0 0 0 0 0 0 0 0 0 0 0 19:1 20:1 21:1 22:1 27:1 30:1 31:1 34:1 35:1 39:1 40:1 41:1 42:1 48:1 49:1 56:1 57:1 64:1 65:1 72:1 73:1 80:1 81:1 88:1 89:1 95:1 96:1 97:1 101:1 102:1 103:1 105:1 106:1 107:1 108:1 109:1 
0 0.1 0.1 0 0 0 0 0 0 0.1 0 0 0 0 0 0 0 0 0 0 0 0 0 0 0 27:1 28:1 29:1 30:1 31:1 34:1 35:1 39:1 41:1 42:1 47:1 48:1 49:1 56:1 57:1 64:1 65:1 72:1 73:1 80:1 81:1 82:1 88:1 89:1 90:1 91:1 95:1 96:1 99:1 100:1 101:1 102:1 103:1 
0 0.1 0.1 0 0 0.1 0 0 0 0.1 0 0 0 0 0 0 0 0 0 0 0 0 0 0 0 9:1 10:1 11:1 12:1 20:1 21:1 22:1 30:1 31:1 34:1 35:1 39:1 40:1 42:1 48:1 49:1 50:1 56:1 57:1 64:1 65:1 72:1 73:1 80:1 81:1 88:1 89:1 96:1 97:1 102:1 103:1 104:1 105:1 109:1 110:1 113:1 114:1 115:1 116:1 117:1 
0.1 0.1 0.1 0 0.1 0.1 0 0.1 0.1 0.1 0 0.1 0 0.1 0 0 0.1 0 0 0 0 0 0 0 0 36:1 37:1 38:1 39:1 42:1 43:1 44:1 47:1 48:1 49:1 50:1 56:1 57:1 64:1 65:1 72:1 73:1 78:1 79:1 80:1 81:1 82:1 83:1 85:1 86:1 91:1 92:1 93:1 
0.1 0.1 0.1 0.1 0.1 0.1 0.1 0.1 0.1 0.1 0.1 0.1 0.1 0.1 0.1 0.1 0.1 0.1 0.1 0.1 0.07431817071290051 0.1 0.1 0 0.1 7:1 14:1 15:1 22:1 29:1 30:1 36:1 37:1 39:1 43:1 44:1 47:1 51:1 55:1 58:1 59:1 63:1 66:1 71:1 74:1 79:1 82:1 86:1 87:1 90:1 94:1 98:1 101:1 102:1 106:1 109:1 114:1 116:1 117:1 122:1 123:1 124:1 
0.1 0.1 0.1 0.1 0.1 0.1 0.1 0.1 0 0.1 0.1 0.1 0.1 0.1 0.1 0.1 0.1 0.1 0.1 0.1 0.1 0 0.1 0.01205005412124461 0.1 7:1 8:1 15:1 22:1 24:1 30:1 32:1 37:1 40:1 45:1 48:1 52:1 53:1 56:1 60:1 64:1 67:1 68:1 71:1 72:1 75:1 79:1 82:1 87:1 90:1 94:1 97:1 102:1 105:1 109:1 110:1 113:1 117:1 121:1 122:1 123:1 124:1 
0 0 0.1 0 0 0.1 0 0 0.1 0 0.01034316838400059 0 0 0 0 0 0 0 0 0 0 0 0 0 0 12:1 13:1 14:1 19:1 20:1 21:1 22:1 23:1 26:1 27:1 29:1 31:1 34:1 40:1 41:1 42:1 48:1 49:1 56:1 57:1 64:1 65:1 72:1 73:1 80:1 81:1 87:1 88:1 89:1 94:1 95:1 97:1 101:1 102:1 105:1 107:1 108:1 109:1 113:1 114:1 115:1 
0.1 0.1 0.1 0 0.1 0.1 0 0.1 0 0.1 0 0.1 0 0.1 0.1 0 0 0 0.1 0 0 0 0 0 0 36:1 37:1 38:1 39:1 43:1 44:1 45:1 46:1 47:1 48:1 50:1 51:1 56:1 58:1 64:1 66:1 72:1 73:1 79:1 80:1 81:1 85:1 86:1 87:1 89:1 90:1 91:1 92:1 93:1 
0 0.1 0.1 0 0.1 0 0 0 0.1 0.1 0 0 0 0 0 0 0.1 0 0 0 0 0 0 0 0 35:1 36:1 37:1 39:1 42:1 47:1 48:1 49:1 50:1 56:1 57:1 64:1 65:1 72:1 73:1 79:1 80:1 81:1 86:1 87:1 89:1 90:1 91:1 92:1 93:1 94:1 
0.1 0.1 0.1 0.1 0.1 0.1 0 0.1 0 0.1 0 0.1 0 0.1 0.1 0.1 0.1 0.08412694728761316 0.1 0 0 0 0.1 0 0.1 24:1 32:1 40:1 44:1 45:1 46:1 47:1 48:1 51:1 52:1 55:1 56:1 59:1 64:1 66:1 67:1 72:1 73:1 74:1 80:1 81:1 87:1 88:1 89:1 94:1 95:1 97:1 100:1 101:1 102:1 105:1 106:1 107:1 108:1 
0 0.1 0.1 0.1 0.1 0.1 0.1 0.1 0.1 0.1 0.1 0.1 0.1 0.1 0.1 0.1 0.1 0.1 0.1 0.1 0.02247306843761016 0.1 0.1 0 0.1 4:1 5:1 6:1 12:1 13:1 14:1 19:1 20:1 21:1 22:1 23:1 27:1 29:1 31:1 34:1 35:1 37:1 39:1 42:1 47:1 50:1 55:1 58:1 63:1 66:1 71:1 74:1 79:1 82:1 87:1 90:1 95:1 98:1 102:1 103:1 106:1 110:1 114:1 117:1 118:1 122:1 123:1 124:1 125:1 
0.1 0.1 0.1 0.1 0.1 0.1 0 0.1 0.1 0.1 0 0.1 0.0305249891404043 0.1 0 0 0 0 0.1 0 0 0 0 0 0 5:1 6:1 7:1 12:1 13:1 14:1 15:1 16:1 20:1 24:1 28:1 32:1 35:1 40:1 43:1 48:1 50:1 51:1 56:1 58:1 64:1 65:1 66:1 72:1 73:1 79:1 80:1 81:1 87:1 89:1 94:1 95:1 97:1 102:1 105:1 109:1 110:1 113:1 117:1 121:1 122:1 123:1 124:1 125:1 
0.1 0.1 0.1 0 0.1 0.1 0 0.1 0.03932266409324223 0.1 0 0.1 0 0.1 0 0 0.1 0 0 0 0 0 0 0 0 35:1 36:1 37:1 38:1 41:1 42:1 44:1 46:1 47:1 49:1 52:1 55:1 56:1 57:1 64:1 65:1 72:1 73:1 80:1 81:1 82:1 83:1 87:1 88:1 91:1 92:1 93:1 94:1 95:1 
0.1 0.1 0.1 0 0.1 0.1 0 0.1 0.1 0.1 0.07086657293278506 0.1 0.02434593233322036 0.1 0.008791616974756132 0.04338459650844584 0.1 0 0.1 0 0 0 0 0 0.1 43:1 44:1 45:1 46:1 47:1 49:1 50:1 51:1 55:1 56:1 57:1 64:1 65:1 72:1 73:1 74:1 78:1 79:1 80:1 82:1 83:1 84:1 85:1 86:1 
0.1 0.1 0.1 0 0.1 0.1 0 0.1 0.1 0.1 0.1 0.1 0 0.1 0 0 0 0 0 0 0 0 0 0 0 20:1 28:1 29:1 36:1 37:1 43:1 44:1 45:1 46:1 50:1 51:1 54:1 55:1 57:1 58:1 63:1 64:1 65:1 72:1 73:1 80:1 81:1 88:1 89:1 95:1 96:1 97:1 98:1 99:1 102:1 103:1 107:1 108:1 109:1 110:1 
0.1 0.1 0.1 0 0 0 0 0 0 0.1 0 0 0 0 0 0 0 0 0 0 0 0 0 0 0 34:1 35:1 36:1 37:1 38:1 42:1 46:1 47:1 48:1 50:1 51:1 52:1 56:1 57:1 58:1 64:1 65:1 72:1 73:1 79:1 80:1 81:1 86:1 87:1 89:1 90:1 91:1 92:1 93:1 94:1 
0.1 0.1 0.1 0 0.1 0 0 0.1 0.1 0.1 0 0 0 0 0 0 0 0 0 0 0 0 0 0 0 30:1 36:1 38:1 39:1 43:1 44:1 47:1 48:1 50:1 51:1 56:1 57:1 58:1 64:1 65:1 72:1 73:1 80:1 81:1 88:1 89:1 90:1 95:1 96:1 98:1 99:1 100:1 101:1 102:1 103:1 
0.1 0.1 0.1 0 0.1 0 0 0.1 0 0.1 0 0.03957769510597774 0 0 0 0 0 0 0 0 0 0 0 0 0 35:1 36:1 37:1 38:1 42:1 43:1 46:1 47:1 48:1 50:1 51:1 56:1 57:1 58:1 64:1 65:1 72:1 73:1 79:1 80:1 81:1 84:1 85:1 86:1 87:1 89:1 90:1 91:1 92:1 
0.1 0.1 0.1 0.1 0.1 0.1 0.1 0.1 0.1 0.1 0.1 0.1 0.01730783171556748 0.1 0.1 0 0.1 0.092794209876593 0.1 0.1 0.1 0 0.05435718906780034 0 0.1 1:1 2:1 3:1 4:1 11:1 12:1 18:1 20:1 21:1 26:1 29:1 33:1 34:1 37:1 38:1 41:1 46:1 49:1 54:1 57:1 63:1 65:1 71:1 72:1 73:1 80:1 81:1 88:1 89:1 96:1 97:1 98:1 103:1 104:1 106:1 111:1 114:1 115:1 118:1 119:1 123:1 124:1 125:1 126:1 
0 0 0.1 0 0 0 0 0 0.1 0.1 0 0 0 0 0 0 0 0 0 0 0 0 0 0 0 20:1 21:1 22:1 23:1 24:1 27:1 28:1 32:1 34:1 35:1 36:1 40:1 41:1 42:1 48:1 49:1 56:1 57:1 64:1 65:1 72:1 73:1 80:1 81:1 88:1 89:1 95:1 96:1 97:1 98:1 99:1 103:1 107:1 108:1 109:1 110:1 111:1 
0 0 0.1 0 0 0.1 0 0 0 0 0 0 0 0 0 0 0 0 0 0 0 0 0 0 0 17:1 18:1 19:1 20:1 21:1 22:1 25:1 26:1 30:1 31:1 34:1 35:1 39:1 41:1 47:1 48:1 49:1 56:1 57:1 64:1 65:1 72:1 73:1 80:1 81:1 87:1 88:1 89:1 94:1 95:1 97:1 101:1 102:1 105:1 106:1 107:1 108:1 109:1 
0 0 0.1 0 0 0 0 0 0 0.1 0 0 0 0 0 0 0 0 0 0 0 0 0 0 0 27:1 28:1 29:1 30:1 34:1 35:1 37:1 38:1 39:1 41:1 42:1 46:1 47:1 48:1 49:1 56:1 57:1 64:1 65:1 72:1 73:1 80:1 81:1 87:1 88:1 89:1 90:1 94:1 95:1 98:1 99:1 100:1 101:1 102:1 
0 0.1 0.1 0 0 0 0 0 0 0.1 0 0 0 0 0 0 0 0 0 0 0 0 0 0 0 30:1 36:1 37:1 38:1 39:1 40:1 42:1 43:1 44:1 48:1 50:1 56:1 57:1 58:1 64:1 65:1 72:1 73:1 79:1 80:1 81:1 86:1 87:1 89:1 90:1 92:1 93:1 94:1 98:1 99:1 100:1 
0.1 0.1 0.1 0.1 0.1 0.1 0.1 0.1 0.1 0.1 0.1 0.1 0.1 0.1 0.1 0.1 0.1 0.1 0.1 0.1 0.05473114173618671 0.1 0.1 0.09343889491090303 0.1 30:1 31:1 32:1 37:1 38:1 40:1 45:1 46:1 48:1 52:1 53:1 54:1 56:1 59:1 60:1 62:1 63:1 66:1 67:1 68:1 70:1 73:1 74:1 77:1 78:1 81:1 84:1 85:1 89:1 91:1 92:1 97:1 98:1 99:1 
0 0 0.1 0 0 0.1 0 0 0 0.1 0.1 0 0 0 0 0 0 0 0 0 0 0 0 0 0 12:1 13:1 19:1 20:1 21:1 22:1 27:1 30:1 31:1 34:1 35:1 39:1 40:1 41:1 42:1 48:1 49:1 56:1 57:1 64:1 65:1 72:1 73:1 80:1 81:1 88:1 89:1 96:1 97:1 103:1 104:1 105:1 106:1 109:1 110:1 111:1 114:1 115:1 116:1 117:1 
0 0 0.1 0 0 0 0 0 0 0.1 0 0 0 0 0 0 0 0 0 0 0 0 0 0 0 21:1 22:1 23:1 27:1 28:1 29:1 31:1 32:1 35:1 39:1 40:1 42:1 43:1 48:1 49:1 50:1 56:1 57:1 64:1 65:1 72:1 73:1 80:1 81:1 87:1 88:1 89:1 94:1 95:1 97:1 98:1 101:1 102:1 106:1 107:1 108:1 109:1 
0.1 0.1 0.1 0 0.1 0.1 0 0.1 0 0.1 0 0.1 0 0.1 0 0 0.03198757763975252 0 0.1 0 0 0 0 0 0 35:1 36:1 37:1 43:1 45:1 46:1 47:1 48:1 49:1 50:1 51:1 52:1 53:1 54:1 55:1 56:1 57:1 58:1 64:1 65:1 72:1 73:1 80:1 81:1 82:1 87:1 90:1 91:1 92:1 93:1 94:1 95:1 
0 0.1 0.1 0 0 0 0 0 0 0.1 0 0 0 0 0 0 0 0 0 0 0 0 0 0 0 28:1 29:1 30:1 31:1 32:1 35:1 36:1 37:1 40:1 42:1 43:1 45:1 48:1 49:1 50:1 56:1 57:1 64:1 65:1 72:1 73:1 79:1 80:1 81:1 87:1 89:1 94:1 95:1 97:1 98:1 99:1 100:1 101:1 102:1 
0 0.1 0.1 0 0.1 0 0 0.1 0.1 0.1 0 0.1 0 0 0 0 0.1 0 0 0 0 0 0 0 0 36:1 37:1 38:1 39:1 40:1 42:1 43:1 44:1 48:1 49:1 50:1 56:1 57:1 64:1 65:1 71:1 72:1 73:1 79:1 81:1 85:1 86:1 87:1 89:1 90:1 91:1 92:1 93:1 
0 0 0.1 0 0 0 0 0 0 0.1 0 0 0 0 0 0 0.1 0 0 0 0 0 0 0 0 27:1 28:1 29:1 30:1 31:1 32:1 34:1 35:1 40:1 41:1 42:1 48:1 49:1 56:1 57:1 64:1 65:1 72:1 73:1 80:1 81:1 87:1 88:1 89:1 90:1 93:1 94:1 95:1 98:1 99:1 100:1 101:1 
0.1 0.1 0.1 0.1 0.1 0.1 0.1 0.1 0.0614140365695745 0.1 0.1 0.1 0.0578780783905625 0.1 0.1 0 0 0 0.1 0 0 0 0 0 0 6:1 7:1 13:1 14:1 15:1 20:1 21:1 23:1 24:1 28:1 31:1 32:1 35:1 36:1 40:1 43:1 48:1 50:1 51:1 56:1 58:1 64:1 66:1 72:1 73:1 74:1 80:1 81:1 88:1 89:1 96:1 97:1 103:1 104:1 105:1 110:1 111:1 113:1 117:1 118:1 121:1 122:1 123:1 124:1 125:1 
0.1 0.1 0.1 0 0.1 0.1 0 0.1 0.1 0.1 0 0.1 0 0.1 0 0 0.1 0.1 0 0 0 0 0 0 0.1 35:1 41:1 42:1 43:1 44:1 45:1 46:1 49:1 54:1 55:1 56:1 57:1 64:1 65:1 72:1 73:1 80:1 81:1 82:1 83:1 84:1 86:1 87:1 88:1 92:1 93:1 94:1 
0 0.1 0.1 0 0 0 0 0.1 0.1 0.1 0.1 0 0 0 0 0 0.1 0 0 0 0 0 0 0 0 20:1 21:1 22:1 23:1 24:1 27:1 28:1 32:1 34:1 40:1 41:1 42:1 48:1 49:1 56:1 57:1 64:1 65:1 72:1 73:1 80:1 81:1 88:1 89:1 96:1 97:1 98:1 99:1 100:1 101:1 102:1 103:1 104:1 106:1 
0.1 0.1 0.1 0.1 0.1 0.1 0.1 0.1 0.1 0.1 0.1 0.1 0.1 0.1 0.1 0.1 0.1 0.1 0.1 0.1 0.1 0 0.1 0 0.1 5:1 6:1 13:1 14:1 15:1 23:1 26:1 31:1 34:1 39:1 42:1 47:1 50:1 55:1 58:1 63:1 66:1 71:1 74:1 79:1 82:1 87:1 90:1 95:1 98:1 102:1 103:1 106:1 110:1 114:1 118:1 123:1 124:1 125:1 126:1 
0.1 0.1 0.1 0 0 0.1 0 0.1 0.1 0.1 0 0 0 0 0 0 0 0 0 0 0 0.01472215288177144 0 0 0 29:1 30:1 35:1 36:1 37:1 38:1 39:1 42:1 43:1 44:1 45:1 46:1 50:1 51:1 52:1 54:1 55:1 57:1 58:1 63:1 64:1 65:1 72:1 73:1 80:1 81:1 87:1 88:1 89:1 92:1 93:1 94:1 95:1 97:1 98:1 99:1 100:1 
0.1 0.1 0.1 0.1 0.1 0.1 0.05918367346938776 0.1 0 0.1 0.1 0.1 0.06788243830971367 0.1 0.07937588802598691 0.1 0.1 0 0.1 0 0 0 0 0 0.1 22:1 23:1 24:1 29:1 30:1 32:1 35:1 36:1 37:1 40:1 43:1 48:1 51:1 56:1 58:1 59:1 64:1 66:1 71:1 72:1 73:1 74:1 78:1 79:1 81:1 85:1 86:1 89:1 92:1 93:1 97:1 99:1 100:1 105:1 106:1 107:1 
-0.1 0.1 0.1 0.1 0.1 0.1 0.1 0.1 0.1 0.1 0.1 0.1 0.1 0.1 0.1 0 0.1 0.1 0.1 0.08276634043506473 0 0 0.1 0 0.1 50:1 51:1 52:1 53:1 54:1 55:1 57:1 58:1 60:1 61:1 63:1 64:1 65:1 67:1 68:1 72:1 73:1 75:1 76:1 80:1 
-0.1 0.1 0.1 0.1 0.1 0.1 0.1 0.1 0.1 0.1 0.1 0.1 0.1 0.1 0.1 0.1 0.1 0.1 0.1 0.1 0 0 0.1 0 0.1 49:1 50:1 51:1 54:1 55:1 57:1 59:1 61:1 62:1 63:1 65:1 67:1 68:1 69:1 71:1 73:1 76:1 79:1 80:1 
-0.1 0.1 0.1 0.1 0.1 0.1 0.1 0.1 0.1 0.1 0.1 0.1 0.1 0.1 0.1 0.1 0.1 0.1 0.1 0.1 0 0 0.1 0.1 0.1 47:1 49:1 52:1 53:1 55:1 56:1 57:1 59:1 60:1 61:1 62:1 63:1 64:1 65:1 66:1 67:1 69:1 70:1 72:1 74:1 75:1 77:1 78:1 80:1 82:1 
-0.1 0.1 0.1 0.1 0.1 0.1 0.1 0.1 0.1 0.1 0.1 0.1 0.1 0.1 0.1 0.1 0.1 0.09047619047618992 0.1 0.1 0 0 0.1 0.0342527772167955 0.1 41:1 49:1 52:1 53:1 55:1 57:1 59:1 60:1 61:1 63:1 64:1 65:1 67:1 69:1 70:1 71:1 72:1 73:1 74:1 75:1 77:1 78:1 80:1 81:1 82:1 
-0.1 0.1 0.1 0.1 0.1 0.1 0.1 0.1 0.1 0.1 0.1 0.1 0.1 0.1 0.1 0.1 0.1 0.1 0.1 0.1 0.1 0 0 0 0.1 49:1 57:1 58:1 59:1 60:1 61:1 62:1 63:1 65:1 66:1 69:1 71:1 72:1 73:1 
-0.1 0.1 0.1 0.1 0.1 0.1 0.1 0.1 0.1 0.1 0.1 0.1 0.1 0.1 0.1 0.1 0.1 0.1 0.1 0.1 0.07999999999999924 0 0 0 0.1 49:1 57:1 58:1 59:1 60:1 61:1 62:1 63:1 64:1 65:1 68:1 69:1 72:1 80:1 
-0.1 0.1 0.1 0 0.1 0.1 0 0.1 0.1 0.1 0.1 0.1 0 0.1 0.1 0 0.1 0 0.1 0 0 0 0 0 0 49:1 51:1 52:1 54:1 55:1 57:1 58:1 59:1 60:1 61:1 62:1 63:1 64:1 65:1 66:1 69:1 72:1 74:1 77:1 80:1 
-0.1 0.1 0.1 0.1 0.1 0.1 0.1 0.1 0.1 0.1 0.1 0.1 0.1 0.1 0.1 0.1 0.1 0.1 0.1 0.1 0 0 0.006635383617276214 0 0.1 49:1 53:1 54:1 55:1 57:1 58:1 59:1 60:1 61:1 63:1 64:1 65:1 67:1 68:1 72:1 73:1 75:1 80:1 
-0.1 0.1 0.1 0.1 0.1 0.1 0 0.1 0.1 0.1 0.1 0.1 0.1 0.1 0.1 0.04354657687990735 0.1 0.1 0.1 0 0 0 0 0 0.1 50:1 51:1 52:1 54:1 55:1 56:1 57:1 58:1 60:1 61:1 62:1 64:1 65:1 68:1 69:1 72:1 73:1 
-0.1 0.1 0.1 0.1 0.1 0.1 0.1 0.1 0.1 0.1 0.1 0.1 0.1 0.1 0.1 0 0.1 0.1 0.1 0 0.02592852870813545 0 0 0 0.09444444444444855 51:1 52:1 54:1 55:1 56:1 58:1 59:1 60:1 61:1 62:1 64:1 65:1 66:1 69:1 72:1 73:1 77:1 80:1 
-0.1 0.1 0.1 0 0.1 0.1 0 0.1 0.1 0.1 0 0.1 0 0.1 0 0 0.1 0 0.1 0 0 0 0 0 0 41:1 46:1 47:1 49:1 50:1 51:1 52:1 53:1 54:1 55:1 57:1 58:1 60:1 61:1 63:1 65:1 66:1 68:1 69:1 71:1 72:1 73:1 74:1 77:1 80:1 82:1 88:1 
-0.1 0.1 0.1 0.1 0.1 0.1 0.1 0.1 0.1 0.1 0.1 0.1 0 0.1 0.1 0 0.1 0 0.1 0 0 0 0.1 0 0.1 49:1 50:1 51:1 53:1 54:1 56:1 57:1 58:1 59:1 60:1 61:1 62:1 63:1 64:1 65:1 67:1 68:1 70:1 71:1 72:1 73:1 75:1 76:1 78:1 79:1 
-0.1 0.1 0.1 0.1 0.1 0.1 0.1 0.1 0.1 0.1 0.1 0.1 0 0.1 0.1 0.1 0.1 0.1 0.1 0.1 0 0 0 0 0.1 42:1 47:1 50:1 54:1 55:1 57:1 58:1 59:1 61:1 62:1 63:1 65:1 67:1 68:1 69:1 71:1 72:1 73:1 80:1 81:1 88:1 
-0.1 0.1 0.1 0.1 0.1 0.1 0.1 0.1 0.1 0.1 0.1 0.1 0.1 0.1 0.1 0.1 0.1 0.1 0.1 0.1 0.1 0.05042016806722713 0.1 0 0.1 42:1 49:1 50:1 53:1 54:1 57:1 58:1 60:1 61:1 62:1 65:1 66:1 67:1 68:1 70:1 73:1 78:1 79:1 81:1 87:1 88:1 
-0.1 0.1 0.1 0 0.1 0.1 0 0.1 0.1 0.1 0 0.1 0 0.08038095238095243 0 0 0.1 0.0164021164021172 0 0 0 0 0 0 0 33:1 34:1 36:1 37:1 41:1 44:1 45:1 49:1 51:1 52:1 53:1 54:1 55:1 56:1 57:1 58:1 59:1 60:1 61:1 62:1 64:1 65:1 66:1 68:1 69:1 70:1 72:1 73:1 74:1 76:1 77:1 80:1 81:1 84:1 88:1 89:1 96:1 
-0.1 0.1 0.1 0 0.1 0.1 0 0.1 0.1 0.1 0.1 0.1 0 0.01600000000000051 0 0 0.1 0 0.1 0 0 0 0 0 0 41:1 44:1 47:1 48:1 49:1 51:1 52:1 54:1 55:1 56:1 57:1 58:1 59:1 60:1 61:1 62:1 64:1 65:1 66:1 68:1 69:1 71:1 72:1 73:1 76:1 79:1 81:1 87:1 88:1 
-0.1 0.1 0.1 0 0.1 0.1 0 0.1 0.1 0.1 0.1 0.1 0 0.1 0.1 0 0.1 0 0.1 0 0 0 0 0.1 0 49:1 50:1 51:1 52:1 53:1 54:1 55:1 56:1 57:1 60:1 61:1 64:1 65:1 68:1 72:1 73:1 76:1 80:1 
-0.1 0.1 0.1 0 0.1 0.1 0 0.1 0.1 0.1 0.1 0.1 0 0.1 0.1 0 0.1 0 0.1 0 0 0 0 0 0 41:1 42:1 43:1 46:1 49:1 51:1 52:1 53:1 54:1 55:1 56:1 57:1 60:1 64:1 65:1 68:1 72:1 73:1 76:1 80:1 81:1 88:1 
-0.1 0.1 0.1 0 0.1 0.1 0 0.1 0.1 0.1 0 0.1 0 0.1 0 0 0.1 0 0.1 0 0 0 0 0 0 43:1 44:1 45:1 47:1 48:1 50:1 51:1 52:1 53:1 54:1 55:1 56:1 58:1 59:1 61:1 62:1 64:1 65:1 66:1 68:1 69:1 72:1 73:1 76:1 77:1 80:1 81:1 88:1 
-0.1 0.1 0.1 0 0.1 0.1 0 0.1 0.1 0.1 0 0.1 0 0.1 0 0 0.1 0 0.1 0 0 0 0 0 0 43:1 44:1 45:1 47:1 48:1 50:1 51:1 53:1 54:1 55:1 56:1 57:1 58:1 60:1 61:1 62:1 64:1 65:1 66:1 68:1 69:1 72:1 73:1 76:1 80:1 81:1 88:1 
-0.1 0.1 0.1 0.1 0.1 0.1 0 0.1 0.1 0.1 0.1 0.1 0.02865454545454687 0.1 0.1 0.06313131313131272 0.1 0.1 0.1 0 0 0 0 0 0.07865497076023339 44:1 45:1 47:1 48:1 49:1 51:1 52:1 53:1 54:1 55:1 56:1 57:1 59:1 61:1 62:1 64:1 65:1 66:1 67:1 69:1 70:1 72:1 74:1 80:1 82:1 
-0.1 0.1 0.1 0.1 0.1 0.1 0.1 0.1 0.1 0.1 0.1 0.1 0 0.1 0.1 0.1 0.1 0.1 0.1 0 0 0 0.05745981001095975 0 0.1 47:1 48:1 49:1 51:1 52:1 54:1 55:1 56:1 57:1 58:1 59:1 60:1 61:1 62:1 64:1 66:1 67:1 69:1 70:1 72:1 74:1 77:1 80:1 82:1 
-0.1 0.1 0.1 0.1 0.1 0.1 0.1 0.1 0.1 0.1 0.1 0.1 0.1 0.1 0.1 0.1 0.1 0.1 0.1 0.1 0.1 0.1 0.1 0.08783194304548854 0.1 24:1 31:1 32:1 34:1 35:1 39:1 40:1 42:1 43:1 47:1 50:1 51:1 55:1 58:1 59:1 63:1 65:1 66:1 67:1 70:1 71:1 73:1 75:1 78:1 79:1 81:1 83:1 86:1 87:1 89:1 91:1 92:1 94:1 95:1 96:1 97:1 100:1 101:1 104:1 105:1 
-0.1 0.1 0.1 0.1 0.1 0.1 0.1 0.1 0.1 0.1 0.1 0.1 0.1 0.1 0.1 0.1 0.1 0.1 0.1 0.1 0 0.06588760504201599 0.1 0 0.1 34:1 35:1 38:1 39:1 42:1 43:1 46:1 47:1 49:1 50:1 51:1 53:1 54:1 55:1 57:1 59:1 61:1 63:1 65:1 67:1 68:1 69:1 71:1 73:1 75:1 76:1 79:1 81:1 83:1 84:1 87:1 89:1 91:1 92:1 95:1 96:1 99:1 104:1 
-0.1 0.1 0.1 0.1 0.1 0.1 0.1 0.1 0.1 0.1 0.1 0.1 0.1 0.1 0.1 0.1 0.1 0.1 0.1 0.1 0.0833333333333334 0.0600143861892591 0.1 0 0.1 37:1 38:1 39:1 45:1 47:1 50:1 51:1 52:1 53:1 55:1 56:1 57:1 58:1 60:1 61:1 64:1 65:1 66:1 69:1 72:1 73:1 74:1 77:1 82:1 85:1 90:1 
-0.1 0.1 0.1 0.1 0.1 0.1 0 0.1 0.1 0.1 0.1 0.1 0 0.1 0.1 0.1 0.1 0 0.1 0 0 0 0.1 0 0.1 37:1 38:1 39:1 41:1 42:1 44:1 45:1 47:1 49:1 50:1 51:1 52:1 55:1 56:1 57:1 60:1 64:1 65:1 68:1 69:1 72:1 73:1 76:1 77:1 80:1 81:1 89:1 
-0.1 0.1 0.1 0.1 0.1 0.1 0.1 0.1 0.1 0.1 0.1 0.1 0.1 0.1 0.1 0.1 0.1 0 0.1 0.1 0 0 0 0 0.1 49:1 54:1 55:1 57:1 58:1 59:1 62:1 63:1 65:1 66:1 67:1 68:1 69:1 70:1 71:1 72:1 73:1 76:1 77:1 80:1 
-0.1 0.1 0.1 0.1 0.1 0.1 0.1 0.1 0.1 0.1 0.1 0.1 0.1 0.1 0.1 0.1 0.1 0.1 0.1 0.1 0 0 0.1 0 0.1 49:1 50:1 53:1 54:1 57:1 58:1 59:1 60:1 61:1 62:1 63:1 65:1 66:1 67:1 68:1 71:1 73:1 74:1 79:1 80:1 
-0.1 0.1 0.1 0.1 0.1 0.1 0.1 0.1 0.1 0.1 0.1 0.1 0.1 0.1 0.1 0.1 0.1 0.1 0.1 0 0 0 0.1 0 0.1 49:1 50:1 51:1 53:1 54:1 55:1 57:1 59:1 60:1 61:1 63:1 64:1 65:1 67:1 68:1 72:1 80:1 
-0.1 0.1 0.1 0.1 0.1 0.1 0.1 0.1 0.1 0.1 0.1 0.1 0.1 0.1 0.1 0.1 0.1 0.1 0.1 0.05999621386357384 0.1 0.03411239495798402 0.1 0 0.1 49:1 50:1 51:1 52:1 53:1 54:1 55:1 57:1 59:1 60:1 63:1 64:1 65:1 68:1 72:1 80:1 
-0.1 0.1 0.1 0.1 0.1 0.1 0.1 0.1 0.1 0.1 0.1 0.1 0.1 0.1 0.1 0.1 0.1 0.1 0.1 0.1 0 0.1 0.1 0.02072884421190764 0.1 10:1 11:1 18:1 19:1 25:1 26:1 27:1 30:1 31:1 32:1 33:1 34:1 35:1 38:1 40:1 41:1 43:1 45:1 46:1 48:1 49:1 51:1 52:1 53:1 56:1 57:1 60:1 61:1 64:1 65:1 68:1 69:1 72:1 73:1 76:1 77:1 80:1 81:1 84:1 88:1 89:1 92:1 96:1 97:1 100:1 104:1 105:1 112:1 113:1 120:1 
-0.1 0.1 0.1 0.1 0.1 0.1 0.1 0.1 0.1 0.1 0.1 0.1 0.1 0.1 0.1 0.1 0.1 0.1 0.1 0 0 0 0.1 0 0.1 31:1 32:1 34:1 35:1 38:1 39:1 40:1 41:1 42:1 43:1 44:1 45:1 46:1 48:1 49:1 50:1 52:1 53:1 56:1 57:1 58:1 60:1 61:1 64:1 65:1 66:1 68:1 69:1 72:1 73:1 76:1 80:1 81:1 84:1 88:1 89:1 92:1 96:1 97:1 
-0.1 0.1 0.1 0.1 0.1 0.1 0.1 0.1 0.1 0.1 0.1 0.1 0.1 0.1 0.1 0.1 0.1 0.1 0.1 0.1 0.09353269537480054 0.1 0.1 0 0.1 33:1 35:1 36:1 39:1 40:1 41:1 42:1 43:1 44:1 45:1 46:1 47:1 48:1 49:1 50:1 53:1 54:1 56:1 58:1 61:1 62:1 64:1 66:1 69:1 70:1 72:1 74:1 77:1 80:1 82:1 85:1 88:1 90:1 93:1 
-0.1 0.1 0.1 0.1 0.1 0.1 0.1 0.1 0.1 0.1 0.1 0.1 0.1 0.1 0.1 0.1 0.1 0.1 0.1 0.04896340199494174 0 0 0 0 0.1 51:1 52:1 55:1 56:1 58:1 59:1 60:1 62:1 63:1 64:1 65:1 66:1 68:1 69:1 70:1 72:1 73:1 74:1 80:1 
-0.1 0.1 0.1 0.1 0.1 0.1 0 0.1 0.1 0.1 0.1 0.1 0 0.1 0 0 0.1 0 0.1 0 0 0 0 0 0.1 41:1 44:1 46:1 49:1 51:1 52:1 54:1 55:1 57:1 59:1 60:1 62:1 63:1 65:1 66:1 67:1 68:1 69:1 70:1 71:1 72:1 73:1 74:1 77:1 80:1 81:1 82:1 
-0.1 0.1 0.1 0.1 0.1 0.1 0 0.1 0.1 0.1 0.1 0.1 0 0.1 0.1 0 0.1 0 0.1 0 0 0 0 0 0 36:1 37:1 40:1 44:1 45:1 47:1 48:1 49:1 51:1 52:1 53:1 55:1 56:1 57:1 59:1 61:1 62:1 63:1 64:1 65:1 66:1 69:1 70:1 72:1 73:1 74:1 77:1 78:1 80:1 81:1 85:1 88:1 89:1 96:1 
-0.1 0.1 0.1 0.1 0.1 0.1 0.1 0.1 0.1 0.1 0.1 0.1 0.1 0.1 0.1 0.1 0.1 0.1 0.1 0.1 0 0 0 0 0.1 33:1 41:1 49:1 50:1 51:1 57:1 58:1 59:1 60:1 62:1 63:1 65:1 68:1 69:1 70:1 71:1 73:1 76:1 77:1 79:1 80:1 81:1 84:1 85:1 88:1 92:1 93:1 
-0.1 0.1 0.1 0 0.1 0.1 0 0.1 0.1 0.1 0.1 0.1 0 0.1 0 0 0.1 0 0.1 0 0 0 0 0 0 49:1 50:1 51:1 52:1 54:1 55:1 56:1 57:1 58:1 60:1 61:1 62:1 64:1 65:1 68:1 69:1 72:1 73:1 76:1 80:1 
-0.1 0.1 0.1 0 0.1 0.1 0 0.1 0.1 0.1 0.1 0.1 0 0 0 0 0.1 0 0.1 0 0 0 0 0 0 33:1 34:1 35:1 41:1 42:1 43:1 46:1 47:1 48:1 49:1 50:1 51:1 53:1 54:1 56:1 57:1 58:1 59:1 60:1 61:1 64:1 65:1 67:1 68:1 72:1 73:1 80:1 81:1 88:1 89:1 
-0.1 0.1 0.1 0 0.1 0.1 0 0.1 0.1 0.1 0 0.1 0 0 0 0 0.1 0 0.1 0 0 0 0 0 0 33:1 41:1 43:1 44:1 46:1 47:1 49:1 50:1 51:1 52:1 53:1 54:1 55:1 56:1 57:1 58:1 60:1 61:1 64:1 65:1 66:1 68:1 72:1 73:1 74:1 76:1 80:1 81:1 84:1 88:1 89:1 96:1 
-0.1 0.1 0.1 0.1 0.1 0.1 0.1 0.1 0.1 0.1 0.1 0.1 0.1 0.1 0.1 0.1 0.1 0.1 0.1 0.1 0 0.1 0.1 0.03272571944949189 0.1 17:1 19:1 20:1 25:1 26:1 27:1 28:1 31:1 32:1 33:1 34:1 36:1 38:1 39:1 40:1 41:1 42:1 44:1 46:1 48:1 49:1 50:1 52:1 54:1 56:1 57:1 60:1 61:1 62:1 64:1 65:1 68:1 69:1 72:1 73:1 76:1 77:1 80:1 81:1 84:1 85:1 88:1 89:1 92:1 96:1 104:1 112:1 
-0.1 0.1 0.1 0.1 0.1 0.1 0.1 0.1 0.1 0.1 0.1 0.1 0.1 0.1 0.1 0.1 0.1 0.1 0.1 0.1 0.02646730462520022 0.1 0.1 0 0.1 21:1 22:1 28:1 29:1 30:1 36:1 37:1 38:1 41:1 42:1 43:1 44:1 46:1 49:1 50:1 51:1 54:1 57:1 58:1 59:1 62:1 65:1 70:1 71:1 72:1 73:1 81:1 89:1 97:1 105:1 
-0.1 0.1 0.1 0.04948638564737828 0.1 0.1 0 0.1 0.1 0.1 0 0.1 0 0.1 0.1 0 0.1 0 0.1 0 0 0 0 0 0 46:1 47:1 50:1 51:1 52:1 53:1 54:1 55:1 56:1 57:1 58:1 60:1 61:1 64:1 65:1 69:1 72:1 73:1 77:1 80:1 81:1 
-0.1 0.1 0.1 0 0.1 0.1 0 0.1 0.1 0.1 0 0.1 0 0 0 0 0.1 0 0.1 0 0 0 0 0 0 41:1 42:1 43:1 45:1 46:1 47:1 49:1 50:1 51:1 52:1 53:1 55:1 57:1 58:1 60:1 61:1 63:1 64:1 65:1 66:1 68:1 69:1 72:1 73:1 74:1 76:1 80:1 81:1 84:1 88:1 
-0.1 0.1 0.1 0.1 0.1 0.1 0.1 0.1 0.1 0.1 0.1 0.1 0.1 0.1 0.1 0.1 0.1 0.1 0.1 0.1 0.1 0.02569989952502716 0 0 0.1 49:1 50:1 51:1 54:1 55:1 57:1 59:1 60:1 61:1 62:1 63:1 65:1 71:1 72:1 73:1 
-0.1 0.1 0.1 0 0.1 0.1 0 0.1 0.1 0.1 0 0.1 0 0 0 0 0.1 0 0 0 0 0 0 0 0 42:1 44:1 45:1 47:1 48:1 49:1 50:1 51:1 52:1 53:1 54:1 55:1 56:1 57:1 58:1 59:1 60:1 61:1 62:1 64:1 65:1 66:1 68:1 69:1 72:1 73:1 76:1 77:1 80:1 84:1 88:1 
-0.1 0.1 0.1 0 0.1 0.1 0.1 0.1 0.1 0.1 0 0.1 0 0.03063945578231127 0 0 0.1 0.05714285714286201 0.1 0.1 0 0 0.1 0 0.1 35:1 39:1 41:1 42:1 43:1 44:1 46:1 47:1 48:1 49:1 50:1 52:1 53:1 54:1 56:1 57:1 58:1 60:1 61:1 64:1 65:1 66:1 68:1 69:1 72:1 73:1 74:1 76:1 77:1 80:1 81:1 82:1 84:1 85:1 88:1 89:1 90:1 96:1 
-0.1 0.1 0.1 0 0.1 0.1 0 0.1 0.1 0.1 0 0.1 0 0.1 0 0 0.1 0 0.1 0 0 0 0 0.008539229670080316 0 49:1 50:1 51:1 52:1 55:1 56:1 57:1 58:1 60:1 62:1 63:1 64:1 65:1 66:1 68:1 69:1 70:1 72:1 73:1 74:1 76:1 77:1 80:1 
-0.1 0.1 0.1 0 0.1 0.1 0.1 0.1 0.1 0.1 0.1 0.1 0.1 0.1 0.1 0.1 0.1 0 0.1 0.1 0 0 0 0 0.1 49:1 50:1 51:1 52:1 53:1 54:1 55:1 57:1 59:1 60:1 63:1 64:1 65:1 66:1 68:1 72:1 73:1 74:1 
-0.1 0.1 0.1 0 0.1 0.1 0 0.1 0.1 0.1 0 0.1 0 0.1 0 0 0.1 0 0.1 0 0 0 0 0 0 46:1 47:1 48:1 49:1 50:1 51:1 53:1 54:1 56:1 57:1 58:1 59:1 60:1 61:1 64:1 65:1 68:1 69:1 72:1 73:1 76:1 80:1 81:1 84:1 88:1 
-0.1 0.1 0.1 0.1 0.1 0.1 0.1 0.1 0.1 0.1 0.1 0.1 0.1 0.1 0.1 0.1 0.1 0.1 0.1 0.1 0.1 0.1 0.1 0 0.1 49:1 57:1 58:1 59:1 60:1 61:1 65:1 66:1 67:1 68:1 69:1 70:1 71:1 79:1 80:1 
-0.1 0.1 0.1 0.1 0.1 0.1 0.1 0.1 0.1 0.1 0.1 0.1 0.1 0.1 0.1 0.1 0.1 0.1 0.1 0.1 0 0 0.1 0.01958778253197743 0.1 37:1 38:1 39:1 42:1 43:1 44:1 45:1 47:1 48:1 49:1 50:1 52:1 53:1 56:1 57:1 60:1 64:1 65:1 68:1 72:1 73:1 76:1 80:1 81:1 84:1 88:1 89:1 92:1 96:1 
-0.1 0.1 0.1 0.1 0.1 0.1 0.1 0.1 0.1 0.1 0.1 0.1 0.1 0.1 0.1 0.1 0.1 0.1 0.1 0.1 0 0 0.1 0.0584528416421097 0.1 33:1 41:1 44:1 45:1 46:1 47:1 48:1 49:1 52:1 54:1 55:1 56:1 57:1 59:1 60:1 62:1 64:1 65:1 67:1 69:1 70:1 72:1 73:1 74:1 75:1 77:1 78:1 80:1 81:1 82:1 84:1 85:1 88:1 89:1 92:1 93:1 96:1 
-0.1 0.1 0.1 0.1 0.1 0.1 0.1 0.1 0.1 0.1 0.1 0.1 0.1 0.1 0.1 0.1 0.1 0.1 0.1 0 0 0 0.1 0 0.1 31:1 39:1 40:1 42:1 43:1 46:1 47:1 48:1 50:1 51:1 54:1 56:1 58:1 59:1 62:1 64:1 65:1 66:1 67:1 68:1 69:1 70:1 72:1 73:1 76:1 77:1 80:1 81:1 88:1 89:1 97:1 
-0.1 0.1 0.1 0 0.1 0.1 0 0.1 0.1 0.1 0 0.1 0 0.1 0.1 0.1 0.1 0 0.1 0 0 0 0 0 0.1 38:1 39:1 41:1 42:1 46:1 47:1 48:1 49:1 50:1 54:1 56:1 57:1 58:1 59:1 61:1 62:1 64:1 65:1 67:1 68:1 69:1 72:1 73:1 76:1 80:1 81:1 89:1 
-0.1 0.1 0.1 0.1 0.1 0.1 0.04593450028231822 0.1 0.1 0.1 0.1 0.1 0.1 0.1 0.1 0 0.1 0.1 0.1 0 0 0 0 0 0.1 54:1 55:1 56:1 57:1 58:1 59:1 60:1 61:1 62:1 64:1 65:1 66:1 68:1 69:1 72:1 73:1 76:1 80:1 
